,0,1,2,3,4,5,6,7,8,9,10,11,12,13,14,15,16,17,18,19,20,21,22,23,24,25,26,27,28,29,30,31,32,33,34,35,36,37,38,39
0,-0.567543625831604,3.178919553756714,0.7334132790565491,-0.6702244877815247,-0.006274821702390909,-0.014471386559307575,0.0625,-0.0625,0.403343141078949,0.017617804929614067,1.0151861906051636,-0.14053142070770264,0.0025881382171064615,0.002452504588291049,0.0010329735232517123,-1.375400309052907e-13,-0.1290375292301178,-0.0185284074395895,1.0047895908355713,-0.03013572096824646,-0.003134232945740223,-0.012534359470009804,0.0017994120717048645,-0.005128378048539162,0.3802412748336792,-0.011626170016825199,0.9467688202857971,1.2783203125,-0.0010954884346574545,0.0012767198495566845,0.9999432563781738,0.998291015625,-0.06921155750751495,0.0012031751684844494,1.0282819271087646,0.9982472062110901,-0.00027090319781564176,8.434469054918736e-05,0.9979968667030334,-0.0001756121637299657
1,-0.5147210955619812,3.2317421436309814,0.7862358093261719,-0.7230468392372131,-0.059097371995449066,0.038351189345121384,0.1153225526213646,-0.11532245576381683,0.35052061080932617,0.070440374314785,1.0680087804794312,-0.08770885318517685,-0.050234436988830566,-0.05037001147866249,-0.05178959295153618,-0.052822548896074295,-0.18186010420322418,0.034294020384550095,1.0576121807098389,-0.08295793831348419,0.049688342958688736,-0.06535691022872925,0.054621949791908264,-0.057950954884290695,0.3274187445640564,0.04119640588760376,0.9995914101600647,1.3311429023742676,-0.05391806364059448,-0.05154574662446976,1.0527658462524414,1.0511136054992676,-0.12203412503004074,-0.05161938816308975,0.9760035276412964,1.051069736480713,0.05255167558789253,0.052906930446624756,1.0508195161819458,-0.05299818515777588
2,-0.501266360282898,3.2177133560180664,0.8013002276420593,-0.6851527094841003,-0.10056643187999725,0.06254636496305466,0.16423656046390533,-0.16727317869663239,0.3131997585296631,0.10725688934326172,1.1098909378051758,-0.04932989552617073,-0.0838678777217865,-0.07191123813390732,-0.08881035447120667,-0.087319016456604,-0.2264527529478073,0.020510200411081314,1.0738455057144165,-0.03597269579768181,0.0840403214097023,-0.06359770148992538,0.10476750880479813,-0.09971340745687485,0.30281510949134827,0.07354746758937836,1.0407148599624634,1.370274305343628,-0.08710223436355591,-0.07803100347518921,1.0822031497955322,1.0844906568527222,-0.163143590092659,-0.0947173684835434,0.9237414598464966,1.0994865894317627,0.08655950427055359,0.09047696739435196,1.0994071960449219,-0.08755936473608017
3,-0.4992547035217285,3.1744542121887207,0.7996470928192139,-0.7313007116317749,-0.13979704678058624,0.08041342347860336,0.21043038368225098,-0.21270953118801117,0.2864011824131012,0.13700805604457855,1.1449064016342163,-0.01955416426062584,-0.108528271317482,-0.08905619382858276,-0.1195668950676918,-0.11920507252216339,-0.2608874440193176,-0.01852310262620449,1.0738605260849,-0.08120734244585037,0.1078706830739975,-0.048820048570632935,0.1524823009967804,-0.13857401907444,0.27197718620300293,0.09395549446344376,1.0746996402740479,1.3999080657958984,-0.11794552206993103,-0.08789323270320892,1.0971260070800781,1.1033780574798584,-0.19691771268844604,-0.13217733800411224,0.9729446172714233,1.1440075635910034,0.11826206743717194,0.12529949843883514,1.1409803628921509,-0.11674318462610245
4,-0.5035573244094849,3.1879079341888428,0.7748622298240662,-0.7526072263717651,-0.1786576360464096,0.0808911919593811,0.2535460591316223,-0.25518476963043213,0.2640804648399353,0.15372256934642792,1.1766105890274048,0.006368787027895451,-0.12683242559432983,-0.06870386749505997,-0.14331060647964478,-0.15357355773448944,-0.2925548553466797,-0.054558899253606796,1.0456500053405762,-0.10596596449613571,0.12209118157625198,-0.00934035237878561,0.19920021295547485,-0.17665712535381317,0.24433456361293793,0.09511695802211761,1.106781244277954,1.4254740476608276,-0.14550435543060303,-0.07870501279830933,1.1124041080474854,1.1200475692749023,-0.22729447484016418,-0.1643577665090561,1.0342499017715454,1.183158278465271,0.14213727414608002,0.1556279957294464,1.1812039613723755,-0.13577544689178467
5,-0.503834068775177,3.2365970611572266,0.7514181137084961,-0.7901808023452759,-0.21988458931446075,0.0733335092663765,0.29386699199676514,-0.2915025055408478,0.24149566888809204,0.16029959917068481,1.203490138053894,0.0277571938931942,-0.13784225285053253,-0.044392965734004974,-0.1565805971622467,-0.19224503636360168,-0.31946128606796265,-0.09115171432495117,1.0146312713623047,-0.15175668895244598,0.12251204997301102,0.03333675488829613,0.24285991489887238,-0.21342496573925018,0.2165881097316742,0.08597882091999054,1.135190486907959,1.4462107419967651,-0.17079123854637146,-0.08694446831941605,1.1346685886383057,1.1346060037612915,-0.2510281205177307,-0.1947038173675537,1.09574556350708,1.2152671813964844,0.1635977327823639,0.18358351290225983,1.2181376218795776,-0.14719319343566895
6,-0.4988456666469574,3.2978804111480713,0.7290940284729004,-0.8063698410987854,-0.26231685280799866,0.05771513283252716,0.33124127984046936,-0.3204860985279083,0.21606643497943878,0.15505890548229218,1.2248724699020386,0.04386896267533302,-0.14100874960422516,-0.030870674178004265,-0.156525656580925,-0.23601147532463074,-0.3447650372982025,-0.12945839762687683,0.9838690161705017,-0.1898026466369629,0.11010907590389252,0.07732998579740524,0.28309935331344604,-0.24861282110214233,0.19053906202316284,0.0694066509604454,1.1599558591842651,1.460766077041626,-0.19098758697509766,-0.11986292153596878,1.1670172214508057,1.1515752077102661,-0.2680029571056366,-0.226110577583313,1.1576296091079712,1.2411091327667236,0.1818186640739441,0.20879849791526794,1.2524404525756836,-0.14779606461524963
7,-0.4913533926010132,3.3583898544311523,0.7095470428466797,-0.8320237398147583,-0.3037313222885132,0.04213113710284233,0.36593642830848694,-0.34175774455070496,0.18915225565433502,0.14187289774417877,1.2406361103057861,0.05568717047572136,-0.13710497319698334,-0.038854409009218216,-0.14553415775299072,-0.2825941741466522,-0.3700634837150574,-0.1656864732503891,0.9564995765686035,-0.2391551434993744,0.08867479115724564,0.11852030456066132,0.3197270929813385,-0.28216537833213806,0.16522900760173798,0.05092054232954979,1.182279348373413,1.4674389362335205,-0.20673613250255585,-0.1665634959936142,1.1997497081756592,1.1673332452774048,-0.27816927433013916,-0.2600882053375244,1.2203834056854248,1.263077735900879,0.1987033635377884,0.23321115970611572,1.283294677734375,-0.1420886218547821
8,-0.47579583525657654,3.419552803039551,0.6928641200065613,-0.8397678136825562,-0.3442286550998688,0.02718115970492363,0.39648258686065674,-0.3550974130630493,0.162986159324646,0.12394354492425919,1.2505555152893066,0.06481636315584183,-0.12948378920555115,-0.05745744705200195,-0.12588131427764893,-0.3305889666080475,-0.39798229932785034,-0.19520454108715057,0.9326919913291931,-0.27852270007133484,0.06281258165836334,0.1578482836484909,0.35200008749961853,-0.3138783574104309,0.14314210414886475,0.033277302980422974,1.2032780647277832,1.4649131298065186,-0.21686705946922302,-0.21324065327644348,1.2294644117355347,1.1898270845413208,-0.2837814390659332,-0.2957843542098999,1.2845786809921265,1.2828025817871094,0.21433165669441223,0.25623074173927307,1.3108035326004028,-0.13104325532913208
9,-0.4573793113231659,3.4754090309143066,0.6829174757003784,-0.8779381513595581,-0.38016214966773987,0.019573118537664413,0.42215657234191895,-0.36150044202804565,0.13869553804397583,0.10725358128547668,1.2550896406173706,0.07478837668895721,-0.12059318274259567,-0.07957391440868378,-0.10090933740139008,-0.37868180871009827,-0.42783963680267334,-0.21809864044189453,0.9138256311416626,-0.3280109465122223,0.034838803112506866,0.19468113780021667,0.3798070549964905,-0.34355244040489197,0.1276814192533493,0.020834065973758698,1.2249937057495117,1.4550154209136963,-0.22362461686134338,-0.25715288519859314,1.2470258474349976,1.2132182121276855,-0.2840471565723419,-0.33257704973220825,1.3491992950439453,1.3026254177093506,0.23072174191474915,0.27913758158683777,1.3338804244995117,-0.12426630407571793
10,-0.4249417781829834,3.5326287746429443,0.6809744834899902,-0.8730533719062805,-0.4139023721218109,0.011583122424781322,0.44171255826950073,-0.36078983545303345,0.11531971395015717,0.09221044927835464,1.2531577348709106,0.08572864532470703,-0.11317838728427887,-0.0958360806107521,-0.07089591026306152,-0.4260188043117523,-0.45951351523399353,-0.2368745058774948,0.89910489320755,-0.34125131368637085,0.006718363147228956,0.23358337581157684,0.40293681621551514,-0.3710055947303772,0.11956849694252014,0.012921355664730072,1.2462519407272339,1.4379478693008423,-0.2237541675567627,-0.2912900447845459,1.2556090354919434,1.248374342918396,-0.28164607286453247,-0.36858925223350525,1.4145042896270752,1.3220338821411133,0.24675974249839783,0.29933181405067444,1.3529750108718872,-0.11844892054796219
11,-0.4066063165664673,3.578427791595459,0.6891087889671326,-0.9441537857055664,-0.43674129247665405,0.01633177325129509,0.4568180739879608,-0.3543008267879486,0.09262127429246902,0.08346252888441086,1.247143030166626,0.10259521007537842,-0.10527947545051575,-0.10461939126253128,-0.03864268586039543,-0.4725607633590698,-0.48905009031295776,-0.25398826599121094,0.8865067958831787,-0.39461612701416016,-0.022097699344158173,0.27089864015579224,0.42321887612342834,-0.396515816450119,0.12005119025707245,0.010818274691700935,1.2703877687454224,1.4195481538772583,-0.22276490926742554,-0.32113713026046753,1.2450597286224365,1.2669799327850342,-0.27329152822494507,-0.4047827422618866,1.4786829948425293,1.3434371948242188,0.26536184549331665,0.3217664062976837,1.3656035661697388,-0.13130834698677063
12,-0.35503315925598145,3.637147903442383,0.7067124247550964,-0.8996391892433167,-0.4655213952064514,0.00635190075263381,0.465952068567276,-0.3408679962158203,0.07142548263072968,0.07334397733211517,1.2335288524627686,0.11877783387899399,-0.10169625282287598,-0.11300886422395706,-0.0021507428027689457,-0.518422544002533,-0.5183709263801575,-0.2673414945602417,0.8775716423988342,-0.35232147574424744,-0.04889475926756859,0.3149206340312958,0.43965834379196167,-0.4200890064239502,0.122409388422966,0.006784125696867704,1.2903976440429688,1.394608497619629,-0.2108338177204132,-0.3326796889305115,1.2327803373336792,1.3120068311691284,-0.2687637507915497,-0.4374725818634033,1.5452609062194824,1.362787127494812,0.2816547751426697,0.33900323510169983,1.375182032585144,-0.13601607084274292
13,-0.36280956864356995,3.66804838180542,0.7256540656089783,-0.9871507287025452,-0.4707237780094147,0.023439913988113403,0.47307077050209045,-0.3205079138278961,0.04970645159482956,0.0730496197938919,1.2213776111602783,0.14848092198371887,-0.09063354134559631,-0.09873403608798981,0.03231368958950043,-0.5651606321334839,-0.5397586226463318,-0.2922060191631317,0.8606944680213928,-0.4220626652240753,-0.0778036043047905,0.35368430614471436,0.455610454082489,-0.4421532154083252,0.13128310441970825,0.005973629653453827,1.317827820777893,1.3777521848678589,-0.2036009281873703,-0.3516826331615448,1.2008082866668701,1.3017555475234985,-0.255501389503479,-0.47327473759651184,1.6067016124725342,1.3865927457809448,0.3031981885433197,0.36603617668151855,1.3753046989440918,-0.17789211869239807
14,-0.29595130681991577,3.730102777481079,0.7560163140296936,-0.9418938159942627,-0.5013407468795776,0.010553928092122078,0.47323286533355713,-0.29479408264160156,0.0356014147400856,0.06315743178129196,1.200052261352539,0.1707194596529007,-0.08861371129751205,-0.11508547514677048,0.07148593664169312,-0.6115128993988037,-0.5608406662940979,-0.28613027930259705,0.8550437688827515,-0.36360979080200195,-0.1025225892663002,0.40134409070014954,0.4656555950641632,-0.46272391080856323,0.1291685551404953,-0.006386908702552319,1.334543228149414,1.3491542339324951,-0.18114785850048065,-0.3398922085762024,1.1779145002365112,1.352583408355713,-0.2577478289604187,-0.5012921690940857,1.674843668937683,1.405221700668335,0.3185717463493347,0.38527023792266846,1.375566005706787,-0.1906704157590866
15,-0.31302446126937866,3.753977060317993,0.772672712802887,-1.0109338760375977,-0.5030162334442139,0.02545933984220028,0.4707536995410919,-0.2612941861152649,0.021285023540258408,0.06736445426940918,1.1863855123519897,0.2134331315755844,-0.07185289263725281,-0.09688147902488708,0.10248640924692154,-0.6621409058570862,-0.5709956884384155,-0.34297502040863037,0.8290519714355469,-0.4106125235557556,-0.13065433502197266,0.44783055782318115,0.47628387808799744,-0.4810120463371277,0.1354011595249176,-0.01530938409268856,1.36166250705719,1.3364810943603516,-0.16366459429264069,-0.3647707998752594,1.1383599042892456,1.337573528289795,-0.2486993670463562,-0.5372306704521179,1.731229543685913,1.4302985668182373,0.33510565757751465,0.4152851104736328,1.367791771888733,-0.24277006089687347
16,-0.2554369568824768,3.809056043624878,0.8064356446266174,-0.985596239566803,-0.5352730751037598,0.014411022886633873,0.4613106846809387,-0.2261553257703781,0.02113339491188526,0.05786276236176491,1.1669243574142456,0.2471693903207779,-0.06745684891939163,-0.1256672888994217,0.14036551117897034,-0.7081709504127502,-0.5799345374107361,-0.32470595836639404,0.8204373121261597,-0.36206409335136414,-0.1544342190027237,0.4973526895046234,0.4797515273094177,-0.4977540075778961,0.123643659055233,-0.03961005434393883,1.3801462650299072,1.3102227449417114,-0.13576553761959076,-0.33540695905685425,1.1089625358581543,1.378358006477356,-0.2605607807636261,-0.563565731048584,1.7967485189437866,1.4495761394500732,0.3464367687702179,0.4405590891838074,1.3604413270950317,-0.2692868411540985
17,-0.26890331506729126,3.8258376121520996,0.8125259876251221,-1.0424851179122925,-0.5454818606376648,0.023425880819559097,0.447477787733078,-0.18364781141281128,0.018553871661424637,0.061305880546569824,1.1590219736099243,0.29757434129714966,-0.046806685626506805,-0.11161024868488312,0.16525234282016754,-0.759294867515564,-0.5770609974861145,-0.4028347432613373,0.7861015796661377,-0.38729479908943176,-0.18014517426490784,0.5516594052314758,0.48388224840164185,-0.5101537704467773,0.11706732213497162,-0.05839022994041443,1.4069266319274902,1.2993606328964233,-0.10803699493408203,-0.37822166085243225,1.069246530532837,1.3719608783721924,-0.2606273293495178,-0.6005632877349854,1.8453847169876099,1.474902629852295,0.3510272204875946,0.4715072512626648,1.3497008085250854,-0.32044631242752075
18,-0.21834784746170044,3.8707175254821777,0.8474457859992981,-1.0285743474960327,-0.5832530856132507,0.012014737352728844,0.4291328191757202,-0.14391793310642242,0.031151628121733665,0.05016360804438591,1.1484769582748413,0.34033191204071045,-0.04064115881919861,-0.15780232846736908,0.2006564885377884,-0.8002121448516846,-0.5742624402046204,-0.38234424591064453,0.7756157517433167,-0.3400269150733948,-0.19854560494422913,0.6052135229110718,0.4821068346500397,-0.5213240385055542,0.10200604051351547,-0.09230748564004898,1.4292508363723755,1.2779185771942139,-0.07506051659584045,-0.3323018252849579,1.033392071723938,1.4031366109848022,-0.2790764570236206,-0.626927375793457,1.9041963815689087,1.4939829111099243,0.3515201807022095,0.49893617630004883,1.3390363454818726,-0.3558543920516968
19,-0.22536902129650116,3.8737361431121826,0.8397367596626282,-1.0865941047668457,-0.6022864580154419,0.01851564459502697,0.40693944692611694,-0.0983288362622261,0.03193427622318268,0.04962117597460747,1.1531660556793213,0.393299400806427,-0.019209809601306915,-0.1309015154838562,0.2189062386751175,-0.8452009558677673,-0.5599244236946106,-0.46479812264442444,0.7348659634590149,-0.3545587658882141,-0.21499547362327576,0.6637513637542725,0.48241323232650757,-0.5259020924568176,0.08572328835725784,-0.11373386532068253,1.4575594663619995,1.2705683708190918,-0.040522363036870956,-0.3885482847690582,0.9962429404258728,1.4001091718673706,-0.28188154101371765,-0.665093719959259,1.940543532371521,1.518457293510437,0.3422379493713379,0.5282716751098633,1.3278230428695679,-0.40476152300834656
20,-0.16950055956840515,3.908500909805298,0.878702700138092,-1.0762423276901245,-0.6447320580482483,0.006020084023475647,0.38446104526519775,-0.05935877561569214,0.04466914013028145,0.03419562429189682,1.1530886888504028,0.4382622539997101,-0.015248330309987068,-0.1992996782064438,0.2520580589771271,-0.8753383755683899,-0.5513076782226562,-0.4334714412689209,0.7298160195350647,-0.30207523703575134,-0.21792954206466675,0.7203088402748108,0.4778132140636444,-0.5308640003204346,0.09041497111320496,-0.1520606130361557,1.4813132286071777,1.2563672065734863,-0.005162179470062256,-0.324415385723114,0.953832745552063,1.425113320350647,-0.2969062030315399,-0.689230740070343,1.989444375038147,1.5338621139526367,0.3307379186153412,0.5532106161117554,1.3175288438796997,-0.4404703378677368
21,-0.16554836928844452,3.892285108566284,0.8571963310241699,-1.1405439376831055,-0.664591372013092,0.010895865969359875,0.35922905802726746,-0.016741089522838593,0.032922953367233276,0.03080180659890175,1.1702910661697388,0.48854708671569824,0.0034249378368258476,-0.1455184817314148,0.2645421028137207,-0.9118704199790955,-0.5311273336410522,-0.5128501057624817,0.6837579011917114,-0.31420671939849854,-0.21641691029071808,0.7776995897293091,0.4766179025173187,-0.5277312994003296,0.06923624873161316,-0.16792187094688416,1.5084257125854492,1.2556301355361938,0.031322941184043884,-0.3869231939315796,0.926918089389801,1.4202194213867188,-0.291319876909256,-0.7255003452301025,2.008938789367676,1.5538736581802368,0.3122691214084625,0.578650951385498,1.3072208166122437,-0.48387226462364197
22,-0.10290075093507767,3.9172263145446777,0.9003022313117981,-1.130152940750122,-0.7044200301170349,-0.0023882160894572735,0.3370729088783264,0.015577043406665325,0.0376635305583477,0.011748317629098892,1.1759231090545654,0.5298655033111572,-0.0001324969343841076,-0.2248457968235016,0.29559698700904846,-0.9314820170402527,-0.5255747437477112,-0.4660416841506958,0.6864147782325745,-0.2580415606498718,-0.19844092428684235,0.8336727619171143,0.4689338803291321,-0.5280908346176147,0.11221806704998016,-0.2085486352443695,1.5288523435592651,1.2494657039642334,0.06491376459598541,-0.3146457374095917,0.881255030632019,1.4425849914550781,-0.293527215719223,-0.7433251738548279,2.046783685684204,1.5605168342590332,0.29329630732536316,0.5984331369400024,1.3004119396209717,-0.5097878575325012
23,-0.09060361236333847,3.882751941680908,0.8716675639152527,-1.1954607963562012,-0.7152068614959717,0.0014350549317896366,0.311708927154541,0.050029996782541275,0.005795892793685198,0.01263721939176321,1.1987214088439941,0.5737641453742981,0.011740842834115028,-0.16797354817390442,0.30518919229507446,-0.9634155631065369,-0.505737841129303,-0.5325577259063721,0.6359856128692627,-0.2688674330711365,-0.17966914176940918,0.8849029541015625,0.4640364348888397,-0.5196701288223267,0.08184271305799484,-0.2164551466703415,1.5494633913040161,1.2550113201141357,0.09924405813217163,-0.3785160481929779,0.8722642064094543,1.4346139430999756,-0.27571651339530945,-0.7732712626457214,2.0506722927093506,1.5700492858886719,0.27215707302093506,0.6196021437644958,1.2911567687988281,-0.5416682958602905
24,-0.029681403189897537,3.8973042964935303,0.9140872359275818,-1.1876347064971924,-0.7435002326965332,-0.010587270371615887,0.2911472022533417,0.07018625736236572,0.00703954603523016,-0.009471241384744644,1.2050249576568604,0.607214629650116,-0.0037824013270437717,-0.23112931847572327,0.3332315981388092,-0.976119875907898,-0.5046279430389404,-0.4762627184391022,0.6410899758338928,-0.21681052446365356,-0.14480441808700562,0.9366264939308167,0.45250993967056274,-0.5183249115943909,0.14762791991233826,-0.26303473114967346,1.5639408826828003,1.2520948648452759,0.12845037877559662,-0.31432586908340454,0.8271125555038452,1.457424283027649,-0.26292863488197327,-0.7824963927268982,2.0775535106658936,1.5676090717315674,0.25098535418510437,0.6319764852523804,1.2889026403427124,-0.5542657375335693
25,-0.01605718396604061,3.8532369136810303,0.8892050981521606,-1.2468488216400146,-0.7417135834693909,-0.00584256649017334,0.26591506600379944,0.0928998589515686,-0.03844086453318596,0.000704311765730381,1.2268306016921997,0.6428765058517456,-0.002482019132003188,-0.18709105253219604,0.34243613481521606,-1.006474256515503,-0.486727237701416,-0.519660472869873,0.5916359424591064,-0.2244490534067154,-0.11470654606819153,0.980365514755249,0.4416531026363373,-0.508522093296051,0.11759712547063828,-0.26875099539756775,1.5746684074401855,1.2604633569717407,0.1591816246509552,-0.3756229877471924,0.8327984809875488,1.4469587802886963,-0.2364523857831955,-0.803287923336029,2.0728375911712646,1.564766764640808,0.2296314686536789,0.6479975581169128,1.2808176279067993,-0.5707475543022156
26,0.037536635994911194,3.8575592041015625,0.9291446805000305,-1.242986798286438,-0.7566481828689575,-0.016184015199542046,0.24542628228664398,0.10076935589313507,-0.043065864592790604,-0.019941754639148712,1.2319691181182861,0.6673356294631958,-0.028690120205283165,-0.2296689748764038,0.3665177524089813,-1.0156055688858032,-0.4847615659236908,-0.46284839510917664,0.5952394604682922,-0.1810624599456787,-0.07043741643428802,1.025870680809021,0.4268472492694855,-0.5076361894607544,0.18173298239707947,-0.3211509883403778,1.5809217691421509,1.2568893432617188,0.18392163515090942,-0.33279213309288025,0.7917026877403259,1.469333529472351,-0.2141733169555664,-0.8045566082000732,2.0892693996429443,1.5566418170928955,0.20971092581748962,0.6525402665138245,1.28152596950531,-0.5731045007705688
27,0.04806403070688248,3.8138411045074463,0.913872241973877,-1.2934812307357788,-0.7460960745811462,-0.011598557233810425,0.2189001739025116,0.1115056574344635,-0.09070511907339096,-0.003756847931072116,1.2500816583633423,0.6953116059303284,-0.03874639794230461,-0.19592784345149994,0.3762749433517456,-1.0442535877227783,-0.46630680561065674,-0.4822341799736023,0.5510806441307068,-0.1858711540699005,-0.032171230763196945,1.0627210140228271,0.41154366731643677,-0.49937331676483154,0.16228456795215607,-0.33339864015579224,1.5817567110061646,1.2650864124298096,0.2122606486082077,-0.3906950354576111,0.8038542866706848,1.4581705331802368,-0.18493129312992096,-0.8162593841552734,2.0816280841827393,1.5460612773895264,0.18925172090530396,0.6620467901229858,1.2754052877426147,-0.5772038698196411
28,0.09270981699228287,3.8119378089904785,0.9516738057136536,-1.2928147315979004,-0.7528623342514038,-0.02060723677277565,0.19584673643112183,0.11055321246385574,-0.10436084866523743,-0.018719052895903587,1.253990650177002,0.7130890488624573,-0.07088972628116608,-0.2236683964729309,0.395743727684021,-1.0532519817352295,-0.45884576439857483,-0.4298951327800751,0.5515093207359314,-0.1518886387348175,0.016791056841611862,1.1016135215759277,0.3951382040977478,-0.4993217885494232,0.2136635184288025,-0.3872583508491516,1.5789731740951538,1.261120080947876,0.23487554490566254,-0.37244459986686707,0.7702911496162415,1.4798917770385742,-0.16080895066261292,-0.8119868040084839,2.090006113052368,1.5359833240509033,0.17219674587249756,0.6603627800941467,1.2778797149658203,-0.5738531947135925
29,0.09893438965082169,3.776482582092285,0.9466209411621094,-1.333360195159912,-0.7405068874359131,-0.017068324610590935,0.16687019169330597,0.11149314045906067,-0.14695122838020325,-0.0012855085078626871,1.2683004140853882,0.735161542892456,-0.08981834352016449,-0.19608935713768005,0.40460309386253357,-1.0796658992767334,-0.43765366077423096,-0.43093714118003845,0.5135255455970764,-0.15457338094711304,0.06148778647184372,1.1324315071105957,0.378589391708374,-0.4931168258190155,0.20588178932666779,-0.4085015058517456,1.5718692541122437,1.269439935684204,0.26315099000930786,-0.42652177810668945,0.7835792899131775,1.4718217849731445,-0.13450343906879425,-0.8165316581726074,2.0825271606445312,1.5233267545700073,0.15407255291938782,0.6631675958633423,1.2748898267745972,-0.571223795413971
30,0.1343410611152649,3.7747161388397217,0.9813197255134583,-1.3341848850250244,-0.7454226613044739,-0.023609912022948265,0.14046423137187958,0.10471179336309433,-0.16547954082489014,-0.009943658486008644,1.271809697151184,0.7485981583595276,-0.12440815567970276,-0.2136688530445099,0.41810017824172974,-1.0903258323669434,-0.4234253764152527,-0.38623562455177307,0.5095754265785217,-0.12908531725406647,0.1130426824092865,1.164434552192688,0.36279308795928955,-0.49276280403137207,0.24206434190273285,-0.4591604769229889,1.561741828918457,1.2675821781158447,0.2856767475605011,-0.42865613102912903,0.7600604891777039,1.494861364364624,-0.11459183692932129,-0.8094988465309143,2.0858960151672363,1.5139251947402954,0.14077171683311462,0.6572309732437134,1.279236912727356,-0.5654243230819702
31,0.1359807401895523,3.752675771713257,0.9847198128700256,-1.3642140626907349,-0.7370104193687439,-0.019501030445098877,0.11032432317733765,0.09897026419639587,-0.19899100065231323,0.005967522971332073,1.2837013006210327,0.7657259702682495,-0.14856275916099548,-0.18960244953632355,0.4238068759441376,-1.1137480735778809,-0.3998621106147766,-0.3771025240421295,0.47739914059638977,-0.1301054209470749,0.1620437353849411,1.1895636320114136,0.3480958342552185,-0.4875571131706238,0.24348965287208557,-0.4861144721508026,1.549415111541748,1.2779539823532104,0.3154259920120239,-0.4777657687664032,0.7729053497314453,1.4931867122650146,-0.09546872228384018,-0.8094699382781982,2.080200672149658,1.5026895999908447,0.12621624767780304,0.6542434692382812,1.2804555892944336,-0.5602788925170898
32,0.1626320481300354,3.755704164505005,1.0151631832122803,-1.365136742591858,-0.7442018389701843,-0.021194547414779663,0.08268262445926666,0.08925938606262207,-0.21636278927326202,0.0024743652902543545,1.2883026599884033,0.7753706574440002,-0.18356403708457947,-0.20010966062545776,0.431087464094162,-1.1257680654525757,-0.3807871341705322,-0.341896116733551,0.4692685008049011,-0.11128422617912292,0.21439585089683533,1.2142852544784546,0.33480027318000793,-0.4855504333972931,0.2663324475288391,-0.530113160610199,1.5347285270690918,1.2800534963607788,0.3385412096977234,-0.493617981672287,0.7596553564071655,1.5183217525482178,-0.08341845124959946,-0.8018302321434021,2.0812900066375732,1.4947807788848877,0.11671672016382217,0.645625650882721,1.286889672279358,-0.5536340475082397
33,0.1601780205965042,3.7472898960113525,1.02479887008667,-1.3860081434249878,-0.7421098351478577,-0.013730435632169247,0.05435570329427719,0.08101102709770203,-0.2391655296087265,0.016019944101572037,1.2998191118240356,0.7877375483512878,-0.2092801183462143,-0.17861579358577728,0.4333030581474304,-1.145504355430603,-0.357194185256958,-0.3293999135494232,0.4428936839103699,-0.11075018346309662,0.26469212770462036,1.2340632677078247,0.3238319158554077,-0.4801825284957886,0.27522557973861694,-0.5578691363334656,1.5197806358337402,1.2932566404342651,0.36989468336105347,-0.5373185276985168,0.7707042694091797,1.5222482681274414,-0.07352283596992493,-0.7994892597198486,2.078251361846924,1.485685110092163,0.10578934848308563,0.6382589340209961,1.2922881841659546,-0.5477083921432495
34,0.18002548813819885,3.755105972290039,1.0511523485183716,-1.3867486715316772,-0.752748429775238,-0.009037119336426258,0.028526388108730316,0.07200653105974197,-0.2516510784626007,0.015779836103320122,1.3066555261611938,0.7934415340423584,-0.24354390799999237,-0.18449220061302185,0.43672239780426025,-1.1581907272338867,-0.33676525950431824,-0.30290621519088745,0.43276911973953247,-0.09614629298448563,0.315373033285141,1.2518078088760376,0.31409165263175964,-0.47612231969833374,0.2896500527858734,-0.5935869812965393,1.5031193494796753,1.2989410161972046,0.39297109842300415,-0.5606470108032227,0.7641505599021912,1.5476441383361816,-0.07056665420532227,-0.7923930883407593,2.0793650150299072,1.4786008596420288,0.09939730912446976,0.6279113292694092,1.300096035003662,-0.5408268570899963
35,0.17483553290367126,3.755228042602539,1.0647908449172974,-1.4016597270965576,-0.7562651634216309,0.0031368674244731665,0.004332796670496464,0.06571564823389053,-0.2641296088695526,0.02675849013030529,1.3190494775772095,0.8015961050987244,-0.2683224380016327,-0.16551010310649872,0.4374881386756897,-1.1747453212738037,-0.3156270384788513,-0.2907615303993225,0.41262418031692505,-0.0938945785164833,0.3634067475795746,1.2669806480407715,0.30744996666908264,-0.47016918659210205,0.30496081709861755,-0.6182336807250977,1.4876329898834229,1.3140387535095215,0.42492955923080444,-0.5992218255996704,0.7707352638244629,1.5531750917434692,-0.06974819302558899,-0.7891877889633179,2.079495906829834,1.470644474029541,0.09125041961669922,0.6175413727760315,1.3081246614456177,-0.534396231174469
36,0.1908365786075592,3.7643802165985107,1.0879802703857422,-1.4025198221206665,-0.7698900103569031,0.01331536378711462,-0.017878824844956398,0.06074965372681618,-0.2703908681869507,0.027200955897569656,1.32787024974823,0.8038090467453003,-0.3017745912075043,-0.16847923398017883,0.4403626024723053,-1.1878416538238525,-0.29687395691871643,-0.2703832983970642,0.40366414189338684,-0.08086176216602325,0.40964674949645996,1.2787734270095825,0.30172184109687805,-0.4645780026912689,0.31550392508506775,-0.6460208892822266,1.4710251092910767,1.3216265439987183,0.44655805826187134,-0.6246922016143799,0.7657791972160339,1.576795220375061,-0.07528171688318253,-0.7828099131584167,2.0821635723114014,1.4634884595870972,0.08733104914426804,0.6059278845787048,1.3158766031265259,-0.5276015996932983
37,0.18409298360347748,3.7665181159973145,1.1030774116516113,-1.4149364233016968,-0.7770248055458069,0.02936217375099659,-0.03741567209362984,0.059500668197870255,-0.2743569612503052,0.03563510254025459,1.3410686254501343,0.8090076446533203,-0.3246839642524719,-0.1520620435476303,0.44173601269721985,-1.2022610902786255,-0.2793470621109009,-0.2598865330219269,0.38986146450042725,-0.07671394944190979,0.4523395299911499,1.290351152420044,0.29935479164123535,-0.4581648111343384,0.3357832431793213,-0.6659629344940186,1.4567272663116455,1.337662696838379,0.4782429039478302,-0.6582598090171814,0.7661232948303223,1.5800819396972656,-0.0819416418671608,-0.7793555855751038,2.0855166912078857,1.4555872678756714,0.08103297650814056,0.593675971031189,1.3246285915374756,-0.5204722285270691
38,0.1993359476327896,3.7737820148468018,1.123998999595642,-1.4160085916519165,-0.7931060791015625,0.04239057004451752,-0.05606113374233246,0.060042936354875565,-0.2754693925380707,0.034864235669374466,1.350589394569397,0.8087149262428284,-0.3583010733127594,-0.1528203934431076,0.44590896368026733,-1.2151495218276978,-0.26358285546302795,-0.24295541644096375,0.3844890594482422,-0.06298603862524033,0.49223291873931885,1.2974344491958618,0.2976176142692566,-0.45182621479034424,0.34378477931022644,-0.6878864169120789,1.4417544603347778,1.3458517789840698,0.49711382389068604,-0.6817226409912109,0.7603543400764465,1.6017006635665894,-0.09429765492677689,-0.7732358574867249,2.0900235176086426,1.4480836391448975,0.07940089702606201,0.5812194347381592,1.3312146663665771,-0.5139941573143005
39,0.19130751490592957,3.7737317085266113,1.1381720304489136,-1.4286365509033203,-0.8018555641174316,0.0605606809258461,-0.07181455194950104,0.06449593603610992,-0.2739808261394501,0.04186306521296501,1.3639156818389893,0.8123123049736023,-0.3790373206138611,-0.13968108594417572,0.44821038842201233,-1.2275153398513794,-0.24915103614330292,-0.23415428400039673,0.376290500164032,-0.05712878331542015,0.5278773903846741,1.3067983388900757,0.2989996075630188,-0.44522637128829956,0.3681115508079529,-0.7036978006362915,1.4301186800003052,1.3630344867706299,0.5289013981819153,-0.7103452086448669,0.7549771666526794,1.6001836061477661,-0.10602513700723648,-0.7697102427482605,2.096202850341797,1.4397828578948975,0.0741124078631401,0.5680986642837524,1.3398298025131226,-0.5057627558708191
40,0.20883625745773315,3.778297185897827,1.1580199003219604,-1.4293782711029053,-0.8204280138015747,0.07336029410362244,-0.08816178888082504,0.0696205198764801,-0.27292919158935547,0.03947874531149864,1.372627854347229,0.810154139995575,-0.41450265049934387,-0.1375359147787094,0.4538302719593048,-1.2387615442276,-0.236200749874115,-0.21872922778129578,0.3754662275314331,-0.04115896299481392,0.5608952641487122,1.3101943731307983,0.30064064264297485,-0.43885570764541626,0.3720308244228363,-0.7225472927093506,1.4177546501159668,1.3711566925048828,0.5437183380126953,-0.7291165590286255,0.7498145699501038,1.6213747262954712,-0.1231183409690857,-0.7633273601531982,2.101804256439209,1.4322608709335327,0.07493394613265991,0.5554424524307251,1.3448361158370972,-0.5001384615898132
41,0.19830864667892456,3.7747082710266113,1.1691906452178955,-1.4444581270217896,-0.8287835121154785,0.09231983125209808,-0.101336769759655,0.07852714508771896,-0.2687433063983917,0.047203727066516876,1.3854466676712036,0.8130099177360535,-0.4318094551563263,-0.1304195076227188,0.4560813903808594,-1.2480583190917969,-0.22333145141601562,-0.21150906383991241,0.37137341499328613,-0.03459162265062332,0.5888201594352722,1.3192797899246216,0.30473074316978455,-0.43224647641181946,0.40191853046417236,-0.7353325486183167,1.4097251892089844,1.390580177307129,0.5774802565574646,-0.7533522248268127,0.739600419998169,1.6126043796539307,-0.13693401217460632,-0.7601361870765686,2.1105098724365234,1.4234700202941895,0.06965980678796768,0.5425001978874207,1.3536478281021118,-0.49030449986457825
42,0.22170527279376984,3.7781548500061035,1.1900711059570312,-1.4431958198547363,-0.8508224487304688,0.10170944035053253,-0.11696251481771469,0.08566643297672272,-0.26902440190315247,0.043072205036878586,1.3917890787124634,0.8087263703346252,-0.47150543332099915,-0.12171916663646698,0.4629465937614441,-1.2560325860977173,-0.21269932389259338,-0.19655320048332214,0.3751585781574249,-0.01518246904015541,0.6154773831367493,1.3190767765045166,0.3087223768234253,-0.4265103340148926,0.3977072238922119,-0.7534765601158142,1.3999086618423462,1.3976030349731445,0.5856090188026428,-0.7655583024024963,0.739301860332489,1.636550784111023,-0.156913161277771,-0.753309965133667,2.1158499717712402,1.41654372215271,0.0734887346625328,0.5303567051887512,1.3565503358840942,-0.48703014850616455
43,0.20490999519824982,3.770843505859375,1.1950815916061401,-1.463747501373291,-0.8558973670005798,0.12170912325382233,-0.12816062569618225,0.09738864004611969,-0.26259443163871765,0.05393896996974945,1.4038532972335815,0.8113917708396912,-0.4814837872982025,-0.12805601954460144,0.4636929929256439,-1.2612109184265137,-0.19950038194656372,-0.19110693037509918,0.37303441762924194,-0.010223036631941795,0.6351343989372253,1.3307034969329834,0.3140791952610016,-0.41969752311706543,0.4385950565338135,-0.76328444480896,1.395817518234253,1.420924186706543,0.6252687573432922,-0.7866984009742737,0.7219910025596619,1.6163246631622314,-0.1692318320274353,-0.7516021728515625,2.1276395320892334,1.4068647623062134,0.06669817119836807,0.5186669826507568,1.3666484355926514,-0.47456732392311096
44,0.24004487693309784,3.7765111923217773,1.2212542295455933,-1.4563004970550537,-0.8843263387680054,0.1236494854092598,-0.14453135430812836,0.10311451554298401,-0.2683437466621399,0.04637810215353966,1.4060025215148926,0.8038370609283447,-0.5297433137893677,-0.10169598460197449,0.4724169969558716,-1.2648459672927856,-0.19160708785057068,-0.1765565425157547,0.38165006041526794,0.014744596555829048,0.6570360660552979,1.3248482942581177,0.31950506567955017,-0.4154757559299469,0.4178195893764496,-0.7825407981872559,1.387221336364746,1.4241694211959839,0.6205160617828369,-0.7899965047836304,0.7347614765167236,1.6490750312805176,-0.19151128828525543,-0.7442863583564758,2.130385398864746,1.4013310670852661,0.07476316392421722,0.5073648691177368,1.3656491041183472,-0.476566880941391
45,0.20866329967975616,3.764110565185547,1.21315336227417,-1.488512396812439,-0.8803498148918152,0.14833612740039825,-0.1531873494386673,0.11725615710020065,-0.25608620047569275,0.0633743554353714,1.4180694818496704,0.8075248003005981,-0.5237534642219543,-0.13917276263237,0.46962428092956543,-1.2660017013549805,-0.175718754529953,-0.1725224405527115,0.3781408965587616,0.013194812461733818,0.6670593619346619,1.3441150188446045,0.32434457540512085,-0.4073924124240875,0.47995325922966003,-0.7877971529960632,1.3874530792236328,1.454441785812378,0.6741199493408203,-0.8106579184532166,0.7005863189697266,1.6095513105392456,-0.19759242236614227,-0.7461875677108765,2.14772367477417,1.3892661333084106,0.0639408603310585,0.4981400668621063,1.3793718814849854,-0.4588012099266052
46,0.2659163177013397,3.7773804664611816,1.2538830041885376,-1.4652947187423706,-0.9219294786453247,0.13561813533306122,-0.17167457938194275,0.11706917732954025,-0.2744486629962921,0.047841787338256836,1.4136067628860474,0.7945295572280884,-0.5888479948043823,-0.07295619696378708,0.48245492577552795,-1.2647229433059692,-0.17308014631271362,-0.16053840517997742,0.3933805227279663,0.04874858632683754,0.6877486705780029,1.326465368270874,0.3313044309616089,-0.4063936769962311,0.4305117428302765,-0.8100599646568298,1.377362608909607,1.4480847120285034,0.64432293176651,-0.8011346459388733,0.7422752380371094,1.6613889932632446,-0.22454778850078583,-0.7376672029495239,2.143007278442383,1.386575698852539,0.07840820401906967,0.4869076907634735,1.3702548742294312,-0.4707874357700348
47,0.20762963593006134,3.755547523498535,1.2199898958206177,-1.520593523979187,-0.8983590006828308,0.17410074174404144,-0.17635491490364075,0.1359068900346756,-0.24758277833461761,0.0759054645895958,1.42814040184021,0.8026428818702698,-0.554087221622467,-0.1584542691707611,0.4733508229255676,-1.2641592025756836,-0.15124550461769104,-0.15384145081043243,0.3823545277118683,0.03126240894198418,0.6852155923843384,1.361951231956482,0.33334824442863464,-0.3944881558418274,0.5206781625747681,-0.808681845664978,1.3835322856903076,1.491195559501648,0.7231827974319458,-0.8256553411483765,0.6744667887687683,1.5935964584350586,-0.21740832924842834,-0.7463443875312805,2.171231269836426,1.3690725564956665,0.060522422194480896,0.4821259379386902,1.3923046588897705,-0.4440661668777466
48,0.2938760817050934,3.7830097675323486,1.2852957248687744,-1.4688023328781128,-0.9607468843460083,0.13652871549129486,-0.19680912792682648,0.12460245937108994,-0.2874890863895416,0.04601825401186943,1.4145393371582031,0.7805608510971069,-0.6412035822868347,-0.05919835343956947,0.4927527904510498,-1.2572898864746094,-0.15804888308048248,-0.15182669460773468,0.40894031524658203,0.08420925587415695,0.7090110182762146,1.32483971118927,0.3435122072696686,-0.39891934394836426,0.4467881917953491,-0.8341162800788879,1.3676800727844238,1.4672507047653198,0.6599162220954895,-0.7996143698692322,0.7530044317245483,1.6683207750320435,-0.2543061375617981,-0.7350824475288391,2.1524767875671387,1.3706448078155518,0.08279760926961899,0.4686259329319,1.3694450855255127,-0.46761295199394226
49,0.21336765587329865,3.7486464977264404,1.224896788597107,-1.5494428873062134,-0.914355456829071,0.19480296969413757,-0.19949425756931305,0.15010873973369598,-0.24296846985816956,0.08817894011735916,1.433151125907898,0.7978566884994507,-0.5817144513130188,-0.1524391621351242,0.4778461456298828,-1.258887767791748,-0.12933962047100067,-0.13453376293182373,0.3835078477859497,0.046251099556684494,0.6945573091506958,1.3769654035568237,0.3413192927837372,-0.3821800649166107,0.5440033674240112,-0.8292998671531677,1.3823723793029785,1.5257019996643066,0.7566527128219604,-0.8289430737495422,0.6646527647972107,1.5839394330978394,-0.229912668466568,-0.7526717782020569,2.192577838897705,1.3467862606048584,0.05926079303026199,0.47006916999816895,1.4022057056427002,-0.4374784231185913
50,0.30627918243408203,3.787292718887329,1.298726201057434,-1.4826302528381348,-0.9852133989334106,0.1399802565574646,-0.21713170409202576,0.12996196746826172,-0.2959417402744293,0.046712249517440796,1.4133292436599731,0.7666668891906738,-0.6705296635627747,-0.06816083937883377,0.49878770112991333,-1.246304988861084,-0.14343035221099854,-0.14775456488132477,0.421787291765213,0.1097688302397728,0.7185974717140198,1.330526351928711,0.35474807024002075,-0.3904605507850647,0.4754392206668854,-0.851470410823822,1.3601628541946411,1.4886574745178223,0.68477863073349,-0.7947404980659485,0.7441754937171936,1.6572213172912598,-0.27321678400039673,-0.739465057849884,2.1652042865753174,1.349446177482605,0.08312853425741196,0.4538075923919678,1.3699886798858643,-0.45804283022880554
51,0.23528830707073212,3.7498397827148438,1.2400356531143188,-1.5610400438308716,-0.938288152217865,0.19936184585094452,-0.22357392311096191,0.15490175783634186,-0.2507335841655731,0.09240180253982544,1.4309190511703491,0.7875699400901794,-0.6172332763671875,-0.13705769181251526,0.48423871397972107,-1.2512208223342896,-0.11414236575365067,-0.11870831251144409,0.39100632071495056,0.07067933678627014,0.7006776928901672,1.3816478252410889,0.3480808734893799,-0.3735749423503876,0.5501037240028381,-0.8484400510787964,1.3793948888778687,1.5467921495437622,0.768917977809906,-0.8199285268783569,0.6722269058227539,1.5881450176239014,-0.24368968605995178,-0.7602952122688293,2.205409288406372,1.3234496116638184,0.06305155903100967,0.4587033689022064,1.4031777381896973,-0.436989963054657
52,0.3078289330005646,3.7852253913879395,1.2988868951797485,-1.5084763765335083,-0.9962390065193176,0.15097464621067047,-0.23606520891189575,0.1356469988822937,-0.2964268624782562,0.05419454723596573,1.4126465320587158,0.7564927935600281,-0.6856990456581116,-0.077018141746521,0.5009598135948181,-1.2346603870391846,-0.1261603683233261,-0.141082301735878,0.4268999397754669,0.12594468891620636,0.719243049621582,1.3440665006637573,0.3617056906223297,-0.381225049495697,0.5038913488388062,-0.8625719547271729,1.3590599298477173,1.5148563385009766,0.7158641815185547,-0.793276309967041,0.731330931186676,1.6399990320205688,-0.28052762150764465,-0.7496492862701416,2.182624340057373,1.3231141567230225,0.07937777042388916,0.44300714135169983,1.3748161792755127,-0.44580933451652527
53,0.2592605650424957,3.755995750427246,1.257249355316162,-1.569303035736084,-0.96317458152771,0.19589301943778992,-0.24507775902748108,0.15409372746944427,-0.26266250014305115,0.08982864767313004,1.4254159927368164,0.7725845575332642,-0.651084303855896,-0.1239355206489563,0.49020370841026306,-1.2397085428237915,-0.10285410284996033,-0.10726035386323929,0.40393492579460144,0.09950542449951172,0.704003095626831,1.384045124053955,0.3532344102859497,-0.3677380383014679,0.5515216588973999,-0.8619985580444336,1.375514030456543,1.5599428415298462,0.777567446231842,-0.8079999089241028,0.6815295815467834,1.5932073593139648,-0.2565633952617645,-0.7669804096221924,2.2151386737823486,1.2980386018753052,0.06733164191246033,0.447123259305954,1.3994011878967285,-0.4355570077896118
54,0.31093236804008484,3.782552719116211,1.298295259475708,-1.5355726480484009,-1.00503671169281,0.15965652465820312,-0.25375378131866455,0.13903985917568207,-0.2957577705383301,0.06092220917344093,1.4113065004348755,0.7464476823806763,-0.7000013589859009,-0.08301591128110886,0.5019526481628418,-1.2230799198150635,-0.10972569137811661,-0.1317816525697708,0.4305292069911957,0.14167237281799316,0.7165160179138184,1.3589740991592407,0.3645937442779541,-0.37290656566619873,0.5248157978057861,-0.8697025775909424,1.3604984283447266,1.5382072925567627,0.7441783547401428,-0.7908053994178772,0.7234382629394531,1.6263552904129028,-0.28383612632751465,-0.760688066482544,2.200195550918579,1.293135404586792,0.07625871151685715,0.43364810943603516,1.3785675764083862,-0.4361117482185364
55,0.2794574797153473,3.7622318267822266,1.2707974910736084,-1.5819661617279053,-0.983681321144104,0.19120316207408905,-0.2628989815711975,0.15161997079849243,-0.2730976343154907,0.08552923798561096,1.4199280738830566,0.7571845054626465,-0.6797699332237244,-0.1143670305609703,0.4945578873157501,-1.2265723943710327,-0.09290718287229538,-0.09919551759958267,0.4156668484210968,0.12610067427158356,0.7051709294319153,1.3888944387435913,0.35630419850349426,-0.3627033233642578,0.5536741018295288,-0.8711064457893372,1.3730113506317139,1.57122004032135,0.7892856001853943,-0.7966564893722534,0.6895331740379333,1.5949366092681885,-0.2660154104232788,-0.7741010785102844,2.2252237796783447,1.269049882888794,0.06997496634721756,0.43566009402275085,1.3946901559829712,-0.4326362609863281
56,0.31756454706192017,3.7820687294006348,1.2992794513702393,-1.5616053342819214,-1.0139446258544922,0.16388055682182312,-0.26914629340171814,0.13988368213176727,-0.2964940667152405,0.0638657882809639,1.4091575145721436,0.735785722732544,-0.7159398198127747,-0.08605626225471497,0.5025375485420227,-1.2114179134368896,-0.09619691967964172,-0.1225905567407608,0.43454933166503906,0.15825118124485016,0.7136682271957397,1.3729839324951172,0.3648698329925537,-0.3657613694667816,0.5391139984130859,-0.8747759461402893,1.3622989654541016,1.5567563772201538,0.7688716053962708,-0.7850431799888611,0.7203870415687561,1.6165592670440674,-0.2861504852771759,-0.7710941433906555,2.2161335945129395,1.2599318027496338,0.07434622198343277,0.4241645038127899,1.379442572593689,-0.4288235902786255
57,0.296610563993454,3.768195390701294,1.2805646657943726,-1.5988925695419312,-0.9997822642326355,0.18633343279361725,-0.2775544226169586,0.14841380715370178,-0.28112608194351196,0.08085888624191284,1.4151253700256348,0.7429036498069763,-0.7045550346374512,-0.10766247659921646,0.4973384737968445,-1.2134300470352173,-0.08408790826797485,-0.09297796338796616,0.4248257875442505,0.1493510603904724,0.7054699063301086,1.3961291313171387,0.35679861903190613,-0.35779741406440735,0.5566962957382202,-0.8769862651824951,1.3720239400863647,1.581520438194275,0.8037624955177307,-0.785285234451294,0.6964458227157593,1.5945866107940674,-0.27259233593940735,-0.7817913293838501,2.235940933227539,1.2359718084335327,0.0711100623011589,0.42439496517181396,1.3896138668060303,-0.42865923047065735
58,0.32655516266822815,3.7840590476989746,1.3013330698013306,-1.5869346857070923,-1.0225865840911865,0.16449299454689026,-0.28215402364730835,0.13876035809516907,-0.29804837703704834,0.06357299536466599,1.406586766242981,0.7249711751937866,-0.733058750629425,-0.08696405589580536,0.5029079914093018,-1.1996663808822632,-0.08553741872310638,-0.11462990939617157,0.4386061728000641,0.17479407787322998,0.7118340134620667,1.3859941959381104,0.36285629868507385,-0.35946306586265564,0.5488904714584351,-0.8781079649925232,1.3642230033874512,1.5712411403656006,0.7911555767059326,-0.7765086889266968,0.720758318901062,1.6096694469451904,-0.28818362951278687,-0.780734658241272,2.2304494380950928,1.223446011543274,0.07292480021715164,0.4142266511917114,1.3777731657028198,-0.422646701335907
59,0.3116929531097412,3.774482488632202,1.2877682447433472,-1.618822693824768,-1.0125055313110352,0.1811581403017044,-0.28959622979164124,0.14467975497245789,-0.28685104846954346,0.07577181607484818,1.411067008972168,0.729926586151123,-0.7268519997596741,-0.10274489969015121,0.49903053045272827,-1.2006127834320068,-0.07654529809951782,-0.08766825497150421,0.43183186650276184,0.1695587933063507,0.7059452533721924,1.4049358367919922,0.35463953018188477,-0.35289639234542847,0.5598292946815491,-0.8803067803382874,1.3723037242889404,1.5906726121902466,0.8200494647026062,-0.773436427116394,0.7028522491455078,1.593461036682129,-0.27727437019348145,-0.7896115779876709,2.2468082904815674,1.198922872543335,0.0711614117026329,0.41317152976989746,1.3840229511260986,-0.4239503741264343
60,0.3367014229297638,3.7882328033447266,1.3039772510528564,-1.611970067024231,-1.0306744575500488,0.16241487860679626,-0.2929336726665497,0.13623283803462982,-0.29950791597366333,0.060865070670843124,1.4039987325668335,0.7143235206604004,-0.7508469223976135,-0.08652521669864655,0.5031470060348511,-1.1877590417861938,-0.07719604671001434,-0.10800968110561371,0.44242724776268005,0.19054384529590607,0.7114067673683167,1.398305892944336,0.3586429953575134,-0.35369235277175903,0.555683970451355,-0.8796727657318115,1.3664041757583618,1.5825639963150024,0.8120478987693787,-0.7660953402519226,0.7234704494476318,1.6049658060073853,-0.2901673913002014,-0.7895523309707642,2.243318557739258,1.1837079524993896,0.0715819001197815,0.4037931561470032,1.374122977256775,-0.41672906279563904
61,0.3251439929008484,3.7814462184906006,1.2933778762817383,-1.640748381614685,-1.022831916809082,0.17550072073936462,-0.29941433668136597,0.1405237913131714,-0.2904927432537079,0.07010924071073532,1.4077837467193604,0.7180806994438171,-0.7476186156272888,-0.09890275448560715,0.5000264644622803,-1.1880079507827759,-0.07020877301692963,-0.08275493234395981,0.43730953335762024,0.1871240735054016,0.7072223424911499,1.4147337675094604,0.3499723970890045,-0.347955584526062,0.5626576542854309,-0.8814838528633118,1.3736588954925537,1.5985864400863647,0.8375566601753235,-0.7609958648681641,0.7091066241264343,1.592279076576233,-0.28080669045448303,-0.7971765995025635,2.257345199584961,1.1582211256027222,0.07050605118274689,0.40183010697364807,1.377771258354187,-0.41869422793388367
62,0.3471583425998688,3.794229030609131,1.3069700002670288,-1.636839747428894,-1.0382544994354248,0.1582699716091156,-0.3016955554485321,0.13270457088947296,-0.30033600330352783,0.056286249309778214,1.4016876220703125,0.7039326429367065,-0.7690678834915161,-0.08524354547262192,0.5033118724822998,-1.1755610704421997,-0.07058196514844894,-0.10252786427736282,0.44598376750946045,0.20511767268180847,0.7125216722488403,1.4101595878601074,0.35235923528671265,-0.34820741415023804,0.5605255365371704,-0.8795396685600281,1.3689788579940796,1.5914145708084106,0.8321790099143982,-0.7544149160385132,0.7278227210044861,1.6019532680511475,-0.29227253794670105,-0.7975449562072754,2.254802703857422,1.1409105062484741,0.07020027190446854,0.39288169145584106,1.3689162731170654,-0.41065511107444763
63,0.3370792865753174,3.7891602516174316,1.2979764938354492,-1.6639467477798462,-1.031549334526062,0.1692887842655182,-0.3073204755783081,0.13602851331233978,-0.29230260848999023,0.06379040330648422,1.405315637588501,0.7071264982223511,-0.7674540281295776,-0.09575294703245163,0.500585675239563,-1.1754086017608643,-0.06482010334730148,-0.07790214568376541,0.4417616128921509,0.20239737629890442,0.7096021175384521,1.4251689910888672,0.3430218994617462,-0.3429200351238251,0.5651126503944397,-0.8808733820915222,1.3759819269180298,1.6053310632705688,0.8559982776641846,-0.7479434609413147,0.7153173685073853,1.591330647468567,-0.28369951248168945,-0.8043273687362671,2.2672066688537598,1.1142537593841553,0.0694257840514183,0.3902798593044281,1.370801568031311,-0.4130082130432129
64,0.3573915958404541,3.801706314086914,1.310202717781067,-1.6614575386047363,-1.0455663204193115,0.15244126319885254,-0.3086700737476349,0.1284225434064865,-0.30035400390625,0.05014576390385628,1.3998271226882935,0.693743109703064,-0.7876597046852112,-0.08340999484062195,0.5034687519073486,-1.1629048585891724,-0.06515554338693619,-0.09794186800718307,0.4493615925312042,0.21841901540756226,0.7151859402656555,1.4216666221618652,0.3441915214061737,-0.34283381700515747,0.5641221404075623,-0.8779090642929077,1.3720263242721558,1.5982885360717773,0.8519147634506226,-0.7418112754821777,0.7333491444587708,1.6002756357192993,-0.2946794927120209,-0.8048205971717834,2.264904260635376,1.0953705310821533,0.06880408525466919,0.3815338909626007,1.3624491691589355,-0.4042532444000244
65,0.3474786579608917,3.7975056171417236,1.3018749952316284,-1.687886118888855,-1.0392588376998901,0.16253885626792908,-0.31359127163887024,0.13124944269657135,-0.29255178570747375,0.05680537968873978,1.4036945104599,0.696833074092865,-0.7867068648338318,-0.0931207463145256,0.5008838772773743,-1.162619948387146,-0.060035910457372665,-0.07283210009336472,0.44553956389427185,0.21569707989692688,0.7131759524345398,1.4360089302062988,0.33404073119163513,-0.3377301096916199,0.5673065781593323,-0.8788348436355591,1.3792147636413574,1.6110652685165405,0.8752800226211548,-0.7342658638954163,0.7214182615280151,1.5906506776809692,-0.28629305958747864,-0.8111115097999573,2.2761874198913574,1.067440152168274,0.06811702251434326,0.3784894049167633,1.363128423690796,-0.4069982171058655
66,0.3671093285083771,3.810344696044922,1.3136388063430786,-1.6856024265289307,-1.052924394607544,0.145143061876297,-0.31408488750457764,0.12351348996162415,-0.2996205985546112,0.04260022193193436,1.3984946012496948,0.683621883392334,-0.8066402673721313,-0.08118791878223419,0.5037034749984741,-1.149617314338684,-0.060455288738012314,-0.09405846893787384,0.4526786804199219,0.2305341362953186,0.7193390130996704,1.4328182935714722,0.33437085151672363,-0.33745408058166504,0.566960334777832,-0.8750700354576111,1.375561237335205,1.6035315990447998,0.8714534044265747,-0.7284797430038452,0.7397270798683167,1.5996763706207275,-0.29757851362228394,-0.8115838766098022,2.273622512817383,1.0474919080734253,0.06747334450483322,0.3698042035102844,1.3549429178237915,-0.39748039841651917
67,0.35627835988998413,3.806231737136841,1.3052138090133667,-1.712165355682373,-1.046389102935791,0.15533539652824402,-0.3184756338596344,0.1262228935956955,-0.29150843620300293,0.049205172806978226,1.4029431343078613,0.6870075464248657,-0.8055407404899597,-0.09096919745206833,0.5010451078414917,-1.1494994163513184,-0.05550326034426689,-0.06728696823120117,0.44886451959609985,0.2273171991109848,0.7179134488105774,1.447074294090271,0.3232910633087158,-0.33233627676963806,0.5694195628166199,-0.8757359385490417,1.3833225965499878,1.6159878969192505,0.8954280614852905,-0.7199540138244629,0.7272230386734009,1.59012770652771,-0.28879255056381226,-0.8177139759063721,2.284198760986328,1.0182150602340698,0.06670473515987396,0.3664644956588745,1.3548182249069214,-0.4007869362831116
68,0.37621548771858215,3.819849729537964,1.3172951936721802,-1.7089660167694092,-1.060658574104309,0.13646577298641205,-0.3181443512439728,0.11802300810813904,-0.2983386814594269,0.033707767724990845,1.3976991176605225,0.6734049320220947,-0.8260620832443237,-0.07866532355546951,0.5041221380233765,-1.1355376243591309,-0.05611785873770714,-0.09076543897390366,0.456051230430603,0.2416541576385498,0.7248958349227905,1.4435005187988281,0.32315802574157715,-0.33200201392173767,0.5693549513816833,-0.8713576793670654,1.3795348405838013,1.6073681116104126,0.8908656239509583,-0.7145667672157288,0.7467381954193115,1.5999948978424072,-0.3011604845523834,-0.8180912137031555,2.280974864959717,0.9977462291717529,0.06630929559469223,0.35775548219680786,1.3465808629989624,-0.39036449790000916
69,0.36340010166168213,3.8149914741516113,1.3080233335494995,-1.7364857196807861,-1.0532019138336182,0.1478285938501358,-0.3221913278102875,0.12098592519760132,-0.2894062399864197,0.041110843420028687,1.4030896425247192,0.6775190234184265,-0.8239655494689941,-0.08936747908592224,0.5011534690856934,-1.1359765529632568,-0.05090334266424179,-0.06102887541055679,0.45184603333473206,0.23751547932624817,0.7237172722816467,1.4582113027572632,0.31103378534317017,-0.32670965790748596,0.5716520547866821,-0.8719362020492554,1.3882851600646973,1.620320439338684,0.9165496826171875,-0.7050195932388306,0.7324572205543518,1.5895589590072632,-0.291276216506958,-0.8243895173072815,2.291243314743042,0.9670180678367615,0.06524769216775894,0.35423099994659424,1.3459758758544922,-0.3945251405239105
70,0.3847818672657013,3.829972982406616,1.321245551109314,-1.731169581413269,-1.0690935850143433,0.12640006840229034,-0.3210139870643616,0.1119464784860611,-0.2968033254146576,0.02345595508813858,1.397403359413147,0.6629289984703064,-0.8460016846656799,-0.07587814331054688,0.504852294921875,-1.1205281019210815,-0.05189632251858711,-0.08803202211856842,0.45958638191223145,0.2520192861557007,0.7317751049995422,1.4535064697265625,0.31083178520202637,-0.3264601230621338,0.5714674592018127,-0.8671239614486694,1.3838304281234741,1.6099193096160889,0.9100938439369202,-0.7002350687980652,0.7542615532875061,1.6011844873428345,-0.3056153357028961,-0.8246036767959595,2.2869930267333984,0.946666955947876,0.06542885303497314,0.34545934200286865,1.3375269174575806,-0.3829771876335144
71,0.3687484860420227,3.823362112045288,1.3102484941482544,-1.7606390714645386,-1.059784173965454,0.14024867117404938,-0.3249223232269287,0.11560103297233582,-0.2864077687263489,0.03273637592792511,1.4041846990585327,0.6683192849159241,-0.8418434262275696,-0.08847694844007492,0.5012539625167847,-1.1220686435699463,-0.045970458537340164,-0.05386745184659958,0.4544876217842102,0.24648967385292053,0.7304473519325256,1.4692884683609009,0.2975233495235443,-0.3208485245704651,0.5742319822311401,-0.8677641749382019,1.3940988779067993,1.6243135929107666,0.9388123154640198,-0.6895042657852173,0.7367740273475647,1.5886616706848145,-0.29368990659713745,-0.8314125537872314,2.2973849773406982,0.9142801761627197,0.06373396515846252,0.34182342886924744,1.3367326259613037,-0.3883911669254303
72,0.3930284082889557,3.840547561645508,1.3256275653839111,-1.7517660856246948,-1.0785496234893799,0.11485393345355988,-0.32281261682510376,0.10524862259626389,-0.2953855097293854,0.011774133890867233,1.3975366353988647,0.6520541906356812,-0.8665622472763062,-0.07281254976987839,0.5060504674911499,-1.1044796705245972,-0.04768039286136627,-0.08586587756872177,0.46338939666748047,0.26187416911125183,0.7399098873138428,1.462544322013855,0.29768046736717224,-0.32085853815078735,0.5733008980751038,-0.8627282977104187,1.3882545232772827,1.6112169027328491,0.9289307594299316,-0.6856974959373474,0.7622747421264648,1.6033393144607544,-0.3111376464366913,-0.8313499093055725,2.2917089462280273,0.8948554992675781,0.06497965008020401,0.33300134539604187,1.3279293775558472,-0.3754255175590515
73,0.37220650911331177,3.8308587074279785,1.311753511428833,-1.78449285030365,-1.0660345554351807,0.13291619718074799,-0.3268234431743622,0.11017758399248123,-0.2825653851032257,0.024413825944066048,1.4063106775283813,0.659456193447113,-0.858879804611206,-0.08853510767221451,0.5013474225997925,-1.107884407043457,-0.04049483686685562,-0.04573679342865944,0.4566829204559326,0.25434818863868713,0.7379187345504761,1.4802039861679077,0.28301241993904114,-0.3147831857204437,0.5774695873260498,-0.8634905815124512,1.400782823562622,1.628262996673584,0.9624188542366028,-0.6734768152236938,0.739778459072113,1.5870609283447266,-0.2958446741104126,-0.8390464186668396,2.302720069885254,0.860413670539856,0.06206728518009186,0.32927489280700684,1.327233910560608,-0.3825797140598297
74,0.40128618478775024,3.8515191078186035,1.3306382894515991,-1.7702542543411255,-1.0893393754959106,0.10169510543346405,-0.32361510396003723,0.097877636551857,-0.2945398688316345,-0.0014468836598098278,1.3980064392089844,0.6406911611557007,-0.8878645300865173,-0.06940686702728271,0.5079097747802734,-1.0873215198516846,-0.04351888597011566,-0.08419059962034225,0.4675798714160919,0.27141809463500977,0.7492402791976929,1.4702504873275757,0.28399744629859924,-0.31527194380760193,0.5746719837188721,-0.8585485219955444,1.3925280570983887,1.6112295389175415,0.9470109343528748,-0.671225368976593,0.7708242535591125,1.6067098379135132,-0.317921906709671,-0.8385046124458313,2.2951407432556152,0.8429985642433167,0.06516734510660172,0.32049015164375305,1.3179209232330322,-0.36786648631095886
75,0.3736843764781952,3.836961507797241,1.3123332262039185,-1.807929515838623,-1.0716816186904907,0.12619911134243011,-0.3280313014984131,0.10488204658031464,-0.2777993381023407,0.016582494601607323,1.409565806388855,0.6510605812072754,-0.8746376633644104,-0.08980737626552582,0.5013903975486755,-1.093603491783142,-0.0343218557536602,-0.03685566782951355,0.45821645855903625,0.2610854208469391,0.7458885908126831,1.4908761978149414,0.26777586340904236,-0.30858317017555237,0.5818521976470947,-0.859294056892395,1.408370018005371,1.6324976682662964,0.9875234365463257,-0.6570310592651367,0.7411156296730042,1.584299087524414,-0.29745540022850037,-0.847527265548706,2.307330369949341,0.8058182001113892,0.06005347520112991,0.3166063129901886,1.3176250457763672,-0.37727490067481995
76,0.40986740589141846,3.8629236221313477,1.3364691734313965,-1.786167860031128,-1.10169517993927,0.08689900487661362,-0.32347017526626587,0.08979569375514984,-0.29479390382766724,-0.016260216012597084,1.3987292051315308,0.6288636922836304,-0.909959614276886,-0.06559830904006958,0.5106526017189026,-1.0690619945526123,-0.03963479772210121,-0.08262410014867783,0.47229862213134766,0.2807185649871826,0.7596791386604309,1.4762402772903442,0.27007240056991577,-0.3098069429397583,0.5751851797103882,-0.8550116419792175,1.3963085412979126,1.6099445819854736,0.9639078974723816,-0.6571269035339355,0.7798835635185242,1.6116191148757935,-0.32608646154403687,-0.8461894392967224,2.2972970008850098,0.7918773889541626,0.06627068668603897,0.30806764960289,1.3076263666152954,-0.36055171489715576
77,0.37333202362060547,3.841245651245117,1.3118051290512085,-1.8306523561477661,-1.0764455795288086,0.12029863148927689,-0.32867029309272766,0.09990567713975906,-0.2719672620296478,0.00963681098073721,1.4139857292175293,0.6432684659957886,-0.888691246509552,-0.0924394503235817,0.5013291835784912,-1.0793944597244263,-0.02738146483898163,-0.027936162427067757,0.45881417393684387,0.26659440994262695,0.7540604472160339,1.5011577606201172,0.2521591782569885,-0.30236947536468506,0.5880958437919617,-0.8552248477935791,1.4168282747268677,1.6372655630111694,1.013954520225525,-0.640309751033783,0.7407407164573669,1.580017328262329,-0.29831352829933167,-0.8570447564125061,2.3112101554870605,0.7509505748748779,0.05743027105927467,0.3038231432437897,1.3080253601074219,-0.37260425090789795
78,0.41870561242103577,3.8746702671051025,1.3430947065353394,-1.7993686199188232,-1.115465760231018,0.07093411684036255,-0.32244253158569336,0.08107978850603104,-0.29656898975372314,-0.03234676644206047,1.3997329473495483,0.6168559789657593,-0.9325269460678101,-0.06150476634502411,0.5144539475440979,-1.0498991012573242,-0.036375030875205994,-0.08028493076562881,0.47763222455978394,0.2895488440990448,0.7710356712341309,1.480286955833435,0.2561645805835724,-0.30456289649009705,0.574348509311676,-0.8525986671447754,1.3993345499038696,1.6075907945632935,0.9795252084732056,-0.6436607837677002,0.7889898419380188,1.6180437803268433,-0.33540478348731995,-0.8545092940330505,2.298236131668091,0.742294192314148,0.06854381412267685,0.29590490460395813,1.2972050905227661,-0.3538685739040375
79,0.37201133370399475,3.84376859664917,1.310316562652588,-1.8517876863479614,-1.0805308818817139,0.11473778635263443,-0.3288224935531616,0.09532640874385834,-0.26521390676498413,0.0034655279014259577,1.41935396194458,0.6360180377960205,-0.9011280536651611,-0.09612493962049484,0.5012407302856445,-1.0652304887771606,-0.019816717132925987,-0.020177166908979416,0.4583403170108795,0.2708057761192322,0.7621694803237915,1.5105955600738525,0.23662897944450378,-0.29632997512817383,0.5968118906021118,-0.8512188792228699,1.4258334636688232,1.642388939857483,1.040623664855957,-0.6236013174057007,0.7394471764564514,1.5746073722839355,-0.29872778058052063,-0.8676716089248657,2.314150810241699,0.6965528726577759,0.05406326800584793,0.29095301032066345,1.298484206199646,-0.3685932755470276
80,0.42678728699684143,3.8859872817993164,1.3498646020889282,-1.81056547164917,-1.1294865608215332,0.055298056453466415,-0.32068106532096863,0.072135329246521,-0.2995607852935791,-0.04842492938041687,1.4013572931289673,0.605413556098938,-0.9543221592903137,-0.05779620260000229,0.5192008018493652,-1.0303994417190552,-0.03395155072212219,-0.07599934935569763,0.48331180214881897,0.29721641540527344,0.7828938961029053,1.4827219247817993,0.24244116246700287,-0.2995555102825165,0.5721532702445984,-0.8516693115234375,1.4018210172653198,1.6050235033035278,0.994811475276947,-0.6308414340019226,0.796806275844574,1.6247003078460693,-0.34482261538505554,-0.863619327545166,2.298203945159912,0.694768488407135,0.07180331647396088,0.28414854407310486,1.2869523763656616,-0.3482164144515991
81,0.37161117792129517,3.845658779144287,1.3088514804840088,-1.8696496486663818,-1.0852513313293457,0.10791952908039093,-0.3284338712692261,0.0908568874001503,-0.25864124298095703,-0.0031151834409683943,1.4249860048294067,0.6287918090820312,-0.9132525324821472,-0.09973165392875671,0.5016152262687683,-1.0506750345230103,-0.01221475750207901,-0.014665047638118267,0.4571913182735443,0.27404236793518066,0.7702097296714783,1.5181528329849243,0.2217164933681488,-0.2907167971134186,0.6072362661361694,-0.8472861051559448,1.434471607208252,1.6468335390090942,1.0651614665985107,-0.6075292229652405,0.7391289472579956,1.5701097249984741,-0.3000112771987915,-0.879192590713501,2.315702438354492,0.6440248489379883,0.05040774494409561,0.27817440032958984,1.2889485359191895,-0.3651553690433502
82,0.43223321437835693,3.895049571990967,1.3553450107574463,-1.821416974067688,-1.1414179801940918,0.04224731773138046,-0.31844770908355713,0.06379503756761551,-0.30196303129196167,-0.062179792672395706,1.4043110609054565,0.5956130623817444,-0.9731829762458801,-0.055839844048023224,0.524158775806427,-1.0115450620651245,-0.0319245383143425,-0.06915543228387833,0.4882693886756897,0.30283665657043457,0.7945528030395508,1.484702229499817,0.22890859842300415,-0.2946792244911194,0.5700353980064392,-0.8519577383995056,1.4048480987548828,1.6037747859954834,1.0117831230163574,-0.6182817220687866,0.8015003204345703,1.6288577318191528,-0.3524579703807831,-0.87371826171875,2.297724723815918,0.6490876078605652,0.07483258843421936,0.27281954884529114,1.277358889579773,-0.3435761332511902
83,0.37397414445877075,3.848815679550171,1.3091744184494019,-1.8827180862426758,-1.0923924446105957,0.09804452210664749,-0.32725346088409424,0.08581922948360443,-0.2542268931865692,-0.011793464422225952,1.429971694946289,0.6208040714263916,-0.9270854592323303,-0.10171593725681305,0.5034031867980957,-1.035070538520813,-0.005542016122490168,-0.011436359956860542,0.4564536213874817,0.2772820293903351,0.7785864472389221,1.5226056575775146,0.2077440768480301,-0.28579309582710266,0.616061270236969,-0.8438466191291809,1.4415168762207031,1.6491259336471558,1.0853140354156494,-0.5930473208427429,0.7415441274642944,1.5692973136901855,-0.3038618266582489,-0.8909933567047119,2.3154940605163574,0.5952836871147156,0.04769649729132652,0.2659206986427307,1.279361605644226,-0.36211103200912476
84,0.43398717045783997,3.900210380554199,1.3583287000656128,-1.8332797288894653,-1.1495168209075928,0.03286629915237427,-0.31595879793167114,0.056779853999614716,-0.3014238476753235,-0.07200874388217926,1.409066081047058,0.5879740715026855,-0.9877617359161377,-0.056695688515901566,0.528262734413147,-0.994265615940094,-0.029094059020280838,-0.06054600328207016,0.4909832775592804,0.30638962984085083,0.805270791053772,1.4873589277267456,0.21547694504261017,-0.28988441824913025,0.5703014731407166,-0.8523670434951782,1.4097083806991577,1.604954481124878,1.031652808189392,-0.6055740118026733,0.8023727536201477,1.628926157951355,-0.3570787012577057,-0.8848092555999756,2.2972981929779053,0.6045902371406555,0.07590385526418686,0.26184481382369995,1.2688379287719727,-0.33937743306159973
85,0.37900277972221375,3.8540279865264893,1.3123905658721924,-1.8913533687591553,-1.1021074056625366,0.0850403681397438,-0.3250069320201874,0.0797182023525238,-0.2528638541698456,-0.022913210093975067,1.4340496063232422,0.6118665933609009,-0.943199872970581,-0.1016755923628807,0.5072296261787415,-1.0183500051498413,-0.0003728475421667099,-0.00941004604101181,0.45706453919410706,0.281584233045578,0.787657618522644,1.5237951278686523,0.19464190304279327,-0.281751424074173,0.6200215816497803,-0.8416191935539246,1.4465446472167969,1.6489224433898926,1.1012485027313232,-0.580694854259491,0.7464325428009033,1.572652816772461,-0.3105136752128601,-0.9024169445037842,2.31376051902771,0.5514424443244934,0.04687289148569107,0.2546236515045166,1.2698471546173096,-0.35926827788352966
86,0.4330381751060486,3.9018430709838867,1.3591747283935547,-1.845956563949585,-1.1543740034103394,0.02593013271689415,-0.31317609548568726,0.051004789769649506,-0.2976652979850769,-0.07865391671657562,1.4152023792266846,0.581908106803894,-0.9989233613014221,-0.059939753264188766,0.5312520265579224,-0.9787446856498718,-0.024586612358689308,-0.05182771757245064,0.4909745454788208,0.3090767562389374,0.8147467374801636,1.4905797243118286,0.20218992233276367,-0.28541964292526245,0.5734779834747314,-0.8520663380622864,1.4164704084396362,1.6081386804580688,1.0534940958023071,-0.5928516387939453,0.8005841374397278,1.6263482570648193,-0.3593360483646393,-0.896510899066925,2.296929121017456,0.5613190531730652,0.07457808405160904,0.2512762248516083,1.2612955570220947,-0.33527830243110657
87,0.38504546880722046,3.86030650138855,1.3178508281707764,-1.8974376916885376,-1.1128100156784058,0.07042679935693741,-0.3216773569583893,0.07270947843790054,-0.253425270318985,-0.035230603069067,1.4377472400665283,0.6026360392570496,-0.9602699875831604,-0.10075094550848007,0.5127050876617432,-1.0012651681900024,0.0036091769579797983,-0.007503053173422813,0.45881062746047974,0.2871737480163574,0.7971614003181458,1.5228090286254883,0.18222281336784363,-0.2786620259284973,0.6196502447128296,-0.8408961892127991,1.4502432346343994,1.64736008644104,1.115022897720337,-0.5699629783630371,0.7520896792411804,1.5782525539398193,-0.3185459077358246,-0.9132872223854065,2.3111724853515625,0.5120500326156616,0.04756544157862663,0.24437396228313446,1.2606562376022339,-0.3565578758716583
88,0.4311539828777313,3.901695489883423,1.3592679500579834,-1.8583557605743408,-1.1576924324035645,0.019495010375976562,-0.30995145440101624,0.045868147164583206,-0.2923834025859833,-0.08394831418991089,1.421893835067749,0.5765582919120789,-1.008456826210022,-0.0643702894449234,0.5338424444198608,-0.9644962549209595,-0.018760159611701965,-0.04403550922870636,0.48917126655578613,0.3120286762714386,0.8231824636459351,1.4935026168823242,0.18928426504135132,-0.28169122338294983,0.5781931281089783,-0.8513612151145935,1.424087405204773,1.6121132373809814,1.0755810737609863,-0.5804043412208557,0.7978876233100891,1.6233549118041992,-0.3606905937194824,-0.9083420634269714,2.2962965965270996,0.5201188921928406,0.07184033840894699,0.24129778146743774,1.2542784214019775,-0.3314972519874573
89,0.39073309302330017,3.8664164543151855,1.324144959449768,-1.9025764465332031,-1.122970461845398,0.05564612150192261,-0.3175397217273712,0.06531819701194763,-0.25440794229507446,-0.047352179884910583,1.441582441329956,0.5938587188720703,-0.9768206477165222,-0.10015922039747238,0.5190243721008301,-0.9846005439758301,0.007040031254291534,-0.0052877916023135185,0.4607643187046051,0.293491005897522,0.806536853313446,1.52080500125885,0.17045477032661438,-0.27650707960128784,0.6176424026489258,-0.8414115309715271,1.4535105228424072,1.645724892616272,1.1283849477767944,-0.5599162578582764,0.7572594285011292,1.5842145681381226,-0.32653358578681946,-0.9238179326057434,2.3082339763641357,0.4761095941066742,0.04878053441643715,0.2350391447544098,1.2519623041152954,-0.3540012240409851
90,0.4294758141040802,3.9012176990509033,1.3596590757369995,-1.869640827178955,-1.1605991125106812,0.012422915548086166,-0.30628588795661926,0.040877822786569595,-0.28706663846969604,-0.08907626569271088,1.428566336631775,0.571514368057251,-1.0175793170928955,-0.06908316910266876,0.5368010997772217,-0.9509755969047546,-0.012570478022098541,-0.03727634251117706,0.48666661977767944,0.31550657749176025,0.8308983445167542,1.4955257177352905,0.17704594135284424,-0.2789725363254547,0.5831975936889648,-0.8509578108787537,1.4316009283065796,1.616044521331787,1.0967845916748047,-0.5682427883148193,0.7954391837120056,1.621118426322937,-0.3621359169483185,-0.9200271964073181,2.295177936553955,0.48176848888397217,0.06873741745948792,0.23204387724399567,1.2474312782287598,-0.32826897501945496
91,0.3955424129962921,3.871812582015991,1.3303073644638062,-1.9074782133102417,-1.1318343877792358,0.04140292853116989,-0.31297972798347473,0.05799145996570587,-0.2549803555011749,-0.05849733203649521,1.445719599723816,0.5859308838844299,-0.9921494126319885,-0.10039446502923965,0.5256646275520325,-0.9687276482582092,0.010287015698850155,-0.0027220898773521185,0.46219882369041443,0.2998068034648895,0.8153921961784363,1.5184143781661987,0.1594344526529312,-0.27525919675827026,0.615925669670105,-0.8427861928939819,1.4568724632263184,1.6447094678878784,1.1420423984527588,-0.5498944520950317,0.761555552482605,1.5896649360656738,-0.3338376581668854,-0.9342390894889832,2.305148124694824,0.44297343492507935,0.049802303314208984,0.22647559642791748,1.2437918186187744,-0.3516169488430023
92,0.4284055233001709,3.9011147022247314,1.3607343435287476,-1.8795020580291748,-1.1634434461593628,0.0044085122644901276,-0.30234384536743164,0.03580586612224579,-0.2822757065296173,-0.09438468515872955,1.4349573850631714,0.5667133331298828,-1.0267632007598877,-0.07363487035036087,0.5404914617538452,-0.9378616809844971,-0.00673370948061347,-0.03132409229874611,0.48402139544487,0.3192243278026581,0.8380985260009766,1.4964897632598877,0.16571688652038574,-0.2773544490337372,0.5879524946212769,-0.8512442111968994,1.4385877847671509,1.619678258895874,1.1166781187057495,-0.5562343597412109,0.7936621904373169,1.6199302673339844,-0.36406615376472473,-0.9314737915992737,2.2935280799865723,0.44663137197494507,0.06578940153121948,0.22354310750961304,1.2406326532363892,-0.3255728781223297
93,0.3994434177875519,3.8764660358428955,1.3359756469726562,-1.9123016595840454,-1.1391937732696533,0.02787914127111435,-0.3083497881889343,0.05095300078392029,-0.2548541724681854,-0.06841429322957993,1.4501042366027832,0.5789626240730286,-1.006128191947937,-0.1014631912112236,0.5324233770370483,-0.9537302255630493,0.013440048322081566,0.00014486629515886307,0.4628097414970398,0.30556580424308777,0.8235493898391724,1.5158878564834595,0.1492917686700821,-0.27490857243537903,0.615199625492096,-0.84474116563797,1.4605120420455933,1.6445438861846924,1.156044602394104,-0.5395801663398743,0.7650059461593628,1.594419002532959,-0.3403646945953369,-0.9446559548377991,2.3019630908966064,0.4123916029930115,0.05032937228679657,0.21858270466327667,1.2360916137695312,-0.34941673278808594
94,0.4279644787311554,3.901614189147949,1.3625110387802124,-1.887956142425537,-1.1661983728408813,-0.004466128535568714,-0.2983512580394745,0.03058227337896824,-0.2780334949493408,-0.0998360812664032,1.440964698791504,0.5621970891952515,-1.0360740423202515,-0.07785965502262115,0.5449613928794861,-0.9250256419181824,-0.0015638594049960375,-0.025983190163969994,0.4813874065876007,0.3227863311767578,0.8448711037635803,1.4964884519577026,0.15547403693199158,-0.27682605385780334,0.5923188924789429,-0.8522791862487793,1.444978952407837,1.6230651140213013,1.135196328163147,-0.5442526340484619,0.7925674319267273,1.619727611541748,-0.36654752492904663,-0.9426602721214294,2.291386365890503,0.4147725999355316,0.06313277035951614,0.21576282382011414,1.2339082956314087,-0.3232410252094269
95,0.4025634825229645,3.8805315494537354,1.3411177396774292,-1.9170241355895996,-1.145092487335205,0.015035814605653286,-0.3039284944534302,0.04426342993974686,-0.25399404764175415,-0.07712099701166153,1.454611897468567,0.5729228854179382,-1.0188602209091187,-0.10321133583784103,0.5392498970031738,-0.9395942091941833,0.01648799143731594,0.0032556718215346336,0.4625551998615265,0.31043165922164917,0.8309488892555237,1.5133224725723267,0.14013661444187164,-0.2754499316215515,0.6155028343200684,-0.8471019864082336,1.4644458293914795,1.6452471017837524,1.1702041625976562,-0.5288479328155518,0.7677329778671265,1.5985695123672485,-0.3462185561656952,-0.9550760388374329,2.298677444458008,0.3842970132827759,0.0503096841275692,0.21129341423511505,1.2288053035736084,-0.3474157452583313
96,0.4280499219894409,3.90273380279541,1.364892840385437,-1.8951534032821655,-1.168752908706665,-0.014016298577189445,-0.2945244610309601,0.025195002555847168,-0.27420058846473694,-0.10531330853700638,1.4465426206588745,0.5580036044120789,-1.0454391241073608,-0.08171519637107849,0.5501161217689514,-0.9124451875686646,0.0028845700435340405,-0.021148985251784325,0.4787571132183075,0.32588186860084534,0.8512482047080994,1.4957044124603271,0.14643140137195587,-0.27733537554740906,0.5962997674942017,-0.8539789915084839,1.4508426189422607,1.626330018043518,1.1523964405059814,-0.5321988463401794,0.7920212149620056,1.6203551292419434,-0.3695181608200073,-0.9535732269287109,2.2888097763061523,0.3861023187637329,0.06074405834078789,0.20865076780319214,1.2273383140563965,-0.3210836946964264
97,0.4050392806529999,3.8841769695281982,1.3458143472671509,-1.9216110706329346,-1.1496680974960327,0.0027803671546280384,-0.29992690682411194,0.037907298654317856,-0.25245556235313416,-0.0847337394952774,1.4591139554977417,0.5677263140678406,-1.0305025577545166,-0.10547605901956558,0.5461400747299194,-0.9262982606887817,0.019423766061663628,0.0065554846078157425,0.4615042507648468,0.3142370283603668,0.8375831842422485,1.5107771158218384,0.13203756511211395,-0.27686843276023865,0.6166507601737976,-0.8497677445411682,1.4686381816864014,1.6467571258544922,1.1843085289001465,-0.5176494121551514,0.7698484659194946,1.6022682189941406,-0.3515270948410034,-0.9654571413993835,2.2952842712402344,0.35864636301994324,0.04979778453707695,0.20455868542194366,1.2219003438949585,-0.34562745690345764
98,0.42854464054107666,3.9044172763824463,1.3677778244018555,-1.9012776613235474,-1.171028971672058,-0.024063855409622192,-0.29104137420654297,0.019643215462565422,-0.27063411474227905,-0.11072748154401779,1.4516572952270508,0.5541398525238037,-1.054772138595581,-0.08520063012838364,0.5558258891105652,-0.9001427292823792,0.006681079976260662,-0.016778510063886642,0.47609812021255493,0.3283253312110901,0.8572477102279663,1.4943311214447021,0.13864704966545105,-0.2788149118423462,0.599928617477417,-0.8562362194061279,1.4562712907791138,1.629568099975586,1.1683604717254639,-0.5199899077415466,0.7918736934661865,1.6216562986373901,-0.3728841543197632,-0.9641858339309692,2.285855531692505,0.36044642329216003,0.058562569320201874,0.2021520882844925,1.2210084199905396,-0.31893882155418396
99,0.4069731533527374,3.88752818107605,1.3501585721969604,-1.9260625839233398,-1.153083086013794,-0.008966298773884773,-0.29649996757507324,0.03184567764401436,-0.25031501054763794,-0.09138823300600052,1.4634979963302612,0.5632714033126831,-1.0412029027938843,-0.10813193768262863,0.5530996918678284,-0.9138346314430237,0.022276727482676506,0.00999537855386734,0.4597598612308502,0.3169306516647339,0.843466579914093,1.5083121061325073,0.12501758337020874,-0.27913418412208557,0.618428647518158,-0.8526837229728699,1.4730485677719116,1.6489806175231934,1.198192834854126,-0.5059571862220764,0.7714337110519409,1.6056443452835083,-0.35638880729675293,-0.9757370352745056,2.291787624359131,0.33534812927246094,0.048878323286771774,0.19833511114120483,1.2153642177581787,-0.34406042098999023
100,0.4293506443500519,3.9065945148468018,1.3710867166519165,-1.9065057039260864,-1.1730059385299683,-0.034463971853256226,-0.2880343496799469,0.013921016827225685,-0.267231285572052,-0.11603767424821854,1.4562745094299316,0.5505837202072144,-1.0640149116516113,-0.08832313865423203,0.5619738698005676,-0.8881486058235168,0.009944711811840534,-0.012861060909926891,0.4733998477458954,0.3300410211086273,0.862892210483551,1.4925436973571777,0.13213126361370087,-0.2811901867389679,0.6032307744026184,-0.858964204788208,1.4613429307937622,1.6328163146972656,1.1831661462783813,-0.5075493454933167,0.7920008897781372,1.6234992742538452,-0.3765582740306854,-0.9744561910629272,2.282576084136963,0.3375769853591919,0.056537095457315445,0.1962127983570099,1.214990258216858,-0.3166801929473877
101,0.4084276258945465,3.890665292739868,1.3542221784591675,-1.930413842201233,-1.1554985046386719,-0.020252609625458717,-0.29375600814819336,0.026038823649287224,-0.24764305353164673,-0.09721150249242783,1.4676741361618042,0.5594558119773865,-1.0510839223861694,-0.11109801381826401,0.5601357221603394,-0.9022043347358704,0.02511228807270527,0.01353350281715393,0.4574264883995056,0.318538099527359,0.8486220836639404,1.5059982538223267,0.11905746906995773,-0.28220421075820923,0.6206547617912292,-0.8558219075202942,1.4776467084884644,1.651810646057129,1.2117539644241333,-0.49374204874038696,0.772541344165802,1.608786940574646,-0.36086732149124146,-0.9858474731445312,2.288206100463867,0.3142462372779846,0.04763292148709297,0.19257672131061554,1.2091917991638184,-0.34271979331970215
102,0.43039387464523315,3.909201145172119,1.374764084815979,-1.9109915494918823,-1.1747139692306519,-0.045105770230293274,-0.28559187054634094,0.008013349957764149,-0.26393043994903564,-0.1212451159954071,1.4603606462478638,0.5472908616065979,-1.0731430053710938,-0.09108825027942657,0.5684720277786255,-0.876479983329773,0.012809128500521183,-0.0094003826379776,0.470680296421051,0.3310348689556122,0.8682147860527039,1.4904922246932983,0.1268550306558609,-0.2843843996524811,0.6062147617340088,-0.8621048927307129,1.4661117792129517,1.6360572576522827,1.1968821287155151,-0.4948040246963501,0.7923115491867065,1.6257809400558472,-0.38047322630882263,-0.9843302965164185,2.2790231704711914,0.3172316551208496,0.054637741297483444,0.190778449177742,1.2093346118927002,-0.3142125904560089
103,0.4094313979148865,3.8936281204223633,1.3580472469329834,-1.9347213506698608,-1.1570621728897095,-0.031097829341888428,-0.29176443815231323,0.020453233271837234,-0.2444981187582016,-0.10231565684080124,1.4715757369995117,0.5561820864677429,-1.060241460800171,-0.11433185636997223,0.5672570466995239,-0.8914065957069397,0.028022047132253647,0.017135417088866234,0.45459750294685364,0.31913378834724426,0.8530764579772949,1.5039143562316895,0.1141030564904213,-0.28602805733680725,0.6231927275657654,-0.8591688871383667,1.482414960861206,1.6551353931427002,1.2249423265457153,-0.48096606135368347,0.7732019424438477,1.6117502450942993,-0.3649996519088745,-0.9957224130630493,2.284569501876831,0.29513058066368103,0.046128083020448685,0.18723075091838837,1.2033746242523193,-0.34161049127578735
104,0.4316196143627167,3.9121830463409424,1.378772258758545,-1.9148612022399902,-1.1762175559997559,-0.05590629577636719,-0.2837648093700409,0.0018950162921100855,-0.2607019543647766,-0.12638160586357117,1.4638862609863281,0.5442026257514954,-1.0821577310562134,-0.09349899739027023,0.5752624273300171,-0.865131676197052,0.015406354330480099,-0.006404223386198282,0.46798038482666016,0.3313671052455902,0.8732580542564392,1.4883021116256714,0.12275847047567368,-0.2883226275444031,0.6088730096817017,-0.8656253814697266,1.47061026096344,1.6392340660095215,1.2095685005187988,-0.48168355226516724,0.7927415370941162,1.6284257173538208,-0.3845840096473694,-0.993748664855957,2.275245189666748,0.29913052916526794,0.052855461835861206,0.1857934594154358,1.2040719985961914,-0.31146860122680664
105,0.4099877178668976,3.896426200866699,1.3616505861282349,-1.9390491247177124,-1.1579041481018066,-0.04150025546550751,-0.2905631363391876,0.015061412006616592,-0.24092720448970795,-0.10679909586906433,1.47515869140625,0.5533598065376282,-1.068745493888855,-0.11782027781009674,0.5744767785072327,-0.8814293146133423,0.03111151233315468,0.020771101117134094,0.45135095715522766,0.31882020831108093,0.8568587303161621,1.502140760421753,0.11007464677095413,-0.2905539870262146,0.6259481906890869,-0.8627183437347412,1.4873466491699219,1.6588438749313354,1.2377487421035767,-0.46758273243904114,0.773430347442627,1.6145641803741455,-0.36880606412887573,-1.0053030252456665,2.2809133529663086,0.2777571976184845,0.04441175237298012,0.1822364628314972,1.1978960037231445,-0.3407372832298279
106,0.43298640847206116,3.915496826171875,1.3830845355987549,-1.9182125329971313,-1.177599310874939,-0.06680486351251602,-0.28257420659065247,-0.00446795579046011,-0.2575378715991974,-0.131497323513031,1.4668306112289429,0.5412529110908508,-1.0910757780075073,-0.09555952996015549,0.5823141932487488,-0.8540754914283752,0.01785927452147007,-0.0038753258995711803,0.46535566449165344,0.33112800121307373,0.8780696988105774,1.486076831817627,0.11975860595703125,-0.29293596744537354,0.611186146736145,-0.8695123195648193,1.4748539924621582,1.6422663927078247,1.221280574798584,-0.4681207835674286,0.7932470440864563,1.6313831806182861,-0.3888658583164215,-1.0026519298553467,2.271285057067871,0.282991498708725,0.05119819939136505,0.18120120465755463,1.199215054512024,-0.30840906500816345
107,0.4100838601589203,3.899049758911133,1.3650298118591309,-1.9434549808502197,-1.1581357717514038,-0.051447756588459015,-0.29016485810279846,0.009838242083787918,-0.2369682639837265,-0.11075112968683243,1.4783979654312134,0.5509066581726074,-1.0766452550888062,-0.12156742066144943,0.5818130373954773,-0.8722409605979919,0.034487783908843994,0.024408679455518723,0.4477488100528717,0.3177129924297333,0.8600017428398132,1.500753402709961,0.10687772929668427,-0.29573503136634827,0.6288628578186035,-0.8664664030075073,1.4924428462982178,1.6628289222717285,1.2501895427703857,-0.45353963971138,0.7732322216033936,1.6172454357147217,-0.37229907512664795,-1.0145397186279297,2.2772703170776367,0.26186898350715637,0.04251309111714363,0.17752628028392792,1.1927298307418823,-0.34009918570518494
108,0.43445760011672974,3.9191060066223145,1.3876783847808838,-1.9211212396621704,-1.1789443492889404,-0.07775667309761047,-0.28202033042907715,-0.01111347135156393,-0.2544405162334442,-0.13664847612380981,1.46918523311615,0.5383750200271606,-1.099919080734253,-0.09728211909532547,0.5896192789077759,-0.8432677388191223,0.020279528573155403,-0.0018006989266723394,0.46286720037460327,0.3304157257080078,0.8826943039894104,1.483902096748352,0.11775542050600052,-0.2981654703617096,0.6131282448768616,-0.8737661242485046,1.478850245475769,1.645066738128662,1.2320729494094849,-0.4540516436100006,0.7937958240509033,1.6346218585968018,-0.39330917596817017,-1.0109853744506836,2.267178773880005,0.26854074001312256,0.049687594175338745,0.17694512009620667,1.19476318359375,-0.30502915382385254
109,0.40970250964164734,3.9014768600463867,1.3681734800338745,-1.947978138923645,-1.1578526496887207,-0.06093097850680351,-0.29056233167648315,0.004755341913551092,-0.23265618085861206,-0.11425920575857162,1.4812812805175781,0.5487475395202637,-1.0839757919311523,-0.12557865679264069,0.5892891883850098,-0.8637819290161133,0.03824729472398758,0.02800384908914566,0.443839967250824,0.3159305155277252,0.8625472784042358,1.499815583229065,0.10441503673791885,-0.3015325963497162,0.6319058537483215,-0.8704096674919128,1.4977079629898071,1.666986346244812,1.2622894048690796,-0.43878087401390076,0.7726125717163086,1.6198073625564575,-0.37549248337745667,-1.0233920812606812,2.2736659049987793,0.24721446633338928,0.040443144738674164,0.17302824556827545,1.1878424882888794,-0.3396763205528259
110,0.43599066138267517,3.922973155975342,1.3925265073776245,-1.9236500263214111,-1.1803255081176758,-0.08872482925653458,-0.28209188580513,-0.018075838685035706,-0.2514117360115051,-0.14188304543495178,1.4709564447402954,0.5355084538459778,-1.1087037324905396,-0.098698690533638,0.597187340259552,-0.8326632380485535,0.0227701123803854,-0.0001373965060338378,0.460571825504303,0.32931673526763916,0.8871608972549438,1.4818540811538696,0.11663540452718735,-0.30396467447280884,0.6146714091300964,-0.8783970475196838,1.4826055765151978,1.6475576162338257,1.2420064210891724,-0.43941327929496765,0.7943580150604248,1.6381226778030396,-0.39791104197502136,-1.018704891204834,2.2629575729370117,0.25551798939704895,0.048355042934417725,0.17297005653381348,1.1907042264938354,-0.30137085914611816
111,0.40883660316467285,3.9036874771118164,1.3710744380950928,-1.9526256322860718,-1.1571431159973145,-0.06995630264282227,-0.2917300760746002,-0.00022877648007124662,-0.22803039848804474,-0.11741996556520462,1.4838000535964966,0.546812117099762,-1.0907686948776245,-0.12983858585357666,0.5969338417053223,-0.8559528589248657,0.042463693767786026,0.03148660808801651,0.43966683745384216,0.31358909606933594,0.8645561337471008,1.4993699789047241,0.10260030627250671,-0.3079175651073456,0.6350639462471008,-0.8745449185371399,1.5031417608261108,1.6712101697921753,1.274064540863037,-0.42325037717819214,0.7715859413146973,1.6222679615020752,-0.37841159105300903,-1.0318281650543213,2.270111322402954,0.23356351256370544,0.03819781169295311,0.16867005825042725,1.1831976175308228,-0.33941131830215454
112,0.4375230371952057,3.927053928375244,1.3975850343704224,-1.9258661270141602,-1.1817861795425415,-0.09966877847909927,-0.28277483582496643,-0.0253731831908226,-0.24844075739383698,-0.14722482860088348,1.4721699953079224,0.5326062440872192,-1.1174278259277344,-0.09987728297710419,0.6050419807434082,-0.8222343921661377,0.025433776900172234,0.0012031220830976963,0.45850837230682373,0.32788723707199097,0.8914677500724792,1.480008602142334,0.11627248674631119,-0.31030091643333435,0.6157934665679932,-0.883421003818512,1.4861376285552979,1.6496891975402832,1.251161813735962,-0.4241407811641693,0.7948950529098511,1.6418688297271729,-0.4026638865470886,-1.0257835388183594,2.258650779724121,0.24367401003837585,0.04723741114139557,0.16922301054000854,1.187016248703003,-0.29753753542900085
113,0.4075067639350891,3.9056777954101562,1.3737486600875854,-1.9573585987091064,-1.1561007499694824,-0.07856332510709763,-0.29362353682518005,-0.005182248540222645,-0.22314441204071045,-0.12035360932350159,1.4859399795532227,0.5450299978256226,-1.0970698595046997,-0.1342865377664566,0.604780375957489,-0.8486008048057556,0.047174613922834396,0.034747712314128876,0.4352765679359436,0.3108026087284088,0.8661212921142578,1.4994279146194458,0.10137180238962173,-0.31486842036247253,0.638327419757843,-0.8788710832595825,1.5087281465530396,1.6753836870193481,1.2855024337768555,-0.4068929851055145,0.7701893448829651,1.6246591806411743,-0.38110587000846863,-1.0398207902908325,2.26659893989563,0.22072020173072815,0.03576241061091423,0.1643843799829483,1.1787618398666382,-0.3391900658607483
114,0.43895483016967773,3.931283712387085,1.4027788639068604,-1.927859902381897,-1.1833217144012451,-0.11053074896335602,-0.28405970335006714,-0.032991889864206314,-0.2454918473958969,-0.15265695750713348,1.4728772640228271,0.5296434760093689,-1.1260584592819214,-0.10094056278467178,0.6132157444953918,-0.8119902014732361,0.028386035934090614,0.002365847583860159,0.45667925477027893,0.32613837718963623,0.8955668807029724,1.478453516960144,0.11652767658233643,-0.31715479493141174,0.6164894700050354,-0.8888535499572754,1.4894897937774658,1.6514581441879272,1.2596548795700073,-0.4081611633300781,0.795346200466156,1.6458323001861572,-0.40754103660583496,-1.032223105430603,2.2542941570281982,0.2327614426612854,0.046368710696697235,0.16565284132957458,1.1836661100387573,-0.2937009930610657
115,0.40577852725982666,3.907480478286743,1.3762558698654175,-1.9620814323425293,-1.1548410654067993,-0.08684087544679642,-0.29617464542388916,-0.010214353911578655,-0.21807610988616943,-0.12321725487709045,1.4876739978790283,0.5433254837989807,-1.1029605865478516,-0.13879571855068207,0.6128698587417603,-0.8415110111236572,0.05237225443124771,0.037636201828718185,0.43073657155036926,0.3076852262020111,0.8673786520957947,1.4999595880508423,0.10070404410362244,-0.32236647605895996,0.6416671276092529,-0.8833940029144287,1.514420747756958,1.6793696880340576,1.2965447902679443,-0.3896564543247223,0.7684944272041321,1.6270371675491333,-0.3836628198623657,-1.0473471879959106,2.2631006240844727,0.20853260159492493,0.033122468739748,0.160116046667099,1.1745100021362305,-0.33883607387542725
116,0.44013574719429016,3.9355669021606445,1.407989501953125,-1.9297624826431274,-1.1848623752593994,-0.12122253328561783,-0.2859446704387665,-0.04087454453110695,-0.24249352514743805,-0.15811091661453247,1.473158836364746,0.5266249775886536,-1.134520173072815,-0.10207409411668777,0.6217437386512756,-0.8019829392433167,0.0317702442407608,0.0035445813555270433,0.455029159784317,0.3240308165550232,0.8993571996688843,1.4772961139678955,0.11725214868783951,-0.32451802492141724,0.6167922616004944,-0.8947010040283203,1.49274480342865,1.6529221534729004,1.2676500082015991,-0.39138662815093994,0.7956186532974243,1.649962306022644,-0.41248297691345215,-1.0380685329437256,2.249936103820801,0.22252091765403748,0.04576602578163147,0.16220933198928833,1.1806049346923828,-0.29008597135543823
117,0.4037686586380005,3.9091808795928955,1.3787163496017456,-1.9666446447372437,-1.1535120010375977,-0.0949353501200676,-0.2992875277996063,-0.015485212206840515,-0.21293149888515472,-0.12620827555656433,1.4889627695083618,0.5416135787963867,-1.1085741519927979,-0.14317674934864044,0.621255099773407,-0.8344159126281738,0.058003395795822144,0.039980094879865646,0.42614996433258057,0.3043532967567444,0.8685035705566406,1.5008909702301025,0.10061147063970566,-0.33039093017578125,0.6450040340423584,-0.8881351351737976,1.5201321840286255,1.683010458946228,1.307081937789917,-0.37149277329444885,0.7666141390800476,1.629489779472351,-0.38621625304222107,-1.0543909072875977,2.2595722675323486,0.19689539074897766,0.03027965873479843,0.15582998096942902,1.17042875289917,-0.33813366293907166
118,0.44086816906929016,3.9397735595703125,1.4130586385726929,-1.9317481517791748,-1.1862704753875732,-0.13162431120872498,-0.28843221068382263,-0.04892205074429512,-0.2393355816602707,-0.16347253322601318,1.4731215238571167,0.5235867500305176,-1.1426931619644165,-0.10350818186998367,0.6306547522544861,-0.7922912240028381,0.03576553612947464,0.004942767322063446,0.45343106985092163,0.3214881122112274,0.9026994705200195,1.4766594171524048,0.11829865723848343,-0.33239030838012695,0.6167947053909302,-0.90095055103302,1.4960310459136963,1.6541987657546997,1.275357723236084,-0.3737122416496277,0.7955867648124695,1.6541790962219238,-0.4173938035964966,-1.0434209108352661,2.24564266204834,0.21267084777355194,0.0454106405377388,0.1588432937860489,1.1777671575546265,-0.2869188189506531
119,0.401628702878952,3.910919666290283,1.3813062906265259,-1.9708722829818726,-1.152289867401123,-0.10304073989391327,-0.3028402328491211,-0.02119649387896061,-0.207834854722023,-0.12954480946063995,1.4897675514221191,0.5398002862930298,-1.1140927076339722,-0.14722037315368652,0.6300040483474731,-0.8270357251167297,0.06398850679397583,0.04163501039147377,0.42165857553482056,0.3009214699268341,0.8696821331977844,1.502113699913025,0.10113868862390518,-0.3389171063899994,0.6481810808181763,-0.8931416869163513,1.52573561668396,1.6861428022384644,1.316973090171814,-0.3523625433444977,0.7646905183792114,1.6321347951889038,-0.3889387547969818,-1.0609490871429443,2.2559654712677,0.18574032187461853,0.027269747108221054,0.15151675045490265,1.1665147542953491,-0.3368845283985138
