,0,1,2,3,4,5,6,7,8,9,10,11,12,13,14,15,16,17,18,19,20,21,22,23,24,25,26,27,28,29,30,31,32,33,34,35,36,37,38,39
0,-0.567543625831604,3.178919553756714,0.7334132790565491,-0.6702244877815247,-0.006274821702390909,-0.014471386559307575,0.0625,-0.0625,0.403343141078949,0.017617804929614067,1.0151861906051636,-0.14053142070770264,0.0025881382171064615,0.002452504588291049,0.0010329735232517123,-1.375400309052907e-13,-0.1290375292301178,-0.0185284074395895,1.0047895908355713,-0.03013572096824646,-0.003134232945740223,-0.012534359470009804,0.0017994120717048645,-0.005128378048539162,0.3802412748336792,-0.011626170016825199,0.9467688202857971,1.2783203125,-0.0010954884346574545,0.0012767198495566845,0.9999432563781738,0.998291015625,-0.06921155750751495,0.0012031751684844494,1.0282819271087646,0.9982472062110901,-0.00027090319781564176,8.434469054918736e-05,0.9979968667030334,-0.0001756121637299657
1,-0.5150671005249023,3.231395959854126,0.7858898043632507,-0.722700834274292,-0.058751340955495834,0.03800515830516815,0.11497652530670166,-0.1149764284491539,0.3508666455745697,0.07009434700012207,1.0676627159118652,-0.08805488049983978,-0.049888405948877335,-0.05002398043870926,-0.051443565636873245,-0.05247651785612106,-0.18151406943798065,0.03394798934459686,1.057266116142273,-0.08261190354824066,0.049342308193445206,-0.06501088291406631,0.05427591875195503,-0.05760492384433746,0.3277647793292999,0.04085037484765053,0.9992454051971436,1.3307968378067017,-0.05357203260064125,-0.051199719309806824,1.0524197816848755,1.0507675409317017,-0.1216881051659584,-0.05127336084842682,0.976345956325531,1.050723671913147,0.052205640822649,0.052560899406671524,1.0504734516143799,-0.052652157843112946
2,-0.501507043838501,3.217557191848755,0.8010736107826233,-0.6851121187210083,-0.09999368339776993,0.06214066594839096,0.16363713145256042,-0.16671209037303925,0.31375646591186523,0.10671527683734894,1.1092979907989502,-0.04989613965153694,-0.08334004133939743,-0.07154126465320587,-0.08825528621673584,-0.08675797283649445,-0.2258499413728714,0.020525740459561348,1.0735979080200195,-0.035819247364997864,0.0835050418972969,-0.06353455781936646,0.10417549312114716,-0.09911190718412399,0.3032274842262268,0.07306593656539917,1.0401232242584229,1.3697019815444946,-0.0865652784705162,-0.0776708573102951,1.081712245941162,1.083971619606018,-0.16255588829517365,-0.09411440789699554,0.9242678284645081,1.0988821983337402,0.08603745698928833,0.08991103619337082,1.098804235458374,-0.08702513575553894
3,-0.4992296099662781,3.1743414402008057,0.7998507022857666,-0.731212317943573,-0.1391194611787796,0.08008735626935959,0.20970070362091064,-0.2120424509048462,0.2869945466518402,0.13646388053894043,1.1442253589630127,-0.020157719030976295,-0.10799145698547363,-0.08897732943296432,-0.11897094547748566,-0.11855462938547134,-0.26020705699920654,-0.018366830423474312,1.0740610361099243,-0.08095166087150574,0.1073533296585083,-0.0492134764790535,0.15175917744636536,-0.13783232867717743,0.2724664509296417,0.0936180129647255,1.0740187168121338,1.399300456047058,-0.11730783432722092,-0.08793909102678299,1.0966931581497192,1.1029119491577148,-0.19625164568424225,-0.13147251307964325,0.9731252789497375,1.143293023109436,0.11768368631601334,0.12463340163230896,1.1402674913406372,-0.11614461243152618
4,-0.5034198760986328,3.187061071395874,0.7752701044082642,-0.7523194551467896,-0.17787939310073853,0.08076798170804977,0.252785861492157,-0.2545364797115326,0.26464369893074036,0.15336380898952484,1.1759657859802246,0.005833390634506941,-0.1264035403728485,-0.06909038126468658,-0.14282821118831635,-0.15283894538879395,-0.2919095456600189,-0.05449514463543892,1.0461289882659912,-0.1053522601723671,0.12178530544042587,-0.009902614168822765,0.19844950735569,-0.1758575141429901,0.24485161900520325,0.09511129558086395,1.1061230897903442,1.4249293804168701,-0.14485836029052734,-0.07906865328550339,1.111926794052124,1.1196414232254028,-0.22667646408081055,-0.16365735232830048,1.034401774406433,1.1824791431427002,0.1415899246931076,0.15496419370174408,1.1804838180541992,-0.13525916635990143
5,-0.5037282705307007,3.23545241355896,0.7518764734268188,-0.7901463508605957,-0.2190459668636322,0.07341960072517395,0.29313454031944275,-0.2909517288208008,0.24210453033447266,0.16020813584327698,1.2029542922973633,0.02734546735882759,-0.13759243488311768,-0.04477974772453308,-0.1563575714826584,-0.19139620661735535,-0.3188815414905548,-0.0910961776971817,1.015194058418274,-0.15130367875099182,0.12254256010055542,0.03274456784129143,0.2421547919511795,-0.21262480318546295,0.21705588698387146,0.08625200390815735,1.1346185207366943,1.4457590579986572,-0.17021116614341736,-0.08694176375865936,1.1339960098266602,1.1342346668243408,-0.25055932998657227,-0.1939970999956131,1.0959367752075195,1.2147021293640137,0.16310670971870422,0.18297696113586426,1.2174570560455322,-0.14683133363723755
6,-0.49880239367485046,3.2967824935913086,0.7295224070549011,-0.8061442971229553,-0.2614653706550598,0.05788417160511017,0.3305455446243286,-0.32007092237472534,0.21673156321048737,0.15521970391273499,1.2244863510131836,0.043604765087366104,-0.14097808301448822,-0.03089059703052044,-0.15659470856189728,-0.2350853979587555,-0.3442440330982208,-0.12945516407489777,0.9843990206718445,-0.18921764194965363,0.1104634553194046,0.07681997865438461,0.2824670076370239,-0.2478366196155548,0.1909952014684677,0.069832444190979,1.1594898700714111,1.4604436159133911,-0.1905052810907364,-0.11939101666212082,1.1662520170211792,1.1512935161590576,-0.2677333652973175,-0.22536920011043549,1.1578892469406128,1.240654468536377,0.18137650191783905,0.20824936032295227,1.2518327236175537,-0.1475791186094284
7,-0.49141591787338257,3.357339382171631,0.7099476456642151,-0.8320533037185669,-0.3028765022754669,0.04233575612306595,0.3652992248535156,-0.3414789140224457,0.18982087075710297,0.14221805334091187,1.2404100894927979,0.05553891137242317,-0.137261301279068,-0.038570474833250046,-0.14586973190307617,-0.2816302478313446,-0.36953678727149963,-0.1658422350883484,0.9569888710975647,-0.238846093416214,0.08924177289009094,0.11808976531028748,0.3191826343536377,-0.28141823410987854,0.16565938293933868,0.051402747631073,1.1818958520889282,1.4672678709030151,-0.20638059079647064,-0.1659696400165558,1.1990039348602295,1.1670435667037964,-0.27806952595710754,-0.2593105137348175,1.2207096815109253,1.2627016305923462,0.19831404089927673,0.2327253818511963,1.2827599048614502,-0.14200063049793243
8,-0.475948691368103,3.4186551570892334,0.6931653022766113,-0.8391290903091431,-0.343418687582016,0.027274802327156067,0.3959171772003174,-0.35493308305740356,0.16359524428844452,0.12433532625436783,1.250484585762024,0.06472272425889969,-0.12977159023284912,-0.057042550295591354,-0.12641559541225433,-0.3296225070953369,-0.39743363857269287,-0.19556924700737,0.9330989718437195,-0.27808791399002075,0.06349796801805496,0.15752047300338745,0.3515496850013733,-0.3131619095802307,0.14351633191108704,0.03368968144059181,1.20293390750885,1.46488618850708,-0.21660064160823822,-0.21263685822486877,1.2289142608642578,1.1895633935928345,-0.28384703397750854,-0.2949773669242859,1.2849875688552856,1.282454013824463,0.21395131945610046,0.2557825446128845,1.3103562593460083,-0.1309201717376709
9,-0.4578039348125458,3.4745471477508545,0.6831077933311462,-0.8780567646026611,-0.37936487793922424,0.019644804298877716,0.4216841459274292,-0.36145177483558655,0.13923528790473938,0.10764122754335403,1.2551871538162231,0.07472256571054459,-0.12094895541667938,-0.07924817502498627,-0.10162243247032166,-0.3777293264865875,-0.42724594473838806,-0.21865098178386688,0.9141664505004883,-0.3282749354839325,0.03556469827890396,0.19435322284698486,0.37945592403411865,-0.342868447303772,0.12794549763202667,0.021134205162525177,1.2246854305267334,1.4551337957382202,-0.22349539399147034,-0.2566877007484436,1.246639370918274,1.2127740383148193,-0.28422969579696655,-0.3317687511444092,1.3496851921081543,1.3022997379302979,0.23036082088947296,0.2787648141384125,1.3335100412368774,-0.12414064258337021
10,-0.42521151900291443,3.532015323638916,0.680996835231781,-0.8714500069618225,-0.41325071454048157,0.011385852470993996,0.44129952788352966,-0.36082711815834045,0.11576550453901291,0.09248515963554382,1.2533882856369019,0.08560837805271149,-0.11360548436641693,-0.09560468047857285,-0.07172323763370514,-0.4250848889350891,-0.45893236994743347,-0.23757800459861755,0.8993948698043823,-0.3407423794269562,0.007462901528924704,0.23331038653850555,0.40265125036239624,-0.3703460395336151,0.11968199908733368,0.013053511269390583,1.2459105253219604,1.438133955001831,-0.2236551195383072,-0.29085442423820496,1.2556008100509644,1.2481873035430908,-0.2819976806640625,-0.367768794298172,1.4150912761688232,1.3216792345046997,0.2463580220937729,0.2989519536495209,1.3527202606201172,-0.11800943315029144
11,-0.4075852930545807,3.57757306098938,0.6890127658843994,-0.9438095092773438,-0.4359411299228668,0.016375573351979256,0.4564899802207947,-0.35445693135261536,0.09298047423362732,0.08374293893575668,1.2475628852844238,0.1025143712759018,-0.10568850487470627,-0.10445385426282883,-0.0396227091550827,-0.47164058685302734,-0.488430917263031,-0.2547663152217865,0.8867603540420532,-0.39585354924201965,-0.02140653505921364,0.2704753279685974,0.42301085591316223,-0.3958793878555298,0.1200847327709198,0.010906737297773361,1.270113229751587,1.4198960065841675,-0.22288964688777924,-0.3210007846355438,1.2450541257858276,1.2663019895553589,-0.2736457586288452,-0.4040122330188751,1.4792975187301636,1.343125343322754,0.26499995589256287,0.3215179741382599,1.3653993606567383,-0.13102541863918304
12,-0.3554164171218872,3.6366422176361084,0.7065640091896057,-0.89841228723526,-0.4649583101272583,0.006034173537045717,0.46561554074287415,-0.3411177396774292,0.07167571783065796,0.07345125079154968,1.2340024709701538,0.11850955337285995,-0.10222841799259186,-0.11279243230819702,-0.0031766388565301895,-0.5174931883811951,-0.5178234577178955,-0.2679904103279114,0.8779190182685852,-0.3527660667896271,-0.04821185767650604,0.314535528421402,0.4394558072090149,-0.4194714426994324,0.12222610414028168,0.006737915333360434,1.2899914979934692,1.3949037790298462,-0.21094335615634918,-0.33247312903404236,1.23314368724823,1.311960220336914,-0.2692967653274536,-0.43666085600852966,1.5459983348846436,1.3624114990234375,0.2812282145023346,0.33866721391677856,1.3751298189163208,-0.13521812856197357
13,-0.3636801242828369,3.6673755645751953,0.7254460453987122,-0.9854236841201782,-0.4700128138065338,0.02320384420454502,0.4727874994277954,-0.3208892047405243,0.04980728030204773,0.07319272309541702,1.2219750881195068,0.14823472499847412,-0.09117728471755981,-0.0989592969417572,0.031162388622760773,-0.5642426013946533,-0.5392460227012634,-0.2931361198425293,0.8610443472862244,-0.4225543141365051,-0.07720451802015305,0.3532174825668335,0.45547205209732056,-0.4415510892868042,0.13125461339950562,0.006047217175364494,1.3174411058425903,1.3782047033309937,-0.20382900536060333,-0.3518018424510956,1.201086163520813,1.3015997409820557,-0.25600752234458923,-0.47253069281578064,1.6074367761611938,1.386235237121582,0.3027513921260834,0.36572593450546265,1.3753347396850586,-0.17711032927036285
14,-0.2970329821109772,3.729370355606079,0.755767285823822,-0.9413573145866394,-0.5004664659500122,0.010407226160168648,0.47296231985092163,-0.2952733039855957,0.03552937135100365,0.06322553753852844,1.2007486820220947,0.1703362762928009,-0.08920308947563171,-0.11415063589811325,0.07030145823955536,-0.6105472445487976,-0.5603599548339844,-0.286825954914093,0.8553723692893982,-0.36521533131599426,-0.10199400037527084,0.4007419943809509,0.4655587375164032,-0.4621489346027374,0.12893088161945343,-0.006311508361250162,1.3341474533081055,1.3496168851852417,-0.181524857878685,-0.3399422764778137,1.1783807277679443,1.3522250652313232,-0.2582254111766815,-0.500573456287384,1.6756415367126465,1.4048609733581543,0.31820693612098694,0.38499611616134644,1.3756704330444336,-0.19000011682510376
15,-0.3133750855922699,3.7536754608154297,0.7726361155509949,-1.0094196796417236,-0.5023924112319946,0.02503826655447483,0.47053828835487366,-0.2619144320487976,0.021051038056612015,0.06735379993915558,1.1870301961898804,0.21287506818771362,-0.0725894644856453,-0.09762278199195862,0.10125691443681717,-0.6611782312393188,-0.5706767439842224,-0.34336185455322266,0.8296634554862976,-0.41146212816238403,-0.13018515706062317,0.4472797214984894,0.4762207567691803,-0.48047807812690735,0.13542351126670837,-0.015046424232423306,1.3611109256744385,1.3369245529174805,-0.16395877301692963,-0.36474329233169556,1.1388211250305176,1.3379395008087158,-0.24930113554000854,-0.5364859700202942,1.7321566343307495,1.4298439025878906,0.33466723561286926,0.41490307450294495,1.3680390119552612,-0.24170741438865662
16,-0.2562546730041504,3.8086211681365967,0.8062683343887329,-0.9850326776504517,-0.5342971682548523,0.014055213890969753,0.46113428473472595,-0.22686846554279327,0.020704710856080055,0.05781830847263336,1.167655110359192,0.24656462669372559,-0.06818526983261108,-0.12462300062179565,0.1390436291694641,-0.7072583436965942,-0.5796758532524109,-0.32554373145103455,0.8208159804344177,-0.3638847768306732,-0.15401998162269592,0.49674752354621887,0.4798097014427185,-0.4972618818283081,0.12358623743057251,-0.03929515928030014,1.379645824432373,1.310752034187317,-0.13621452450752258,-0.33553826808929443,1.1095006465911865,1.3784288167953491,-0.2609882056713104,-0.5629105567932129,1.7976768016815186,1.4491798877716064,0.3460574150085449,0.4401494264602661,1.3607465028762817,-0.26853808760643005
17,-0.2692294716835022,3.8259263038635254,0.8127748370170593,-1.0414048433303833,-0.5446958541870117,0.022847576066851616,0.4473869204521179,-0.1844356507062912,0.01798379421234131,0.061208631843328476,1.1596444845199585,0.2968274652957916,-0.04768301546573639,-0.1126154363155365,0.16388791799545288,-0.7583800554275513,-0.5770118832588196,-0.4032227098941803,0.7867938876152039,-0.38881105184555054,-0.17981958389282227,0.5510973334312439,0.4839891493320465,-0.5097413063049316,0.11734510958194733,-0.05787310004234314,1.4062938690185547,1.2998895645141602,-0.10847871750593185,-0.3780421316623688,1.0697910785675049,1.372521162033081,-0.2611807584762573,-0.5998508334159851,1.846489667892456,1.4743880033493042,0.35069140791893005,0.47102630138397217,1.3500920534133911,-0.31946641206741333
18,-0.21881814301013947,3.8708531856536865,0.8475167155265808,-1.0279847383499146,-0.5822373032569885,0.011380632407963276,0.4290657341480255,-0.14476963877677917,0.030474146828055382,0.04992721602320671,1.149119257926941,0.3395146429538727,-0.041516199707984924,-0.15712672472000122,0.19915957748889923,-0.7993963360786438,-0.5742642283439636,-0.3829227089881897,0.7760028839111328,-0.34211039543151855,-0.1982644945383072,0.6046316623687744,0.4823365807533264,-0.5209757089614868,0.10181445628404617,-0.09177505224943161,1.4286422729492188,1.2784563302993774,-0.07562252879142761,-0.3323436379432678,1.034146785736084,1.4037649631500244,-0.2795390784740448,-0.6262769103050232,1.905335783958435,1.4935340881347656,0.351265013217926,0.498367577791214,1.339478850364685,-0.3551025390625
19,-0.22577273845672607,3.8743185997009277,0.8401497006416321,-1.0858913660049438,-0.6014030575752258,0.01776011288166046,0.40694373846054077,-0.09917984157800674,0.03126218542456627,0.049389682710170746,1.1537069082260132,0.39243656396865845,-0.020098786801099777,-0.1317940652370453,0.21726109087467194,-0.8444422483444214,-0.560109555721283,-0.46536317467689514,0.7354075312614441,-0.35674387216567993,-0.21485570073127747,0.6632775068283081,0.4826905131340027,-0.525659441947937,0.08581064641475677,-0.11302699893712997,1.45687997341156,1.271162509918213,-0.041100699454545975,-0.3886549174785614,0.9969987869262695,1.4010282754898071,-0.28246617317199707,-0.6644482016563416,1.9418230056762695,1.5179057121276855,0.342012494802475,0.5276217460632324,1.3283342123031616,-0.4039233326911926
20,-0.16976208984851837,3.90934419631958,0.8791388869285583,-1.0755479335784912,-0.6438454389572144,0.005130148027092218,0.3844718337059021,-0.060242339968681335,0.044045694172382355,0.03376583382487297,1.1536214351654053,0.43734171986579895,-0.016109086573123932,-0.2001345008611679,0.25027912855148315,-0.874636709690094,-0.5515056848526001,-0.4337978661060333,0.7301751375198364,-0.3043903410434723,-0.21783742308616638,0.7198490500450134,0.47817960381507874,-0.5307102799415588,0.08960913121700287,-0.1513397991657257,1.4806573390960693,1.25692880153656,-0.00584309920668602,-0.32450270652770996,0.9548100829124451,1.4263330698013306,-0.297576904296875,-0.6886486411094666,1.9908305406570435,1.5333445072174072,0.33060500025749207,0.5524388551712036,1.3180674314498901,-0.4398193955421448
21,-0.1660621464252472,3.893419027328491,0.8576571941375732,-1.1401945352554321,-0.663800060749054,0.009990663267672062,0.35927578806877136,-0.017572183161973953,0.03252125531435013,0.030207138508558273,1.170832633972168,0.4876171052455902,0.00270267715677619,-0.1451888382434845,0.26248419284820557,-0.9112505912780762,-0.5313650369644165,-0.513511598110199,0.6840117573738098,-0.3171519339084625,-0.2164047658443451,0.7773704528808594,0.4770733118057251,-0.527687132358551,0.06831963360309601,-0.16715167462825775,1.507814884185791,1.2562206983566284,0.030645838007330894,-0.38740670680999756,0.9280400276184082,1.4217181205749512,-0.29208818078041077,-0.7250583171844482,2.0103673934936523,1.5533578395843506,0.3121103346347809,0.5777245759963989,1.3078163862228394,-0.48335108160972595
22,-0.10310851782560349,3.918835163116455,0.9010938405990601,-1.1292306184768677,-0.7039663791656494,-0.003422139212489128,0.33714503049850464,0.01479456014931202,0.037278756499290466,0.011160464026033878,1.1764720678329468,0.5289158821105957,-0.0007491474971175194,-0.2264784276485443,0.2933526933193207,-0.9308208227157593,-0.5259090662002563,-0.46630725264549255,0.686819851398468,-0.2606085240840912,-0.19848842918872833,0.8334826231002808,0.4693847596645355,-0.5281447768211365,0.11094962805509567,-0.20757554471492767,1.5282002687454224,1.2501513957977295,0.0641903281211853,-0.3149891197681427,0.8823613524436951,1.4444079399108887,-0.2945512533187866,-0.7430111169815063,2.0484092235565186,1.5598397254943848,0.2931038439273834,0.597402811050415,1.3010300397872925,-0.509222686290741
23,-0.09104891121387482,3.884495735168457,0.8723176717758179,-1.1950273513793945,-0.714801549911499,0.0003787458408623934,0.311795175075531,0.04938490688800812,0.005623106844723225,0.01171397976577282,1.1994028091430664,0.5727870464324951,0.011369762942194939,-0.16834905743598938,0.3025953471660614,-0.9628139138221741,-0.5060132741928101,-0.5333080887794495,0.6361175179481506,-0.2723134756088257,-0.1796632707118988,0.8848004937171936,0.46461471915245056,-0.5198089480400085,0.08000058680772781,-0.2155008465051651,1.5489263534545898,1.255740761756897,0.09851393848657608,-0.37930330634117126,0.8738093376159668,1.4367127418518066,-0.2768447995185852,-0.7732114195823669,2.0522282123565674,1.569413185119629,0.2720372676849365,0.6184086203575134,1.2917675971984863,-0.5414815545082092
24,-0.02984325774013996,3.8995275497436523,0.9150548577308655,-1.186722993850708,-0.7435553073883057,-0.011753557249903679,0.2912488281726837,0.0695621520280838,0.007076728157699108,-0.010485133156180382,1.2057853937149048,0.6062372326850891,-0.004035466350615025,-0.23224171996116638,0.33041515946388245,-0.9753841161727905,-0.5050274133682251,-0.4768185317516327,0.6413989663124084,-0.2199755609035492,-0.14470194280147552,0.9366941452026367,0.4530712068080902,-0.5185584425926208,0.1456872522830963,-0.2618976831436157,1.563450813293457,1.2529531717300415,0.12771570682525635,-0.3150049149990082,0.8286628723144531,1.4598896503448486,-0.2642729878425598,-0.7826164364814758,2.0793120861053467,1.5667699575424194,0.25073403120040894,0.63066565990448,1.289548397064209,-0.5540347695350647
25,-0.016292251646518707,3.855613946914673,0.890129566192627,-1.2461192607879639,-0.7419338226318359,-0.006990373600274324,0.2660521864891052,0.0924711674451828,-0.03831201791763306,-0.00047834357246756554,1.2277721166610718,0.6418647766113281,-0.0024597460869699717,-0.18830427527427673,0.3392346203327179,-1.005745768547058,-0.48720845580101013,-0.5204370617866516,0.5918067097663879,-0.228166401386261,-0.11449068039655685,0.9805864095687866,0.4422619938850403,-0.5088135600090027,0.11545196920633316,-0.26747310161590576,1.5742835998535156,1.261491060256958,0.15850703418254852,-0.3765413463115692,0.8348119258880615,1.449663758277893,-0.23793230950832367,-0.8036813735961914,2.074625253677368,1.5637891292572021,0.22942723333835602,0.6465848088264465,1.281440019607544,-0.5707463622093201
26,0.03754540532827377,3.860197067260742,0.9302036762237549,-1.2420653104782104,-0.7571941614151001,-0.01740507036447525,0.24555322527885437,0.10036088526248932,-0.04271175339818001,-0.021262280642986298,1.2330812215805054,0.6663235425949097,-0.028549183160066605,-0.23060445487499237,0.3631059527397156,-1.0147100687026978,-0.485365092754364,-0.46369001269340515,0.5954167246818542,-0.18473079800605774,-0.0700073167681694,1.0262309312820435,0.42741823196411133,-0.5079789161682129,0.17924129962921143,-0.31970271468162537,1.5806673765182495,1.2580344676971436,0.18322555720806122,-0.3338881731033325,0.7939597964286804,1.4723643064498901,-0.21575488150119781,-0.8051590323448181,2.09116268157959,1.5554378032684326,0.2094283103942871,0.6510560512542725,1.2821341753005981,-0.5731750130653381
27,0.04813519865274429,3.8166627883911133,0.9149478673934937,-1.2925156354904175,-0.7468258142471313,-0.012768309563398361,0.21909703314304352,0.11125750094652176,-0.0902109444141388,-0.005176374688744545,1.2513980865478516,0.6942501664161682,-0.03838706389069557,-0.1973397433757782,0.37254875898361206,-1.0432565212249756,-0.4671398103237152,-0.4829910099506378,0.5512853860855103,-0.18978606164455414,-0.0315418504178524,1.0633002519607544,0.412070631980896,-0.4997657835483551,0.15993072092533112,-0.3318471908569336,1.5816179513931274,1.266396164894104,0.21167856454849243,-0.391897976398468,0.8064165711402893,1.4614132642745972,-0.18659690022468567,-0.8170896768569946,2.083653450012207,1.5445791482925415,0.18895511329174042,0.6604998111724854,1.275998830795288,-0.5773155689239502
28,0.09300781786441803,3.81479549407959,0.9527588486671448,-1.2918001413345337,-0.7537471652030945,-0.02178102359175682,0.19602520763874054,0.11034344136714935,-0.10376882553100586,-0.020128397271037102,1.2555456161499023,0.7120418548583984,-0.07042135298252106,-0.22450116276741028,0.391907274723053,-1.0521122217178345,-0.4598406255245209,-0.4307486414909363,0.5516766309738159,-0.15580449998378754,0.017679769545793533,1.1023552417755127,0.39554470777511597,-0.49973151087760925,0.21091388165950775,-0.38553276658058167,1.5789692401885986,1.2625094652175903,0.2342936396598816,-0.3740747272968292,0.7732341289520264,1.483304500579834,-0.16245760023593903,-0.8130214810371399,2.092066764831543,1.5341849327087402,0.1718585044145584,0.658824622631073,1.2784149646759033,-0.5740334987640381
29,0.0994175374507904,3.779447317123413,0.9477097392082214,-1.3322160243988037,-0.7414846420288086,-0.018168281763792038,0.16711661219596863,0.11140173673629761,-0.14623163640499115,-0.0027180099859833717,1.2700685262680054,0.7340640425682068,-0.08919531852006912,-0.19734983146190643,0.4006166458129883,-1.0783644914627075,-0.4389212727546692,-0.4315059185028076,0.513825535774231,-0.1585356444120407,0.06262683868408203,1.1334439516067505,0.3788502514362335,-0.4935716986656189,0.20341593027114868,-0.40678703784942627,1.5719743967056274,1.2709017992019653,0.26269859075546265,-0.4283095896244049,0.7866113185882568,1.4753435850143433,-0.13613392412662506,-0.8177299499511719,2.084742546081543,1.5211715698242188,0.15370023250579834,0.6616162657737732,1.2754038572311401,-0.5713616013526917
30,0.13505202531814575,3.7775444984436035,0.9823499917984009,-1.3330366611480713,-0.7464056611061096,-0.024659892544150352,0.14067868888378143,0.1046677753329277,-0.16475452482700348,-0.011214902624487877,1.2738218307495117,0.7475394010543823,-0.12370166182518005,-0.21426530182361603,0.4141758978366852,-1.0889275074005127,-0.42487531900405884,-0.3868136703968048,0.5098926424980164,-0.13299645483493805,0.11444772779941559,1.165658950805664,0.3628396689891815,-0.49322831630706787,0.23930911719799042,-0.4573340117931366,1.5619487762451172,1.2690578699111938,0.2852662205696106,-0.4309839606285095,0.7634013295173645,1.4983829259872437,-0.11609262228012085,-0.8108615875244141,2.088117837905884,1.5113970041275024,0.14038385450839996,0.6557520627975464,1.2796753644943237,-0.5656134486198425
31,0.1369371861219406,3.755481243133545,0.985686719417572,-1.3629268407821655,-0.7379764914512634,-0.020448926836252213,0.11058075726032257,0.09901367872953415,-0.19817019999027252,0.0047603934071958065,1.2858870029449463,0.7646304368972778,-0.14775316417217255,-0.1905386745929718,0.4199257791042328,-1.1121994256973267,-0.40153995156288147,-0.3773357570171356,0.4778909683227539,-0.13393531739711761,0.1636795997619629,1.191075086593628,0.347911536693573,-0.48806440830230713,0.24104651808738708,-0.4843566417694092,1.5497055053710938,1.2794219255447388,0.3151372969150543,-0.48032593727111816,0.7761033773422241,1.496692419052124,-0.09685013443231583,-0.8109341263771057,2.082571029663086,1.499781847000122,0.12581072747707367,0.6528034210205078,1.2808609008789062,-0.5604231357574463
32,0.16379094123840332,3.7582778930664062,1.0160406827926636,-1.363847017288208,-0.745074450969696,-0.022056618705391884,0.08291107416152954,0.08934812247753143,-0.21554206311702728,0.0014824429526925087,1.2906574010849,0.7743184566497803,-0.18270206451416016,-0.20036664605140686,0.42742979526519775,-1.1241567134857178,-0.3826241195201874,-0.34211164712905884,0.4698426425457001,-0.1150018572807312,0.2162453681230545,1.2160022258758545,0.3343626856803894,-0.48608046770095825,0.26374921202659607,-0.5282949805259705,1.53508460521698,1.2815009355545044,0.33831679821014404,-0.4966461956501007,0.7629865407943726,1.5217268466949463,-0.08460253477096558,-0.8033987879753113,2.083662748336792,1.4915227890014648,0.11633329093456268,0.6442855000495911,1.287218451499939,-0.5538620352745056
33,0.1615547388792038,3.7497401237487793,1.0255244970321655,-1.3846133947372437,-0.7428920865058899,-0.014459146186709404,0.05463038757443428,0.08117179572582245,-0.23823386430740356,0.015118132345378399,1.3022515773773193,0.7866508960723877,-0.20835424959659576,-0.17919732630252838,0.42983463406562805,-1.1437779664993286,-0.3591724932193756,-0.3293737471103668,0.4436241090297699,-0.1143248900771141,0.2666768729686737,1.2359980344772339,0.3231483995914459,-0.48075127601623535,0.2729095220565796,-0.5560851693153381,1.5201942920684814,1.2946726083755493,0.3697587251663208,-0.5405644774436951,0.773715615272522,1.5255403518676758,-0.07453557848930359,-0.8011077642440796,2.080753803253174,1.4820770025253296,0.10541289299726486,0.6369907259941101,1.292566180229187,-0.5479339361190796
34,0.18153777718544006,3.7573049068450928,1.051789402961731,-1.3853533267974854,-0.7534012198448181,-0.009663969278335571,0.028822731226682663,0.07221321016550064,-0.25067365169525146,0.015040017664432526,1.3091284036636353,0.7923850417137146,-0.242589071393013,-0.18443375825881958,0.4335678517818451,-1.1564050912857056,-0.338855504989624,-0.30294567346572876,0.4336146414279938,-0.09957235306501389,0.31747010350227356,1.253849983215332,0.31320056319236755,-0.47672927379608154,0.2873363792896271,-0.5917419195175171,1.503575325012207,1.3003406524658203,0.3928864598274231,-0.564151406288147,0.7671512365341187,1.5507755279541016,-0.07137729227542877,-0.7940523028373718,2.081855535507202,1.4747143983840942,0.09906312078237534,0.6267418265342712,1.300290584564209,-0.5411912202835083
35,0.17648950219154358,3.757258892059326,1.0652027130126953,-1.4002246856689453,-0.7568091154098511,0.0026606894098222256,0.004720048047602177,0.06599415838718414,-0.26302847266197205,0.026073439046740532,1.3214784860610962,0.8005111217498779,-0.26733410358428955,-0.1658399999141693,0.43458718061447144,-1.1728763580322266,-0.3177671432495117,-0.29071587324142456,0.4135732054710388,-0.09716343134641647,0.36551633477211,1.2691025733947754,0.30636921525001526,-0.47080785036087036,0.30283915996551514,-0.6163459420204163,1.4881279468536377,1.3154100179672241,0.4248816668987274,-0.6028404235839844,0.7733246088027954,1.5561127662658691,-0.07038647681474686,-0.7908543348312378,2.082077980041504,1.4664561748504639,0.0909210816025734,0.6164627075195312,1.3082377910614014,-0.5348004698753357
36,0.1925501972436905,3.7661824226379395,1.088323712348938,-1.40110445022583,-0.7703230381011963,0.012928933836519718,-0.017402105033397675,0.061073414981365204,-0.2692320942878723,0.02658539079129696,1.3302074670791626,0.8027606010437012,-0.30077672004699707,-0.16820845007896423,0.43778419494628906,-1.1859045028686523,-0.2990715205669403,-0.27050885558128357,0.40472760796546936,-0.08395621180534363,0.41177403926849365,1.2808607816696167,0.3005269765853882,-0.46526139974594116,0.31347396969795227,-0.6440556049346924,1.4715481996536255,1.3229817152023315,0.44652530550956726,-0.628336489200592,0.7683099508285522,1.5795196294784546,-0.07574718445539474,-0.784464955329895,2.084688186645508,1.4590917825698853,0.08702652901411057,0.6049417853355408,1.315890908241272,-0.5281791687011719
37,0.18585990369319916,3.7681541442871094,1.1031467914581299,-1.4135572910308838,-0.7773709297180176,0.029118921607732773,-0.03680149465799332,0.059889309108257294,-0.2731107771396637,0.03503435477614403,1.3432549238204956,0.8079654574394226,-0.3236817419528961,-0.1522914618253708,0.4393947124481201,-1.2002692222595215,-0.281512975692749,-0.2600066661834717,0.3909641206264496,-0.07965395599603653,0.45438945293426514,1.292379379272461,0.29804766178131104,-0.4588639736175537,0.33386334776878357,-0.6639121770858765,1.4572726488113403,1.3389848470687866,0.47820034623146057,-0.6618906259536743,0.7682178616523743,1.582565188407898,-0.08225499838590622,-0.7809885144233704,2.0880844593048096,1.4509254693984985,0.0807131677865982,0.5928000807762146,1.324538230895996,-0.5211073756217957
38,0.20110084116458893,3.7752301692962646,1.124035358428955,-1.4146729707717896,-0.7933825850486755,0.042203836143016815,-0.055312734097242355,0.06045536324381828,-0.2742120921611786,0.034271590411663055,1.352589726448059,0.807743489742279,-0.35730746388435364,-0.15242955088615417,0.44383832812309265,-1.2130873203277588,-0.2657543420791626,-0.24330934882164001,0.3856793940067291,-0.06571639329195023,0.49425050616264343,1.2993065118789673,0.29628413915634155,-0.4525655508041382,0.3419874906539917,-0.6857724785804749,1.442314863204956,1.347135305404663,0.4970531463623047,-0.6852096915245056,0.7624439001083374,1.6039400100708008,-0.09447477757930756,-0.7748280167579651,2.0924644470214844,1.4432594776153564,0.07907193154096603,0.5804367661476135,1.3310270309448242,-0.5148061513900757
39,0.19303326308727264,3.775040864944458,1.1379083395004272,-1.4274080991744995,-0.8020715117454529,0.06050114706158638,-0.07090830057859421,0.06494671106338501,-0.2726955711841583,0.04127715155482292,1.365701675415039,0.811397910118103,-0.37805837392807007,-0.13994444906711578,0.446312814950943,-1.2254270315170288,-0.2512259781360626,-0.23448331654071808,0.37744906544685364,-0.05971253663301468,0.5297707319259644,1.3085240125656128,0.2976081669330597,-0.4459575116634369,0.36635348200798035,-0.7015169262886047,1.4306832551956177,1.3642678260803223,0.5288094282150269,-0.7137290239334106,0.7566238641738892,1.6021857261657715,-0.10607263445854187,-0.7712705731391907,2.098649263381958,1.4347096681594849,0.073762446641922,0.5674490332603455,1.339546799659729,-0.5066258907318115
40,0.21052514016628265,3.7794599533081055,1.1577876806259155,-1.428198218345642,-0.8206086158752441,0.07331760972738266,-0.08711124211549759,0.0700521171092987,-0.271704763174057,0.03888417407870293,1.3741893768310547,0.8093421459197998,-0.41354528069496155,-0.1370690017938614,0.4521362781524658,-1.2366139888763428,-0.23824502527713776,-0.2193252444267273,0.37667325139045715,-0.04347917065024376,0.5627434849739075,1.3116896152496338,0.29928287863731384,-0.4396210312843323,0.3704095184803009,-0.7203495502471924,1.4183214902877808,1.3723087310791016,0.5435873866081238,-0.7322705984115601,0.7515810132026672,1.6231255531311035,-0.12307052314281464,-0.764839231967926,2.104048013687134,1.4270553588867188,0.07454659044742584,0.5548847913742065,1.3444873094558716,-0.5011602640151978
41,0.199859619140625,3.7757537364959717,1.1686404943466187,-1.4434547424316406,-0.8289128541946411,0.09239910542964935,-0.10013456642627716,0.07896731793880463,-0.2675270736217499,0.04663338512182236,1.386780023574829,0.8122952580451965,-0.4308689832687378,-0.13082757592201233,0.45449402928352356,-1.2459208965301514,-0.22523555159568787,-0.21199075877666473,0.37247270345687866,-0.036790184676647186,0.5905168652534485,1.320600986480713,0.3033350706100464,-0.4329771399497986,0.400283545255661,-0.733124315738678,1.4102762937545776,1.3916630744934082,0.5773246884346008,-0.7563679218292236,0.7408730983734131,1.6141668558120728,-0.13677892088890076,-0.7616235017776489,2.112753391265869,1.418017864227295,0.06927816569805145,0.5420954823493958,1.3532402515411377,-0.49135464429855347
42,0.22322911024093628,3.7790849208831787,1.1896567344665527,-1.4422050714492798,-0.8509424328804016,0.1017618253827095,-0.11563120037317276,0.08604034036397934,-0.26794254779815674,0.04249567538499832,1.392909288406372,0.8081170916557312,-0.47060272097587585,-0.12115364521741867,0.4615141749382019,-1.2538602352142334,-0.21456222236156464,-0.19734309613704681,0.3762815594673157,-0.01703728549182415,0.6171383857727051,1.3201273679733276,0.3074037730693817,-0.42727938294410706,0.3962416350841522,-0.7513040900230408,1.4004526138305664,1.3985487222671509,0.5853990316390991,-0.7683166265487671,0.7408732771873474,1.6378613710403442,-0.15671607851982117,-0.7547482252120972,2.1178104877471924,1.4109946489334106,0.0730433464050293,0.5300246477127075,1.356124758720398,-0.48820218443870544
43,0.2061806470155716,3.7716522216796875,1.194305419921875,-1.4630203247070312,-0.8559600114822388,0.12189722061157227,-0.1267009973526001,0.09776424616575241,-0.2615097463130951,0.053414326161146164,1.4047685861587524,0.8109044432640076,-0.4805886149406433,-0.1286996603012085,0.4623199701309204,-1.2590959072113037,-0.20119456946849823,-0.1916315257549286,0.37397196888923645,-0.012029783800244331,0.6366185545921326,1.331597089767456,0.3127151429653168,-0.4204041361808777,0.4370723068714142,-0.7611705660820007,1.396323323249817,1.42180335521698,0.6250705718994141,-0.7893239259719849,0.722926139831543,1.6175280809402466,-0.1689503788948059,-0.7530315518379211,2.129641056060791,1.4010668992996216,0.06632105261087418,0.5185022950172424,1.3662056922912598,-0.47573786973953247
44,0.24136285483837128,3.777233600616455,1.2207664251327515,-1.4554824829101562,-0.8844149708747864,0.12375529855489731,-0.14297252893447876,0.10338153690099716,-0.2674758732318878,0.045845650136470795,1.4067492485046387,0.8034214377403259,-0.5289191603660583,-0.1009843572974205,0.47117310762405396,-1.2627232074737549,-0.19327548146247864,-0.1774735450744629,0.3826330006122589,0.013403037562966347,0.6585142612457275,1.325441598892212,0.318265438079834,-0.4162428379058838,0.416525661945343,-0.7804995775222778,1.3877190351486206,1.424848198890686,0.6202445030212402,-0.7923641204833984,0.7362388372421265,1.6500085592269897,-0.19125719368457794,-0.7456570267677307,2.1320037841796875,1.3954976797103882,0.07427536696195602,0.5072253942489624,1.365238070487976,-0.47780147194862366
45,0.20959612727165222,3.764678716659546,1.2122092247009277,-1.4880821704864502,-0.8803719282150269,0.1486053764820099,-0.15153564512729645,0.11755481362342834,-0.25515228509902954,0.06292276084423065,1.418649435043335,0.8072550296783447,-0.5229191184043884,-0.1399468332529068,0.4684160053730011,-1.2639809846878052,-0.17718937993049622,-0.17296525835990906,0.3788500428199768,0.01173442229628563,0.6683345437049866,1.3445916175842285,0.32303112745285034,-0.40806540846824646,0.4785708785057068,-0.7858862280845642,1.3878847360610962,1.455100655555725,0.6739165782928467,-0.8129187822341919,0.7012219429016113,1.6104843616485596,-0.19727255403995514,-0.7475719451904297,2.1494812965393066,1.3831816911697388,0.06362654268741608,0.4981856644153595,1.3789677619934082,-0.46002864837646484
46,0.2669921815395355,3.7779080867767334,1.2533708810806274,-1.4645987749099731,-0.9220148324966431,0.1357545405626297,-0.16995570063591003,0.11721961945295334,-0.273820161819458,0.047382645308971405,1.4140822887420654,0.7942612767219543,-0.5881158709526062,-0.07257166504859924,0.4813459813594818,-1.2627249956130981,-0.17455488443374634,-0.1614820510149002,0.3942272365093231,0.047922320663928986,0.6890431046485901,1.326647162437439,0.33016130328178406,-0.4071575403213501,0.42939862608909607,-0.8082250356674194,1.377798080444336,1.4484864473342896,0.6440503597259521,-0.8031561374664307,0.7435774803161621,1.6619983911514282,-0.2243201732635498,-0.7389693856239319,2.144275665283203,1.3805336952209473,0.07789384573698044,0.48691055178642273,1.3699426651000977,-0.4719638228416443
47,0.20833230018615723,3.755880355834961,1.2190684080123901,-1.5203629732131958,-0.8984299302101135,0.17437292635440826,-0.17460471391677856,0.13612967729568481,-0.24685373902320862,0.07550753653049469,1.4284658432006836,0.8025490045547485,-0.5533747673034668,-0.15837937593460083,0.47231072187423706,-1.262244462966919,-0.15250860154628754,-0.15423406660556793,0.38282427191734314,0.0301093477755785,0.686352014541626,1.3619568347930908,0.33213895559310913,-0.3951643407344818,0.5194722414016724,-0.8070516586303711,1.3838794231414795,1.491624116897583,0.7229350805282593,-0.8275777101516724,0.6751996278762817,1.5943336486816406,-0.21716146171092987,-0.7476885318756104,2.1726908683776855,1.3628312349319458,0.060320425778627396,0.4823148548603058,1.3919565677642822,-0.4453739523887634
48,0.2945376932621002,3.7833049297332764,1.2845203876495361,-1.4683613777160645,-0.9607661366462708,0.13680975139141083,-0.194985032081604,0.12470927834510803,-0.2869499921798706,0.045716140419244766,1.414867877960205,0.7804169058799744,-0.6404793858528137,-0.05971098318696022,0.49168291687965393,-1.2555058002471924,-0.15928985178470612,-0.15248076617717743,0.4096558094024658,0.08372083306312561,0.7100452780723572,1.3248170614242554,0.34240201115608215,-0.39963996410369873,0.4458065629005432,-0.8325303196907043,1.3680603504180908,1.4674891233444214,0.6598189473152161,-0.8014161586761475,0.7536264657974243,1.6686593294143677,-0.25408807396888733,-0.7363327145576477,2.1535720825195312,1.3644285202026367,0.082301564514637,0.4687664806842804,1.3693372011184692,-0.4685487449169159
49,0.2141021490097046,3.7487971782684326,1.224288821220398,-1.5490822792053223,-0.9146242737770081,0.19491572678089142,-0.19772449135780334,0.15022382140159607,-0.24254781007766724,0.08775267750024796,1.4332695007324219,0.7977632284164429,-0.5812627673149109,-0.15207546949386597,0.47696417570114136,-1.2570374011993408,-0.1304284632205963,-0.1351698935031891,0.38392800092697144,0.04559629410505295,0.6956389546394348,1.3765029907226562,0.3402687609195709,-0.3829403817653656,0.5429096221923828,-0.8279454112052917,1.3826290369033813,1.5257892608642578,0.7563035488128662,-0.8305741548538208,0.6656720638275146,1.5845158100128174,-0.2299109697341919,-0.7539316415786743,2.193622589111328,1.3405438661575317,0.059143900871276855,0.47027599811553955,1.4018934965133667,-0.4387662708759308
50,0.30656898021698,3.7872753143310547,1.297817349433899,-1.4825620651245117,-0.9852383136749268,0.14048422873020172,-0.21532240509986877,0.13009308278560638,-0.29541733860969543,0.046633340418338776,1.413593053817749,0.766700029373169,-0.6698629856109619,-0.06846625357866287,0.497772753238678,-1.2446866035461426,-0.14437063038349152,-0.14801208674907684,0.4223073124885559,0.10938167572021484,0.7194422483444214,1.3303110599517822,0.35364118218421936,-0.39116787910461426,0.4745388925075531,-0.8501594662666321,1.3605700731277466,1.4888724088668823,0.684852123260498,-0.7964085936546326,0.7445866465568542,1.657458782196045,-0.27300122380256653,-0.740670382976532,2.166215658187866,1.3431986570358276,0.0827174037694931,0.45406877994537354,1.3700830936431885,-0.45893484354019165
51,0.23587870597839355,3.7498526573181152,1.2394851446151733,-1.5607136487960815,-0.9386967420578003,0.19946631789207458,-0.2217714637517929,0.1549578309059143,-0.25043168663978577,0.09197645634412766,1.4309539794921875,0.787415623664856,-0.6169350147247314,-0.13692593574523926,0.48342105746269226,-1.2494124174118042,-0.11500926315784454,-0.11942461133003235,0.3914988338947296,0.07044325023889542,0.701640784740448,1.3809951543807983,0.347135066986084,-0.3743765652179718,0.5492367744445801,-0.8472921848297119,1.3795760869979858,1.546669602394104,0.7686923742294312,-0.8214026689529419,0.673046886920929,1.5885188579559326,-0.2438446283340454,-0.7614375352859497,2.206234931945801,1.3172633647918701,0.06290613114833832,0.45890554785728455,1.4029983282089233,-0.4380374252796173
52,0.30801868438720703,3.7850303649902344,1.298121690750122,-1.5084865093231201,-0.9964699745178223,0.15147440135478973,-0.23431560397148132,0.1357525885105133,-0.29604652523994446,0.05417430028319359,1.4128382205963135,0.7565545439720154,-0.6852684020996094,-0.07717090845108032,0.5000463128089905,-1.2331409454345703,-0.1268465220928192,-0.14117586612701416,0.4273660182952881,0.1257452368736267,0.7199920415878296,1.343602180480957,0.3606320023536682,-0.3819570541381836,0.5030681490898132,-0.8615278005599976,1.3594067096710205,1.5149692296981812,0.7159641981124878,-0.7947173714637756,0.7317806482315063,1.6402132511138916,-0.280470609664917,-0.7507874965667725,2.183520555496216,1.3169341087341309,0.07911008596420288,0.443301260471344,1.3749715089797974,-0.4467806816101074
53,0.2596200108528137,3.7558391094207764,1.2566722631454468,-1.5691272020339966,-0.9636565446853638,0.19612936675548553,-0.24329592287540436,0.15414191782474518,-0.26242512464523315,0.08951199799776077,1.425449013710022,0.7724440097808838,-0.6508724689483643,-0.12390176206827164,0.4894145727157593,-1.2379765510559082,-0.1034754067659378,-0.10789337754249573,0.40439850091934204,0.09948503226041794,0.7048489451408386,1.383306860923767,0.352359414100647,-0.36853763461112976,0.5509151220321655,-0.8610841035842896,1.3756725788116455,1.5598061084747314,0.7775341868400574,-0.8093321919441223,0.682174026966095,1.5933979749679565,-0.25678035616874695,-0.768079400062561,2.215884208679199,1.291952133178711,0.06713707000017166,0.4473271071910858,1.3993769884109497,-0.4364449083805084
54,0.3110765814781189,3.7822721004486084,1.2976487874984741,-1.5355925559997559,-1.005470633506775,0.1601356416940689,-0.2520723044872284,0.13912075757980347,-0.2955268323421478,0.06088103726506233,1.4114415645599365,0.7464672327041626,-0.6997847557067871,-0.08310671895742416,0.5011289715766907,-1.2216072082519531,-0.1102079302072525,-0.13185995817184448,0.43100056052207947,0.14167392253875732,0.7172002792358398,1.3583201169967651,0.3635925352573395,-0.37365996837615967,0.5241143703460693,-0.8689253926277161,1.3607462644577026,1.5382275581359863,0.7443062663078308,-0.792016863822937,0.7238804697990417,1.626529574394226,-0.28394660353660583,-0.7617869973182678,2.201005458831787,1.287078619003296,0.076092928647995,0.43393197655677795,1.3787381649017334,-0.4370923638343811
55,0.2796576917171478,3.7619454860687256,1.2702184915542603,-1.5818957090377808,-0.9842455387115479,0.19156192243099213,-0.2611944079399109,0.15166188776493073,-0.27293485403060913,0.08532017469406128,1.419970989227295,0.7570517063140869,-0.6796509623527527,-0.11438296735286713,0.49379485845565796,-1.224933385848999,-0.09330897778272629,-0.09971025586128235,0.41611096262931824,0.12624025344848633,0.7059134840965271,1.3881019353866577,0.35547903180122375,-0.36349496245384216,0.5532603859901428,-0.8704146146774292,1.373142123222351,1.5711032152175903,0.7893989682197571,-0.7978290915489197,0.6900476217269897,1.5950063467025757,-0.26629018783569336,-0.7751941084861755,2.225939989089966,1.26309335231781,0.06976167857646942,0.4358595907688141,1.3947678804397583,-0.43343299627304077
56,0.31766489148139954,3.781726360321045,1.2987087965011597,-1.5616358518600464,-1.0145368576049805,0.1643725335597992,-0.2675573527812958,0.13994483649730682,-0.29638034105300903,0.06381814926862717,1.409258484840393,0.7357506155967712,-0.7158770561218262,-0.08611791580915451,0.5017877817153931,-1.2099741697311401,-0.096498504281044,-0.12269121408462524,0.4350389242172241,0.15842552483081818,0.714290201663971,1.3722214698791504,0.36394187808036804,-0.3665274381637573,0.5385428071022034,-0.8742228150367737,1.362465262413025,1.5567288398742676,0.7690508365631104,-0.7860784530639648,0.7207949161529541,1.6166889667510986,-0.28638818860054016,-0.7721814513206482,2.2168984413146973,1.2540308237075806,0.07423442602157593,0.42442163825035095,1.3796201944351196,-0.42976683378219604
57,0.29671192169189453,3.7678189277648926,1.2800055742263794,-1.5988892316818237,-1.0004351139068604,0.18679016828536987,-0.2759571969509125,0.14844603836536407,-0.2810353636741638,0.08072388172149658,1.4151777029037476,0.7427568435668945,-0.7045230269432068,-0.10770578682422638,0.4966101050376892,-1.2118659019470215,-0.08430622518062592,-0.09338930994272232,0.4252796173095703,0.14962998032569885,0.7061263918876648,1.3953126668930054,0.35601797699928284,-0.35858285427093506,0.5564100742340088,-0.8764836192131042,1.3721230030059814,1.5814229249954224,0.803983211517334,-0.7863155603408813,0.6968649625778198,1.5945807695388794,-0.2729208469390869,-0.7828870415687561,2.23665189743042,1.2301714420318604,0.0708979070186615,0.42457515001296997,1.3897439241409302,-0.4293968975543976
58,0.32662031054496765,3.7836670875549316,1.3008172512054443,-1.586982011795044,-1.0233019590377808,0.16501598060131073,-0.28067341446876526,0.1388031244277954,-0.2980223000049591,0.06353066861629486,1.4066715240478516,0.7248808741569519,-0.7331048846244812,-0.08701299130916595,0.5022187232971191,-1.1982436180114746,-0.08568178117275238,-0.11475080996751785,0.4391251802444458,0.17511306703090668,0.7123985886573792,1.385187029838562,0.3619941174983978,-0.3602343797683716,0.5484297275543213,-0.8777268528938293,1.3643288612365723,1.5711925029754639,0.7913899421691895,-0.777417004108429,0.7211260199546814,1.6097619533538818,-0.28850969672203064,-0.7818191051483154,2.23119854927063,1.2177190780639648,0.07284238189458847,0.4144452214241028,1.3779469728469849,-0.4235379099845886
59,0.311732679605484,3.774042844772339,1.2872380018234253,-1.6188695430755615,-1.0132402181625366,0.1816926896572113,-0.2881184220314026,0.14470012485980988,-0.2868216633796692,0.07568570226430893,1.4111297130584717,0.7297542095184326,-0.7268913984298706,-0.10280518978834152,0.4983395040035248,-1.199102520942688,-0.07661361992359161,-0.08800039440393448,0.4323142468929291,0.16995765268802643,0.7065344452857971,1.404125452041626,0.35390132665634155,-0.35367485880851746,0.5596250891685486,-0.8799513578414917,1.372373342514038,1.5905910730361938,0.8203486204147339,-0.7743541598320007,0.7032001614570618,1.593408226966858,-0.2776433527469635,-0.7907078862190247,2.2475273609161377,1.1932939291000366,0.07095891982316971,0.4133177399635315,1.3841692209243774,-0.42464232444763184
60,0.3367428481578827,3.7878031730651855,1.3035061359405518,-1.6120401620864868,-1.0314855575561523,0.16297253966331482,-0.2915681004524231,0.13625793159008026,-0.2995474338531494,0.06083056330680847,1.404078483581543,0.7141831517219543,-0.7509708404541016,-0.08656931668519974,0.5025074481964111,-1.1863516569137573,-0.0772097036242485,-0.10814434289932251,0.4429830014705658,0.19098208844661713,0.7119249105453491,1.397497534751892,0.35783809423446655,-0.3544619381427765,0.5553052425384521,-0.8794156908988953,1.36646568775177,1.5825060606002808,0.8123272061347961,-0.7669134736061096,0.723801851272583,1.605033278465271,-0.2905506193637848,-0.7906325459480286,2.244067668914795,1.1781631708145142,0.07151852548122406,0.4039636254310608,1.374279260635376,-0.4175669252872467
61,0.3251437842845917,3.7809627056121826,1.2928781509399414,-1.6408406496047974,-1.0236345529556274,0.17609666287899017,-0.29805800318717957,0.14053133130073547,-0.2905118465423584,0.07005585730075836,1.407857894897461,0.7178813219070435,-0.747711718082428,-0.0989760011434555,0.49937042593955994,-1.186536192893982,-0.07015753537416458,-0.08302703499794006,0.43782782554626465,0.18762226402759552,0.7077628970146179,1.4139533042907715,0.34927356243133545,-0.34872353076934814,0.5625040531158447,-0.8812336921691895,1.3737043142318726,1.5985163450241089,0.837910532951355,-0.7618289589881897,0.7093995809555054,1.5921963453292847,-0.2811993360519409,-0.7982679605484009,2.258077621459961,1.1527695655822754,0.07031586021184921,0.40193086862564087,1.3779078722000122,-0.41934552788734436
62,0.34718525409698486,3.7937753200531006,1.3065378665924072,-1.6369378566741943,-1.039140224456787,0.158857062458992,-0.3004451394081116,0.13271217048168182,-0.3004247546195984,0.05625792220234871,1.401768445968628,0.7037509083747864,-0.7692474722862244,-0.08528637886047363,0.5027133226394653,-1.1741654872894287,-0.07049155980348587,-0.1026730015873909,0.4465777277946472,0.20565193891525269,0.7130067348480225,1.409376621246338,0.3516026735305786,-0.34896838665008545,0.5602013468742371,-0.8793649673461914,1.3690073490142822,1.5913496017456055,0.8324870467185974,-0.7551690936088562,0.7281248569488525,1.6020066738128662,-0.29268884658813477,-0.7986159920692444,2.25555682182312,1.1355491876602173,0.07015258818864822,0.39299729466438293,1.3690414428710938,-0.4114420711994171
63,0.337050199508667,3.7886481285095215,1.2975053787231445,-1.6640849113464355,-1.0324047803878784,0.16993199288845062,-0.30608177185058594,0.1360226422548294,-0.292357861995697,0.06375961750745773,1.405402421951294,0.7069051861763,-0.7675836682319641,-0.09583814442157745,0.4999597668647766,-1.1739649772644043,-0.06467629224061966,-0.07812682539224625,0.4423145651817322,0.20297376811504364,0.7101107239723206,1.4244344234466553,0.34235745668411255,-0.34367233514785767,0.564988374710083,-0.88069087266922,1.3760086297988892,1.6052669286727905,0.8563873767852783,-0.7487135529518127,0.7155660390853882,1.5912272930145264,-0.28409942984580994,-0.8054080009460449,2.267951250076294,1.108979344367981,0.06924840807914734,0.390327513217926,1.3709101676940918,-0.41362056136131287
64,0.3574103116989136,3.801241397857666,1.3098061084747314,-1.6615865230560303,-1.0465106964111328,0.15304793417453766,-0.3075302243232727,0.1284123659133911,-0.3004801273345947,0.05012012645602226,1.3999123573303223,0.6935296058654785,-0.787878692150116,-0.08345257490873337,0.50290447473526,-1.1615182161331177,-0.06498550623655319,-0.0980972871184349,0.44999027252197266,0.21902775764465332,0.7156506776809692,1.4209233522415161,0.34347420930862427,-0.34357950091362,0.5638301372528076,-0.8777823448181152,1.3720295429229736,1.59821355342865,0.8522337675094604,-0.7425193786621094,0.7336301207542419,1.6003243923187256,-0.29511159658432007,-0.8058773279190063,2.2656607627868652,1.0901904106140137,0.0687725767493248,0.3815906345844269,1.3625322580337524,-0.4049924612045288
65,0.3474245071411133,3.79697585105896,1.3014283180236816,-1.6880725622177124,-1.0401524305343628,0.16321754455566406,-0.31246238946914673,0.13122986257076263,-0.2926325500011444,0.05679076910018921,1.4037951231002808,0.6965975165367126,-0.7868572473526001,-0.09321863204240799,0.5002824664115906,-1.161198616027832,-0.059822432696819305,-0.07301562279462814,0.44612038135528564,0.21633072197437286,0.7136658430099487,1.4353283643722534,0.33340439200401306,-0.3384609520435333,0.5671976804733276,-0.8786895871162415,1.3792283535003662,1.6110013723373413,0.8756890296936035,-0.7349873781204224,0.7216289639472961,1.5905299186706543,-0.28668639063835144,-0.8121773600578308,2.276937246322632,1.0623397827148438,0.06795229762792587,0.37847959995269775,1.3631962537765503,-0.4075724482536316
66,0.3671240508556366,3.809880495071411,1.3132754564285278,-1.685762643814087,-1.0539159774780273,0.14575687050819397,-0.3130473792552948,0.12348451465368271,-0.2997766137123108,0.04257307946681976,1.3985859155654907,0.6833854913711548,-0.8068868517875671,-0.08122950047254562,0.5031687021255493,-1.1482369899749756,-0.06022680923342705,-0.09422699362039566,0.4533359408378601,0.23119771480560303,0.7197931408882141,1.4321186542510986,0.33368372917175293,-0.338178426027298,0.566683292388916,-0.8749651908874512,1.3755451440811157,1.603440284729004,0.8717665076255798,-0.729152500629425,0.7399950623512268,1.599727988243103,-0.29801541566848755,-0.8126226663589478,2.2743728160858154,1.042490839958191,0.06746036559343338,0.369800865650177,1.3549755811691284,-0.39817506074905396
67,0.3561978340148926,3.8056914806365967,1.304785966873169,-1.712402105331421,-1.0473072528839111,0.15603984892368317,-0.3174458146095276,0.12618933618068695,-0.29160577058792114,0.049203429371118546,1.4030592441558838,0.6867663860321045,-0.8056973814964294,-0.09108206629753113,0.5004629492759705,-1.1480969190597534,-0.05523882806301117,-0.06743067502975464,0.4494636356830597,0.22798778116703033,0.7183931469917297,1.446449637413025,0.3226757347583771,-0.3330400288105011,0.5693178772926331,-0.8756057620048523,1.3833280801773071,1.615918755531311,0.8958467841148376,-0.7206348776817322,0.7273983359336853,1.5899887084960938,-0.2891683876514435,-0.8187629580497742,2.2849442958831787,1.0132859945297241,0.06655190140008926,0.3663957715034485,1.3548369407653809,-0.4013240933418274
68,0.37622979283332825,3.819396495819092,1.31696355342865,-1.7091532945632935,-1.0616897344589233,0.1370733380317688,-0.3171980679035187,0.11797361075878143,-0.29852035641670227,0.03367473930120468,1.3977973461151123,0.6731526851654053,-0.8263282179832458,-0.07870373129844666,0.5036142468452454,-1.1341615915298462,-0.05584852024912834,-0.0909520834684372,0.45673006772994995,0.24235494434833527,0.7253453731536865,1.4428409337997437,0.3224925696849823,-0.33269983530044556,0.5690802335739136,-0.8712566494941711,1.379502534866333,1.6072535514831543,0.8911577463150024,-0.7152100205421448,0.7470014095306396,1.6000570058822632,-0.30159708857536316,-0.8191103935241699,2.2817065715789795,0.9929244518280029,0.06631775200366974,0.35769331455230713,1.3465582132339478,-0.3910179138183594
69,0.363288938999176,3.8144443035125732,1.3076070547103882,-1.7367734909057617,-1.0541315078735352,0.1485525518655777,-0.32124757766723633,0.12093871086835861,-0.2895125448703766,0.0411212220788002,1.4032238721847534,0.6772805452346802,-0.8241145610809326,-0.08949906378984451,0.5005862712860107,-1.1345922946929932,-0.0506027527153492,-0.06113028526306152,0.45245257019996643,0.23820339143276215,0.7241906523704529,1.4576398134231567,0.31043243408203125,-0.3273814022541046,0.5715550184249878,-0.8718066215515137,1.3882867097854614,1.6202428340911865,0.9169731736183167,-0.705662727355957,0.7325955629348755,1.5893970727920532,-0.2916263937950134,-0.8254221081733704,2.2919721603393555,0.9622595906257629,0.06510500609874725,0.35410448908805847,1.3459409475326538,-0.3950270712375641
70,0.3848004937171936,3.829540491104126,1.3209450244903564,-1.7313752174377441,-1.0701597929000854,0.1269880086183548,-0.3201456367969513,0.11187466233968735,-0.29700979590415955,0.02341269887983799,1.3975087404251099,0.6626657247543335,-0.8462821841239929,-0.0759095624089241,0.5043712854385376,-1.1191543340682983,-0.05160108208656311,-0.08824320137500763,0.46028029918670654,0.25274157524108887,0.7322219014167786,1.4528769254684448,0.3101802468299866,-0.3271275460720062,0.5711857676506042,-0.8670169115066528,1.3837823867797852,1.6097745895385742,0.9103511571884155,-0.7008514404296875,0.7545285820960999,1.601265549659729,-0.3060516119003296,-0.8256034851074219,2.287691593170166,0.9420287609100342,0.06546216458082199,0.3453419804573059,1.3374468088150024,-0.38359272480010986
71,0.3686008155345917,3.8228068351745605,1.30983567237854,-1.760977029800415,-1.0607106685638428,0.14098934829235077,-0.3240501582622528,0.1155412346124649,-0.28651556372642517,0.03276151791214943,1.404340386390686,0.668091356754303,-0.8419705033302307,-0.08863255381584167,0.5006982088088989,-1.120703935623169,-0.04564543813467026,-0.05392256751656532,0.4550899863243103,0.24717578291893005,0.7309130430221558,1.4687641859054565,0.29692935943603516,-0.3214844763278961,0.5741427540779114,-0.8676280975341797,1.3940993547439575,1.6242274045944214,0.9392400979995728,-0.6901097297668457,0.7368705868721008,1.5884689092636108,-0.2940078675746918,-0.8324316740036011,2.2980844974517822,0.9096952676773071,0.0635984018445015,0.341642290353775,1.3366426229476929,-0.3888608515262604
72,0.39305806159973145,3.840144634246826,1.325359582901001,-1.751976728439331,-1.0796480178833008,0.11541014164686203,-0.32200729846954346,0.10515227168798447,-0.29561954736709595,0.011717043817043304,1.3976495265960693,0.6517831087112427,-0.8668542504310608,-0.07283162325620651,0.5055989623069763,-1.1031066179275513,-0.0473727285861969,-0.08610624819993973,0.4640931487083435,0.26260408759117126,0.7403521537780762,1.461930274963379,0.2970365583896637,-0.3214930295944214,0.5730040073394775,-0.8626125454902649,1.3881890773773193,1.6110366582870483,0.9291397929191589,-0.6862885355949402,0.7625539898872375,1.603450059890747,-0.311577171087265,-0.8323323130607605,2.2923591136932373,0.8904112577438354,0.0650412067770958,0.33283448219299316,1.327793002128601,-0.3760072588920593
73,0.3720172345638275,3.8302900791168213,1.3113347291946411,-1.7848773002624512,-1.0669423341751099,0.1336727887392044,-0.3260076940059662,0.11010772734880447,-0.28266680240631104,0.024459313601255417,1.4064913988113403,0.6592460870742798,-0.8589699268341064,-0.08872147649526596,0.5008009672164917,-1.106542944908142,-0.040154967457056046,-0.0457456111907959,0.4572691321372986,0.255013644695282,0.7383711338043213,1.4797186851501465,0.28242096304893494,-0.31538107991218567,0.577398419380188,-0.8633460998535156,1.4007842540740967,1.6281710863113403,0.9628527760505676,-0.6740443706512451,0.7398272156715393,1.5868271589279175,-0.29612529277801514,-0.8400564193725586,2.303377389907837,0.856009840965271,0.06193464249372482,0.32904380559921265,1.3270900249481201,-0.38302093744277954
74,0.40133363008499146,3.8511531352996826,1.3304039239883423,-1.770453691482544,-1.0904672145843506,0.10221192985773087,-0.32285717129707336,0.0977553278207779,-0.29480719566345215,-0.0015188951510936022,1.3981274366378784,0.6404159665107727,-0.8881651163101196,-0.0694078877568245,0.50749272108078,-1.0859497785568237,-0.043212369084358215,-0.08445543050765991,0.46828997135162354,0.2721421718597412,0.7496727108955383,1.4696344137191772,0.28335660696029663,-0.3158724308013916,0.5743503570556641,-0.8584282398223877,1.392441749572754,1.61101233959198,0.9471598267555237,-0.6717925667762756,0.7711209058761597,1.6068613529205322,-0.3183683753013611,-0.8394727110862732,2.295727252960205,0.8387646675109863,0.06526000052690506,0.32028138637542725,1.317732572555542,-0.3684203028678894
75,0.3734549582004547,3.836374044418335,1.311900019645691,-1.8083502054214478,-1.0725561380386353,0.1269676685333252,-0.32725685834884644,0.10480571538209915,-0.2778865694999695,0.016654180362820625,1.4097729921340942,0.6508737206459045,-0.8746777772903442,-0.09002948552370071,0.5008535385131836,-1.0922892093658447,-0.0339759960770607,-0.03683307021856308,0.45877519249916077,0.26171186566352844,0.746318519115448,1.4904180765151978,0.26718518137931824,-0.3091430068016052,0.581817626953125,-0.8591418266296387,1.4083707332611084,1.6324039697647095,0.9879607558250427,-0.6575631499290466,0.7411153316497803,1.58401620388031,-0.2976974546909332,-0.8485337495803833,2.307932138442993,0.8016085028648376,0.05991996079683304,0.3163311779499054,1.3174301385879517,-0.37769103050231934
76,0.4099317491054535,3.8625974655151367,1.3362656831741333,-1.7863444089889526,-1.1028424501419067,0.08738289773464203,-0.3227446675300598,0.08964889496564865,-0.2950999438762665,-0.016339359804987907,1.3988618850708008,0.6285932064056396,-0.9102587103843689,-0.06557977199554443,0.5102751851081848,-1.0676974058151245,-0.03934335708618164,-0.08288755267858505,0.47301167249679565,0.2814202308654785,0.7600923776626587,1.4756070375442505,0.26943185925483704,-0.3103730082511902,0.5748273730278015,-0.8548966646194458,1.3961994647979736,1.6096973419189453,0.9639940857887268,-0.6576704382896423,0.7801904082298279,1.6118136644363403,-0.3265363276004791,-0.8471477627754211,2.297806978225708,0.7878739237785339,0.06639382988214493,0.30782565474510193,1.3073937892913818,-0.36108699440956116
77,0.3730829358100891,3.840641975402832,1.3113572597503662,-1.8310824632644653,-1.0772840976715088,0.12105929106473923,-0.3279229700565338,0.09982497990131378,-0.2720383405685425,0.009731982834637165,1.4142134189605713,0.6431041955947876,-0.8886804580688477,-0.09269207715988159,0.5008070468902588,-1.0781073570251465,-0.027040647342801094,-0.0279216468334198,0.4593382477760315,0.2671668231487274,0.7544577121734619,1.5007070302963257,0.2515718638896942,-0.30289405584335327,0.5881204009056091,-0.8550655245780945,1.41681969165802,1.6371674537658691,1.0143719911575317,-0.6408154368400574,0.740710973739624,1.5796962976455688,-0.2985287010669708,-0.8580518960952759,2.311739921569824,0.7469565868377686,0.05729776620864868,0.30351153016090393,1.307782530784607,-0.37299633026123047
78,0.41876161098480225,3.8743679523468018,1.3429046869277954,-1.7995305061340332,-1.1165988445281982,0.07142026722431183,-0.3217369318008423,0.08091805875301361,-0.296905517578125,-0.032404106110334396,1.399889349937439,0.6166109442710876,-0.9327921867370605,-0.061480551958084106,0.5141152739524841,-1.0485581159591675,-0.03610951825976372,-0.08049660176038742,0.47833943367004395,0.29020318388938904,0.7714146971702576,1.4796335697174072,0.25552231073379517,-0.3050931692123413,0.5739490985870361,-0.8525007963180542,1.3992112874984741,1.6073390245437622,0.9795739650726318,-0.6441757082939148,0.7892724275588989,1.6182483434677124,-0.3358331620693207,-0.8554642796516418,2.2986643314361572,0.7385371923446655,0.06868349760770798,0.29563775658607483,1.2969411611557007,-0.3543970584869385
79,0.37179693579673767,3.8431766033172607,1.3098759651184082,-1.8521742820739746,-1.0813621282577515,0.11543890088796616,-0.32808783650398254,0.09523550420999527,-0.2652898132801056,0.0035574890207499266,1.4195817708969116,0.6358615159988403,-0.9010987877845764,-0.09637830406427383,0.5007506608963013,-1.0639604330062866,-0.01949911192059517,-0.020224343985319138,0.45883631706237793,0.2713218331336975,0.7625294923782349,1.5101149082183838,0.2360510677099228,-0.2968252897262573,0.596892774105072,-0.8510540127754211,1.4257923364639282,1.6422642469406128,1.040960431098938,-0.6241016387939453,0.7394440770149231,1.5743083953857422,-0.29895490407943726,-0.8686776161193848,2.314586877822876,0.6928119659423828,0.053950827568769455,0.2906167507171631,1.2981958389282227,-0.36895960569381714
80,0.4267778992652893,3.8856582641601562,1.349645972251892,-1.8107529878616333,-1.1305348873138428,0.05585071071982384,-0.31998658180236816,0.07198114693164825,-0.29988089203834534,-0.048402100801467896,1.4015612602233887,0.6052272319793701,-0.9544908404350281,-0.05780730023980141,0.518884003162384,-1.0291121006011963,-0.03370797261595726,-0.07611167430877686,0.4839865565299988,0.2977930009365082,0.7832165956497192,1.4820716381072998,0.24179431796073914,-0.3000463545322418,0.5717399716377258,-0.8515893220901489,1.4017138481140137,1.6048157215118408,0.9948882460594177,-0.6313133239746094,0.7970030307769775,1.624824047088623,-0.3451763093471527,-0.8645798563957214,2.298556327819824,0.6912550330162048,0.071915403008461,0.28386038541793823,1.2866764068603516,-0.3487410247325897
81,0.37150079011917114,3.845136880874634,1.308469295501709,-1.8699312210083008,-1.0861332416534424,0.10849443078041077,-0.32769593596458435,0.0907377153635025,-0.25877615809440613,-0.0030729270074516535,1.4251821041107178,0.6286158561706543,-0.9132713079452515,-0.09993111342191696,0.5011906027793884,-1.049404263496399,-0.01194663718342781,-0.014799783006310463,0.45768797397613525,0.27452540397644043,0.7705399394035339,1.5175923109054565,0.22114957869052887,-0.2911907434463501,0.6072928309440613,-0.8471260666847229,1.4343655109405518,1.6466429233551025,1.0653423070907593,-0.6080557107925415,0.7392210960388184,1.569939136505127,-0.3003076910972595,-0.8801835179328918,2.316023349761963,0.640590250492096,0.05035935342311859,0.2778327167034149,1.2886182069778442,-0.36549338698387146
82,0.4321123957633972,3.8946287631988525,1.35505211353302,-1.821675181388855,-1.1423124074935913,0.04290628433227539,-0.31775715947151184,0.06367326527833939,-0.3021868169307709,-0.06202618032693863,1.4045817852020264,0.595507025718689,-0.9732017517089844,-0.055934417992830276,0.5238315463066101,-1.0103440284729004,-0.03167441859841347,-0.06917254626750946,0.4888659715652466,0.3033260703086853,0.7947964072227478,1.48409104347229,0.22825324535369873,-0.2951289117336273,0.5696824193000793,-0.8518703579902649,1.4047985076904297,1.603655457496643,1.0119473934173584,-0.6186966896057129,0.8015714287757874,1.6288158893585205,-0.3526916205883026,-0.8746887445449829,2.2980124950408936,0.6457939147949219,0.07485192269086838,0.272509902715683,1.2770907878875732,-0.34407660365104675
83,0.3739825487136841,3.8484010696411133,1.3088959455490112,-1.8828847408294678,-1.0933451652526855,0.09847799688577652,-0.32649824023246765,0.08565554767847061,-0.2544606924057007,-0.011816486716270447,1.4301211833953857,0.6205961108207703,-0.9271878600120544,-0.10182838886976242,0.5030735731124878,-1.0337982177734375,-0.005340404808521271,-0.011628391221165657,0.4569850564002991,0.2777712941169739,0.778897762298584,1.5219424962997437,0.2071770876646042,-0.28625360131263733,0.6159635782241821,-0.8437147736549377,1.4413357973098755,1.6488573551177979,1.0853320360183716,-0.5936196446418762,0.7417399287223816,1.5693007707595825,-0.3042452931404114,-0.8919486403465271,2.315696954727173,0.5921903252601624,0.047748830169439316,0.26559343934059143,1.2790021896362305,-0.3624214828014374
84,0.43378177285194397,3.899691104888916,1.3579623699188232,-1.8336052894592285,-1.1502656936645508,0.03358878195285797,-0.31526172161102295,0.05669122189283371,-0.30152300000190735,-0.07174520939588547,1.4093866348266602,0.5879285335540771,-0.9876530170440674,-0.05687464028596878,0.5279115438461304,-0.993161141872406,-0.028808018192648888,-0.0605296827852726,0.4914762079715729,0.3068273961544037,0.8054271936416626,1.4867867231369019,0.21481260657310486,-0.29030269384384155,0.5700554847717285,-0.8522422909736633,1.409722089767456,1.6049171686172485,1.0318889617919922,-0.6059433221817017,0.802347719669342,1.6287529468536377,-0.35721108317375183,-0.8857802748680115,2.297520637512207,0.6015062928199768,0.07581071555614471,0.261517196893692,1.2685832977294922,-0.3398301303386688
85,0.379073828458786,3.8536903858184814,1.3122044801712036,-1.8914618492126465,-1.1030775308609009,0.08538699895143509,-0.3242295980453491,0.07951647788286209,-0.25316348671913147,-0.0229607205837965,1.4341727495193481,0.6116496324539185,-0.9433454275131226,-0.10173147171735764,0.5069880485534668,-1.0171082019805908,-0.00022709136828780174,-0.009608401916921139,0.4576309025287628,0.28209638595581055,0.7879413962364197,1.5230604410171509,0.194061741232872,-0.28220465779304504,0.6197494864463806,-0.841530442237854,1.4463194608688354,1.64862060546875,1.1011801958084106,-0.5812923312187195,0.746668815612793,1.5727616548538208,-0.31093302369117737,-0.9033292531967163,2.3138647079467773,0.5486672520637512,0.04700494557619095,0.25431549549102783,1.2694796323776245,-0.359557181596756
86,0.43282002210617065,3.901284694671631,1.358784794807434,-1.8463044166564941,-1.155043363571167,0.026634978130459785,-0.31246256828308105,0.05092783272266388,-0.29769644141197205,-0.07835031300783157,1.4155315160751343,0.5818853974342346,-0.9987585544586182,-0.060160573571920395,0.530903160572052,-0.9777194857597351,-0.024274693801999092,-0.051834654062986374,0.4913902282714844,0.30950450897216797,0.8148277401924133,1.4900095462799072,0.2015223503112793,-0.28582558035850525,0.5733046531677246,-0.8519124388694763,1.4165071249008179,1.6081383228302002,1.0537399053573608,-0.5932014584541321,0.8005272150039673,1.6261428594589233,-0.35942623019218445,-0.8974652886390686,2.297072172164917,0.558465838432312,0.07442253828048706,0.25094226002693176,1.2610445022583008,-0.3356843888759613
87,0.38512277603149414,3.8599934577941895,1.3177063465118408,-1.8975450992584229,-1.1137346029281616,0.07074678689241409,-0.32088416814804077,0.07249270379543304,-0.2537294030189514,-0.0352519154548645,1.4378688335418701,0.6024426817893982,-0.9603995084762573,-0.10080111771821976,0.5125195980072021,-1.0000911951065063,0.003722673049196601,-0.007680334150791168,0.45937788486480713,0.28769010305404663,0.7973949909210205,1.522047996520996,0.1816287338733673,-0.2791116237640381,0.6193013191223145,-0.8408419489860535,1.4500128030776978,1.6470812559127808,1.1149441003799438,-0.570544958114624,0.7523089647293091,1.578381061553955,-0.3189399838447571,-0.9141660332679749,2.311196804046631,0.5095411539077759,0.04772108793258667,0.24407730996608734,1.260298252105713,-0.35683223605155945
88,0.43097442388534546,3.9011566638946533,1.3588992357254028,-1.8586857318878174,-1.158329963684082,0.02013375237584114,-0.309221088886261,0.045785531401634216,-0.29240748286247253,-0.08365260064601898,1.42220139503479,0.5765401124954224,-1.0082892179489136,-0.06459567695856094,0.5335298180580139,-0.9635290503501892,-0.018460627645254135,-0.044079191982746124,0.489551842212677,0.3124539256095886,0.823204755783081,1.4929053783416748,0.18862174451351166,-0.2821000814437866,0.5780428647994995,-0.8512085676193237,1.4241063594818115,1.612117052078247,1.0757917165756226,-0.5807466506958008,0.7978447079658508,1.6231769323349,-0.3607798218727112,-0.9092695116996765,2.2963502407073975,0.5175179839134216,0.07167941331863403,0.2409687638282776,1.2540223598480225,-0.33186882734298706
89,0.39079591631889343,3.866102933883667,1.3240025043487549,-1.9027048349380493,-1.1238179206848145,0.05596906691789627,-0.316742479801178,0.06510674208402634,-0.2546811103820801,-0.04732048138976097,1.441710114479065,0.5937069058418274,-0.9769054651260376,-0.10022775083780289,0.5188713073730469,-0.9835116267204285,0.00713469460606575,-0.005438618827611208,0.4613009989261627,0.2939811050891876,0.8067057132720947,1.5200423002243042,0.16985590755939484,-0.2769554853439331,0.6173034906387329,-0.8413756489753723,1.453295350074768,1.645499348640442,1.128327488899231,-0.5604572892189026,0.7574427127838135,1.5843210220336914,-0.32687440514564514,-0.9246741533279419,2.3081862926483154,0.4738297462463379,0.048919036984443665,0.23474712669849396,1.251621961593628,-0.35426318645477295
90,0.42935270071029663,3.900726556777954,1.3593287467956543,-1.869935154914856,-1.1612186431884766,0.012986104004085064,-0.3055470883846283,0.0407840758562088,-0.2871059477329254,-0.08879972994327545,1.4288396835327148,0.5715010762214661,-1.0174294710159302,-0.0692945197224617,0.536540687084198,-0.9500550627708435,-0.012313744984567165,-0.03734756261110306,0.48703497648239136,0.3159136176109314,0.8308722972869873,1.4948923587799072,0.17639675736427307,-0.27939099073410034,0.5830467939376831,-0.8508248329162598,1.4315861463546753,1.6160458326339722,1.0969444513320923,-0.5685770511627197,0.7954264879226685,1.6209827661514282,-0.3622378408908844,-0.9209251999855042,2.2951431274414062,0.47942405939102173,0.06859859824180603,0.2317255139350891,1.2471697330474854,-0.32861170172691345
91,0.39559242129325867,3.8714962005615234,1.330152153968811,-1.907626748085022,-1.132597804069519,0.04173516854643822,-0.3121902644634247,0.05779549106955528,-0.25521162152290344,-0.05840711668133736,1.4458491802215576,0.5858247876167297,-0.9921866655349731,-0.10048267245292664,0.5255337357521057,-0.967725396156311,0.01036418229341507,-0.0028487101662904024,0.4626914858818054,0.3002472221851349,0.8154929876327515,1.5176572799682617,0.15884225070476532,-0.2757086753845215,0.6156303882598877,-0.8427570462226868,1.4566775560379028,1.6445462703704834,1.1420079469680786,-0.5503872632980347,0.7617048025131226,1.5897403955459595,-0.33412304520606995,-0.9350780248641968,2.3050317764282227,0.4409046173095703,0.04990800470113754,0.22618551552295685,1.2434706687927246,-0.35186535120010376
92,0.4283387362957001,3.9006783962249756,1.3604421615600586,-1.8797581195831299,-1.1640421152114868,0.004904286004602909,-0.3016079068183899,0.035702094435691833,-0.2823289930820465,-0.09412166476249695,1.435193419456482,0.5667101740837097,-1.0266332626342773,-0.07382503151893616,0.5402837991714478,-0.9369850158691406,-0.006531991064548492,-0.031412653625011444,0.48438286781311035,0.319595068693161,0.8380287885665894,1.4958235025405884,0.1650886982679367,-0.27778390049934387,0.5877943634986877,-0.8511335849761963,1.438539981842041,1.6196843385696411,1.1167865991592407,-0.556557834148407,0.7936785817146301,1.6198338270187378,-0.36417996883392334,-0.9323430061340332,2.2934107780456543,0.44453495740890503,0.06567800790071487,0.2232372909784317,1.2403703927993774,-0.32588645815849304
93,0.39948827028274536,3.876152276992798,1.335806965827942,-1.912463665008545,-1.139877438545227,0.028217826038599014,-0.30757784843444824,0.05077510327100754,-0.2550436556339264,-0.0682702511548996,1.4502284526824951,0.5789002180099487,-1.0061249732971191,-0.10156483948230743,0.5323110222816467,-0.9528107047080994,0.01349682454019785,3.8643134757876396e-05,0.46325716376304626,0.30594363808631897,0.8235846161842346,1.5151374340057373,0.14871624112129211,-0.27536094188690186,0.6149507164955139,-0.8447118997573853,1.460335612297058,1.6444426774978638,1.1560237407684326,-0.5400270223617554,0.7651275396347046,1.5944674015045166,-0.34060126543045044,-0.9454781413078308,2.301781415939331,0.41052448749542236,0.05040138587355614,0.2182946503162384,1.2357892990112305,-0.3496500849723816
94,0.42794814705848694,3.901230573654175,1.36225163936615,-1.8881783485412598,-1.1667711734771729,-0.004025707952678204,-0.29762864112854004,0.030471447855234146,-0.2780935764312744,-0.09957848489284515,1.4411635398864746,0.5622084140777588,-1.0359604358673096,-0.0780266746878624,0.5447996258735657,-0.924193799495697,-0.001417370280250907,-0.026083428412675858,0.4817408323287964,0.32310861349105835,0.8447598218917847,1.4957963228225708,0.15487319231033325,-0.27726560831069946,0.5921527147293091,-0.852185845375061,1.4449048042297363,1.6230850219726562,1.135257363319397,-0.5445632934570312,0.7926064729690552,1.6196625232696533,-0.36666780710220337,-0.9435014724731445,2.291193723678589,0.4129098057746887,0.06304515898227692,0.2154698520898819,1.2336512804031372,-0.323523610830307
95,0.40260976552963257,3.8802270889282227,1.3409392833709717,-1.9171946048736572,-1.145704746246338,0.01537679135799408,-0.3031817674636841,0.04410300776362419,-0.2541457414627075,-0.0769306942820549,1.4547241926193237,0.572900116443634,-1.0188250541687012,-0.10331975668668747,0.5391534566879272,-0.9387531280517578,0.01652226410806179,0.0031658976804465055,0.46296146512031555,0.31074225902557373,0.8309231996536255,1.512579083442688,0.13958506286144257,-0.2759060859680176,0.615291953086853,-0.8470687866210938,1.4642846584320068,1.645203948020935,1.1701868772506714,-0.5292536616325378,0.7678326368331909,1.5985966920852661,-0.34641361236572266,-0.9558801651000977,2.2984347343444824,0.3826231360435486,0.050352856516838074,0.21100851893424988,1.2285212278366089,-0.3476332426071167
96,0.42807725071907043,3.902397632598877,1.3646607398986816,-1.8953478336334229,-1.169297218322754,-0.01362027507275343,-0.2938235104084015,0.025079788640141487,-0.2742607593536377,-0.10505536943674088,1.4467049837112427,0.5580313205718994,-1.0453377962112427,-0.08185877650976181,0.5499911308288574,-0.9116597771644592,0.002980827586725354,-0.021258821710944176,0.47910064458847046,0.32615041732788086,0.8510974049568176,1.4949944019317627,0.14586254954338074,-0.2777831554412842,0.5961261987686157,-0.85389643907547,1.4507488012313843,1.6263704299926758,1.152414083480835,-0.532495379447937,0.7920764088630676,1.6203138828277588,-0.3696393370628357,-0.9543867111206055,2.288550615310669,0.38445591926574707,0.06067503243684769,0.2083703875541687,1.2270917892456055,-0.32133355736732483
97,0.4050908386707306,3.883885145187378,1.3456302881240845,-1.9217878580093384,-1.1502180099487305,0.003121071495115757,-0.2992110550403595,0.0377630852162838,-0.2525743246078491,-0.08450449258089066,1.4592089653015137,0.56773841381073,-1.0304429531097412,-0.1055862084031105,0.5460569262504578,-0.925531804561615,0.019435560330748558,0.006478841416537762,0.46187496185302734,0.31448110938072205,0.8375020623207092,1.5100418329238892,0.13151471316814423,-0.2773280143737793,0.6164683699607849,-0.8497282266616821,1.4684892892837524,1.6467671394348145,1.1842869520187378,-0.5180190205574036,0.7699303030967712,1.6022790670394897,-0.3516864478588104,-0.9662414789199829,2.2949860095977783,0.3571550250053406,0.04981819912791252,0.2042781412601471,1.2216345071792603,-0.3458291292190552
98,0.4286094903945923,3.904123306274414,1.3675687313079834,-1.9014511108398438,-1.171545147895813,-0.023703040555119514,-0.29036805033683777,0.01952570118010044,-0.2706906497478485,-0.11046610027551651,1.4517840147018433,0.5541840195655823,-1.054680585861206,-0.0853211060166359,0.5557289719581604,-0.899404764175415,0.006733814720064402,-0.016897857189178467,0.47643133997917175,0.32854020595550537,0.8570599555969238,1.4936102628707886,0.13811303675174713,-0.27926838397979736,0.5997476577758789,-0.8561588525772095,1.4561631679534912,1.6296314001083374,1.1683380603790283,-0.5202715396881104,0.7919402122497559,1.621632695198059,-0.3730020225048065,-0.964971661567688,2.2855372428894043,0.3589977025985718,0.058507613837718964,0.20188391208648682,1.2207763195037842,-0.31915518641471863
99,0.4070311188697815,3.8872509002685547,1.3499720096588135,-1.9262462854385376,-1.153579831123352,-0.008626500144600868,-0.2958187162876129,0.031716521829366684,-0.25040531158447266,-0.09112610667943954,1.463572382926941,0.5633136034011841,-1.041124939918518,-0.10824085772037506,0.5530266165733337,-0.9131397008895874,0.022267933934926987,0.009928920306265354,0.46010053157806396,0.31711238622665405,0.843335747718811,1.507587194442749,0.12452567368745804,-0.27959588170051575,0.6182665228843689,-0.8526362180709839,1.472909688949585,1.6490375995635986,1.1981621980667114,-0.5062950253486633,0.7715004682540894,1.6056420803070068,-0.35651668906211853,-0.9764999151229858,2.29144024848938,0.33402585983276367,0.048881590366363525,0.19805976748466492,1.2151166200637817,-0.3442467451095581
100,0.4294475317001343,3.9063382148742676,1.370897650718689,-1.9066641330718994,-1.173496961593628,-0.03413084149360657,-0.28739219903945923,0.013802665285766125,-0.2672823965549469,-0.11577192693948746,1.4563665390014648,0.5506429076194763,-1.0639318227767944,-0.08842107653617859,0.5618975162506104,-0.8874577283859253,0.00996102299541235,-0.012990808114409447,0.47372356057167053,0.33020588755607605,0.8626708388328552,1.4918179512023926,0.13163290917873383,-0.2816464900970459,0.6030420064926147,-0.8588874936103821,1.461223840713501,1.6329014301300049,1.1831064224243164,-0.5078155398368835,0.792075514793396,1.623488187789917,-0.37667012214660645,-0.9752140045166016,2.2822065353393555,0.33630669116973877,0.056493084877729416,0.1959562748670578,1.2147749662399292,-0.3168627917766571
101,0.40849098563194275,3.8904025554656982,1.3540345430374146,-1.930606484413147,-1.1559501886367798,-0.0199125949293375,-0.29311123490333557,0.025923991575837135,-0.2477087527513504,-0.09692131727933884,1.467725396156311,0.5595239400863647,-1.0509920120239258,-0.11120425164699554,0.5600695013999939,-0.9015780687332153,0.025086183100938797,0.01347511075437069,0.4577421247959137,0.318663626909256,0.8484471440315247,1.5052865743637085,0.11859665811061859,-0.28266599774360657,0.620507001876831,-0.8557655215263367,1.4775159358978271,1.6519076824188232,1.2117116451263428,-0.49405157566070557,0.7725948095321655,1.6087733507156372,-0.3609667718410492,-0.9865875840187073,2.287816047668457,0.31307777762413025,0.047623712569475174,0.19230687618255615,1.208961844444275,-0.3428918123245239
102,0.43051785230636597,3.9089784622192383,1.3745927810668945,-1.9111402034759521,-1.1751842498779297,-0.044793978333473206,-0.2849825620651245,0.007894858717918396,-0.2639756500720978,-0.12097541242837906,1.460418939590454,0.5473629236221313,-1.0730682611465454,-0.09116421639919281,0.56840980052948,-0.8758346438407898,0.01279579009860754,-0.00954162422567606,0.47099635004997253,0.33115556836128235,0.8679633140563965,1.4897668361663818,0.12639161944389343,-0.28484046459198,0.6060171127319336,-0.862025797367096,1.4659836292266846,1.6361606121063232,1.1967872381210327,-0.49505457282066345,0.7923922538757324,1.6257786750793457,-0.3805776834487915,-0.9850597381591797,2.27860951423645,0.31612086296081543,0.05460282415151596,0.19053299725055695,1.2091374397277832,-0.31436192989349365
103,0.40949776768684387,3.893378496170044,1.357859492301941,-1.93492591381073,-1.1574761867523193,-0.030755380168557167,-0.29115647077560425,0.020352337509393692,-0.24454265832901,-0.10200127959251404,1.4716033935546875,0.5562719702720642,-1.0601385831832886,-0.11443524062633514,0.5671945214271545,-0.8908458948135376,0.027982724830508232,0.01708330772817135,0.45489245653152466,0.3192102015018463,0.8528629541397095,1.5032188892364502,0.11367205530405045,-0.28648748993873596,0.6230550408363342,-0.8591029047966003,1.4822909832000732,1.6552654504776,1.2248878479003906,-0.48125016689300537,0.7732433080673218,1.611725926399231,-0.3650730848312378,-0.9964389801025391,2.2841436862945557,0.29410019516944885,0.04610995575785637,0.1869661509990692,1.2031612396240234,-0.34176939725875854
104,0.43176642060279846,3.9119906425476074,1.3786168098449707,-1.9150041341781616,-1.176672101020813,-0.0556107722222805,-0.28318822383880615,0.0017765772063285112,-0.26074209809303284,-0.12610919773578644,1.4639124870300293,0.5442848205566406,-1.0820916891098022,-0.09355372935533524,0.5752091407775879,-0.8645288348197937,0.015369579195976257,-0.006558024790138006,0.4682912528514862,0.3314507007598877,0.8729805946350098,1.4875811338424683,0.12232790887355804,-0.2887752950191498,0.6086651682853699,-0.8655418157577515,1.4704737663269043,1.6393505334854126,1.2094407081604004,-0.4819187521934509,0.792827308177948,1.6284297704696655,-0.38468098640441895,-0.9944495558738708,2.274794101715088,0.29816150665283203,0.05282868072390556,0.18555843830108643,1.2038928270339966,-0.3115856349468231
105,0.41005387902259827,3.896188259124756,1.3614623546600342,-1.9392682313919067,-1.1582869291305542,-0.04115266725420952,-0.2899908721446991,0.014974161982536316,-0.2409532517194748,-0.106463722884655,1.4751629829406738,0.5534677505493164,-1.0686339139938354,-0.11792145669460297,0.5744149684906006,-0.8809306025505066,0.031063105911016464,0.020723922178149223,0.4516288936138153,0.31885507702827454,0.8566120862960815,1.5014643669128418,0.1096709668636322,-0.2910086214542389,0.6258181929588318,-0.8626422882080078,1.4872281551361084,1.6589998006820679,1.2376829385757446,-0.467844158411026,0.7734602093696594,1.6145293712615967,-0.36885562539100647,-1.0059956312179565,2.2804574966430664,0.27684950828552246,0.044387347996234894,0.18197648227214813,1.197697401046753,-0.3408847451210022
106,0.4331517517566681,3.9153318405151367,1.3829437494277954,-1.9183528423309326,-1.178043246269226,-0.0665212944149971,-0.28202906250953674,-0.004586352035403252,-0.2575736939907074,-0.13122378289699554,1.4668270349502563,0.5413426160812378,-1.0910191535949707,-0.09559409320354462,0.5822659730911255,-0.8535115718841553,0.017804570496082306,-0.004042139742523432,0.46566393971443176,0.3311815857887268,0.8777700066566467,1.485363245010376,0.11935776472091675,-0.29338234663009644,0.6109669804573059,-0.8694229125976562,1.4747095108032227,1.642390251159668,1.221122145652771,-0.4683413505554199,0.793337345123291,1.6313915252685547,-0.3889559507369995,-1.003324270248413,2.2708020210266113,0.2821477949619293,0.05117933452129364,0.18097592890262604,1.1990535259246826,-0.3084956109523773
107,0.41014620661735535,3.8988211154937744,1.3648406267166138,-1.9436906576156616,-1.1584928035736084,-0.05109264329075813,-0.2896261513233185,0.009764624759554863,-0.2369784265756607,-0.11039753258228302,1.4783802032470703,0.5510293841362,-1.076526403427124,-0.12166748195886612,0.5817493796348572,-0.8718003034591675,0.034434206783771515,0.024364881217479706,0.4480127990245819,0.31771355867385864,0.859727144241333,1.5000983476638794,0.10649819672107697,-0.29618242383003235,0.6287392377853394,-0.866379976272583,1.4923287630081177,1.6630038022994995,1.2501133680343628,-0.45378103852272034,0.7732511758804321,1.6172003746032715,-0.3723268210887909,-1.01520836353302,2.276789665222168,0.26106950640678406,0.04248431697487831,0.17727001011371613,1.192543864250183,-0.340236097574234
108,0.43463724851608276,3.9189651012420654,1.3875505924224854,-1.921261191368103,-1.1793822050094604,-0.07748134434223175,-0.281504362821579,-0.011231858283281326,-0.25447309017181396,-0.13637501001358032,1.4691545963287354,0.5384698510169983,-1.0998719930648804,-0.09729805588722229,0.5895728468894958,-0.8427391052246094,0.020211799070239067,-0.0019797971472144127,0.46317535638809204,0.3304459750652313,0.8823754787445068,1.483198642730713,0.11738045513629913,-0.2986029088497162,0.612896740436554,-0.8736698031425476,1.478697419166565,1.6451925039291382,1.2318859100341797,-0.45425859093666077,0.7938902378082275,1.6346336603164673,-0.39339324831962585,-1.0116297006607056,2.2666690349578857,0.2678075432777405,0.04967658221721649,0.1767289638519287,1.194617748260498,-0.30508801341056824
109,0.4097580015659332,3.9012556076049805,1.3679829835891724,-1.9482311010360718,-1.1581885814666748,-0.06056604161858559,-0.29005399346351624,0.004694785922765732,-0.23265287280082703,-0.11389023810625076,1.4812427759170532,0.5488821268081665,-1.083850383758545,-0.1256779432296753,0.5892216563224792,-0.8633942008018494,0.03819163143634796,0.027961401268839836,0.44409292936325073,0.315903902053833,0.8622501492500305,1.4991836547851562,0.10405644029378891,-0.30197060108184814,0.6317882537841797,-0.8703126907348633,1.497597098350525,1.6671736240386963,1.2622039318084717,-0.43900519609451294,0.7726214528083801,1.619752049446106,-0.37550073862075806,-1.0240371227264404,2.273164749145508,0.24651044607162476,0.04041154682636261,0.17277489602565765,1.1876667737960815,-0.3398028314113617
110,0.436180055141449,3.922853946685791,1.3924098014831543,-1.9237920045852661,-1.1807602643966675,-0.08845414966344833,-0.28160223364830017,-0.01819387450814247,-0.2514418363571167,-0.14161008596420288,1.4709019660949707,0.5356063842773438,-1.1086654663085938,-0.0986984595656395,0.597140371799469,-0.832166850566864,0.02269379235804081,-0.0003263382241129875,0.4608815908432007,0.3293291926383972,0.8868252635002136,1.4811627864837646,0.11628197133541107,-0.3043909966945648,0.6144269704818726,-0.8782933354377747,1.4824446439743042,1.6476809978485107,1.2417937517166138,-0.439608097076416,0.794455885887146,1.6381369829177856,-0.39798980951309204,-1.0193217992782593,2.262425184249878,0.2548820376396179,0.04835191369056702,0.1727624237537384,1.1905733346939087,-0.3014066815376282
111,0.40888336300849915,3.9034721851348877,1.3708832263946533,-1.952894926071167,-1.157462239265442,-0.0695810467004776,-0.29124826192855835,-0.00027745525585487485,-0.22801604866981506,-0.11703894287347794,1.483742117881775,0.546955406665802,-1.0906378030776978,-0.12993653118610382,0.5968605279922485,-0.8556115627288818,0.04240754619240761,0.03144208341836929,0.43991154432296753,0.3135419189929962,0.8642423152923584,1.498761534690857,0.10225963592529297,-0.308344304561615,0.634952187538147,-0.8744375109672546,1.5030324459075928,1.6714035272598267,1.2739697694778442,-0.4234607517719269,0.7715864181518555,1.62220299243927,-0.3784032166004181,-1.032449722290039,2.269592523574829,0.232944056391716,0.038164474070072174,0.16841904819011688,1.1830298900604248,-0.3395257890224457
112,0.437716543674469,3.926952600479126,1.397476315498352,-1.9260125160217285,-1.1822192668914795,-0.09939908981323242,-0.28230851888656616,-0.025489566847682,-0.2484683096408844,-0.1469513326883316,1.4720958471298218,0.5327062010765076,-1.1173968315124512,-0.0998649150133133,0.6049924492835999,-0.8217689394950867,0.02535300888121128,0.0010090656578540802,0.45882031321525574,0.32788583636283875,0.8911163210868835,1.4793317317962646,0.1159358024597168,-0.31071436405181885,0.615536093711853,-0.8833093047142029,1.4859696626663208,1.6498074531555176,1.2509273290634155,-0.424325168132782,0.7949948906898499,1.6418843269348145,-0.40273720026016235,-1.0263745784759521,2.2580995559692383,0.2431230992078781,0.04724164307117462,0.1690232902765274,1.186898112297058,-0.29755693674087524
113,0.4075450301170349,3.905468225479126,1.3735584020614624,-1.9576410055160522,-1.1564079523086548,-0.07817896455526352,-0.2931636571884155,-0.005221137776970863,-0.223122239112854,-0.11996494978666306,1.4858636856079102,0.5451790690422058,-1.0969353914260864,-0.13438023626804352,0.6047000885009766,-0.8482975959777832,0.04711810499429703,0.03469610586762428,0.4355163872241974,0.31074124574661255,0.8657971620559692,1.498841404914856,0.10104670375585556,-0.3152821362018585,0.6382206678390503,-0.8787534236907959,1.5086181163787842,1.6755762100219727,1.285396695137024,-0.4070933759212494,0.7701839804649353,1.6245862245559692,-0.38108476996421814,-1.040419101715088,2.266064167022705,0.22017639875411987,0.035729050636291504,0.16413576900959015,1.1786001920700073,-0.3392888307571411
114,0.43914544582366943,3.9311954975128174,1.4026738405227661,-1.9280145168304443,-1.1837520599365234,-0.11025736480951309,-0.2836135923862457,-0.03310399129986763,-0.24551574885845184,-0.15237988531589508,1.4727884531021118,0.5297456383705139,-1.1260312795639038,-0.10092201828956604,0.6131618618965149,-0.8115565180778503,0.028305282816290855,0.002173597924411297,0.4569922089576721,0.3261253237724304,0.8951990604400635,1.4777932167053223,0.11620280891656876,-0.3175540566444397,0.6162209510803223,-0.8887329697608948,1.4893169403076172,1.6515709161758423,1.259404182434082,-0.40833672881126404,0.7954455018043518,1.645846962928772,-0.4076072871685028,-1.0327908992767334,2.253727674484253,0.232283815741539,0.04637867584824562,0.16546005010604858,1.1835581064224243,-0.2937125563621521
115,0.4058111906051636,3.907278299331665,1.376070261001587,-1.962371587753296,-1.1551423072814941,-0.08645076304674149,-0.29573145508766174,-0.010247264057397842,-0.21804994344711304,-0.12282677739858627,1.4875797033309937,0.5434771180152893,-1.1028262376785278,-0.13888019323349,0.6127818822860718,-0.8412355780601501,0.05231384560465813,0.037571296095848083,0.4309759736061096,0.3076161742210388,0.8670511841773987,1.4993919134140015,0.10039280354976654,-0.3227653503417969,0.641562819480896,-0.8832668662071228,1.5143064260482788,1.6795542240142822,1.2964242696762085,-0.38985127210617065,0.7684876918792725,1.626958966255188,-0.3836342990398407,-1.0479228496551514,2.2625510692596436,0.20805741846561432,0.03309166058897972,0.15987089276313782,1.1743532419204712,-0.33891361951828003
116,0.44031479954719543,3.935486078262329,1.4078826904296875,-1.9299309253692627,-1.185286045074463,-0.12093953788280487,-0.2855154573917389,-0.04097816348075867,-0.24251163005828857,-0.15782515704631805,1.473060965538025,0.5267308354377747,-1.1344916820526123,-0.10205705463886261,0.6216835975646973,-0.8015841841697693,0.03169464319944382,0.0033623019699007273,0.45533955097198486,0.32400697469711304,0.8989714980125427,1.47665536403656,0.11693451553583145,-0.32490214705467224,0.6165164113044739,-0.8945703506469727,1.4925708770751953,1.6530317068099976,1.2673903703689575,-0.3915547728538513,0.7957135438919067,1.6499725580215454,-0.41253888607025146,-1.0386171340942383,2.2493581771850586,0.22210483253002167,0.04577818512916565,0.16202202439308167,1.1805044412612915,-0.290098637342453
117,0.4038010835647583,3.908989906311035,1.378541111946106,-1.9669358730316162,-1.1538143157958984,-0.09454503655433655,-0.298855185508728,-0.015517148189246655,-0.21290583908557892,-0.12582260370254517,1.4888505935668945,0.5417641997337341,-1.108445167541504,-0.14324572682380676,0.6211593151092529,-0.8341570496559143,0.05794050544500351,0.03989586979150772,0.42639458179473877,0.3042832314968109,0.8681796789169312,1.5003373622894287,0.10031282901763916,-0.33077308535575867,0.6448968052864075,-0.887999951839447,1.5200084447860718,1.6831798553466797,1.3069411516189575,-0.37168681621551514,0.7666115164756775,1.6294100284576416,-0.3861868977546692,-1.0549442768096924,2.2590081691741943,0.19648367166519165,0.030255582183599472,0.15559062361717224,1.170276403427124,-0.33818426728248596
118,0.4410262703895569,3.939692735671997,1.4129436016082764,-1.9319366216659546,-1.1866816282272339,-0.1313251405954361,-0.28801631927490234,-0.04901203513145447,-0.23934458196163177,-0.16317179799079895,1.4730201959609985,0.5236988067626953,-1.1426570415496826,-0.10350047796964645,0.6305859684944153,-0.79193115234375,0.035700567066669464,0.004777432885020971,0.45373332500457764,0.3214544653892517,0.902294397354126,1.476041316986084,0.11798446625471115,-0.3327585458755493,0.6165180802345276,-0.9008075594902039,1.4958606958389282,1.6543090343475342,1.2750974893569946,-0.373874306678772,0.7956725358963013,1.654180645942688,-0.4174347221851349,-1.043955683708191,2.24505615234375,0.21230457723140717,0.04541918635368347,0.1586596667766571,1.1776704788208008,-0.2869400680065155
119,0.4016670286655426,3.910745859146118,1.3811476230621338,-1.9711576700210571,-1.1525999307632446,-0.10265626758337021,-0.30241280794143677,-0.02123310975730419,-0.2078143209218979,-0.129170224070549,1.4896379709243774,0.5399460196495056,-1.1139757633209229,-0.1472686380147934,0.6299012899398804,-0.8267832398414612,0.06391869485378265,0.0415281243622303,0.42191454768180847,0.30085718631744385,0.8693669438362122,1.5015684366226196,0.1008511632680893,-0.33928072452545166,0.6480624675750732,-0.8930007219314575,1.5255969762802124,1.686291217803955,1.3168061971664429,-0.35256141424179077,0.7646977305412292,1.6320585012435913,-0.38891544938087463,-1.0614811182022095,2.2553865909576416,0.18538761138916016,0.02725857123732567,0.15128666162490845,1.1663671731948853,-0.3369046449661255
