,0,1,2,3,4,5,6,7,8,9,10,11,12,13,14,15,16,17,18,19,20,21,22,23,24,25,26,27,28,29,30,31,32,33,34,35,36,37,38,39
0,0.2763572931289673,-0.8536534309387207,0.1811007261276245,-0.5557385683059692,-0.2325519323348999,-0.535042405128479,-0.8849875926971436,-0.7520723342895508,-0.29337775707244873,-0.3366192579269409,0.8538055419921875,-0.49954211711883545,0.6749486923217773,-0.36652231216430664,0.16318190097808838,0.8268616199493408,-0.3967597484588623,-0.8022469282150269,0.4137425422668457,0.052596449851989746,-0.0213700532913208,0.4477424621582031,-0.47527825832366943,0.19567656517028809,0.1656358242034912,-0.28194260597229004,-0.22669172286987305,-0.811808705329895,-0.5129967927932739,0.1375371217727661,0.39946913719177246,0.8542178869247437,-0.952984094619751,-0.4661097526550293,0.26698315143585205,-0.8514318466186523,0.19339227676391602,0.5757166147232056,0.37596380710601807,0.6156536340713501
1,0.32917964458465576,-0.8008309006690979,0.12827815115451813,-0.5029159784317017,-0.2853744924068451,-0.48221996426582336,-0.8321650624275208,-0.8048948645591736,-0.24055521190166473,-0.3894418179988861,0.8009829521179199,-0.44671955704689026,0.6221261620521545,-0.41934487223625183,0.1103593185544014,0.7740390300750732,-0.3439371883869171,-0.7494243383407593,0.36092010140419006,0.10541901737451553,0.03144893795251846,0.5005649924278259,-0.42245569825172424,0.1428539901971817,0.2184583991765976,-0.33476516604423523,-0.27951425313949585,-0.8646312355995178,-0.5658193230628967,0.08471455425024033,0.34664660692214966,0.8013952970504761,-1.0058066844940186,-0.4132871925830841,0.21416065096855164,-0.7986093759536743,0.2462148368358612,0.5228940844535828,0.42878636717796326,0.5628311038017273
2,0.3548247516155243,-0.7722845673561096,0.09943193197250366,-0.4654158055782318,-0.3158179819583893,-0.5005619525909424,-0.8028058409690857,-0.8466282486915588,-0.19155476987361908,-0.4300207495689392,0.7583617568016052,-0.40645456314086914,0.5834453701972961,-0.45786741375923157,0.0765567421913147,0.7365565896034241,-0.3287460505962372,-0.7175937294960022,0.31136202812194824,0.13202065229415894,0.08378992974758148,0.5415237545967102,-0.3805936872959137,0.10466759651899338,0.2594841420650482,-0.37576499581336975,-0.32980114221572876,-0.8998364806175232,-0.6085779070854187,0.04856446385383606,0.3163537085056305,0.7686445713043213,-1.0485248565673828,-0.3797799348831177,0.1666375994682312,-0.84771728515625,0.28487494587898254,0.5503790378570557,0.4707813858985901,0.5202412009239197
3,0.3239269554615021,-0.754413902759552,0.07592315971851349,-0.43405914306640625,-0.33284619450569153,-0.5437666773796082,-0.7767515182495117,-0.8860263824462891,-0.1459432989358902,-0.4678973853588104,0.7205116152763367,-0.37340664863586426,0.5508254170417786,-0.4907940924167633,0.048646826297044754,0.7056169509887695,-0.3135184645652771,-0.6901000738143921,0.26876068115234375,0.1389981210231781,0.07630444318056107,0.579309344291687,-0.3422478437423706,0.07132452726364136,0.29758578538894653,-0.4147135615348816,-0.37322089076042175,-0.942766547203064,-0.6434180736541748,0.016424065455794334,0.2917352020740509,0.7464739680290222,-1.0789875984191895,-0.35332968831062317,0.12787000834941864,-0.8977659940719604,0.3053651452064514,0.5968124866485596,0.5118533968925476,0.47799983620643616
4,0.27731138467788696,-0.7474261522293091,0.051498036831617355,-0.40989404916763306,-0.3381989002227783,-0.5874075889587402,-0.7563097476959229,-0.9222830533981323,-0.10206442326307297,-0.5047018527984619,0.6851003170013428,-0.34792429208755493,0.5316867828369141,-0.5196117162704468,0.021137099713087082,0.6797037720680237,-0.29483526945114136,-0.665676474571228,0.23690885305404663,0.12416776269674301,0.03373846411705017,0.618756890296936,-0.3082442581653595,0.04304920509457588,0.3339076340198517,-0.4521505534648895,-0.4117044508457184,-0.9882308840751648,-0.661949098110199,-0.014957135543227196,0.2616901397705078,0.7343191504478455,-1.1004624366760254,-0.33341100811958313,0.10625302791595459,-0.9447630047798157,0.3108147978782654,0.6466338038444519,0.5445459485054016,0.43884217739105225
5,0.2382553368806839,-0.7521108388900757,0.0238956231623888,-0.3932313621044159,-0.33347681164741516,-0.6149449348449707,-0.7434491515159607,-0.953646183013916,-0.06101323291659355,-0.5399196743965149,0.6515335440635681,-0.3299485445022583,0.5299559831619263,-0.5452671051025391,-0.00848441943526268,0.6585779786109924,-0.271593302488327,-0.6456162333488464,0.22618591785430908,0.09562525153160095,-0.005943211726844311,0.6592521071434021,-0.277572900056839,0.021784324198961258,0.36764344573020935,-0.4871648848056793,-0.4459327161312103,-1.0332733392715454,-0.6565911173820496,-0.04614327847957611,0.2254856526851654,0.731091320514679,-1.1127668619155884,-0.32129862904548645,0.10652133077383041,-0.9865814447402954,0.305149644613266,0.6954714059829712,0.56632399559021,0.4061789810657501
6,0.22321756184101105,-0.7656145691871643,-0.007633988745510578,-0.3813976049423218,-0.3236665427684784,-0.610245406627655,-0.735954999923706,-0.9797207117080688,-0.025609202682971954,-0.5725472569465637,0.6193570494651794,-0.3174038529396057,0.5399697422981262,-0.5682381987571716,-0.040654703974723816,0.6429864764213562,-0.24019157886505127,-0.6313288807868958,0.23674140870571136,0.06428950279951096,-0.04323485866189003,0.698248565196991,-0.24727419018745422,0.008675521239638329,0.39814916253089905,-0.5190667510032654,-0.47734323143959045,-1.0752617120742798,-0.6330137252807617,-0.0748213604092598,0.18700191378593445,0.7338712215423584,-1.114345908164978,-0.31779712438583374,0.11747921258211136,-1.0219863653182983,0.287387877702713,0.7413581609725952,0.5833430886268616,0.38158953189849854
7,0.23962371051311493,-0.783980131149292,-0.042207494378089905,-0.37071120738983154,-0.3106599748134613,-0.577717661857605,-0.7313359379768372,-1.0013829469680786,0.0035747485235333443,-0.6023311614990234,0.5882387757301331,-0.30828651785850525,0.5543220043182373,-0.5884082913398743,-0.07476082444190979,0.634608268737793,-0.20235562324523926,-0.6222774982452393,0.2585075795650482,0.035822492092847824,-0.06547769904136658,0.7318586111068726,-0.21508273482322693,0.003477131947875023,0.4260007441043854,-0.5474848747253418,-0.5074353218078613,-1.1131212711334229,-0.6017319560050964,-0.09743686765432358,0.15167640149593353,0.738722026348114,-1.1054635047912598,-0.32236623764038086,0.13113676011562347,-1.0511221885681152,0.2624450922012329,0.7865117788314819,0.6008308529853821,0.36496978998184204
8,0.274187833070755,-0.8052027821540833,-0.0790407732129097,-0.3595278263092041,-0.2981714606285095,-0.5301283597946167,-0.7288249135017395,-1.0200220346450806,0.02492120862007141,-0.6295376420021057,0.5583546161651611,-0.3014203608036041,0.5697951912879944,-0.6064525246620178,-0.1093444973230362,0.6352582573890686,-0.16146250069141388,-0.6173123121261597,0.28204306960105896,0.011984355747699738,-0.08126591145992279,0.7556505799293518,-0.1801900416612625,0.004398634657263756,0.45200109481811523,-0.5721215605735779,-0.5359367728233337,-1.148017168045044,-0.5676732063293457,-0.1103116124868393,0.12444200366735458,0.7428475618362427,-1.0923423767089844,-0.3334505259990692,0.1449737250804901,-1.0760667324066162,0.23367199301719666,0.8312563300132751,0.6183976531028748,0.35292184352874756
9,0.3145967721939087,-0.8275563716888428,-0.11717840284109116,-0.3475906252861023,-0.2902542054653168,-0.4751794636249542,-0.7284709215164185,-1.0360462665557861,0.03777896612882614,-0.6543711423873901,0.5300878882408142,-0.29674413800239563,0.5849205255508423,-0.6238940358161926,-0.1432601511478424,0.6452330350875854,-0.1212424635887146,-0.6151509881019592,0.3017394542694092,-0.006141332443803549,-0.09425611048936844,0.7683950066566467,-0.14293554425239563,0.010229822248220444,0.47685813903808594,-0.5926438570022583,-0.560943603515625,-1.1817489862442017,-0.5333678126335144,-0.11215775460004807,0.10899850726127625,0.7452435493469238,-1.082977294921875,-0.348980188369751,0.16160695254802704,-1.0976091623306274,0.20786859095096588,0.8763198256492615,0.6298560500144958,0.34244808554649353
10,0.3560605049133301,-0.8506618738174438,-0.15588968992233276,-0.33547207713127136,-0.2906821370124817,-0.4170467257499695,-0.7314780354499817,-1.0495208501815796,0.04269776493310928,-0.6771044731140137,0.5034489035606384,-0.2941214442253113,0.5986922383308411,-0.6418335437774658,-0.1755761206150055,0.6629753708839417,-0.08416204899549484,-0.6153896450996399,0.31218403577804565,-0.01769571751356125,-0.1065497100353241,0.771620512008667,-0.10300678014755249,0.020272916182875633,0.5012636780738831,-0.6093498468399048,-0.5801830887794495,-1.2142826318740845,-0.49996960163116455,-0.10391862690448761,0.10630302131175995,0.7462322115898132,-1.084624171257019,-0.36691778898239136,0.1792975813150406,-1.1156858205795288,0.18975944817066193,0.9218741059303284,0.6309019923210144,0.3318086266517639
11,0.39874836802482605,-0.8748307824134827,-0.19453738629817963,-0.32397928833961487,-0.3002628684043884,-0.35806140303611755,-0.7383304834365845,-1.0608460903167725,0.04221779480576515,-0.6985780000686646,0.4779227077960968,-0.29311415553092957,0.6113448739051819,-0.6601518392562866,-0.2057887613773346,0.686284601688385,-0.052651770412921906,-0.6179131269454956,0.31317204236984253,-0.023108839988708496,-0.11178896576166153,0.7684279680252075,-0.05918794125318527,0.03397495299577713,0.5257821679115295,-0.623552143573761,-0.5921522974967957,-1.2443537712097168,-0.46687251329421997,-0.08792746812105179,0.11370716243982315,0.7468953132629395,-1.1009622812271118,-0.38547056913375854,0.1962970793247223,-1.1299242973327637,0.1807716339826584,0.9682536721229553,0.6214218139648438,0.3210262656211853
12,0.44588619470596313,-0.9004092216491699,-0.2324209213256836,-0.313624769449234,-0.3186247646808624,-0.29921862483024597,-0.7488967776298523,-1.071317434310913,0.03856790065765381,-0.7199832797050476,0.45267990231513977,-0.2929653227329254,0.6233688592910767,-0.6787112355232239,-0.23358221352100372,0.7135452628135681,-0.026975400745868683,-0.6230385899543762,0.3081313371658325,-0.023646794259548187,-0.11818652600049973,0.7621676325798035,-0.010689496994018555,0.05040773004293442,0.5506117939949036,-0.6370195150375366,-0.5964158177375793,-1.2713571786880493,-0.4327521026134491,-0.06662856042385101,0.1266101896762848,0.748434841632843,-1.1308708190917969,-0.40313389897346497,0.21191897988319397,-1.1403414011001587,0.17620287835597992,1.014745831489563,0.6042528748512268,0.3105418384075165
13,0.4985169768333435,-0.9275227189064026,-0.26852652430534363,-0.3045758605003357,-0.3421492278575897,-0.23993462324142456,-0.7613203525543213,-1.0823614597320557,0.03501265123486519,-0.7421048283576965,0.42689648270606995,-0.2927353084087372,0.6346641182899475,-0.6974111199378967,-0.2590230405330658,0.743216872215271,-0.008732625283300877,-0.6309838891029358,0.3035322427749634,-0.021567080169916153,-0.12318294495344162,0.7563063502311707,0.04265328496694565,0.06881943345069885,0.5755937099456787,-0.6511145830154419,-0.5929506421089172,-1.295569896697998,-0.39711371064186096,-0.042068883776664734,0.13951487839221954,0.7516711950302124,-1.1706385612487793,-0.4185250699520111,0.22911256551742554,-1.1473361253738403,0.16990722715854645,1.061445951461792,0.5824751257896423,0.3011561632156372
14,0.5586550831794739,-0.9560678005218506,-0.3013480305671692,-0.29665228724479675,-0.36907029151916504,-0.17969641089439392,-0.7752494215965271,-1.0956130027770996,0.03339904174208641,-0.7650068402290344,0.3997800052165985,-0.2910151183605194,0.6437051296234131,-0.7168670892715454,-0.28196650743484497,0.7737635970115662,0.0033573703840374947,-0.6423837542533875,0.30171212553977966,-0.01853305846452713,-0.14973072707653046,0.7535229325294495,0.09997930377721786,0.088615782558918,0.600540816783905,-0.6665093302726746,-0.5824339985847473,-1.3178294897079468,-0.36087900400161743,-0.015414278954267502,0.1473473608493805,0.7572200894355774,-1.2168769836425781,-0.43043625354766846,0.248960942029953,-1.1518793106079102,0.15473751723766327,1.1068589687347412,0.5584380626678467,0.29279017448425293
15,0.624442458152771,-0.9864051342010498,-0.33006587624549866,-0.2906132936477661,-0.3933453857898712,-0.11834979057312012,-0.7875983715057373,-1.111291766166687,0.038352373987436295,-0.7880212068557739,0.37060055136680603,-0.2863626182079315,0.650701105594635,-0.7364234328269958,-0.30279794335365295,0.8030009865760803,0.005120201036334038,-0.657285749912262,0.30827823281288147,-0.017406683415174484,-0.17350848019123077,0.755042552947998,0.16156667470932007,0.11022061109542847,0.6251829266548157,-0.6830908060073853,-0.5653835535049438,-1.338030219078064,-0.32422035932540894,0.012971276417374611,0.14517910778522491,0.7650697231292725,-1.2687431573867798,-0.43791255354881287,0.2768312096595764,-1.1554951667785645,0.12849776446819305,1.1522102355957031,0.5345489978790283,0.2861105799674988
16,0.6972684264183044,-1.0180234909057617,-0.3533535599708557,-0.2856282591819763,-0.41756489872932434,-0.055963680148124695,-0.803507924079895,-1.1303125619888306,0.049238331615924835,-0.8107714056968689,0.3388027846813202,-0.2769927978515625,0.6533912420272827,-0.7572354078292847,-0.3210710883140564,0.8289746642112732,0.0038231071084737778,-0.6766995191574097,0.3125065863132477,-0.01686735264956951,-0.24350251257419586,0.7612922787666321,0.22601282596588135,0.1336308866739273,0.6496599912643433,-0.7006159424781799,-0.5444393157958984,-1.3571934700012207,-0.2888724207878113,0.04348219186067581,0.13137218356132507,0.7753223180770874,-1.3236591815948486,-0.44066888093948364,0.3045456111431122,-1.1595110893249512,0.09079841524362564,1.193639874458313,0.5120640993118286,0.2792583405971527
17,0.7674567699432373,-1.0515313148498535,-0.37410712242126465,-0.2851833701133728,-0.43003273010253906,0.002726919949054718,-0.814679741859436,-1.1507426500320435,0.07223379611968994,-0.8336195945739746,0.30438098311424255,-0.26261571049690247,0.6578572988510132,-0.7753298282623291,-0.3378303050994873,0.8493472337722778,-0.010851738974452019,-0.698782205581665,0.3320540487766266,-0.020865054801106453,-0.2691112160682678,0.7679519057273865,0.2945290803909302,0.15927758812904358,0.6729602217674255,-0.7183830142021179,-0.5204517841339111,-1.3757548332214355,-0.25054025650024414,0.07697407156229019,0.10639680176973343,0.786230206489563,-1.3822126388549805,-0.4388664960861206,0.3435777723789215,-1.1662912368774414,0.0492597296833992,1.2364442348480225,0.49462074041366577,0.27322521805763245
18,0.8358895778656006,-1.0849254131317139,-0.3895418643951416,-0.28384384512901306,-0.4455346167087555,0.06070477515459061,-0.8461388945579529,-1.1749649047851562,0.09710545837879181,-0.857196033000946,0.26839882135391235,-0.24303029477596283,0.6539329886436462,-0.7944380640983582,-0.3511961102485657,0.8628919124603271,-0.012518471106886864,-0.7249080538749695,0.3193831145763397,-0.01964375376701355,-0.3682025969028473,0.7780740261077881,0.3614993989467621,0.18501225113868713,0.6946274042129517,-0.7365595102310181,-0.49864456057548523,-1.396297574043274,-0.21713869273662567,0.11368787288665771,0.07572108507156372,0.7975541949272156,-1.434236764907837,-0.4343318045139313,0.35126617550849915,-1.1719822883605957,0.008614951744675636,1.2682545185089111,0.48111554980278015,0.26386627554893494
19,0.8774450421333313,-1.1148229837417603,-0.40816575288772583,-0.2920973598957062,-0.43730396032333374,0.09510147571563721,-0.8565000891685486,-1.1984630823135376,0.1338428258895874,-0.8832178711891174,0.23205578327178955,-0.22094561159610748,0.6597208380699158,-0.8046604990959167,-0.3632782995700836,0.8701924681663513,-0.03333374485373497,-0.7448952794075012,0.37163588404655457,-0.023637834936380386,-0.3518214225769043,0.7741397619247437,0.4287821054458618,0.2088647484779358,0.7111597657203674,-0.7545769214630127,-0.47660839557647705,-1.4257423877716064,-0.17682842910289764,0.15315090119838715,0.04363514482975006,0.8057028651237488,-1.485695481300354,-0.4275517761707306,0.39736613631248474,-1.1809920072555542,-0.020709846168756485,1.3048616647720337,0.4735029339790344,0.25597628951072693
20,0.918818473815918,-1.1489208936691284,-0.4167960584163666,-0.2939155399799347,-0.4471135139465332,0.14006808400154114,-0.9220312833786011,-1.2250585556030273,0.1579444855451584,-0.9076000452041626,0.19809162616729736,-0.19940657913684845,0.6426281332969666,-0.8236122727394104,-0.36950573325157166,0.87104332447052,-0.01218783762305975,-0.7738564610481262,0.3122245669364929,-0.012855838984251022,-0.45759525895118713,0.784506618976593,0.4863547682762146,0.23000138998031616,0.7239139080047607,-0.7706487774848938,-0.4596489369869232,-1.4514362812042236,-0.15619662404060364,0.19403916597366333,0.016536770388484,0.8133978843688965,-1.5133346319198608,-0.4245586693286896,0.33664265275001526,-1.1781816482543945,-0.04543125629425049,1.3170357942581177,0.4733145833015442,0.247916579246521
21,0.9194063544273376,-1.1559187173843384,-0.43366503715515137,-0.3104141056537628,-0.42462480068206787,0.13028961420059204,-0.9143110513687134,-1.2462468147277832,0.19853073358535767,-0.9338773488998413,0.16406385600566864,-0.17690083384513855,0.6479570865631104,-0.8285213112831116,-0.37527042627334595,0.8713383078575134,-0.03871004655957222,-0.7759186625480652,0.40977197885513306,-0.013117825612425804,-0.4057115614414215,0.7567617893218994,0.5423008799552917,0.2448444664478302,0.7287193536758423,-0.7878186106681824,-0.43981269001960754,-1.50401771068573,-0.12264077365398407,0.23302941024303436,-0.005906717851758003,0.817108690738678,-1.553269863128662,-0.4203375279903412,0.4176237881183624,-1.184173345565796,-0.05941949039697647,1.3445385694503784,0.46353021264076233,0.24330924451351166
22,0.9487770199775696,-1.1929181814193726,-0.43301185965538025,-0.31563085317611694,-0.4413912296295166,0.16847744584083557,-0.9985860586166382,-1.266006588935852,0.2118833065032959,-0.951646089553833,0.13594086468219757,-0.16091841459274292,0.6175546050071716,-0.8538551330566406,-0.3739943504333496,0.8646984100341797,0.0041318959556519985,-0.8101762533187866,0.3447824716567993,-0.00012031712685711682,-0.4962046146392822,0.7720533013343811,0.5845459699630737,0.25888437032699585,0.7341676950454712,-0.7959542870521545,-0.4237358272075653,-1.5246175527572632,-0.12159600853919983,0.2735755145549774,-0.014777153730392456,0.8215638399124146,-1.548758625984192,-0.4262402057647705,0.3332475423812866,-1.170761227607727,-0.0757819339632988,1.3386691808700562,0.4800931215286255,0.24235545098781586
23,0.9228277206420898,-1.1850413084030151,-0.44581863284111023,-0.33814936876296997,-0.4226609170436859,0.14091606438159943,-0.9929577708244324,-1.2811228036880493,0.24854925274848938,-0.9717675447463989,0.10643330961465836,-0.142251119017601,0.6233586668968201,-0.8656702637672424,-0.3725115954875946,0.8613808751106262,-0.02083921618759632,-0.8030329942703247,0.4246421754360199,-0.003402057569473982,-0.4495781362056732,0.7364349365234375,0.6265890598297119,0.2663081884384155,0.7313539385795593,-0.8075082302093506,-0.40399956703186035,-1.5814120769500732,-0.09920597076416016,0.3087506592273712,-0.02236052043735981,0.8243736624717712,-1.5763636827468872,-0.43105968832969666,0.3877018988132477,-1.173051118850708,-0.08948670327663422,1.3555055856704712,0.466515451669693,0.24037079513072968
24,0.9536997675895691,-1.2036710977554321,-0.4416353404521942,-0.34697362780570984,-0.4442046284675598,0.1670171022415161,-1.0626500844955444,-1.290123462677002,0.2602856457233429,-0.9827502965927124,0.08261296153068542,-0.12826275825500488,0.592667281627655,-0.892279863357544,-0.3657281994819641,0.852821409702301,0.01892046630382538,-0.8292718529701233,0.39810261130332947,0.00027496227994561195,-0.507620632648468,0.7425671815872192,0.6564545035362244,0.2743906080722809,0.7318651676177979,-0.8099690079689026,-0.3856436312198639,-1.6044867038726807,-0.10587258636951447,0.34706124663352966,-0.013051224872469902,0.8289506435394287,-1.5594592094421387,-0.4433814287185669,0.33459773659706116,-1.15642249584198,-0.09921947121620178,1.3456603288650513,0.483061283826828,0.24451294541358948
25,0.9110145568847656,-1.1943554878234863,-0.44959551095962524,-0.37245985865592957,-0.43588581681251526,0.1462857723236084,-1.0688731670379639,-1.2981042861938477,0.2897021174430847,-0.9960607290267944,0.05834437906742096,-0.11233960837125778,0.5926217436790466,-0.9140108823776245,-0.3583928644657135,0.8467885255813599,0.005805379711091518,-0.8261945247650146,0.4529400169849396,-0.011762200854718685,-0.4731111526489258,0.7131941914558411,0.6857960820198059,0.27758094668388367,0.7270949482917786,-0.8147962093353271,-0.36515751481056213,-1.6501884460449219,-0.09262468665838242,0.3797958493232727,-0.009333431720733643,0.8333477973937988,-1.5738201141357422,-0.45753028988838196,0.35916852951049805,-1.154576063156128,-0.11451267451047897,1.3532350063323975,0.47577959299087524,0.24203260242938995
26,0.9366632699966431,-1.1963872909545898,-0.44388267397880554,-0.38502824306488037,-0.45785072445869446,0.16388845443725586,-1.1194531917572021,-1.2992284297943115,0.30326610803604126,-1.003167986869812,0.03797127678990364,-0.09809887409210205,0.5650076866149902,-0.9426677823066711,-0.34747064113616943,0.8380798697471619,0.041015371680259705,-0.8441977500915527,0.44900235533714294,-0.019895710051059723,-0.5080737471580505,0.7095648050308228,0.7071734666824341,0.28169381618499756,0.7244141101837158,-0.8147314190864563,-0.34520235657691956,-1.6742324829101562,-0.09786352515220642,0.4157542288303375,0.009007702581584454,0.8404232859611511,-1.5537991523742676,-0.4746560752391815,0.3265920579433441,-1.1378953456878662,-0.1213885247707367,1.344283938407898,0.48427462577819824,0.24820393323898315
27,0.8907403349876404,-1.1848347187042236,-0.4475879967212677,-0.4114685654640198,-0.4566519558429718,0.1525643914937973,-1.1269209384918213,-1.3008129596710205,0.3281902074813843,-1.0124754905700684,0.018033765256404877,-0.08261954039335251,0.5585412979125977,-0.9700084328651428,-0.33612141013145447,0.8310116529464722,0.03804386034607887,-0.8452980518341064,0.4893772602081299,-0.04029696807265282,-0.4806564450263977,0.6857349872589111,0.7279714941978455,0.28273335099220276,0.7187966108322144,-0.8163532018661499,-0.3241543769836426,-1.710453987121582,-0.08736647665500641,0.44711971282958984,0.018648462370038033,0.8478053212165833,-1.5606772899627686,-0.4943375885486603,0.336530476808548,-1.1332590579986572,-0.13471591472625732,1.34613835811615,0.47988206148147583,0.24439160525798798
28,0.9097265005111694,-1.17619788646698,-0.43985527753829956,-0.4268423020839691,-0.4775521159172058,0.1671605110168457,-1.1609628200531006,-1.296631097793579,0.34338754415512085,-1.0180777311325073,0.0008591562509536743,-0.06726457178592682,0.5326784253120422,-0.9996481537818909,-0.32254841923713684,0.8227350115776062,0.07144350558519363,-0.8589727878570557,0.49479061365127563,-0.057002708315849304,-0.5026646256446838,0.6768113374710083,0.7441329956054688,0.2850607931613922,0.7143495678901672,-0.8160413503646851,-0.3030746877193451,-1.7329232692718506,-0.08854774385690689,0.481384813785553,0.03836239501833916,0.8579692840576172,-1.5412482023239136,-0.5142778754234314,0.31432268023490906,-1.1173479557037354,-0.13967186212539673,1.3381528854370117,0.48217451572418213,0.2496006339788437
29,0.8667996525764465,-1.1617798805236816,-0.43964293599128723,-0.45361483097076416,-0.4802236557006836,0.16291777789592743,-1.163287878036499,-1.2937710285186768,0.365998238325119,-1.0257636308670044,-0.015432113781571388,-0.0514206737279892,0.5223320126533508,-1.0283833742141724,-0.3090074062347412,0.8158057332038879,0.07505674660205841,-0.8627443313598633,0.5257600545883179,-0.08225315064191818,-0.479255348443985,0.6561545133590698,0.759987473487854,0.2858545780181885,0.708078145980835,-0.8170624375343323,-0.2816827595233917,-1.7624163627624512,-0.077475905418396,0.5117242932319641,0.04820327088236809,0.8684261441230774,-1.5455601215362549,-0.5361008048057556,0.3168146014213562,-1.1119345426559448,-0.15167491137981415,1.3367396593093872,0.4787140190601349,0.24358905851840973
30,0.8839150071144104,-1.145798683166504,-0.42965131998062134,-0.4704969823360443,-0.4998520016670227,0.17691124975681305,-1.1835898160934448,-1.28663969039917,0.38237807154655457,-1.0311288833618164,-0.029622239992022514,-0.035091426223516464,0.4983789622783661,-1.0561888217926025,-0.294515460729599,0.8082813620567322,0.10672534257173538,-0.8735458850860596,0.5340952277183533,-0.10257191956043243,-0.4948446452617645,0.644625186920166,0.7731925249099731,0.2884916365146637,0.7027137875556946,-0.8175565600395203,-0.2598709166049957,-1.7834680080413818,-0.07551325857639313,0.5446063876152039,0.0651092603802681,0.8812981247901917,-1.529074788093567,-0.5565162301063538,0.30016082525253296,-1.097347378730774,-0.15424005687236786,1.3298122882843018,0.4772370755672455,0.24637241661548615
31,0.8454235792160034,-1.129289984703064,-0.4263753890991211,-0.49730774760246277,-0.504173755645752,0.1771959662437439,-1.1788549423217773,-1.2818697690963745,0.40360748767852783,-1.0383671522140503,-0.042703621089458466,-0.01899287849664688,0.4871536195278168,-1.0831177234649658,-0.28070318698883057,0.8019766807556152,0.11277000606060028,-0.8784793019294739,0.5573770999908447,-0.12870971858501434,-0.4737749695777893,0.6254885792732239,0.7860714793205261,0.29076769948005676,0.6962476968765259,-0.8187883496284485,-0.23863539099693298,-1.8082613945007324,-0.06398367881774902,0.5737314820289612,0.0712098777294159,0.8940601348876953,-1.534205436706543,-0.5779344439506531,0.2974003851413727,-1.0926775932312012,-0.16695208847522736,1.32737398147583,0.4754272401332855,0.2373940348625183
32,0.8656259775161743,-1.107865810394287,-0.4146808087825775,-0.514130711555481,-0.522569477558136,0.191410630941391,-1.1886311769485474,-1.2741012573242188,0.42066043615341187,-1.043804407119751,-0.054203279316425323,-0.0022441335022449493,0.4661538302898407,-1.1061447858810425,-0.2671577036380768,0.7952324151992798,0.14148832857608795,-0.8862150311470032,0.5658881068229675,-0.148151233792305,-0.4880342185497284,0.6128855347633362,0.7972208261489868,0.2953343987464905,0.6907322406768799,-0.8200061321258545,-0.21672162413597107,-1.8291362524032593,-0.061367157846689224,0.6050466299057007,0.08443701267242432,0.9085750579833984,-1.5212994813919067,-0.5968521237373352,0.284272700548172,-1.0792750120162964,-0.1662777215242386,1.3223689794540405,0.4719145596027374,0.23796817660331726
33,0.8296193480491638,-1.0912196636199951,-0.4097789525985718,-0.5406461954116821,-0.526486873626709,0.1941797435283661,-1.176816701889038,-1.2697046995162964,0.4405427575111389,-1.0509133338928223,-0.06441018730401993,0.013495471328496933,0.4562129080295563,-1.1293774843215942,-0.254783570766449,0.7896886467933655,0.14592041075229645,-0.8913894295692444,0.5821453928947449,-0.1721942126750946,-0.4682152271270752,0.5943979620933533,0.8077614307403564,0.3002833425998688,0.68479323387146,-0.8211703896522522,-0.1963949352502823,-1.8499870300292969,-0.05082909017801285,0.632294237613678,0.0855768620967865,0.9223136901855469,-1.5288376808166504,-0.6163570880889893,0.27653294801712036,-1.076228141784668,-0.1823541224002838,1.3209294080734253,0.4733993113040924,0.2259192019701004
34,0.856133759021759,-1.0654430389404297,-0.39721935987472534,-0.5556240081787109,-0.5436548590660095,0.20902183651924133,-1.179451823234558,-1.2627134323120117,0.45761507749557495,-1.0562736988067627,-0.07355500757694244,0.029821429401636124,0.4389345347881317,-1.1452950239181519,-0.24369892477989197,0.783654510974884,0.1704656183719635,-0.8954639434814453,0.590039849281311,-0.18758460879325867,-0.48618853092193604,0.5819106698036194,0.8169219493865967,0.30768686532974243,0.679750919342041,-0.8225736618041992,-0.1749292016029358,-1.8716486692428589,-0.04986852407455444,0.6615007519721985,0.09718017280101776,0.9371123909950256,-1.518221378326416,-0.6326202154159546,0.26690876483917236,-1.0632840394973755,-0.17653155326843262,1.3186066150665283,0.4682309627532959,0.22592903673648834
35,0.8177717924118042,-1.0513712167739868,-0.3921222388744354,-0.581763505935669,-0.5451496243476868,0.21264439821243286,-1.1607085466384888,-1.2598820924758911,0.47549769282341003,-1.0633394718170166,-0.08109194785356522,0.04420217126607895,0.431162029504776,-1.1646568775177002,-0.23372668027877808,0.7790389657020569,0.16985654830932617,-0.9009779691696167,0.5995530486106873,-0.2081272155046463,-0.46594810485839844,0.5634075403213501,0.8252309560775757,0.3157494366168976,0.6750087141990662,-0.8231489062309265,-0.15629079937934875,-1.8875486850738525,-0.04128778725862503,0.6859064698219299,0.0938953310251236,0.9503902196884155,-1.5285526514053345,-0.6496749520301819,0.2537771463394165,-1.0627673864364624,-0.19962072372436523,1.3193433284759521,0.47490736842155457,0.21099406480789185
36,0.853181779384613,-1.0210554599761963,-0.3791144788265228,-0.5930838584899902,-0.5615258812904358,0.22861944139003754,-1.159736156463623,-1.2536885738372803,0.4918844997882843,-1.068479061126709,-0.0882125124335289,0.059126924723386765,0.41782644391059875,-1.171816349029541,-0.22590672969818115,0.7736428380012512,0.19002974033355713,-0.9006623029708862,0.6071121692657471,-0.21778398752212524,-0.49296024441719055,0.5518942475318909,0.8323259353637695,0.3261938989162445,0.6706728935241699,-0.8243182897567749,-0.13560126721858978,-1.9109303951263428,-0.043194759637117386,0.7125312685966492,0.10765596479177475,0.9643079042434692,-1.5174537897109985,-0.6627622246742249,0.24943552911281586,-1.049275517463684,-0.18476226925849915,1.3196885585784912,0.46666350960731506,0.21297107636928558
37,0.8062003254890442,-1.0128930807113647,-0.3747886121273041,-0.6196104288101196,-0.5587795376777649,0.23175905644893646,-1.1336750984191895,-1.252563714981079,0.5066316723823547,-1.0757339000701904,-0.09311005473136902,0.07106372714042664,0.41201263666152954,-1.18915855884552,-0.21830792725086212,0.7702040076255798,0.18188969790935516,-0.9078106880187988,0.60972660779953,-0.235121488571167,-0.4685213565826416,0.5324290990829468,0.8386041522026062,0.3370533883571625,0.667646586894989,-0.8239798545837402,-0.11954718083143234,-1.919466495513916,-0.03657222539186478,0.7332025766372681,0.10015018284320831,0.9759652018547058,-1.5311267375946045,-0.6773386001586914,0.22947131097316742,-1.0526823997497559,-0.22017544507980347,1.3228942155838013,0.4811660349369049,0.19474047422409058
38,0.8533172011375427,-0.9760293364524841,-0.3611723780632019,-0.625516951084137,-0.5756708979606628,0.24976274371147156,-1.1329903602600098,-1.2462575435638428,0.5220605731010437,-1.0806418657302856,-0.09860485792160034,0.08382381498813629,0.4026026129722595,-1.1860827207565308,-0.21398945152759552,0.7652490139007568,0.19901326298713684,-0.901789665222168,0.6181347370147705,-0.23858562111854553,-0.5099464058876038,0.522576093673706,0.8437596559524536,0.3501884937286377,0.6637787818908691,-0.8248194456100464,-0.09984701871871948,-1.9468927383422852,-0.04154559224843979,0.7572174072265625,0.12036435306072235,0.9882768392562866,-1.5160475969314575,-0.6869445443153381,0.23396670818328857,-1.037193775177002,-0.19022907316684723,1.325114369392395,0.46631741523742676,0.20157518982887268
39,0.7931618690490723,-0.9780341982841492,-0.3578885495662689,-0.6542308330535889,-0.5670293569564819,0.2514379322528839,-1.098568081855774,-1.2466310262680054,0.5324026346206665,-1.0884677171707153,-0.10078742355108261,0.0925147533416748,0.39762893319129944,-1.205258846282959,-0.207924023270607,0.7631978988647461,0.18204466998577118,-0.9131337404251099,0.6129719018936157,-0.25435924530029297,-0.4756716787815094,0.501249372959137,0.848548173904419,0.36284497380256653,0.6630178689956665,-0.823535680770874,-0.08748531341552734,-1.9445375204086304,-0.03652127832174301,0.7735863924026489,0.10699322074651718,0.9976376295089722,-1.5346872806549072,-0.6991291046142578,0.20381060242652893,-1.0462229251861572,-0.24353837966918945,1.330627679824829,0.49270182847976685,0.1787186563014984
40,0.8522728681564331,-0.9312856793403625,-0.3436347246170044,-0.6531746983528137,-0.5867026448249817,0.2724139988422394,-1.102075457572937,-1.2391669750213623,0.5475408434867859,-1.093184471130371,-0.10520856082439423,0.10264952480792999,0.3925415873527527,-1.1901627779006958,-0.20722077786922455,0.7584338784217834,0.19825118780136108,-0.8991580009460449,0.6244786381721497,-0.2519141733646393,-0.5345199704170227,0.4934488534927368,0.8520663380622864,0.37800759077072144,0.6588526964187622,-0.8241851925849915,-0.06890587508678436,-1.980212926864624,-0.04377641901373863,0.7952219247817993,0.13742877542972565,1.0079376697540283,-1.512410044670105,-0.7050550580024719,0.22248710691928864,-1.027033805847168,-0.19501662254333496,1.333466649055481,0.4659108817577362,0.19274897873401642
41,0.7809272408485413,-0.9474347233772278,-0.3402935266494751,-0.6858176589012146,-0.5705652236938477,0.2726224660873413,-1.058693766593933,-1.2410756349563599,0.55253005027771,-1.1018835306167603,-0.10473977029323578,0.10795015096664429,0.38610929250717163,-1.2157957553863525,-0.20150437951087952,0.7576485276222229,0.17308957874774933,-0.9177466034889221,0.6096969246864319,-0.2682860195636749,-0.48834919929504395,0.4709359407424927,0.8561687469482422,0.3909332752227783,0.6610413789749146,-0.8221917152404785,-0.061271220445632935,-1.963144302368164,-0.04080452397465706,0.8074052333831787,0.11581002175807953,1.015102744102478,-1.5375441312789917,-0.7148604393005371,0.17755815386772156,-1.0425938367843628,-0.2636331021785736,1.3407684564590454,0.5082435011863708,0.16446906328201294
42,0.8453947305679321,-0.8896291851997375,-0.3269672393798828,-0.6778401136398315,-0.5956466794013977,0.2961156368255615,-1.068501353263855,-1.2316889762878418,0.5684541463851929,-1.1064761877059937,-0.10860126465559006,0.11489946395158768,0.3873165547847748,-1.187999963760376,-0.2044248878955841,0.7533286809921265,0.1889181137084961,-0.8941564559936523,0.6271794438362122,-0.2606578469276428,-0.5591829419136047,0.46338802576065063,0.8583806157112122,0.40747570991516113,0.6553999185562134,-0.8226648569107056,-0.04402895271778107,-2.010249137878418,-0.04783036187291145,0.8263031840324402,0.1569996178150177,1.0229281187057495,-1.5076417922973633,-0.7171399593353271,0.21464106440544128,-1.0193918943405151,-0.20603302121162415,1.3435860872268677,0.4664202332496643,0.18522293865680695
43,0.7719616889953613,-0.918539822101593,-0.32064390182495117,-0.7134310007095337,-0.5712259411811829,0.29674243927001953,-1.0181208848953247,-1.2357444763183594,0.568364679813385,-1.1158626079559326,-0.10600726306438446,0.1174524575471878,0.3750763237476349,-1.2218866348266602,-0.19830423593521118,0.7530239820480347,0.15938498079776764,-0.9203707575798035,0.60151207447052,-0.27912789583206177,-0.5088855028152466,0.4440076947212219,0.8623929023742676,0.41891786456108093,0.6608096957206726,-0.8205135464668274,-0.04135001450777054,-1.9789482355117798,-0.04955922067165375,0.8356084227561951,0.12875744700431824,1.0288543701171875,-1.5372549295425415,-0.7245017886161804,0.1549207717180252,-1.039828896522522,-0.27473410964012146,1.3508914709091187,0.5227800607681274,0.1540730595588684
44,0.8311915397644043,-0.8554779887199402,-0.31096839904785156,-0.7021101117134094,-0.6019995808601379,0.32009628415107727,-1.0328091382980347,-1.2240091562271118,0.5851489901542664,-1.1206412315368652,-0.10954223573207855,0.12078770250082016,0.38677895069122314,-1.1846539974212646,-0.20402595400810242,0.7498978972434998,0.1721431314945221,-0.8895229697227478,0.6252110600471497,-0.26776471734046936,-0.5793560147285461,0.4316561818122864,0.8637853264808655,0.4363873302936554,0.6530634164810181,-0.8202284574508667,-0.02621525339782238,-2.0334808826446533,-0.05162620544433594,0.8507751226425171,0.17483708262443542,1.0339365005493164,-1.5042262077331543,-0.7233912944793701,0.20541714131832123,-1.0149109363555908,-0.22390368580818176,1.3548898696899414,0.47173747420310974,0.1771395355463028
45,0.764879584312439,-0.8882558941841125,-0.2998349964618683,-0.7362257838249207,-0.5719203948974609,0.3237909972667694,-0.9798945188522339,-1.2306333780288696,0.5817350149154663,-1.129848599433899,-0.10560128837823868,0.12087125331163406,0.36343494057655334,-1.2231879234313965,-0.19787023961544037,0.7495795488357544,0.14424404501914978,-0.9189508557319641,0.5922535061836243,-0.28775009512901306,-0.5349300503730774,0.42098215222358704,0.8676116466522217,0.4449889659881592,0.6605958342552185,-0.818895697593689,-0.027149077504873276,-1.9964008331298828,-0.06215401366353035,0.8587453365325928,0.14758233726024628,1.0391085147857666,-1.5327116250991821,-0.7284295558929443,0.14119960367679596,-1.036531925201416,-0.2805185317993164,1.3594489097595215,0.5321862101554871,0.1482902616262436
46,0.812000036239624,-0.8296099901199341,-0.29438912868499756,-0.7268378734588623,-0.6048978567123413,0.34415915608406067,-0.9961974024772644,-1.2169841527938843,0.5984119772911072,-1.1352683305740356,-0.10896621644496918,0.12127275764942169,0.3885234594345093,-1.1828465461730957,-0.20475512742996216,0.7478699088096619,0.15065763890743256,-0.8868261575698853,0.617361307144165,-0.2752874791622162,-0.5965265035629272,0.3997795581817627,0.8688215017318726,0.4628116488456726,0.6516187191009521,-0.8170226216316223,-0.015385672450065613,-2.048358201980591,-0.05477285385131836,0.8699982166290283,0.1896393895149231,1.0419014692306519,-1.5024076700210571,-0.7242851853370667,0.19247819483280182,-1.012732982635498,-0.2432292401790619,1.366351842880249,0.48221877217292786,0.16879725456237793
47,0.757197380065918,-0.857835054397583,-0.2796934247016907,-0.7552182674407959,-0.57361900806427,0.3525845408439636,-0.9452044367790222,-1.225631594657898,0.5937048196792603,-1.1434990167617798,-0.10435741394758224,0.1185528114438057,0.35249093174934387,-1.2205621004104614,-0.19949842989444733,0.7477453351020813,0.1289522498846054,-0.9143051505088806,0.5834936499595642,-0.29476433992385864,-0.5619944334030151,0.4001026749610901,0.8721412420272827,0.4682098925113678,0.6594778299331665,-0.8173285126686096,-0.017844922840595245,-2.014829158782959,-0.07608380168676376,0.877263605594635,0.17075778543949127,1.0458447933197021,-1.5253417491912842,-0.727347195148468,0.13461102545261383,-1.032668113708496,-0.2846132516860962,1.3663759231567383,0.538233757019043,0.1457902044057846
48,0.7910122275352478,-0.8089190125465393,-0.27726444602012634,-0.7508733868598938,-0.6057921051979065,0.36852461099624634,-0.9608927965164185,-1.21085786819458,0.6095050573348999,-1.1497567892074585,-0.10783505439758301,0.1170971542596817,0.3894560933113098,-1.1818926334381104,-0.20622959733009338,0.7474467754364014,0.12748287618160248,-0.88535475730896,0.6061193943023682,-0.28348487615585327,-0.6123591661453247,0.3696725070476532,0.8735153079032898,0.4856147766113281,0.650515079498291,-0.8136513829231262,-0.010189652442932129,-2.0578958988189697,-0.058126501739025116,0.884986162185669,0.20307259261608124,1.0469688177108765,-1.5012450218200684,-0.7204622030258179,0.17992240190505981,-1.0112634897232056,-0.26139941811561584,1.3768980503082275,0.49427154660224915,0.161597341299057
49,0.7477762699127197,-0.8302465677261353,-0.2606983780860901,-0.7719064354896545,-0.5754894614219666,0.38213157653808594,-0.9141220450401306,-1.2211647033691406,0.6046600937843323,-1.1568245887756348,-0.1030622273683548,0.11160597950220108,0.34312230348587036,-1.2162833213806152,-0.20228856801986694,0.747557520866394,0.11413749307394028,-0.9090189337730408,0.573796272277832,-0.30153751373291016,-0.5872274041175842,0.380363404750824,0.876274824142456,0.4880700707435608,0.6577509641647339,-0.8157220482826233,-0.012905634008347988,-2.0311672687530518,-0.0891425684094429,0.8917915225028992,0.19550812244415283,1.0494086742401123,-1.516916275024414,-0.7221307754516602,0.13082659244537354,-1.0289080142974854,-0.2874850630760193,1.3718687295913696,0.5438515543937683,0.1448669731616974
50,0.770418643951416,-0.7909789681434631,-0.2605714201927185,-0.7730979323387146,-0.606514036655426,0.39323121309280396,-0.9290785789489746,-1.2055507898330688,0.6195583343505859,-1.1638342142105103,-0.10705520957708359,0.10900700092315674,0.3885780870914459,-1.1805700063705444,-0.2083296924829483,0.7488253712654114,0.10429789125919342,-0.8843566179275513,0.5941563844680786,-0.29176121950149536,-0.6270959377288818,0.3420935273170471,0.8777937293052673,0.5045795440673828,0.6491928696632385,-0.8104839324951172,-0.009092580527067184,-2.064849376678467,-0.0619807094335556,0.8962093591690063,0.2161937803030014,1.0492292642593384,-1.5001757144927979,-0.7126615643501282,0.1708602011203766,-1.0095046758651733,-0.2777627408504486,1.386086344718933,0.5052236318588257,0.15630030632019043
51,0.7368335723876953,-0.8066966533660889,-0.2429140955209732,-0.7869488000869751,-0.5769880414009094,0.41166064143180847,-0.8866039514541626,-1.217811107635498,0.6148627400398254,-1.1698774099349976,-0.10240818560123444,0.10111796855926514,0.3350570797920227,-1.2118483781814575,-0.20555557310581207,0.7489275336265564,0.10029424726963043,-0.9047232866287231,0.5624315142631531,-0.30884039402008057,-0.6093083620071411,0.3616783916950226,0.8800486326217651,0.5042814612388611,0.6557557582855225,-0.8141173124313354,-0.011594675481319427,-2.0441219806671143,-0.10057699680328369,0.9027760624885559,0.2200516164302826,1.050270915031433,-1.5084294080734253,-0.7137464284896851,0.12817911803722382,-1.0257676839828491,-0.28872668743133545,1.3759568929672241,0.549893319606781,0.14452709257602692
52,0.7512632012367249,-0.775063157081604,-0.24506951868534088,-0.7930810451507568,-0.6078667640686035,0.41789624094963074,-0.9018842577934265,-1.2012176513671875,0.6291077733039856,-1.1774048805236816,-0.107306569814682,0.09783294796943665,0.3860362768173218,-1.1785708665847778,-0.21077127754688263,0.751937747001648,0.08192390203475952,-0.8839810490608215,0.5824447274208069,-0.2996264398097992,-0.6401544213294983,0.3170201778411865,0.881528913974762,0.5198585987091064,0.6474482417106628,-0.8075555562973022,-0.010822624899446964,-2.0701146125793457,-0.06614244729280472,0.9040112495422363,0.22879460453987122,1.0489392280578613,-1.4990218877792358,-0.7018366456031799,0.16571412980556488,-1.0072578191757202,-0.2922484576702118,1.3939605951309204,0.5142806172370911,0.15286581218242645
53,0.7252681851387024,-0.7870297431945801,-0.22658196091651917,-0.8003817796707153,-0.5781588554382324,0.44045841693878174,-0.8628147840499878,-1.2159723043441772,0.6244934797286987,-1.182571291923523,-0.1029106006026268,0.08797813206911087,0.3279109597206116,-1.2076469659805298,-0.2088690549135208,0.7517036199569702,0.0878184512257576,-0.9020416140556335,0.5497357249259949,-0.3165604770183563,-0.62788325548172,0.3439614474773407,0.8833215236663818,0.5168414115905762,0.6535890698432922,-0.8125425577163696,-0.012868816033005714,-2.053866386413574,-0.11030247807502747,0.9105527400970459,0.24339225888252258,1.0487453937530518,-1.500170350074768,-0.7031701803207397,0.12657909095287323,-1.0233674049377441,-0.28787097334861755,1.378718376159668,0.5559471845626831,0.14439454674720764
54,0.7339984178543091,-0.7611305117607117,-0.23120085895061493,-0.8107407093048096,-0.6098821759223938,0.441934198141098,-0.8794311881065369,-1.1981728076934814,0.6382130980491638,-1.1903626918792725,-0.10898418724536896,0.08436492085456848,0.3821437656879425,-1.1761083602905273,-0.21320614218711853,0.7565610408782959,0.06092555820941925,-0.8847625255584717,0.5711987614631653,-0.3067843019962311,-0.6508360505104065,0.29427796602249146,0.8845784068107605,0.5316727161407471,0.6453626155853271,-0.8048208355903625,-0.014265423640608788,-2.073831081390381,-0.07049153745174408,0.9087398052215576,0.2402472347021103,1.0462936162948608,-1.4978516101837158,-0.6890347003936768,0.16376711428165436,-1.0047401189804077,-0.3048197627067566,1.4006636142730713,0.5215302109718323,0.15090565383434296
55,0.7140911817550659,-0.7706575393676758,-0.21206262707710266,-0.8120901584625244,-0.57930588722229,0.4678422510623932,-0.8428964614868164,-1.2157893180847168,0.6335672736167908,-1.1947276592254639,-0.1048801839351654,0.07296107709407806,0.32158124446868896,-1.2035837173461914,-0.2119688093662262,0.7557138800621033,0.07689069211483002,-0.9011579751968384,0.5364058613777161,-0.324232280254364,-0.6430858969688416,0.32688015699386597,0.8859567642211914,0.526008665561676,0.6513085961341858,-0.8109673261642456,-0.015626750886440277,-2.061033248901367,-0.11832299828529358,0.9154425263404846,0.2647256553173065,1.0449503660202026,-1.4921802282333374,-0.6912981271743774,0.1261962354183197,-1.0216299295425415,-0.284934401512146,1.3803709745407104,0.5613582730293274,0.14437346160411835
56,0.7188879251480103,-0.7491702437400818,-0.2192099392414093,-0.826066255569458,-0.6122177243232727,0.4648115038871765,-0.8612335920333862,-1.1967260837554932,0.646703839302063,-1.2025920152664185,-0.112230084836483,0.06933357566595078,0.37717634439468384,-1.1734873056411743,-0.2153809368610382,0.7623888254165649,0.04191301763057709,-0.8871235251426697,0.5603909492492676,-0.3131263554096222,-0.6587775945663452,0.27375540137290955,0.8868886828422546,0.5402636528015137,0.6431685090065002,-0.8022788166999817,-0.018433867022395134,-2.0761122703552246,-0.07503068447113037,0.9107849597930908,0.25020283460617065,1.04135000705719,-1.4967747926712036,-0.6752496957778931,0.16399888694286346,-1.0022987127304077,-0.31498509645462036,1.4061954021453857,0.5272992849349976,0.14999720454216003
57,0.7041096091270447,-0.7569538950920105,-0.19973711669445038,-0.8220736384391785,-0.5807673931121826,0.49319446086883545,-0.8268022537231445,-1.2171297073364258,0.6419512033462524,-1.206169605255127,-0.10843618214130402,0.05677284672856331,0.3161766231060028,-1.1995054483413696,-0.2147231549024582,0.7608150839805603,0.06731536984443665,-0.9020929336547852,0.5231724381446838,-0.3313959240913391,-0.6551497578620911,0.3099716305732727,0.8879261612892151,0.5322134494781494,0.6490448713302612,-0.8093419671058655,-0.01892099529504776,-2.0662319660186768,-0.12461739033460617,0.9177318215370178,0.2831769287586212,1.038847804069519,-1.4846251010894775,-0.6788603067398071,0.1270802617073059,-1.020406723022461,-0.2809222936630249,1.3812696933746338,0.5656480193138123,0.14446499943733215
58,0.7061891555786133,-0.7389461994171143,-0.20918843150138855,-0.8390038013458252,-0.6143589019775391,0.48619183897972107,-0.846516489982605,-1.1971060037612915,0.6543699502944946,-1.2140181064605713,-0.11699328571557999,0.05344250798225403,0.3713543117046356,-1.170933723449707,-0.2172166109085083,0.7690484523773193,0.025577809661626816,-0.8911206126213074,0.5498175024986267,-0.31877121329307556,-0.6641891598701477,0.2553730309009552,0.8885452747344971,0.5458848476409912,0.6411424279212952,-0.7999899983406067,-0.02250089682638645,-2.0772764682769775,-0.07978294044733047,0.9105758666992188,0.25886857509613037,1.0340672731399536,-1.4957302808761597,-0.6613611578941345,0.1653933972120285,-1.0002702474594116,-0.32162895798683167,1.4102985858917236,0.531904399394989,0.1498156636953354
59,0.6957540512084961,-0.7453991174697876,-0.18992412090301514,-0.8305517435073853,-0.5827870965003967,0.5160629153251648,-0.814261794090271,-1.2196325063705444,0.6494428515434265,-1.2167989015579224,-0.11354314535856247,0.04006004333496094,0.31188300251960754,-1.1953917741775513,-0.21709921956062317,0.7668797373771667,0.058586426079273224,-0.9048090577125549,0.5106589794158936,-0.3377624750137329,-0.6641665101051331,0.29279202222824097,0.8893364071846008,0.5359537601470947,0.6470188498497009,-0.8076302409172058,-0.02206030674278736,-2.0698752403259277,-0.12916609644889832,0.9176212549209595,0.297860711812973,1.0303107500076294,-1.4779632091522217,-0.6663985252380371,0.1291196644306183,-1.0195297002792358,-0.27757370471954346,1.3818612098693848,0.5686331987380981,0.14464469254016876
60,0.696214497089386,-0.7299591302871704,-0.20110133290290833,-0.8494604825973511,-0.6158089637756348,0.5059559345245361,-0.8344534039497375,-1.1994024515151978,0.6610471606254578,-1.224622368812561,-0.12310146540403366,0.03736545145511627,0.36486977338790894,-1.1685787439346313,-0.21879959106445312,0.7761561274528503,0.012441174127161503,-0.8964297771453857,0.5391712188720703,-0.32401910424232483,-0.667811393737793,0.2389446347951889,0.889750599861145,0.5488072037696838,0.6395251154899597,-0.7980354428291321,-0.02582717314362526,-2.0778355598449707,-0.08473481982946396,0.908524215221405,0.2667559087276459,1.0243659019470215,-1.4944283962249756,-0.6481092572212219,0.16714368760585785,-0.9988894462585449,-0.32381945848464966,1.4125679731369019,0.5355774164199829,0.15020298957824707
61,0.6890628337860107,-0.7355853915214539,-0.18278875946998596,-0.8378894329071045,-0.5853497385978699,0.5362861156463623,-0.8047630190849304,-1.2228912115097046,0.6558817028999329,-1.2266312837600708,-0.12006151676177979,0.023432785645127296,0.30879339575767517,-1.1913584470748901,-0.21914418041706085,0.773716151714325,0.05024389550089836,-0.909177303314209,0.4992145299911499,-0.34331193566322327,-0.6701890826225281,0.2751156687736511,0.8904149532318115,0.5376761555671692,0.6454986929893494,-0.8058162927627563,-0.024600505828857422,-2.0722525119781494,-0.13204452395439148,0.9152460098266602,0.3082667291164398,1.0192115306854248,-1.472797155380249,-0.6543288826942444,0.13203038275241852,-1.0188720226287842,-0.27601367235183716,1.3824589252471924,0.5703849196434021,0.144794300198555
62,0.6892259120941162,-0.7216405272483826,-0.1948675662279129,-0.8574525713920593,-0.616349995136261,0.524133026599884,-0.8243874311447144,-1.2034591436386108,0.6666064262390137,-1.2344155311584473,-0.13034160435199738,0.02167571149766445,0.35803040862083435,-1.16648530960083,-0.2202950417995453,0.783436119556427,0.002504057250916958,-0.9025825262069702,0.5282520651817322,-0.32918021082878113,-0.6704525351524353,0.22401835024356842,0.890765368938446,0.5493552684783936,0.6384994983673096,-0.7964436411857605,-0.028002586215734482,-2.0782968997955322,-0.08975761383771896,0.9049140214920044,0.27404528856277466,1.0121678113937378,-1.492620825767517,-0.636043906211853,0.16880907118320465,-0.9982078075408936,-0.3220013380050659,1.4128316640853882,0.5384701490402222,0.151153564453125
63,0.683877170085907,-0.7271297574043274,-0.17826904356479645,-0.8443642258644104,-0.5880892276763916,0.554052472114563,-0.7975820302963257,-1.2267048358917236,0.6612066030502319,-1.2357460260391235,-0.12779945135116577,0.00746834697201848,0.3067549169063568,-1.1875450611114502,-0.22098082304000854,0.7810431718826294,0.042217038571834564,-0.9148866534233093,0.48878076672554016,-0.34830132126808167,-0.6735612750053406,0.2570938467979431,0.89145827293396,0.5376659035682678,0.644716203212738,-0.8039141297340393,-0.026253148913383484,-2.073704957962036,-0.13355565071105957,0.9107652902603149,0.3145926594734192,1.0054932832717896,-1.4694452285766602,-0.6430326104164124,0.13537712395191193,-1.0183980464935303,-0.2759746313095093,1.3829801082611084,0.5711115002632141,0.14479157328605652
64,0.6852253675460815,-0.7136074900627136,-0.19044102728366852,-0.8632549047470093,-0.6160982251167297,0.540840208530426,-0.8159259557723999,-1.2088743448257446,0.6709531545639038,-1.2434210777282715,-0.13853928446769714,0.0068139624781906605,0.3513442873954773,-1.16462242603302,-0.2218576818704605,0.7907800674438477,-0.00481885951012373,-0.9091969728469849,0.5170975923538208,-0.3344235420227051,-0.6725597381591797,0.209946870803833,0.8918652534484863,0.5479064583778381,0.638192892074585,-0.7951499819755554,-0.028853142634034157,-2.0789620876312256,-0.09456873685121536,0.8998434543609619,0.28027960658073425,0.9974323511123657,-1.4904321432113647,-0.6254799962043762,0.1703026294708252,-0.9980709552764893,-0.31774401664733887,1.4113562107086182,0.5406598448753357,0.15272873640060425
65,0.6800500750541687,-0.7196708917617798,-0.1761009395122528,-0.8500263690948486,-0.5905029773712158,0.5698406100273132,-0.7919588088989258,-1.2311153411865234,0.6653985977172852,-1.2441989183425903,-0.13655976951122284,-0.007372199557721615,0.30544963479042053,-1.184019923210144,-0.22277943789958954,0.788593590259552,0.034810543060302734,-0.9214878678321838,0.47897869348526,-0.35310718417167664,-0.674920380115509,0.23911085724830627,0.892768383026123,0.5360399484634399,0.6448180675506592,-0.8019773364067078,-0.026806829497218132,-2.0746266841888428,-0.13419583439826965,0.9043837189674377,0.31753620505332947,0.9891822934150696,-1.467733383178711,-0.6328852772712708,0.13870161771774292,-1.018142819404602,-0.27660807967185974,1.3830554485321045,0.571077287197113,0.1446342021226883
66,0.6839216351509094,-0.7056987881660461,-0.18777795135974884,-0.8673198819160461,-0.6152744293212891,0.5562646389007568,-0.8088158965110779,-1.2152100801467896,0.6740475296974182,-1.2516837120056152,-0.14759500324726105,-0.006866327486932278,0.34535643458366394,-1.1628483533859253,-0.223605215549469,0.7981928586959839,-0.010386114940047264,-0.9159813523292542,0.5058844685554504,-0.33977505564689636,-0.6742753982543945,0.19615642726421356,0.8933221697807312,0.5448038578033447,0.6386557221412659,-0.7940434217453003,-0.028351953253149986,-2.0799477100372314,-0.0988711416721344,0.8932876586914062,0.28472208976745605,0.9802009463310242,-1.4882861375808716,-0.6165387630462646,0.17172841727733612,-0.9981966614723206,-0.31255701184272766,1.4086097478866577,0.5421642661094666,0.15502354502677917
67,0.6774529218673706,-0.712961733341217,-0.1759260892868042,-0.8547907471656799,-0.5922325849533081,0.5842891931533813,-0.7872645258903503,-1.2362538576126099,0.6684257984161377,-1.2520045042037964,-0.146178737282753,-0.02080775797367096,0.3046223521232605,-1.1807564496994019,-0.22470466792583466,0.7962024211883545,0.028416264802217484,-0.9285265207290649,0.46933895349502563,-0.3580445349216461,-0.6748983860015869,0.2214890718460083,0.8946244120597839,0.5328340530395508,0.6458708047866821,-0.800069272518158,-0.026107890531420708,-2.0753519535064697,-0.13445308804512024,0.8962786197662354,0.31781110167503357,0.9703835844993591,-1.4672398567199707,-0.6242204904556274,0.1416589766740799,-1.0181536674499512,-0.2773571312427521,1.3823410272598267,0.5705652236938477,0.14440856873989105
68,0.6849166750907898,-0.6978608965873718,-0.18674887716770172,-0.8700652122497559,-0.6140262484550476,0.570673406124115,-0.8027851581573486,-1.222178339958191,0.6758854389190674,-1.259275197982788,-0.15746983885765076,-0.01907600462436676,0.34045830368995667,-1.1609618663787842,-0.22562408447265625,0.8057199120521545,-0.014970824122428894,-0.9226500988006592,0.4947682023048401,-0.34518861770629883,-0.6756698489189148,0.18227383494377136,0.8953961133956909,0.5402889847755432,0.6398570537567139,-0.7930283546447754,-0.02650909684598446,-2.0813100337982178,-0.102512888610363,0.8851836919784546,0.28680452704429626,0.9606217741966248,-1.4865963459014893,-0.6092497706413269,0.17323705554008484,-0.998284637928009,-0.307346373796463,1.4049838781356812,0.5429988503456116,0.15818335115909576
69,0.6758976578712463,-0.7069129347801208,-0.17737916111946106,-0.8585758805274963,-0.5931313633918762,0.59807950258255,-0.7830120325088501,-1.2422343492507935,0.6702486276626587,-1.259173035621643,-0.1565455049276352,-0.03270729258656502,0.304187148809433,-1.177650809288025,-0.22687837481498718,0.8037991523742676,0.023286597803235054,-0.9356144666671753,0.4594661295413971,-0.36330926418304443,-0.6739283800125122,0.20434926450252533,0.8972882628440857,0.5280774235725403,0.6478844881057739,-0.798214852809906,-0.024053987115621567,-2.0761117935180664,-0.13468195497989655,0.8865413665771484,0.31589752435684204,0.9492826461791992,-1.4675909280776978,-0.6172934770584106,0.14405886828899384,-1.018457293510437,-0.27809008955955505,1.3806531429290771,0.5698403716087341,0.1441877782344818
70,0.6878873705863953,-0.6900683045387268,-0.18710525333881378,-0.8717606067657471,-0.6124123334884644,0.5844278335571289,-0.7974928617477417,-1.229666829109192,0.6764642000198364,-1.2662854194641113,-0.16816096007823944,-0.029599972069263458,0.33685800433158875,-1.1587598323822021,-0.22797232866287231,0.8134117722511292,-0.019125921651721,-0.9288969039916992,0.48381656408309937,-0.3505977690219879,-0.6768450140953064,0.16807587444782257,0.8983352184295654,0.5345149636268616,0.6417081356048584,-0.7920329570770264,-0.02331966906785965,-2.083125352859497,-0.10550977289676666,0.8754662275314331,0.2862474322319031,0.9389482736587524,-1.4856055974960327,-0.6036263108253479,0.17497003078460693,-0.9980744123458862,-0.3025057017803192,1.40071702003479,0.5432183742523193,0.16240039467811584
71,0.6751227974891663,-0.7015669941902161,-0.18011921644210815,-0.861352801322937,-0.5931923389434814,0.6118763089179993,-0.7787864804267883,-1.249149203300476,0.6708391904830933,-1.2657333612442017,-0.16760028898715973,-0.04303184151649475,0.3041970431804657,-1.174552321434021,-0.2293725162744522,0.8113640546798706,0.01949293538928032,-0.9424335956573486,0.4490818679332733,-0.3690074682235718,-0.6722223162651062,0.187635138630867,0.9010155200958252,0.5218172669410706,0.6508345603942871,-0.796375572681427,-0.02057097665965557,-2.077058792114258,-0.13510791957378387,0.8751726746559143,0.31205275654792786,0.9261423349380493,-1.468553900718689,-0.6122788190841675,0.1458357721567154,-1.0190578699111938,-0.27893391251564026,1.3779410123825073,0.5691220760345459,0.14398570358753204
72,0.6926391124725342,-0.682305634021759,-0.18850375711917877,-0.8725267648696899,-0.6104393601417542,0.5979787111282349,-0.7925491333007812,-1.2376868724822998,0.6757651567459106,-1.2728116512298584,-0.17968671023845673,-0.038298577070236206,0.33464252948760986,-1.1560600996017456,-0.2306804060935974,0.8213149309158325,-0.023213015869259834,-0.9344092011451721,0.4730212688446045,-0.3559340536594391,-0.6779323816299438,0.1534089744091034,0.9023792743682861,0.5275941491127014,0.6440885066986084,-0.7909852862358093,-0.01875651441514492,-2.0855069160461426,-0.10798434913158417,0.864072859287262,0.28297245502471924,0.9155258536338806,-1.4853976964950562,-0.5996907949447632,0.17705358564853668,-0.9973528385162354,-0.29812583327293396,1.3959237337112427,0.5429146885871887,0.16787780821323395
73,0.674846887588501,-0.6970497369766235,-0.18382889032363892,-0.8631269931793213,-0.5924661755561829,0.626309335231781,-0.7741926908493042,-1.2570891380310059,0.6701878905296326,-1.2717292308807373,-0.1793215274810791,-0.05179595202207565,0.30478495359420776,-1.1712902784347534,-0.23221655189990997,0.8189003467559814,0.01696431264281273,-0.9487167596817017,0.43800967931747437,-0.3751944601535797,-0.6698135137557983,0.17118768393993378,0.9060608744621277,0.5141222476959229,0.6546791791915894,-0.794451117515564,-0.015584934502840042,-2.0783023834228516,-0.1358727514743805,0.8621078133583069,0.30639559030532837,0.9012948274612427,-1.4700053930282593,-0.6092894673347473,0.14700713753700256,-1.0199443101882935,-0.2801310122013092,1.37422776222229,0.5685757994651794,0.14379145205020905
74,0.6990514993667603,-0.6745824217796326,-0.19055141508579254,-0.8723703026771545,-0.6080882549285889,0.6118513941764832,-0.7875462770462036,-1.246321201324463,0.6737523674964905,-1.278940200805664,-0.1920763999223709,-0.045096274465322495,0.33384135365486145,-1.152703046798706,-0.23375387489795685,0.8294714689254761,-0.02744460292160511,-0.9388872981071472,0.4623256027698517,-0.36113137006759644,-0.679057240486145,0.13814961910247803,0.9077632427215576,0.519632875919342,0.6468682885169983,-0.7897924184799194,-0.012778671458363533,-2.0885937213897705,-0.11010605096817017,0.8509450554847717,0.27699974179267883,0.8907761573791504,-1.4859579801559448,-0.5974783301353455,0.17959371209144592,-0.9959575533866882,-0.2941387891769409,1.3906363248825073,0.5421993732452393,0.17474836111068726
75,0.6748787760734558,-0.6935061812400818,-0.18819651007652283,-0.8639053106307983,-0.5910061001777649,0.641949474811554,-0.7688394784927368,-1.2661491632461548,0.6682981848716736,-1.2772040367126465,-0.1917123794555664,-0.05903949588537216,0.3061286211013794,-1.1676912307739258,-0.23540568351745605,0.8264297246932983,0.01549601275473833,-0.9542251229286194,0.42616385221481323,-0.38188642263412476,-0.6666138172149658,0.1548072248697281,0.9126750230789185,0.505088210105896,0.6593611836433411,-0.7922976613044739,-0.009003526531159878,-2.07993483543396,-0.13706618547439575,0.8472511768341064,0.29896533489227295,0.87513667345047,-1.471880555152893,-0.6083921194076538,0.14765702188014984,-1.0210784673690796,-0.2819560766220093,1.3695740699768066,0.5683097839355469,0.1436854600906372
76,0.7069348692893982,-0.6669780611991882,-0.19286170601844788,-0.8712159395217896,-0.6053316593170166,0.6266455054283142,-0.7820855975151062,-1.255691647529602,0.6703847646713257,-1.2847248315811157,-0.20535598695278168,-0.0499742329120636,0.3344687521457672,-1.148552417755127,-0.23717625439167023,0.8379114270210266,-0.031864818185567856,-0.9420651793479919,0.4516279101371765,-0.3661375641822815,-0.6802847981452942,0.12220347672700882,0.914718747138977,0.5107468366622925,0.6499412059783936,-0.7883266806602478,-0.0053440541960299015,-2.0925254821777344,-0.11205931007862091,0.8360315561294556,0.26839929819107056,0.8651776313781738,-1.4872180223464966,-0.5970398187637329,0.18264047801494598,-0.9938143491744995,-0.2904146611690521,1.384825587272644,0.5411958694458008,0.18291287124156952
77,0.6753011345863342,-0.6910009980201721,-0.19287487864494324,-0.8636643290519714,-0.5888293981552124,0.6592521071434021,-0.7623470425605774,-1.2764146327972412,0.6651725172996521,-1.2821871042251587,-0.20479367673397064,-0.0647921934723854,0.30843567848205566,-1.1635932922363281,-0.23890501260757446,0.8340056538581848,0.014693553559482098,-0.9587197303771973,0.4135694205760956,-0.38903313875198364,-0.6624913215637207,0.13829092681407928,0.9210863709449768,0.4948584735393524,0.66478431224823,-0.7897586822509766,-0.0007111551240086555,-2.0820553302764893,-0.1387386918067932,0.8305158019065857,0.28974175453186035,0.8481340408325195,-1.4741344451904297,-0.609601616859436,0.14795929193496704,-1.0223462581634521,-0.28463611006736755,1.3640751838684082,0.5683639049530029,0.1440378874540329
78,0.7158171534538269,-0.6597253084182739,-0.19513331353664398,-0.8689398765563965,-0.6021603345870972,0.6430564522743225,-0.7757983803749084,-1.2659426927566528,0.6656422019004822,-1.2901489734649658,-0.21952563524246216,-0.052983153611421585,0.3365551233291626,-1.1434977054595947,-0.24091002345085144,0.8466328978538513,-0.03628338500857353,-0.9437425136566162,0.44075602293014526,-0.370949923992157,-0.6815236806869507,0.10552704334259033,0.923468828201294,0.5010659098625183,0.6532752513885498,-0.7864074110984802,0.003582207951694727,-2.0974032878875732,-0.1140364557504654,0.8192922472953796,0.2572976350784302,0.8392295241355896,-1.4890769720077515,-0.5984519720077515,0.18611524999141693,-0.9910275340080261,-0.28687286376953125,1.3784056901931763,0.5400420427322388,0.1918291300535202
79,0.676658034324646,-0.6893861293792725,-0.1974157840013504,-0.862316906452179,-0.585879921913147,0.6784785985946655,-0.7543596029281616,-1.287936806678772,0.6607835292816162,-1.28668212890625,-0.21860644221305847,-0.06902100890874863,0.3119308352470398,-1.1588562726974487,-0.2426510602235794,0.8417357802391052,0.013910729438066483,-0.9619306325912476,0.4004042148590088,-0.39645370841026306,-0.657393217086792,0.12145266681909561,0.9314600229263306,0.48365652561187744,0.6707633137702942,-0.7867068648338318,0.00941553059965372,-2.0847995281219482,-0.14090779423713684,0.8118724822998047,0.27864134311676025,0.8208345770835876,-1.4767096042633057,-0.6128523945808411,0.148228257894516,-1.0234746932983398,-0.28821584582328796,1.3578729629516602,0.5686857104301453,0.14566470682621002
80,0.724831759929657,-0.6532921195030212,-0.1972343474626541,-0.8654137253761292,-0.5986231565475464,0.6618790626525879,-0.7683660387992859,-1.2772295475006104,0.6595547795295715,-1.2950794696807861,-0.2345341295003891,-0.054277099668979645,0.3401780128479004,-1.1374629735946655,-0.24488990008831024,0.8555864095687866,-0.04027826711535454,-0.9438261985778809,0.42944759130477905,-0.3756646513938904,-0.6823892593383789,0.08815567940473557,0.9342035055160522,0.49074429273605347,0.656965434551239,-0.7837795615196228,0.014035630971193314,-2.1032466888427734,-0.11623884737491608,0.800702691078186,0.24391241371631622,0.8133957982063293,-1.491405963897705,-0.6018216013908386,0.18973802030086517,-0.9879764318466187,-0.2836429476737976,1.3712483644485474,0.5388858318328857,0.20049886405467987
81,0.6798456311225891,-0.6882433891296387,-0.20124030113220215,-0.8596809506416321,-0.5820063948631287,0.6996781826019287,-0.7445569634437561,-1.3007187843322754,0.6550461649894714,-1.2906489372253418,-0.23321320116519928,-0.07158213108778,0.31683802604675293,-1.1533585786819458,-0.24655508995056152,0.8497856855392456,0.012345831841230392,-0.9635423421859741,0.3870052695274353,-0.4037852883338928,-0.6514741778373718,0.10414410382509232,0.9438440799713135,0.4718053638935089,0.6769974827766418,-0.7830691337585449,0.021465761587023735,-2.0883545875549316,-0.1435742974281311,0.7913901209831238,0.2655259966850281,0.7938635945320129,-1.4794985055923462,-0.6179678440093994,0.14891976118087769,-1.0240117311477661,-0.292391836643219,1.3511462211608887,0.5691102147102356,0.14960595965385437
82,0.7330312728881836,-0.6483047008514404,-0.19918592274188995,-0.8605334162712097,-0.5948482751846313,0.6838916540145874,-0.7595403790473938,-1.2896735668182373,0.6521995663642883,-1.299233078956604,-0.250268816947937,-0.054129209369421005,0.34547796845436096,-1.1304218769073486,-0.24900421500205994,0.8647063970565796,-0.04343731328845024,-0.9423447847366333,0.41742151975631714,-0.3804633617401123,-0.6821540594100952,0.07022397965192795,0.9470268487930298,0.47999656200408936,0.6612167954444885,-0.7801274657249451,0.026071932166814804,-2.1099910736083984,-0.11886897683143616,0.7802738547325134,0.22856362164020538,0.7880629897117615,-1.4940564632415771,-0.6072548627853394,0.19307294487953186,-0.9852613806724548,-0.28117114305496216,1.3632439374923706,0.5378569960594177,0.20796926319599152
83,0.6854901313781738,-0.6870764493942261,-0.2037457525730133,-0.8554866313934326,-0.5770047307014465,0.7228154540061951,-0.7326780557632446,-1.3147183656692505,0.6478447318077087,-1.2939560413360596,-0.24866606295108795,-0.07224586606025696,0.32336458563804626,-1.1469683647155762,-0.2505069673061371,0.858328104019165,0.009376420639455318,-0.9632384777069092,0.37375959753990173,-0.41055548191070557,-0.6450663208961487,0.08630510419607162,0.9581467509269714,0.4596919119358063,0.6831615567207336,-0.7787880301475525,0.035432372242212296,-2.092918634414673,-0.1467515081167221,0.7692357301712036,0.25027531385421753,0.76787269115448,-1.4823263883590698,-0.62468022108078,0.1504673808813095,-1.0235207080841064,-0.2965068221092224,1.3440515995025635,0.5693906545639038,0.15644089877605438
84,0.7400027513504028,-0.6452141404151917,-0.20096196234226227,-0.8541801571846008,-0.5909886360168457,0.7095862627029419,-0.749160647392273,-1.3032654523849487,0.6436554789543152,-1.3022058010101318,-0.26657333970069885,-0.05285239964723587,0.3526248037815094,-1.1223992109298706,-0.25307899713516235,0.8739912509918213,-0.04574371501803398,-0.9393912553787231,0.4045681655406952,-0.38544827699661255,-0.6799982786178589,0.05196710303425789,0.9618961811065674,0.469142347574234,0.6662176251411438,-0.7751599550247192,0.03974314033985138,-2.1175453662872314,-0.1221039891242981,0.7580991387367249,0.21161992847919464,0.7635818719863892,-1.496890664100647,-0.6147697567939758,0.19576618075370789,-0.9834024906158447,-0.28003716468811035,1.3544111251831055,0.5370209813117981,0.2140025645494461
85,0.6933931112289429,-0.6856624484062195,-0.20449641346931458,-0.849448561668396,-0.5707507729530334,0.7479309439659119,-0.7185884118080139,-1.329820156097412,0.6391335129737854,-1.2963157892227173,-0.26492372155189514,-0.0708402469754219,0.3316737115383148,-1.1395329236984253,-0.25436344742774963,0.8674635291099548,0.004825107753276825,-0.9608052372932434,0.36091840267181396,-0.4163823425769806,-0.6383869647979736,0.06804469227790833,0.9741712808609009,0.44770291447639465,0.689087986946106,-0.7737431526184082,0.051158588379621506,-2.0985870361328125,-0.15048469603061676,0.7456451654434204,0.2329249531030655,0.7434656620025635,-1.4849891662597656,-0.632719099521637,0.1530040204524994,-1.0219295024871826,-0.2998751401901245,1.3366847038269043,0.5693126916885376,0.16585850715637207
86,0.7460131645202637,-0.6439778804779053,-0.20229946076869965,-0.8461551666259766,-0.5871309638023376,0.7389410734176636,-0.7371668815612793,-1.3177740573883057,0.6340017318725586,-1.3035516738891602,-0.28326186537742615,-0.05063379555940628,0.36174851655960083,-1.1134108304977417,-0.25689709186553955,0.8835222721099854,-0.04768786206841469,-0.9350215792655945,0.391094833612442,-0.3904445469379425,-0.675452709197998,0.0337124727666378,0.9785948991775513,0.4585978388786316,0.6720178723335266,-0.7687090039253235,0.0549883171916008,-2.125843048095703,-0.12606224417686462,0.7344043850898743,0.19343358278274536,0.7403764128684998,-1.4998050928115845,-0.624200165271759,0.19776779413223267,-0.9825694561004639,-0.28049829602241516,1.3449684381484985,0.5363425016403198,0.21906010806560516
87,0.7027273178100586,-0.684137225151062,-0.2032742202281952,-0.8413529992103577,-0.5633399486541748,0.7750862836837769,-0.702359676361084,-1.345747947692871,0.6290109157562256,-1.2972692251205444,-0.2817709147930145,-0.06739162653684616,0.3418235182762146,-1.1309322118759155,-0.2579290568828583,0.8771787285804749,-0.001172038377262652,-0.9562121629714966,0.3485345244407654,-0.4210779368877411,-0.63126140832901,0.049696631729602814,0.9916467666625977,0.436210960149765,0.6948447823524475,-0.7677552103996277,0.06830844283103943,-2.105252504348755,-0.1548391580581665,0.7209244966506958,0.2137695848941803,0.7211751937866211,-1.4873337745666504,-0.6418779492378235,0.15625859797000885,-1.0196586847305298,-0.3021904230117798,1.3291571140289307,0.5688199996948242,0.17699217796325684
88,0.7515313029289246,-0.6440966725349426,-0.2027590274810791,-0.8362160325050354,-0.5832928419113159,0.7714234590530396,-0.7236204743385315,-1.3327453136444092,0.6233885884284973,-1.3028348684310913,-0.30008944869041443,-0.04743945971131325,0.3728694021701813,-1.1033852100372314,-0.2602453827857971,0.8933568596839905,-0.050006039440631866,-0.9292030334472656,0.37744972109794617,-0.39502137899398804,-0.6685833930969238,0.01588471047580242,0.9967356324195862,0.44881510734558105,0.6785457730293274,-0.7607499957084656,0.0715179368853569,-2.134800672531128,-0.13078948855400085,0.7095807194709778,0.17436808347702026,0.7189901471138,-1.5026886463165283,-0.6351766586303711,0.19925400614738464,-0.9826724529266357,-0.28222110867500305,1.3352981805801392,0.5356898307800293,0.22369611263275146
89,0.7125619649887085,-0.6827205419540405,-0.1999782919883728,-0.83111172914505,-0.5551241636276245,0.8041285872459412,-0.6842883825302124,-1.3619918823242188,0.6176925301551819,-1.296260952949524,-0.29880765080451965,-0.06209681183099747,0.3537064492702484,-1.121137261390686,-0.2609701454639435,0.8873456716537476,-0.00848062802106142,-0.9495989084243774,0.3365897834300995,-0.4245414137840271,-0.6232081055641174,0.03179873526096344,1.0101895332336426,0.4256056547164917,0.7006427049636841,-0.7606910467147827,0.08635816723108292,-2.1126010417938232,-0.15986058115959167,0.695479154586792,0.19333550333976746,0.7014808058738708,-1.4893052577972412,-0.6519753932952881,0.15973058342933655,-1.0174105167388916,-0.30360257625579834,1.3217228651046753,0.5680168271064758,0.18895353376865387
90,0.7567760944366455,-0.6448748707771301,-0.20191259682178497,-0.8242195844650269,-0.5795117616653442,0.8061410784721375,-0.708726167678833,-1.3475638628005981,0.6120609641075134,-1.29964017868042,-0.3167021572589874,-0.043072402477264404,0.38583001494407654,-1.0921696424484253,-0.2629517912864685,0.9034083485603333,-0.05338440462946892,-0.9218704700469971,0.36411815881729126,-0.3986876606941223,-0.6598135232925415,-0.000980324111878872,1.0157560110092163,0.4402276277542114,0.685703694820404,-0.7513723373413086,0.08879395574331284,-2.144233465194702,-0.13627289235591888,0.6841871738433838,0.1549028605222702,0.7000073790550232,-1.5053590536117554,-0.6471923589706421,0.20036202669143677,-0.9836349487304688,-0.2844541668891907,1.3258624076843262,0.5348939895629883,0.22814154624938965
91,0.722106397151947,-0.6814315915107727,-0.19454818964004517,-0.8188064694404602,-0.5466452240943909,0.8345277309417725,-0.6648426055908203,-1.3778272867202759,0.6054393649101257,-1.29276704788208,-0.31550174951553345,-0.055179987102746964,0.3670315444469452,-1.1102052927017212,-0.26326602697372437,0.8977298140525818,-0.017107203602790833,-0.9412005543708801,0.32513952255249023,-0.42662084102630615,-0.6137648224830627,0.015015488490462303,1.0292458534240723,0.4163055717945099,0.7067160606384277,-0.7525539398193359,0.10462360829114914,-2.120209217071533,-0.1655232310295105,0.6698190569877625,0.17227202653884888,0.6847923398017883,-1.4909205436706543,-0.662770688533783,0.16291029751300812,-1.015892505645752,-0.30450567603111267,1.3148165941238403,0.5670528411865234,0.20105482637882233
92,0.7615955471992493,-0.6456130743026733,-0.1994457244873047,-0.810254693031311,-0.5759138464927673,0.8420066833496094,-0.6928088665008545,-1.3615314960479736,0.6002888679504395,-1.2936092615127563,-0.332621306180954,-0.03728869929909706,0.4002489447593689,-1.0796222686767578,-0.2649035155773163,0.9134167432785034,-0.05831373482942581,-0.9130335450172424,0.3514755070209503,-0.4010373651981354,-0.649692177772522,-0.016254696995019913,1.0349339246749878,0.4332122504711151,0.6934417486190796,-0.7407630085945129,0.10611571371555328,-2.1538243293762207,-0.1424577236175537,0.6589057445526123,0.13568538427352905,0.6839208006858826,-1.5075640678405762,-0.659690797328949,0.20102760195732117,-0.9855268597602844,-0.28637832403182983,1.317129373550415,0.5338262915611267,0.23229846358299255
93,0.7306951284408569,-0.680008053779602,-0.18696659803390503,-0.8047370314598083,-0.5385257005691528,0.8654159307479858,-0.6445677876472473,-1.3924225568771362,0.5924948453903198,-1.2864145040512085,-0.3312651216983795,-0.046796396374702454,0.38135918974876404,-1.09824538230896,-0.2646617591381073,0.9080204367637634,-0.027127429842948914,-0.9312784671783447,0.31434404850006104,-0.4270859658718109,-0.602741003036499,3.2718759030103683e-05,1.0481103658676147,0.40872544050216675,0.7132764458656311,-0.7434905171394348,0.12234625965356827,-2.1276729106903076,-0.17168904840946198,0.6445199251174927,0.15123777091503143,0.6713880896568298,-1.492208480834961,-0.6739329099655151,0.16538825631141663,-1.0156651735305786,-0.3053416311740875,1.3089964389801025,0.5660094022750854,0.21281269192695618
94,0.7655604481697083,-0.6456807255744934,-0.1951618492603302,-0.7946957945823669,-0.57270747423172,0.8779072761535645,-0.6762345433235168,-1.3739718198776245,0.5882716774940491,-1.284514307975769,-0.347284734249115,-0.02988634817302227,0.4155389070510864,-1.065704345703125,-0.2660601735115051,0.9230135083198547,-0.06504285335540771,-0.9028390645980835,0.33973729610443115,-0.4017876386642456,-0.6387774348258972,-0.029297109693288803,1.053473711013794,0.42804524302482605,0.701779842376709,-0.7291916608810425,0.12276969105005264,-2.1631758213043213,-0.149251326918602,0.6344555020332336,0.11747269332408905,0.6710286736488342,-1.5090328454971313,-0.6721442341804504,0.2009967714548111,-0.9885203242301941,-0.28734123706817627,1.309504508972168,0.5324316024780273,0.2359287291765213
95,0.737747073173523,-0.6779865622520447,-0.1772938221693039,-0.7894406318664551,-0.531352698802948,0.895796537399292,-0.6239696741104126,-1.4049979448318481,0.5790353417396545,-1.2770617008209229,-0.345535546541214,-0.0370325967669487,0.39618614315986633,-1.0854004621505737,-0.2651014029979706,0.9178965091705322,-0.038546741008758545,-0.9200871586799622,0.3044153153896332,-0.42568716406822205,-0.5902758836746216,-0.012562720105051994,1.0660443305969238,0.40320688486099243,0.720519483089447,-0.733733594417572,0.13882620632648468,-2.134718179702759,-0.17810854315757751,0.6201523542404175,0.13078875839710236,0.6613543033599854,-1.493167519569397,-0.685078501701355,0.1668843924999237,-1.0170907974243164,-0.30653008818626404,1.3048380613327026,0.5648518800735474,0.22391387820243835
96,0.7681506872177124,-0.64454185962677,-0.1889573037624359,-0.778167188167572,-0.5701335072517395,0.912895917892456,-0.6593198180198669,-1.3843525648117065,0.5760788321495056,-1.2723280191421509,-0.3601301312446594,-0.020763995125889778,0.4310063421726227,-1.050517201423645,-0.2664642333984375,0.9318344593048096,-0.07357524335384369,-0.8915597796440125,0.32896533608436584,-0.4007705748081207,-0.627586305141449,-0.03957722336053848,1.0706573724746704,0.42485320568084717,0.7107923030853271,-0.7169732451438904,0.13819167017936707,-2.171917200088501,-0.15653371810913086,0.6114944219589233,0.10100410133600235,0.6613983511924744,-1.5095244646072388,-0.6841183304786682,0.19993257522583008,-0.9927845001220703,-0.2869260609149933,1.3032532930374146,0.5307034254074097,0.23885391652584076
97,0.7427873611450195,-0.6748486161231995,-0.16569311916828156,-0.7736507654190063,-0.5255753993988037,0.9248093962669373,-0.6034082174301147,-1.4149796962738037,0.565147340297699,-1.2648186683654785,-0.3578566908836365,-0.025963177904486656,0.4110678434371948,-1.0718390941619873,-0.2646404206752777,0.9271107912063599,-0.051205120980739594,-0.9078715443611145,0.29554498195648193,-0.42224133014678955,-0.5767589211463928,-0.022398779168725014,1.0824377536773682,0.3999382555484772,0.7286387085914612,-0.723527193069458,0.15355777740478516,-2.141248941421509,-0.18447589874267578,0.5972052812576294,0.11127099394798279,0.6545702815055847,-1.4937560558319092,-0.6958335638046265,0.16725388169288635,-1.0203241109848022,-0.3084564208984375,1.3028301000595093,0.5634375810623169,0.23418374359607697
98,0.7689632177352905,-0.6417765021324158,-0.1808108538389206,-0.7614314556121826,-0.5684197545051575,0.9463551640510559,-0.6422827839851379,-1.3923766613006592,0.5636459589004517,-1.2572377920150757,-0.3706873655319214,-0.009963799268007278,0.44599100947380066,-1.0342777967453003,-0.26624011993408203,0.9396259784698486,-0.08370653539896011,-0.8795420527458191,0.3190973699092865,-0.3979247510433197,-0.6165496706962585,-0.046795230358839035,1.085989236831665,0.4235832989215851,0.7205645442008972,-0.7044204473495483,0.15208089351654053,-2.179811716079712,-0.1641947329044342,0.5905428528785706,0.08688530325889587,0.6548920273780823,-1.5088666677474976,-0.6953116059303284,0.19753022491931915,-0.9983966946601868,-0.284920334815979,1.2984405755996704,0.5286328196525574,0.2410886287689209
99,0.7455047965049744,-0.6701628565788269,-0.15244212746620178,-0.7582036256790161,-0.5214444398880005,0.9519190788269043,-0.5830475091934204,-1.42208993434906,0.5508567094802856,-1.2500070333480835,-0.36793994903564453,-0.013710852712392807,0.42573675513267517,-1.0577361583709717,-0.2634352445602417,0.9355518817901611,-0.06475764513015747,-0.8948797583580017,0.28785407543182373,-0.4167133569717407,-0.5626958608627319,-0.02939448319375515,1.0969291925430298,0.3989007771015167,0.7378249168395996,-0.7130752205848694,0.1663135290145874,-2.1473188400268555,-0.19051538407802582,0.5760286450386047,0.09274782985448837,0.65074622631073,-1.4938998222351074,-0.7058752775192261,0.1664828360080719,-1.0253279209136963,-0.31144654750823975,1.303300380706787,0.5615620613098145,0.2435343861579895
100,0.7678830027580261,-0.637089729309082,-0.1707923710346222,-0.7452420592308044,-0.5677545070648193,0.9780486226081848,-0.625254213809967,-1.3979989290237427,0.5508142709732056,-1.2396126985549927,-0.37864500284194946,0.002306494163349271,0.45997723937034607,-1.017261028289795,-0.26557472348213196,0.9462971687316895,-0.09509941190481186,-0.8671551942825317,0.3099820613861084,-0.39329078793525696,-0.6059711575508118,-0.05095098912715912,1.0992575883865356,0.42401260137557983,0.7311341166496277,-0.6918250322341919,0.16441836953163147,-2.186810255050659,-0.17218919098377228,0.5719484090805054,0.07554107904434204,0.6512293815612793,-1.50698983669281,-0.7055534720420837,0.19358962774276733,-1.0052926540374756,-0.2812659740447998,1.2949113845825195,0.5261807441711426,0.2428874522447586
101,0.745783805847168,-0.6636854410171509,-0.13794417679309845,-0.7439373731613159,-0.5190137028694153,0.9769514203071594,-0.5628997683525085,-1.4263368844985962,0.5362129807472229,-1.233087420463562,-0.37569141387939453,-0.00047790841199457645,0.4401702582836151,-1.0432343482971191,-0.26171132922172546,0.9432533979415894,-0.07870611548423767,-0.8813781142234802,0.28137099742889404,-0.4092799425125122,-0.5485963225364685,-0.03377024456858635,1.109431266784668,0.39986756443977356,0.7482503652572632,-0.7025340795516968,0.17714887857437134,-2.153045892715454,-0.19605164229869843,0.5568135976791382,0.07499239593744278,0.6494908332824707,-1.4935053586959839,-0.7149366140365601,0.16466523706912994,-1.031907081604004,-0.3156950771808624,1.306384563446045,0.559024453163147,0.25187960267066956
102,0.7651650309562683,-0.6303042769432068,-0.15907405316829681,-0.7302109003067017,-0.5682603120803833,1.0080223083496094,-0.6083141565322876,-1.4013748168945312,0.5373792052268982,-1.2199574708938599,-0.383872926235199,0.015675745904445648,0.4726214110851288,-0.9997547268867493,-0.2646842896938324,0.9519028067588806,-0.10736376792192459,-0.8547662496566772,0.3014133870601654,-0.38699856400489807,-0.5959950685501099,-0.05234111472964287,1.1104896068572998,0.4257882237434387,0.7424303889274597,-0.679490327835083,0.17538805305957794,-2.1930348873138428,-0.18058045208454132,0.5558873414993286,0.06723365187644958,0.650053858757019,-1.5039682388305664,-0.7147674560546875,0.18803204596042633,-1.0132482051849365,-0.27608683705329895,1.2923351526260376,0.5232998728752136,0.2447262406349182
103,0.7436872124671936,-0.6554064750671387,-0.12274821847677231,-0.7316259741783142,-0.5182075500488281,1.0000131130218506,-0.5429546236991882,-1.427925705909729,0.5213992595672607,-1.214583396911621,-0.38120096921920776,0.013463184237480164,0.45458531379699707,-1.02840256690979,-0.2597213089466095,0.9503493309020996,-0.0924520194530487,-0.8676599264144897,0.2760312855243683,-0.4003732204437256,-0.5349385142326355,-0.03598992899060249,1.120063304901123,0.40245065093040466,0.760042667388916,-0.6920329928398132,0.1863403022289276,-2.1585330963134766,-0.2010289430618286,0.5396153330802917,0.057572148740291595,0.6503793597221375,-1.4924622774124146,-0.7227869033813477,0.16195838153362274,-1.0397446155548096,-0.32109522819519043,1.3119995594024658,0.555686354637146,0.2590424418449402
104,0.7614036798477173,-0.6213498711585999,-0.14592355489730835,-0.7167304158210754,-0.5699411630630493,1.0363832712173462,-0.5914910435676575,-1.402783989906311,0.5231150984764099,-1.1988886594772339,-0.38641080260276794,0.0296246986836195,0.48370611667633057,-0.9820706248283386,-0.26378244161605835,0.9565887451171875,-0.12009741365909576,-0.8427406549453735,0.29317203164100647,-0.3792313039302826,-0.5865665078163147,-0.05149850994348526,1.1198469400405884,0.42847391963005066,0.7542431354522705,-0.6677974462509155,0.18524177372455597,-2.198714017868042,-0.18954209983348846,0.5423708558082581,0.06205054000020027,0.6509758830070496,-1.500074863433838,-0.7229250073432922,0.18088839948177338,-1.021887183189392,-0.269880473613739,1.2903506755828857,0.5199958086013794,0.24724146723747253
105,0.7394251823425293,-0.6455425024032593,-0.10756323486566544,-0.7219439744949341,-0.5189425349235535,1.021406888961792,-0.5233569741249084,-1.4271446466445923,0.506812572479248,-1.1950066089630127,-0.3846948742866516,0.027812611311674118,0.4693582057952881,-1.0131999254226685,-0.2577100396156311,0.9569991827011108,-0.10537674278020859,-0.8540521860122681,0.2716774046421051,-0.390703946352005,-0.5222254991531372,-0.036654967814683914,1.1290415525436401,0.4061683416366577,0.7732419371604919,-0.6816839575767517,0.19429518282413483,-2.1638405323028564,-0.205495685338974,0.5244222283363342,0.04009579122066498,0.6530012488365173,-1.4906256198883057,-0.7292183637619019,0.15851598978042603,-1.048426628112793,-0.32695141434669495,1.3197416067123413,0.5514984726905823,0.2647104561328888
106,0.7573813796043396,-0.6102725863456726,-0.1316733956336975,-0.7049750685691833,-0.5725974440574646,1.0630333423614502,-0.5746821165084839,-1.4025663137435913,0.507781982421875,-1.1771349906921387,-0.386456161737442,0.04350931942462921,0.4930993914604187,-0.964618444442749,-0.26305463910102844,0.9605576992034912,-0.1328725516796112,-0.8314396739006042,0.2850932776927948,-0.3701723515987396,-0.5773815512657166,-0.049107812345027924,1.1275306940078735,0.43158650398254395,0.7662575840950012,-0.6572559475898743,0.1941520869731903,-2.204113721847534,-0.19929438829421997,0.5312224626541138,0.059669528156518936,0.653593897819519,-1.495842456817627,-0.7300060391426086,0.17231418192386627,-1.0307252407073975,-0.2637747526168823,1.288841962814331,0.5163915753364563,0.25113192200660706
107,0.7333765029907227,-0.6344687342643738,-0.09323712438344955,-0.7153938412666321,-0.5212686657905579,1.0416224002838135,-0.5045481324195862,-1.4242838621139526,0.4930565059185028,-1.174757719039917,-0.3864519000053406,0.04228498786687851,0.4848734140396118,-0.9974464178085327,-0.25590336322784424,0.9633049964904785,-0.11695915460586548,-0.8409412503242493,0.2680399715900421,-0.38123035430908203,-0.511044442653656,-0.03638877347111702,1.1365829706192017,0.41050055623054504,0.78774493932724,-0.6715676784515381,0.20146404206752777,-2.1690306663513184,-0.20961123704910278,0.5112583041191101,0.022729242220520973,0.656978964805603,-1.4877902269363403,-0.7340659499168396,0.15440575778484344,-1.0574647188186646,-0.3318724036216736,1.3286957740783691,0.5465031266212463,0.26847293972969055
108,0.7538111805915833,-0.59726881980896,-0.11666561663150787,-0.6950070858001709,-0.5757752060890198,1.0875123739242554,-0.5575639605522156,-1.4010792970657349,0.4911651611328125,-1.1555125713348389,-0.38438382744789124,0.056635819375514984,0.5007936954498291,-0.9479799270629883,-0.26261669397354126,0.9640961289405823,-0.145253524184227,-0.8211719393730164,0.27714258432388306,-0.3599773049354553,-0.567936897277832,-0.045925505459308624,1.1337394714355469,0.4346303343772888,0.7781426906585693,-0.648481011390686,0.20209436118602753,-2.209500312805176,-0.20997583866119385,0.5220447182655334,0.05882026627659798,0.6575356721878052,-1.4920649528503418,-0.7359755039215088,0.1626615971326828,-1.0392639636993408,-0.2593083381652832,1.2882006168365479,0.5127511024475098,0.25704362988471985
109,0.7261552810668945,-0.6226208209991455,-0.08069688081741333,-0.7121385335922241,-0.5253992080688477,1.061293363571167,-0.4871959090232849,-1.4196337461471558,0.48081907629966736,-1.1540290117263794,-0.3867019712924957,0.056585684418678284,0.5013618469238281,-0.9808216691017151,-0.25453972816467285,0.9692438244819641,-0.12683244049549103,-0.8288324475288391,0.2647191882133484,-0.3729887902736664,-0.5019466280937195,-0.03576754406094551,1.1428834199905396,0.41491660475730896,0.8033062815666199,-0.6617305874824524,0.20828129351139069,-2.1742379665374756,-0.21369200944900513,0.5002475380897522,0.006729888264089823,0.6619476675987244,-1.4837242364883423,-0.7372832894325256,0.14956678450107574,-1.0663566589355469,-0.3344476521015167,1.337460994720459,0.5408536791801453,0.2698665261268616
110,0.751121461391449,-0.5826805830001831,-0.10117264091968536,-0.686941385269165,-0.5789130926132202,1.1091614961624146,-0.5397024750709534,-1.3986644744873047,0.4731621742248535,-1.1348164081573486,-0.38075318932533264,0.06844909489154816,0.5069445371627808,-0.9328541159629822,-0.2624419033527374,0.9676100015640259,-0.15699201822280884,-0.8121016621589661,0.26940780878067017,-0.3488008975982666,-0.5578144192695618,-0.04269840568304062,1.1386511325836182,0.43716394901275635,0.789567232131958,-0.6420833468437195,0.20884586870670319,-2.21512508392334,-0.22153496742248535,0.5142831206321716,0.05713770538568497,0.6625476479530334,-1.4896165132522583,-0.7408132553100586,0.15252964198589325,-1.0471117496490479,-0.25740697979927063,1.2890957593917847,0.5094371438026428,0.26556193828582764
111,0.7185476422309875,-0.6104680299758911,-0.07089176028966904,-0.7119191884994507,-0.5314953923225403,1.0809171199798584,-0.4718206524848938,-1.4135477542877197,0.4707397520542145,-1.13285231590271,-0.3856068253517151,0.07033862173557281,0.5189012885093689,-0.9629749059677124,-0.25391098856925964,0.9746719598770142,-0.1346273571252823,-0.8183477520942688,0.2612342834472656,-0.3667811155319214,-0.4951600134372711,-0.035320259630680084,1.1481910943984985,0.41889458894729614,0.8196899890899658,-0.6522273421287537,0.2151491641998291,-2.1796205043792725,-0.2181607484817505,0.4915185272693634,-0.006094639655202627,0.6675135493278503,-1.478313684463501,-0.7390310168266296,0.1439020335674286,-1.0746886730194092,-0.33435943722724915,1.3448143005371094,0.5348444581031799,0.2682742774486542
112,0.7495776414871216,-0.5668622255325317,-0.08529381453990936,-0.6809217929840088,-0.581670343875885,1.1275663375854492,-0.5209115743637085,-1.395679235458374,0.45375943183898926,-1.1156705617904663,-0.3761877417564392,0.0787123516201973,0.5116892457008362,-0.9198320508003235,-0.26234668493270874,0.9715196490287781,-0.16824108362197876,-0.8042362332344055,0.2619372308254242,-0.3368177115917206,-0.5469779372215271,-0.04003884270787239,1.142376184463501,0.4388860762119293,0.8000625967979431,-0.6385611295700073,0.21417386829853058,-2.221243381500244,-0.23381809890270233,0.5074751377105713,0.05256692320108414,0.6685105562210083,-1.489108681678772,-0.7446351051330566,0.14260530471801758,-1.054059624671936,-0.2576437294483185,1.2916686534881592,0.5068362951278687,0.27740371227264404
113,0.7111614346504211,-0.5985937714576721,-0.06479112803936005,-0.7144116759300232,-0.5394456386566162,1.10048246383667,-0.45848026871681213,-1.4064161777496338,0.46344396471977234,-1.111337423324585,-0.38340139389038086,0.0831647589802742,0.5376601219177246,-0.9437592029571533,-0.2542952597141266,0.9794580936431885,-0.13981501758098602,-0.8100460767745972,0.25720277428627014,-0.3629385828971863,-0.4905288517475128,-0.0355512835085392,1.1528465747833252,0.4220156967639923,0.8368608951568604,-0.6431125998497009,0.22245508432388306,-2.1851446628570557,-0.2232511341571808,0.4849635064601898,-0.015213720500469208,0.673254132270813,-1.4717113971710205,-0.7396107912063599,0.13749995827674866,-1.0821658372879028,-0.33252236247062683,1.350503921508789,0.5288117527961731,0.26277264952659607
114,0.749650239944458,-0.550029456615448,-0.06878764182329178,-0.6768174767494202,-0.5840144753456116,1.1427998542785645,-0.5014433860778809,-1.392626404762268,0.43284380435943604,-1.0984957218170166,-0.37116363644599915,0.08741208910942078,0.514838695526123,-0.9092996120452881,-0.2621127963066101,0.9760414361953735,-0.17933109402656555,-0.7975717186927795,0.25453290343284607,-0.32419395446777344,-0.5356727242469788,-0.03824729472398758,1.1449154615402222,0.4396468997001648,0.8089431524276733,-0.6383075714111328,0.21800120174884796,-2.228174924850464,-0.2468412071466446,0.5014946460723877,0.04503921419382095,0.6752832531929016,-1.4906845092773438,-0.7478094100952148,0.13327953219413757,-1.0601005554199219,-0.2587205171585083,1.2951494455337524,0.5053225755691528,0.29345792531967163
115,0.7042233943939209,-0.5876111388206482,-0.0634116381406784,-0.7196636199951172,-0.5489858984947205,1.1194143295288086,-0.4469565153121948,-1.3984742164611816,0.4595263600349426,-1.0897951126098633,-0.3805147707462311,0.09494147449731827,0.5579525828361511,-0.9233054518699646,-0.25584161281585693,0.9836552739143372,-0.14194783568382263,-0.804250955581665,0.2526147663593292,-0.3612492084503174,-0.4877933859825134,-0.03694921359419823,1.1571755409240723,0.42415574193000793,0.854902446269989,-0.6343218684196472,0.23058059811592102,-2.1904513835906982,-0.22872914373874664,0.48015540838241577,-0.021913347765803337,0.678747296333313,-1.4643819332122803,-0.7392027378082275,0.13079476356506348,-1.0885350704193115,-0.33017659187316895,1.3551030158996582,0.5228874087333679,0.2526676058769226
116,0.751739501953125,-0.5324806571006775,-0.051117002964019775,-0.6742955446243286,-0.5859261155128479,1.15524160861969,-0.4817659854888916,-1.390194296836853,0.4105600416660309,-1.083549976348877,-0.3659801185131073,0.09449104964733124,0.51629638671875,-0.9016801118850708,-0.2615923285484314,0.9811475872993469,-0.1900523453950882,-0.792245626449585,0.24674047529697418,-0.31122249364852905,-0.5240586400032043,-0.03722308203577995,1.1462291479110718,0.439360111951828,0.8157206177711487,-0.641550600528717,0.22032837569713593,-2.236218214035034,-0.26081323623657227,0.49642086029052734,0.03588998317718506,0.6825323700904846,-1.4939507246017456,-0.7509085536003113,0.12441667169332504,-1.0654590129852295,-0.25948330760002136,1.2985364198684692,0.5052267909049988,0.31330353021621704
117,0.698361337184906,-0.5775049328804016,-0.06706259399652481,-0.727575421333313,-0.559884786605835,1.1368054151535034,-0.43714046478271484,-1.3897773027420044,0.45842888951301575,-1.068718671798706,-0.37745052576065063,0.10590396821498871,0.5789921879768372,-0.9020665287971497,-0.2585217356681824,0.9875872135162354,-0.14153198897838593,-0.8010338544845581,0.24796754121780396,-0.3605602979660034,-0.48674339056015015,-0.03995558246970177,1.1611623764038086,0.4256606996059418,0.8731248378753662,-0.6259109973907471,0.2396164834499359,-2.195219039916992,-0.2342681586742401,0.4766460061073303,-0.02774972654879093,0.6836785078048706,-1.4572449922561646,-0.737773597240448,0.12450713664293289,-1.0935596227645874,-0.32781359553337097,1.3589091300964355,0.5169728994369507,0.24051456153392792
118,0.7545740604400635,-0.5155503749847412,-0.033279553055763245,-0.6738280057907104,-0.58733731508255,1.1655659675598145,-0.46245092153549194,-1.3889178037643433,0.38939598202705383,-1.07060706615448,-0.36097997426986694,0.09979286789894104,0.5181776881217957,-0.8969413042068481,-0.2608921527862549,0.9867275953292847,-0.19839760661125183,-0.7885510921478271,0.23819884657859802,-0.29904526472091675,-0.5122163891792297,-0.03662026673555374,1.1466596126556396,0.4379364252090454,0.8215412497520447,-0.6474770903587341,0.221486434340477,-2.2450413703918457,-0.2754144072532654,0.4920385479927063,0.02624410390853882,0.6896370053291321,-1.4974757432937622,-0.7543820142745972,0.11563500761985779,-1.070620059967041,-0.2599547207355499,1.3018696308135986,0.5065371990203857,0.3309643268585205
119,0.6958271265029907,-0.5665644407272339,-0.0723796933889389,-0.7363463640213013,-0.5715691447257996,1.1515154838562012,-0.4287745952606201,-1.3808491230010986,0.456063449382782,-1.0492521524429321,-0.37445056438446045,0.11628815531730652,0.5965666174888611,-0.8817421197891235,-0.2619185447692871,0.9918308854103088,-0.14137640595436096,-0.7998794317245483,0.24389928579330444,-0.3581153154373169,-0.4866520166397095,-0.04469567909836769,1.1637647151947021,0.42722246050834656,0.8884323835372925,-0.619320273399353,0.2483806163072586,-2.1999218463897705,-0.24069221317768097,0.47429320216178894,-0.03313877433538437,0.6883702278137207,-1.4521398544311523,-0.735666036605835,0.11934315413236618,-1.0970977544784546,-0.3244745135307312,1.3608945608139038,0.5114239454269409,0.2351919412612915
