,0,1,2,3,4,5,6,7,8,9,10,11,12,13,14,15,16,17,18,19,20,21,22,23,24,25,26,27,28,29,30,31,32,33,34,35,36,37,38,39
0,-0.4277937412261963,0.35810256004333496,-0.15278708934783936,0.06750047206878662,-0.3542832136154175,-0.871456503868103,-0.5914586782455444,0.5359622240066528,-0.09184229373931885,0.48360657691955566,-0.9600086212158203,-0.3006596565246582,0.42368435859680176,-0.877759575843811,-0.11423301696777344,0.6471583843231201,0.6154921054840088,-0.17994272708892822,-0.5928777456283569,-0.6553802490234375,-0.32750391960144043,0.9122093915939331,0.9679707288742065,-0.9868690967559814,-0.4712965488433838,-0.8597224950790405,0.5966300964355469,0.8031032085418701,0.9640401601791382,-0.3587459325790405,-0.7764863967895508,-0.05115985870361328,0.43369877338409424,-0.32273566722869873,0.26743757724761963,0.3488466739654541,0.47593939304351807,-0.18971431255340576,-0.6916769742965698,-0.9603071212768555
1,-0.37531721591949463,0.3056259751319885,-0.2052636444568634,0.015024041756987572,-0.3018066883087158,-0.8189799785614014,-0.6439352631568909,0.5884387493133545,-0.03936575725674629,0.5360831022262573,-0.9075320959091187,-0.24818311631679535,0.3712078332901001,-0.9302361011505127,-0.061756476759910583,0.5946818590164185,0.5630155205726624,-0.23241926729679108,-0.6453543305397034,-0.6029036641120911,-0.3799804449081421,0.8597328662872314,0.9154942035675049,-0.9343925714492798,-0.41882002353668213,-0.912199079990387,0.649106502532959,0.7506268620491028,0.9115635752677917,-0.4112224578857422,-0.7240098118782043,0.0013166889548301697,0.38122227787971497,-0.375212162733078,0.21496103703975677,0.4013231098651886,0.4234628677368164,-0.1372377723455429,-0.7441535592079163,-0.9078305959701538
2,-0.3463725447654724,0.26987409591674805,-0.23913522064685822,-0.01567140966653824,-0.2604929506778717,-0.8500298261642456,-0.670264482498169,0.6007800102233887,0.007099591661244631,0.546294629573822,-0.863033652305603,-0.21400342881679535,0.3359293043613434,-0.9737275838851929,-0.033220075070858,0.5549488663673401,0.5253279209136963,-0.2743135988712311,-0.6697811484336853,-0.5656599402427673,-0.38015368580818176,0.8134381771087646,0.907836377620697,-0.9110864996910095,-0.38224688172340393,-0.9490240216255188,0.6988773345947266,0.7000316977500916,0.8794382214546204,-0.44270339608192444,-0.7025506496429443,0.0343480221927166,0.3347972631454468,-0.37614911794662476,0.1947617083787918,0.3918141722679138,0.3932725787162781,-0.1094118282198906,-0.7683793902397156,-0.8949475884437561
3,-0.32334136962890625,0.23797264695167542,-0.2665797472000122,0.0019251257181167603,-0.22518552839756012,-0.8933498859405518,-0.6887713074684143,0.617716908454895,0.049559030681848526,0.5580398440361023,-0.83485347032547,-0.18688030540943146,0.2981744110584259,-1.0013113021850586,-0.022833319380879402,0.5166947841644287,0.4936555325984955,-0.3106215298175812,-0.6898178458213806,-0.5302366018295288,-0.3629225790500641,0.7741914391517639,0.9151780605316162,-0.8925184607505798,-0.34885573387145996,-0.9821171760559082,0.7380022406578064,0.6581150889396667,0.8515627980232239,-0.46619823575019836,-0.7016770839691162,0.05976971983909607,0.29207274317741394,-0.3670259416103363,0.17579257488250732,0.42406603693962097,0.376495897769928,-0.0825144350528717,-0.7870945930480957,-0.8805826902389526
4,-0.30483123660087585,0.20814619958400726,-0.2916076183319092,0.01115325465798378,-0.19293121993541718,-0.9392893314361572,-0.70249342918396,0.6344379186630249,0.08995098620653152,0.5576971173286438,-0.8174984455108643,-0.16725681722164154,0.25906696915626526,-1.016005039215088,-0.02350086346268654,0.4785572290420532,0.46475687623023987,-0.34480416774749756,-0.704881489276886,-0.49676093459129333,-0.332494854927063,0.7352376580238342,0.9306613206863403,-0.8762925863265991,-0.31585314869880676,-1.0135995149612427,0.7797257900238037,0.6089329123497009,0.8263522386550903,-0.4824354946613312,-0.7143461108207703,0.07807878404855728,0.2510281503200531,-0.3308621346950531,0.1572939157485962,0.4604841470718384,0.37965166568756104,-0.05891669541597366,-0.802969753742218,-0.8632027506828308
5,-0.2903216481208801,0.18005236983299255,-0.31476670503616333,0.04112515226006508,-0.16366101801395416,-0.9857577681541443,-0.7149782180786133,0.658535897731781,0.12807273864746094,0.5542809367179871,-0.8186386823654175,-0.15514898300170898,0.21750818192958832,-1.0161070823669434,-0.03296836093068123,0.4388161897659302,0.43920353055000305,-0.3771470785140991,-0.718341588973999,-0.4643173813819885,-0.2970331311225891,0.6966814398765564,0.9472844004631042,-0.8608015775680542,-0.2842562198638916,-1.0435709953308105,0.8254047632217407,0.5566757321357727,0.7982655763626099,-0.49143457412719727,-0.7322720289230347,0.08916149288415909,0.21443305909633636,-0.28436118364334106,0.13579952716827393,0.5033839344978333,0.3989490866661072,-0.038362644612789154,-0.8139054775238037,-0.8369896411895752
6,-0.2808738946914673,0.15370510518550873,-0.3367162048816681,0.060688234865665436,-0.13933421671390533,-1.0333008766174316,-0.7273851633071899,0.6910437345504761,0.16279394924640656,0.5325621366500854,-0.8364359736442566,-0.1521541178226471,0.1746295988559723,-1.0085698366165161,-0.04684692248702049,0.3977707624435425,0.4165148138999939,-0.40886178612709045,-0.7300752401351929,-0.4348185658454895,-0.2600014805793762,0.6569610238075256,0.9597768783569336,-0.8505836129188538,-0.2536105215549469,-1.0722041130065918,0.8737310171127319,0.5019493103027344,0.7665730118751526,-0.4944937527179718,-0.7483510971069336,0.0923425629734993,0.18327178061008453,-0.2310774177312851,0.10992777347564697,0.535128116607666,0.4261067807674408,-0.024181481450796127,-0.8182209134101868,-0.8066008687019348
7,-0.27558329701423645,0.12989875674247742,-0.35582202672958374,0.09248431026935577,-0.12215891480445862,-1.0786710977554321,-0.7392901182174683,0.7345287799835205,0.19337038695812225,0.5028429627418518,-0.8671209216117859,-0.15685398876667023,0.13044676184654236,-0.9998921155929565,-0.06297731399536133,0.3564656972885132,0.39770230650901794,-0.4397158622741699,-0.7409676313400269,-0.40874093770980835,-0.22503286600112915,0.6181203722953796,0.9660048484802246,-0.8457288146018982,-0.22382588684558868,-1.098583698272705,0.9233167171478271,0.44861096143722534,0.7301273345947266,-0.4940006732940674,-0.7555396556854248,0.08972547203302383,0.16043375432491302,-0.17709286510944366,0.08123578876256943,0.5586170554161072,0.4528321623802185,-0.013968605548143387,-0.8146430253982544,-0.7726879119873047
8,-0.2734576463699341,0.10913070291280746,-0.3711158037185669,0.11044193804264069,-0.11450383067131042,-1.1205592155456543,-0.7490394115447998,0.7833500504493713,0.2194313257932663,0.4647306501865387,-0.903535783290863,-0.1688883900642395,0.0859353169798851,-0.9987058639526367,-0.07849045842885971,0.31634071469306946,0.3830224573612213,-0.47001296281814575,-0.750244677066803,-0.3888256847858429,-0.1924384981393814,0.580844521522522,0.9637981057167053,-0.8504570722579956,-0.1931801289319992,-1.122442603111267,0.9706301093101501,0.3974772095680237,0.6920409798622131,-0.4926798343658447,-0.7496325373649597,0.08336800336837769,0.14552734792232513,-0.12293943017721176,0.05077250674366951,0.5653466582298279,0.4738624691963196,-0.005940732546150684,-0.8059704303741455,-0.7407755255699158
9,-0.2715582847595215,0.09256599843502045,-0.3804350197315216,0.1514485627412796,-0.11595374345779419,-1.1571910381317139,-0.7561620473861694,0.8342059254646301,0.24165663123130798,0.43068212270736694,-0.9438171982765198,-0.1853044331073761,0.04089362174272537,-1.004314661026001,-0.09301013499498367,0.2777193784713745,0.37384122610092163,-0.49897298216819763,-0.7587786316871643,-0.3757142424583435,-0.1619858741760254,0.5467291474342346,0.9547368288040161,-0.8626198172569275,-0.16143189370632172,-1.1430290937423706,1.014002799987793,0.35210177302360535,0.6537548899650574,-0.4922373294830322,-0.730903685092926,0.07636460661888123,0.138894185423851,-0.07148829847574234,0.023391272872686386,0.5717217922210693,0.4851558208465576,0.004340933635830879,-0.7944530844688416,-0.7105574011802673
10,-0.2700708508491516,0.07928558439016342,-0.3849148750305176,0.16290074586868286,-0.1254049688577652,-1.1899608373641968,-0.7604819536209106,0.879509449005127,0.26021116971969604,0.395860880613327,-0.983417272567749,-0.20580536127090454,-0.003849155269563198,-1.0178817510604858,-0.10582220554351807,0.24123159050941467,0.3694514334201813,-0.5272727012634277,-0.765952467918396,-0.37231650948524475,-0.13115571439266205,0.5150636434555054,0.9382519721984863,-0.8833935856819153,-0.12795591354370117,-1.1607722043991089,1.0510296821594238,0.31075549125671387,0.6186687350273132,-0.4945586621761322,-0.7038754224777222,0.06920352578163147,0.13698719441890717,-0.02219296805560589,-0.0009223856031894684,0.5614730715751648,0.48449259996414185,0.015450507402420044,-0.786270797252655,-0.6872922778129578
11,-0.26751190423965454,0.07038658112287521,-0.3827880620956421,0.22316135466098785,-0.13939706981182098,-1.2183457612991333,-0.7619847655296326,0.9189907908439636,0.27696895599365234,0.3732648193836212,-1.0244210958480835,-0.2256803810596466,-0.04928169772028923,-1.0288174152374268,-0.11937093734741211,0.20652002096176147,0.37093353271484375,-0.5537381768226624,-0.7731205821037292,-0.3754170536994934,-0.0999433621764183,0.48673200607299805,0.9229663014411926,-0.9029098153114319,-0.09426946192979813,-1.1744741201400757,1.082371711730957,0.2790122926235199,0.5863045454025269,-0.4992271065711975,-0.6731519103050232,0.06401655822992325,0.14096976816654205,0.02241818606853485,-0.015161736868321896,0.5673092603683472,0.47262129187583923,0.029767446219921112,-0.7787787318229675,-0.6647972464561462
12,-0.2685021162033081,0.06181381270289421,-0.37870413064956665,0.20612171292304993,-0.15774193406105042,-1.2454982995986938,-0.7611675262451172,0.9443075656890869,0.29058587551116943,0.34326738119125366,-1.0578111410140991,-0.24743986129760742,-0.09389913082122803,-1.0444339513778687,-0.13249728083610535,0.17477017641067505,0.3754473328590393,-0.5802841186523438,-0.7785854935646057,-0.38795703649520874,-0.06538236141204834,0.46009159088134766,0.9026848673820496,-0.9251760244369507,-0.06024147570133209,-1.185656189918518,1.1070072650909424,0.24853093922138214,0.5600336194038391,-0.5086304545402527,-0.6425133347511292,0.05759027227759361,0.14577744901180267,0.06441208720207214,-0.02800816297531128,0.538070797920227,0.4506184160709381,0.040914926677942276,-0.7810943126678467,-0.6546019315719604
13,-0.26811426877975464,0.05794250965118408,-0.36741378903388977,0.2871522009372711,-0.17669889330863953,-1.2680432796478271,-0.7576895356178284,0.9662947058677673,0.3045809864997864,0.33618298172950745,-1.096741795539856,-0.2625136971473694,-0.14038164913654327,-1.0425598621368408,-0.14985758066177368,0.14507946372032166,0.3855006694793701,-0.6033596992492676,-0.7854622602462769,-0.4003817141056061,-0.03284395858645439,0.4368197023868561,0.8951926827430725,-0.9342831969261169,-0.028054852038621902,-1.1911379098892212,1.1267365217208862,0.23404499888420105,0.536258339881897,-0.5182419419288635,-0.6135181784629822,0.0545390285551548,0.158131405711174,0.10175174474716187,-0.02575431391596794,0.5673505663871765,0.4241762161254883,0.05599862337112427,-0.7789824604988098,-0.6368880867958069
14,-0.27548155188560486,0.049823783338069916,-0.35897383093833923,0.24928715825080872,-0.19972121715545654,-1.2923099994659424,-0.7520796656608582,0.9699626564979553,0.3141113519668579,0.2938403785228729,-1.1145575046539307,-0.28080764412879944,-0.18469056487083435,-1.060354232788086,-0.16368910670280457,0.1208442896604538,0.39509040117263794,-0.6285613179206848,-0.787514328956604,-0.42137813568115234,0.004542514681816101,0.41305020451545715,0.8753647208213806,-0.9489043354988098,0.003858420066535473,-1.195572853088379,1.1425366401672363,0.2114320993423462,0.5208826065063477,-0.5361196994781494,-0.5900111198425293,0.048013247549533844,0.16704925894737244,0.13678038120269775,-0.0318898968398571,0.5166680216789246,0.3925745487213135,0.059655070304870605,-0.7909473776817322,-0.6470998525619507
15,-0.27775880694389343,0.04709707200527191,-0.34221217036247253,0.32441428303718567,-0.2193574756383896,-1.307280421257019,-0.7461643815040588,0.9844658970832825,0.3244098126888275,0.3070574998855591,-1.158410906791687,-0.28836962580680847,-0.2330147624015808,-1.0391827821731567,-0.18696893751621246,0.09629722684621811,0.4091682732105255,-0.6466962099075317,-0.7937759160995483,-0.4359405040740967,0.03364838659763336,0.39400342106819153,0.8744536638259888,-0.9441493153572083,0.0316028818488121,-1.1917364597320557,1.1533232927322388,0.21055980026721954,0.5060636401176453,-0.5479918718338013,-0.5669779777526855,0.04554992541670799,0.18609361350536346,0.17292146384716034,-0.020682910457253456,0.5770513415336609,0.36393269896507263,0.07370307296514511,-0.7959625720977783,-0.6322739720344543
16,-0.2890602946281433,0.03865642100572586,-0.33126604557037354,0.2926175594329834,-0.24497032165527344,-1.3269134759902954,-0.7332333922386169,0.9753504991531372,0.3307070732116699,0.24806225299835205,-1.1636635065078735,-0.3015074133872986,-0.27642905712127686,-1.067684531211853,-0.19978831708431244,0.0815553218126297,0.4200025796890259,-0.6696009039878845,-0.7893529534339905,-0.4579757750034332,0.07021645456552505,0.3702062666416168,0.8605794906616211,-0.9507776498794556,0.06011374294757843,-1.1886767148971558,1.1628267765045166,0.19400432705879211,0.4999670386314392,-0.5741633772850037,-0.5554909706115723,0.03969039022922516,0.19739331305027008,0.20347684621810913,-0.02265101857483387,0.52915358543396,0.3314579129219055,0.06563101708889008,-0.8075255751609802,-0.664132297039032
17,-0.29314181208610535,0.033796526491642,-0.3120861351490021,0.3462880551815033,-0.263331800699234,-1.3305901288986206,-0.7266324758529663,0.9919936656951904,0.3356885313987732,0.27335959672927856,-1.217225432395935,-0.30459797382354736,-0.325966477394104,-1.0399056673049927,-0.22621260583400726,0.0611247643828392,0.4327321946620941,-0.682928204536438,-0.79268878698349,-0.4726370573043823,0.09235332161188126,0.35310330986976624,0.8574432730674744,-0.9382621645927429,0.08224362134933472,-1.175696611404419,1.1676039695739746,0.19926480948925018,0.49467337131500244,-0.5876891613006592,-0.5398043990135193,0.03699241578578949,0.21807686984539032,0.2430981993675232,-0.01074740756303072,0.596289873123169,0.306569367647171,0.07495204359292984,-0.8209951519966125,-0.6567630767822266
18,-0.3052802085876465,0.02548694610595703,-0.2986072301864624,0.3250662386417389,-0.28885284066200256,-1.339822769165039,-0.7061848640441895,0.979369580745697,0.33987751603126526,0.21831846237182617,-1.226789951324463,-0.3140418529510498,-0.3685093820095062,-1.0737199783325195,-0.23993222415447235,0.05243192985653877,0.44186827540397644,-0.7011054754257202,-0.7830643057823181,-0.49182480573654175,0.12367525696754456,0.32767078280448914,0.8541157245635986,-0.9396088719367981,0.10587525367736816,-1.163915753364563,1.1700555086135864,0.1891791969537735,0.49525007605552673,-0.6187202334403992,-0.5373425483703613,0.031035710126161575,0.23042793571949005,0.27340757846832275,-0.009527349844574928,0.5712524652481079,0.2772544324398041,0.05699893832206726,-0.8288177847862244,-0.7010132074356079
19,-0.31156864762306213,0.01813996210694313,-0.2781161069869995,0.35789626836776733,-0.30638307332992554,-1.330438494682312,-0.6972426772117615,1.0022532939910889,0.34098386764526367,0.23855485022068024,-1.2853158712387085,-0.31687209010124207,-0.41706743836402893,-1.0562617778778076,-0.2656574547290802,0.03550786152482033,0.4500522315502167,-0.7109217047691345,-0.7818894386291504,-0.5059203505516052,0.13795369863510132,0.30881884694099426,0.8499670028686523,-0.9236653447151184,0.12283384054899216,-1.143044352531433,1.170568585395813,0.19763663411140442,0.4996732175350189,-0.635614275932312,-0.5300593972206116,0.02810446172952652,0.24892592430114746,0.3146151006221771,-0.0004069551359862089,0.631152331829071,0.2555145025253296,0.056895770132541656,-0.8449128866195679,-0.7070307731628418
20,-0.323821485042572,0.010296170599758625,-0.26168692111968994,0.34605205059051514,-0.32940763235092163,-1.325029730796814,-0.6730743646621704,0.9956552982330322,0.3445785343647003,0.19945625960826874,-1.3098698854446411,-0.32503265142440796,-0.4589112401008606,-1.0876939296722412,-0.2812004089355469,0.02761540748178959,0.455807626247406,-0.7230303287506104,-0.7718747854232788,-0.5217094421386719,0.15954387187957764,0.2809087932109833,0.8563472628593445,-0.9233285784721375,0.14100337028503418,-1.122251033782959,1.1641637086868286,0.1958925575017929,0.5069980025291443,-0.6679486036300659,-0.5294097661972046,0.021336006000638008,0.2614050507545471,0.34673795104026794,0.0012812066124752164,0.6278376579284668,0.23022836446762085,0.03277400881052017,-0.8527826070785522,-0.7557026147842407
21,-0.3320440351963043,0.0020338823087513447,-0.24017074704170227,0.3631594181060791,-0.3456295132637024,-1.3036361932754517,-0.6604825258255005,1.029224157333374,0.3451747000217438,0.2084292620420456,-1.3700830936431885,-0.3299828767776489,-0.5045557618141174,-1.081813097000122,-0.3048889935016632,0.0128160510212183,0.4589730501174927,-0.7299239635467529,-0.768487811088562,-0.5351088047027588,0.16546109318733215,0.25816333293914795,0.857526957988739,-0.9084711074829102,0.1540953516960144,-1.0949456691741943,1.158913016319275,0.20849141478538513,0.520971953868866,-0.6890484690666199,-0.5264558792114258,0.017306523397564888,0.2769858241081238,0.38614338636398315,0.0049680182710289955,0.6741264462471008,0.20923934876918793,0.02361733466386795,-0.8679044842720032,-0.7742927074432373
22,-0.34288865327835083,-0.004482057876884937,-0.22119063138961792,0.3577646315097809,-0.36428889632225037,-1.2853238582611084,-0.6357244253158569,1.037021279335022,0.35077470541000366,0.18350201845169067,-1.4076331853866577,-0.3378797471523285,-0.544580340385437,-1.1057425737380981,-0.3206551671028137,0.003411130979657173,0.4617408514022827,-0.7365153431892395,-0.7628957629203796,-0.5484817624092102,0.17469185590744019,0.22822041809558868,0.8724157810211182,-0.911546528339386,0.16857978701591492,-1.0668847560882568,1.1416031122207642,0.21619629859924316,0.5361050367355347,-0.7213147878646851,-0.5202155709266663,0.008536971174180508,0.28997036814689636,0.41793984174728394,0.003027284285053611,0.6816463470458984,0.18649140000343323,-0.0017326250672340393,-0.8770824074745178,-0.8234381079673767
23,-0.34913235902786255,-0.011720292270183563,-0.1988697201013565,0.36510059237480164,-0.3773544132709503,-1.2569197416305542,-0.6201813220977783,1.0847972631454468,0.3547336757183075,0.18211981654167175,-1.4674181938171387,-0.3440011143684387,-0.5857037305831909,-1.1026756763458252,-0.3417527675628662,-0.009442677721381187,0.46186232566833496,-0.7409676909446716,-0.7619177103042603,-0.5613202452659607,0.1709972769021988,0.20289543271064758,0.8827386498451233,-0.9018405079841614,0.1809341013431549,-1.0351719856262207,1.128124713897705,0.23456908762454987,0.5588106513023376,-0.7461786270141602,-0.5141831636428833,0.0016987060662359,0.3050846457481384,0.45161083340644836,-0.0013916221214458346,0.7112351655960083,0.1652742326259613,-0.013959910720586777,-0.8901644945144653,-0.8484691977500916
24,-0.35397008061408997,-0.016016516834497452,-0.1785518229007721,0.36236652731895447,-0.39045751094818115,-1.2333383560180664,-0.5963447093963623,1.1079421043395996,0.3651633858680725,0.16729453206062317,-1.5109646320343018,-0.35051628947257996,-0.6218412518501282,-1.1171977519989014,-0.35535767674446106,-0.01864171400666237,0.46409162878990173,-0.7440189719200134,-0.7635337114334106,-0.5732064247131348,0.1669647991657257,0.1734829992055893,0.9045847058296204,-0.9104021191596985,0.19624991714954376,-1.0027167797088623,1.100749135017395,0.2502053678035736,0.5815883278846741,-0.7783876061439514,-0.4969985783100128,-0.011061329394578934,0.3214496970176697,0.47784286737442017,-0.009813803248107433,0.7188239693641663,0.14486566185951233,-0.034666143357753754,-0.8987220525741577,-0.8955958485603333
25,-0.3523125648498535,-0.020907210186123848,-0.15606944262981415,0.36443984508514404,-0.39901044964790344,-1.206597924232483,-0.5796692371368408,1.1663553714752197,0.37486228346824646,0.16144676506519318,-1.5698208808898926,-0.3555667996406555,-0.6566593050956726,-1.110265851020813,-0.3739679455757141,-0.027502726763486862,0.4643654525279999,-0.7474676370620728,-0.7674621939659119,-0.58516925573349,0.15294961631298065,0.14949235320091248,0.9236202239990234,-0.9047222137451172,0.212961807847023,-0.9686581492424011,1.0792877674102783,0.2735569179058075,0.6115532517433167,-0.8056833744049072,-0.4841659963130951,-0.022046376019716263,0.34016335010528564,0.5015276074409485,-0.02130548283457756,0.7329257726669312,0.1257076859474182,-0.042617447674274445,-0.9077038168907166,-0.9203693866729736
26,-0.3474026024341583,-0.0225968137383461,-0.13623857498168945,0.3593248128890991,-0.4066928029060364,-1.1876063346862793,-0.5579626560211182,1.1968590021133423,0.3907776176929474,0.15549902617931366,-1.6155756711959839,-0.359869122505188,-0.6863412261009216,-1.1199450492858887,-0.3839684724807739,-0.03278866782784462,0.4684911072254181,-0.7496826648712158,-0.7761915326118469,-0.5953661203384399,0.1371670365333557,0.12394657731056213,0.9485328197479248,-0.9144567847251892,0.23473241925239563,-0.9341508746147156,1.045255184173584,0.2926514148712158,0.6402228474617004,-0.8375116586685181,-0.4563976526260376,-0.03947761654853821,0.362938791513443,0.5182221531867981,-0.03512819483876228,0.7366409301757812,0.10941504687070847,-0.05438971891999245,-0.9132723212242126,-0.9641733169555664
27,-0.33574753999710083,-0.024259770289063454,-0.11479170620441437,0.359720915555954,-0.4110633432865143,-1.1717250347137451,-0.5421428680419922,1.2577162981033325,0.4049519896507263,0.14927919209003448,-1.6759700775146484,-0.3630937337875366,-0.7124857306480408,-1.1068918704986572,-0.40166041254997253,-0.034988269209861755,0.4705514907836914,-0.7544081807136536,-0.7845926284790039,-0.605070173740387,0.11527801305055618,0.10502675175666809,0.9729111194610596,-0.9062473773956299,0.2599453330039978,-0.8990397453308105,1.0169198513031006,0.31756100058555603,0.6747978925704956,-0.8649478554725647,-0.4403204023838043,-0.053214676678180695,0.3870067298412323,0.5304168462753296,-0.04805678501725197,0.7416905760765076,0.09574416279792786,-0.053804948925971985,-0.91530442237854,-0.9841681718826294
28,-0.32258012890815735,-0.023416705429553986,-0.09768201410770416,0.3447088599205017,-0.4144194424152374,-1.1639984846115112,-0.5233538150787354,1.2838603258132935,0.4235818684101105,0.15034355223178864,-1.7223457098007202,-0.36562153697013855,-0.7329940795898438,-1.121273398399353,-0.40671253204345703,-0.033570725470781326,0.4764314889907837,-0.758072018623352,-0.7999423742294312,-0.6124982237815857,0.09262815862894058,0.08513092994689941,0.9924554228782654,-0.9113606214523315,0.2905237078666687,-0.863867461681366,0.9793157577514648,0.3333171010017395,0.7051921486854553,-0.8951203227043152,-0.4050160050392151,-0.07359625399112701,0.41578051447868347,0.5390103459358215,-0.06629016250371933,0.7449187636375427,0.0839868038892746,-0.05550181120634079,-0.919601559638977,-1.0259836912155151
29,-0.3034032881259918,-0.020772043615579605,-0.07807093858718872,0.35419055819511414,-0.41681644320487976,-1.1647262573242188,-0.5081429481506348,1.3397923707962036,0.4376732110977173,0.14247402548789978,-1.7863706350326538,-0.36643150448799133,-0.7479289770126343,-1.0970423221588135,-0.42657598853111267,-0.026873305439949036,0.4793524742126465,-0.7660978436470032,-0.8100870847702026,-0.6179646253585815,0.06975684314966202,0.0734027847647667,1.0200181007385254,-0.8935454487800598,0.32312649488449097,-0.8286094069480896,0.9447065591812134,0.3562583923339844,0.7399700284004211,-0.9201315641403198,-0.39413967728614807,-0.085160031914711,0.44229656457901,0.5419910550117493,-0.07110591232776642,0.7485973238945007,0.07924376428127289,-0.04665878787636757,-0.9098660945892334,-1.0377146005630493
30,-0.2871788740158081,-0.01912330836057663,-0.06602932512760162,0.3131842613220215,-0.4162535071372986,-1.165981411933899,-0.49234485626220703,1.3505241870880127,0.4547185003757477,0.15018165111541748,-1.8277424573898315,-0.36732128262519836,-0.7577080726623535,-1.1341205835342407,-0.4212755560874939,-0.018174266442656517,0.48425909876823425,-0.7715262770652771,-0.8331891298294067,-0.6230444312095642,0.04633503779768944,0.05837744474411011,1.0182499885559082,-0.8940439820289612,0.3589470684528351,-0.7942144274711609,0.9104650020599365,0.3598071336746216,0.7653611898422241,-0.9471614956855774,-0.34959056973457336,-0.10672672092914581,0.47394511103630066,0.5488207340240479,-0.10283181816339493,0.7555801272392273,0.0674537867307663,-0.039410460740327835,-0.9242050647735596,-1.0824693441390991
31,-0.26232391595840454,-0.009871866554021835,-0.04677712172269821,0.3646003007888794,-0.4214255213737488,-1.1868617534637451,-0.47430479526519775,1.3989909887313843,0.4638921022415161,0.13762034475803375,-1.8966007232666016,-0.36291569471359253,-0.7597454786300659,-1.0779238939285278,-0.4516019821166992,-0.0012386443559080362,0.4873802661895752,-0.7838077545166016,-0.8357123732566833,-0.6222015023231506,0.032966356724500656,0.05590350180864334,1.06082022190094,-0.8613843321800232,0.3928094804286957,-0.7599799633026123,0.869757890701294,0.38335704803466797,0.7962399125099182,-0.9673875570297241,-0.3594736158847809,-0.10756760835647583,0.4965227246284485,0.5446323752403259,-0.07688241451978683,0.7599456310272217,0.08065886795520782,-0.027883945032954216,-0.88600093126297,-1.0784690380096436
32,-0.2502036690711975,-0.013820445165038109,-0.0433807373046875,0.26975613832473755,-0.41169342398643494,-1.1811479330062866,-0.46491119265556335,1.3883881568908691,0.4777202010154724,0.15750154852867126,-1.919895887374878,-0.364056259393692,-0.7608798146247864,-1.1654629707336426,-0.4210176169872284,0.011295335367321968,0.48673534393310547,-0.7880224585533142,-0.8736323714256287,-0.6302005052566528,0.007380713243037462,0.04112739488482475,1.009804606437683,-0.8686532378196716,0.4277689456939697,-0.72881680727005,0.8579813838005066,0.36028432846069336,0.808832049369812,-0.9908239841461182,-0.2916756868362427,-0.1344967782497406,0.530225932598114,0.5586124062538147,-0.15534251928329468,0.7703068256378174,0.04974452033638954,-0.011615428142249584,-0.941322922706604,-1.1361541748046875
33,-0.21823836863040924,0.007125162053853273,-0.019697580486536026,0.3697492182254791,-0.4305460453033447,-1.2318443059921265,-0.43820875883102417,1.4330147504806519,0.4785597026348114,0.13305296003818512,-1.9944080114364624,-0.3501749634742737,-0.7498450875282288,-1.0650290250778198,-0.47880953550338745,0.037494316697120667,0.49475088715553284,-0.8043293952941895,-0.8469864130020142,-0.6201106309890747,0.020794793963432312,0.05239401385188103,1.0898756980895996,-0.8174428343772888,0.4565267860889435,-0.6965779662132263,0.8036966919898987,0.3997868001461029,0.8377043008804321,-1.004776954650879,-0.34275129437446594,-0.11379460245370865,0.5396612286567688,0.5494927167892456,-0.07210387289524078,0.7678056955337524,0.10356991738080978,-0.006694008596241474,-0.8542989492416382,-1.1057710647583008
34,-0.21452373266220093,-0.0045916298404335976,-0.02752266824245453,0.26814085245132446,-0.4025418162345886,-1.2013288736343384,-0.4388868510723114,1.3997156620025635,0.4920177161693573,0.17344354093074799,-1.9972091913223267,-0.35507261753082275,-0.7486677169799805,-1.170162558555603,-0.4193793833255768,0.048801228404045105,0.4850080907344818,-0.8047111630439758,-0.9053735733032227,-0.6330741047859192,-0.024870622903108597,0.031482961028814316,1.0033199787139893,-0.8391082286834717,0.4859672784805298,-0.6709820032119751,0.8320019245147705,0.34159862995147705,0.8314062356948853,-1.0250575542449951,-0.25181159377098083,-0.14932598173618317,0.5792050957679749,0.5685790777206421,-0.17892879247665405,0.7912302017211914,0.03452084958553314,0.01315291691571474,-0.9367900490760803,-1.1743980646133423
35,-0.18275097012519836,0.017871228978037834,-0.002127618994563818,0.3418636620044708,-0.43166854977607727,-1.2692499160766602,-0.4130578637123108,1.451859474182129,0.48512786626815796,0.13094386458396912,-2.055283308029175,-0.33712130784988403,-0.7281082272529602,-1.0842078924179077,-0.4839986562728882,0.07919459789991379,0.4956381320953369,-0.8206707239151001,-0.8627351522445679,-0.6233336925506592,0.020488310605287552,0.05193931236863136,1.0752534866333008,-0.7830469608306885,0.5063762068748474,-0.6421502232551575,0.7752520442008972,0.3895941376686096,0.8604103922843933,-1.0361547470092773,-0.3103381395339966,-0.11562449485063553,0.5720294117927551,0.565240740776062,-0.1069180890917778,0.7650061249732971,0.10997235774993896,0.017674164846539497,-0.8595407009124756,-1.1400612592697144
36,-0.17808659374713898,0.012324145995080471,-0.01064757164567709,0.2819332182407379,-0.40316712856292725,-1.242552399635315,-0.41525912284851074,1.4001878499984741,0.49348801374435425,0.1733902096748352,-2.0624608993530273,-0.3383048176765442,-0.7239596843719482,-1.1562339067459106,-0.4369557201862335,0.09145347774028778,0.4843205213546753,-0.8224728107452393,-0.9094582796096802,-0.6296567320823669,-0.029137426987290382,0.03341864421963692,1.0131207704544067,-0.7973147630691528,0.5257369875907898,-0.6204095482826233,0.8097201585769653,0.3293300271034241,0.8426093459129333,-1.0478219985961914,-0.23719140887260437,-0.14590907096862793,0.6071159839630127,0.5774649977684021,-0.18221570551395416,0.7991947531700134,0.04660080373287201,0.02268858253955841,-0.9080665707588196,-1.1945770978927612
37,-0.15017786622047424,0.026298318058252335,0.009139150381088257,0.3181980848312378,-0.4262869656085968,-1.29584538936615,-0.4041329026222229,1.4508775472640991,0.4833884537220001,0.12929825484752655,-2.097435235977173,-0.32514047622680664,-0.7022891640663147,-1.1031458377838135,-0.48176735639572144,0.11781872063875198,0.4892502725124359,-0.834394633769989,-0.8781028985977173,-0.6266158223152161,0.013349969871342182,0.05184080824255943,1.053929090499878,-0.7534562945365906,0.5388925671577454,-0.5962308645248413,0.7775697708129883,0.3569742739200592,0.8627612590789795,-1.054970383644104,-0.27079105377197266,-0.11879146844148636,0.5964958667755127,0.5822152495384216,-0.14292766153812408,0.764610230922699,0.1012391448020935,0.031971752643585205,-0.8635062575340271,-1.173880934715271
38,-0.14216747879981995,0.026233499869704247,0.005023745819926262,0.2868812680244446,-0.4074016511440277,-1.283454179763794,-0.40799668431282043,1.405867099761963,0.48641133308410645,0.15766967833042145,-2.104980707168579,-0.3220294415950775,-0.6939724087715149,-1.146102786064148,-0.45475316047668457,0.13177822530269623,0.4812472462654114,-0.8383605480194092,-0.9056122899055481,-0.6282491087913513,-0.020061088725924492,0.039450619369745255,1.0151405334472656,-0.7564380168914795,0.5494011640548706,-0.5780825614929199,0.8039770126342773,0.30912870168685913,0.8453762531280518,-1.0623146295547485,-0.21821480989456177,-0.13756436109542847,0.618344247341156,0.5881453156471252,-0.1908400058746338,0.7897002696990967,0.060647379606962204,0.02568787895143032,-0.8861318826675415,-1.213531255722046
39,-0.11814472079277039,0.03498400002717972,0.0207211934030056,0.30500784516334534,-0.4240880012512207,-1.3211935758590698,-0.40864527225494385,1.4448189735412598,0.4754265248775482,0.12213180959224701,-2.128748893737793,-0.3120856285095215,-0.6743862628936768,-1.112062692642212,-0.48628970980644226,0.15215978026390076,0.48263731598854065,-0.8474244475364685,-0.8839144706726074,-0.6278930306434631,0.010099217295646667,0.05341639742255211,1.03701913356781,-0.7237712740898132,0.5568754076957703,-0.5589739680290222,0.7907594442367554,0.31908297538757324,0.8567911982536316,-1.0648365020751953,-0.23204264044761658,-0.11883606761693954,0.6065115928649902,0.5971294045448303,-0.1702990084886551,0.7608844637870789,0.09611804038286209,0.03368549421429634,-0.8591061234474182,-1.2023251056671143
40,-0.10873501002788544,0.03699842467904091,0.020510226488113403,0.2874996066093445,-0.4127800762653351,-1.3164552450180054,-0.4155074656009674,1.4115251302719116,0.47531095147132874,0.1380426287651062,-2.1338212490081787,-0.30724915862083435,-0.6641007661819458,-1.13837730884552,-0.4723007380962372,0.16592246294021606,0.47790971398353577,-0.8522859215736389,-0.8988164663314819,-0.6278622150421143,-0.011773704551160336,0.04470648989081383,1.0104538202285767,-0.720542311668396,0.5618962645530701,-0.5449427962303162,0.8125385046005249,0.28006449341773987,0.8419040441513062,-1.0702946186065674,-0.19024284183979034,-0.12969186902046204,0.6169902086257935,0.5997576117515564,-0.20373360812664032,0.77562415599823,0.06990636140108109,0.022942248731851578,-0.8697224259376526,-1.2329652309417725
41,-0.08764240890741348,0.04307693615555763,0.03457968682050705,0.29793182015419006,-0.42620235681533813,-1.3441061973571777,-0.423488587141037,1.441882848739624,0.4640938639640808,0.10912669450044632,-2.1521737575531006,-0.29858681559562683,-0.6467200517654419,-1.1134365797042847,-0.4972726106643677,0.1820995956659317,0.4786599278450012,-0.8597806692123413,-0.8820415139198303,-0.6280475854873657,0.009430046193301678,0.05490897223353386,1.0226837396621704,-0.6948967576026917,0.5659716725349426,-0.5306664109230042,0.8090528845787048,0.2805192172527313,0.8480775952339172,-1.0693511962890625,-0.19222992658615112,-0.11617026478052139,0.6031081080436707,0.6096585392951965,-0.19233818352222443,0.7530817985534668,0.09434616565704346,0.028298141434788704,-0.8507719039916992,-1.227410912513733
42,-0.07795973122119904,0.04545134678483009,0.0372924730181694,0.2868582606315613,-0.41984862089157104,-1.342162013053894,-0.432888925075531,1.417104959487915,0.46205395460128784,0.11776719987392426,-2.1555778980255127,-0.2928788959980011,-0.6360809206962585,-1.1308008432388306,-0.49058493971824646,0.19510307908058167,0.4766135513782501,-0.8648828268051147,-0.8897544145584106,-0.6273009777069092,-0.006498873233795166,0.04768966883420944,1.0022486448287964,-0.6891082525253296,0.568302571773529,-0.5208320617675781,0.8282651305198669,0.24670395255088806,0.8350626230239868,-1.0732501745224,-0.15539729595184326,-0.12300551682710648,0.6056289076805115,0.6102662682533264,-0.21835778653621674,0.7616678476333618,0.07554960250854492,0.016170188784599304,-0.8559889197349548,-1.2532421350479126
43,-0.058842916041612625,0.04973964765667915,0.05099981278181076,0.29387572407722473,-0.43200865387916565,-1.363532304763794,-0.44487646222114563,1.4431805610656738,0.45053961873054504,0.09250765293836594,-2.1713829040527344,-0.28441914916038513,-0.6205073595046997,-1.1102468967437744,-0.5123463273048401,0.20917381346225739,0.4780997633934021,-0.8714982867240906,-0.8752990365028381,-0.6272815465927124,0.00906203594058752,0.05505555495619774,1.0097755193710327,-0.6674267649650574,0.5709496140480042,-0.5110332369804382,0.8290631175041199,0.2425917237997055,0.8384914398193359,-1.0701566934585571,-0.15077626705169678,-0.1124783605337143,0.5897210240364075,0.6194917559623718,-0.21142253279685974,0.743836522102356,0.0939730554819107,0.019621584564447403,-0.8408240079879761,-1.2508690357208252
44,-0.04939556121826172,0.051652148365974426,0.05569712445139885,0.2857469916343689,-0.42881718277931213,-1.3621939420700073,-0.45567044615745544,1.4235785007476807,0.44714775681495667,0.09751380980014801,-2.1741018295288086,-0.27786657214164734,-0.6102825999259949,-1.1230206489562988,-0.5092776417732239,0.2218347042798996,0.4782106280326843,-0.8765866160392761,-0.8788212537765503,-0.6260930895805359,-0.003937096800655127,0.048159193247556686,0.992523729801178,-0.6608776450157166,0.5724064707756042,-0.505207359790802,0.8462026715278625,0.21174243092536926,0.82666015625,-1.0729814767837524,-0.11627016961574554,-0.11761908233165741,0.5873944759368896,0.618355393409729,-0.23349638283252716,0.7493859529495239,0.07883413881063461,0.007284213323146105,-0.8436914086341858,-1.274476170539856
45,-0.03157610818743706,0.05442187562584877,0.06950115412473679,0.2912362217903137,-0.44061461091041565,-1.3798243999481201,-0.46955758333206177,1.4482747316360474,0.43501830101013184,0.07395617663860321,-2.1890311241149902,-0.26896077394485474,-0.5961220264434814,-1.1045727729797363,-0.5293189883232117,0.23529046773910522,0.4807562828063965,-0.8826649785041809,-0.865398645401001,-0.6256392598152161,0.008256921544671059,0.053553927689790726,0.9979597926139832,-0.6411369442939758,0.5748705267906189,-0.49945032596588135,0.8482117056846619,0.2056417167186737,0.8288521766662598,-1.0687804222106934,-0.10838819295167923,-0.10889279097318649,0.5702433586120605,0.6263296008110046,-0.22861573100090027,0.7350538969039917,0.0940144881606102,0.009747399017214775,-0.8303919434547424,-1.27361261844635
46,-0.022695209830999374,0.05550343543291092,0.0753420814871788,0.28436264395713806,-0.4393126964569092,-1.378310203552246,-0.4806782603263855,1.431260585784912,0.4305734932422638,0.07764647901058197,-2.191554069519043,-0.26144176721572876,-0.5866572260856628,-1.1153146028518677,-0.5275022387504578,0.24805819988250732,0.4824336767196655,-0.8876101970672607,-0.8663883209228516,-0.6241344809532166,-0.003250828478485346,0.046463292092084885,0.9823892712593079,-0.6345582604408264,0.5764307975769043,-0.49727538228034973,0.863357663154602,0.17632152140140533,0.8176959156990051,-1.0713303089141846,-0.07511156797409058,-0.11368443071842194,0.5657245516777039,0.6234340667724609,-0.2485923022031784,0.7391136288642883,0.0804779976606369,-0.002454986795783043,-0.8325760960578918,-1.2965474128723145
47,-0.005740536376833916,0.05690106749534607,0.08931969851255417,0.28939393162727356,-0.45109376311302185,-1.3940423727035522,-0.4952869415283203,1.4564714431762695,0.41747063398361206,0.05452630668878555,-2.206590175628662,-0.25175657868385315,-0.5736261606216431,-1.0976399183273315,-0.5465801954269409,0.2616942822933197,0.48581942915916443,-0.8932682871818542,-0.8534151911735535,-0.6232051253318787,0.007195908576250076,0.05065624415874481,0.9872488379478455,-0.6153250336647034,0.5793527364730835,-0.4950275719165802,0.8648464679718018,0.16968433558940887,0.8195747137069702,-1.066850185394287,-0.06632116436958313,-0.1060754731297493,0.5483608841896057,0.6301954388618469,-0.24436064064502716,0.7274050712585449,0.09404005110263824,-0.00022043747594580054,-0.8202208876609802,-1.2959011793136597
48,0.002228052821010351,0.05706667900085449,0.09557493031024933,0.2829228937625885,-0.45071008801460266,-1.3921061754226685,-0.5059415698051453,1.4398982524871826,0.41223227977752686,0.058651745319366455,-2.2089457511901855,-0.24324360489845276,-0.5651378631591797,-1.107967495918274,-0.5444267392158508,0.2747015953063965,0.48841583728790283,-0.8979111313819885,-0.8529215455055237,-0.6215066313743591,-0.003529088106006384,0.04313585162162781,0.9724668860435486,-0.6090626120567322,0.5814636945724487,-0.49602043628692627,0.8782044053077698,0.14090679585933685,0.8086649775505066,-1.0700187683105469,-0.03381480276584625,-0.1113484725356102,0.5438248515129089,0.6255211234092712,-0.2633964717388153,0.7304691672325134,0.08078925311565399,-0.012276289984583855,-0.8228278756141663,-1.3192315101623535
49,0.018582195043563843,0.05726291611790657,0.10968601703643799,0.28829827904701233,-0.46262022852897644,-1.407341718673706,-0.5207050442695618,1.4671159982681274,0.3978472054004669,0.035007864236831665,-2.2246549129486084,-0.23270350694656372,-0.5530746579170227,-1.0900143384933472,-0.563163161277771,0.28877729177474976,0.4922099709510803,-0.9030948281288147,-0.8402023911476135,-0.6201260685920715,0.006400170270353556,0.04676475748419762,0.9777423143386841,-0.5892730355262756,0.5851225852966309,-0.4966661036014557,0.8782635927200317,0.1347639411687851,0.8108592629432678,-1.065861701965332,-0.02597692422568798,-0.10433148592710495,0.5270978808403015,0.6315160393714905,-0.25884202122688293,0.7207871079444885,0.09378498792648315,-0.00960786733776331,-0.8108458518981934,-1.3176591396331787
50,0.02520163170993328,0.05660766363143921,0.11573797464370728,0.2816992402076721,-0.46237605810165405,-1.4048038721084595,-0.5303125381469727,1.4489800930023193,0.3921663463115692,0.04124568775296211,-2.226532220840454,-0.22329829633235931,-0.5457905530929565,-1.101081371307373,-0.5595373511314392,0.3018386662006378,0.49510714411735535,-0.9071928858757019,-0.8389663100242615,-0.6183965802192688,-0.003981210291385651,0.03861784562468529,0.9630434513092041,-0.5837070941925049,0.5879642367362976,-0.5002672672271729,0.8903539776802063,0.10578770190477371,0.7997787594795227,-1.0704402923583984,0.006058443337678909,-0.11063893139362335,0.5242013335227966,0.6250903606414795,-0.27781838178634644,0.7227091789245605,0.07977143675088882,-0.021638736128807068,-0.8147208094596863,-1.3423503637313843
51,0.04114334285259247,0.05580774322152138,0.1299680471420288,0.28812357783317566,-0.47454431653022766,-1.4206470251083374,-0.5450536608695984,1.4797050952911377,0.3762502074241638,0.016099920496344566,-2.2432563304901123,-0.21201133728027344,-0.5346285700798035,-1.0817848443984985,-0.5787030458450317,0.3162912130355835,0.49887141585350037,-0.9117317795753479,-0.8265019059181213,-0.6165918111801147,0.006425965577363968,0.0421762578189373,0.9694544672966003,-0.5625553131103516,0.5924592018127441,-0.5031513571739197,0.8885508179664612,0.10107985883951187,0.8028186559677124,-1.0669080018997192,0.011322049424052238,-0.10366103053092957,0.5085147023200989,0.6310620903968811,-0.272123247385025,0.7147954702377319,0.09299681335687637,-0.01790003664791584,-0.8025592565536499,-1.3387137651443481
52,0.04588186368346214,0.05451825261116028,0.1352916657924652,0.28090423345565796,-0.4737798273563385,-1.4171698093414307,-0.5531325340270996,1.4579659700393677,0.3706282377243042,0.02629559487104416,-2.244114637374878,-0.20190373063087463,-0.5288329124450684,-1.0945836305618286,-0.5727032423019409,0.3290235698223114,0.5015591979026794,-0.914972186088562,-0.8250373601913452,-0.6150473356246948,-0.004017821047455072,0.03312058746814728,0.9541109800338745,-0.5583097338676453,0.596100389957428,-0.5087923407554626,0.9002185463905334,0.07123908400535583,0.7911328077316284,-1.0734705924987793,0.04330014809966087,-0.11141400784254074,0.5084167718887329,0.6229027509689331,-0.29185160994529724,0.7149688601493835,0.07724467664957047,-0.030119676142930984,-0.8084163665771484,-1.3658380508422852
53,0.06162972003221512,0.05292917415499687,0.14971663057804108,0.2890567183494568,-0.4864051938056946,-1.4345436096191406,-0.5679424405097961,1.4938600063323975,0.3529565930366516,-0.0016085943207144737,-2.2621121406555176,-0.1900874376296997,-0.5185524225234985,-1.0727609395980835,-0.5933218002319336,0.34365788102149963,0.5049721598625183,-0.9186509847640991,-0.8129158616065979,-0.612794816493988,0.00773844076320529,0.036987971514463425,0.9622337222099304,-0.5351451635360718,0.6014392971992493,-0.5132832527160645,0.896285891532898,0.06894539296627045,0.7955701947212219,-1.0705169439315796,0.04448597878217697,-0.1038280725479126,0.49364084005355835,0.629801869392395,-0.28420644998550415,0.7090510129928589,0.09145432710647583,-0.024665769189596176,-0.7953789830207825,-1.358897089958191
54,0.06390610337257385,0.05120883509516716,0.15384311974048615,0.280627578496933,-0.48452186584472656,-1.429552435874939,-0.5740118622779846,1.4664487838745117,0.3480519652366638,0.01461206004023552,-2.2612667083740234,-0.17951205372810364,-0.5145758986473083,-1.0883253812789917,-0.5841270089149475,0.35562121868133545,0.5070889592170715,-0.9206973910331726,-0.8115055561065674,-0.6117137670516968,-0.0032676805276423693,0.026622718200087547,0.9454366564750671,-0.5331397652626038,0.6059048771858215,-0.5204609036445618,0.9086341857910156,0.0375150665640831,0.7828176021575928,-1.0794062614440918,0.07706592231988907,-0.11336970329284668,0.497100830078125,0.6198201179504395,-0.30554139614105225,0.706409215927124,0.07300664484500885,-0.03740470111370087,-0.8038954734802246,-1.3896735906600952
55,0.07979201525449753,0.04901808500289917,0.16864727437496185,0.29119905829429626,-0.4979061782360077,-1.4492932558059692,-0.5891958475112915,1.5091158151626587,0.3283802568912506,-0.017650792375206947,-2.2808027267456055,-0.16742746531963348,-0.5051540732383728,-1.062698483467102,-0.607426643371582,0.37022918462753296,0.5100159049034119,-0.9233351945877075,-0.7998701333999634,-0.6088870167732239,0.010672716423869133,0.031125102192163467,0.9557745456695557,-0.5073704719543457,0.6120340824127197,-0.5260056853294373,0.9021874070167542,0.03868178650736809,0.7892593741416931,-1.0766465663909912,0.0727689191699028,-0.10447187721729279,0.482646644115448,0.6286959052085876,-0.2950793206691742,0.7034304738044739,0.08905213326215744,-0.029558813199400902,-0.7890994548797607,-1.378086805343628
56,0.079057477414608,0.047021012753248215,0.1711263358592987,0.28084424138069153,-0.49433577060699463,-1.4420106410980225,-0.5926971435546875,1.4743638038635254,0.3249680697917938,0.006649675779044628,-2.277498722076416,-0.15665476024150848,-0.5033304691314697,-1.082171082496643,-0.5942615866661072,0.38105928897857666,0.5113370418548584,-0.9238808751106262,-0.7985398769378662,-0.6086289286613464,-0.001576505252160132,0.018957894295454025,0.9367147088050842,-0.5087339282035828,0.617316484451294,-0.5343438386917114,0.9165138602256775,0.004829005338251591,0.7749808430671692,-1.0880541801452637,0.10679378360509872,-0.116050586104393,0.49012109637260437,0.6166465878486633,-0.3189586102962494,0.6963158249855042,0.06698419153690338,-0.04332013055682182,-0.8009850382804871,-1.413695216178894
57,0.09551504254341125,0.044419609010219574,0.18658553063869476,0.29450416564941406,-0.5088784098625183,-1.4648780822753906,-0.6087632179260254,1.5245587825775146,0.30302682518959045,-0.03150629252195358,-2.2988927364349365,-0.1445213258266449,-0.494720458984375,-1.0515375137329102,-0.6214153170585632,0.3954310417175293,0.5138734579086304,-0.9254012703895569,-0.7876225113868713,-0.6049588918685913,0.015423757024109364,0.02442815527319908,0.9496703147888184,-0.47981056571006775,0.6241349577903748,-0.5404863357543945,0.9068593382835388,0.010511046275496483,0.7840049862861633,-1.0847973823547363,0.09587781876325607,-0.10526318848133087,0.4751708209514618,0.6284674406051636,-0.3047598600387573,0.6981855630874634,0.08584887534379959,-0.03232908621430397,-0.7834249138832092,-1.3963122367858887
58,0.09139274060726166,0.04217568784952164,0.18697452545166016,0.28147777915000916,-0.5030965209007263,-1.4544997215270996,-0.6090043187141418,1.4822540283203125,0.30189579725265503,0.0021070430520921946,-2.292365789413452,-0.1339118331670761,-0.4953075647354126,-1.0759830474853516,-0.6037653088569641,0.4049837291240692,0.5142401456832886,-0.9242083430290222,-0.7861376404762268,-0.6059776544570923,0.0009954284178093076,0.009945002384483814,0.9277771711349487,-0.48564091324806213,0.6301600337028503,-0.5497743487358093,0.9245907664299011,-0.026593443006277084,0.7678722143173218,-1.0989172458648682,0.13201312720775604,-0.11882393062114716,0.48676764965057373,0.6140460968017578,-0.3321360647678375,0.684198260307312,0.05932443588972092,-0.04788936302065849,-0.7993987798690796,-1.4373526573181152
59,0.10879158228635788,0.03942783549427986,0.2033938616514206,0.2986946403980255,-0.5192359089851379,-1.4810010194778442,-0.6266904473304749,1.5386232137680054,0.2774720788002014,-0.04230198636651039,-2.3160171508789062,-0.12176806479692459,-0.48747918009757996,-1.039613962173462,-0.6353440284729004,0.4187813699245453,0.5167403221130371,-0.9246839880943298,-0.7763048410415649,-0.6010631918907166,0.022038597613573074,0.016743579879403114,0.9434512853622437,-0.45322757959365845,0.6375553607940674,-0.5561136603355408,0.9107396602630615,-0.01554287038743496,0.779795229434967,-1.0941616296768188,0.11410583555698395,-0.10607747733592987,0.47069475054740906,0.6294024586677551,-0.3133420944213867,0.6938246488571167,0.0820273831486702,-0.03281191736459732,-0.7781491279602051,-1.4139267206192017
60,0.10128821432590485,0.036774393171072006,0.20131833851337433,0.2825157344341278,-0.5108247995376587,-1.4670610427856445,-0.6228071451187134,1.4911750555038452,0.2792535722255707,-0.0002966079628095031,-2.3055384159088135,-0.11189765483140945,-0.49052664637565613,-1.0695059299468994,-0.6134815812110901,0.4273076355457306,0.5159497261047363,-0.9215989708900452,-0.7742420434951782,-0.603850245475769,0.0042133452370762825,-0.000475690932944417,0.9187840223312378,-0.46422845125198364,0.6441033482551575,-0.5663235783576965,0.9332127571105957,-0.05638958513736725,0.761850118637085,-1.1113890409469604,0.15217897295951843,-0.12088045477867126,0.4858930706977844,0.612490177154541,-0.3449450433254242,0.6700124740600586,0.05040806904435158,-0.05138267204165459,-0.7987197041511536,-1.459612488746643
61,0.11965638399124146,0.03424980863928795,0.21889881789684296,0.3031802177429199,-0.5289179682731628,-1.4970712661743164,-0.6431538462638855,1.5496268272399902,0.25234493613243103,-0.048951949924230576,-2.331939697265625,-0.09944552183151245,-0.4835725724697113,-1.0277358293533325,-0.6487800478935242,0.43984630703926086,0.518995463848114,-0.9212594628334045,-0.7659553289413452,-0.5972849726676941,0.030381513759493828,0.007973544299602509,0.936648964881897,-0.42852410674095154,0.6520010828971863,-0.5724282264709473,0.9142562747001648,-0.039713673293590546,0.7764291763305664,-1.1037973165512085,0.12832610309123993,-0.10703929513692856,0.46881234645843506,0.6313115954399109,-0.3210467994213104,0.6906095147132874,0.07779138535261154,-0.030919792130589485,-0.7733299136161804,-1.4315403699874878
62,0.10933966189622879,0.030892113223671913,0.21420423686504364,0.28412529826164246,-0.5176461935043335,-1.4798808097839355,-0.6340842247009277,1.5018198490142822,0.25734394788742065,-0.002189098624512553,-2.316884756088257,-0.09119366109371185,-0.4887635111808777,-1.062347173690796,-0.6242334842681885,0.4481217861175537,0.5167551040649414,-0.9162127375602722,-0.7628923058509827,-0.6021628975868225,0.007814106531441212,-0.012145464308559895,0.9102306962013245,-0.4447118043899536,0.6586469411849976,-0.583694577217102,0.9421744346618652,-0.08397665619850159,0.7572544813156128,-1.1248297691345215,0.1668233573436737,-0.12145495414733887,0.4861474335193634,0.612078070640564,-0.356962114572525,0.6545891761779785,0.040795888751745224,-0.05424521490931511,-0.7983492612838745,-1.4793647527694702
63,0.12817174196243286,0.028898395597934723,0.23285256326198578,0.30710282921791077,-0.537835419178009,-1.5123462677001953,-0.6584499478340149,1.5568245649337769,0.22827012836933136,-0.05110443755984306,-2.3464996814727783,-0.07781551778316498,-0.48298731446266174,-1.016914963722229,-0.6610851883888245,0.45826223492622375,0.5209751129150391,-0.9154110550880432,-0.7565350532531738,-0.5938008427619934,0.040046464651823044,-0.001923275995068252,0.9289976358413696,-0.4066207706928253,0.6669922471046448,-0.589051365852356,0.9179558157920837,-0.062383539974689484,0.7736254334449768,-1.1128860712051392,0.13957670331001282,-0.10828821361064911,0.46920546889305115,0.6337939500808716,-0.32823479175567627,0.6878708600997925,0.07327541708946228,-0.026777250692248344,-0.7693275213241577,-1.449462652206421
64,0.11612388491630554,0.024695195257663727,0.2257586419582367,0.28661537170410156,-0.5237001776695251,-1.4930832386016846,-0.6430590152740479,1.5136957168579102,0.23642252385616302,-0.004376908298581839,-2.326570749282837,-0.07219952344894409,-0.4895835518836975,-1.054229497909546,-0.6363564729690552,0.46745678782463074,0.5170301795005798,-0.9084363579750061,-0.7522743344306946,-0.6006249785423279,0.011736974120140076,-0.024698538705706596,0.9026550650596619,-0.42730456590652466,0.6732097268104553,-0.6015728712081909,0.9507911801338196,-0.10866781324148178,0.7541742324829102,-1.1384737491607666,0.17599456012248993,-0.12024189531803131,0.4864324629306793,0.6123633980751038,-0.3675125539302826,0.6398626565933228,0.031135139986872673,-0.05677220970392227,-0.7975921034812927,-1.4960793256759644
65,0.13446113467216492,0.023167751729488373,0.24495838582515717,0.309643417596817,-0.5458469390869141,-1.5262627601623535,-0.6727362871170044,1.5606616735458374,0.20580188930034637,-0.04967453330755234,-2.359442949295044,-0.05729413777589798,-0.4854234755039215,-1.0078493356704712,-0.6718723773956299,0.47388046979904175,0.5228170156478882,-0.9075627326965332,-0.7479715943336487,-0.59083491563797,0.050295744091272354,-0.012929491698741913,0.920681357383728,-0.38828110694885254,0.6818270087242126,-0.6056641340255737,0.9223111867904663,-0.08376535773277283,0.7712199091911316,-1.1210129261016846,0.14849059283733368,-0.10971914231777191,0.4713848829269409,0.6365106701850891,-0.3352852463722229,0.6840218901634216,0.06850290298461914,-0.021059004589915276,-0.7665359377861023,-1.467289924621582
66,0.12198761850595474,0.018374135717749596,0.23607419431209564,0.29015809297561646,-0.5290974378585815,-1.5064727067947388,-0.6504069566726685,1.5254840850830078,0.21674920618534088,-0.006701259408146143,-2.335036039352417,-0.05504116415977478,-0.49245694279670715,-1.0452800989151,-0.649426281452179,0.4850468337535858,0.5171453952789307,-0.8988617658615112,-0.7426130771636963,-0.5988735556602478,0.016255324706435204,-0.03768068179488182,0.896289587020874,-0.4121670722961426,0.6872508525848389,-0.619529128074646,0.9583026766777039,-0.1299179345369339,0.7523924112319946,-1.1513663530349731,0.18038305640220642,-0.11753847450017929,0.48626863956451416,0.6126738786697388,-0.37601760029792786,0.6279850006103516,0.02209739200770855,-0.05870785564184189,-0.795962393283844,-1.5098618268966675
67,0.13872648775577545,0.016839420422911644,0.2549416124820709,0.3104785680770874,-0.5527514219284058,-1.5386120080947876,-0.6856892704963684,1.5620568990707397,0.18541941046714783,-0.04610114544630051,-2.370410919189453,-0.03846755623817444,-0.4902438223361969,-1.000666618347168,-0.6811248660087585,0.4868691861629486,0.5245041847229004,-0.8982222676277161,-0.7402136325836182,-0.5885004997253418,0.06016974896192551,-0.024951791390776634,0.9122809767723083,-0.3739730715751648,0.6957245469093323,-0.6220226883888245,0.9273962378501892,-0.10368654131889343,0.7692006826400757,-1.1282588243484497,0.1551653891801834,-0.11105319112539291,0.47459059953689575,0.6390372514724731,-0.3423667550086975,0.6779172420501709,0.06332790106534958,-0.015132281929254532,-0.7649821043014526,-1.4842276573181152
68,0.1270371675491333,0.011940570548176765,0.2451089471578598,0.2944888472557068,-0.5339596271514893,-1.5195938348770142,-0.6571822166442871,1.5359660387039185,0.19855739176273346,-0.00875139981508255,-2.342761278152466,-0.03963148221373558,-0.496871680021286,-1.0360151529312134,-0.6624688506126404,0.5003582835197449,0.5173765420913696,-0.888200044631958,-0.7340059876441956,-0.5967242121696472,0.02182460017502308,-0.05065698176622391,0.8910810947418213,-0.3992983400821686,0.7002907395362854,-0.6370378732681274,0.9642340540885925,-0.14743928611278534,0.7515941858291626,-1.162502646446228,0.18098784983158112,-0.11397495865821838,0.48570072650909424,0.6126928925514221,-0.3823302686214447,0.61965012550354,0.014343657530844212,-0.05929015949368477,-0.7934140563011169,-1.521027684211731
69,0.1412280797958374,0.009884955361485481,0.26262974739074707,0.3099684715270996,-0.5583245158195496,-1.5493992567062378,-0.6966844201087952,1.5618170499801636,0.16753681004047394,-0.041561562567949295,-2.379154920578003,-0.021918542683124542,-0.4966377317905426,-0.9950982332229614,-0.6890225410461426,0.49758851528167725,0.5259993672370911,-0.8879629373550415,-0.7332624793052673,-0.5866571664810181,0.06884424388408661,-0.03781973570585251,0.9043950438499451,-0.3636884093284607,0.7080588936805725,-0.6379411220550537,0.9328650236129761,-0.12169938534498215,0.7675837278366089,-1.1350024938583374,0.15943612158298492,-0.11204733699560165,0.47800692915916443,0.6406805515289307,-0.3493455946445465,0.6700266599655151,0.057474374771118164,-0.010488776490092278,-0.764303982257843,-1.4995590448379517
70,0.13126015663146973,0.005220852792263031,0.25266170501708984,0.2989509701728821,-0.5383949875831604,-1.5319911241531372,-0.664239764213562,1.544434666633606,0.18204434216022491,-0.01022110041230917,-2.3500373363494873,-0.025828177109360695,-0.5023806691169739,-1.0270557403564453,-0.6744212508201599,0.5129114985466003,0.5178888440132141,-0.8771520256996155,-0.7263683080673218,-0.5942507982254028,0.028691774234175682,-0.06328292936086655,0.8869606852531433,-0.3886232376098633,0.7118887901306152,-0.6535949110984802,0.9684658646583557,-0.16118164360523224,0.7515435218811035,-1.1711280345916748,0.17879308760166168,-0.11020953208208084,0.48492786288261414,0.6124989986419678,-0.38668668270111084,0.6138980984687805,0.00827905721962452,-0.057937365025281906,-0.7902265191078186,-1.5299006700515747
71,0.1422850638628006,0.0024213148280978203,0.2679942846298218,0.30880701541900635,-0.5624602437019348,-1.5586740970611572,-0.7054235339164734,1.5605340003967285,0.15243512392044067,-0.036819938570261,-2.3856914043426514,-0.00801803544163704,-0.5038745999336243,-0.9907664060592651,-0.6957240700721741,0.5063615441322327,0.5273294448852539,-0.8773856163024902,-0.7271165251731873,-0.584994375705719,0.07605724036693573,-0.0512547604739666,0.8973860144615173,-0.35690411925315857,0.718476414680481,-0.6532221436500549,0.9382398128509521,-0.137291818857193,0.766355037689209,-1.141474962234497,0.16120536625385284,-0.11258134245872498,0.4810265600681305,0.6408038139343262,-0.3559201657772064,0.6616388559341431,0.05083857476711273,-0.007814656011760235,-0.7640854716300964,-1.5128042697906494
72,0.13460512459278107,-0.0019261405104771256,0.2584526836872101,0.3029031753540039,-0.5423802137374878,-1.5433084964752197,-0.6717437505722046,1.5506349802017212,0.1674363613128662,-0.010925445705652237,-2.3568975925445557,-0.01361505314707756,-0.5085918307304382,-1.0188478231430054,-0.6845723390579224,0.5225820541381836,0.5187467932701111,-0.866328239440918,-0.7195569276809692,-0.5915930271148682,0.03664012253284454,-0.0753856673836708,0.883882462978363,-0.38006120920181274,0.7217110991477966,-0.6688514351844788,0.9711621999740601,-0.17130501568317413,0.7520779371261597,-1.1770440340042114,0.17461659014225006,-0.10675550252199173,0.4840587079524994,0.6121189594268799,-0.38947150111198425,0.6094900965690613,0.0037217631470412016,-0.05485288053750992,-0.786734402179718,-1.536806583404541
73,0.14225944876670837,-0.00542772701010108,0.2711244225502014,0.30749768018722534,-0.5652726888656616,-1.5664942264556885,-0.7122151255607605,1.5586106777191162,0.14016637206077576,-0.03229070082306862,-2.390315055847168,0.0031634848564863205,-0.5114294290542603,-0.9873283505439758,-0.7012577056884766,0.5133631825447083,0.5285784006118774,-0.8670521974563599,-0.7216867804527283,-0.5832452774047852,0.08217388391494751,-0.0648556649684906,0.8913887739181519,-0.3528478741645813,0.726871907711029,-0.6676170229911804,0.9431665539741516,-0.15002530813217163,0.7655065059661865,-1.1474716663360596,0.1606365144252777,-0.11266563087701797,0.4833388328552246,0.6392894387245178,-0.3617928624153137,0.6536474227905273,0.04367151856422424,-0.006744478829205036,-0.7640378475189209,-1.5237510204315186
74,0.13705992698669434,-0.009467530995607376,0.2622658312320709,0.30603915452957153,-0.5457478165626526,-1.5532618761062622,-0.6793015599250793,1.5546494722366333,0.1550009548664093,-0.010788433253765106,-2.363171339035034,-0.0031493455171585083,-0.5151389241218567,-1.0115875005722046,-0.6927106380462646,0.5296367406845093,0.5199128985404968,-0.8561989068984985,-0.7134655714035034,-0.5888088345527649,0.04515548050403595,-0.08695785701274872,0.8817095756530762,-0.3734882175922394,0.7296265959739685,-0.6826637983322144,0.9726894497871399,-0.178115114569664,0.7530537247657776,-1.1806042194366455,0.1690593659877777,-0.10389076173305511,0.4830697178840637,0.6113278865814209,-0.3910967707633972,0.6056617498397827,1.627928577363491e-05,-0.05080345273017883,-0.7831573486328125,-1.5420479774475098
75,0.14147436618804932,-0.013558447360992432,0.27217310667037964,0.306172639131546,-0.5670185089111328,-1.5729268789291382,-0.7176997661590576,1.5562571287155151,0.13057132065296173,-0.0281198862940073,-2.3934829235076904,0.011774594895541668,-0.5189566016197205,-0.9844939708709717,-0.7055916786193848,0.5186651945114136,0.5298278331756592,-0.8574337959289551,-0.716819167137146,-0.5812702178955078,0.0878310427069664,-0.07820780575275421,0.8863410353660583,-0.3507680296897888,0.7333218455314636,-0.6808828115463257,0.947471559047699,-0.15964780747890472,0.7650467157363892,-1.1525639295578003,0.15812546014785767,-0.11243218183517456,0.48487094044685364,0.6365313529968262,-0.3667740225791931,0.6463984251022339,0.03636202588677406,-0.006439508870244026,-0.7639598250389099,-1.532440423965454
76,0.1387275755405426,-0.017239686101675034,0.26403582096099854,0.30836057662963867,-0.5483113527297974,-1.5616660118103027,-0.6864199042320251,1.5567866563796997,0.14494553208351135,-0.009816784411668777,-2.3686368465423584,0.005364730954170227,-0.5216812491416931,-1.0052815675735474,-0.6989728808403015,0.5345528721809387,0.5212768912315369,-0.847074031829834,-0.7079876661300659,-0.585895299911499,0.05376158654689789,-0.09805359691381454,0.8802186846733093,-0.36868029832839966,0.7357097864151001,-0.6950522661209106,0.9734742045402527,-0.18196342885494232,0.7543399333953857,-1.1824018955230713,0.1625351756811142,-0.10166434198617935,0.4818519949913025,0.6098544597625732,-0.39195138216018677,0.6019831895828247,-0.003540013451129198,-0.04651534929871559,-0.7795583009719849,-1.5458766222000122
77,0.1401645541191101,-0.021852923557162285,0.27131763100624084,0.30472153425216675,-0.567961573600769,-1.5780458450317383,-0.722491979598999,1.5535277128219604,0.1233927309513092,-0.024292845278978348,-2.395622730255127,0.018038220703601837,-0.5262267589569092,-0.9820283055305481,-0.7087420225143433,0.5223327279090881,0.5311235785484314,-0.8488838076591492,-0.7123662233352661,-0.5790165066719055,0.09358103573322296,-0.09102240204811096,0.8820030689239502,-0.3500257432460785,0.7380132079124451,-0.6928727626800537,0.9511201977729797,-0.16616100072860718,0.764968752861023,-1.1564610004425049,0.15416134893894196,-0.11208189278841019,0.4856863021850586,0.6330851316452026,-0.3708285093307495,0.6399750709533691,0.02917751856148243,-0.006164489313960075,-0.7636972665786743,-1.539092779159546
78,0.13982437551021576,-0.025037996470928192,0.2638426721096039,0.30999884009361267,-0.5499618649482727,-1.5684889554977417,-0.6927889585494995,1.5574513673782349,0.1373288780450821,-0.008054685778915882,-2.373164176940918,0.011811877600848675,-0.5279302000999451,-0.9998166561126709,-0.7036471962928772,0.5378308892250061,0.522713303565979,-0.839133620262146,-0.7029759287834167,-0.5828405022621155,0.06217598542571068,-0.10871956497430801,0.879181444644928,-0.3652936518192291,0.7401695251464844,-0.7061365246772766,0.9738538861274719,-0.1831863820552826,0.7558350563049316,-1.1829955577850342,0.15533451735973358,-0.09998589754104614,0.48026391863822937,0.6075767278671265,-0.39235034584999084,0.5981380343437195,-0.0074403490871191025,-0.04238368198275566,-0.7758672833442688,-1.5484912395477295
79,0.13848689198493958,-0.030177613720297813,0.2687407433986664,0.30294278264045715,-0.568310022354126,-1.5819441080093384,-0.7270501255989075,1.5503957271575928,0.11836359649896622,-0.02073049172759056,-2.3970298767089844,0.0221660565584898,-0.5330960154533386,-0.9797617793083191,-0.7107940316200256,0.5244710445404053,0.5324888229370117,-0.8416410684585571,-0.7082208395004272,-0.576468825340271,0.09977544099092484,-0.10318615287542343,0.8780174255371094,-0.3500896990299225,0.7411817908287048,-0.7035698890686035,0.9541699290275574,-0.16980218887329102,0.7652238011360168,-1.1591404676437378,0.14922618865966797,-0.11181015521287918,0.48590582609176636,0.6294198036193848,-0.374057799577713,0.6343597173690796,0.022208750247955322,-0.005463962443172932,-0.7631492018699646,-1.5440177917480469
80,0.14063210785388947,-0.03266516327857971,0.26186510920524597,0.31110015511512756,-0.5506755113601685,-1.5738608837127686,-0.6983116865158081,1.5570505857467651,0.13206245005130768,-0.0055448077619075775,-2.3767552375793457,0.016208387911319733,-0.5336679220199585,-0.9950118660926819,-0.707065224647522,0.539914608001709,0.5241276621818542,-0.8324737548828125,-0.6982583403587341,-0.5796369314193726,0.07028007507324219,-0.11899366229772568,0.8784267902374268,-0.3628956973552704,0.7432764172554016,-0.7160922288894653,0.9740229845046997,-0.18209432065486908,0.7574722170829773,-1.1828179359436035,0.14767059683799744,-0.09871287643909454,0.4781552851200104,0.6045211553573608,-0.39250949025154114,0.5938522815704346,-0.011960373260080814,-0.03851620852947235,-0.7719210386276245,-1.5500454902648926
81,0.13653890788555145,-0.038410283625125885,0.26462146639823914,0.30060964822769165,-0.5682205557823181,-1.584747314453125,-0.7317125797271729,1.5468062162399292,0.11523853242397308,-0.017349235713481903,-2.397869110107422,0.02434253692626953,-0.5394976139068604,-0.9775923490524292,-0.7118635773658752,0.5252166986465454,0.5339518785476685,-0.8358583450317383,-0.704317569732666,-0.5736231803894043,0.10660847276449203,-0.11473315209150314,0.873973548412323,-0.35052189230918884,0.7430705428123474,-0.7130618691444397,0.9567393660545349,-0.17097696661949158,0.7657201290130615,-1.1607815027236938,0.14376217126846313,-0.11176388710737228,0.4856696128845215,0.6258658170700073,-0.37664157152175903,0.6294888854026794,0.01543043926358223,-0.004106784239411354,-0.762282133102417,-1.547551155090332
82,0.14145979285240173,-0.039945606142282486,0.25833719968795776,0.3117992877960205,-0.5504794716835022,-1.5780439376831055,-0.7030261158943176,1.5559568405151367,0.1289624571800232,-0.0023122846614569426,-2.3795199394226074,0.01868167147040367,-0.538739800453186,-0.9906564950942993,-0.7095656394958496,0.5411921143531799,0.5254735350608826,-0.8271411657333374,-0.6936715245246887,-0.5762746930122375,0.07803857326507568,-0.12891897559165955,0.8778758645057678,-0.3610202372074127,0.745318591594696,-0.7251277565956116,0.9740539193153381,-0.17897190153598785,0.7592183947563171,-1.1821802854537964,0.13969460129737854,-0.09769486635923386,0.47536447644233704,0.6007722616195679,-0.39255011081695557,0.5888823866844177,-0.017242219299077988,-0.034866951406002045,-0.7674890756607056,-1.5506519079208374
83,0.13435934484004974,-0.04646681621670723,0.25912681221961975,0.29748255014419556,-0.5678240656852722,-1.5866057872772217,-0.7367649078369141,1.5426899194717407,0.11379983276128769,-0.014092902652919292,-2.398211717605591,0.024732686579227448,-0.5454363822937012,-0.975486159324646,-0.712047278881073,0.5247067213058472,0.5355640053749084,-0.8316366672515869,-0.7006272077560425,-0.5704758763313293,0.11419332772493362,-0.12579691410064697,0.8694389462471008,-0.35097575187683105,0.7439040541648865,-0.721497654914856,0.9589963555335999,-0.17019595205783844,0.7663304805755615,-1.1616616249084473,0.13817836344242096,-0.11203954368829727,0.48513275384902954,0.6226490139961243,-0.3787860572338104,0.6252849102020264,0.008765711449086666,-0.001996671548113227,-0.7611398100852966,-1.550025224685669
84,0.14262941479682922,-0.04672633111476898,0.253521203994751,0.31223681569099426,-0.5494202971458435,-1.5813959836959839,-0.7070248126983643,1.554512858390808,0.1277988702058792,0.0016294467495754361,-2.381645679473877,0.019436318427324295,-0.5430294275283813,-0.9865285158157349,-0.7114916443824768,0.5420215725898743,0.5267488956451416,-0.8231537342071533,-0.6890789270401001,-0.5727357864379883,0.08544128388166428,-0.1385413408279419,0.8775674104690552,-0.35920965671539307,0.7465811371803284,-0.7334710955619812,0.9739264249801636,-0.1740642637014389,0.7610802054405212,-1.1812905073165894,0.1314903348684311,-0.09678715467453003,0.4717014729976654,0.5963959097862244,-0.39251160621643066,0.5830134749412537,-0.023365523666143417,-0.0313340462744236,-0.7622759938240051,-1.5503782033920288
85,0.13191577792167664,-0.05431749299168587,0.25240078568458557,0.29330867528915405,-0.5672468543052673,-1.5876628160476685,-0.7424794435501099,1.5379481315612793,0.11386031657457352,-0.010942993685603142,-2.3980507850646973,0.02348523959517479,-0.5509809851646423,-0.9734874963760376,-0.7113778591156006,0.5230507254600525,0.5374042987823486,-0.8290553092956543,-0.69715416431427,-0.5670190453529358,0.12261441349983215,-0.1365749090909958,0.8639548420906067,-0.35120007395744324,0.7438722252845764,-0.7290516495704651,0.9611648917198181,-0.16803784668445587,0.7668938040733337,-1.162091612815857,0.1328757256269455,-0.11270204931497574,0.4844827353954315,0.6199288368225098,-0.3807019293308258,0.6216781735420227,0.0021214187145233154,0.0008792851585894823,-0.7598608732223511,-1.5517648458480835
86,0.1444786787033081,-0.052872058004140854,0.2476968616247177,0.31258299946784973,-0.5475479960441589,-1.5843443870544434,-0.710405707359314,1.5530561208724976,0.1283164620399475,0.006259214598685503,-2.3833861351013184,0.01873098313808441,-0.5464254021644592,-0.9823870062828064,-0.7132068872451782,0.542753279209137,0.5279843211174011,-0.820515513420105,-0.6843739151954651,-0.5689903497695923,0.09247732907533646,-0.14788857102394104,0.877680778503418,-0.3570317327976227,0.7473382949829102,-0.7413617372512817,0.9735281467437744,-0.167544886469841,0.7631239295005798,-1.1802518367767334,0.12305749207735062,-0.09585466235876083,0.46692806482315063,0.5914048552513123,-0.39235594868659973,0.5760753750801086,-0.030378125607967377,-0.02780107595026493,-0.7559046745300293,-1.5492321252822876
87,0.12909400463104248,-0.06199191138148308,0.24455134570598602,0.28783318400382996,-0.5666189789772034,-1.5880006551742554,-0.7491143345832825,1.532426118850708,0.11527092009782791,-0.00790574960410595,-2.397287607192993,0.020725008100271225,-0.5562544465065002,-0.9717440605163574,-0.7097780704498291,0.5203184485435486,0.5395767092704773,-0.828191339969635,-0.6939347982406616,-0.5632418394088745,0.13194037973880768,-0.1473141759634018,0.8570190072059631,-0.35104799270629883,0.7431204319000244,-0.7359044551849365,0.963554859161377,-0.16514025628566742,0.767204225063324,-1.1623982191085815,0.12828266620635986,-0.1138027012348175,0.48396652936935425,0.6178146600723267,-0.382611483335495,0.6185970902442932,-0.0046021160669624805,0.00445718364790082,-0.7587095499038696,-1.5531022548675537
88,0.14736132323741913,-0.05825869366526604,0.24116574227809906,0.313041627407074,-0.5449200868606567,-1.5873774290084839,-0.7132682204246521,1.5519460439682007,0.13022136688232422,0.011506946757435799,-2.3850815296173096,0.016871744766831398,-0.5487908124923706,-0.9779396653175354,-0.7151210904121399,0.5437352061271667,0.5292379260063171,-0.8192343711853027,-0.6794810891151428,-0.5649949908256531,0.09914175420999527,-0.1569359451532364,0.8785336017608643,-0.3540703058242798,0.74785315990448,-0.749045193195343,0.9726199507713318,-0.1594703644514084,0.7655155658721924,-1.1790412664413452,0.11429181694984436,-0.0947798639535904,0.46075335144996643,0.5857698321342468,-0.39195889234542847,0.5680071115493774,-0.0382845513522625,-0.02413487434387207,-0.7479014992713928,-1.5471397638320923
89,0.1257181614637375,-0.06956665962934494,0.23563918471336365,0.28085702657699585,-0.5660644769668579,-1.5875707864761353,-0.7568560242652893,1.5258986949920654,0.11793094873428345,-0.00496385432779789,-2.395684242248535,0.01653946377336979,-0.5614220499992371,-0.9705522656440735,-0.7070115804672241,0.5165687799453735,0.542201578617096,-0.8291259407997131,-0.6910328269004822,-0.5591351389884949,0.14218376576900482,-0.158314511179924,0.8481169939041138,-0.3504844903945923,0.7417472004890442,-0.7422444820404053,0.966617226600647,-0.16220590472221375,0.7669934034347534,-1.1629575490951538,0.12488865107297897,-0.11537845432758331,0.4839039146900177,0.6163482069969177,-0.3847758173942566,0.6159018278121948,-0.011525736190378666,0.008556848391890526,-0.7580959796905518,-1.554397463798523
90,0.15160317718982697,-0.06277620792388916,0.2342674285173416,0.3137827515602112,-0.541634738445282,-1.5910390615463257,-0.7157837152481079,1.5515598058700562,0.13312765955924988,0.01718074455857277,-2.3871991634368896,0.014225171878933907,-0.54995197057724,-0.9727960228919983,-0.7176986932754517,0.5452854037284851,0.530604362487793,-0.8193526864051819,-0.6743659973144531,-0.5606940984725952,0.10548847168684006,-0.16556107997894287,0.8804678320884705,-0.34990450739860535,0.748379111289978,-0.7567630410194397,0.9707679748535156,-0.14974577724933624,0.7685815095901489,-1.1774743795394897,0.10498907417058945,-0.09349170327186584,0.4528873860836029,0.5794849395751953,-0.3910903334617615,0.558997392654419,-0.04698428511619568,-0.020146649330854416,-0.7377484440803528,-1.5439366102218628
91,0.12167050689458847,-0.07711449265480042,0.225677952170372,0.27240467071533203,-0.5656586289405823,-1.586126685142517,-0.7656741738319397,1.5181342363357544,0.12179099023342133,-0.0019721623975783587,-2.3928146362304688,0.01097290962934494,-0.5666519403457642,-0.9704063534736633,-0.7026671767234802,0.5119781494140625,0.5454012155532837,-0.8319196701049805,-0.6885248422622681,-0.5547001361846924,0.15317383408546448,-0.16993173956871033,0.8369467854499817,-0.34957489371299744,0.7398225665092468,-0.748302698135376,0.9710050821304321,-0.15998028218746185,0.7659332156181335,-1.164267897605896,0.12322159111499786,-0.11740636080503464,0.4846165180206299,0.6154291033744812,-0.3875189423561096,0.6132438778877258,-0.01883375272154808,0.012793777510523796,-0.7584812045097351,-1.5560368299484253
92,0.1573203057050705,-0.06637492775917053,0.22738561034202576,0.31471604108810425,-0.5379058718681335,-1.5958805084228516,-0.71839439868927,1.5521581172943115,0.1364748477935791,0.022860858589410782,-2.3903543949127197,0.01124462578445673,-0.5497593879699707,-0.9664615988731384,-0.721354067325592,0.5475866794586182,0.5322465896606445,-0.8210034966468811,-0.6690619587898254,-0.5560399889945984,0.11175362765789032,-0.17351071536540985,0.8834182620048523,-0.3441159725189209,0.7491509318351746,-0.7647235989570618,0.9673069715499878,-0.13818250596523285,0.7728499174118042,-1.1751818656921387,0.09496332705020905,-0.09203558415174484,0.4432574510574341,0.5727138519287109,-0.38941091299057007,0.5496918559074402,-0.05615309625864029,-0.015532899647951126,-0.7251881957054138,-1.5394368171691895
93,0.11723063141107559,-0.08457377552986145,0.21467284858226776,0.2630561292171478,-0.5653356313705444,-1.5832635164260864,-0.7750723361968994,1.5091909170150757,0.12680965662002563,0.0014905388234183192,-2.3881118297576904,0.004060717765241861,-0.5719974637031555,-0.9719484448432922,-0.6963337659835815,0.5071483850479126,0.5492702722549438,-0.8365204334259033,-0.6864708065986633,-0.5499528050422668,0.16431251168251038,-0.18251940608024597,0.8240478038787842,-0.34839972853660583,0.7374529838562012,-0.7544325590133667,0.9775180816650391,-0.15906396508216858,0.7637555003166199,-1.1670185327529907,0.12360808253288269,-0.11967666447162628,0.4861108958721161,0.6146750450134277,-0.39117562770843506,0.6098849773406982,-0.02683873474597931,0.016467995941638947,-0.7598968744277954,-1.558312177658081
94,0.1640082448720932,-0.06921468675136566,0.22085997462272644,0.31506258249282837,-0.5341609120368958,-1.6022355556488037,-0.722129762172699,1.553443431854248,0.13950759172439575,0.027864497154951096,-2.395148277282715,0.008460747078061104,-0.5483232736587524,-0.9585603475570679,-0.7260147333145142,0.5504635572433472,0.5344300866127014,-0.8244680166244507,-0.6636978387832642,-0.551064670085907,0.11851762235164642,-0.18046386539936066,0.8860569596290588,-0.33643385767936707,0.7503541707992554,-0.7730214595794678,0.9615852236747742,-0.12486305832862854,0.7788999080657959,-1.1717027425765991,0.08447295427322388,-0.09068742394447327,0.43249377608299255,0.5660232901573181,-0.38658350706100464,0.5412858128547668,-0.06511469930410385,-0.00984039343893528,-0.7110269665718079,-1.5337404012680054
95,0.11359935998916626,-0.09153927862644196,0.20276404917240143,0.2542340159416199,-0.5647713541984558,-1.5788472890853882,-0.7839288115501404,1.5000537633895874,0.13279631733894348,0.0061112018302083015,-2.381308078765869,-0.004037505015730858,-0.5771394968032837,-0.9755199551582336,-0.688285231590271,0.5034962892532349,0.5538058876991272,-0.8425776362419128,-0.6848570704460144,-0.544921338558197,0.17434170842170715,-0.19616587460041046,0.8115143179893494,-0.34681910276412964,0.7349250912666321,-0.7611905932426453,0.9865496754646301,-0.15932157635688782,0.760654866695404,-1.1719595193862915,0.1254899650812149,-0.12160477042198181,0.48741579055786133,0.613309383392334,-0.3958021402359009,0.6046640872955322,-0.036003515124320984,0.01859557256102562,-0.760962724685669,-1.5610277652740479
96,0.17018795013427734,-0.07188696414232254,0.21463939547538757,0.3131336271762848,-0.5310184359550476,-1.6096845865249634,-0.7286518216133118,1.55391526222229,0.14154472947120667,0.03153916820883751,-2.401577949523926,0.006256959866732359,-0.5464375615119934,-0.9495494365692139,-0.7303339838981628,0.5531954169273376,0.5374874472618103,-0.8300902247428894,-0.6584827303886414,-0.5459922552108765,0.12663060426712036,-0.18635033071041107,0.8855390548706055,-0.32715904712677,0.7520529627799988,-0.78150874376297,0.9540201425552368,-0.1109875962138176,0.7866795659065247,-1.1668663024902344,0.0749489814043045,-0.09000077843666077,0.4223552644252777,0.5605501532554626,-0.3826661705970764,0.5350411534309387,-0.07295920699834824,-0.0025448319502174854,-0.6978067755699158,-1.52783203125
97,0.11282534897327423,-0.09725789725780487,0.19053959846496582,0.24766956269741058,-0.5633880496025085,-1.5740125179290771,-0.791029155254364,1.4928735494613647,0.139234259724617,0.01212191954255104,-2.3733890056610107,-0.012788418680429459,-0.5811842679977417,-0.9801272749900818,-0.6804352402687073,0.5029634237289429,0.5587766170501709,-0.8493682742118835,-0.6835009455680847,-0.5396745800971985,0.18170404434204102,-0.2102026790380478,0.8020592331886292,-0.34420493245124817,0.7328765988349915,-0.7691866755485535,0.9967735409736633,-0.1591145545244217,0.7578195333480835,-1.1792467832565308,0.12676456570625305,-0.12226083874702454,0.4863168001174927,0.6103339791297913,-0.4006572365760803,0.5964796543121338,-0.046779002994298935,0.018429264426231384,-0.7588245272636414,-1.5630186796188354
98,0.17410457134246826,-0.0753016248345375,0.20784689486026764,0.30725979804992676,-0.5289627313613892,-1.616668939590454,-0.7392241954803467,1.551276683807373,0.14255863428115845,0.03389947488903999,-2.408327102661133,0.004298909567296505,-0.5456059575080872,-0.9413861632347107,-0.7318663597106934,0.5548600554466248,0.5416435599327087,-0.8378603458404541,-0.6536703109741211,-0.5411852598190308,0.13651545345783234,-0.19183312356472015,0.879662275314331,-0.31762030720710754,0.7540423274040222,-0.7897781729698181,0.9475162625312805,-0.09928646683692932,0.7945815920829773,-1.1613647937774658,0.06881621479988098,-0.09053140133619308,0.4149343967437744,0.5575622320175171,-0.3785759508609772,0.5310890674591064,-0.07928933203220367,0.0066995443776249886,-0.688042938709259,-1.5236262083053589
99,0.11620273441076279,-0.10125045478343964,0.17915962636470795,0.24389074742794037,-0.5606608390808105,-1.5714166164398193,-0.7963418960571289,1.4892293214797974,0.14557184278964996,0.018186690285801888,-2.3667659759521484,-0.021200155839323997,-0.583151638507843,-0.9832279682159424,-0.6755462884902954,0.5062904953956604,0.5636691451072693,-0.8562456965446472,-0.6819624900817871,-0.5343925356864929,0.18593798577785492,-0.22321179509162903,0.7963075637817383,-0.33969977498054504,0.7322291731834412,-0.7785534262657166,1.0049700736999512,-0.15605463087558746,0.7569330334663391,-1.1875555515289307,0.1250016689300537,-0.12104694545269012,0.48098912835121155,0.6050970554351807,-0.404285192489624,0.585318922996521,-0.0592515766620636,0.01645602658390999,-0.7516811490058899,-1.562675952911377
100,0.17535381019115448,-0.0799533873796463,0.19932036101818085,0.2974100410938263,-0.5279985666275024,-1.621617078781128,-0.753242552280426,1.544631004333496,0.14337722957134247,0.035651255398988724,-2.413331985473633,0.0013749399222433567,-0.5468529462814331,-0.9362483024597168,-0.7295262217521667,0.55502849817276,0.546791672706604,-0.8471092581748962,-0.6496220827102661,-0.5367935299873352,0.14760008454322815,-0.19818881154060364,0.8691228032112122,-0.30961868166923523,0.7557384371757507,-0.7974811792373657,0.945830762386322,-0.09210971742868423,0.8001677393913269,-1.1567386388778687,0.0671960860490799,-0.092325858771801,0.41075509786605835,0.5571358799934387,-0.3756512403488159,0.5280517935752869,-0.08501607924699783,0.017573270946741104,-0.6812673807144165,-1.5222619771957397
101,0.12290036678314209,-0.10387799888849258,0.16947342455387115,0.24178659915924072,-0.5565679669380188,-1.5730360746383667,-0.8011982440948486,1.4881724119186401,0.1518429070711136,0.02260204218327999,-2.363248825073242,-0.02839501015841961,-0.582960307598114,-0.9830790758132935,-0.6744819283485413,0.5118516683578491,0.5680071711540222,-0.8631198406219482,-0.6796512603759766,-0.529284656047821,0.18850842118263245,-0.23429378867149353,0.7925472855567932,-0.3331148624420166,0.7335328459739685,-0.7887126803398132,1.0092822313308716,-0.14957675337791443,0.7583714723587036,-1.194545865058899,0.11999873071908951,-0.11840476840734482,0.4719906151294708,0.5977635383605957,-0.405780553817749,0.5725253224372864,-0.07297121733427048,0.014572865329682827,-0.7402467727661133,-1.5595567226409912
102,0.17504332959651947,-0.08555181324481964,0.18894243240356445,0.2851566970348358,-0.5277170538902283,-1.6248201131820679,-0.7687990069389343,1.5353946685791016,0.1451391875743866,0.03726089373230934,-2.4154891967773438,-0.003469460643827915,-0.5496495366096497,-0.9342902898788452,-0.7248528003692627,0.5537716150283813,0.5524972081184387,-0.8569995164871216,-0.6466394662857056,-0.5326082110404968,0.1590840220451355,-0.20636343955993652,0.8562455177307129,-0.3038577735424042,0.7566045522689819,-0.8047094941139221,0.9493220448493958,-0.08912312239408493,0.8025081753730774,-1.154274821281433,0.06860032677650452,-0.09484752267599106,0.40840843319892883,0.5577236413955688,-0.3744893968105316,0.5245414972305298,-0.09160833805799484,0.028773793950676918,-0.6750581860542297,-1.5228043794631958
103,0.13096308708190918,-0.10594666749238968,0.16111719608306885,0.23986577987670898,-0.5516418218612671,-1.578513741493225,-0.8070037961006165,1.487579107284546,0.15850307047367096,0.02576737105846405,-2.362541675567627,-0.0343053862452507,-0.5814281702041626,-0.9804068207740784,-0.6758007407188416,0.5172441005706787,0.5717219114303589,-0.8702119588851929,-0.6762405633926392,-0.52438884973526,0.19145995378494263,-0.24402989447116852,0.7889360189437866,-0.3251216411590576,0.7363109588623047,-0.7989491820335388,1.0107585191726685,-0.14133474230766296,0.7609537243843079,-1.1988328695297241,0.11359861493110657,-0.11531127989292145,0.461300790309906,0.5891647934913635,-0.4054865837097168,0.5595741868019104,-0.08724620193243027,0.014500131830573082,-0.7261148691177368,-1.55460524559021
104,0.17444771528244019,-0.09153522551059723,0.17752769589424133,0.27217230200767517,-0.527600884437561,-1.6279138326644897,-0.7845275402069092,1.5255714654922485,0.14859502017498016,0.038720760494470596,-2.415116310119629,-0.01010274700820446,-0.5527355670928955,-0.9341545701026917,-0.7199273109436035,0.5514237284660339,0.5583306550979614,-0.8670431971549988,-0.6446304321289062,-0.528311014175415,0.17065003514289856,-0.21652086079120636,0.842890739440918,-0.29955431818962097,0.7566521763801575,-0.8118774890899658,0.955348551273346,-0.08833247423171997,0.8024899959564209,-1.154022455215454,0.07084830105304718,-0.097423255443573,0.406071275472641,0.5576556324958801,-0.3747398853302002,0.520158052444458,-0.09972187131643295,0.0388968326151371,-0.6676114797592163,-1.523590087890625
105,0.13889233767986298,-0.10810638219118118,0.15314830839633942,0.23714898526668549,-0.5465230345726013,-1.5864571332931519,-0.8145310282707214,1.4861270189285278,0.16586412489414215,0.029242917895317078,-2.363265037536621,-0.03947317227721214,-0.5794093012809753,-0.9769167900085449,-0.6777556538581848,0.5211588740348816,0.5750634670257568,-0.8776838779449463,-0.6719570159912109,-0.5195724964141846,0.19587813317775726,-0.25370973348617554,0.7845236659049988,-0.31648850440979004,0.7395796775817871,-0.808914840221405,1.0109583139419556,-0.13312095403671265,0.763474702835083,-1.2006781101226807,0.10756593942642212,-0.11241889744997025,0.45036301016807556,0.5801868438720703,-0.40422719717025757,0.5471901893615723,-0.10157361626625061,0.016606895253062248,-0.7104918956756592,-1.5489799976348877
106,0.17430907487869263,-0.09754833579063416,0.16581520438194275,0.2593696117401123,-0.5272835493087769,-1.6321544647216797,-0.8001376390457153,1.5163419246673584,0.15383712947368622,0.04003743454813957,-2.413097381591797,-0.017848903313279152,-0.5552576184272766,-0.9346796870231628,-0.7158040404319763,0.5485087633132935,0.5640707612037659,-0.8770497441291809,-0.6432458758354187,-0.523696780204773,0.18220816552639008,-0.22842174768447876,0.8299475908279419,-0.29556265473365784,0.7562457323074341,-0.819322407245636,0.9614722728729248,-0.08814013749361038,0.8013153672218323,-1.1551538705825806,0.0727585032582283,-0.09962257742881775,0.40266093611717224,0.5561755299568176,-0.37569114565849304,0.515046238899231,-0.10920558869838715,0.047469861805438995,-0.6582369804382324,-1.523606777191162
107,0.14609332382678986,-0.11068327724933624,0.14492584764957428,0.23322084546089172,-0.5415970683097839,-1.5957729816436768,-0.8240371346473694,1.4834195375442505,0.17398656904697418,0.03385031968355179,-2.3642094135284424,-0.04447429999709129,-0.5773219466209412,-0.9737885594367981,-0.6793902516365051,0.5234941840171814,0.5783168077468872,-0.8855264186859131,-0.6673454642295837,-0.5146757364273071,0.20182281732559204,-0.2643255293369293,0.7790235877037048,-0.3076822757720947,0.742699921131134,-0.8185866475105286,1.0106782913208008,-0.1258106380701065,0.7653561234474182,-1.2010287046432495,0.10272462666034698,-0.10994623601436615,0.4397328197956085,0.5713081955909729,-0.40257126092910767,0.5355197787284851,-0.11577071249485016,0.020373357459902763,-0.6940412521362305,-1.5433878898620605
108,0.17493543028831482,-0.10348153114318848,0.15415607392787933,0.24699367582798004,-0.5265921950340271,-1.6379835605621338,-0.8159151673316956,1.5080163478851318,0.1605057716369629,0.04131514951586723,-2.410189390182495,-0.026116007938981056,-0.5568787455558777,-0.9353291988372803,-0.7126948237419128,0.5455540418624878,0.5696403980255127,-0.8869275450706482,-0.6421718001365662,-0.5187210440635681,0.19365422427654266,-0.24176305532455444,0.8176630735397339,-0.29121309518814087,0.7557665109634399,-0.8271667957305908,0.9665180444717407,-0.08782818168401718,0.7997257113456726,-1.1567952632904053,0.07409540563821793,-0.101325124502182,0.3978845477104187,0.5532057881355286,-0.376692533493042,0.5094500780105591,-0.119676873087883,0.05481976270675659,-0.6468680500984192,-1.522539734840393
109,0.1525724232196808,-0.11376610398292542,0.1362391710281372,0.2280408889055252,-0.5369480848312378,-1.60585355758667,-0.8355212807655334,1.4794728755950928,0.18278832733631134,0.03957603499293327,-2.3646469116210938,-0.04966094717383385,-0.5752040147781372,-0.9715311527252197,-0.6804113984107971,0.5246997475624084,0.5816488265991211,-0.8935860991477966,-0.6628897190093994,-0.509616494178772,0.20889338850975037,-0.2763468027114868,0.7724544405937195,-0.29896050691604614,0.7455225586891174,-0.8280652165412903,1.0102111101150513,-0.11961022764444351,0.7664214372634888,-1.200732707977295,0.09924496710300446,-0.10789740830659866,0.4295373558998108,0.5626093149185181,-0.40075021982192993,0.5245007872581482,-0.12984423339366913,0.02510623261332512,-0.6770769953727722,-1.5380827188491821
110,0.17641451954841614,-0.10934141278266907,0.14267019927501678,0.23497126996517181,-0.5254588723182678,-1.6453874111175537,-0.8322669863700867,1.5004527568817139,0.16807861626148224,0.042603787034749985,-2.406834840774536,-0.034539204090833664,-0.5574944615364075,-0.9359277486801147,-0.7104950547218323,0.5429511070251465,0.5750216841697693,-0.8965782523155212,-0.6412329077720642,-0.5134607553482056,0.20487502217292786,-0.2562694251537323,0.8060250282287598,-0.2863738238811493,0.7554875016212463,-0.835396409034729,0.9701672196388245,-0.08722208440303802,0.7980472445487976,-1.158387303352356,0.07502298802137375,-0.10261838138103485,0.39188066124916077,0.5489331483840942,-0.3772967755794525,0.50363689661026,-0.13076156377792358,0.06149756535887718,-0.6336804032325745,-1.5204097032546997
111,0.15857508778572083,-0.11731225252151489,0.12712912261486053,0.22178274393081665,-0.5324555039405823,-1.6163853406906128,-0.8488768339157104,1.4743976593017578,0.19212029874324799,0.04614465311169624,-2.364203453063965,-0.05515419319272041,-0.572904646396637,-0.970287024974823,-0.6808229684829712,0.5253117084503174,0.5850991010665894,-0.9016219973564148,-0.6588618755340576,-0.5044215321540833,0.2166081815958023,-0.2898819148540497,0.7649636268615723,-0.2905179560184479,0.7481569051742554,-0.8374581933021545,1.0096793174743652,-0.11446567624807358,0.7666512727737427,-1.200357437133789,0.09703592956066132,-0.10620910674333572,0.4198024272918701,0.5540006756782532,-0.39880868792533875,0.5140493512153625,-0.14384272694587708,0.03024027682840824,-0.65976482629776,-1.5330629348754883
112,0.17874214053153992,-0.11515472829341888,0.13140955567359924,0.223159059882164,-0.5238445401191711,-1.654200792312622,-0.8495244979858398,1.4933767318725586,0.17603296041488647,0.043839193880558014,-2.403226137161255,-0.042908236384391785,-0.5570616126060486,-0.9364268779754639,-0.709059476852417,0.5409451127052307,0.5802157521247864,-0.9058675765991211,-0.6403656601905823,-0.5080703496932983,0.2157813161611557,-0.2716948390007019,0.7949824333190918,-0.28125330805778503,0.7555612325668335,-0.8439474105834961,0.972470760345459,-0.08638294041156769,0.7963985204696655,-1.1596720218658447,0.07576815783977509,-0.1036856397986412,0.38494136929512024,0.5436270833015442,-0.37725141644477844,0.4979213774204254,-0.14211373031139374,0.06796028465032578,-0.6189357042312622,-1.5173327922821045
113,0.16438594460487366,-0.1212168037891388,0.11775247007608414,0.21473802626132965,-0.5278955698013306,-1.6271815299987793,-0.8639407753944397,1.468281865119934,0.20180891454219818,0.05335197225213051,-2.362701177597046,-0.060910195112228394,-0.5702245831489563,-0.9700524806976318,-0.680711030960083,0.5257847905158997,0.5886209607124329,-0.9093472361564636,-0.6553495526313782,-0.4992152154445648,0.2245372235774994,-0.3048527240753174,0.7567615509033203,-0.28256532549858093,0.750770628452301,-0.8468415141105652,1.009166955947876,-0.1102697029709816,0.7660812139511108,-1.200255274772644,0.09594401717185974,-0.10480963438749313,0.4105689227581024,0.5453982353210449,-0.3967239260673523,0.5041057467460632,-0.15778474509716034,0.03537860885262489,-0.6422483325004578,-1.5282347202301025
114,0.18187852203845978,-0.12093613296747208,0.12043625861406326,0.21145442128181458,-0.5217124819755554,-1.6642268896102905,-0.8678889870643616,1.48653244972229,0.18390020728111267,0.04486549645662308,-2.39941143989563,-0.05108434334397316,-0.5555548071861267,-0.9367936849594116,-0.7082889080047607,0.5396793484687805,0.5852220058441162,-0.9146322011947632,-0.6395618319511414,-0.502754271030426,0.22631371021270752,-0.28780612349510193,0.7845301628112793,-0.2762387692928314,0.7560372948646545,-0.8527455925941467,0.9735939502716064,-0.08545418828725815,0.7948289513587952,-1.1605830192565918,0.07649827003479004,-0.10474073141813278,0.3773823380470276,0.5375915765762329,-0.37643954157829285,0.4926774799823761,-0.153397798538208,0.07451192289590836,-0.6029378175735474,-1.5134235620498657
115,0.17025290429592133,-0.12535662949085236,0.10831921547651291,0.2072637975215912,-0.5230076909065247,-1.6380865573883057,-0.8804929256439209,1.4611674547195435,0.2116866111755371,0.06114710122346878,-2.3600616455078125,-0.06678546965122223,-0.5669922232627869,-0.9707719683647156,-0.6801630854606628,0.5264760255813599,0.5921146869659424,-0.9164587259292603,-0.6523200273513794,-0.4941975176334381,0.23232102394104004,-0.32109472155570984,0.7480958104133606,-0.2753564119338989,0.7534982562065125,-0.8562549948692322,1.00875985622406,-0.10692670941352844,0.7647708058357239,-1.2006536722183228,0.09581567347049713,-0.10363629460334778,0.4019170105457306,0.5367945432662964,-0.39446568489074707,0.4946175515651703,-0.171645388007164,0.04025198146700859,-0.6247107982635498,-1.523503065109253
116,0.18576450645923615,-0.12669245898723602,0.10984329879283905,0.1998206377029419,-0.5190343260765076,-1.6752653121948242,-0.8874293565750122,1.479736089706421,0.1912727802991867,0.045477494597435,-2.3953750133514404,-0.058953654021024704,-0.5529758930206299,-0.9369676113128662,-0.708141028881073,0.5392373204231262,0.5900260806083679,-0.9227022528648376,-0.6388252377510071,-0.49774637818336487,0.23643961548805237,-0.3043656647205353,0.7747241854667664,-0.2718023955821991,0.7568852305412292,-0.8617178201675415,0.9737241268157959,-0.08459846675395966,0.7933831214904785,-1.1611562967300415,0.07729596644639969,-0.10600476711988449,0.36950254440307617,0.5311553478240967,-0.3748238682746887,0.48834162950515747,-0.16427895426750183,0.08133892714977264,-0.5860259532928467,-1.5087696313858032
117,0.1763674020767212,-0.12962070107460022,0.09906359761953354,0.19975130259990692,-0.517535388469696,-1.6489343643188477,-0.8982375264167786,1.453065037727356,0.2216131091117859,0.06960704922676086,-2.356257677078247,-0.07258372008800507,-0.5630981922149658,-0.9723631143569946,-0.6792503595352173,0.5276737809181213,0.5954446792602539,-0.9226611852645874,-0.6496663093566895,-0.48962071537971497,0.23965679109096527,-0.33840009570121765,0.7392424941062927,-0.26918286085128784,0.7564160823822021,-0.8657110929489136,1.0085649490356445,-0.10435667634010315,0.7627981901168823,-1.201711893081665,0.09650291502475739,-0.10263567417860031,0.3939611613750458,0.5282641053199768,-0.39201968908309937,0.48550063371658325,-0.18536747992038727,0.04467591270804405,-0.6073940396308899,-1.5188096761703491
118,0.19031661748886108,-0.13243886828422546,0.09974827617406845,0.18827316164970398,-0.5158129334449768,-1.687105417251587,-0.9080947041511536,1.472883939743042,0.1978042870759964,0.04547250270843506,-2.391080617904663,-0.06640928238630295,-0.549373984336853,-0.9368525147438049,-0.7086155414581299,0.5396595597267151,0.5945934653282166,-0.9299306273460388,-0.6381485462188721,-0.4932890832424164,0.24615268409252167,-0.3211223781108856,0.7656658291816711,-0.26844170689582825,0.7580167055130005,-0.8707947134971619,0.9730616807937622,-0.08397552371025085,0.7921208143234253,-1.1614768505096436,0.07816842943429947,-0.10770409554243088,0.3615833818912506,0.5246665477752686,-0.3724113702774048,0.48541557788848877,-0.17442651093006134,0.08854883909225464,-0.5685760378837585,-1.503435730934143
119,0.18286333978176117,-0.1339324712753296,0.09022699296474457,0.19260269403457642,-0.5112540125846863,-1.6595441102981567,-0.9167881608009338,1.4439830780029297,0.23148426413536072,0.07885822653770447,-2.3512988090515137,-0.07808734476566315,-0.5585057139396667,-0.9747059345245361,-0.6780374050140381,0.5296270847320557,0.5984459519386292,-0.9276939034461975,-0.6472334861755371,-0.48576682806015015,0.2462819218635559,-0.356527715921402,0.7305055260658264,-0.2643444240093231,0.7595453858375549,-0.8752074837684631,1.0087182521820068,-0.10247793793678284,0.7602649927139282,-1.2035350799560547,0.09784913063049316,-0.10175573080778122,0.3868306577205658,0.5199437737464905,-0.3893935978412628,0.4766010642051697,-0.19887471199035645,0.04853208363056183,-0.59058678150177,-1.5141459703445435
