,0,1,2,3,4,5,6,7,8,9,10,11,12,13,14,15,16,17,18,19,20,21,22,23,24,25,26,27,28,29,30,31,32,33,34,35,36,37,38,39
0,1.251603603363037,-1.7149004936218262,-5.775140285491943,-4.153775215148926,-2.3477275371551514,-3.8076040744781494,-1.7538031339645386,-5.103470802307129,-2.6679086685180664,-5.306695461273193,-1.251603603363037,5.306695461273193,4.104198455810547,5.935971736907959,0.29113906621932983,3.9234254360198975,5.557090759277344,3.6846909523010254,0.3477669060230255,2.2269468307495117,2.8234646320343018,2.122328758239746,2.6679086685180664,-2.122328758239746,-2.8234646320343018,-2.2269468307495117,-0.3477669060230255,-3.6846909523010254,-5.557090759277344,-3.9234254360198975,-0.29113906621932983,-5.935971736907959,-4.104198455810547,5.103470802307129,1.7538031339645386,3.8076040744781494,2.3477275371551514,4.153775215148926,5.775140285491943,1.7149004936218262
1,1.3040801286697388,-1.6624239683151245,-5.827617168426514,-4.1012983322143555,-2.4002039432525635,-3.8600804805755615,-1.701326608657837,-5.050993919372559,-2.7203850746154785,-5.254218578338623,-1.1991270780563354,5.359172344207764,4.156675338745117,5.988448619842529,0.23866252601146698,3.9759018421173096,5.609567165374756,3.6322145462036133,0.40024346113204956,2.1744704246520996,2.7709882259368896,2.174805164337158,2.6154322624206543,-2.069852352142334,-2.875941038131714,-2.279423236846924,-0.29529035091400146,-3.7371673583984375,-5.504614353179932,-3.8709490299224854,-0.3436155915260315,-5.883494853973389,-4.051721572875977,5.155947685241699,1.8062796592712402,3.7551276683807373,2.2952511310577393,4.206252098083496,5.722663402557373,1.7673770189285278
2,1.353916883468628,-1.6353179216384888,-5.79808235168457,-4.115984916687012,-2.4384076595306396,-3.882183074951172,-1.749487042427063,-4.999479293823242,-2.705277442932129,-5.217421531677246,-1.149503231048584,5.396326541900635,4.206299304962158,6.025245666503906,0.25377002358436584,4.027416706085205,5.559768199920654,3.6091785430908203,0.43148913979530334,2.137312173843384,2.7947535514831543,2.2200441360473633,2.618645668029785,-2.024613380432129,-2.852175712585449,-2.3176095485687256,-0.26083582639694214,-3.7628660202026367,-5.554413318634033,-3.8195183277130127,-0.3405418395996094,-5.84719705581665,-4.004011154174805,5.2073869705200195,1.7581192255020142,3.733630657196045,2.2710156440734863,4.177136421203613,5.752198219299316,1.7944830656051636
3,1.3954200744628906,-1.6127023696899414,-5.7670769691467285,-4.1494526863098145,-2.470719814300537,-3.9101719856262207,-1.7336457967758179,-4.9617919921875,-2.685802459716797,-5.180959701538086,-1.107036828994751,5.43266487121582,4.248765468597412,6.061707496643066,0.2732451260089874,4.065104007720947,5.5864338874816895,3.5832574367523193,0.449519544839859,2.1075007915496826,2.823090076446533,2.2612812519073486,2.6293885707855225,-1.983376383781433,-2.8238391876220703,-2.348426103591919,-0.2414141297340393,-3.7919743061065674,-5.527747631072998,-3.7812182903289795,-0.3374186158180237,-5.810689449310303,-3.964322566986084,5.244973182678223,1.7739604711532593,3.705960988998413,2.238581895828247,4.135770797729492,5.783203601837158,1.817098617553711
4,1.4069721698760986,-1.599128007888794,-5.75261116027832,-4.132454872131348,-2.4759597778320312,-3.9325661659240723,-1.765458583831787,-4.93560266494751,-2.673853635787964,-5.147302150726318,-1.0828006267547607,5.465569496154785,4.273001670837402,6.095365047454834,0.28519392013549805,4.0912933349609375,5.5724382400512695,3.5682926177978516,0.45278623700141907,2.089463710784912,2.833040475845337,2.2988197803497314,2.634809732437134,-1.9458378553390503,-2.8138887882232666,-2.3676419258117676,-0.23783397674560547,-3.8109586238861084,-5.541743278503418,-3.7536203861236572,-0.3434246778488159,-5.777139663696289,-3.9425716400146484,5.269720554351807,1.74214768409729,3.6849992275238037,2.232254981994629,4.128077983856201,5.797669410705566,1.8306729793548584
5,1.3978327512741089,-1.5923290252685547,-5.757462978363037,-4.1248393058776855,-2.4636306762695312,-3.9527089595794678,-1.7557045221328735,-4.926948547363281,-2.668362855911255,-5.117661476135254,-1.0718048810958862,5.494338035583496,4.283997058868408,6.125005722045898,0.2906847596168518,4.099947452545166,5.605905055999756,3.5590786933898926,0.4432888627052307,2.0794644355773926,2.822984457015991,2.3307571411132812,2.6283817291259766,-1.9139004945755005,-2.8239448070526123,-2.3783748149871826,-0.2463715374469757,-3.8244266510009766,-5.508276462554932,-3.743870735168457,-0.35534176230430603,-5.748025417327881,-3.9404404163360596,5.276936054229736,1.7519017457962036,3.667356014251709,2.2481343746185303,4.118075370788574,5.79281759262085,1.8374719619750977
6,1.3778489828109741,-1.5945091247558594,-5.7614030838012695,-4.108093738555908,-2.447829246520996,-3.9599533081054688,-1.7816532850265503,-4.918163776397705,-2.6624555587768555,-5.09182071685791,-1.0639185905456543,5.51965856552124,4.2918829917907715,6.150846481323242,0.2965918779373169,4.108732223510742,5.5977935791015625,3.5672764778137207,0.4254492223262787,2.0714471340179443,2.8184783458709717,2.358095169067383,2.6205344200134277,-1.8865625858306885,-2.828450918197632,-2.3868536949157715,-0.262786865234375,-3.8239543437957764,-5.516387939453125,-3.734301805496216,-0.3604443669319153,-5.723633289337158,-3.9322071075439453,5.284543514251709,1.7259529829025269,3.6646361351013184,2.26813006401062,4.117578983306885,5.788877487182617,1.835291862487793
7,1.3616207838058472,-1.5990779399871826,-5.7705078125,-4.115304946899414,-2.4352784156799316,-3.9645206928253174,-1.7505311965942383,-4.918405532836914,-2.661203384399414,-5.068952560424805,-1.0527842044830322,5.542144775390625,4.3030171394348145,6.173714637756348,0.2978441119194031,4.108490467071533,5.637521266937256,3.57588791847229,0.40452349185943604,2.065274715423584,2.8100595474243164,2.3779337406158447,2.6092963218688965,-1.866723895072937,-2.836869716644287,-2.3933115005493164,-0.2823103070259094,-3.823303461074829,-5.476660251617432,-3.734179735183716,-0.3716549873352051,-5.702793121337891,-3.923800230026245,5.283687114715576,1.7570750713348389,3.6644341945648193,2.285184144973755,4.107268810272217,5.779772758483887,1.8307230472564697
8,1.3378278017044067,-1.6109991073608398,-5.776844024658203,-4.09326171875,-2.426578998565674,-3.9573428630828857,-1.7782704830169678,-4.912440776824951,-2.659012794494629,-5.0486884117126465,-1.0446757078170776,5.562333583831787,4.311125755310059,6.193978786468506,0.3000347316265106,4.114455223083496,5.615158557891846,3.5986411571502686,0.38369739055633545,2.0595223903656006,2.8095297813415527,2.395697593688965,2.599299430847168,-1.8489599227905273,-2.837399482727051,-2.399751663208008,-0.3017614185810089,-3.811638832092285,-5.499022960662842,-3.727525234222412,-0.3762083947658539,-5.686252117156982,-3.907038688659668,5.288692951202393,1.7293357849121094,3.6770310401916504,2.296870470046997,4.1218767166137695,5.773436546325684,1.8188018798828125
9,1.3239747285842896,-1.6211106777191162,-5.790869235992432,-4.1081624031066895,-2.4194185733795166,-3.9522616863250732,-1.7301177978515625,-4.919755935668945,-2.662942886352539,-5.030812740325928,-1.0325556993484497,5.580250263214111,4.323245525360107,6.211854457855225,0.2961046099662781,4.107140064239502,5.664273262023926,3.6123247146606445,0.3665634095668793,2.0557873249053955,2.8003106117248535,2.404749631881714,2.5886759757995605,-1.8399080038070679,-2.84661865234375,-2.4048547744750977,-0.3181138336658478,-3.807926893234253,-5.449908256530762,-3.7346553802490234,-0.3959207832813263,-5.67221736907959,-3.901930093765259,5.280751705169678,1.7774884700775146,3.6856491565704346,2.306572437286377,4.1162848472595215,5.759411334991455,1.8086903095245361
10,1.3011951446533203,-1.6398108005523682,-5.791640281677246,-4.071291446685791,-2.418121337890625,-3.932898998260498,-1.7614235877990723,-4.911323070526123,-2.652442455291748,-5.014662742614746,-1.025905966758728,5.596628665924072,4.329895496368408,6.228004455566406,0.30660492181777954,4.115572929382324,5.63185977935791,3.6417784690856934,0.35381409525871277,2.0504379272460938,2.8096683025360107,2.4168202877044678,2.59438419342041,-1.8278374671936035,-2.8372609615325928,-2.4130263328552246,-0.3298160433769226,-3.7940995693206787,-5.482321739196777,-3.7256362438201904,-0.39392757415771484,-5.662487983703613,-3.891594171524048,5.2886576652526855,1.7461826801300049,3.708254814147949,2.3100287914276123,4.149174690246582,5.758640289306641,1.7899901866912842
11,1.2883379459381104,-1.6498541831970215,-5.82057523727417,-4.086244583129883,-2.4120333194732666,-3.9233791828155518,-1.7110928297042847,-4.930422782897949,-2.674590826034546,-5.000491142272949,-1.0181242227554321,5.611414432525635,4.337677001953125,6.242176055908203,0.2844565510749817,4.096473217010498,5.683620929718018,3.6542768478393555,0.34852761030197144,2.0508811473846436,2.7923812866210938,2.4153501987457275,2.572009801864624,-1.8293075561523438,-2.8545479774475098,-2.4176528453826904,-0.33524656295776367,-3.7909317016601562,-5.43056058883667,-3.745051860809326,-0.4399509131908417,-5.653781890869141,-3.903456687927246,5.268342971801758,1.7965134382247925,3.720163106918335,2.315817356109619,4.148721694946289,5.729705333709717,1.7799468040466309
12,1.2813925743103027,-1.679315447807312,-5.788967609405518,-4.044195175170898,-2.4107658863067627,-3.888428211212158,-1.7381073236465454,-4.908351898193359,-2.6261255741119385,-4.987052917480469,-0.9966095089912415,5.625178813934326,4.359191417694092,6.255614280700684,0.3329218029975891,4.118544101715088,5.651928901672363,3.6911263465881348,0.3472119867801666,2.0413739681243896,2.829357385635376,2.4289917945861816,2.625429630279541,-1.8156657218933105,-2.8175718784332275,-2.4319655895233154,-0.335172176361084,-3.7806766033172607,-5.462252616882324,-3.722604513168335,-0.3988695740699768,-5.649355888366699,-3.8915748596191406,5.291574954986572,1.7694989442825317,3.7550251483917236,2.322256326675415,4.186283111572266,5.761312484741211,1.7504856586456299
13,1.244391679763794,-1.6740726232528687,-5.858476161956787,-4.04202127456665,-2.4086813926696777,-3.8880467414855957,-1.6959490776062012,-4.956950664520264,-2.6980669498443604,-4.975124835968018,-1.027464747428894,5.638858795166016,4.328336238861084,6.267542362213135,0.2609804570674896,4.069945335388184,5.704779148101807,3.693974733352661,0.3560439646244049,2.0524795055389404,2.7755186557769775,2.408219337463379,2.5541396141052246,-1.8364382982254028,-2.871410608291626,-2.4348621368408203,-0.32573044300079346,-3.772162675857544,-5.409402370452881,-3.7718558311462402,-0.4848962724208832,-5.644075393676758,-3.950390338897705,5.240283966064453,1.811657190322876,3.7582204341888428,2.3215255737304688,4.198953628540039,5.691803932189941,1.7557284832000732
14,1.28849196434021,-1.7229331731796265,-5.790856838226318,-4.016101360321045,-2.409903049468994,-3.8303840160369873,-1.718403697013855,-4.9076409339904785,-2.623581886291504,-4.9629316329956055,-0.9594689011573792,5.650797367095947,4.396331787109375,6.279735565185547,0.33546552062034607,4.119255065917969,5.675227642059326,3.7460126876831055,0.36237168312072754,2.0315346717834473,2.842679977416992,2.4330430030822754,2.6342475414276123,-1.8116146326065063,-2.8042492866516113,-2.459641218185425,-0.3137248754501343,-3.7651307582855225,-5.438953876495361,-3.7226901054382324,-0.41717830300331116,-5.644520282745361,-3.8984110355377197,5.291928768157959,1.7892025709152222,3.8142318725585938,2.3401684761047363,4.220082759857178,5.75942325592041,1.7068679332733154
15,1.2338683605194092,-1.7104812860488892,-5.855996608734131,-3.981642246246338,-2.394132137298584,-3.8343453407287598,-1.6857115030288696,-4.9659013748168945,-2.6875197887420654,-4.951732158660889,-1.0135440826416016,5.665328502655029,4.342256546020508,6.290935039520264,0.2715277075767517,4.060994625091553,5.724760055541992,3.7422447204589844,0.3829251825809479,2.050124406814575,2.784654378890991,2.4021108150482178,2.575472593307495,-1.842546820640564,-2.8622748851776123,-2.463063955307007,-0.2901429831981659,-3.7553677558898926,-5.389421463012695,-3.7811262607574463,-0.4917941391468048,-5.6413726806640625,-3.9784905910491943,5.232257843017578,1.8218947649002075,3.8104159832000732,2.353268623352051,4.245875358581543,5.694283485412598,1.7193198204040527
16,1.2749055624008179,-1.7523235082626343,-5.810777187347412,-3.9560954570770264,-2.393803358078003,-3.7798426151275635,-1.6887731552124023,-4.933409214019775,-2.6423444747924805,-4.938500881195068,-0.9655919075012207,5.678229808807373,4.390208721160889,6.304166316986084,0.3167029023170471,4.093486785888672,5.710987567901611,3.7925565242767334,0.40175455808639526,2.0375866889953613,2.82828688621521,2.4214673042297363,2.629230499267578,-1.8231902122497559,-2.8186423778533936,-2.485059976577759,-0.26783040165901184,-3.7411718368530273,-5.403193950653076,-3.7497670650482178,-0.4545555114746094,-5.642791748046875,-3.961510181427002,5.265472888946533,1.8188331127166748,3.865811347961426,2.367652654647827,4.267416954040527,5.739502906799316,1.6774775981903076
17,1.2539373636245728,-1.7537009716033936,-5.843827247619629,-3.9129884243011475,-2.366032600402832,-3.766369342803955,-1.6546428203582764,-4.971256256103516,-2.6786115169525146,-4.92540979385376,-0.9918246269226074,5.695636749267578,4.363975524902344,6.317257404327393,0.2804357409477234,4.055639743804932,5.746252536773682,3.8047778606414795,0.4319925904273987,2.0521926879882812,2.7963619232177734,2.4007556438446045,2.604140043258667,-1.8439018726348877,-2.85056734085083,-2.494633436203003,-0.23765335977077484,-3.730106830596924,-5.367928981781006,-3.7879104614257812,-0.5018207430839539,-5.640647888183594,-4.022370338439941,5.227182388305664,1.8529634475708008,3.8796956539154053,2.3884477615356445,4.293045520782471,5.7064528465271,1.6761001348495483
18,1.2869900465011597,-1.7855156660079956,-5.815361976623535,-3.8765335083007812,-2.366166114807129,-3.7194042205810547,-1.6554090976715088,-4.955749034881592,-2.6563892364501953,-4.911125659942627,-0.9673887491226196,5.709757328033447,4.388411521911621,6.331541538238525,0.3026580512523651,4.0711469650268555,5.731525897979736,3.850445032119751,0.4611761271953583,2.050337791442871,2.8180959224700928,2.413780927658081,2.6401872634887695,-1.8308764696121216,-2.8288333415985107,-2.512172222137451,-0.2077944576740265,-3.7093911170959473,-5.382655620574951,-3.773905038833618,-0.48774808645248413,-5.643589019775391,-4.040708541870117,5.24231481552124,1.8521971702575684,3.930239200592041,2.390151262283325,4.321444511413574,5.734918117523193,1.6442854404449463
19,1.2911813259124756,-1.7936137914657593,-5.830535411834717,-3.8473899364471436,-2.333822250366211,-3.6981327533721924,-1.621533751487732,-4.983450412750244,-2.681981325149536,-4.897247791290283,-0.9763395190238953,5.72831916809082,4.37946081161499,6.345419406890869,0.2770659029483795,4.043445587158203,5.757020950317383,3.870321273803711,0.49511945247650146,2.0622446537017822,2.796405076980591,2.3995211124420166,2.6329448223114014,-1.845136046409607,-2.8505241870880127,-2.5255141258239746,-0.17512063682079315,-3.6968064308166504,-5.357160568237305,-3.8021275997161865,-0.5239853858947754,-5.643537521362305,-4.09329891204834,5.213932514190674,1.8860725164413452,3.9537768363952637,2.414971351623535,4.328423023223877,5.719744682312012,1.6361873149871826
20,1.3215954303741455,-1.815656304359436,-5.808109760284424,-3.8084232807159424,-2.346041440963745,-3.659095048904419,-1.6324236392974854,-4.975312232971191,-2.671691417694092,-4.882953643798828,-0.962804913520813,5.741814613342285,4.392995357513428,6.359713554382324,0.2873559594154358,4.051583766937256,5.727452278137207,3.907754898071289,0.5281378626823425,2.0640792846679688,2.8089962005615234,2.4108753204345703,2.660494565963745,-1.8337817192077637,-2.83793306350708,-2.5423223972320557,-0.14218682050704956,-3.6785600185394287,-5.3867292404174805,-3.795741319656372,-0.5221738815307617,-5.6481194496154785,-4.126922130584717,5.220905780792236,1.8751826286315918,3.9991142749786377,2.397005081176758,4.354496955871582,5.742170333862305,1.6141448020935059
21,1.3379744291305542,-1.8220996856689453,-5.813540458679199,-3.8022992610931396,-2.3039798736572266,-3.6409103870391846,-1.6010860204696655,-4.997644901275635,-2.694484233856201,-4.870004177093506,-0.9588918685913086,5.759542942047119,4.396908283233643,6.3726630210876465,0.26456311345100403,4.0292510986328125,5.747249126434326,3.9242706298828125,0.5584347248077393,2.0745420455932617,2.792088747024536,2.400926113128662,2.660024404525757,-1.8437309265136719,-2.8548405170440674,-2.5568227767944336,-0.11351729184389114,-3.6698787212371826,-5.366932392120361,-3.8187787532806396,-0.55522620677948,-5.649968147277832,-4.168061256408691,5.197315692901611,1.9065202474594116,4.021965503692627,2.4361424446105957,4.336366176605225,5.736739635467529,1.6077014207839966
22,1.362494707107544,-1.834373950958252,-5.79441499710083,-3.758362293243408,-2.3318519592285156,-3.613636016845703,-1.625686764717102,-4.991704940795898,-2.68865704536438,-4.8571367263793945,-0.949419379234314,5.770493984222412,4.406380653381348,6.385530471801758,0.27039024233818054,4.035191059112549,5.700416564941406,3.949321746826172,0.5875149369239807,2.0771944522857666,2.8055500984191895,2.415538787841797,2.6816658973693848,-1.8291183710098267,-2.841379165649414,-2.5721030235290527,-0.0845491886138916,-3.6600899696350098,-5.413764953613281,-3.815612554550171,-0.5584554672241211,-5.654665946960449,-4.199242115020752,5.201654434204102,1.881919503211975,4.058314800262451,2.400085926055908,4.363325595855713,5.755865097045898,1.59542715549469
23,1.3803287744522095,-1.8380391597747803,-5.795713901519775,-3.769862651824951,-2.2753429412841797,-3.6032729148864746,-1.594974398612976,-5.0108232498168945,-2.7122979164123535,-4.846384525299072,-0.9390503764152527,5.786285877227783,4.416749477386475,6.39628267288208,0.24674928188323975,4.016072750091553,5.720931053161621,3.960099458694458,0.6061293482780457,2.088129758834839,2.7928872108459473,2.4069766998291016,2.681846857070923,-1.837680459022522,-2.8540420532226562,-2.5847082138061523,-0.067169688642025,-3.652958631515503,-5.393250465393066,-3.835716962814331,-0.5902475714683533,-5.657629013061523,-4.224079608917236,5.180920600891113,1.912631869316101,4.074912071228027,2.460237741470337,4.32802677154541,5.754566192626953,1.5917619466781616
24,1.3971000909805298,-1.8446072340011597,-5.778420448303223,-3.717057228088379,-2.311861515045166,-3.5870137214660645,-1.626295804977417,-5.003824710845947,-2.705516815185547,-4.835750102996826,-0.9315500855445862,5.7939887046813965,4.424249649047852,6.406917095184326,0.2535305917263031,4.0230712890625,5.664132118225098,3.974764823913574,0.6272647976875305,2.0911355018615723,2.811448812484741,2.4264395236968994,2.700906991958618,-1.8182176351547241,-2.8354804515838623,-2.5965328216552734,-0.045904286205768585,-3.650019645690918,-5.45004940032959,-3.832901954650879,-0.5922788977622986,-5.660708427429199,-4.244415760040283,5.18623685836792,1.8813104629516602,4.1025190353393555,2.416806936264038,4.361738204956055,5.771859645843506,1.5851938724517822
25,1.4102619886398315,-1.8469035625457764,-5.7796831130981445,-3.7362327575683594,-2.252373218536377,-3.5831639766693115,-1.5954357385635376,-5.021378517150879,-2.7314505577087402,-4.82700252532959,-0.9213929772377014,5.80744743347168,4.434406757354736,6.4156646728515625,0.22759702801704407,4.005517482757568,5.684638023376465,3.9817898273468018,0.6336575150489807,2.1029417514801025,2.800964593887329,2.4149391651153564,2.699303388595581,-1.829717993736267,-2.8459646701812744,-2.606543779373169,-0.039898183196783066,-3.640359401702881,-5.429543495178223,-3.851595878601074,-0.6221907734870911,-5.663627624511719,-4.254850387573242,5.16688871383667,1.9121705293655396,4.11275577545166,2.4825000762939453,4.319425106048584,5.770596981048584,1.5828975439071655
26,1.4201499223709106,-1.8514070510864258,-5.763295650482178,-3.681485652923584,-2.2854795455932617,-3.5743448734283447,-1.6251014471054077,-5.012632369995117,-2.7218282222747803,-4.818456649780273,-0.9154486060142517,5.8123908042907715,4.4403510093688965,6.424210548400879,0.23721930384635925,4.01426362991333,5.626160621643066,3.9900693893432617,0.6475203633308411,2.105394124984741,2.8211662769317627,2.4373300075531006,2.7180984020233154,-1.807327151298523,-2.825762987136841,-2.6153523921966553,-0.02566980943083763,-3.6411662101745605,-5.488020896911621,-3.8472306728363037,-0.6200804710388184,-5.664469242095947,-4.264728546142578,5.174076080322266,1.882504940032959,4.13435173034668,2.444575071334839,4.354691028594971,5.786984443664551,1.5783940553665161
27,1.4265480041503906,-1.8524574041366577,-5.766422748565674,-3.7005083560943604,-2.2340087890625,-3.5744080543518066,-1.5967413187026978,-5.028939247131348,-2.7488088607788086,-4.810850620269775,-0.9077469110488892,5.823544025421143,4.448052883148193,6.431816577911377,0.210238516330719,3.9979567527770996,5.642399311065674,3.994828224182129,0.6461690664291382,2.117384195327759,2.81040620803833,2.422010660171509,2.714315891265869,-1.8226464986801147,-2.8365230560302734,-2.623366355895996,-0.026599567383527756,-3.628652572631836,-5.471782207489014,-3.8643100261688232,-0.6467198729515076,-5.666189193725586,-4.266143798828125,5.156078815460205,1.910865068435669,4.140321731567383,2.502443790435791,4.312716960906982,5.783857345581055,1.5773437023162842
28,1.4310191869735718,-1.8566747903823853,-5.751015663146973,-3.649793863296509,-2.2602856159210205,-3.5699195861816406,-1.6207597255706787,-5.019135475158691,-2.737649440765381,-4.803796291351318,-0.9029735326766968,5.826617240905762,4.452826023101807,6.438870906829834,0.22139783203601837,4.007760524749756,5.587446689605713,3.9998605251312256,0.654752790927887,2.119035482406616,2.827885627746582,2.444154739379883,2.733004331588745,-1.8005024194717407,-2.8190436363220215,-2.63034725189209,-0.017580784857273102,-3.6303532123565674,-5.526734828948975,-3.8577194213867188,-0.640822172164917,-5.664910316467285,-4.269017219543457,5.164550304412842,1.886846661567688,4.158214092254639,2.4724459648132324,4.343889236450195,5.799264430999756,1.5731263160705566
29,1.4311518669128418,-1.8566488027572632,-5.7562031745910645,-3.664958953857422,-2.2185211181640625,-3.572122097015381,-1.5963085889816284,-5.033944606781006,-2.7638254165649414,-4.796875,-0.8973767757415771,5.835783958435059,4.458422660827637,6.445792198181152,0.19522172212600708,3.9929513931274414,5.598994731903076,4.003210544586182,0.6493585109710693,2.130671977996826,2.815565586090088,2.426578998565674,2.7279932498931885,-1.8180781602859497,-2.8313636779785156,-2.636878728866577,-0.022124197334051132,-3.616183042526245,-5.515186786651611,-3.8724119663238525,-0.6632627844810486,-5.664999961853027,-4.266040325164795,5.148521423339844,1.9112979173660278,4.161954879760742,2.5200154781341553,4.305549144744873,5.794076919555664,1.5731523036956787
30,1.4312678575515747,-1.8611184358596802,-5.742194652557373,-3.6192500591278076,-2.239387035369873,-3.5701608657836914,-1.614949107170105,-5.023744106292725,-2.7526512145996094,-4.790912628173828,-0.8934904932975769,5.837610721588135,4.462308883666992,6.451754570007324,0.20639587938785553,4.003151893615723,5.549018859863281,4.006656169891357,0.6545331478118896,2.131856679916382,2.828756093978882,2.446631908416748,2.7461884021759033,-1.798025369644165,-2.8181731700897217,-2.6428301334381104,-0.01650111749768257,-3.6171774864196777,-5.565162658691406,-3.863826274871826,-0.6547645330429077,-5.661985874176025,-4.265137672424316,5.1577534675598145,1.8926573991775513,4.177590847015381,2.495732307434082,4.331387996673584,5.8080854415893555,1.5686826705932617
31,1.4267250299453735,-1.8605930805206299,-5.749139785766602,-3.6301286220550537,-2.2053396701812744,-3.5736312866210938,-1.5942518711090088,-5.037044048309326,-2.7772412300109863,-4.784642219543457,-0.8889862895011902,5.845215320587158,4.466813564300537,6.458024978637695,0.18180593848228455,3.9898521900177,5.557553291320801,4.009118556976318,0.6472005844116211,2.1430702209472656,2.8147072792053223,2.4281651973724365,2.741062879562378,-1.8164921998977661,-2.8322219848632812,-2.6482348442077637,-0.02292794920504093,-3.6022324562072754,-5.556628227233887,-3.875978708267212,-0.6731058359146118,-5.660628318786621,-4.260396957397461,5.14393424987793,1.9133546352386475,4.180398941040039,2.534653902053833,4.296789646148682,5.801140308380127,1.569208025932312
32,1.4232778549194336,-1.865482211112976,-5.736727714538574,-3.5882534980773926,-2.222395420074463,-3.5734262466430664,-1.6090043783187866,-5.026791095733643,-2.766777753829956,-4.779646873474121,-0.8859041333198547,5.846208095550537,4.469895839691162,6.463020324707031,0.19226956367492676,4.000105381011963,5.512189865112305,4.011592864990234,0.6504814028739929,2.144221544265747,2.823958396911621,2.445894479751587,2.758768320083618,-1.7987627983093262,-2.8229708671569824,-2.6535580158233643,-0.019077932462096214,-3.602114200592041,-5.601991653442383,-3.8659555912017822,-0.6630092859268188,-5.6563239097595215,-4.257925987243652,5.153691291809082,1.8986021280288696,4.194623947143555,2.5141589641571045,4.318210601806641,5.813552379608154,1.5643188953399658
33,1.4155993461608887,-1.8650153875350952,-5.745146751403809,-3.5957465171813965,-2.1937456130981445,-3.5777792930603027,-1.591534972190857,-5.038788318634033,-2.7898988723754883,-4.774125576019287,-0.8816695809364319,5.8527069091796875,4.474130630493164,6.468541622161865,0.1691485345363617,3.9881081581115723,5.519321441650391,4.0134968757629395,0.6423766016960144,2.1552839279174805,2.808594226837158,2.4272499084472656,2.7542669773101807,-1.817407488822937,-2.8383350372314453,-2.658085823059082,-0.026429761201143265,-3.586761713027954,-5.594860076904297,-3.875929594039917,-0.6780272126197815,-5.653872013092041,-4.2527008056640625,5.141953945159912,1.9160715341567993,4.197243690490723,2.546659231185913,4.286282539367676,5.80513334274292,1.5647857189178467
34,1.4092395305633545,-1.8704535961151123,-5.7342963218688965,-3.556323528289795,-2.208005428314209,-3.5790419578552246,-1.6038202047348022,-5.028613567352295,-2.7803165912628174,-4.770079612731934,-0.8793848156929016,5.853220462799072,4.476415157318115,6.472587585449219,0.1787310391664505,3.9982826709747314,5.477633476257324,4.015170097351074,0.6449440717697144,2.156765937805176,2.8148908615112305,2.4432625770568848,2.771819591522217,-1.8013948202133179,-2.832038402557373,-2.6629738807678223,-0.02302124723792076,-3.585711717605591,-5.636548042297363,-3.8650124073028564,-0.6670718193054199,-5.648630142211914,-4.249945163726807,5.152157783508301,1.903786301612854,4.210642337799072,2.5288846492767334,4.3046040534973145,5.815983772277832,1.5593475103378296
35,1.3995658159255981,-1.8703776597976685,-5.74404239654541,-3.5616424083709717,-2.1829395294189453,-3.5840513706207275,-1.5891497135162354,-5.039595603942871,-2.8024723529815674,-4.765369415283203,-0.8748759031295776,5.859093189239502,4.480924129486084,6.477297782897949,0.1565752476453781,3.9873006343841553,5.484535217285156,4.0167765617370605,0.636692225933075,2.168116807937622,2.7986793518066406,2.42471981048584,2.768287420272827,-1.8199374675750732,-2.848249912261963,-2.6667675971984863,-0.03075181506574154,-3.5700080394744873,-5.629646301269531,-3.8733222484588623,-0.6797664165496826,-5.645380020141602,-4.244795799255371,5.142226696014404,1.918456792831421,4.213575839996338,2.5568277835845947,4.27412223815918,5.806237697601318,1.5594234466552734
36,1.3907811641693115,-1.876493215560913,-5.734584331512451,-3.5234851837158203,-2.195000171661377,-3.5866284370422363,-1.6001005172729492,-5.029503345489502,-2.7936336994171143,-4.76227331161499,-0.8734380602836609,5.859462738037109,4.482361793518066,6.480393886566162,0.16541406512260437,3.9973931312561035,5.445462703704834,4.017696380615234,0.6394357681274414,2.170186758041382,2.803021192550659,2.439905881881714,2.7861411571502686,-1.8047515153884888,-2.8439080715179443,-2.67130970954895,-0.026782754808664322,-3.5684149265289307,-5.6687188148498535,-3.8619112968444824,-0.6684340238571167,-5.639430522918701,-4.242455959320068,5.152892589569092,1.9075058698654175,4.226685047149658,2.541252374649048,4.290632247924805,5.815695762634277,1.5533078908920288
37,1.3798999786376953,-1.876915693283081,-5.745636463165283,-3.527794599533081,-2.172248601913452,-3.592068672180176,-1.5879393815994263,-5.039775371551514,-2.8154520988464355,-4.758378982543945,-0.8682588338851929,5.865176677703857,4.4875407218933105,6.484288215637207,0.14359553158283234,3.98712158203125,5.453027248382568,4.0192646980285645,0.6312894821166992,2.1823229789733887,2.7862420082092285,2.4214251041412354,2.7836153507232666,-1.8232322931289673,-2.860687255859375,-2.6744182109832764,-0.03466111421585083,-3.5522446632385254,-5.661154270172119,-3.8690385818481445,-0.6797767877578735,-5.635591983795166,-4.237563610076904,5.144465923309326,1.9196670055389404,4.230371952056885,2.566030502319336,4.260501384735107,5.804643630981445,1.5528854131698608
38,1.3690048456192017,-1.8838390111923218,-5.737317085266113,-3.4898033142089844,-2.1824944019317627,-3.5958287715911865,-1.5983794927597046,-5.029690742492676,-2.8070292472839355,-4.756246566772461,-0.8678039312362671,5.86568546295166,4.487995624542236,6.486420631408691,0.1520182490348816,3.997206211090088,5.415451526641846,4.019435882568359,0.634888768196106,2.1851110458374023,2.7894725799560547,2.436699867248535,2.8022189140319824,-1.807957649230957,-2.857456684112549,-2.678666591644287,-0.02939014695584774,-3.5505897998809814,-5.698729991912842,-3.857389450073242,-0.6682944297790527,-5.629083633422852,-4.2360405921936035,5.155660152435303,1.909226894378662,4.243740081787109,2.5524115562438965,4.276481628417969,5.812963008880615,1.5459620952606201
39,1.3574994802474976,-1.8846909999847412,-5.749748229980469,-3.4941773414611816,-2.1612274646759033,-3.601426601409912,-1.5884922742843628,-5.039559364318848,-2.8291947841644287,-4.753137111663818,-0.8615936040878296,5.8716535568237305,4.494205951690674,6.489530086517334,0.12985272705554962,3.987337827682495,5.424442768096924,4.021244525909424,0.6268046498298645,2.19852876663208,2.7721757888793945,2.417933464050293,2.800485372543335,-1.8267238140106201,-2.874753475189209,-2.6810877323150635,-0.03746500238776207,-3.533731698989868,-5.689738750457764,-3.863731861114502,-0.6791413426399231,-5.624816417694092,-4.23137903213501,5.148447036743164,1.919114112854004,4.248617172241211,2.5750129222869873,4.24570369720459,5.80053186416626,1.5451101064682007
40,1.3446598052978516,-1.892563819885254,-5.742240905761719,-3.4552032947540283,-2.1699678897857666,-3.6062629222869873,-1.5989062786102295,-5.02935791015625,-2.820707321166992,-4.752009391784668,-0.8624079823493958,5.872492790222168,4.493391513824463,6.490657806396484,0.13834020495414734,3.9975390434265137,5.387120246887207,4.020602703094482,0.6318276524543762,2.202005386352539,2.7750065326690674,2.434173583984375,2.820237874984741,-1.8104838132858276,-2.871922731399536,-2.685124397277832,-0.030298365280032158,-3.532611608505249,-5.7270612716674805,-3.8520026206970215,-0.6674900054931641,-5.617863655090332,-4.230954170227051,5.160256385803223,1.9087001085281372,4.2627787590026855,2.563227891921997,4.262516021728516,5.80803918838501,1.537237286567688
41,1.333055019378662,-1.8936097621917725,-5.756209850311279,-3.46073317527771,-2.149745225906372,-3.611694097518921,-1.5910195112228394,-5.03914213180542,-2.8439693450927734,-4.749629020690918,-0.8547781109809875,5.879055976867676,4.501021385192871,6.493038177490234,0.11507805436849594,3.987755060195923,5.398298740386963,4.022946357727051,0.6234911680221558,2.2171754837036133,2.757042169570923,2.414464235305786,2.8188376426696777,-1.8301931619644165,-2.8898870944976807,-2.6868534088134766,-0.038888946175575256,-3.514779806137085,-5.715882778167725,-3.857880115509033,-0.678587019443512,-5.613302707672119,-4.226369857788086,5.1539835929870605,1.9165868759155273,4.269270420074463,2.584268808364868,4.2300639152526855,5.794070243835449,1.5361913442611694
42,1.3183318376541138,-1.9025967121124268,-5.749094486236572,-3.4195637702941895,-2.157313108444214,-3.617565631866455,-1.601486325263977,-5.028651714324951,-2.8347623348236084,-4.749574184417725,-0.8573863506317139,5.88030481338501,4.4984130859375,6.493093013763428,0.12428516149520874,3.9982452392578125,5.359807968139648,4.0213141441345215,0.6304903626441956,2.2211098670959473,2.7601585388183594,2.4325520992279053,2.8400940895080566,-1.8121052980422974,-2.886770725250244,-2.690847158432007,-0.029270537197589874,-3.514979124069214,-5.754373550415039,-3.846179246902466,-0.666502058506012,-5.606006145477295,-4.227311611175537,5.166494369506836,1.9061200618743896,4.2846903800964355,2.5742053985595703,4.2491912841796875,5.801185607910156,1.5272043943405151
43,1.3072015047073364,-1.903383493423462,-5.764871597290039,-3.4275078773498535,-2.138094663619995,-3.6224734783172607,-1.5952439308166504,-5.038717746734619,-2.8599536418914795,-4.747829437255859,-0.8478764295578003,5.8877339363098145,4.507923126220703,6.494837760925293,0.09909376502037048,3.9881794452667236,5.374067306518555,4.024487018585205,0.6213146448135376,2.2384629249572754,2.741192579269409,2.4109487533569336,2.838291645050049,-1.833708643913269,-2.9057366847991943,-2.6919121742248535,-0.038976527750492096,-3.4958715438842773,-5.740114212036133,-3.8518693447113037,-0.6785290837287903,-5.601260185241699,-4.222527980804443,5.160874366760254,1.9123624563217163,4.293156147003174,2.5939066410064697,4.2138872146606445,5.7854084968566895,1.52641761302948
44,1.2905919551849365,-1.9137059450149536,-5.7575459480285645,-3.3829846382141113,-2.144904136657715,-3.6294407844543457,-1.6053210496902466,-5.027679443359375,-2.8491506576538086,-4.748929977416992,-0.8531302213668823,5.889346122741699,4.502669334411621,6.49373722076416,0.1098967045545578,3.999217987060547,5.332822322845459,4.0215373039245605,0.6309117078781128,2.2423763275146484,2.74540638923645,2.4318370819091797,2.86140775680542,-1.812820315361023,-2.9015228748321533,-2.6961512565612793,-0.02629362978041172,-3.4984192848205566,-5.7813591957092285,-3.840270757675171,-0.665482759475708,-5.593728542327881,-4.225122928619385,5.174167633056641,1.9022853374481201,4.310171604156494,2.5853874683380127,4.236886978149414,5.792734146118164,1.5160951614379883
45,1.2805767059326172,-1.9134478569030762,-5.775608539581299,-3.3948044776916504,-2.127082109451294,-3.6334736347198486,-1.6003661155700684,-5.0385284423828125,-2.8771657943725586,-4.747649669647217,-0.8411617279052734,5.897856712341309,4.514637470245361,6.4950175285339355,0.08188151568174362,3.9883692264556885,5.351312160491943,4.025773048400879,0.6200387477874756,2.2622756958007812,2.724863052368164,2.4071602821350098,2.858126163482666,-1.8374972343444824,-2.9220662117004395,-2.6966238021850586,-0.03801150619983673,-3.4777991771698,-5.762869358062744,-3.8460805416107178,-0.6791027188301086,-5.588849067687988,-4.219654083251953,5.168829917907715,1.9072402715682983,4.320827007293701,2.603533983230591,4.1974196434021,5.77467155456543,1.5163532495498657
46,1.262062430381775,-1.9255001544952393,-5.767072677612305,-3.346127510070801,-2.1336114406585693,-3.641695976257324,-1.6088944673538208,-5.026464462280273,-2.8636770248413086,-4.749975204467773,-0.8502796292304993,5.899659633636475,4.505519390106201,6.492691993713379,0.09537030011415482,4.000432968139648,5.305683135986328,4.021070957183838,0.6329649090766907,2.265435218811035,2.7313132286071777,2.431823968887329,2.8835654258728027,-1.812833547592163,-2.915616035461426,-2.7015023231506348,-0.02151809260249138,-3.4838876724243164,-5.808498382568359,-3.834543466567993,-0.6642990708351135,-5.581233501434326,-4.224179267883301,5.1830244064331055,1.898711919784546,4.3396148681640625,2.5962984561920166,4.2256879806518555,5.783207416534424,1.5043009519577026
47,1.253722071647644,-1.9228988885879517,-5.788350582122803,-3.3631527423858643,-2.117974281311035,-3.6445817947387695,-1.6052463054656982,-5.038936138153076,-2.8953306674957275,-4.748867511749268,-0.8351207375526428,5.90942907333374,4.520678520202637,6.493799686431885,0.06371664255857468,3.9879612922668457,5.329786777496338,4.026411533355713,0.6193425059318542,2.2880959510803223,2.7081451416015625,2.4028658866882324,2.877305030822754,-1.8417915105819702,-2.938784122467041,-2.7014846801757812,-0.036421999335289,-3.4617738723754883,-5.78439474105835,-3.840977430343628,-0.6801682710647583,-5.5761284828186035,-4.217170715332031,5.17735481262207,1.9023600816726685,4.352409839630127,2.612258195877075,4.180967807769775,5.761929512023926,1.5069022178649902
48,1.2333976030349731,-1.937554121017456,-5.7767438888549805,-3.3104159832000732,-2.1246423721313477,-3.6542108058929443,-1.609973430633545,-5.024827480316162,-2.8780877590179443,-4.752438068389893,-0.8495916724205017,5.911147594451904,4.506207466125488,6.49022912979126,0.08095961064100266,4.00206995010376,5.278384685516357,4.019643783569336,0.6363345980644226,2.2896485328674316,2.718590021133423,2.4319519996643066,2.90584135055542,-1.812705397605896,-2.9283392429351807,-2.707404375076294,-0.015194426290690899,-3.4723267555236816,-5.83579683303833,-3.8290464878082275,-0.6626514792442322,-5.5687255859375,-4.223871231079102,5.192789554595947,1.8976329565048218,4.373049259185791,2.606029987335205,4.215174674987793,5.773536205291748,1.4922469854354858
49,1.2268065214157104,-1.930496335029602,-5.80319881439209,-3.332923173904419,-2.112208127975464,-3.6558966636657715,-1.6089609861373901,-5.0405659675598145,-2.913710832595825,-4.751072406768799,-0.8304075002670288,5.9223222732543945,4.525391578674316,6.4915947914123535,0.04533637315034866,3.9863317012786865,5.309372901916504,4.025675296783447,0.6189794540405273,2.3149361610412598,2.690746545791626,2.397972583770752,2.894561529159546,-1.8466846942901611,-2.9561827182769775,-2.707010507583618,-0.03463829681277275,-3.4494454860687256,-5.804808616638184,-3.837226629257202,-0.6812978386878967,-5.562969207763672,-4.213925838470459,5.185582637786865,1.8986454010009766,4.387501239776611,2.618878126144409,4.165188789367676,5.747081279754639,1.4993047714233398
50,1.2052562236785889,-1.9497380256652832,-5.784925937652588,-3.277832269668579,-2.1192519664764404,-3.6667985916137695,-1.6057063341140747,-5.022158622741699,-2.8923404216766357,-4.755826950073242,-0.8516886830329895,5.92364501953125,4.504110336303711,6.48684024810791,0.06670676171779633,4.004738807678223,5.251524448394775,4.0172271728515625,0.6403797268867493,2.3143017292022705,2.7081117630004883,2.4310216903686523,2.9276373386383057,-1.8136354684829712,-2.9388175010681152,-2.714184522628784,-0.007554721087217331,-3.464111328125,-5.862657070159912,-3.8233284950256348,-0.6603418588638306,-5.556450843811035,-4.223115921020508,5.203309535980225,1.901900053024292,4.410233974456787,2.613457441329956,4.2043843269348145,5.765354156494141,1.4800630807876587
51,1.1993169784545898,-1.9347193241119385,-5.820639610290527,-3.3038110733032227,-2.1110148429870605,-3.6677234172821045,-1.6116911172866821,-5.04454231262207,-2.9310097694396973,-4.753687381744385,-0.827763020992279,5.936315059661865,4.528035640716553,6.488979816436768,0.02803761139512062,3.9823553562164307,5.289947509765625,4.0225958824157715,0.6189142465591431,2.3413267135620117,2.6716115474700928,2.392561435699463,2.9085123538970947,-1.8520957231521606,-2.9753177165985107,-2.7135391235351562,-0.032907888293266296,-3.4428420066833496,-5.8242340087890625,-3.835916519165039,-0.6817618608474731,-5.548907279968262,-4.208215713500977,5.192049980163574,1.8959152698516846,4.4251203536987305,2.622149705886841,4.15127420425415,5.729640483856201,1.4950817823410034
52,1.1783727407455444,-1.9626339673995972,-5.789151668548584,-3.2502384185791016,-2.118743658065796,-3.6790478229522705,-1.5928151607513428,-5.017217636108398,-2.906895399093628,-4.759446144104004,-0.8568735718727112,5.937001705169678,4.49892520904541,6.483221054077148,0.052151959389448166,4.009680271148682,5.226132392883301,4.014469623565674,0.6439205408096313,2.338801860809326,2.700892210006714,2.427074432373047,2.9487991333007812,-1.8175828456878662,-2.9460370540618896,-2.7217583656311035,0.001495671458542347,-3.458484649658203,-5.888049125671387,-3.816166877746582,-0.6576203107833862,-5.544738292694092,-4.220637321472168,5.214810848236084,1.914791226387024,4.4508056640625,2.617295265197754,4.192142009735107,5.7611284255981445,1.4671671390533447
53,1.1700003147125244,-1.934061884880066,-5.841147422790527,-3.2748255729675293,-2.115521192550659,-3.6806061267852783,-1.6151305437088013,-5.052445888519287,-2.945525646209717,-4.756049633026123,-0.8279262781143188,5.95114278793335,4.527872562408447,6.486617565155029,0.01352161169052124,3.974452018737793,5.271510601043701,4.01619291305542,0.6191912889480591,2.3653554916381836,2.649203062057495,2.3866453170776367,2.9179508686065674,-1.8580121994018555,-2.9977262020111084,-2.7210421562194824,-0.03100070171058178,-3.4442262649536133,-5.842670917510986,-3.838672637939453,-0.6805564165115356,-5.533060073852539,-4.198213577270508,5.194588661193848,1.8924758434295654,4.463591575622559,2.6207399368286133,4.1406402587890625,5.709132671356201,1.495739221572876
54,1.1535258293151855,-1.9769948720932007,-5.787911891937256,-3.2288739681243896,-2.1253466606140137,-3.6904242038726807,-1.56961989402771,-5.00916862487793,-2.9226481914520264,-4.762418270111084,-0.8651387691497803,5.951178550720215,4.490660190582275,6.480248928070068,0.03639910742640495,4.01772928237915,5.203491687774658,4.012762069702148,0.6450168490409851,2.362514019012451,2.6968555450439453,2.417785882949829,2.969386339187622,-1.8268715143203735,-2.950073719024658,-2.7295918464660645,0.01278226263821125,-3.4537038803100586,-5.910689830780029,-3.8063454627990723,-0.6553487181663513,-5.5338287353515625,-4.215394020080566,5.227540016174316,1.9379864931106567,4.493951797485352,2.6156041622161865,4.177577972412109,5.762368202209473,1.4528062343597412
55,1.1376253366470337,-1.9295873641967773,-5.861234664916992,-3.245419502258301,-2.127535104751587,-3.6954469680786133,-1.618402123451233,-5.063575744628906,-2.9558348655700684,-4.7575531005859375,-0.8321043252944946,5.966543197631836,4.5236945152282715,6.485114097595215,0.003212565090507269,3.963322162628174,5.253937244415283,4.006150722503662,0.6194826364517212,2.384955406188965,2.625288248062134,2.3798651695251465,2.9239394664764404,-1.8647922277450562,-3.0216410160064697,-2.729189157485962,-0.026946870610117912,-3.4549460411071777,-5.860244274139404,-3.8456876277923584,-0.6766976714134216,-5.514871120452881,-4.183022499084473,5.191864490509033,1.8892042636871338,4.500667095184326,2.6131510734558105,4.134231090545654,5.689045429229736,1.5002137422561646
56,1.130074381828308,-1.989387035369873,-5.787175178527832,-3.2144811153411865,-2.1421494483947754,-3.7009530067443848,-1.544835090637207,-5.002788543701172,-2.940002202987671,-4.763647556304932,-0.8758012652397156,5.966394901275635,4.479997634887695,6.479019641876221,0.019045157358050346,4.024109363555908,5.185419082641602,4.012665748596191,0.6415649652481079,2.3840487003326416,2.6898303031921387,2.4022316932678223,2.9869351387023926,-1.84242582321167,-2.957098960876465,-2.7372963428497314,0.026539087295532227,-3.4493257999420166,-5.928762435913086,-3.797255277633667,-0.6546435356140137,-5.522369861602783,-4.205330848693848,5.2382612228393555,1.9627712965011597,4.537116050720215,2.6061859130859375,4.160756587982178,5.7631049156188965,1.4404140710830688
57,1.104043960571289,-1.9300055503845215,-5.8699727058410645,-3.2179274559020996,-2.1465251445770264,-3.7122294902801514,-1.6098967790603638,-5.069797515869141,-2.9632437229156494,-4.7579851150512695,-0.8433866500854492,5.982110500335693,4.512412071228027,6.484682083129883,-0.0041962880641222,3.9571001529693604,5.23431921005249,3.9955532550811768,0.619688868522644,2.399709463119507,2.6090176105499268,2.372030735015869,2.933683395385742,-1.8726270198822021,-3.0379116535186768,-2.7380459308624268,-0.01572241261601448,-3.469827175140381,-5.879862308502197,-3.8502132892608643,-0.6708517074584961,-5.496374130249023,-4.164165496826172,5.188326835632324,1.897709608078003,4.536745071411133,2.601182699203491,4.131376266479492,5.680307388305664,1.49979567527771
58,1.1041985750198364,-1.9928245544433594,-5.795620441436768,-3.2044973373413086,-2.1641204357147217,-3.711775302886963,-1.531444787979126,-5.0068888664245605,-2.9574084281921387,-4.762517929077148,-0.8877977728843689,5.982659816741943,4.468000888824463,6.480149269104004,0.0016390120144933462,4.0200090408325195,5.17111873626709,4.011703014373779,0.6358765363693237,2.4019038677215576,2.671794891357422,2.3851675987243652,2.9967689514160156,-1.859490156173706,-2.9751343727111816,-2.7455835342407227,0.03933275490999222,-3.4491238594055176,-5.943062782287598,-3.7972683906555176,-0.6558560132980347,-5.50594425201416,-4.185356140136719,5.238851547241211,1.9761615991592407,4.577979564666748,2.5932722091674805,4.14514684677124,5.754659652709961,1.436976671218872
59,1.0736215114593506,-1.9392303228378296,-5.866421222686768,-3.1965973377227783,-2.1650800704956055,-3.727200508117676,-1.587660551071167,-5.067764759063721,-2.972846508026123,-4.757347583770752,-0.8622310161590576,5.997361183166504,4.49356746673584,6.4853196144104,-0.013798963278532028,3.9591331481933594,5.20890474319458,3.990419864654541,0.6206603646278381,2.4127540588378906,2.600947618484497,2.3638219833374023,2.9500930309295654,-1.880835771560669,-3.0459816455841064,-2.7477962970733643,0.0019028463866561651,-3.478266477584839,-5.905276775360107,-3.8469767570495605,-0.6669990420341492,-5.478409767150879,-4.141952991485596,5.188782691955566,1.9199457168579102,4.57786750793457,2.590683698654175,4.129495143890381,5.683858871459961,1.4905709028244019
60,1.0749138593673706,-1.991246223449707,-5.807802200317383,-3.192523241043091,-2.1810097694396973,-3.723557949066162,-1.5224995613098145,-5.017645835876465,-2.9741196632385254,-4.7593817710876465,-0.9015024900436401,5.9992899894714355,4.454296112060547,6.483285427093506,-0.015072070062160492,4.009252071380615,5.154975414276123,4.0087361335754395,0.6337639689445496,2.4173760414123535,2.6477129459381104,2.3718578815460205,3.0017595291137695,-1.8727998733520508,-2.999216318130493,-2.754559278488159,0.04927946254611015,-3.454202890396118,-5.9592061042785645,-3.803774833679199,-0.6592085957527161,-5.483253479003906,-4.155725955963135,5.230512619018555,1.9851067066192627,4.6196370124816895,2.5829391479492188,4.135876655578613,5.742477893829346,1.4385550022125244
61,1.0455950498580933,-1.9501229524612427,-5.860672950744629,-3.181229591369629,-2.1810812950134277,-3.738534688949585,-1.5626391172409058,-5.0648417472839355,-2.9866385459899902,-4.754755973815918,-0.8837695717811584,6.012657165527344,4.472029209136963,6.487911224365234,-0.027590982615947723,3.9620563983917236,5.180849075317383,3.9904699325561523,0.6230872869491577,2.4268553256988525,2.591625690460205,2.354492664337158,2.966226100921631,-1.890164852142334,-3.0553035736083984,-2.756840467453003,0.01887289434671402,-3.4807448387145996,-5.933332443237305,-3.841362953186035,-0.6677531599998474,-5.457206726074219,-4.115556716918945,5.189291477203369,1.9449671506881714,4.625463962554932,2.579868793487549,4.126905918121338,5.6896071434021,1.4796782732009888
62,1.0436620712280273,-1.9909132719039917,-5.81734561920166,-3.176981210708618,-2.194723129272461,-3.7355425357818604,-1.5111407041549683,-5.028436660766602,-2.9903171062469482,-4.754053592681885,-0.9169299006462097,6.015789031982422,4.438868999481201,6.488613605499268,-0.03126957640051842,3.9984617233276367,5.1352410316467285,4.005308628082275,0.6371859908103943,2.431751251220703,2.623541831970215,2.361003875732422,3.0064141750335693,-1.8836534023284912,-3.0233874320983887,-2.7629926204681396,0.05884994938969612,-3.4617950916290283,-5.978940486907959,-3.8106038570404053,-0.664232611656189,-5.455793857574463,-4.1224188804626465,5.219903945922852,1.9964655637741089,4.664340019226074,2.571345329284668,4.133403778076172,5.732934474945068,1.4388879537582397
63,1.01766836643219,-1.9601932764053345,-5.856563568115234,-3.1683993339538574,-2.1962075233459473,-3.747676372528076,-1.5388201475143433,-5.06439733505249,-3.003150224685669,-4.749359130859375,-0.9047316908836365,6.028323650360107,4.4510674476623535,6.493308067321777,-0.044102609157562256,3.962501287460327,5.154812335968018,3.992595911026001,0.6276862025260925,2.44175386428833,2.578460454940796,2.3426737785339355,2.979520082473755,-1.9019834995269775,-3.0684688091278076,-2.763869524002075,0.033528149127960205,-3.4814653396606445,-5.95936918258667,-3.8372092247009277,-0.6723802089691162,-5.431298732757568,-4.086918830871582,5.187131881713867,1.9687861204147339,4.6760077476501465,2.566075563430786,4.12483024597168,5.693716526031494,1.469607949256897
64,1.0120774507522583,-1.9937857389450073,-5.823554992675781,-3.1592936515808105,-2.2081217765808105,-3.7469069957733154,-1.4972355365753174,-5.037845611572266,-3.0054380893707275,-4.746524810791016,-0.9329060316085815,6.031578063964844,4.422893047332764,6.496142387390137,-0.04639052599668503,3.9890527725219727,5.114340305328369,4.002506256103516,0.6457597017288208,2.444542407989502,2.601100444793701,2.351259708404541,3.0123047828674316,-1.8933974504470825,-3.0458288192749023,-2.770463228225708,0.06953056901693344,-3.4694390296936035,-5.999841213226318,-3.8168506622314453,-0.6697394251823425,-5.42464017868042,-4.089131832122803,5.209267616271973,2.0103707313537598,4.710887432098389,2.556478261947632,4.136729717254639,5.726725101470947,1.4360154867172241
65,0.990407407283783,-1.9698798656463623,-5.8539862632751465,-3.157087802886963,-2.2108521461486816,-3.755458116531372,-1.517630934715271,-5.06617546081543,-3.0209357738494873,-4.7415642738342285,-0.923159658908844,6.043843746185303,4.432639122009277,6.501102924346924,-0.06188837066292763,3.9607226848602295,5.133724689483643,3.9954416751861572,0.633731484413147,2.4561080932617188,2.563305139541626,2.3288521766662598,2.990755796432495,-1.9158048629760742,-3.0836241245269775,-2.768991708755493,0.04593140259385109,-3.481090784072876,-5.980456829071045,-3.835087299346924,-0.6796233654022217,-5.401315689086914,-4.058570384979248,5.182624340057373,1.9899753332138062,4.726526737213135,2.549826145172119,4.124310493469238,5.696293830871582,1.4599213600158691
66,0.9825695753097534,-1.9999336004257202,-5.827202320098877,-3.1411185264587402,-2.220768928527832,-3.757639169692993,-1.4823662042617798,-5.046157360076904,-3.0185437202453613,-4.737774848937988,-0.9476597905158997,6.04581356048584,4.408139228820801,6.504892349243164,-0.05949632450938225,3.980740785598755,5.094989776611328,4.000100135803223,0.6580155491828918,2.454610586166382,2.581510066986084,2.343531847000122,3.0198264122009277,-1.9011250734329224,-3.0654191970825195,-2.7776122093200684,0.08061613887548447,-3.476008892059326,-6.019191741943359,-3.823404312133789,-0.6745762825012207,-5.391119956970215,-4.0586466789245605,5.198814868927002,2.025239944458008,4.756744384765625,2.539775848388672,4.145054340362549,5.723077774047852,1.4298676252365112
67,0.9662910103797913,-1.979432463645935,-5.852353572845459,-3.148635149002075,-2.224217176437378,-3.762199640274048,-1.5002285242080688,-5.069347858428955,-3.0389950275421143,-4.732859134674072,-0.9371433854103088,6.058431148529053,4.4186553955078125,6.50980806350708,-0.07994769513607025,3.9575507640838623,5.1196746826171875,3.998368740081787,0.6388166546821594,2.468926191329956,2.5485548973083496,2.314286231994629,3.000819444656372,-1.9303709268569946,-3.098374366760254,-2.772847890853882,0.054971881210803986,-3.479137897491455,-5.9945068359375,-3.8345329761505127,-0.688331127166748,-5.368993282318115,-4.033632755279541,5.176694393157959,2.007377862930298,4.774785995483398,2.532905101776123,4.124563694000244,5.6979265213012695,1.4503687620162964
68,0.9575304388999939,-2.008763551712036,-5.828808784484863,-3.1237103939056396,-2.2313461303710938,-3.768423557281494,-1.4675034284591675,-5.0536932945251465,-3.0283255577087402,-4.729563236236572,-0.9596327543258667,6.057641506195068,4.39616584777832,6.51310396194458,-0.06927815079689026,3.9732048511505127,5.078649520874023,3.9969608783721924,0.6719826459884644,2.460834503173828,2.565941095352173,2.3394973278045654,3.0288712978363037,-1.905159592628479,-3.0809881687164307,-2.7856125831604004,0.09052184969186783,-3.4818477630615234,-6.035531997680664,-3.831059217453003,-0.677266538143158,-5.35726261138916,-4.033947467803955,5.188469409942627,2.040102958679199,4.799283981323242,2.5230560302734375,4.157414436340332,5.721471309661865,1.4210376739501953
69,0.9476123452186584,-1.9883902072906494,-5.85110330581665,-3.1447067260742188,-2.2354023456573486,-3.7679662704467773,-1.487219214439392,-5.073174953460693,-3.0566420555114746,-4.72513484954834,-0.9451978802680969,6.071658611297607,4.410600662231445,6.5175323486328125,-0.0975947380065918,3.953723192214966,5.113912582397461,4.001039505004883,0.6399540901184082,2.479962110519409,2.535862922668457,2.299694776535034,3.0098862648010254,-1.9449621438980103,-3.1110663414001465,-2.7759463787078857,0.05903030186891556,-3.475144147872925,-6.000268936157227,-3.8345837593078613,-0.6974504590034485,-5.336621284484863,-4.015039920806885,5.170121669769287,2.0203869342803955,4.8193440437316895,2.5167808532714844,4.123888969421387,5.699176788330078,1.441411018371582
70,0.9380888342857361,-2.019280195236206,-5.828495979309082,-3.1074721813201904,-2.2391579151153564,-3.780160665512085,-1.4526636600494385,-5.060662269592285,-3.0335915088653564,-4.723754405975342,-0.9681581854820251,6.066654682159424,4.387640476226807,6.5189127922058105,-0.07454416155815125,3.966236114501953,5.065412521362305,3.9917731285095215,0.6860410571098328,2.462616443634033,2.555002212524414,2.3399603366851807,3.03883957862854,-1.9046965837478638,-3.0919270515441895,-2.7954728603363037,0.09811542183160782,-3.488027334213257,-6.048768997192383,-3.8402554988861084,-0.6764228343963623,-5.325369358062744,-4.017074108123779,5.178094863891602,2.0549426078796387,4.8365936279296875,2.5069711208343506,4.172750473022461,5.7217841148376465,1.4105210304260254
71,0.9351835250854492,-1.9959917068481445,-5.849524021148682,-3.1453301906585693,-2.2440922260284424,-3.7724523544311523,-1.4785665273666382,-5.0769877433776855,-3.0731589794158936,-4.720005512237549,-0.9470123052597046,6.083675861358643,4.408786296844482,6.5226616859436035,-0.11411164700984955,3.9499106407165527,5.1159796714782715,4.003576278686523,0.6359316110610962,2.489637851715088,2.525883436203003,2.285737991333008,3.0177218914031982,-1.9589190483093262,-3.1210458278656006,-2.7783172130584717,0.0576629638671875,-3.4684534072875977,-5.998201847076416,-3.834094524383545,-0.7061512470245361,-5.306276321411133,-4.004021167755127,5.1635284423828125,2.0290398597717285,4.859882831573486,2.501786470413208,4.121944904327393,5.700756072998047,1.433809518814087
72,0.9237086772918701,-2.0300111770629883,-5.82637882232666,-3.0930967330932617,-2.2444608211517334,-3.793309450149536,-1.4380639791488647,-5.067309379577637,-3.0347354412078857,-4.721658229827881,-0.9732971787452698,6.0733561515808105,4.382501602172852,6.5210089683532715,-0.07568821310997009,3.9595894813537598,5.055689334869385,3.9838006496429443,0.6983150243759155,2.4607338905334473,2.548281669616699,2.3430583477020264,3.0485305786132812,-1.9015988111495972,-3.0986475944519043,-2.8070456981658936,0.10270784795284271,-3.4949374198913574,-6.058492183685303,-3.8508784770965576,-0.672286331653595,-5.297340393066406,-4.008002281188965,5.167505741119385,2.069542407989502,4.867926597595215,2.4909558296203613,4.1887407302856445,5.723901271820068,1.3997899293899536
73,0.9281705617904663,-2.0023138523101807,-5.846480369567871,-3.147500514984131,-2.2504653930664062,-3.7756943702697754,-1.4730697870254517,-5.080135345458984,-3.0862956047058105,-4.718472480773926,-0.9442031383514404,6.094577312469482,4.411595344543457,6.524194717407227,-0.12724840641021729,3.946763038635254,5.122091770172119,4.005782604217529,0.630082905292511,2.497680187225342,2.5189592838287354,2.275284767150879,3.024684190750122,-1.9693726301193237,-3.127969980239868,-2.7803797721862793,0.05310720205307007,-3.459299087524414,-5.992089748382568,-3.8328280448913574,-0.7128262519836426,-5.279281139373779,-3.9994518756866455,5.1573662757873535,2.034536600112915,4.896589279174805,2.487100839614868,4.122000217437744,5.703799724578857,1.4274871349334717
74,0.9133473634719849,-2.0388827323913574,-5.82300329208374,-3.084256410598755,-2.247816801071167,-3.806901216506958,-1.42570161819458,-5.0738444328308105,-3.035377264022827,-4.723529815673828,-0.9748311042785645,6.0794525146484375,4.380967140197754,6.519137382507324,-0.07633017003536224,3.953054189682007,5.052417755126953,3.9740419387817383,0.7048956155776978,2.4579596519470215,2.544100046157837,2.343698501586914,3.056187152862549,-1.9009590148925781,-3.1028292179107666,-2.8182449340820312,0.1027921810746193,-3.50056529045105,-6.061763763427734,-3.861123561859131,-0.6681586503982544,-5.273884296417236,-4.005204200744629,5.156737327575684,2.081904649734497,4.894070625305176,2.474731683731079,4.200239181518555,5.727276802062988,1.3909181356430054
75,0.9248217940330505,-2.009065866470337,-5.840578556060791,-3.1478641033172607,-2.254192352294922,-3.7795846462249756,-1.467608094215393,-5.082305431365967,-3.0924527645111084,-4.720726013183594,-0.9401848912239075,6.103644371032715,4.415613174438477,6.521941184997559,-0.1334056556224823,3.9445929527282715,5.126293182373047,4.005607604980469,0.6284921169281006,2.5012192726135254,2.5155487060546875,2.27221941947937,3.0322675704956055,-1.972438097000122,-3.131380558013916,-2.7846646308898926,0.049637917429208755,-3.4512009620666504,-5.987888336181641,-3.832531213760376,-0.7144044041633606,-5.255787372589111,-3.9992995262145996,5.151571750640869,2.0399980545043945,4.928519248962402,2.472196102142334,4.127971172332764,5.7097015380859375,1.420735239982605
76,0.9069084525108337,-2.0445237159729004,-5.818848609924316,-3.0850884914398193,-2.248988151550293,-3.818535804748535,-1.4180012941360474,-5.0800371170043945,-3.039031982421875,-4.728330135345459,-0.9723327159881592,6.0866851806640625,4.38346529006958,6.514337062835693,-0.07998479157686234,3.9468612670898438,5.057554244995117,3.965156316757202,0.7036504149436951,2.45629620552063,2.539942502975464,2.339344024658203,3.0610756874084473,-1.9053133726119995,-3.1069867610931396,-2.8271775245666504,0.09770570695400238,-3.501789093017578,-6.05662727355957,-3.8678719997406006,-0.6671100854873657,-5.25336217880249,-4.007294178009033,5.146319389343262,2.0896048545837402,4.917145729064941,2.4601054191589355,4.204180717468262,5.731431484222412,1.385277509689331
77,0.9234851598739624,-2.017293930053711,-5.83160924911499,-3.1478943824768066,-2.25445294380188,-3.786271810531616,-1.459760069847107,-5.084002494812012,-3.092196226119995,-4.725957870483398,-0.9368472099304199,6.110631465911865,4.418951034545898,6.516709327697754,-0.1331488937139511,3.9428961277008057,5.127180576324463,4.00095796585083,0.6319530606269836,2.49780535697937,2.514582633972168,2.2752766609191895,3.0411760807037354,-1.9693807363510132,-3.1323466300964355,-2.7937235832214355,0.04901253432035446,-3.4477450847625732,-5.987000942230225,-3.8344943523406982,-0.710407555103302,-5.234638690948486,-4.0031633377075195,5.145483493804932,2.0478460788726807,4.954216003417969,2.4584615230560303,4.137976169586182,5.718670845031738,1.4125070571899414
78,0.904089093208313,-2.0477066040039062,-5.813685894012451,-3.0938663482666016,-2.2479910850524902,-3.8269355297088623,-1.4141336679458618,-5.085606575012207,-3.044401168823242,-4.73467493057251,-0.9663188457489014,6.095032215118408,4.389479160308838,6.507992267608643,-0.08535395562648773,3.9412925243377686,5.067828178405762,3.958320140838623,0.6980204582214355,2.4541518688201904,2.5343363285064697,2.3332715034484863,3.0645737648010254,-1.9113858938217163,-3.112592935562134,-2.8351402282714844,0.09002271294593811,-3.4989302158355713,-6.046353340148926,-3.8706507682800293,-0.6675001978874207,-5.233091354370117,-4.0132880210876465,5.136490345001221,2.093472480773926,4.938687801361084,2.4486312866210938,4.203926086425781,5.736594200134277,1.382094144821167
79,0.9229802489280701,-2.025824785232544,-5.82063627243042,-3.1499412059783936,-2.252216339111328,-3.7947824001312256,-1.4500548839569092,-5.08585786819458,-3.0897738933563232,-4.733076572418213,-0.9329578280448914,6.116750717163086,4.422840118408203,6.5095906257629395,-0.13072676956653595,3.9410412311553955,5.127674102783203,3.99303936958313,0.6367648243904114,2.4892303943634033,2.5136828422546387,2.2801647186279297,3.050401210784912,-1.9644927978515625,-3.133246421813965,-2.806570291519165,0.049748796969652176,-3.44758939743042,-5.986507415771484,-3.8374722003936768,-0.703827977180481,-5.214387893676758,-4.011291027069092,5.138671875,2.057551145553589,4.974704265594482,2.446906328201294,4.1482954025268555,5.729643821716309,1.4039758443832397
80,0.9032421112060547,-2.049760103225708,-5.80716609954834,-3.105678081512451,-2.246344804763794,-3.8327860832214355,-1.4112910032272339,-5.0907745361328125,-3.049172878265381,-4.742062568664551,-0.9576868414878845,6.103885173797607,4.398110866546631,6.500604629516602,-0.09012576192617416,3.936124324798584,5.079336643218994,3.952601432800293,0.6920952200889587,2.4499995708465576,2.5274009704589844,2.328500986099243,3.067986488342285,-1.9161564111709595,-3.119528293609619,-2.8437838554382324,0.08255301415920258,-3.4944651126861572,-6.034844875335693,-3.871520757675171,-0.66693514585495,-5.212066650390625,-4.0221099853515625,5.126801490783691,2.0963151454925537,4.958946704864502,2.4392738342285156,4.203830242156982,5.743113994598389,1.3800405263900757
81,0.9225974678993225,-2.033525228500366,-5.808434963226318,-3.153966188430786,-2.249709129333496,-3.8028061389923096,-1.4397521018981934,-5.087947845458984,-3.0876712799072266,-4.741499423980713,-0.9272220730781555,6.123258590698242,4.42857551574707,6.5011677742004395,-0.12862427532672882,3.938950777053833,5.12961483001709,3.984250068664551,0.6409440636634827,2.4785351753234863,2.5116679668426514,2.2846333980560303,3.059162139892578,-1.9600239992141724,-3.135261297225952,-2.820708990097046,0.050802771002054214,-3.4479196071624756,-5.984566688537598,-3.840174674987793,-0.6969003677368164,-5.194160461425781,-4.022680759429932,5.1312713623046875,2.067854166030884,4.992509365081787,2.4368391036987305,4.157915115356445,5.74184513092041,1.3962754011154175
82,0.9026651382446289,-2.0513882637023926,-5.799287796020508,-3.117406129837036,-2.2456629276275635,-3.8370606899261475,-1.4078142642974854,-5.095922470092773,-3.0526652336120605,-4.750577926635742,-0.94736647605896,6.113124370574951,4.408431053161621,6.49208927154541,-0.09361814707517624,3.930976390838623,5.090383052825928,3.9469237327575684,0.6878395080566406,2.443932294845581,2.519562244415283,2.325652599334717,3.071661949157715,-1.9190047979354858,-3.1273670196533203,-2.853280544281006,0.07656127959489822,-3.4900805950164795,-6.02379846572876,-3.8722267150878906,-0.6649333834648132,-5.190427780151367,-4.032657623291016,5.116756439208984,2.099792003631592,4.977999687194824,2.4305953979492188,4.205776214599609,5.750992298126221,1.3784123659133911
83,0.9220543503761292,-2.0402703285217285,-5.795228958129883,-3.159271240234375,-2.2486019134521484,-3.8090121746063232,-1.4296268224716187,-5.090099334716797,-3.086486577987671,-4.751004219055176,-0.9195568561553955,6.130756855010986,4.4362406730651855,6.491662979125977,-0.127439484000206,3.9367997646331787,5.133170127868652,3.975846767425537,0.6444762945175171,2.4674391746520996,2.5085012912750244,2.288166046142578,3.067455530166626,-1.9564913511276245,-3.138427972793579,-2.834580659866333,0.052225176244974136,-3.447469472885132,-5.981011390686035,-3.8422608375549316,-0.6904947757720947,-5.17357873916626,-4.035721302032471,5.123603343963623,2.077979564666748,5.0095014572143555,2.427377462387085,4.167078018188477,5.755051136016846,1.3895303010940552
84,0.9014599919319153,-2.052919387817383,-5.79033899307251,-3.1279456615448,-2.2469913959503174,-3.840263605117798,-1.4034656286239624,-5.101385116577148,-3.054997444152832,-4.760282039642334,-0.9363064765930176,6.122847080230713,4.419490814208984,6.482385158538818,-0.09595029056072235,3.925513982772827,5.10055685043335,3.940720796585083,0.6858047842979431,2.4364688396453857,2.510889768600464,2.324414014816284,3.0755882263183594,-1.9202433824539185,-3.1360394954681396,-2.863279104232788,0.07232470065355301,-3.4865496158599854,-6.013624668121338,-3.873603582382202,-0.6619006991386414,-5.168356418609619,-4.043879985809326,5.106037616729736,2.1041407585144043,4.996132850646973,2.421976089477539,4.21005392074585,5.759941101074219,1.3768811225891113
85,0.9213635325431824,-2.046520709991455,-5.780993938446045,-3.165311336517334,-2.2498323917388916,-3.8129799365997314,-1.420119047164917,-5.092113971710205,-3.0862669944763184,-4.761415004730225,-0.9104698300361633,6.139401912689209,4.445327281951904,6.481252193450928,-0.1272197663784027,3.9347846508026123,5.137939929962158,3.9681308269500732,0.6477522850036621,2.4565646648406982,2.5044732093811035,2.290731906890869,3.0756304264068604,-1.9539254903793335,-3.1424560546875,-2.8476321697235107,0.05438249930739403,-3.4461324214935303,-5.976241588592529,-3.843747138977051,-0.6849775314331055,-5.1525187492370605,-4.049046516418457,5.115993499755859,2.0874874591827393,5.026643753051758,2.418107509613037,4.176008224487305,5.769286155700684,1.3832800388336182
86,0.8993090391159058,-2.0545670986175537,-5.780742645263672,-3.1370043754577637,-2.2510929107666016,-3.8425967693328857,-1.3986080884933472,-5.107486248016357,-3.056387424468994,-4.771081924438477,-0.9253239631652832,6.133114814758301,4.4304728507995605,6.471585273742676,-0.0973401889204979,3.919412612915039,5.109858512878418,3.9337399005889893,0.6859244108200073,2.428049325942993,2.5011508464813232,2.3244221210479736,3.0796914100646973,-1.9202351570129395,-3.1457784175872803,-2.8734641075134277,0.0696832537651062,-3.484271287918091,-6.0043230056762695,-3.875976800918579,-0.6583260297775269,-5.145918369293213,-4.0548577308654785,5.094404697418213,2.1089982986450195,5.013616561889648,2.413362503051758,4.216412544250488,5.769537448883057,1.3752334117889404
87,0.9206615686416626,-2.052919864654541,-5.76559591293335,-3.1716983318328857,-2.2539870738983154,-3.8146510124206543,-1.411525845527649,-5.093780517578125,-3.0869972705841064,-4.772501468658447,-0.9004982113838196,6.149142742156982,4.45529842376709,6.470165729522705,-0.12795016169548035,3.9331181049346924,5.143483638763428,3.961068868637085,0.6509678363800049,2.446098804473877,2.4999423027038574,2.2923505306243896,3.0841057300567627,-1.9523066282272339,-3.146986961364746,-2.859785556793213,0.05764109268784523,-3.444173574447632,-5.97069787979126,-3.8446314334869385,-0.6805770397186279,-5.130996227264404,-4.06172513961792,5.108793258666992,2.0960805416107178,5.044336318969727,2.408992290496826,4.184683322906494,5.784684181213379,1.376880407333374
88,0.8960877060890198,-2.056462287902832,-5.770975112915039,-3.1444787979125977,-2.258716344833374,-3.8441720008850098,-1.3937041759490967,-5.114568710327148,-3.0569586753845215,-4.782800197601318,-0.9150554537773132,6.1439032554626465,4.440741062164307,6.459867000579834,-0.09791142493486404,3.912330150604248,5.118402004241943,3.925865411758423,0.6878831386566162,2.419024705886841,2.489955425262451,2.32547664642334,3.0838429927825928,-1.9191805124282837,-3.1569738388061523,-2.8836278915405273,0.06832639127969742,-3.4835052490234375,-5.995779514312744,-3.8794548511505127,-0.654568612575531,-5.123154163360596,-4.064859390258789,5.081626892089844,2.1139023303985596,5.030523777008057,2.4050180912017822,4.224476337432861,5.7793049812316895,1.3733378648757935
89,0.9200805425643921,-2.06010103225708,-5.748843669891357,-3.1781888008117676,-2.2615718841552734,-3.814072608947754,-1.404092788696289,-5.094852447509766,-3.0886833667755127,-4.783987045288086,-0.8899937868118286,6.159830093383789,4.4658026695251465,6.458680152893066,-0.12963606417179108,3.9320461750030518,5.149439811706543,3.9545822143554688,0.6540729999542236,2.436103105545044,2.495326042175293,2.293015241622925,3.0932605266571045,-1.9516417980194092,-3.1516032218933105,-2.8711559772491455,0.06240790709853172,-3.441877603530884,-5.9647417068481445,-3.8448314666748047,-0.6774614453315735,-5.10911750793457,-4.073164939880371,5.102408409118652,2.103513717651367,5.06261682510376,2.4002583026885986,4.192856311798096,5.801436424255371,1.369699239730835
90,0.8916721343994141,-2.05863618850708,-5.761512756347656,-3.150329828262329,-2.270763397216797,-3.8450875282287598,-1.3891345262527466,-5.122949600219727,-3.0567479133605957,-4.795232772827148,-0.9059913754463196,6.155106067657471,4.449804782867432,6.447434425354004,-0.09770061820745468,3.90394926071167,5.12636661529541,3.9170877933502197,0.6912320852279663,2.4097158908843994,2.4768693447113037,2.3275372982025146,3.087839126586914,-1.9171197414398193,-3.1700599193573,-2.893641471862793,0.06798239797353745,-3.4843642711639404,-5.987814903259277,-3.8840086460113525,-0.650857150554657,-5.100126266479492,-4.073326587677002,5.067521572113037,2.11847186088562,5.046684741973877,2.3975017070770264,4.233811855316162,5.788767337799072,1.3711639642715454
91,0.9196305871009827,-2.0685765743255615,-5.730617523193359,-3.184701681137085,-2.2731926441192627,-3.811389923095703,-1.398054599761963,-5.095141887664795,-3.0913045406341553,-4.795572280883789,-0.8791220784187317,6.171237945556641,4.4766740798950195,6.447094917297363,-0.13225725293159485,3.9317567348480225,5.155518054962158,3.948582172393799,0.6568464040756226,2.426581382751465,2.4910566806793213,2.292725086212158,3.1033570766448975,-1.9519321918487549,-3.1558725833892822,-2.881989002227783,0.06922987103462219,-3.439507484436035,-5.958663463592529,-3.8442981243133545,-0.6757137775421143,-5.087052822113037,-4.0829758644104,5.097203254699707,2.1095516681671143,5.08119535446167,2.392413854598999,4.2001051902771,5.819662570953369,1.361223578453064
92,0.8859522938728333,-2.0610923767089844,-5.752663612365723,-3.1546597480773926,-2.288411855697632,-3.8453826904296875,-1.3851430416107178,-5.132709980010986,-3.055824041366577,-4.808140754699707,-0.8984730839729309,6.166553497314453,4.45732307434082,6.434526443481445,-0.09677664190530777,3.894188642501831,5.134028911590576,3.907597303390503,0.6953341960906982,2.4004862308502197,2.4616687297821045,2.3306190967559814,3.091479778289795,-1.9140381813049316,-3.185260534286499,-2.903421401977539,0.068634994328022,-3.4866573810577393,-5.980152606964111,-3.8893675804138184,-0.6473783850669861,-5.076941013336182,-4.0798115730285645,5.0522074699401855,2.1224632263183594,5.061763286590576,2.39176344871521,4.243846416473389,5.797616481781006,1.3687078952789307
93,0.9190316796302795,-2.078554630279541,-5.71124792098999,-3.1912426948547363,-2.2897417545318604,-3.8070085048675537,-1.3936399221420288,-5.094866752624512,-3.0946497917175293,-4.806965351104736,-0.8680465817451477,6.183045864105225,4.4877495765686035,6.435701847076416,-0.13560231029987335,3.9320316314697266,5.1614837646484375,3.942852020263672,0.6589900255203247,2.417457103729248,2.487257242202759,2.291626453399658,3.1143453121185303,-1.9530309438705444,-3.1596720218658447,-2.8926682472229004,0.07870226353406906,-3.4374682903289795,-5.95269775390625,-3.84329891204834,-0.6752185821533203,-5.065006732940674,-4.090834140777588,5.093103408813477,2.113966464996338,5.099372386932373,2.3863542079925537,4.205986499786377,5.839032173156738,1.3512455224990845
94,0.8790753483772278,-2.06408429145813,-5.744101047515869,-3.1578149795532227,-2.31299090385437,-3.8448562622070312,-1.3818403482437134,-5.143191337585449,-3.054535150527954,-4.821163177490234,-0.8925073146820068,6.178036212921143,4.4632887840271,6.421504020690918,-0.09548760950565338,3.883707284927368,5.141751289367676,3.8979742527008057,0.6992173194885254,2.391792058944702,2.4449846744537354,2.3345420360565186,3.0948381423950195,-1.9101152420043945,-3.201944589614868,-2.91292405128479,0.07084020972251892,-3.4896504878997803,-5.972430229187012,-3.894747734069824,-0.6444498300552368,-5.053762912750244,-4.0839738845825195,5.036665916442871,2.1257660388946533,5.07551383972168,2.389165163040161,4.253691673278809,5.806179046630859,1.365715742111206
95,0.9175733327865601,-2.089552640914917,-5.69211483001709,-3.1974968910217285,-2.312403917312622,-3.801795482635498,-1.3909895420074463,-5.095226287841797,-3.098036289215088,-4.8180060386657715,-0.8573018908500671,6.194830417633057,4.4984941482543945,6.424661159515381,-0.13898853957653046,3.9316723346710205,5.167221546173096,3.9368937015533447,0.6602787375450134,2.4085521697998047,2.482997179031372,2.2902960777282715,3.1254489421844482,-1.9543612003326416,-3.1639320850372314,-2.9036614894866943,0.09084803611040115,-3.436530113220215,-5.946959972381592,-3.842738389968872,-0.6754746437072754,-5.043139457702637,-4.0964741706848145,5.088937282562256,2.116616725921631,5.116002082824707,2.383397102355957,4.21043586730957,5.858165264129639,1.3402475118637085
96,0.8718699812889099,-2.068488121032715,-5.734368324279785,-3.1601977348327637,-2.3450400829315186,-3.8428494930267334,-1.3793058395385742,-5.152580261230469,-3.053692102432251,-4.833759307861328,-0.887321412563324,6.189387798309326,4.468474864959717,6.408907890319824,-0.09464437514543533,3.8743183612823486,5.149764060974121,3.8892664909362793,0.7016388773918152,2.38407039642334,2.428976058959961,2.338620185852051,3.0986199378967285,-1.9060369729995728,-3.2179532051086426,-2.9222073554992676,0.07584243267774582,-3.4920780658721924,-5.964417457580566,-3.8987388610839844,-0.6426515579223633,-5.030848503112793,-4.085824966430664,5.023134708404541,2.128300189971924,5.088190078735352,2.390976905822754,4.262147903442383,5.815911769866943,1.3613120317459106
97,0.9144374132156372,-2.1001992225646973,-5.675522804260254,-3.2021002769470215,-2.341837167739868,-3.7968215942382812,-1.389992356300354,-5.098245620727539,-3.100273847579956,-4.8288798332214355,-0.8479606509208679,6.206215858459473,4.507835865020752,6.413787364959717,-0.14122608304023743,3.928652763366699,5.172854423522949,3.9301013946533203,0.6608115434646606,2.3996801376342773,2.4760665893554688,2.289860725402832,3.135023832321167,-1.9547966718673706,-3.1708626747131348,-2.9152638912200928,0.10420248657464981,-3.437674045562744,-5.941327095031738,-3.8438825607299805,-0.6756128668785095,-5.021477222442627,-4.100013732910156,5.082621097564697,2.1176137924194336,5.129976749420166,2.3847525119781494,4.214275360107422,5.874757289886475,1.3296010494232178
98,0.8658716082572937,-2.075456142425537,-5.721741676330566,-3.161626100540161,-2.3827247619628906,-3.8384246826171875,-1.3777886629104614,-5.1589179039001465,-3.054091215133667,-4.845460414886475,-0.8813266754150391,6.200646877288818,4.4744696617126465,6.397206783294678,-0.09504349529743195,3.867980718612671,5.157770156860352,3.882464647293091,0.7018507719039917,2.377384662628174,2.4161977767944336,2.3418192863464355,3.103868007659912,-1.9028382301330566,-3.23073148727417,-2.9314887523651123,0.0845864862203598,-3.493027448654175,-5.956411361694336,-3.9001052379608154,-0.6425247192382812,-5.008546352386475,-4.086177349090576,5.013847827911377,2.129817485809326,5.100624084472656,2.3970375061035156,4.268325328826904,5.828538417816162,1.3543442487716675
99,0.9096960425376892,-2.1092374324798584,-5.662740707397461,-3.2028887271881104,-2.3766846656799316,-3.792354106903076,-1.390302062034607,-5.104824066162109,-3.1004600524902344,-4.840067386627197,-0.8407891392707825,6.217189788818359,4.515007495880127,6.402599811553955,-0.14141243696212769,3.922074317932129,5.1785359382629395,3.922377347946167,0.6611788272857666,2.39080810546875,2.4649899005889893,2.29127836227417,3.1417760848999023,-1.9533790349960327,-3.1819393634796143,-2.9273388385772705,0.11649215966463089,-3.4413368701934814,-5.935645580291748,-3.8471004962921143,-0.6750481724739075,-4.99998664855957,-4.102298736572266,5.073286056518555,2.1173040866851807,5.141265869140625,2.390162944793701,4.218818187713623,5.887539386749268,1.3205630779266357
100,0.8623418211936951,-2.0850393772125244,-5.706347465515137,-3.1612932682037354,-2.422184944152832,-3.8311190605163574,-1.3777073621749878,-5.162099361419678,-3.0556116104125977,-4.856351852416992,-0.8733870387077332,6.212128162384033,4.482409477233887,6.38631534576416,-0.09656398743391037,3.8647990226745605,5.165122032165527,3.8776257038116455,0.7004457712173462,2.371321201324463,2.4068763256073,2.3436026573181152,3.1107726097106934,-1.9010546207427979,-3.2400529384613037,-2.940962791442871,0.09623581171035767,-3.4930152893066406,-5.94905948638916,-3.8990375995635986,-0.6439951658248901,-4.987110137939453,-4.086303234100342,5.008830547332764,2.1298985481262207,5.1134419441223145,2.405094861984253,4.27227258682251,5.843932628631592,1.3447612524032593
101,0.9046127796173096,-2.116798162460327,-5.652761459350586,-3.1989991664886475,-2.4138803482055664,-3.787499189376831,-1.391593337059021,-5.113524436950684,-3.0987887382507324,-4.851795196533203,-0.8353359699249268,6.228146076202393,4.520460605621338,6.390872001647949,-0.13974104821681976,3.9133739471435547,5.184062480926514,3.9142351150512695,0.6621549129486084,2.3820412158966064,2.450819730758667,2.2944581508636475,3.1461756229400635,-1.9501992464065552,-3.1961095333099365,-2.939523220062256,0.12694746255874634,-3.447122812271118,-5.930119037628174,-3.8513858318328857,-0.6740856766700745,-4.978818416595459,-4.104249477386475,5.062485694885254,2.1160125732421875,5.150918483734131,2.397397518157959,4.224376201629639,5.897518634796143,1.313002586364746
102,0.8613415956497192,-2.095937967300415,-5.690093994140625,-3.1588263511657715,-2.460204839706421,-3.8212687969207764,-1.379233479499817,-5.163583755493164,-3.057443857192993,-4.866871356964111,-0.8638498783111572,6.224162578582764,4.491946697235107,6.375795841217041,-0.09839605540037155,3.863314390182495,5.171592712402344,3.873932361602783,0.698760449886322,2.36545991897583,2.3990962505340576,2.3443336486816406,3.118486166000366,-1.900323748588562,-3.247833013534546,-2.950627088546753,0.10893332958221436,-3.493454933166504,-5.942588806152344,-3.8967721462249756,-0.6465597748756409,-4.966547966003418,-4.08673620223999,5.006349086761475,2.1283721923828125,5.126389503479004,2.4125447273254395,4.274485111236572,5.8601861000061035,1.3338627815246582
103,0.9004421234130859,-2.123767614364624,-5.643991947174072,-3.1916754245758057,-2.4506630897521973,-3.7812023162841797,-1.393581509590149,-5.12227725982666,-3.096085786819458,-4.863726615905762,-0.8306074142456055,6.239463806152344,4.525189399719238,6.378940582275391,-0.137037992477417,3.904621124267578,5.189070224761963,3.9061813354492188,0.6641243696212769,2.3735299110412598,2.4356138706207275,2.2986812591552734,3.149648427963257,-1.9459760189056396,-3.211315393447876,-2.9515798091888428,0.13644437491893768,-3.4544031620025635,-5.925111293792725,-3.855525255203247,-0.6734528541564941,-4.958320140838623,-4.105994701385498,5.052321434020996,2.1140241622924805,5.1597900390625,2.4040191173553467,4.229973793029785,5.906288146972656,1.3060331344604492
104,0.862083911895752,-2.1067864894866943,-5.6747612953186035,-3.1545662879943848,-2.4952714443206787,-3.8094727993011475,-1.3819859027862549,-5.164611339569092,-3.05896258354187,-4.877160549163818,-0.8537904024124146,6.236800670623779,4.502006530761719,6.365506649017334,-0.0999147966504097,3.8622870445251465,5.177400588989258,3.8705263137817383,0.6976755261421204,2.35969877243042,2.3911876678466797,2.344770669937134,3.1261508464813232,-1.8998866081237793,-3.255741596221924,-2.9603991508483887,0.12148601561784744,-3.4953489303588867,-5.93678092956543,-3.8942692279815674,-0.6498143076896667,-4.946868419647217,-4.087251663208008,5.004900932312012,2.125619649887085,5.138717174530029,2.418201446533203,4.275256633758545,5.875518798828125,1.3230143785476685
105,0.8976002931594849,-2.130648612976074,-5.635723114013672,-3.1827096939086914,-2.4853193759918213,-3.7729122638702393,-1.3959674835205078,-5.129898548126221,-3.0930333137512207,-4.875244140625,-0.8259204030036926,6.251193523406982,4.529876708984375,6.367423057556152,-0.13398537039756775,3.8970000743865967,5.193353176116943,3.898427963256836,0.6669430732727051,2.365459442138672,2.420764207839966,2.3033745288848877,3.153167486190796,-1.941282868385315,-3.2261650562286377,-2.963434934616089,0.14591741561889648,-3.462705373764038,-5.920828342437744,-3.858884811401367,-0.6735830307006836,-4.938904285430908,-4.107253074645996,5.043881893157959,2.111638307571411,5.168060779571533,2.4088611602783203,4.234448432922363,5.914556980133057,1.299152135848999
106,0.8637222051620483,-2.116813898086548,-5.6612772941589355,-3.149033546447754,-2.5267601013183594,-3.796119451522827,-1.3852736949920654,-5.165660858154297,-3.0599350929260254,-4.886963844299316,-0.8440346717834473,6.249796390533447,4.5117621421813965,6.355703353881836,-0.10088732838630676,3.8612377643585205,5.182711124420166,3.866929531097412,0.6973690390586853,2.3541932106018066,2.3825976848602295,2.3455169200897217,3.1333436965942383,-1.8991403579711914,-3.264331579208374,-2.9701921939849854,0.13351403176784515,-3.4989395141601562,-5.9314703941345215,-3.891879081726074,-0.6534740328788757,-4.92833948135376,-4.08768367767334,5.00380277633667,2.1223320960998535,5.149813652038574,2.4221341609954834,4.27464485168457,5.889002799987793,1.312986969947815
107,0.8959289789199829,-2.1374096870422363,-5.628028869628906,-3.173354387283325,-2.516753911972046,-3.7624757289886475,-1.3984882831573486,-5.136035919189453,-3.0899970531463623,-4.885781764984131,-0.8209835290908813,6.2631049156188965,4.534813404083252,6.3568854331970215,-0.13094931840896606,3.890862464904785,5.196807384490967,3.8909847736358643,0.6702206134796143,2.3580482006073,2.406942367553711,2.3082387447357178,3.157008171081543,-1.9364185333251953,-3.2399868965148926,-2.975062131881714,0.15572069585323334,-3.47170090675354,-5.917374134063721,-3.86130690574646,-0.6744798421859741,-4.921021938323975,-4.10797643661499,5.037354946136475,2.1091175079345703,5.175612926483154,2.4118669033050537,4.237064361572266,5.922251224517822,1.2923911809921265
108,0.865691602230072,-2.1256775856018066,-5.650027275085449,-3.1426446437835693,-2.554205894470215,-3.7813663482666016,-1.3884373903274536,-5.16677713394165,-3.0603675842285156,-4.895902156829834,-0.8349793553352356,6.2627668380737305,4.520817756652832,6.346765041351318,-0.10132001340389252,3.860121250152588,5.187498569488525,3.8629508018493652,0.6976590156555176,2.349233865737915,2.373497724533081,2.3468594551086426,3.139906883239746,-1.897797703742981,-3.2734315395355225,-2.9798803329467773,0.14495158195495605,-3.5040221214294434,-5.926682949066162,-3.8896408081054688,-0.6572648286819458,-4.911439895629883,-4.0881757736206055,5.002840995788574,2.119168519973755,5.159407615661621,2.4249415397644043,4.272608757019043,5.900252819061279,1.3041235208511353
109,0.8951215744018555,-2.1437833309173584,-5.62127161026001,-3.1642887592315674,-2.5441620349884033,-3.749933958053589,-1.4009177684783936,-5.140714168548584,-3.087153911590576,-4.89495849609375,-0.8157490491867065,6.274847984313965,4.540048122406006,6.347708702087402,-0.12810643017292023,3.8861846923828125,5.199329376220703,3.883755683898926,0.6735920310020447,2.351522445678711,2.394498109817505,2.3131253719329834,3.1610751152038574,-1.9315316677093506,-3.2524311542510986,-2.9864206314086914,0.16582269966602325,-3.481138229370117,-5.914852142333984,-3.8628673553466797,-0.6758954524993896,-4.905141830444336,-4.108409404754639,5.032533168792725,2.1066882610321045,5.182349681854248,2.413477659225464,4.237489700317383,5.929008483886719,1.2860175371170044
110,0.8676818013191223,-2.133218288421631,-5.641158103942871,-3.135695219039917,-2.5771658420562744,-3.7652790546417236,-1.3909728527069092,-5.16788387298584,-3.060377836227417,-4.903675556182861,-0.8267691731452942,6.27532958984375,4.529027938842773,6.338991641998291,-0.10133040696382523,3.8590149879455566,5.191673755645752,3.8585095405578613,0.6982809901237488,2.3451497554779053,2.3642959594726562,2.3488526344299316,3.1457645893096924,-1.8958042860031128,-3.2826333045959473,-2.98929762840271,0.15576797723770142,-3.5102434158325195,-5.9225077629089355,-3.887521505355835,-0.6609128713607788,-4.896674156188965,-4.0890092849731445,5.001944541931152,2.116633415222168,5.167492389678955,2.427344799041748,4.269106864929199,5.909121990203857,1.296582579612732
111,0.8948939442634583,-2.1495001316070557,-5.615784168243408,-3.1558637619018555,-2.56703519821167,-3.7354307174682617,-1.403064250946045,-5.144068241119385,-3.0846011638641357,-4.902583599090576,-0.8102816343307495,6.286072254180908,4.545515537261963,6.340083599090576,-0.12555380165576935,3.8828306198120117,5.200798988342285,3.8765909671783447,0.6768146753311157,2.346057176589966,2.383662462234497,2.317948579788208,3.1651740074157715,-1.9267082214355469,-3.2632668018341064,-2.9974782466888428,0.17606793344020844,-3.4908134937286377,-5.913382530212402,-3.8637313842773438,-0.6774976253509521,-4.891668796539307,-4.108877658843994,5.02911376953125,2.1045420169830322,5.1882805824279785,2.414215564727783,4.2356486320495605,5.93449592590332,1.2803006172180176
112,0.8695098757743835,-2.1393685340881348,-5.6346917152404785,-3.128384590148926,-2.5953643321990967,-3.747931718826294,-1.3925257921218872,-5.168923854827881,-3.0601229667663574,-4.910134315490723,-0.8194476366043091,6.287189483642578,4.536349296569824,6.33253288269043,-0.10107546299695969,3.8579752445220947,5.195211410522461,3.85356068611145,0.6989976763725281,2.3422293663024902,2.355349540710449,2.35143780708313,3.150866746902466,-1.893218994140625,-3.2915797233581543,-2.998274803161621,0.16590340435504913,-3.5172336101531982,-5.918970108032227,-3.8854923248291016,-0.6641755104064941,-4.8844194412231445,-4.0904364585876465,5.001049041748047,2.1150805950164795,5.174210071563721,2.4300293922424316,4.264153003692627,5.915587902069092,1.2904322147369385
113,0.8949933648109436,-2.1544036865234375,-5.6117377281188965,-3.148280620574951,-2.585279703140259,-3.7191789150238037,-1.404807686805725,-5.146245002746582,-3.082402467727661,-4.908627986907959,-0.8046615719795227,6.296494483947754,4.551135540008545,6.334039211273193,-0.12335489690303802,3.8806540966033936,5.201099395751953,3.869330406188965,0.6797695159912109,2.3417141437530518,2.374589204788208,2.32265305519104,3.1691486835479736,-1.9220036268234253,-3.2723400592803955,-3.008260726928711,0.18632619082927704,-3.5005576610565186,-5.913082122802734,-3.864086389541626,-0.678966224193573,-4.880847454071045,-4.1096086502075195,5.026819229125977,2.1027987003326416,5.193507671356201,2.4144740104675293,4.231611728668213,5.938541889190674,1.2753971815109253
114,0.8710206151008606,-2.144144296646118,-5.6305389404296875,-3.120811700820923,-2.6088335514068604,-3.729449510574341,-1.3928641080856323,-5.169902801513672,-3.0597596168518066,-4.915277004241943,-0.8130264282226562,6.2981767654418945,4.542770862579346,6.327390193939209,-0.10071222484111786,3.856996536254883,5.198222637176514,3.848090171813965,0.6996205449104309,2.3406786918640137,2.346829891204834,2.3545267581939697,3.155189037322998,-1.8901300430297852,-3.3000993728637695,-3.0066733360290527,0.17529116570949554,-3.5246431827545166,-5.915958881378174,-3.8835301399230957,-0.666871964931488,-4.874833106994629,-4.092613697052002,5.00006628036499,2.1147422790527344,5.1797637939453125,2.4335994720458984,4.257833957672119,5.919740676879883,1.2856566905975342
115,0.8951736092567444,-2.1584854125976562,-5.609106540679932,-3.141676187515259,-2.5992825031280518,-3.7014524936676025,-1.4061495065689087,-5.147368431091309,-3.080594301223755,-4.9131760597229,-0.7989183068275452,6.305924892425537,4.556879043579102,6.329491138458252,-0.12154683470726013,3.879531145095825,5.200120449066162,3.8618335723876953,0.6824374794960022,2.338406562805176,2.3673529624938965,2.32720685005188,3.1729235649108887,-1.917449951171875,-3.279576301574707,-3.0188872814178467,0.19656284153461456,-3.510235548019409,-5.914061069488525,-3.8641104698181152,-0.6800358295440674,-4.872705459594727,-4.110641956329346,5.025448322296143,2.101456880569458,5.198180675506592,2.4144234657287598,4.225527286529541,5.941173076629639,1.271315574645996
116,0.8720496892929077,-2.14764142036438,-5.628510475158691,-3.1129648685455322,-2.617934465408325,-3.7100133895874023,-1.391848087310791,-5.170891761779785,-3.059427261352539,-4.919210433959961,-0.8075217604637146,6.308253765106201,4.548275947570801,6.323456764221191,-0.1003798097372055,3.8560075759887695,5.200985908508301,3.8421356678009033,0.6999949812889099,2.340630054473877,2.338683605194092,2.3580403327941895,3.15872859954834,-1.8866163492202759,-3.3082456588745117,-3.0143797397613525,0.18388353288173676,-3.5321402549743652,-5.913195610046387,-3.881596803665161,-0.6689019799232483,-4.8678297996521,-4.095587730407715,4.998890399932861,2.115758180618286,5.184359550476074,2.4385926723480225,4.250298500061035,5.921769142150879,1.2821593284606934
117,0.8951836824417114,-2.161872625350952,-5.607698440551758,-3.136162281036377,-2.609875440597534,-3.682582139968872,-1.4072370529174805,-5.14752721786499,-3.0791828632354736,-4.916371822357178,-0.7930035591125488,6.3142547607421875,4.562793731689453,6.326295375823975,-0.12013537436723709,3.8793723583221436,5.197723865509033,3.8539936542510986,0.6848798990249634,2.3359062671661377,2.361970901489258,2.331599235534668,3.1764910221099854,-1.9130574464797974,-3.2849583625793457,-3.0295703411102295,0.20685894787311554,-3.519754409790039,-5.916457653045654,-3.863973379135132,-0.6805042028427124,-4.867050647735596,-4.11178731918335,5.024883270263672,2.1003689765930176,5.202457427978516,2.4140126705169678,4.217572212219238,5.9425811767578125,1.267928123474121
118,0.8724308609962463,-2.1500186920166016,-5.628352165222168,-3.1047117710113525,-2.623255968093872,-3.6898443698883057,-1.3893873691558838,-5.172012805938721,-3.0592517852783203,-4.922095775604248,-0.8029872179031372,6.317499160766602,4.552810192108154,6.320571422576904,-0.10020440071821213,3.854886770248413,5.203946113586426,3.835814952850342,0.6999634504318237,2.342195987701416,2.3306620121002197,2.3619086742401123,3.161485195159912,-1.8827482461929321,-3.316267251968384,-3.021270751953125,0.19165892899036407,-3.539393663406372,-5.910235404968262,-3.879621744155884,-0.6702532172203064,-4.863119125366211,-4.099337100982666,4.997404098510742,2.118218421936035,5.1881794929504395,2.4455347061157227,4.241720676422119,5.921927452087402,1.2797820568084717
119,0.8947597742080688,-2.164787530899048,-5.607211589813232,-3.1318225860595703,-2.6182215213775635,-3.662959098815918,-1.4083443880081177,-5.146773338317871,-3.0781354904174805,-4.918358325958252,-0.7867953181266785,6.321415901184082,4.569002151489258,6.3243088722229,-0.11908818781375885,3.880126476287842,5.193704128265381,3.8457367420196533,0.6872221231460571,2.3338797092437744,2.3584423065185547,2.335845470428467,3.179868459701538,-1.9088112115859985,-3.288486957550049,-3.0405874252319336,0.2173902988433838,-3.5290751457214355,-5.920477390289307,-3.86385440826416,-0.6802176237106323,-4.863525867462158,-4.112618446350098,5.025076389312744,2.099261522293091,5.206477165222168,2.413071632385254,4.207920074462891,5.943068027496338,1.2650130987167358
120,0.8720142841339111,-2.151460886001587,-5.629776477813721,-3.095824956893921,-2.625488758087158,-3.6691818237304688,-1.3854148387908936,-5.173406600952148,-3.0593645572662354,-4.924087047576904,-0.7995458245277405,6.32606840133667,4.556251525878906,6.318580150604248,-0.10031720995903015,3.8534932136535645,5.2076873779296875,3.8293445110321045,0.699323296546936,2.345521926879883,2.3224103450775146,2.366044044494629,3.1634256839752197,-1.8786128759384155,-3.324518918991089,-3.0271799564361572,0.19861483573913574,-3.546048879623413,-5.906494140625,-3.8774874210357666,-0.670994758605957,-4.860280990600586,-4.103825092315674,4.995500564575195,2.1221911907196045,5.191384315490723,2.4549403190612793,4.232238292694092,5.92050313949585,1.2783397436141968
121,0.8935968279838562,-2.167484760284424,-5.607312202453613,-3.128645181655884,-2.6256513595581055,-3.643054485321045,-1.4097859859466553,-5.145148754119873,-3.0773699283599854,-4.919225692749023,-0.780141294002533,6.327342510223389,4.575655937194824,6.323441505432129,-0.11832266300916672,3.8817508220672607,5.187801361083984,3.8370070457458496,0.6896331310272217,2.3319578170776367,2.3567450046539307,2.3400075435638428,3.183028221130371,-1.9046493768692017,-3.290184259414673,-3.0522096157073975,0.22834475338459015,-3.5382168292999268,-5.926380157470703,-3.8639700412750244,-0.6790429353713989,-4.8616862297058105,-4.112473964691162,5.026008605957031,2.0978200435638428,5.210328578948975,2.4115846157073975,4.1967363357543945,5.942967414855957,1.2623157501220703
122,0.8706842660903931,-2.152160167694092,-5.632460594177246,-3.0860860347747803,-2.625394105911255,-3.64825439453125,-1.3799372911453247,-5.175158977508545,-3.0599279403686523,-4.925270080566406,-0.7973857522010803,6.334140300750732,4.558411121368408,6.317397117614746,-0.10088051110506058,3.851741075515747,5.212765216827393,3.8230509757995605,0.697797417640686,2.3507657051086426,2.3136508464813232,2.3702900409698486,3.164463520050049,-1.8743668794631958,-3.3332784175872803,-3.031937837600708,0.20478284358978271,-3.551704168319702,-5.901416301727295,-3.875025510787964,-0.6712520718574524,-4.858852863311768,-4.1090288162231445,4.993141174316406,2.127668857574463,5.194159030914307,2.4670820236206055,4.221860408782959,5.917819023132324,1.277640461921692
123,0.8912984132766724,-2.1701741218566895,-5.607735633850098,-3.1263010501861572,-2.633358955383301,-3.623446226119995,-1.4116984605789185,-5.142788410186768,-3.0767478942871094,-4.918980598449707,-0.7729719281196594,6.331990718841553,4.58282470703125,6.323686599731445,-0.11770053207874298,3.8841114044189453,5.1799445152282715,3.827772617340088,0.692267656326294,2.3299098014831543,2.3566768169403076,2.3442370891571045,3.185798168182373,-1.9004197120666504,-3.290252447128296,-3.0645081996917725,0.23973199725151062,-3.5472264289855957,-5.934237003326416,-3.864574670791626,-0.6768556833267212,-4.861076354980469,-4.110540866851807,5.027575492858887,2.095907688140869,5.214015960693359,2.4102485179901123,4.18423318862915,5.942543983459473,1.2596265077590942
124,0.8683775067329407,-2.152353525161743,-5.6359663009643555,-3.075589179992676,-2.624052047729492,-3.6272621154785156,-1.3733019828796387,-5.1771345138549805,-3.0611374378204346,-4.925615310668945,-0.7966358661651611,6.34182596206665,4.5591607093811035,6.317051887512207,-0.10208995640277863,3.8497653007507324,5.219182014465332,3.8173227310180664,0.6951099038124084,2.357844829559326,2.3045530319213867,2.374354600906372,3.16451096534729,-1.8703023195266724,-3.342376232147217,-3.0356099605560303,0.2103366106748581,-3.5559568405151367,-5.8949995040893555,-3.8720662593841553,-0.6711318492889404,-4.8584065437316895,-4.114872932434082,4.9905104637146,2.1343040466308594,5.196809768676758,2.481293201446533,4.210336208343506,5.914313316345215,1.277446985244751
125,0.8873801231384277,-2.172922372817993,-5.608433723449707,-3.1237897872924805,-2.641815185546875,-3.6047942638397217,-1.4136399030685425,-5.140130996704102,-3.0760984420776367,-4.91760778427124,-0.7655513286590576,6.335499286651611,4.590245246887207,6.325059413909912,-0.1170508936047554,3.8867685794830322,5.170947074890137,3.818084478378296,0.6951132416725159,2.327998161315918,2.3574411869049072,2.348818778991699,3.1877784729003906,-1.8958381414413452,-3.2894880771636963,-3.076962471008301,0.25105220079421997,-3.5560545921325684,-5.943234443664551,-3.865856885910034,-0.6735896468162537,-4.861285209655762,-4.106287002563477,5.029378414154053,2.093966007232666,5.217397689819336,2.4110968112945557,4.170799255371094,5.941845893859863,1.256878137588501
126,0.8651368021965027,-2.1524620056152344,-5.63958740234375,-3.065248966217041,-2.623357057571411,-3.606398344039917,-1.3666881322860718,-5.178748607635498,-3.0631141662597656,-4.9250383377075195,-0.7969928979873657,6.349014759063721,4.558803558349609,6.317628860473633,-0.10406654328107834,3.8481509685516357,5.2254557609558105,3.8123719692230225,0.691313624382019,2.3658368587493896,2.296200752258301,2.3778302669525146,3.163701295852661,-1.8668267726898193,-3.3507285118103027,-3.038980484008789,0.215807244181633,-3.5586540699005127,-5.888725757598877,-3.8686184883117676,-0.6705610156059265,-4.85859489440918,-4.120976448059082,4.988231658935547,2.1409177780151367,5.199814319610596,2.4952170848846436,4.197122573852539,5.91069221496582,1.2773387432098389
127,0.8815481662750244,-2.1756017208099365,-5.6096930503845215,-3.119502544403076,-2.650233745574951,-3.5875966548919678,-1.4143810272216797,-5.138077735900879,-3.075310230255127,-4.915370464324951,-0.7587560415267944,6.338486194610596,4.597040176391602,6.327296733856201,-0.11626261472702026,3.888822078704834,5.163167953491211,3.808199882507324,0.6977663040161133,2.327280282974243,2.3573319911956787,2.3540754318237305,3.1884799003601074,-1.890581488609314,-3.289597272872925,-3.088135004043579,0.2610969543457031,-3.564366102218628,-5.951013565063477,-3.8676624298095703,-0.6693859696388245,-4.861966609954834,-4.100521087646484,5.030573844909668,2.0932247638702393,5.220165729522705,2.416823387145996,4.1570820808410645,5.940586566925049,1.2541990280151367
128,0.8612362146377563,-2.1532182693481445,-5.642408847808838,-3.056847333908081,-2.6256837844848633,-3.5859265327453613,-1.3620896339416504,-5.179056167602539,-3.0656566619873047,-4.923708915710449,-0.7972845435142517,6.35532808303833,4.558511734008789,6.318958282470703,-0.10660900920629501,3.847843647003174,5.228672504425049,3.807814598083496,0.6872596740722656,2.3726723194122314,2.290358304977417,2.380506753921509,3.1627399921417236,-1.864150047302246,-3.3565709590911865,-3.0436489582061768,0.2220936268568039,-3.5603299140930176,-5.885509014129639,-3.865124225616455,-0.669189453125,-4.859152317047119,-4.126409530639648,4.9872636795043945,2.1455161571502686,5.203553199768066,2.5057218074798584,4.181832790374756,5.907870769500732,1.2765824794769287
129,0.8742867112159729,-2.178023338317871,-5.611956596374512,-3.1125476360321045,-2.657318353652954,-3.571714401245117,-1.4128458499908447,-5.13755464553833,-3.074457883834839,-4.913192272186279,-0.7537672519683838,6.341981410980225,4.602029323577881,6.329474925994873,-0.11541001498699188,3.8893449306488037,5.159219741821289,3.7985734939575195,0.6995478272438049,2.32889723777771,2.354556083679199,2.36006236076355,3.1879045963287354,-1.884594440460205,-3.2923731803894043,-3.096449136734009,0.2686530351638794,-3.5715978145599365,-5.954961776733398,-3.8693270683288574,-0.6647112369537354,-4.8628363609313965,-4.0959792137146,5.030269145965576,2.094759702682495,5.222019195556641,2.4279818534851074,4.143773078918457,5.938323020935059,1.2517775297164917
130,0.8572663068771362,-2.1553473472595215,-5.643915176391602,-3.051666736602783,-2.6317074298858643,-3.566143274307251,-1.360798954963684,-5.17756986618042,-3.0682177543640137,-4.922337532043457,-0.7958781123161316,6.360537528991699,4.559918403625488,6.320329666137695,-0.10917007923126221,3.849329710006714,5.227201461791992,3.802706480026245,0.6843191981315613,2.376521348953247,2.287825345993042,2.3827707767486572,3.1627683639526367,-1.8618857860565186,-3.3591039180755615,-3.050711154937744,0.2297946959733963,-3.562112808227539,-5.886980056762695,-3.862283706665039,-0.6667455434799194,-4.859879970550537,-4.130214214324951,4.988100528717041,2.146806478500366,5.207766532897949,2.511565923690796,4.1651105880737305,5.906364440917969,1.2744534015655518
