,0,1,2,3,4,5,6,7,8,9,10,11,12,13,14,15,16,17,18,19,20,21,22,23,24,25,26,27,28,29,30,31,32,33,34,35,36,37,38,39
0,3.351788282394409,-0.7708198428153992,-0.35167840123176575,-1.0587724447250366,-1.8464595079421997,-3.731006622314453,-0.02834281511604786,-4.360182762145996,-0.3933839499950409,-2.829160690307617,-3.351788282394409,2.829160690307617,4.299307823181152,0.4698465168476105,4.915639400482178,3.153463840484619,2.165529251098633,0.9504781365394592,6.208363056182861,5.421098232269287,5.474185466766357,4.985494136810303,0.3933839499950409,-4.985494136810303,-5.474185466766357,-5.421098232269287,-6.208363056182861,-0.9504781365394592,-2.165529251098633,-3.153463840484619,-4.915639400482178,-0.4698465168476105,-4.299307823181152,4.360182762145996,0.02834281511604786,3.731006622314453,1.8464595079421997,1.0587724447250366,0.35167840123176575,0.7708198428153992
1,3.4046108722686768,-0.823642373085022,-0.29885590076446533,-1.005949854850769,-1.8992820978164673,-3.7838292121887207,-0.08116511255502701,-4.3073601722717285,-0.4462065100669861,-2.7763381004333496,-3.2989656925201416,2.8819832801818848,4.35213041305542,0.5226690769195557,4.86281681060791,3.2062864303588867,2.1127068996429443,0.897655725479126,6.261185646057129,5.473920822143555,5.42136287689209,4.932671546936035,0.3405613899230957,-5.03831672668457,-5.527008056640625,-5.3682756423950195,-6.155540466308594,-1.0033005475997925,-2.2183516025543213,-3.1006412506103516,-4.968461990356445,-0.4170239567756653,-4.246485233306885,4.413005352020264,-0.02447948232293129,3.6781840324401855,1.7936369180679321,1.1115950345993042,0.40450090169906616,0.7179973125457764
2,3.455331802368164,-0.8013796806335449,-0.24866582453250885,-0.9675173163414001,-1.9402981996536255,-3.7795636653900146,-0.029816240072250366,-4.261282920837402,-0.4479983150959015,-2.736764430999756,-3.2496140003204346,2.9219391345977783,4.401482105255127,0.5622429251670837,4.861024856567383,3.2523632049560547,2.1476030349731445,0.8454431295394897,6.300865650177002,5.5121564865112305,5.396421909332275,4.93761682510376,0.3381880521774292,-5.033371448516846,-5.5519490242004395,-5.3288254737854,-6.115183353424072,-1.0552978515625,-2.183455467224121,-3.057691812515259,-4.961479663848877,-0.3773069679737091,-4.211312770843506,4.459071636199951,0.026869386434555054,3.6859066486358643,1.7525721788406372,1.1499706506729126,0.45469096302986145,0.7402600049972534
3,3.4974467754364014,-0.7638476490974426,-0.22049671411514282,-0.9412645697593689,-1.9627275466918945,-3.7408499717712402,-0.06587228178977966,-4.246837139129639,-0.4272473454475403,-2.69948410987854,-3.215130090713501,2.9598686695098877,4.4359660148620605,0.5995233058929443,4.881775856018066,3.2668094635009766,2.094343662261963,0.7959314584732056,6.332586765289307,5.545581340789795,5.394265174865723,4.951131343841553,0.3487105667591095,-5.019856929779053,-5.554105758666992,-5.294760227203369,-6.083759307861328,-1.1059820652008057,-2.2367148399353027,-3.0568737983703613,-4.936893939971924,-0.34046441316604614,-4.202910423278809,4.480067729949951,-0.009186658076941967,3.7257165908813477,1.7365100383758545,1.175947666168213,0.48286008834838867,0.7777920365333557
4,3.5252325534820557,-0.7365351915359497,-0.18790203332901,-0.9183565378189087,-1.9778499603271484,-3.7036843299865723,-0.08951109647750854,-4.226348400115967,-0.41580730676651,-2.664557933807373,-3.1992604732513428,2.995389699935913,4.451836109161377,0.6344494819641113,4.893216133117676,3.2872984409332275,2.0466113090515137,0.7589366436004639,6.35239839553833,5.5721635818481445,5.3909711837768555,4.962985515594482,0.3449901342391968,-5.008002758026123,-5.557399749755859,-5.267636775970459,-6.063597679138184,-1.144182562828064,-2.284447193145752,-3.0423879623413086,-4.9246110916137695,-0.30568820238113403,-4.228538990020752,4.507835865020752,-0.03282546624541283,3.7619638442993164,1.7294762134552002,1.1988903284072876,0.5154547691345215,0.8051044940948486
5,3.5416834354400635,-0.7261603474617004,-0.20238348841667175,-0.8983721137046814,-1.9953103065490723,-3.669930934906006,-0.10902484506368637,-4.255589008331299,-0.42084604501724243,-2.6338226795196533,-3.1918115615844727,3.0269224643707275,4.459285259246826,0.6651847958564758,4.888177394866943,3.2580575942993164,2.00311279296875,0.7280097603797913,6.362544536590576,5.5923542976379395,5.404512882232666,4.958458423614502,0.3201664090156555,-5.0125298500061035,-5.543858051300049,-5.246904373168945,-6.055780410766602,-1.1768293380737305,-2.3279457092285156,-3.07991099357605,-4.935676574707031,-0.27513009309768677,-4.25266170501709,4.487122535705566,-0.05233921855688095,3.7934410572052,1.7262662649154663,1.2187036275863647,0.5009733438491821,0.8154793977737427
6,3.5547537803649902,-0.7392514944076538,-0.15523545444011688,-0.8759072422981262,-2.005833864212036,-3.6530463695526123,-0.08855431526899338,-4.220484733581543,-0.4024183452129364,-2.6060292720794678,-3.182002305984497,3.0565199851989746,4.469094276428223,0.6929781436920166,4.906604766845703,3.2931621074676514,1.9740140438079834,0.7181295156478882,6.366493225097656,5.607052326202393,5.392061710357666,4.989896297454834,0.3132336437702179,-4.9810919761657715,-5.556309223175049,-5.231337070465088,-6.049932479858398,-1.182907223701477,-2.3570444583892822,-3.042485237121582,-4.912827014923096,-0.24624453485012054,-4.30487585067749,4.53062629699707,-0.031868692487478256,3.8100366592407227,1.7263011932373047,1.2401074171066284,0.5481213927268982,0.8023882508277893
7,3.563375234603882,-0.7641904354095459,-0.20954401791095734,-0.8592333793640137,-2.0434300899505615,-3.6276943683624268,-0.12366203963756561,-4.281831741333008,-0.41807329654693604,-2.58247971534729,-3.159135103225708,3.0826199054718018,4.491961479187012,0.7165278196334839,4.890949726104736,3.2318148612976074,1.9345064163208008,0.7010599970817566,6.372238636016846,5.620969295501709,5.439624309539795,4.96550989151001,0.2725989818572998,-5.005478382110596,-5.50874662399292,-5.217803001403809,-6.052073955535889,-1.2022515535354614,-2.396552085876465,-3.107225179672241,-4.9445013999938965,-0.22380425035953522,-4.299398899078369,4.473017692565918,-0.0669764056801796,3.8338074684143066,1.7127631902694702,1.2564349174499512,0.49381279945373535,0.7774493098258972
8,3.5669522285461426,-0.7836516499519348,-0.157070592045784,-0.8365544080734253,-2.049314260482788,-3.615830898284912,-0.07010829448699951,-4.239355564117432,-0.3655669391155243,-2.5613954067230225,-3.159165382385254,3.108103036880493,4.491930961608887,0.737612247467041,4.943456172943115,3.2742912769317627,1.9223484992980957,0.707784116268158,6.379708290100098,5.628511428833008,5.416304111480713,5.0254950523376465,0.29955098032951355,-4.945493221282959,-5.532066822052002,-5.209720134735107,-6.042571067810059,-1.1890641450881958,-2.408709764480591,-3.065016984939575,-4.885275363922119,-0.19909700751304626,-4.368038654327393,4.522505283355713,-0.0134226493537426,3.8461623191833496,1.7169684171676636,1.278823733329773,0.5462862253189087,0.7579880952835083
9,3.5639543533325195,-0.8310871124267578,-0.2022118866443634,-0.8224174380302429,-2.101823568344116,-3.590583086013794,-0.09832964837551117,-4.288671970367432,-0.39579495787620544,-2.5420641899108887,-3.1345129013061523,3.132848024368286,4.5165839195251465,0.75694340467453,4.9132280349731445,3.224975109100342,1.8866772651672363,0.7075588703155518,6.386053562164307,5.6421732902526855,5.472530364990234,4.9978556632995605,0.24535872042179108,-4.973132610321045,-5.4758405685424805,-5.198647499084473,-6.042984962463379,-1.1925023794174194,-2.44438099861145,-3.1176917552948,-4.920237064361572,-0.18198397755622864,-4.372691631317139,4.475273132324219,-0.04164399951696396,3.8722095489501953,1.676801085472107,1.2933074235916138,0.5011449456214905,0.7105526328086853
10,3.564068078994751,-0.835993766784668,-0.1688196212053299,-0.8052361607551575,-2.11307430267334,-3.564751148223877,-0.051532063633203506,-4.264449119567871,-0.3477747142314911,-2.5273594856262207,-3.13765287399292,3.1553328037261963,4.513443946838379,0.771648108959198,4.961248397827148,3.2491981983184814,1.8755466938018799,0.7162637114524841,6.406559944152832,5.6502366065979,5.471169471740723,5.048028469085693,0.27508169412612915,-4.922959804534912,-5.477201461791992,-5.190842151641846,-6.023594379425049,-1.1829164028167725,-2.4555115699768066,-3.095381736755371,-4.8688435554504395,-0.16403870284557343,-4.426954746246338,4.506409645080566,0.00515359453856945,3.8923046588897705,1.6753203868865967,1.3140045404434204,0.5345371961593628,0.7056459784507751
11,3.5582780838012695,-0.8768800497055054,-0.1946551352739334,-0.7961823344230652,-2.1527106761932373,-3.530841827392578,-0.06395597010850906,-4.292446136474609,-0.3673820197582245,-2.513068675994873,-3.115560293197632,3.1786837577819824,4.535536289215088,0.7859388589859009,4.941641330718994,3.221201181411743,1.8445042371749878,0.7264790534973145,6.416809558868408,5.663287162780762,5.519669532775879,5.032900810241699,0.2359197586774826,-4.938087463378906,-5.428701400756836,-5.181410789489746,-6.0144453048706055,-1.1772667169570923,-2.486553907394409,-3.1279988288879395,-4.887474536895752,-0.15420499444007874,-4.433849811553955,4.479476451873779,-0.007270307280123234,3.9278829097747803,1.6403403282165527,1.3268802165985107,0.5087016224861145,0.6647597551345825
12,3.5536575317382812,-0.8757215142250061,-0.17125853896141052,-0.7882161736488342,-2.1645185947418213,-3.4947235584259033,-0.025810962542891502,-4.274355888366699,-0.33993685245513916,-2.504070281982422,-3.125554323196411,3.1987180709838867,4.525542259216309,0.7949373722076416,4.969086647033691,3.2392916679382324,1.8307571411132812,0.7380198240280151,6.440886497497559,5.671823024749756,5.5290656089782715,5.062924861907959,0.2525845170021057,-4.9080634117126465,-5.419305324554443,-5.1741838455200195,-5.993648529052734,-1.1703612804412842,-2.5003011226654053,-3.111684799194336,-4.855727195739746,-0.14586161077022552,-4.47093391418457,4.501632213592529,0.03087470680475235,3.956899404525757,1.6325124502182007,1.3431475162506104,0.5320981740951538,0.6659182906150818
13,3.552924394607544,-0.8997099995613098,-0.18794035911560059,-0.7866494059562683,-2.187148332595825,-3.457329750061035,-0.03341231122612953,-4.290472507476807,-0.3525533974170685,-2.495340347290039,-3.0992166996002197,3.219388008117676,4.5518798828125,0.803667426109314,4.956470012664795,3.223174810409546,1.8030602931976318,0.7514764070510864,6.454497814178467,5.6844048500061035,5.570869445800781,5.05251407623291,0.2282201200723648,-4.918474197387695,-5.377501487731934,-5.165643215179443,-5.978882789611816,-1.1637840270996094,-2.5279977321624756,-3.132444143295288,-4.865981578826904,-0.14650863409042358,-4.457001686096191,4.484488010406494,0.023273369297385216,3.994872808456421,1.6104726791381836,1.3526898622512817,0.5154163241386414,0.6419298052787781
14,3.5425233840942383,-0.8926129937171936,-0.16843381524085999,-0.787071704864502,-2.194178342819214,-3.4210588932037354,0.003825389314442873,-4.270880222320557,-0.33926817774772644,-2.4913129806518555,-3.124054193496704,3.2362987995147705,4.527042388916016,0.8076947927474976,4.969755172729492,3.242766857147217,1.7907840013504028,0.7649709582328796,6.474827766418457,5.690774440765381,5.580300331115723,5.069369792938232,0.2372131645679474,-4.901618480682373,-5.368070602416992,-5.161463737487793,-5.964439868927002,-1.1575599908828735,-2.540273904800415,-3.114469051361084,-4.846452713012695,-0.14847055077552795,-4.482306003570557,4.503320217132568,0.06051107496023178,4.025165557861328,1.5994774103164673,1.3646421432495117,0.5349228382110596,0.6490268111228943
15,3.5459537506103516,-0.9062907099723816,-0.1862887442111969,-0.7928672432899475,-2.201709747314453,-3.3891146183013916,-0.006292224861681461,-4.284339427947998,-0.3468359410762787,-2.4869353771209717,-3.092941999435425,3.2538461685180664,4.558154106140137,0.8120723962783813,4.96218729019165,3.229307174682617,1.7657479047775269,0.7807092666625977,6.489266395568848,5.702514171600342,5.61737060546875,5.062776565551758,0.2214246541261673,-4.908211708068848,-5.331000328063965,-5.153836727142334,-5.947411060333252,-1.150073766708374,-2.56531023979187,-3.131720542907715,-4.850351810455322,-0.15940946340560913,-4.4462456703186035,4.485310077667236,0.05039345473051071,4.0559282302856445,1.5883393287658691,1.3691112995147705,0.5170679092407227,0.6353490352630615
16,3.5289783477783203,-0.894352376461029,-0.16764147579669952,-0.7998207807540894,-2.2037501335144043,-3.3604331016540527,0.03506223112344742,-4.259237289428711,-0.3418075442314148,-2.486393690109253,-3.134605646133423,3.2671916484832764,4.5164899826049805,0.8126141428947449,4.967215538024902,3.2544093132019043,1.7585222721099854,0.7967844605445862,6.503912448883057,5.705808162689209,5.62070369720459,5.074578762054443,0.22630725800991058,-4.896409511566162,-5.327667236328125,-5.153225421905518,-5.942894458770752,-1.1420063972473145,-2.572535991668701,-3.1086268424987793,-4.83551025390625,-0.16945388913154602,-4.467330455780029,4.503444194793701,0.09174791723489761,4.079329967498779,1.5721441507339478,1.3771564960479736,0.5357151627540588,0.6472874283790588
17,3.5339162349700928,-0.9051791429519653,-0.19274814426898956,-0.8120648264884949,-2.1973750591278076,-3.33844256401062,0.01795656606554985,-4.276082515716553,-0.34714290499687195,-2.4844443798065186,-3.099151134490967,3.281742572784424,4.551944732666016,0.8145635724067688,4.961880207061768,3.2375640869140625,1.7348958253860474,0.8150641918182373,6.51906156539917,5.718213081359863,5.65273904800415,5.0712361335754395,0.2129824459552765,-4.899752140045166,-5.2956318855285645,-5.145087242126465,-5.922574043273926,-1.1322650909423828,-2.5961625576019287,-3.127336025238037,-4.835085868835449,-0.18818478286266327,-4.416995048522949,4.47825288772583,0.07464224845170975,4.09844970703125,1.5715148448944092,1.3755697011947632,0.510608434677124,0.6364606618881226
18,3.5108299255371094,-0.8868987560272217,-0.17244821786880493,-0.8236821889877319,-2.1960599422454834,-3.3204903602600098,0.06508177518844604,-4.2443366050720215,-0.3468433618545532,-2.4857850074768066,-3.152693271636963,3.2913103103637695,4.4984025955200195,0.8132228851318359,4.962179660797119,3.269310235977173,1.7355622053146362,0.8335385918617249,6.529142379760742,5.719381809234619,5.646682262420654,5.082813739776611,0.21768741309642792,-4.888174533843994,-5.3016886711120605,-5.146841049194336,-5.928206443786621,-1.1218421459197998,-2.59549617767334,-3.0979065895080566,-4.820603847503662,-0.20314635336399078,-4.43812894821167,4.497880935668945,0.12176746129989624,4.110945701599121,1.5501986742019653,1.3802307844161987,0.5309083461761475,0.6547410488128662
19,3.515233039855957,-0.8991242051124573,-0.2059907764196396,-0.8405479788780212,-2.179830551147461,-3.3086485862731934,0.04156552255153656,-4.267074108123779,-0.3541777729988098,-2.4845001697540283,-3.1154656410217285,3.3032093048095703,4.535630226135254,0.8145078420639038,4.954845428466797,3.246572494506836,1.7119641304016113,0.8535336256027222,6.544451713562012,5.7342529296875,5.672244548797607,5.079913139343262,0.20269820094108582,-4.891075134277344,-5.276126384735107,-5.136621475219727,-5.9041666984558105,-1.1099298000335693,-2.6190943717956543,-3.120027542114258,-4.819857597351074,-0.22680146992206573,-4.382666110992432,4.464210510253906,0.09825120121240616,4.1189961433410645,1.557828426361084,1.373128056526184,0.4973657727241516,0.6425155997276306
20,3.4886932373046875,-0.8734097480773926,-0.18309542536735535,-0.8546149730682373,-2.178809881210327,-3.3008639812469482,0.09253469854593277,-4.230678081512451,-0.35378146171569824,-2.486311674118042,-3.172639846801758,3.309317111968994,4.478455543518066,0.8126963376998901,4.955241680145264,3.282968521118164,1.7219243049621582,0.8733387589454651,6.55184268951416,5.734433650970459,5.657883644104004,5.095132827758789,0.21182335913181305,-4.875855445861816,-5.290487289428711,-5.139281272888184,-5.917291164398193,-1.098517656326294,-2.6091341972351074,-3.085709810256958,-4.801573276519775,-0.24413274228572845,-4.4037604331970215,4.486156463623047,0.14922037720680237,4.1202216148376465,1.5326608419418335,1.375105619430542,0.5202611088752747,0.6682300567626953
21,3.491722345352173,-0.888719379901886,-0.22229106724262238,-0.8737813830375671,-2.159092426300049,-3.2967529296875,0.06635118275880814,-4.258035182952881,-0.36807316541671753,-2.4842443466186523,-3.136631965637207,3.319136619567871,4.514463424682617,0.8147634863853455,4.9409499168396,3.2556111812591553,1.6962696313858032,0.8934105634689331,6.5652852058410645,5.7523088455200195,5.677652835845947,5.088285446166992,0.19229088723659515,-4.882702827453613,-5.270718097686768,-5.126673221588135,-5.892050266265869,-1.0854941606521606,-2.634788990020752,-3.1110517978668213,-4.805696487426758,-0.27046680450439453,-4.3498711585998535,4.446766376495361,0.12303685396909714,4.120809555053711,1.5430971384048462,1.3643150329589844,0.48106545209884644,0.6529204249382019
22,3.465397596359253,-0.8563050031661987,-0.197235569357872,-0.8879651427268982,-2.1599178314208984,-3.2960362434387207,0.11800827831029892,-4.2201762199401855,-0.36032533645629883,-2.485445976257324,-3.1905341148376465,3.3224966526031494,4.460561752319336,0.8135617971420288,4.948697566986084,3.2934703826904297,1.7154531478881836,0.9131994843482971,6.572579383850098,5.7518486976623535,5.658203601837158,5.111291885375977,0.21050810813903809,-4.859696388244629,-5.290167331695557,-5.129327774047852,-5.907901287078857,-1.0754021406173706,-2.615605592727661,-3.0742669105529785,-4.778557777404785,-0.2882804274559021,-4.370809078216553,4.470602989196777,0.17469395697116852,4.112889766693115,1.5175340175628662,1.36456298828125,0.5061209201812744,0.6853348016738892
23,3.4675369262695312,-0.8752143383026123,-0.23871545493602753,-0.9072593450546265,-2.1427392959594727,-3.296480178833008,0.09154777228832245,-4.24978494644165,-0.38734450936317444,-2.4814741611480713,-3.1567134857177734,3.3308980464935303,4.494382381439209,0.817533552646637,4.92167854309082,3.263861656188965,1.684390902519226,0.9313625693321228,6.581657409667969,5.7722063064575195,5.675608158111572,5.094775676727295,0.1834619790315628,-4.8762125968933105,-5.272762775421143,-5.115171432495117,-5.884930610656738,-1.0621987581253052,-2.646667718887329,-3.102248191833496,-4.793942451477051,-0.31592488288879395,-4.321954250335693,4.428857803344727,0.14823345839977264,4.110291957855225,1.5247995853424072,1.3523107767105103,0.4646410346031189,0.6664254665374756
24,3.4446873664855957,-0.8375421762466431,-0.2114616334438324,-0.9195771217346191,-2.142962694168091,-3.2990055084228516,0.14213743805885315,-4.212195873260498,-0.36364614963531494,-2.481499671936035,-3.203444480895996,3.3320820331573486,4.447651386260986,0.8175079822540283,4.945376873016357,3.301450490951538,1.7136926651000977,0.9500457644462585,6.592064380645752,5.7704033851623535,5.652195453643799,5.129561424255371,0.21527999639511108,-4.841426849365234,-5.296175479888916,-5.117687702178955,-5.899237155914307,-1.0556330680847168,-2.617365837097168,-3.0639705657958984,-4.753104209899902,-0.33247312903404236,-4.3452467918396,4.454707622528076,0.19882312417030334,4.096188545227051,1.5044525861740112,1.3520678281784058,0.49189484119415283,0.7040976285934448
25,3.44716215133667,-0.8610715270042419,-0.2537415325641632,-0.9372628927230835,-2.1339452266693115,-3.3009440898895264,0.1153843030333519,-4.243010997772217,-0.4079396426677704,-2.4749538898468018,-3.1712918281555176,3.3397040367126465,4.479804039001465,0.8240537643432617,4.901083469390869,3.2706356048583984,1.6735742092132568,0.9643042683601379,6.5944342613220215,5.792604446411133,5.672489166259766,5.098170757293701,0.1774924099445343,-4.872817516326904,-5.275881767272949,-5.1031718254089355,-5.881026268005371,-1.0421764850616455,-2.657484292984009,-3.0950722694396973,-4.78535270690918,-0.360830694437027,-4.302170276641846,4.412104606628418,0.1720699816942215,4.093898773193359,1.5024003982543945,1.3403102159500122,0.449614942073822,0.680568277835846
26,3.429502487182617,-0.8196173310279846,-0.2236049920320511,-0.9466111660003662,-2.1281378269195557,-3.303713321685791,0.1650010645389557,-4.205816268920898,-0.36494287848472595,-2.473672389984131,-3.20989990234375,3.338930368423462,4.441195964813232,0.8253354430198669,4.944080352783203,3.307830333709717,1.7148548364639282,0.9812474250793457,6.61076545715332,5.788188457489014,5.643421173095703,5.145291805267334,0.22416387498378754,-4.8256964683532715,-5.304949760437012,-5.106107234954834,-5.8914475440979,-1.0403445959091187,-2.616203546524048,-3.0548672676086426,-4.730681896209717,-0.3745984733104706,-4.3311638832092285,4.440800666809082,0.22168675065040588,4.076478958129883,1.4943004846572876,1.3406709432601929,0.47975149750709534,0.7220224738121033
27,3.434109687805176,-0.8480632901191711,-0.26605692505836487,-0.9616382122039795,-2.13218355178833,-3.3043630123138428,0.13749848306179047,-4.237468242645264,-0.4213448166847229,-2.464708089828491,-3.178345203399658,3.3462491035461426,4.472750663757324,0.8342997431755066,4.887678623199463,3.2761783599853516,1.665809988975525,0.9907289147377014,6.6059088706970215,5.8117265701293945,5.670816898345947,5.101492404937744,0.17767663300037384,-4.869495868682861,-5.277554035186768,-5.091918468475342,-5.878591060638428,-1.025883436203003,-2.665248394012451,-3.089320659637451,-4.776348114013672,-0.40326759219169617,-4.293188095092773,4.397984981536865,0.19418415427207947,4.076304912567139,1.477335810661316,1.3306466341018677,0.43729957938194275,0.6935765743255615
28,3.420538902282715,-0.8057793378829956,-0.23412014544010162,-0.9681132435798645,-2.1163768768310547,-3.306486129760742,0.18606767058372498,-4.2013421058654785,-0.37024644017219543,-2.4618704319000244,-3.2104554176330566,3.343787908554077,4.440640449523926,0.8371374607086182,4.938776969909668,3.3123044967651367,1.7155636548995972,1.0054112672805786,6.62765645980835,5.804126262664795,5.63645601272583,5.152092456817627,0.23117049038410187,-4.8188958168029785,-5.311914920806885,-5.096137046813965,-5.885277271270752,-1.0283232927322388,-2.615494728088379,-3.0483264923095703,-4.718277454376221,-0.4142729938030243,-4.328251361846924,4.428580284118652,0.24275334179401398,4.058404445648193,1.4853341579437256,1.332011342048645,0.4692363440990448,0.7358605265617371
29,3.429724931716919,-0.835953414440155,-0.2743629515171051,-0.98023521900177,-2.132477283477783,-3.304701328277588,0.15888051688671112,-4.231928825378418,-0.42408597469329834,-2.4516148567199707,-3.1784212589263916,3.3507235050201416,4.472674369812012,0.8473929762840271,4.884937286376953,3.2817177772521973,1.664807677268982,1.0117733478546143,6.619035720825195,5.827294826507568,5.6684489250183105,5.107492446899414,0.18608149886131287,-4.863495826721191,-5.279922008514404,-5.082427501678467,-5.875926971435547,-1.0133183002471924,-2.666250705718994,-3.0831286907196045,-4.764188289642334,-0.4422321915626526,-4.296217441558838,4.387943267822266,0.21556618809700012,4.059814453125,1.4553335905075073,1.3241260051727295,0.4289935529232025,0.7056863903999329
30,3.418055534362793,-0.7973631024360657,-0.24415495991706848,-0.9844784736633301,-2.1099870204925537,-3.306548833847046,0.2044626772403717,-4.1990885734558105,-0.3782179653644562,-2.446859121322632,-3.206143856048584,3.347358226776123,4.444952011108398,0.8521487712860107,4.930805206298828,3.3145580291748047,1.7146703004837036,1.0242164134979248,6.641510009765625,5.817506790161133,5.634696960449219,5.150905609130859,0.23564620316028595,-4.820082664489746,-5.313673973083496,-5.088006973266602,-5.8807692527771,-1.017844319343567,-2.6163880825042725,-3.045231342315674,-4.71396541595459,-0.4522332549095154,-4.333837032318115,4.4169602394104,0.2611483335494995,4.043835639953613,1.4737517833709717,1.32636296749115,0.4592015743255615,0.7442766427993774
31,3.4321141242980957,-0.8253230452537537,-0.2794291377067566,-0.9939540028572083,-2.1305625438690186,-3.302967071533203,0.17960140109062195,-4.226083278656006,-0.42204806208610535,-2.4362261295318604,-3.1745123863220215,3.3535280227661133,4.476583480834961,0.8627817034721375,4.886974811553955,3.2875630855560303,1.668483853340149,1.029366374015808,6.633169174194336,5.8383097648620605,5.664933204650879,5.112654209136963,0.19862011075019836,-4.858334064483643,-5.283437728881836,-5.075135231018066,-5.872786998748779,-1.003697156906128,-2.662574529647827,-3.076312303543091,-4.752624988555908,-0.478471577167511,-4.309333324432373,4.381260871887207,0.23628705739974976,4.04586935043335,1.4402236938476562,1.320534348487854,0.4239273965358734,0.7163166999816895
32,3.4224226474761963,-0.7925886511802673,-0.253278911113739,-0.9964926242828369,-2.1075806617736816,-3.3041481971740723,0.2205616682767868,-4.197883129119873,-0.3842352032661438,-2.429774045944214,-3.1985225677490234,3.350062131881714,4.452573299407959,0.8692336678504944,4.924787521362305,3.315763235092163,1.7140249013900757,1.0402873754501343,6.6530961990356445,5.828036785125732,5.636482238769531,5.146719455718994,0.24121186137199402,-4.824268817901611,-5.311888694763184,-5.081080436706543,-5.876871585845947,-1.0079811811447144,-2.6170334815979004,-3.043931245803833,-4.712292671203613,-0.4886860251426697,-4.346059322357178,4.406366348266602,0.2772473394870758,4.032947540283203,1.4605669975280762,1.3233784437179565,0.450077623128891,0.7490510940551758
33,3.439476728439331,-0.817237377166748,-0.2832406759262085,-1.0039020776748657,-2.127140998840332,-3.2995195388793945,0.19882124662399292,-4.220712184906006,-0.41909724473953247,-2.4189860820770264,-3.1689727306365967,3.355443239212036,4.482123374938965,0.8800215125083923,4.889925479888916,3.2929341793060303,1.6731492280960083,1.044809103012085,6.646394729614258,5.846085548400879,5.6622467041015625,5.114819049835205,0.21211615204811096,-4.8561692237854,-5.286124229431152,-5.069254398345947,-5.869414329528809,-0.9952390789985657,-2.6579091548919678,-3.070150852203369,-4.7440080642700195,-0.5129608511924744,-4.328359127044678,4.375945568084717,0.2555069327354431,4.035337448120117,1.4297337532043457,1.319126844406128,0.4201158583164215,0.7244023680686951
34,3.4322798252105713,-0.7896692156791687,-0.2610325217247009,-1.0053272247314453,-2.106271505355835,-3.2997117042541504,0.23524487018585205,-4.1966729164123535,-0.387216717004776,-2.411383867263794,-3.1900782585144043,3.352226734161377,4.461017608642578,0.88762366771698,4.9218058586120605,3.3169734477996826,1.7143430709838867,1.0548250675201416,6.663702964782715,5.836324214935303,5.639275550842285,5.141759872436523,0.24931426346302032,-4.829228401184082,-5.30909538269043,-5.0747599601745605,-5.8728556632995605,-0.9982835054397583,-2.616715431213379,-3.042802572250366,-4.7112016677856445,-0.5235459804534912,-4.362837791442871,4.397221565246582,0.29193055629730225,4.025270938873291,1.4484786987304688,1.3221756219863892,0.4423240125179291,0.7519705295562744
35,3.4509098529815674,-0.8117054104804993,-0.28697142004966736,-1.0113756656646729,-2.1236371994018555,-3.294605255126953,0.2159000039100647,-4.2162394523620605,-0.4160769581794739,-2.4004998207092285,-3.1631839275360107,3.357090950012207,4.487911701202393,0.8985077738761902,4.892945766448975,3.2974071502685547,1.6769042015075684,1.0588319301605225,6.658358573913574,5.852349758148193,5.661037445068359,5.114352226257324,0.22585837543010712,-4.856636047363281,-5.2873334884643555,-5.063706874847412,-5.865749359130859,-0.9866604804992676,-2.6541543006896973,-3.0651419162750244,-4.738243579864502,-0.5460712313652039,-4.349586009979248,4.370780944824219,0.2725856900215149,4.027864933013916,1.4212350845336914,1.318838119506836,0.41638511419296265,0.7299343347549438
36,3.4457850456237793,-0.7876971960067749,-0.26757287979125977,-1.012215495109558,-2.104591131210327,-3.2939565181732178,0.24890445172786713,-4.1951446533203125,-0.38769403100013733,-2.3922393321990967,-3.1828644275665283,3.3541462421417236,4.468231201171875,0.9067682027816772,4.921328544616699,3.3185017108917236,1.7153041362762451,1.0682992935180664,6.67399787902832,5.843288898468018,5.641891002655029,5.136793613433838,0.2598397135734558,-4.834194660186768,-5.3064799308776855,-5.068578720092773,-5.868567943572998,-0.9884384274482727,-2.6157543659210205,-3.041275978088379,-4.710251808166504,-0.5567294359207153,-4.381745338439941,4.389317989349365,0.30559012293815613,4.019880294799805,1.4384981393814087,1.321739673614502,0.43578365445137024,0.7539425492286682
37,3.465482473373413,-0.8082285523414612,-0.29105961322784424,-1.0174952745437622,-2.120513916015625,-3.2887721061706543,0.2305922657251358,-4.2126593589782715,-0.413169264793396,-2.381359577178955,-3.1582577228546143,3.358804702758789,4.492837905883789,0.9176479578018188,4.895853519439697,3.3009867668151855,1.6790086030960083,1.0718249082565308,6.669302940368652,5.858246803283691,5.660951137542725,5.112216949462891,0.23974081873893738,-4.858771324157715,-5.28741979598999,-5.057863235473633,-5.8617939949035645,-0.9774227142333984,-2.652050018310547,-3.0611772537231445,-4.734653472900391,-0.5777818560600281,-4.370492935180664,4.365268230438232,0.2872779369354248,4.022526264190674,1.4135782718658447,1.3187553882598877,0.4122968912124634,0.7334111928939819
38,3.461545467376709,-0.7862145900726318,-0.273223876953125,-1.0180702209472656,-2.1021111011505127,-3.2875592708587646,0.26152539253234863,-4.193264484405518,-0.386413037776947,-2.3728272914886475,-3.1780600547790527,3.3559961318969727,4.4730353355407715,0.9261801838874817,4.922609806060791,3.3203816413879395,1.7164745330810547,1.0809686183929443,6.68419075012207,5.849639892578125,5.643966197967529,5.132296085357666,0.2722780108451843,-4.8386921882629395,-5.3044047355651855,-5.062295436859131,-5.86411714553833,-0.978268563747406,-2.614583969116211,-3.0392563343048096,-4.7092742919921875,-0.5880917906761169,-4.400755405426025,4.382277965545654,0.31821107864379883,4.015868186950684,1.4305862188339233,1.3213435411453247,0.4301326274871826,0.7554251551628113
39,3.4823412895202637,-0.8063321709632874,-0.2956324517726898,-1.022969365119934,-2.117835760116577,-3.2825043201446533,0.2428094744682312,-4.209814071655273,-0.41056960821151733,-2.362086534500122,-3.1549072265625,3.360689878463745,4.496187686920166,0.9369209408760071,4.898453235626221,3.3038320541381836,1.6793062686920166,1.0840052366256714,6.679422855377197,5.864340782165527,5.6615800857543945,5.109263896942139,0.25361335277557373,-4.861724376678467,-5.28679084777832,-5.051556587219238,-5.8576836585998535,-0.9674215316772461,-2.651752233505249,-3.0580317974090576,-4.73259973526001,-0.6078695058822632,-4.389565944671631,4.359224796295166,0.2994951605796814,4.018494129180908,1.406288743019104,1.318361520767212,0.4077240526676178,0.7353076338768005
40,3.4786763191223145,-0.7849941849708557,-0.2782226502895355,-1.0233961343765259,-2.0987942218780518,-3.280916690826416,0.2729549705982208,-4.191020965576172,-0.38402146100997925,-2.353586196899414,-3.1761281490325928,3.3578009605407715,4.474967002868652,0.9454212784767151,4.925001621246338,3.322625160217285,1.717697262763977,1.0929956436157227,6.6943230628967285,5.855733394622803,5.645496368408203,5.128588676452637,0.28607890009880066,-4.842399597167969,-5.302874565124512,-5.055932521820068,-5.859683990478516,-0.9677813053131104,-2.613361120223999,-3.0367588996887207,-4.708106994628906,-0.6173974871635437,-4.418573379516602,4.375821113586426,0.329640656709671,4.012604236602783,1.424422264099121,1.3206509351730347,0.4251338541507721,0.7566456198692322
41,3.5008718967437744,-0.8057103753089905,-0.300692081451416,-1.0281215906143188,-2.1156203746795654,-3.2760539054870605,0.25251081585884094,-4.207519054412842,-0.4085054397583008,-2.34312105178833,-3.1533775329589844,3.362696409225464,4.49771785736084,0.9558866024017334,4.900517463684082,3.3061270713806152,1.678017258644104,1.0954978466033936,6.688796520233154,5.870792865753174,5.662712097167969,5.10605001449585,0.2672455906867981,-4.864938259124756,-5.285658836364746,-5.044929027557373,-5.85362434387207,-0.9567990899085999,-2.653041362762451,-3.0555191040039062,-4.731568813323975,-0.6360141038894653,-4.406060218811035,4.352604389190674,0.30919650197029114,4.015214920043945,1.3990896940231323,1.3175067901611328,0.4026644229888916,0.7359294295310974
42,3.4966585636138916,-0.7839568257331848,-0.2826997637748718,-1.0283766984939575,-2.0947256088256836,-3.2741456031799316,0.2830321192741394,-4.188381195068359,-0.38103026151657104,-2.334888219833374,-3.177037000656128,3.3594729900360107,4.474058628082275,0.9641196131706238,4.927992343902588,3.3252649307250977,1.7190351486206055,1.1044814586639404,6.704380989074707,5.8616414070129395,5.646624565124512,5.125794410705566,0.3007429838180542,-4.845193862915039,-5.301746368408203,-5.049709796905518,-5.855469226837158,-0.9571506977081299,-2.6120235919952393,-3.033818006515503,-4.706582546234131,-0.6443602442741394,-4.434549808502197,4.369783878326416,0.3397178053855896,4.009716510772705,1.4196618795394897,1.3196358680725098,0.4206567406654358,0.7576829791069031
43,3.5206503868103027,-0.8061816096305847,-0.3061804175376892,-1.0330172777175903,-2.1138689517974854,-3.2694778442382812,0.25971898436546326,-4.205605983734131,-0.4071435034275055,-2.3248183727264404,-3.1535797119140625,3.3646838665008545,4.497515678405762,0.9741894006729126,4.90187931060791,3.308040142059326,1.6756157875061035,1.1063793897628784,6.697422981262207,5.8775224685668945,5.664241790771484,5.102861404418945,0.28042736649513245,-4.86812686920166,-5.2841291427612305,-5.038290500640869,-5.849855899810791,-0.9458410739898682,-2.655442953109741,-3.053499937057495,-4.731120586395264,-0.661875307559967,-4.419764041900635,4.345433712005615,0.31640467047691345,4.012331962585449,1.391821265220642,1.316285252571106,0.3971760869026184,0.7354581952095032
44,3.5151991844177246,-0.783121645450592,-0.2867419421672821,-1.0330010652542114,-2.0900659561157227,-3.267180919647217,0.2915993332862854,-4.185327053070068,-0.3778613805770874,-2.3170273303985596,-3.180434226989746,3.3608806133270264,4.470661640167236,0.9819806218147278,4.931161403656006,3.3283190727233887,1.720537781715393,1.1154849529266357,6.714309215545654,5.867298603057861,5.647545337677002,5.123826026916504,0.3158223330974579,-4.847162246704102,-5.300825595855713,-5.043929576873779,-5.85167932510376,-0.9466449618339539,-2.610520839691162,-3.030499219894409,-4.704568862915039,-0.6687129735946655,-4.448431491851807,4.3640570640563965,0.3482850193977356,4.006978988647461,1.4159409999847412,1.318457007408142,0.4166145622730255,0.7585181593894958
45,3.5412960052490234,-0.8075824975967407,-0.31198281049728394,-1.0375839471817017,-2.112478733062744,-3.26273250579834,0.2645893394947052,-4.203916549682617,-0.4065043032169342,-2.307450771331787,-3.155308723449707,3.3664743900299072,4.495787143707275,0.9915571212768555,4.9025187492370605,3.3097290992736816,1.6727712154388428,1.1167138814926147,6.705294609069824,5.884321689605713,5.666043758392334,5.0998311042785645,0.29307469725608826,-4.871157169342041,-5.282327175140381,-5.032021999359131,-5.846617698669434,-0.9349001049995422,-2.658287525177002,-3.051839590072632,-4.730806350708008,-0.685154378414154,-4.4308085441589355,4.337808132171631,0.3212750256061554,4.009565353393555,1.3845099210739136,1.3149155378341675,0.3913736939430237,0.7340572476387024
46,3.5341389179229736,-0.7825964093208313,-0.29047033190727234,-1.0371655225753784,-2.0851123332977295,-3.2598702907562256,0.2984597384929657,-4.1819047927856445,-0.37493476271629333,-2.300220012664795,-3.185756206512451,3.3619112968444824,4.465339660644531,0.9987879395484924,4.934088230133057,3.331740617752075,1.7220584154129028,1.1260430812835693,6.723994255065918,5.872638702392578,5.6484856605529785,5.122413158416748,0.330870658159256,-4.848575115203857,-5.299885272979736,-5.038870334625244,-5.848502159118652,-0.9365319013595581,-2.6090004444122314,-3.0269391536712646,-4.702022552490234,-0.6902827024459839,-4.460118293762207,4.358503341674805,0.3551454246044159,4.00423526763916,1.4127806425094604,1.3173552751541138,0.4128861725330353,0.7590433359146118
47,3.5623526573181152,-0.8096764087677002,-0.3179057538509369,-1.0416876077651978,-2.11114239692688,-3.2557575702667236,0.2674662172794342,-4.2022705078125,-0.4064200520515442,-2.2912120819091797,-3.158426284790039,3.367882013320923,4.492670059204102,1.007795810699463,4.902602672576904,3.3113749027252197,1.6702935695648193,1.126590609550476,6.712466239929199,5.890910625457764,5.667893409729004,5.09706449508667,0.305298775434494,-4.8739237785339355,-5.280477523803711,-5.0265116691589355,-5.844101905822754,-0.924335777759552,-2.6607651710510254,-3.0503478050231934,-4.7301154136657715,-0.7056470513343811,-4.439532279968262,4.329914569854736,0.324151873588562,4.0066423416137695,1.3774583339691162,1.3136643171310425,0.3854507505893707,0.7319633364677429
48,3.553407669067383,-0.7825842499732971,-0.2940939664840698,-1.0407297611236572,-2.0803353786468506,-3.2520687580108643,0.30335119366645813,-4.1782546043396,-0.37271785736083984,-2.284611940383911,-3.192307233810425,3.362504482269287,4.458789348602295,1.0143959522247314,4.936304569244385,3.33539080619812,1.7232681512832642,1.1362076997756958,6.733234405517578,5.877662658691406,5.649704933166504,5.121156215667725,0.3454165756702423,-4.849832057952881,-5.298666000366211,-5.034718036651611,-5.8460869789123535,-0.9269982576370239,-2.607790470123291,-3.023366689682007,-4.699019908905029,-0.7090526819229126,-4.469527244567871,4.35290002822876,0.36003684997558594,4.0013604164123535,1.4095566272735596,1.3165923357009888,0.4092625379562378,0.759055495262146
49,3.5832905769348145,-0.8121362924575806,-0.32368525862693787,-1.0451611280441284,-2.1093690395355225,-3.2485358715057373,0.26883387565612793,-4.200437068939209,-0.4065950810909271,-2.2762258052825928,-3.162917137145996,3.368734359741211,4.4881792068481445,1.0227818489074707,4.9024271965026855,3.313208818435669,1.6689510345458984,1.1361809968948364,6.719076633453369,5.896965026855469,5.669496536254883,5.094692707061768,0.3173796236515045,-4.876295566558838,-5.278874397277832,-5.022113800048828,-5.842419147491455,-0.9144580960273743,-2.6621077060699463,-3.0487582683563232,-4.728501319885254,-0.7232962846755981,-4.446366786956787,4.322016716003418,0.32551953196525574,4.00330114364624,1.3711944818496704,1.312814712524414,0.37967124581336975,0.7295034527778625
50,3.5729596614837646,-0.7833386063575745,-0.2978868782520294,-1.043533444404602,-2.07623028755188,-3.2437381744384766,0.30602017045021057,-4.174566268920898,-0.37165242433547974,-2.270291328430176,-3.1994011402130127,3.362643241882324,4.451695442199707,1.0287163257598877,4.9373698234558105,3.3390793800354004,1.723897099494934,1.1461174488067627,6.741726875305176,5.882411003112793,5.651435852050781,5.119657516479492,0.35904383659362793,-4.851330757141113,-5.296935081481934,-5.03156042098999,-5.8445305824279785,-0.9181118011474609,-2.607161521911621,-3.0200469493865967,-4.695682048797607,-0.7251858115196228,-4.476596832275391,4.346958637237549,0.3627058267593384,3.9982552528381348,1.4057044982910156,1.3164260387420654,0.4054696261882782,0.7583011388778687
51,3.603651285171509,-0.814643919467926,-0.32908129692077637,-1.0478066205978394,-2.1067326068878174,-3.241114854812622,0.26911553740501404,-4.1981706619262695,-0.4067998230457306,-2.2625579833984375,-3.1687703132629395,3.3689026832580566,4.482326030731201,1.036449670791626,4.902222633361816,3.3154749870300293,1.6691877841949463,1.1457844972610474,6.725266456604004,5.902181148529053,5.6706223487854,5.092806816101074,0.3296048045158386,-4.878181457519531,-5.2777485847473145,-5.0190887451171875,-5.8415913581848145,-0.9054617285728455,-2.6618707180023193,-3.0467991828918457,-4.725518703460693,-0.7382349967956543,-4.4516801834106445,4.3143510818481445,0.32580119371414185,3.9993667602539062,1.366181492805481,1.3126537799835205,0.37427520751953125,0.7269958257675171
52,3.5926766395568848,-0.7850323915481567,-0.30206871032714844,-1.0453978776931763,-2.0730199813842773,-3.235002279281616,0.30638065934181213,-4.17097806930542,-0.37198057770729065,-2.257300615310669,-3.2065560817718506,3.3623154163360596,4.444540500640869,1.0417068004608154,4.937042236328125,3.342667579650879,1.7240036725997925,1.1560616493225098,6.749171257019043,5.8868794441223145,5.653763771057129,5.117691993713379,0.37156930565834045,-4.853296279907227,-5.294607162475586,-5.029420852661133,-5.8438568115234375,-0.9098452925682068,-2.6070549488067627,-3.0171432495117188,-4.692004680633545,-0.7389819622039795,-4.48137092590332,4.3404436111450195,0.36306631565093994,3.9948441982269287,1.4010658264160156,1.3171000480651855,0.4012877941131592,0.7566073536872864
53,3.6232056617736816,-0.8170424699783325,-0.3340040445327759,-1.0494054555892944,-2.103184461593628,-3.233577251434326,0.2684805691242218,-4.195313453674316,-0.4070589244365692,-2.2502260208129883,-3.175811290740967,3.3683290481567383,4.475285053253174,1.0487815141677856,4.90196418762207,3.3183324337005615,1.6709949970245361,1.1558066606521606,6.7310638427734375,5.906388759613037,5.671237468719482,5.091360092163086,0.34208571910858154,-4.8796281814575195,-5.277133464813232,-5.017529010772705,-5.841575622558594,-0.897373616695404,-2.6600637435913086,-3.044320583343506,-4.720968723297119,-0.750776469707489,-4.455636501312256,4.306995391845703,0.3251662254333496,3.9948244094848633,1.3624930381774902,1.3134559392929077,0.36935245990753174,0.7245972752571106
54,3.612337827682495,-0.7876486778259277,-0.30668896436691284,-1.0461397171020508,-2.0705320835113525,-3.2260892391204834,0.3045964241027832,-4.167495250701904,-0.373656690120697,-2.2456347942352295,-3.2135848999023438,3.3614861965179443,4.437511444091797,1.053372859954834,4.935366630554199,3.3461506366729736,1.7239933013916016,1.1664481163024902,6.755435943603516,5.890987396240234,5.6565680503845215,5.115299701690674,0.38314011693000793,-4.855688571929932,-5.291802883148193,-5.028295993804932,-5.843986988067627,-0.9021339416503906,-2.607065439224243,-3.014618396759033,-4.687765121459961,-0.7507897019386292,-4.484014511108398,4.333296775817871,0.361282080411911,3.9910731315612793,1.39597749710083,1.3188287019729614,0.3966675400733948,0.7539910674095154
55,3.641955852508545,-0.819387674331665,-0.33854690194129944,-1.0497527122497559,-2.0990869998931885,-3.225989818572998,0.2668522894382477,-4.19186544418335,-0.4076506793498993,-2.239194869995117,-3.183682918548584,3.3670265674591064,4.467412948608398,1.0598127841949463,4.901372909545898,3.3217806816101074,1.6740673780441284,1.166649580001831,6.736377716064453,5.909626007080078,5.671487331390381,5.0901689529418945,0.35473519563674927,-4.880819320678711,-5.276883602142334,-5.017337799072266,-5.842276096343994,-0.8900687098503113,-2.6569912433624268,-3.0413522720336914,-4.714905738830566,-0.7613319158554077,-4.458183288574219,4.299846649169922,0.3235379755496979,3.989788770675659,1.3597978353500366,1.3154491186141968,0.3648096024990082,0.7222520112991333
56,3.6316874027252197,-0.7910060286521912,-0.31163182854652405,-1.0455982685089111,-2.068394422531128,-3.217203378677368,0.3010028302669525,-4.164015293121338,-0.3764522075653076,-2.235229253768921,-3.220510244369507,3.3601083755493164,4.430585861206055,1.0637784004211426,4.9325714111328125,3.349630832672119,1.7244045734405518,1.1776727437973022,6.760638236999512,5.8946452140808105,5.659605503082275,5.112702369689941,0.3941412568092346,-4.858285903930664,-5.2887654304504395,-5.028148174285889,-5.844736099243164,-0.8949151039123535,-2.606654167175293,-3.0122814178466797,-4.68261194229126,-0.7609344720840454,-4.484739303588867,4.3256425857543945,0.3576885163784027,3.98689603805542,1.3909884691238403,1.321778416633606,0.39172467589378357,0.7506336569786072
57,3.6600098609924316,-0.8218557834625244,-0.3428976237773895,-1.0486891269683838,-2.094975233078003,-3.2183797359466553,0.26407426595687866,-4.187958717346191,-0.4089452624320984,-2.2293660640716553,-3.191977024078369,3.3650524616241455,4.459118843078613,1.0696417093276978,4.900078773498535,3.3256876468658447,1.6780588626861572,1.1785951852798462,6.741102695465088,5.912097930908203,5.671551704406738,5.089023590087891,0.3674088716506958,-4.881964683532715,-5.276819229125977,-5.0182952880859375,-5.843551158905029,-0.8833475112915039,-2.6529998779296875,-3.0380420684814453,-4.707508087158203,-0.7703084349632263,-4.459163188934326,4.29271936416626,0.32075995206832886,3.9843883514404297,1.3576005697250366,1.3187922239303589,0.3604588806629181,0.7197839021682739
58,3.6505236625671387,-0.7948777675628662,-0.3167138397693634,-1.0436536073684692,-2.0662753582000732,-3.208451509475708,0.2959628105163574,-4.1604180335998535,-0.38013118505477905,-2.2259562015533447,-3.2274186611175537,3.358149528503418,4.42367696762085,1.0730513334274292,4.928893089294434,3.353228807449341,1.7256906032562256,1.1899923086166382,6.765066623687744,5.897829532623291,5.662647247314453,5.110166549682617,0.40502333641052246,-4.860821723937988,-5.285723686218262,-5.0288987159729,-5.845852851867676,-0.8881386518478394,-2.605368137359619,-3.0099165439605713,-4.6762285232543945,-0.7696985006332397,-4.483720779418945,4.317687034606934,0.3526484966278076,3.9822494983673096,1.3865585327148438,1.3260610103607178,0.3866426646709442,0.7467619180679321
59,3.6774775981903076,-0.824622631072998,-0.3472292125225067,-1.0461045503616333,-2.091343879699707,-3.2107369899749756,0.2600441575050354,-4.183774471282959,-0.4112643897533417,-2.220580577850342,-3.2003605365753174,3.362478256225586,4.450735092163086,1.0784268379211426,4.897759914398193,3.3298721313476562,1.6827245950698853,1.1917575597763062,6.745193958282471,5.914072036743164,5.671526908874512,5.087784290313721,0.3800416588783264,-4.883203983306885,-5.276844024658203,-5.0201544761657715,-5.845236301422119,-0.8770126700401306,-2.648334264755249,-3.0345540046691895,-4.698964595794678,-0.7780550122261047,-4.45843505859375,4.285458564758301,0.3167298436164856,3.978677749633789,1.3554435968399048,1.3235805034637451,0.3561272919178009,0.7170170545578003
60,3.668736696243286,-0.799090564250946,-0.32177072763442993,-1.0402281284332275,-2.0639524459838867,-3.199847936630249,0.28976675868034363,-4.156632423400879,-0.38454169034957886,-2.217637062072754,-3.234370231628418,3.3556058406829834,4.4167256355285645,1.081370234489441,4.924482822418213,3.3570139408111572,1.7281326055526733,1.2034780979156494,6.769060134887695,5.900603294372559,5.66555643081665,5.107922554016113,0.4161975681781769,-4.863065719604492,-5.2828145027160645,-5.030432224273682,-5.847055435180664,-0.8817704916000366,-2.602926254272461,-3.0073752403259277,-4.668416500091553,-0.7773313522338867,-4.481075763702393,4.309629440307617,0.3464524447917938,3.977027654647827,1.3829785585403442,1.3317347764968872,0.3815857768058777,0.7425491213798523
61,3.694441318511963,-0.8278067708015442,-0.3516479432582855,-1.0419175624847412,-2.0885934829711914,-3.203007221221924,0.2547495663166046,-4.179479122161865,-0.41483819484710693,-2.2126407623291016,-3.2086195945739746,3.3593692779541016,4.442476272583008,1.0863664150238037,4.894186496734619,3.334167003631592,1.6879353523254395,1.2061041593551636,6.748661518096924,5.915805339813232,5.671398639678955,5.086398601531982,0.39269015192985535,-4.884589672088623,-5.27697229385376,-5.022700309753418,-5.847176551818848,-0.8709045052528381,-2.6431233882904053,-3.0310137271881104,-4.689432144165039,-0.7848601937294006,-4.455939769744873,4.277985572814941,0.3114352524280548,3.972637414932251,1.3529465198516846,1.3298673629760742,0.3517085611820221,0.7138329148292542
62,3.6863059997558594,-0.8035587668418884,-0.3266887962818146,-1.0352838039398193,-2.061248302459717,-3.191354513168335,0.28260043263435364,-4.1526570320129395,-0.38961127400398254,-2.21006441116333,-3.2413759231567383,3.352494716644287,4.409720420837402,1.0889428853988647,4.9194135665893555,3.3609890937805176,1.731858491897583,1.2180309295654297,6.772929668426514,5.90309476852417,5.6683030128479,5.106160640716553,0.42801633477211,-4.864827632904053,-5.2800679206848145,-5.032612323760986,-5.8480424880981445,-0.8758048415184021,-2.5992002487182617,-3.0046002864837646,-4.659095287322998,-0.7840635180473328,-4.476876735687256,4.301621913909912,0.33928611874580383,3.971071481704712,1.380444049835205,1.3388041257858276,0.37666770815849304,0.7380809187889099
63,3.7109601497650146,-0.8314706683158875,-0.3561893105506897,-1.0360503196716309,-2.0870795249938965,-3.1950764656066895,0.24824918806552887,-4.175199031829834,-0.41982516646385193,-2.2053327560424805,-3.21665096282959,3.3557779788970947,4.434445381164551,1.0936744213104248,4.889199733734131,3.338447093963623,1.6936362981796265,1.221498727798462,6.751523017883301,5.917518615722656,5.671051025390625,5.084871292114258,0.40550458431243896,-4.886116981506348,-5.27731990814209,-5.025764465332031,-5.84925651550293,-0.864902138710022,-2.637422561645508,-3.0274975299835205,-4.679049968719482,-0.7909694910049438,-4.451708793640137,4.270297527313232,0.30493488907814026,3.966219425201416,1.3497488498687744,1.3376880884170532,0.3471671938896179,0.7101690173149109
64,3.7032856941223145,-0.8082799911499023,-0.33140161633491516,-1.0288199186325073,-2.0579466819763184,-3.1829206943511963,0.2745482623577118,-4.148547649383545,-0.3953021466732025,-2.203023672103882,-3.2484052181243896,3.3488452434539795,4.402690887451172,1.0959833860397339,4.913722515106201,3.365098476409912,1.7368900775909424,1.2334110736846924,6.776937484741211,5.9054765701293945,5.670954704284668,5.10505485534668,0.4407903552055359,-4.865933418273926,-5.277416229248047,-5.035287857055664,-5.848475456237793,-0.8702850937843323,-2.5941689014434814,-3.0016133785247803,-4.648263454437256,-0.7901118993759155,-4.471168041229248,4.2937750816345215,0.331233948469162,3.964151620864868,1.379149079322815,1.3472144603729248,0.37195488810539246,0.733359694480896
65,3.727069616317749,-0.835640549659729,-0.3608328104019165,-1.0284069776535034,-2.087174415588379,-3.1867518424987793,0.24065130949020386,-4.171019077301025,-0.4263419508934021,-2.1984472274780273,-3.2244410514831543,3.3517403602600098,4.426654815673828,1.100559949874878,4.882682800292969,3.3426265716552734,1.6998103857040405,1.2377407550811768,6.753755569458008,5.9194111824035645,5.670272350311279,5.083222389221191,0.4186828136444092,-4.887765884399414,-5.2780985832214355,-5.029217720031738,-5.851419925689697,-0.8589085936546326,-2.6312484741210938,-3.024038076400757,-4.667966842651367,-0.7966002821922302,-4.44585657119751,4.262450218200684,0.29733702540397644,3.9593958854675293,1.3454468250274658,1.3470754623413086,0.3425236940383911,0.7059991359710693
66,3.719783306121826,-0.8133179545402527,-0.3358768820762634,-1.0208779573440552,-2.05375599861145,-3.1745169162750244,0.26560816168785095,-4.144402980804443,-0.4015689790248871,-2.1963117122650146,-3.2553963661193848,3.3446877002716064,4.395699501037598,1.1026954650878906,4.9074554443359375,3.3692426681518555,1.7431739568710327,1.2492561340332031,6.781296730041504,5.907957553863525,5.673688888549805,5.104782581329346,0.45480307936668396,-4.86620569229126,-5.27468204498291,-5.038298606872559,-5.847944736480713,-0.8653233647346497,-2.5878849029541016,-2.998502016067505,-4.63596248626709,-0.795678436756134,-4.46397066116333,4.286169052124023,0.32229387760162354,3.9559459686279297,1.3793245553970337,1.3568392992019653,0.3674796223640442,0.7283217310905457
67,3.7427685260772705,-0.8403202891349792,-0.3655131161212921,-1.0188614130020142,-2.089249849319458,-3.177746295928955,0.23210828006267548,-4.166995048522949,-0.43447527289390564,-2.1917953491210938,-3.2320525646209717,3.347276210784912,4.419043064117432,1.1072118282318115,4.87454891204834,3.346651077270508,1.7064573764801025,1.2545936107635498,6.755271911621094,5.921680927276611,5.668734550476074,5.081454277038574,0.43243297934532166,-4.889533996582031,-5.279636383056641,-5.032958030700684,-5.85366153717041,-0.8528268337249756,-2.6246016025543213,-3.0206305980682373,-4.656356334686279,-0.801948606967926,-4.438558101654053,4.254547595977783,0.28879401087760925,3.952190399169922,1.3396176099777222,1.3580682277679443,0.3378433883190155,0.7013193964958191
68,3.73594331741333,-0.8187831044197083,-0.34010329842567444,-1.0115412473678589,-2.048434257507324,-3.166156053543091,0.2557142674922943,-4.140353202819824,-0.40834465622901917,-2.189751148223877,-3.262258768081665,3.340055465698242,4.388836860656738,1.1092560291290283,4.900679588317871,3.373292922973633,1.7505868673324585,1.2650959491729736,6.786143779754639,5.910786151885986,5.676823139190674,5.105520248413086,0.47029992938041687,-4.8654680252075195,-5.271547794342041,-5.04147481918335,-5.8459625244140625,-0.8610964417457581,-2.580472230911255,-2.995415449142456,-4.62226676940918,-0.8009458780288696,-4.455284118652344,4.278867244720459,0.3123999834060669,3.9460201263427734,1.3811110258102417,1.3674744367599487,0.3632532060146332,0.7228565812110901
69,3.75799298286438,-0.8454963564872742,-0.3701249957084656,-1.0072687864303589,-2.093416452407837,-3.167693853378296,0.2228146344423294,-4.16316556930542,-0.44424599409103394,-2.1852221488952637,-3.2396163940429688,3.3423912525177,4.411479473114014,1.113784909248352,4.8647780418396,3.350480079650879,1.7135987281799316,1.2717875242233276,6.755963325500488,5.924545764923096,5.6659698486328125,5.079566478729248,0.44696536660194397,-4.891421794891357,-5.282401084899902,-5.03690242767334,-5.855952739715576,-0.8465492129325867,-2.6174604892730713,-3.0172359943389893,-4.644406318664551,-0.8071898221969604,-4.430031776428223,4.2467427253723145,0.2795003652572632,3.9446685314178467,1.3321049213409424,1.3706916570663452,0.33323150873184204,0.6961433291435242
70,3.7519147396087646,-0.8248082399368286,-0.3440812826156616,-1.0008978843688965,-2.0422585010528564,-3.1578750610351562,0.2447783350944519,-4.1365203857421875,-0.41560205817222595,-2.1832118034362793,-3.2688698768615723,3.3349969387054443,4.382225513458252,1.1157951354980469,4.8934221267700195,3.3771255016326904,1.7589002847671509,1.2804006338119507,6.791419506072998,5.914255142211914,5.6808061599731445,5.107372760772705,0.4874233603477478,-4.8636155128479,-5.26756477355957,-5.044659614562988,-5.842070579528809,-0.8577702641487122,-2.5721588134765625,-2.9925591945648193,-4.607335567474365,-0.8060798048973083,-4.445109844207764,4.271921634674072,0.3014640808105469,3.933877468109131,1.3840943574905396,1.3788765668869019,0.359275221824646,0.7168314456939697
71,3.772594928741455,-0.8511402606964111,-0.37453293800354004,-0.9935426712036133,-2.098884344100952,-3.1562740802764893,0.2129710614681244,-4.159577369689941,-0.4554826617240906,-2.1786231994628906,-3.24731183052063,3.3370721340179443,4.403783798217773,1.1203839778900146,4.853541374206543,3.3540685176849365,1.7213134765625,1.2889618873596191,6.755884170532227,5.928246021270752,5.66146183013916,5.077662467956543,0.462541788816452,-4.8933258056640625,-5.286909103393555,-5.0409746170043945,-5.857997417449951,-0.8400294780731201,-2.609745502471924,-3.0137898921966553,-4.6322340965271,-0.812478244304657,-4.420486927032471,4.239241123199463,0.269656777381897,3.9368040561676025,1.3236922025680542,1.384870171546936,0.3288235664367676,0.6904994249343872
72,3.7677807807922363,-0.8315180540084839,-0.3478223383426666,-0.9889020323753357,-2.0367448329925537,-3.149614095687866,0.23278188705444336,-4.132946014404297,-0.42353829741477966,-2.1766347885131836,-3.2750978469848633,3.329587936401367,4.375998020172119,1.1223721504211426,4.885485649108887,3.380699872970581,1.767724633216858,1.2947310209274292,6.796627521514893,5.918670177459717,5.685977935791016,5.1101861000061035,0.5060749650001526,-4.860802173614502,-5.262392997741699,-5.047762393951416,-5.836214065551758,-0.8552984595298767,-2.5633344650268555,-2.9901444911956787,-4.5915608406066895,-0.8112437725067139,-4.433522701263428,4.265347003936768,0.28946760296821594,3.9192230701446533,1.38664710521698,1.390921950340271,0.355534166097641,0.7101216316223145
73,3.7864034175872803,-0.8572328686714172,-0.37860336899757385,-0.9777994155883789,-2.1036276817321777,-3.1435225009918213,0.2026640623807907,-4.156266689300537,-0.46763280034065247,-2.171961784362793,-3.2552833557128906,3.331281900405884,4.395812511444092,1.1270451545715332,4.841391563415527,3.3573789596557617,1.7297730445861816,1.3055375814437866,6.755556583404541,5.93298864364624,5.6550984382629395,5.076162338256836,0.4795794188976288,-4.8948259353637695,-5.293272495269775,-5.045094966888428,-5.858882427215576,-0.8335154056549072,-2.601285934448242,-3.010222911834717,-4.619719982147217,-0.8179430365562439,-4.410041809082031,4.23225212097168,0.2593497931957245,3.9281527996063232,1.316432237625122,1.4002684354782104,0.32475313544273376,0.6844068765640259
74,3.7834699153900146,-0.8390206098556519,-0.351382851600647,-0.9751748442649841,-2.034266948699951,-3.141005754470825,0.21986378729343414,-4.129528522491455,-0.4327305555343628,-2.170032024383545,-3.28090500831604,3.3239145278930664,4.3701910972595215,1.1289749145507812,4.876294136047363,3.3841171264648438,1.7765454053878784,1.3079304695129395,6.800806045532227,5.924262523651123,5.691868305206299,5.113348484039307,0.5258340835571289,-4.857639789581299,-5.256502628326416,-5.050808429718018,-5.829121112823486,-0.8532673716545105,-2.554513454437256,-2.988246440887451,-4.575705528259277,-0.8166234493255615,-4.420709609985352,4.259042739868164,0.2765495181083679,3.902425765991211,1.386426568031311,1.4038276672363281,0.35197365283966064,0.7026191353797913
75,3.7994303703308105,-0.8638326525688171,-0.3822573721408844,-0.9603546261787415,-2.1059515476226807,-3.130078077316284,0.19175785779953003,-4.153144836425781,-0.4798431992530823,-2.165269613265991,-3.2634682655334473,3.3249881267547607,4.387628078460693,1.1337372064590454,4.82918119430542,3.3605003356933594,1.7391691207885742,1.3207652568817139,6.755887508392334,5.938827037811279,5.648007392883301,5.0758466720581055,0.49862638115882874,-4.8951416015625,-5.300363540649414,-5.04916524887085,-5.857290267944336,-0.8277230858802795,-2.5918898582458496,-3.006514310836792,-4.606451034545898,-0.8236804008483887,-4.3986897468566895,4.225863456726074,0.248443603515625,3.9176666736602783,1.3120338916778564,1.4163062572479248,0.3210991322994232,0.677807092666626
76,3.798757553100586,-0.8474433422088623,-0.3549415171146393,-0.9591028690338135,-2.035921096801758,-3.1314127445220947,0.2062251716852188,-4.1261796951293945,-0.44378769397735596,-2.163438558578491,-3.2864513397216797,3.317976713180542,4.364645004272461,1.1355684995651245,4.865236759185791,3.387465476989746,1.7850310802459717,1.3200758695602417,6.803309917449951,5.931092739105225,5.696596145629883,5.116077423095703,0.5462645292282104,-4.854910850524902,-5.251774787902832,-5.053834915161133,-5.821774482727051,-0.8512752056121826,-2.546027898788452,-2.9866583347320557,-4.560617446899414,-0.8224331140518188,-4.406835079193115,4.252729892730713,0.262910932302475,3.884517192840576,1.3825023174285889,1.4180182218551636,0.34841498732566833,0.6941964030265808
77,3.8119866847991943,-0.8710865378379822,-0.3854893147945404,-0.9413271546363831,-2.1063642501831055,-3.1167171001434326,0.18003910779953003,-4.149900436401367,-0.4915938675403595,-2.158583879470825,-3.2715890407562256,3.3182497024536133,4.379507064819336,1.1404231786727905,4.81743049621582,3.3637447357177734,1.7495038509368896,1.334197759628296,6.7574663162231445,5.9456987380981445,5.642653942108154,5.077314853668213,0.5200423002243042,-4.893673419952393,-5.3057169914245605,-5.052987098693848,-5.852622985839844,-0.8235069513320923,-2.581555128097534,-3.002769947052002,-4.592098712921143,-0.8297786116600037,-4.386353969573975,4.219970226287842,0.2367248684167862,3.904388904571533,1.3100063800811768,1.432607889175415,0.3178671896457672,0.6705532073974609
78,3.81335711479187,-0.8569711446762085,-0.35880807042121887,-0.9403175711631775,-2.0409040451049805,-3.1204590797424316,0.19195744395256042,-4.123043537139893,-0.45668238401412964,-2.1568593978881836,-3.2919223308563232,3.311659812927246,4.359173774719238,1.1421476602554321,4.852342128753662,3.390601873397827,1.7933406829833984,1.3312609195709229,6.804677963256836,5.939090251922607,5.6978535652160645,5.118133068084717,0.5674091577529907,-4.852855205535889,-5.25051736831665,-5.056676387786865,-5.814399719238281,-0.8495450019836426,-2.5377180576324463,-2.984923839569092,-4.546553134918213,-0.828882098197937,-4.39195442199707,4.246034145355225,0.2486432045698166,3.8662359714508057,1.375801920890808,1.4335646629333496,0.34454843401908875,0.6846686005592346
79,3.824428081512451,-0.8791113495826721,-0.38838860392570496,-0.9203566908836365,-2.1066112518310547,-3.103469133377075,0.1674496829509735,-4.146213054656982,-0.5031067132949829,-2.1518850326538086,-3.279414415359497,3.3112454414367676,4.371682167053223,1.1471222639083862,4.805917739868164,3.3674328327178955,1.760499358177185,1.3459218740463257,6.760420799255371,5.953701019287109,5.640921115875244,5.080435752868652,0.5437871217727661,-4.890552520751953,-5.307449817657471,-5.0561394691467285,-5.845376968383789,-0.8213971853256226,-2.57055926322937,-2.999150037765503,-4.576848983764648,-0.8363968729972839,-4.372893810272217,4.2143378257751465,0.22413542866706848,3.8884429931640625,1.3086369037628174,1.449289321899414,0.31496790051460266,0.662528395652771
80,3.827008008956909,-0.8677892684936523,-0.3632453680038452,-0.9188427329063416,-2.04801869392395,-3.108365297317505,0.1771024912595749,-4.120316028594971,-0.47080299258232117,-2.1502556800842285,-3.2973129749298096,3.3049097061157227,4.35378360748291,1.1487516164779663,4.838221549987793,3.3933298587799072,1.8018780946731567,1.3415048122406006,6.806223392486572,5.948253631591797,5.695250988006592,5.119936943054199,0.5897218585014343,-4.851051330566406,-5.253119945526123,-5.058924198150635,-5.806545734405518,-0.8488231897354126,-2.5291805267333984,-2.982658863067627,-4.5330963134765625,-0.8361273407936096,-4.376070976257324,4.238680839538574,0.23378823697566986,3.847385883331299,1.3675410747528076,1.450048565864563,0.3401111364364624,0.6738504767417908
81,3.8368396759033203,-0.8879849910736084,-0.3911864459514618,-0.8969148397445679,-2.1081387996673584,-3.089665651321411,0.15409354865550995,-4.1420488357543945,-0.5148840546607971,-2.145159959793091,-3.2868781089782715,3.304143190383911,4.364218235015869,1.1538472175598145,4.794140338897705,3.3715968132019043,1.7717925310134888,1.3561865091323853,6.764851093292236,5.963142395019531,5.642242908477783,5.0845627784729,0.5696159601211548,-4.886425495147705,-5.306128025054932,-5.058089256286621,-5.836358547210693,-0.8215563297271729,-2.5592660903930664,-2.9955825805664062,-4.561244964599609,-0.843747615814209,-4.358183860778809,4.208651065826416,0.21077929437160492,3.8707354068756104,1.3064919710159302,1.466569423675537,0.3121700584888458,0.6536547541618347
82,3.8396408557891846,-0.8799766302108765,-0.36830395460128784,-0.8948175311088562,-2.0564613342285156,-3.0955615043640137,0.16171400249004364,-4.1179585456848145,-0.48550155758857727,-2.143606662750244,-3.3025295734405518,3.297851324081421,4.34856653213501,1.1554005146026611,4.823522567749023,3.3956871032714844,1.8108148574829102,1.3506783246994019,6.809110164642334,5.958776950836182,5.690658092498779,5.122023582458496,0.6136518120765686,-4.848964691162109,-5.2577128410339355,-5.06005859375,-5.797657489776611,-0.849852979183197,-2.5202438831329346,-2.979840040206909,-4.519741058349609,-0.8442177772521973,-4.35910177230835,4.23060417175293,0.21839973330497742,3.8273396492004395,1.358502984046936,1.4669182300567627,0.3350525498390198,0.6616630554199219
83,3.849001169204712,-0.8978723287582397,-0.3941664695739746,-0.8706681728363037,-2.1118338108062744,-3.0746896266937256,0.14015690982341766,-4.137583255767822,-0.5271729230880737,-2.1384904384613037,-3.2940282821655273,3.297011375427246,4.357067584991455,1.1605168581008911,4.781850814819336,3.3760619163513184,1.7831182479858398,1.3651403188705444,6.770882606506348,5.974303245544434,5.6447434425354,5.089051246643066,0.5972884297370911,-4.881937026977539,-5.3036274909973145,-5.058435916900635,-5.82612419128418,-0.8238796591758728,-2.547940492630005,-2.9917688369750977,-4.545786380767822,-0.8519527316093445,-4.342241287231445,4.20259428024292,0.19684264063835144,3.851958990097046,1.3026806116104126,1.4843840599060059,0.3091900646686554,0.6437673568725586
84,3.851377487182617,-0.8935472369194031,-0.3738996982574463,-0.8683491945266724,-2.065896511077881,-3.0822439193725586,0.14583051204681396,-4.115764617919922,-0.5003116130828857,-2.137009859085083,-3.3074941635131836,3.290674924850464,4.343601703643799,1.1619973182678223,4.808712005615234,3.3978805541992188,1.8199961185455322,1.358536958694458,6.8139872550964355,5.970925807952881,5.686182498931885,5.12465238571167,0.639432430267334,-4.8463358879089355,-5.26218843460083,-5.059627056121826,-5.7873311042785645,-0.8530392050743103,-2.5110626220703125,-2.9766414165496826,-4.506267070770264,-0.8530846238136292,-4.340914726257324,4.221846580505371,0.20251624286174774,3.805636167526245,1.349015235900879,1.4836560487747192,0.3294568359851837,0.64809250831604
85,3.8605637550354004,-0.9090153574943542,-0.39751654863357544,-0.8415144681930542,-2.118176221847534,-3.058263063430786,0.12586644291877747,-4.132943153381348,-0.5398903489112854,-2.1320621967315674,-3.3009490966796875,3.2898752689361572,4.350146770477295,1.166944980621338,4.769133567810059,3.380701780319214,1.7942754030227661,1.3728679418563843,6.7785773277282715,5.987343788146973,5.647100925445557,5.093476295471191,0.6265974044799805,-4.877511978149414,-5.301270008087158,-5.056945323944092,-5.814908027648926,-0.8280602097511292,-2.536783218383789,-2.9874374866485596,-4.530788898468018,-0.8609899878501892,-4.325191020965576,4.195950984954834,0.18255217373371124,3.83229923248291,1.296728253364563,1.5023984909057617,0.30583998560905457,0.6326243877410889
86,3.8623273372650146,-0.9085405468940735,-0.3799559772014618,-0.8395364880561829,-2.0763638019561768,-3.0683512687683105,0.1295190453529358,-4.113525390625,-0.5148888826370239,-2.13069486618042,-3.3121237754821777,3.283527374267578,4.338972091674805,1.1683123111724854,4.794135093688965,3.4001197814941406,1.8290863037109375,1.3648773431777954,6.821090221405029,5.98488712310791,5.683045864105225,5.127787113189697,0.6670558452606201,-4.843201160430908,-5.26532506942749,-5.057332992553711,-5.775343418121338,-0.8583770990371704,-2.501972198486328,-2.9731991291046143,-4.492728233337402,-0.8625909686088562,-4.321438312530518,4.212429523468018,0.18620477616786957,3.782104253768921,1.3390511274337769,1.499735951423645,0.3234005570411682,0.6330991983413696
87,3.871182918548584,-0.9216388463973999,-0.4013039767742157,-0.8095172643661499,-2.12736177444458,-3.040339231491089,0.1114882081747055,-4.128123760223389,-0.552732527256012,-2.1261422634124756,-3.307664394378662,3.282771587371826,4.34343147277832,1.1728649139404297,4.75629186630249,3.385521650314331,1.8050464391708374,1.3794748783111572,6.787966728210449,6.002316474914551,5.648856163024902,5.097593307495117,0.6573233604431152,-4.873394966125488,-5.2995147705078125,-5.053483486175537,-5.802730560302734,-0.8336463570594788,-2.5260121822357178,-2.982424736022949,-4.5164289474487305,-0.8707420229911804,-4.307200908660889,4.188611030578613,0.16817393898963928,3.811662197113037,1.2884628772735596,1.520104169845581,0.3020525574684143,0.6200008988380432
88,3.872454881668091,-0.9250072240829468,-0.3864372968673706,-0.8084975481033325,-2.0880799293518066,-3.0536763668060303,0.11294734477996826,-4.111064434051514,-0.5289409160614014,-2.1249735355377197,-3.316302537918091,3.276520013809204,4.334793567657471,1.174033522605896,4.780083656311035,3.402581214904785,1.8376703262329102,1.3696602582931519,6.83040189743042,6.000720500946045,5.681820392608643,5.131205081939697,0.6962940692901611,-4.839783191680908,-5.266550540924072,-5.05302095413208,-5.761660099029541,-0.8655017018318176,-2.4933881759643555,-2.9695816040039062,-4.479331016540527,-0.8725653886795044,-4.30072546005249,4.202324390411377,0.16963306069374084,3.756855010986328,1.328427791595459,1.5145957469940186,0.3169192373752594,0.6166325211524963
89,3.8805251121520996,-0.9359034299850464,-0.40552568435668945,-0.774902880191803,-2.1393609046936035,-3.0210559368133545,0.09734221547842026,-4.123037338256836,-0.5652559995651245,-2.1210429668426514,-3.314079761505127,3.2757632732391357,4.337016582489014,1.1779640913009644,4.743768692016602,3.390608310699463,1.8151843547821045,1.3851287364959717,6.799081325531006,6.0191450119018555,5.649969100952148,5.101264476776123,0.6891732215881348,-4.869723796844482,-5.298401832580566,-5.047998905181885,-5.789545059204102,-0.8400970101356506,-2.515874147415161,-2.9766197204589844,-4.502793788909912,-0.8810323476791382,-4.288485527038574,4.180524826049805,0.15402792394161224,3.789865016937256,1.2779532670974731,1.5368317365646362,0.29783084988594055,0.6057363152503967
90,3.881589889526367,-0.942933976650238,-0.3933123052120209,-0.7753732800483704,-2.1012659072875977,-3.0379276275634766,0.09641635417938232,-4.1082024574279785,-0.5422003269195557,-2.1201894283294678,-3.319888114929199,3.2697694301605225,4.331208229064941,1.1788175106048584,4.766824245452881,3.4054434299468994,1.8452966213226318,1.3730592727661133,6.8417277336120605,6.01834774017334,5.682840824127197,5.134572505950928,0.7267152667045593,-4.836415767669678,-5.265530109405518,-5.046656131744385,-5.746463775634766,-0.8737578988075256,-2.485762119293213,-2.9658384323120117,-4.466361999511719,-0.8828007578849792,-4.27897834777832,4.191494464874268,0.1531020551919937,3.7303216457366943,1.3169718980789185,1.527658224105835,0.31004422903060913,0.5987057685852051
91,3.8882453441619873,-0.9518980979919434,-0.41015058755874634,-0.738095223903656,-2.1539206504821777,-3.000769853591919,0.08380302786827087,-4.117584705352783,-0.5769258141517639,-2.117079257965088,-3.3199758529663086,3.268941879272461,4.331120491027832,1.1819275617599487,4.7320990562438965,3.396061420440674,1.8244432210922241,1.3900479078292847,6.811929702758789,6.037571430206299,5.650476455688477,5.104424476623535,0.7217227816581726,-4.86656379699707,-5.297894477844238,-5.040558338165283,-5.7753496170043945,-0.8468625545501709,-2.50661563873291,-2.9699325561523438,-4.489890098571777,-0.8916211724281311,-4.269338130950928,4.171675682067871,0.14048871397972107,3.766732931137085,1.2654917240142822,1.5517317056655884,0.29320594668388367,0.5897416472434998
92,3.8894991874694824,-0.9621784090995789,-0.40050700306892395,-0.7403345108032227,-2.116051435470581,-3.020780086517334,0.08035087585449219,-4.104733943939209,-0.5544140934944153,-2.1166722774505615,-3.322737216949463,3.2634270191192627,4.328359127044678,1.182334303855896,4.754610538482666,3.408912181854248,1.8515206575393677,1.3754616975784302,6.854720592498779,6.0375285148620605,5.686351299285889,5.137479305267334,0.7576915621757507,-4.8335089683532715,-5.262019634246826,-5.038325786590576,-5.730190753936768,-0.8822869062423706,-2.4795382022857666,-2.9620327949523926,-4.45414924621582,-0.893035888671875,-4.256565570831299,4.179945468902588,0.13703657686710358,3.7032647132873535,1.3046033382415771,1.5383665561676025,0.30284953117370605,0.5794613361358643
93,3.893993377685547,-0.9696266055107117,-0.41512978076934814,-0.6997234225273132,-2.1705567836761475,-2.9800233840942383,0.07127925753593445,-4.111700057983398,-0.5871673822402954,-2.1145172119140625,-3.3250515460968018,3.2624340057373047,4.326045036315918,1.184489369392395,4.721857070922852,3.4019463062286377,1.832621693611145,1.394439697265625,6.826469421386719,6.057126045227051,5.650405406951904,5.107077598571777,0.7543785572052002,-4.863910675048828,-5.2979655265808105,-5.031376361846924,-5.760274887084961,-0.8535075187683105,-2.4984371662139893,-2.962310791015625,-4.4776530265808105,-0.9021883010864258,-4.250144004821777,4.162086486816406,0.12796497344970703,3.7422235012054443,1.251582384109497,1.5638010501861572,0.28822675347328186,0.5720131397247314
94,3.89593768119812,-0.9824413061141968,-0.4078832268714905,-0.7036141157150269,-2.1324219703674316,-3.0020110607147217,0.06524434685707092,-4.100444316864014,-0.5653244256973267,-2.1146864891052246,-3.324740409851074,3.2576820850372314,4.326355934143066,1.1843202114105225,4.74370002746582,3.4132025241851807,1.8559691905975342,1.3774402141571045,6.868913173675537,6.057830810546875,5.692381858825684,5.1394829750061035,0.788415789604187,-4.831505298614502,-5.255989074707031,-5.028259754180908,-5.713531494140625,-0.8901568055152893,-2.4750895500183105,-2.9582371711730957,-4.443012714385986,-0.9029414057731628,-4.234008312225342,4.167765140533447,0.12193004786968231,3.6766531467437744,1.2913637161254883,1.5462054014205933,0.2954733073711395,0.5591984391212463
95,3.8974642753601074,-0.9889605045318604,-0.4203786551952362,-0.6605476140975952,-2.188577175140381,-2.9593775272369385,0.0601717010140419,-4.105368137359619,-0.5954453349113464,-2.113520622253418,-3.3289992809295654,3.256403684616089,4.322096824645996,1.185486078262329,4.713579177856445,3.408278226852417,1.839599370956421,1.3984342813491821,6.842569351196289,6.077151775360107,5.64993143081665,5.109269142150879,0.786370575428009,-4.861719131469727,-5.2984395027160645,-5.020814895629883,-5.744640350341797,-0.859819233417511,-2.4914591312408447,-2.953801393508911,-4.465968608856201,-0.9123303294181824,-4.23136043548584,4.15185546875,0.11685740202665329,3.7166202068328857,1.236892819404602,1.5720188617706299,0.2829778790473938,0.5526792407035828
96,3.900660753250122,-1.0032886266708374,-0.41525566577911377,-0.6655682325363159,-2.1501996517181396,-2.9817094802856445,0.05157092958688736,-4.095180988311768,-0.5746432542800903,-2.1143667697906494,-3.3258280754089355,3.2527363300323486,4.325268268585205,1.1846399307250977,4.734381675720215,3.4184653759002686,1.8584316968917847,1.379684567451477,6.883791923522949,6.078624725341797,5.700397968292236,5.140191555023193,0.8179445862770081,-4.830796718597412,-5.2479729652404785,-5.016843795776367,-5.697359561920166,-0.8965416550636292,-2.4726266860961914,-2.954469680786133,-4.433175086975098,-0.9121270179748535,-4.211935520172119,4.155123233795166,0.10825662314891815,3.6514675617218018,1.2774074077606201,1.55069899559021,0.28810086846351624,0.5383510589599609
97,3.898519277572632,-1.0095593929290771,-0.42574042081832886,-0.6213119626045227,-2.2071373462677,-2.939218759536743,0.05080190673470497,-4.0985941886901855,-0.6013572812080383,-2.114109992980957,-3.331587553024292,3.251054286956787,4.319509029388428,1.18489670753479,4.707667827606201,3.4150521755218506,1.8453422784805298,1.402083158493042,6.859981060028076,6.096909999847412,5.649717807769775,5.1110310554504395,0.8167964816093445,-4.859957218170166,-5.2986531257629395,-5.0093255043029785,-5.7289652824401855,-0.8658058643341064,-2.485715866088867,-2.9446535110473633,-4.4547343254089355,-0.9215856194496155,-4.2134552001953125,4.141195297241211,0.10748758912086487,3.6907081604003906,1.2221899032592773,1.5755891799926758,0.27761611342430115,0.5320802927017212
98,3.9034175872802734,-1.0242191553115845,-0.4224449098110199,-0.6267144680023193,-2.1690728664398193,-2.960416316986084,0.039707936346530914,-4.088964939117432,-0.5820581316947937,-2.1156604290008545,-3.3259575366973877,3.2487545013427734,4.325138568878174,1.183346152305603,4.726966857910156,3.4246814250946045,1.8589630126953125,1.382877230644226,6.898891448974609,6.099122047424316,5.708983898162842,5.139377117156982,0.8452864289283752,-4.831611156463623,-5.239387035369873,-5.004617214202881,-5.682596206665039,-0.9009129405021667,-2.472095251083374,-2.9505720138549805,-4.424665451049805,-0.9201943874359131,-4.191065311431885,4.1422529220581055,0.09639361500740051,3.628571033477783,1.2629408836364746,1.551432490348816,0.2809116244316101,0.5174205303192139
99,3.897373676300049,-1.0308027267456055,-0.430978924036026,-0.5826264023780823,-2.2253081798553467,-2.919750690460205,0.04329043626785278,-4.091362953186035,-0.6046985387802124,-2.11614727973938,-3.332704782485962,3.2466204166412354,4.3183913230896,1.1828594207763672,4.704326629638672,3.42228364944458,1.8498517274856567,1.40547513961792,6.878314018249512,6.115715503692627,5.65103006362915,5.112335205078125,0.8447306752204895,-4.8586530685424805,-5.2973408699035645,-4.997373580932617,-5.713860988616943,-0.8715365529060364,-2.4812064170837402,-2.9353978633880615,-4.443887233734131,-0.9294916391372681,-4.196818828582764,4.130428791046143,0.09997610002756119,3.665745973587036,1.2082829475402832,1.5741633176803589,0.272377610206604,0.5108369588851929
100,3.9040284156799316,-1.0447392463684082,-0.42931491136550903,-0.5876654386520386,-2.1886582374572754,-2.939039468765259,0.029914898797869682,-4.082043170928955,-0.5873060822486877,-2.1183063983917236,-3.325127601623535,3.245816230773926,4.325968265533447,1.1807000637054443,4.721719264984131,3.43160343170166,1.8579356670379639,1.3875021934509277,6.913830280303955,6.11849308013916,5.716200351715088,5.137066841125488,0.8695297241210938,-4.833921432495117,-5.232170581817627,-4.992218494415283,-5.67000150680542,-0.9031822085380554,-2.4731225967407227,-2.946150541305542,-4.417269706726074,-0.9268356561660767,-4.172215461730957,4.129429817199707,0.08660055696964264,3.6087443828582764,1.2481547594070435,1.5481760501861572,0.27404162287712097,0.49690037965774536
101,3.8947267532348633,-1.0518224239349365,-0.4358488917350769,-0.5449604392051697,-2.242222785949707,-2.9012274742126465,0.03744941204786301,-4.083672046661377,-0.605475664138794,-2.1193439960479736,-3.332381248474121,3.2433254718780518,4.3187150955200195,1.1796625852584839,4.703549385070801,3.4299745559692383,1.8530933856964111,1.408884048461914,6.8970136642456055,6.133016586303711,5.654980659484863,5.113104820251465,0.8693708181381226,-4.857883453369141,-5.293390274047852,-4.985414028167725,-5.699829578399658,-0.8769431710243225,-2.4779648780822754,-2.926711320877075,-4.433388710021973,-0.9356783032417297,-4.181707859039307,4.119907379150391,0.09413507580757141,3.6431732177734375,1.1958979368209839,1.5678935050964355,0.2675076425075531,0.4898172914981842
102,3.9025959968566895,-1.0643831491470337,-0.43572986125946045,-0.5490058660507202,-2.2084500789642334,-2.9186174869537354,0.022317318245768547,-4.0747761726379395,-0.5902600884437561,-2.121882915496826,-3.3234500885009766,3.2439069747924805,4.327646732330322,1.1771236658096313,4.7187652587890625,3.438870668411255,1.8559401035308838,1.3936861753463745,6.928267955780029,6.136036396026611,5.720879077911377,5.133565902709961,0.8900004625320435,-4.8374223709106445,-5.227491855621338,-4.980268478393555,-5.659930229187012,-0.9037030935287476,-2.4751179218292236,-2.940830707550049,-4.410583972930908,-0.9319097995758057,-4.156186580657959,4.116995811462402,0.0790029838681221,3.592726707458496,1.2333145141601562,1.5410600900650024,0.26762667298316956,0.4772566258907318
103,3.8915443420410156,-1.0717178583145142,-0.44020789861679077,-0.5086865425109863,-2.257324457168579,-2.8841793537139893,0.0328541100025177,-4.075664520263672,-0.6038950085639954,-2.1232917308807373,-3.3308069705963135,3.2412736415863037,4.3202900886535645,1.1757147312164307,4.705130577087402,3.4379825592041016,1.8550291061401367,1.4127318859100342,6.9153900146484375,6.148374080657959,5.661406993865967,5.11328125,0.8901617527008057,-4.8577070236206055,-5.286963939666748,-4.973945140838623,-5.687168121337891,-0.881830632686615,-2.4760289192199707,-2.9190187454223633,-4.4231767654418945,-0.9399846792221069,-4.1683268547058105,4.109914302825928,0.0895397737622261,3.6242027282714844,1.1854264736175537,1.5573185682296753,0.2631486654281616,0.46992191672325134
104,3.8996798992156982,-1.0826692581176758,-0.4414912462234497,-0.511257529258728,-2.2277021408081055,-2.90012788772583,0.0168096125125885,-4.067447185516357,-0.5909581780433655,-2.125910520553589,-3.3211708068847656,3.2429380416870117,4.329926013946533,1.1730958223342896,4.718067646026611,3.446199893951416,1.8535325527191162,1.4012417793273926,6.941872596740723,6.151300430297852,5.723359107971191,5.129352569580078,0.9063998460769653,-4.841635704040527,-5.225011825561523,-4.96925687789917,-5.652248382568359,-0.9030691981315613,-2.477525472640991,-2.934652328491211,-4.404135704040527,-0.9354363679885864,-4.143424987792969,4.105362415313721,0.07349526882171631,3.5810787677764893,1.218940019607544,1.5306000709533691,0.2618653178215027,0.4589705169200897
105,3.888575315475464,-1.0898271799087524,-0.4440297484397888,-0.47406646609306335,-2.270446538925171,-2.869333505630493,0.029089072719216347,-4.067661762237549,-0.6003429889678955,-2.1275217533111572,-3.328313112258911,3.240354537963867,4.322783946990967,1.1714844703674316,4.708683013916016,3.4459855556488037,1.8557517528533936,1.4173431396484375,6.932740211486816,6.161469459533691,5.66900634765625,5.112883567810059,0.9068580865859985,-4.858104705810547,-5.279364585876465,-4.963491439819336,-5.676056861877441,-0.8860875368118286,-2.475306272506714,-2.9123101234436035,-4.413152694702148,-0.9425194263458252,-4.156920433044434,4.100653648376465,0.085774727165699,3.6095850467681885,1.1768418550491333,1.5432510375976562,0.25932684540748596,0.45181265473365784
106,3.89613676071167,-1.0991308689117432,-0.44639110565185547,-0.4749114513397217,-2.245544910430908,-2.8843793869018555,0.013002417050302029,-4.060239315032959,-0.5896005630493164,-2.1299490928649902,-3.3185651302337646,3.242738723754883,4.332531929016113,1.1690571308135986,4.719425201416016,3.4534084796905518,1.851060152053833,1.4098577499389648,6.954348564147949,6.164093971252441,5.724686622619629,5.124894142150879,0.9188326597213745,-4.846094131469727,-5.223684310913086,-4.9595184326171875,-5.646556377410889,-0.9018629789352417,-2.4799978733062744,-2.928054094314575,-4.397514343261719,-0.937559187412262,-4.133840084075928,4.09492301940918,0.06968806684017181,3.573967456817627,1.2057145833969116,1.5175273418426514,0.2569654881954193,0.4425089359283447
107,3.8861327171325684,-1.1058156490325928,-0.44732072949409485,-0.4412359297275543,-2.281630516052246,-2.857314109802246,0.02589070051908493,-4.0600266456604,-0.5953249335289001,-2.131596088409424,-3.3252806663513184,3.240272045135498,4.3258161544799805,1.1674100160598755,4.713700771331787,3.4536209106445312,1.855531096458435,1.4227899312973022,6.948501110076904,6.172165393829346,5.6764302253723145,5.112007141113281,0.91954106092453,-4.858981132507324,-5.2719407081604,-4.9544806480407715,-5.666632652282715,-0.8897972106933594,-2.475526809692383,-2.906376838684082,-4.403210639953613,-0.9436007738113403,-4.1476945877075195,4.092301368713379,0.08257634937763214,3.5995829105377197,1.169914722442627,1.5266865491867065,0.25603586435317993,0.43582412600517273
108,3.89274001121521,-1.1134443283081055,-0.4503215253353119,-0.44039857387542725,-2.2612874507904053,-2.871906280517578,0.010345914401113987,-4.053317546844482,-0.5865486264228821,-2.1336510181427,-3.3158395290374756,3.243061065673828,4.335257053375244,1.1653549671173096,4.722476959228516,3.46032977104187,1.8486876487731934,1.41922128200531,6.965466499328613,6.174434661865234,5.725658893585205,5.120514869689941,0.9276993870735168,-4.850473403930664,-5.22271203994751,-4.951261043548584,-5.642467498779297,-0.9005374312400818,-2.482370376586914,-2.9215517044067383,-4.390459060668945,-0.9385197758674622,-4.126981735229492,4.085930824279785,0.06703157722949982,3.5711207389831543,1.1941864490509033,1.502622365951538,0.2530350387096405,0.4281954765319824
109,3.8842475414276123,-1.119605302810669,-0.45007050037384033,-0.4102649390697479,-2.290952682495117,-2.848428249359131,0.023104388266801834,-4.05302619934082,-0.589374303817749,-2.1351864337921143,-3.3220441341400146,3.240659236907959,4.329052448272705,1.1638195514678955,4.719651222229004,3.460620641708374,1.8547296524047852,1.4289366006851196,6.962337017059326,6.18052864074707,5.682882785797119,5.110782146453857,0.9285842776298523,-4.860206127166748,-5.265488147735596,-4.9471435546875,-5.65895938873291,-0.8931798338890076,-2.4763286113739014,-2.901052951812744,-4.393265247344971,-0.9436342716217041,-4.140669822692871,4.085008144378662,0.07979004085063934,3.5940210819244385,1.1644213199615479,1.508651852607727,0.25328606367111206,0.4220345616340637
110,3.8899567127227783,-1.1255158185958862,-0.4533021152019501,-0.40803319215774536,-2.274580955505371,-2.86289644241333,0.008315064944326878,-4.046847820281982,-0.582286536693573,-2.1367862224578857,-3.3131301403045654,3.2436273097991943,4.337966442108154,1.162219762802124,4.726738929748535,3.466799020767212,1.8464993238449097,1.4290540218353271,6.975070953369141,6.182503700256348,5.7266364097595215,5.116378307342529,0.9335504770278931,-4.854609966278076,-5.221734523773193,-4.944563388824463,-5.639715194702148,-0.8993982672691345,-2.4845588207244873,-2.915537118911743,-4.382871150970459,-0.9386152625083923,-4.122291088104248,4.078460693359375,0.06500070542097092,3.5719549655914307,1.1846102476119995,1.4866383075714111,0.2500544488430023,0.41612401604652405
111,3.8828554153442383,-1.1312962770462036,-0.452267050743103,-0.38121944665908813,-2.298490047454834,-2.842637777328491,0.02061467617750168,-4.046807765960693,-0.5829882025718689,-2.138106346130371,-3.318852424621582,3.241177797317505,4.332243919372559,1.1608997583389282,4.726037502288818,3.466839075088501,1.8537020683288574,1.435537576675415,6.974140167236328,6.186782360076904,5.688075065612793,5.1093339920043945,0.9345563054084778,-4.861654281616211,-5.260295867919922,-4.941512107849121,-5.652994632720947,-0.896500289440155,-2.47735595703125,-2.8962607383728027,-4.38326358795166,-0.9430109262466431,-4.135658264160156,4.0788679122924805,0.07730031758546829,3.5923633575439453,1.1601958274841309,1.490056037902832,0.25108951330184937,0.4103434979915619
112,3.8879523277282715,-1.1354589462280273,-0.45543432235717773,-0.3780015707015991,-2.2853970527648926,-2.857203245162964,0.006514245644211769,-4.04095458984375,-0.5773454308509827,-2.1392438411712646,-3.310530662536621,3.244194269180298,4.3405656814575195,1.1597622632980347,4.731679916381836,3.4726920127868652,1.8445513248443604,1.439130187034607,6.983083248138428,6.188604354858398,5.7277302742004395,5.112527847290039,0.936975359916687,-4.858460426330566,-5.220640659332275,-4.939372539520264,-5.638130187988281,-0.8986082673072815,-2.486506700515747,-2.9102466106414795,-4.374783515930176,-0.9381417036056519,-4.119227886199951,4.072449207305908,0.06319989264011383,3.575728416442871,1.1769739389419556,1.4702633619308472,0.24792222678661346,0.40618085861206055
113,3.8818612098693848,-1.1411151885986328,-0.45392149686813354,-0.35417813062667847,-2.3043391704559326,-2.839629888534546,0.018330298364162445,-4.041423797607422,-0.5765954852104187,-2.140300750732422,-3.3158698081970215,3.241572856903076,4.335226058959961,1.158705234527588,4.7324299812316895,3.4722225666046143,1.852741003036499,1.4423027038574219,6.98397970199585,6.191241264343262,5.6920013427734375,5.1077728271484375,0.9381002187728882,-4.863215446472168,-5.256369590759277,-4.937469005584717,-5.6485981941223145,-0.9000106453895569,-2.4783170223236084,-2.89197039604187,-4.373192310333252,-0.9420529007911682,-4.132330894470215,4.07389497756958,0.07501594722270966,3.593838930130005,1.1571063995361328,1.4716171026229858,0.24943502247333527,0.4005245566368103
114,3.8866965770721436,-1.1435108184814453,-0.45684847235679626,-0.3503870666027069,-2.2939260005950928,-2.8544294834136963,0.004694953560829163,-4.035696506500244,-0.5722241401672363,-2.141018867492676,-3.3081047534942627,3.2445924282073975,4.342990875244141,1.157987117767334,4.736801624298096,3.47795033454895,1.842880129814148,1.449290156364441,6.989500999450684,6.193111419677734,5.72896671295166,5.108932971954346,0.9385350942611694,-4.86205530166626,-5.219404220581055,-4.9355244636535645,-5.63760232925415,-0.8981985449790955,-2.488178014755249,-2.905794382095337,-4.366315841674805,-0.9373509883880615,-4.117315769195557,4.067753791809082,0.06138060241937637,3.581662893295288,1.1710931062698364,1.4540939331054688,0.24650803208351135,0.3981289267539978
115,3.8811495304107666,-1.1493631601333618,-0.45507562160491943,-0.3292196989059448,-2.3086225986480713,-2.838926076889038,0.016193946823477745,-4.036872863769531,-0.5705385208129883,-2.141814947128296,-3.313188076019287,3.2416887283325195,4.337907791137695,1.1571907997131348,4.738487243652344,3.476774215698242,1.8520597219467163,1.4489301443099976,6.992043495178223,6.194255352020264,5.694777011871338,5.106186389923096,0.9398360848426819,-4.86480188369751,-5.253593921661377,-4.934810638427734,-5.645560264587402,-0.9039236903190613,-2.4789984226226807,-2.888159990310669,-4.363076686859131,-0.9409959316253662,-4.130321979522705,4.070031642913818,0.0728796049952507,3.5975804328918457,1.155036211013794,1.4538586139678955,0.24828088283538818,0.3922765552997589
116,3.886064291000366,-1.149946928024292,-0.4576717019081116,-0.325204074382782,-2.300477981567383,-2.854039430618286,0.0027291695587337017,-4.031071186065674,-0.5673338174819946,-2.142183542251587,-3.305887460708618,3.2447402477264404,4.345208644866943,1.1568222045898438,4.741692066192627,3.4825758934020996,1.8414952754974365,1.459445834159851,6.9943766593933105,6.196422100067139,5.730357646942139,5.105522632598877,0.9387238025665283,-4.8654656410217285,-5.218013286590576,-4.932779788970947,-5.638052463531494,-0.8980860114097595,-2.489562749862671,-2.902212142944336,-4.357635498046875,-0.9364290833473206,-4.116158485412598,4.064200401306152,0.0594148226082325,3.5890307426452637,1.1666958332061768,1.438620686531067,0.24568477272987366,0.39169272780418396
117,3.8805863857269287,-1.1563650369644165,-0.4557945132255554,-0.30641040205955505,-2.311474323272705,-2.8399834632873535,0.014185887761414051,-4.033122539520264,-0.5650607943534851,-2.142756462097168,-3.310842514038086,3.2414631843566895,4.3402533531188965,1.1562490463256836,4.743965148925781,3.4805245399475098,1.8517990112304688,1.4551202058792114,6.998592376708984,6.1961565017700195,5.696545124053955,5.104650020599365,0.9403080940246582,-4.86633825302124,-5.25182580947876,-4.933300971984863,-5.6436285972595215,-0.908412754535675,-2.4792590141296387,-2.884796380996704,-4.352964401245117,-0.9399926066398621,-4.129292011260986,4.067175388336182,0.07087153941392899,3.6027350425720215,1.1538825035095215,1.4371329545974731,0.247561976313591,0.38527458906173706
118,3.885908842086792,-1.1550182104110718,-0.45801642537117004,-0.302418053150177,-2.305415630340576,-2.855458974838257,0.0005682480987161398,-4.027034759521484,-0.5629735589027405,-2.142854928970337,-3.3038864135742188,3.244636058807373,4.347209453582764,1.1561505794525146,4.7460527420043945,3.486612319946289,1.8403745889663696,1.4695780277252197,6.997797012329102,6.198915004730225,5.731921195983887,5.102203369140625,0.9379491209983826,-4.8687849044799805,-5.216449737548828,-4.93086576461792,-5.639430046081543,-0.8980925679206848,-2.4906835556030273,-2.8994836807250977,-4.348934650421143,-0.9354957342147827,-4.115447998046875,4.061609745025635,0.057253897190093994,3.597217321395874,1.1634767055511475,1.424229621887207,0.24534004926681519,0.3866214156150818
119,3.8800292015075684,-1.1624325513839722,-0.4561574459075928,-0.2857975959777832,-2.313019275665283,-2.842277765274048,0.012317436747252941,-4.030135631561279,-0.5603036284446716,-2.1432604789733887,-3.3088269233703613,3.2409064769744873,4.342268943786621,1.155745029449463,4.748722553253174,3.4835116863250732,1.8520457744598389,1.4605767726898193,7.003932476043701,6.197223663330078,5.697438716888428,5.103234767913818,0.9399636387825012,-4.867753505706787,-5.250932216644287,-4.932717800140381,-5.642529010772705,-0.9136220812797546,-2.4790124893188477,-2.8818299770355225,-4.3429179191589355,-0.9391270279884338,-4.128969669342041,4.0651984214782715,0.06900308281183243,3.608534574508667,1.1535648107528687,1.421647548675537,0.24719905853271484,0.3792070150375366
120,3.8861021995544434,-1.158913016319275,-0.457975298166275,-0.28195855021476746,-2.3091163635253906,-2.8581478595733643,-0.0017923284322023392,-4.023520469665527,-0.5593307614326477,-2.143165111541748,-3.3020904064178467,3.244335651397705,4.349005699157715,1.1558403968811035,4.749695777893066,3.4901270866394043,1.8394662141799927,1.4797338247299194,6.999854564666748,6.200928688049316,5.733677864074707,5.098873615264893,0.9365296363830566,-4.872114658355713,-5.214693069458008,-4.929506778717041,-5.641715049743652,-0.897961437702179,-2.4915919303894043,-2.8975648880004883,-4.340414047241211,-0.9346147179603577,-4.114960193634033,4.059814929962158,0.054893314838409424,3.6057586669921875,1.1611233949661255,1.4112138748168945,0.2453812211751938,0.3827265202999115
121,3.8793389797210693,-1.1678434610366821,-0.4562511742115021,-0.2674088180065155,-2.3133513927459717,-2.8453593254089355,0.010616732761263847,-4.027877330780029,-0.5563144683837891,-2.1434621810913086,-3.307107925415039,3.240072011947632,4.343988418579102,1.1555434465408325,4.752712249755859,3.4857702255249023,1.8528493642807007,1.465006709098816,7.00839376449585,6.197662353515625,5.697573661804199,5.102021217346191,0.9391560554504395,-4.868967056274414,-5.250797271728516,-4.9328813552856445,-5.641969203948975,-0.9196771383285522,-2.4782087802886963,-2.879199981689453,-4.3329925537109375,-0.9384323358535767,-4.129159450531006,4.063967227935791,0.06730236858129501,3.614325761795044,1.1540379524230957,1.4074875116348267,0.24710534512996674,0.3737959563732147
122,3.8865630626678467,-1.1617447137832642,-0.4576241374015808,-0.2637162506580353,-2.3119616508483887,-2.8616371154785156,-0.004337593913078308,-4.020451545715332,-0.5564998984336853,-2.1432366371154785,-3.300476551055908,3.2439281940460205,4.350619792938232,1.1557689905166626,4.752526760101318,3.4931960105895996,1.8386937379837036,1.490007758140564,7.000625133514404,6.202750205993652,5.735635757446289,5.095421314239502,0.9347004294395447,-4.8755669593811035,-5.212735176086426,-4.928445816040039,-5.644931316375732,-0.897382378578186,-2.4923644065856934,-2.8963961601257324,-4.332275867462158,-0.9338117837905884,-4.114553928375244,4.058667182922363,0.05234804376959801,3.6143665313720703,1.1593230962753296,1.3997926712036133,0.2457323670387268,0.3798946738243103
123,3.878387451171875,-1.1728328466415405,-0.45616525411605835,-0.2512597441673279,-2.3125178813934326,-2.848891019821167,0.009116142988204956,-4.026320457458496,-0.5530630946159363,-2.143477439880371,-3.3056342601776123,3.23903489112854,4.345462322235107,1.15552818775177,4.7559638023376465,3.4873268604278564,1.8542391061782837,1.4681347608566284,7.012324333190918,6.1975998878479,5.697064399719238,5.101114273071289,0.9381566047668457,-4.869874000549316,-5.251306533813477,-4.933669567108154,-5.6416425704956055,-0.9266721606254578,-2.4768190383911133,-2.8768417835235596,-4.3232269287109375,-0.9379068613052368,-4.129734039306641,4.063352108001709,0.06580177694559097,3.619570016860962,1.1553065776824951,1.3946325778961182,0.24719122052192688,0.3688065707683563
124,3.887270450592041,-1.163556694984436,-0.4570262134075165,-0.24754010140895844,-2.314333915710449,-2.865539073944092,-0.007044859230518341,-4.017756462097168,-0.5545092225074768,-2.1431691646575928,-3.2990214824676514,3.2435104846954346,4.352075099945068,1.1558363437652588,4.754518032073975,3.4958908557891846,1.8379658460617065,1.5004960298538208,7.000160217285156,6.204621315002441,5.737766742706299,5.091734886169434,0.9326261878013611,-4.879253387451172,-5.210604190826416,-4.927454471588135,-5.64915132522583,-0.8960435390472412,-2.4930922985076904,-2.8959004878997803,-4.324730396270752,-0.9330929517745972,-4.114164352416992,4.058037757873535,0.04964076727628708,3.622938394546509,1.157759666442871,1.390128254890442,0.24633026123046875,0.37808266282081604
125,3.877068519592285,-1.1775790452957153,-0.4559873640537262,-0.23736459016799927,-2.3105220794677734,-2.8526737689971924,0.007838877849280834,-4.025439262390137,-0.5504620671272278,-2.1433937549591064,-3.3043417930603027,3.237870931625366,4.346754550933838,1.1556118726730347,4.7585649490356445,3.488208055496216,1.8562289476394653,1.4697705507278442,7.01607608795166,6.197098731994629,5.696061611175537,5.10064697265625,0.9371709823608398,-4.8703413009643555,-5.252309322357178,-4.935019493103027,-5.641227722167969,-0.9345980882644653,-2.4748291969299316,-2.8747007846832275,-4.313636779785156,-0.9375250339508057,-4.130620956420898,4.063230991363525,0.06452450156211853,3.6238296031951904,1.1574269533157349,1.3829811811447144,0.24736914038658142,0.36406025290489197
126,3.8882761001586914,-1.164357304573059,-0.4562422037124634,-0.23323237895965576,-2.3166134357452393,-2.8695337772369385,-0.009881253354251385,-4.015388488769531,-0.5533459186553955,-2.143033027648926,-3.297706365585327,3.243164300918579,4.353390216827393,1.1559727191925049,4.755681037902832,3.498258590698242,1.8371903896331787,1.511173963546753,6.998499870300293,6.206736087799072,5.739965915679932,5.087709426879883,0.9304214119911194,-4.883278846740723,-5.208405017852783,-4.926349639892578,-5.654467582702637,-0.8937583565711975,-2.493867874145508,-2.8959689140319824,-4.317992210388184,-0.9324625730514526,-4.1138105392456055,4.0578179359436035,0.046804361045360565,3.6315419673919678,1.1561164855957031,1.382332444190979,0.24711431562900543,0.37728193402290344
127,3.8753151893615723,-1.1821694374084473,-0.45579081773757935,-0.22574909031391144,-2.307361602783203,-2.856663465499878,0.006787506397813559,-4.025184154510498,-0.5483893752098083,-2.1432666778564453,-3.3031575679779053,3.2366509437561035,4.3479390144348145,1.155739188194275,4.7606377601623535,3.4884626865386963,1.858804702758789,1.4699641466140747,7.019968509674072,6.196193695068359,5.694810390472412,5.100773334503174,0.9363511800765991,-4.870214939117432,-5.253560543060303,-4.9368977546691895,-5.6404194831848145,-0.9431729912757874,-2.4722535610198975,-2.872753143310547,-4.30421781539917,-0.9372427463531494,-4.131772994995117,4.063497543334961,0.06347311288118362,3.626767873764038,1.160477638244629,1.3723927736282349,0.24756571650505066,0.35946983098983765
128,3.8897042274475098,-1.1642067432403564,-0.45535120368003845,-0.22055059671401978,-2.3191335201263428,-2.8733432292938232,-0.012789756990969181,-4.013363838195801,-0.5529747605323792,-2.142868995666504,-3.296525239944458,3.2429347038269043,4.3545708656311035,1.1561367511749268,4.756052017211914,3.5002827644348145,1.836295485496521,1.5216748714447021,6.99574089050293,6.209224700927734,5.74200439453125,5.083285808563232,0.928176999092102,-4.887702465057373,-5.206366539001465,-4.925023078918457,-5.660897254943848,-0.8906926512718201,-2.494762659072876,-2.896440029144287,-4.312273025512695,-0.9319421648979187,-4.113596439361572,4.057915687561035,0.04389584809541702,3.6403543949127197,1.1541081666946411,1.3764386177062988,0.24800533056259155,0.3774324357509613
129,3.8731398582458496,-1.186532974243164,-0.45560699701309204,-0.21643921732902527,-2.303144693374634,-2.860968828201294,0.005933788605034351,-4.025443077087402,-0.5467164516448975,-2.1431241035461426,-3.3020129203796387,3.235447406768799,4.349083423614502,1.155881643295288,4.76231050491333,3.488203287124634,1.861883521080017,1.4692336320877075,7.024203777313232,6.194972515106201,5.693706512451172,5.1016130447387695,0.9358001351356506,-4.869375228881836,-5.254664421081543,-4.939237117767334,-5.639010429382324,-0.951607882976532,-2.46917462348938,-2.8710293769836426,-4.294971942901611,-0.9370026588439941,-4.133127689361572,4.0640788078308105,0.06261938810348511,3.628194570541382,1.164458155632019,1.3627713918685913,0.24774952232837677,0.35510626435279846
