,0,1,2,3,4,5,6,7,8,9,10,11,12,13,14,15,16,17,18,19,20,21,22,23,24,25,26,27,28,29,30,31,32,33,34,35,36,37,38,39
0,2.2356526851654053,-5.866868495941162,-4.062093734741211,-4.0699639320373535,-3.4052398204803467,-4.635986328125,-0.020256707444787025,-3.0824897289276123,-4.548088073730469,-0.4115261733531952,-2.2356526851654053,0.4115261733531952,4.95352840423584,0.4372614622116089,4.517550945281982,5.367324352264404,3.741422653198242,3.9513447284698486,2.408104658126831,2.620811939239502,5.364742755889893,6.015099048614502,4.548088073730469,-6.015099048614502,-5.364742755889893,-2.620811939239502,-2.408104658126831,-3.9513447284698486,-3.741422653198242,-5.367324352264404,-4.517550945281982,-0.4372614622116089,-4.95352840423584,3.0824897289276123,0.020256707444787025,4.635986328125,3.4052398204803467,4.0699639320373535,4.062093734741211,5.866868495941162
1,2.2881290912628174,-5.814391613006592,-4.114570617675781,-4.122440814971924,-3.457716226577759,-4.583509922027588,-0.07273304462432861,-3.0300133228302,-4.600564956665039,-0.35904961824417114,-2.183176279067993,0.46400272846221924,5.00600528717041,0.48973798751831055,4.465074062347412,5.419801235198975,3.688946485519409,4.00382137298584,2.355628252029419,2.673288345336914,5.417219638824463,5.962622165679932,4.495611190795898,-6.067575931549072,-5.312265872955322,-2.56833553314209,-2.460581064224243,-3.8988683223724365,-3.793898820877075,-5.314847469329834,-4.570027828216553,-0.3847849369049072,-4.9010515213012695,3.1349661350250244,-0.03221962973475456,4.688462734222412,3.3527634143829346,4.017487049102783,4.009616851806641,5.919345378875732
2,2.338949203491211,-5.795988082885742,-4.154071807861328,-4.156637668609619,-3.490335464477539,-4.604653358459473,-0.11868885159492493,-2.9862687587738037,-4.607241153717041,-0.31962504982948303,-2.132167100906372,0.502980649471283,5.0570149421691895,0.529162585735321,4.45839786529541,5.463546276092529,3.6433863639831543,4.045274257659912,2.3208136558532715,2.705490827560425,5.450384616851807,5.934957504272461,4.497744560241699,-6.095240592956543,-5.2791008949279785,-2.5354695320129395,-2.4953410625457764,-3.8556971549987793,-3.83945894241333,-5.270276069641113,-4.564335346221924,-0.34488093852996826,-4.850224494934082,3.180375576019287,-0.07817544043064117,4.7051167488098145,3.320934534072876,3.9823262691497803,3.970115900039673,5.937748908996582
3,2.3820204734802246,-5.800549030303955,-4.177429676055908,-4.179096221923828,-3.5085577964782715,-4.642497539520264,-0.16991020739078522,-2.973780632019043,-4.5801262855529785,-0.28450116515159607,-2.0890471935272217,0.5373513698577881,5.10013484954834,0.564286470413208,4.485512733459473,5.476034164428711,3.5903000831604004,4.079060077667236,2.299318552017212,2.7254369258880615,5.45736837387085,5.917664527893066,4.530325889587402,-6.1125335693359375,-5.2721171379089355,-2.5152177810668945,-2.5163047313690186,-3.8134043216705322,-3.892545223236084,-5.251741886138916,-4.527103900909424,-0.30977562069892883,-4.810366630554199,3.1957755088806152,-0.12939679622650146,4.7063398361206055,3.30279278755188,3.9583375453948975,3.9467580318450928,5.933187961578369
4,2.411661386489868,-5.800619125366211,-4.190124988555908,-4.193661689758301,-3.510270357131958,-4.676552772521973,-0.21454554796218872,-2.982271671295166,-4.5634260177612305,-0.2520308196544647,-2.0599288940429688,0.5696024298667908,5.129253387451172,0.5967568159103394,4.502213001251221,5.467543125152588,3.539766311645508,4.1039628982543945,2.290611505508423,2.7369771003723145,5.443310260772705,5.902990818023682,4.552215099334717,-6.127207279205322,-5.28617525100708,-2.5029051303863525,-2.523562431335449,-3.7759134769439697,-3.9430789947509766,-5.249321460723877,-4.497989654541016,-0.27859318256378174,-4.791691303253174,3.1845638751983643,-0.17403213679790497,4.698955059051514,3.299701690673828,3.942598819732666,3.934062957763672,5.933117866516113
5,2.427706718444824,-5.797179698944092,-4.202234745025635,-4.204022407531738,-3.503476142883301,-4.692084789276123,-0.24634653329849243,-2.9707000255584717,-4.552294731140137,-0.22278094291687012,-2.047325611114502,0.5991417169570923,5.141856670379639,0.6260066628456116,4.5133442878723145,5.479115009307861,3.4979443550109863,4.114465236663818,2.2886857986450195,2.744189500808716,5.432138919830322,5.894265651702881,4.567720413208008,-6.135932445526123,-5.297346591949463,-2.494861364364624,-2.5229711532592773,-3.7478339672088623,-3.984900951385498,-5.227540969848633,-4.474595069885254,-0.25108474493026733,-4.796793460845947,3.185839891433716,-0.20583312213420868,4.709185600280762,3.3066349029541016,3.931159257888794,3.9219532012939453,5.936557292938232
6,2.43754506111145,-5.787078380584717,-4.195071697235107,-4.210244655609131,-3.4913101196289062,-4.7067060470581055,-0.2603301703929901,-2.9826412200927734,-4.549302101135254,-0.19705896079540253,-2.042875051498413,0.6261953711509705,5.146307468414307,0.651728630065918,4.516336917877197,5.4671735763549805,3.462393283843994,4.123811721801758,2.292830467224121,2.7482025623321533,5.414257049560547,5.887802600860596,4.5785722732543945,-6.142395496368408,-5.315228462219238,-2.4895615577697754,-2.517526865005493,-3.720766305923462,-4.02045202255249,-5.229683876037598,-4.457817077636719,-0.2273586541414261,-4.814154624938965,3.1654932498931885,-0.21981672942638397,4.714017391204834,3.3172976970672607,3.923583984375,3.9291162490844727,5.946658611297607
7,2.4453396797180176,-5.781580448150635,-4.199211597442627,-4.213230133056641,-3.480825662612915,-4.699498176574707,-0.26088985800743103,-2.9441704750061035,-4.535345077514648,-0.17431755363941193,-2.042738676071167,0.6506361365318298,5.146443843841553,0.674470067024231,4.530293941497803,5.50564432144165,3.4334535598754883,4.113452911376953,2.295670747756958,2.750501871109009,5.419394493103027,5.890932559967041,4.600201606750488,-6.139265537261963,-5.310091018676758,-2.487595558166504,-2.5126657485961914,-3.711251974105835,-4.049391269683838,-5.1877899169921875,-4.441854476928711,-0.20630231499671936,-4.835158348083496,3.191864013671875,-0.2203764170408249,4.72833776473999,3.3309431076049805,3.9184463024139404,3.9249765872955322,5.9521565437316895
8,2.4566709995269775,-5.756161689758301,-4.1623406410217285,-4.211419582366943,-3.4622750282287598,-4.728226184844971,-0.23728375136852264,-2.995147705078125,-4.54878568649292,-0.15512220561504364,-2.040431022644043,0.6727861166000366,5.148751258850098,0.6936653852462769,4.516853332519531,5.454667568206787,3.407862424850464,4.132940769195557,2.306802988052368,2.7496955394744873,5.387436866760254,5.8854660987854,4.604829788208008,-6.1447319984436035,-5.342048645019531,-2.4865198135375977,-2.502558469772339,-3.6826155185699463,-4.074982643127441,-5.234207630157471,-4.441686630249023,-0.1892678290605545,-4.856856822967529,3.1381404399871826,-0.1967703104019165,4.693830966949463,3.343472480773926,3.917663812637329,3.9618475437164307,5.977575302124023
9,2.464616298675537,-5.77124547958374,-4.1872239112854,-4.210186958312988,-3.458575487136841,-4.6796112060546875,-0.22901475429534912,-2.926732063293457,-4.5047807693481445,-0.13803859055042267,-2.04460072517395,0.6915841102600098,5.144581317901611,0.7107490301132202,4.560858249664307,5.523083686828613,3.3920533657073975,4.083611011505127,2.302839517593384,2.7511045932769775,5.431037902832031,5.90999698638916,4.653875827789307,-6.120201110839844,-5.298447608947754,-2.490204334259033,-2.504554271697998,-3.7163760662078857,-4.090791702270508,-5.165707588195801,-4.4242472648620605,-0.1720750629901886,-4.880208492279053,3.202026605606079,-0.1885012984275818,4.706066608428955,3.3566133975982666,3.914423704147339,3.936964273452759,5.962491512298584
10,2.4782867431640625,-5.717695236206055,-4.135716438293457,-4.200960159301758,-3.428819179534912,-4.7321457862854,-0.18302415311336517,-2.982661485671997,-4.555197238922119,-0.12395486980676651,-2.0424344539642334,0.7094194889068604,5.146747589111328,0.7248327136039734,4.510441780090332,5.467154026031494,3.374239921569824,4.126698970794678,2.322282075881958,2.7467055320739746,5.385060787200928,5.893067836761475,4.626511573791504,-6.137130260467529,-5.344424724578857,-2.4907443523406982,-2.4892895221710205,-3.6803181171417236,-4.10860538482666,-5.220721244812012,-4.464646816253662,-0.16049139201641083,-4.899389743804932,3.143073320388794,-0.14251068234443665,4.631682395935059,3.3749969005584717,3.9207000732421875,3.988471508026123,6.0160417556762695
11,2.4932944774627686,-5.754798412322998,-4.146069049835205,-4.199419021606445,-3.43463397026062,-4.681769847869873,-0.17842485010623932,-2.935145854949951,-4.493866920471191,-0.11214568465948105,-2.0465526580810547,0.7227522730827332,5.142629146575928,0.7366419434547424,4.57177209854126,5.514669895172119,3.36811900138855,4.071791648864746,2.309513568878174,2.750123977661133,5.427799701690674,5.932569980621338,4.694272041320801,-6.097628116607666,-5.301685810089111,-2.4967570304870605,-2.501075029373169,-3.7253024578094482,-4.1147260665893555,-5.1743035316467285,-4.426466941833496,-0.1460723727941513,-4.924349784851074,3.1886048316955566,-0.1379113644361496,4.618564128875732,3.375929355621338,3.913940191268921,3.978118658065796,5.978938579559326
12,2.504368543624878,-5.704604148864746,-4.110142230987549,-4.186776638031006,-3.40375018119812,-4.706391334533691,-0.12861764430999756,-2.969590902328491,-4.5364861488342285,-0.10242094844579697,-2.04941987991333,0.7356249094009399,5.139761924743652,0.7463666796684265,4.529152870178223,5.480224609375,3.357926845550537,4.0937652587890625,2.3264200687408447,2.744745969772339,5.3968729972839355,5.920935153961182,4.670050144195557,-6.109262943267822,-5.33261251449585,-2.499964475631714,-2.4869375228881836,-3.712390422821045,-4.124917984008789,-5.2083635330200195,-4.475988864898682,-0.1380130499601364,-4.943603038787842,3.1514551639556885,-0.08810415863990784,4.55717134475708,3.4021718502044678,3.9231810569763184,4.014045238494873,6.029132843017578
13,2.5228447914123535,-5.7242560386657715,-4.106312274932861,-4.183555603027344,-3.407280206680298,-4.665154457092285,-0.11648189276456833,-2.9411349296569824,-4.496721267700195,-0.09402457624673843,-2.0483922958374023,0.7458902597427368,5.14078950881958,0.7547630667686462,4.568917751312256,5.508680820465088,3.355304002761841,4.0527448654174805,2.313110113143921,2.7490499019622803,5.42690372467041,5.952976226806641,4.721275329589844,-6.077221870422363,-5.302581787109375,-2.502760648727417,-2.4998130798339844,-3.7511141300201416,-4.127540588378906,-5.18101167678833,-4.455509662628174,-0.12705466151237488,-4.96006441116333,3.1780946254730225,-0.07596839219331741,4.5240159034729,3.4012064933776855,3.9175758361816406,4.0178751945495605,6.009480953216553
14,2.530661106109619,-5.689222812652588,-4.077046871185303,-4.172372817993164,-3.382387161254883,-4.661281108856201,-0.07419199496507645,-2.96478009223938,-4.521577835083008,-0.08735854178667068,-2.0547049045562744,0.7548726797103882,5.134476661682129,0.7614291310310364,4.544061183929443,5.4850358963012695,3.3505265712738037,4.051796913146973,2.322068452835083,2.745783567428589,5.4072041511535645,5.950890064239502,4.713535308837891,-6.079308032989502,-5.322281360626221,-2.5062434673309326,-2.4931981563568115,-3.757964611053467,-4.132318019866943,-5.204614639282227,-4.49278450012207,-0.12087443470954895,-4.979217052459717,3.1531307697296143,-0.03367849066853523,4.480576038360596,3.425161838531494,3.924626588821411,4.047140598297119,6.044514179229736
15,2.547863245010376,-5.698598384857178,-4.070931434631348,-4.167678356170654,-3.3821897506713867,-4.622572422027588,-0.06242852658033371,-2.9464662075042725,-4.494063854217529,-0.08082056045532227,-2.0500807762145996,0.7634237408638,5.139101028442383,0.7679671049118042,4.571575164794922,5.503350257873535,3.3496429920196533,4.017582416534424,2.308790683746338,2.750833749771118,5.427969932556152,5.976141452789307,4.754040241241455,-6.054056644439697,-5.301515579223633,-2.5060951709747314,-2.506373882293701,-3.7918288707733154,-4.133201599121094,-5.187057018280029,-4.482133865356445,-0.11219796538352966,-4.987791061401367,3.1695783138275146,-0.0219150148332119,4.436562538146973,3.425654649734497,3.921398878097534,4.053256034851074,6.0351386070251465
16,2.5497143268585205,-5.670841217041016,-4.046175479888916,-4.158161640167236,-3.361093521118164,-4.604193210601807,-0.027988286688923836,-2.9661362171173096,-4.512337684631348,-0.07544093579053879,-2.057940721511841,0.7709568738937378,5.1312408447265625,0.7733467221260071,4.5533013343811035,5.483680248260498,3.347235918045044,4.005508899688721,2.3120341300964355,2.7502875328063965,5.412288665771484,5.976644515991211,4.751723289489746,-6.053553581237793,-5.317196846008301,-2.507732629776001,-2.5053603649139404,-3.80674147605896,-4.135608673095703,-5.206532955169678,-4.513864517211914,-0.10696086287498474,-5.005119323730469,3.1495201587677,0.012525206431746483,4.400271415710449,3.4475016593933105,3.9276344776153564,4.078011989593506,6.062895774841309
17,2.5646097660064697,-5.67868185043335,-4.042959690093994,-4.152891159057617,-3.3601579666137695,-4.565400123596191,-0.021404389292001724,-2.951568365097046,-4.488041877746582,-0.06949090212583542,-2.0499064922332764,0.7792863845825195,5.139275074005127,0.7792967557907104,4.577597141265869,5.498248100280762,3.346965789794922,3.974046230316162,2.296499252319336,2.756694793701172,5.428870677947998,5.998452186584473,4.788607597351074,-6.031745910644531,-5.300614833831787,-2.504786491394043,-2.520909070968628,-3.836977243423462,-4.135878562927246,-5.192409515380859,-4.503236293792725,-0.09919162839651108,-5.006880283355713,3.1623141765594482,0.019109100103378296,4.349992752075195,3.447614908218384,3.9265658855438232,4.081227779388428,6.055055141448975
18,2.5587565898895264,-5.653135776519775,-4.02045202255249,-4.144382476806641,-3.3400564193725586,-4.5410308837890625,0.009431879036128521,-2.971736431121826,-4.506866455078125,-0.06438237428665161,-2.0598948001861572,0.7868777513504028,5.129286766052246,0.7844052910804749,4.558772563934326,5.478079795837402,3.3451881408691406,3.9579131603240967,2.296778440475464,2.7580602169036865,5.4123358726501465,5.996938228607178,4.784491539001465,-6.033259868621826,-5.317149639129639,-2.504523754119873,-2.52290940284729,-3.8531651496887207,-4.137656211853027,-5.211947917938232,-4.534687519073486,-0.09446503221988678,-5.0236735343933105,3.1425387859344482,0.049945369362831116,4.319342613220215,3.4696125984191895,3.934161901473999,4.103735446929932,6.080601215362549
19,2.573049783706665,-5.664516925811768,-4.022488594055176,-4.138774871826172,-3.340508460998535,-4.5021796226501465,0.00908549502491951,-2.9559526443481445,-4.480522155761719,-0.058250028640031815,-2.047313928604126,0.795944333076477,5.141867637634277,0.7905376553535461,4.585116863250732,5.493863582611084,3.3450512886047363,3.9283804893493652,2.2774157524108887,2.7659547328948975,5.429160118103027,6.017857551574707,4.822444915771484,-6.012340545654297,-5.300325393676758,-2.4989407062530518,-2.542175054550171,-3.8801796436309814,-4.137793064117432,-5.1964616775512695,-4.518439769744873,-0.08663971722126007,-5.018490791320801,3.1564993858337402,0.04959898814558983,4.262269973754883,3.467284917831421,3.93540358543396,4.101698875427246,6.069220066070557
20,2.5578386783599854,-5.637442111968994,-3.9981539249420166,-4.13081693649292,-3.3187255859375,-4.476508140563965,0.04244040325284004,-2.9803314208984375,-4.505308151245117,-0.05300062894821167,-2.061793088912964,0.8041446208953857,5.1273884773254395,0.7957870364189148,4.560330867767334,5.469484806060791,3.3432600498199463,3.9117250442504883,2.2777271270751953,2.76814603805542,5.408149719238281,6.011109828948975,4.8112359046936035,-6.019088268280029,-5.321335792541504,-2.497701644897461,-2.5444211959838867,-3.894357204437256,-4.139584064483643,-5.2195844650268555,-4.554829120635986,-0.08238936960697174,-5.0379180908203125,3.133321762084961,0.08295387029647827,4.240551471710205,3.492274522781372,3.9459500312805176,4.126033306121826,6.09629487991333
21,2.5757126808166504,-5.656381607055664,-4.007686614990234,-4.124917984008789,-3.3224778175354004,-4.437875747680664,0.03196366876363754,-2.9581096172332764,-4.472181797027588,-0.0463494211435318,-2.0421226024627686,0.8142815828323364,5.147059440612793,0.8024382591247559,4.593457221984863,5.491706848144531,3.343388319015503,3.88401460647583,2.2531089782714844,2.7776670455932617,5.429937362670898,6.034247398376465,4.855005741119385,-5.995950698852539,-5.299548149108887,-2.4895122051239014,-2.568657159805298,-3.918596029281616,-4.139455795288086,-5.197824478149414,-4.527973175048828,-0.0737866535782814,-5.023909568786621,3.1532680988311768,0.07247713953256607,4.172911167144775,3.48468279838562,3.949326992034912,4.116500377655029,6.07735538482666
22,2.548830509185791,-5.6242194175720215,-3.9762613773345947,-4.1173577308654785,-3.2960891723632812,-4.413877487182617,0.0746050477027893,-2.991018533706665,-4.507802486419678,-0.040991947054862976,-2.064732313156128,0.822999119758606,5.124449729919434,0.8077957630157471,4.557836532592773,5.458797931671143,3.3414926528930664,3.8682916164398193,2.2573180198669434,2.7796337604522705,5.400404930114746,6.019089221954346,4.83173942565918,-6.011108875274658,-5.329080581665039,-2.4886929988861084,-2.5676887035369873,-3.9290361404418945,-4.141351699829102,-5.228614330291748,-4.5745530128479,-0.07045091688632965,-5.05040979385376,3.1224231719970703,0.11511850357055664,4.166532516479492,3.5161659717559814,3.9637486934661865,4.147925853729248,6.109517574310303
23,2.5755858421325684,-5.653413772583008,-3.9967868328094482,-4.111406326293945,-3.3051342964172363,-4.375551223754883,0.04855707660317421,-2.957211494445801,-4.464349269866943,-0.03383125364780426,-2.0349936485290527,0.8341031074523926,5.154188632965088,0.8149564266204834,4.601289749145508,5.492605209350586,3.3421928882598877,3.842233657836914,2.2258946895599365,2.791368007659912,5.4318623542785645,6.047937870025635,4.88502311706543,-5.982260227203369,-5.297623157501221,-2.477485418319702,-2.5984973907470703,-3.9511454105377197,-4.140651226043701,-5.195815086364746,-4.533508777618408,-0.06051948666572571,-5.024736404418945,3.153064250946045,0.08907055109739304,4.0849480628967285,3.499493360519409,3.9684700965881348,4.1274003982543945,6.080323219299316
24,2.5363821983337402,-5.615208148956299,-3.954728364944458,-4.104095458984375,-3.2721498012542725,-4.355571269989014,0.10433945059776306,-3.001328706741333,-4.511544704437256,-0.028648748993873596,-2.067898750305176,0.8429891467094421,5.121283531188965,0.8201389312744141,4.554094314575195,5.448487758636475,3.3402926921844482,3.827531099319458,2.237609386444092,2.7922897338867188,5.391250133514404,6.022500991821289,4.848437309265137,-6.007697105407715,-5.338235378265381,-2.478576898574829,-2.5911998748779297,-3.956973075866699,-4.142551422119141,-5.236884593963623,-4.590909481048584,-0.05884747952222824,-5.061428546905518,3.1115968227386475,0.14485293626785278,4.09751558303833,3.539816379547119,3.9869532585144043,4.169458866119385,6.118528842926025
25,2.572821617126465,-5.651771545410156,-3.9862430095672607,-4.0988616943359375,-3.2863972187042236,-4.317638397216797,0.06436891108751297,-2.956559896469116,-4.461134433746338,-0.0212246160954237,-2.029517412185669,0.8546192646026611,5.159665107727051,0.8275630474090576,4.604504585266113,5.493256568908691,3.3413631916046143,3.8029422760009766,2.2000296115875244,2.806729555130005,5.432229042053223,6.057103633880615,4.908140182495117,-5.973094463348389,-5.2972564697265625,-2.4641306400299072,-2.628439426422119,-3.977372407913208,-4.141480445861816,-5.193706512451172,-4.540188789367676,-0.04770026355981827,-5.0253520011901855,3.152479410171509,0.1048823744058609,4.007401466369629,3.5130386352539062,3.992178440093994,4.137944221496582,6.081965446472168
26,2.5277259349823,-5.613095283508301,-3.9374265670776367,-4.091519832611084,-3.2493152618408203,-4.300571918487549,0.12743626534938812,-3.005967617034912,-4.511673927307129,-0.016232028603553772,-2.0676374435424805,0.8636175990104675,5.121545314788818,0.8325556516647339,4.553965091705322,5.443849086761475,3.3396143913269043,3.7880876064300537,2.218153238296509,2.8063228130340576,5.385812759399414,6.02559232711792,4.866656303405762,-6.004605770111084,-5.343672752380371,-2.467461109161377,-2.61552095413208,-3.9797306060791016,-4.1432294845581055,-5.2395548820495605,-4.5994954109191895,-0.04778023809194565,-5.06762170791626,3.1055150032043457,0.16794973611831665,4.030385494232178,3.5585877895355225,4.013797283172607,4.186760902404785,6.120641708374023
27,2.5661537647247314,-5.648381233215332,-3.970416784286499,-4.088108062744141,-3.2646443843841553,-4.263776779174805,0.08786725252866745,-2.9599950313568115,-4.464395999908447,-0.008752027526497841,-2.02911114692688,0.8752102851867676,5.160071849822998,0.8400356769561768,4.601243019104004,5.489821910858154,3.340226650238037,3.765856981277466,2.1801836490631104,2.821984052658081,5.42777156829834,6.0597758293151855,4.923101902008057,-5.970422267913818,-5.301713943481445,-2.451354503631592,-2.6537222862243652,-3.997499942779541,-4.142617225646973,-5.195215225219727,-4.550810813903809,-0.03671780228614807,-5.0295186042785645,3.1475753784179688,0.12838071584701538,3.944535493850708,3.5281758308410645,4.019836902618408,4.153770446777344,6.085355758666992
28,2.524327039718628,-5.615760803222656,-3.9234652519226074,-4.081343650817871,-3.229595899581909,-4.2441086769104,0.14824947714805603,-3.0042285919189453,-4.508809566497803,-0.0035445087123662233,-2.064095973968506,0.8846307992935181,5.125087261199951,0.8452431559562683,4.556829452514648,5.4455885887146,3.3386614322662354,3.7494235038757324,2.199098587036133,2.820765495300293,5.385265350341797,6.030223846435547,4.887463092803955,-5.999974250793457,-5.344220161437988,-2.4552512168884277,-2.639350414276123,-3.9993526935577393,-4.144182205200195,-5.235730171203613,-4.602132797241211,-0.037560418248176575,-5.068381309509277,3.1052486896514893,0.18876290321350098,3.9657907485961914,3.571340560913086,4.0425615310668945,4.2007222175598145,6.117976188659668
29,2.558098793029785,-5.644765377044678,-3.949449300765991,-4.080169677734375,-3.242091655731201,-4.209760665893555,0.1170564517378807,-2.964430570602417,-4.470061779022217,0.003759183920919895,-2.031998634338379,0.8959014415740967,5.157184600830078,0.8525468707084656,4.595577239990234,5.485386848449707,3.338606834411621,3.730945110321045,2.166642904281616,2.8352370262145996,5.421196460723877,6.059089183807373,4.935501575469971,-5.971108913421631,-5.308289051055908,-2.4397952556610107,-2.6722216606140137,-4.013070583343506,-4.144237041473389,-5.197084426879883,-4.56160306930542,-0.027727996930480003,-5.034811973571777,3.141364097595215,0.15756987035274506,3.8902108669281006,3.544057607650757,4.0503435134887695,4.17473840713501,6.0889716148376465
30,2.522926092147827,-5.619246959686279,-3.908270835876465,-4.075203895568848,-3.212156057357788,-4.185489177703857,0.17031711339950562,-3.0001940727233887,-4.506251335144043,0.009304756298661232,-2.0611636638641357,0.9058659076690674,5.128019332885742,0.8580924272537231,4.559387683868408,5.4496235847473145,3.3371825218200684,3.7132174968719482,2.1836254596710205,2.8339266777038574,5.385921001434326,6.034800052642822,4.908553123474121,-5.995398044586182,-5.343564510345459,-2.4428510665893555,-2.6585795879364014,-4.01544713973999,-4.145660877227783,-5.2290730476379395,-4.602874755859375,-0.02863251231610775,-5.067083358764648,3.107170820236206,0.21083052456378937,3.9051363468170166,3.5814430713653564,4.0725274085998535,4.215917110443115,6.114490032196045
31,2.5515482425689697,-5.642161846160889,-3.926969528198242,-4.076345920562744,-3.221266269683838,-4.153393745422363,0.14594987034797668,-2.966888189315796,-4.475203990936279,0.016203410923480988,-2.0358645915985107,0.9168281555175781,5.153317928314209,0.8649911284446716,4.590435028076172,5.482929229736328,3.336707353591919,3.698089599609375,2.158097505569458,2.846446990966797,5.415322303771973,6.058094024658203,4.9490966796875,-5.972104072570801,-5.3141632080078125,-2.4288530349731445,-2.684429168701172,-4.025345802307129,-4.146136283874512,-5.1962738037109375,-4.569823741912842,-0.02026434987783432,-5.038849830627441,3.136932611465454,0.18646326661109924,3.838707208633423,3.558358669281006,4.081972122192383,4.197218418121338,6.0915751457214355
32,2.522432804107666,-5.621969223022461,-3.891221761703491,-4.07375431060791,-3.196296215057373,-4.125715255737305,0.19275303184986115,-2.996182918548584,-4.505151748657227,0.021888991817831993,-2.060299873352051,0.9272248148918152,5.128882884979248,0.8706766963005066,4.560487270355225,5.453634738922119,3.3353843688964844,3.679941177368164,2.173609972000122,2.8451173305511475,5.3857340812683105,6.038203716278076,4.928925037384033,-5.991994380950928,-5.343751430511475,-2.4310498237609863,-2.6713554859161377,-4.02778434753418,-4.147459030151367,-5.22184419631958,-4.6033782958984375,-0.02130793407559395,-5.0658087730407715,3.1090664863586426,0.2332664430141449,3.84849214553833,3.5904502868652344,4.10309362411499,4.232966423034668,6.111767768859863
33,2.547816276550293,-5.6404266357421875,-3.9053399562835693,-4.077237129211426,-3.203171491622925,-4.0950541496276855,0.17194148898124695,-2.9672608375549316,-4.47929573059082,0.028237540274858475,-2.039918899536133,0.9379125237464905,5.149263381958008,0.8770252466201782,4.586343288421631,5.48255729675293,3.334702253341675,3.6671459674835205,2.1538801193237305,2.855987548828125,5.410678386688232,6.057210922241211,4.964432716369629,-5.972987174987793,-5.318807125091553,-2.4183201789855957,-2.6912777423858643,-4.034808158874512,-4.148141384124756,-5.192934989929199,-4.5753703117370605,-0.014291788451373577,-5.041694164276123,3.1344544887542725,0.2124549001455307,3.7886836528778076,3.569984197616577,4.113522052764893,4.218848705291748,6.093310356140137
34,2.5232622623443604,-5.623656749725342,-3.873723268508911,-4.076886177062988,-3.1821341514587402,-4.065393447875977,0.21429362893104553,-2.992766857147217,-4.505324363708496,0.033822670578956604,-2.0612986087799072,0.9485552310943604,5.1278839111328125,0.8826103806495667,4.560314655303955,5.4570512771606445,3.333491325378418,3.6492228507995605,2.1689584255218506,2.854308843612671,5.3846049308776855,6.03995943069458,4.94857120513916,-5.990238666534424,-5.3448805809021,-2.4202017784118652,-2.6781129837036133,-4.036772727966309,-4.149352073669434,-5.214943885803223,-4.603963375091553,-0.01585048995912075,-5.065525531768799,3.1103768348693848,0.2548070549964905,3.7959134578704834,3.598325252532959,4.1336989402771,4.250465393066406,6.110080242156982
35,2.5473177433013916,-5.639106273651123,-3.885746955871582,-4.082560062408447,-3.187915325164795,-4.035790920257568,0.19438982009887695,-2.96621036529541,-4.482421875,0.03951941430568695,-2.0439841747283936,0.9589105248451233,5.145198345184326,0.8883070945739746,4.583217144012451,5.483607769012451,3.332750082015991,3.6382670402526855,2.153411865234375,2.8640458583831787,5.407242298126221,6.055810928344727,4.981123924255371,-5.974387168884277,-5.3222432136535645,-2.4083547592163086,-2.69376802444458,-4.041575908660889,-4.150093078613281,-5.188202857971191,-4.57889461517334,-0.010059034451842308,-5.0443034172058105,3.1333281993865967,0.2349032461643219,3.7405645847320557,3.5788216590881348,4.144535064697266,4.2384419441223145,6.094630718231201
36,2.5259063243865967,-5.624347686767578,-3.8571505546569824,-4.08397102355957,-3.169741153717041,-4.005336761474609,0.23402482271194458,-2.990017890930176,-4.506286144256592,0.04483029618859291,-2.0636117458343506,0.9696084260940552,5.125570297241211,0.8936179876327515,4.559352874755859,5.4598002433776855,3.331669569015503,3.6211936473846436,2.1687848567962646,2.8617002964019775,5.383054256439209,6.039679527282715,4.967624664306641,-5.990518569946289,-5.346431255340576,-2.4104349613189697,-2.680070161819458,-4.0426483154296875,-4.1511735916137695,-5.208961009979248,-4.604685306549072,-0.012509206309914589,-5.066910266876221,3.111090898513794,0.2745382487773895,3.7474074363708496,3.6049792766571045,4.164089202880859,4.267038345336914,6.109389305114746
37,2.550011157989502,-5.637765884399414,-3.868865966796875,-4.0915703773498535,-3.1751291751861572,-3.976844072341919,0.21316073834896088,-2.9643361568450928,-4.484694004058838,0.049804557114839554,-2.0478732585906982,0.9795005917549133,5.1413092613220215,0.8985922336578369,4.580945014953613,5.4854817390441895,3.3309521675109863,3.612070322036743,2.1559553146362305,2.870835065841675,5.405064582824707,6.053104400634766,4.998669624328613,-5.977093696594238,-5.324420928955078,-2.3991079330444336,-2.6929759979248047,-4.04555082321167,-4.151891231536865,-5.183193206787109,-4.581103324890137,-0.007852759212255478,-5.047665596008301,3.1330721378326416,0.25367414951324463,3.6948654651641846,3.585279703140259,4.174978733062744,4.25532341003418,6.09597110748291
38,2.5305323600769043,-5.62403678894043,-3.8424766063690186,-4.0941877365112305,-3.158900737762451,-3.9466934204101562,0.2512999475002289,-2.987924814224243,-4.507618427276611,0.054746538400650024,-2.066551446914673,0.9900849461555481,5.122631072998047,0.9035342335700989,4.55802059173584,5.461893081665039,3.329970598220825,3.5965940952301025,2.1720049381256104,2.867631435394287,5.381669044494629,6.036986351013184,4.986123561859131,-5.99321174621582,-5.347816467285156,-2.401744842529297,-2.6785800457000732,-4.045413017272949,-4.1528730392456055,-5.204395294189453,-4.6056623458862305,-0.01148893777281046,-5.070491313934326,3.111335277557373,0.29181334376335144,3.702733039855957,3.610586643218994,4.19425630569458,4.281712532043457,6.1097002029418945
39,2.555528163909912,-5.6359663009643555,-3.855043649673462,-4.103464603424072,-3.1642658710479736,-3.919487714767456,0.22827260196208954,-2.962087392807007,-4.486217975616455,0.058963894844055176,-2.0511550903320312,0.9993602633476257,5.138027191162109,0.9077515602111816,4.579421043395996,5.487730026245117,3.329298734664917,3.589402675628662,2.1606924533843994,2.8766565322875977,5.404249668121338,6.048435688018799,5.016602993011475,-5.981762409210205,-5.325235843658447,-2.3906631469726562,-2.6899712085723877,-4.046651840209961,-4.153544902801514,-5.178786277770996,-4.582657337188721,-0.007904200814664364,-5.052587032318115,3.133382558822632,0.2687859833240509,3.6517460346221924,3.58994722366333,4.204991817474365,4.269145488739014,6.097770690917969
40,2.5369505882263184,-5.6225762367248535,-3.8302323818206787,-4.106822490692139,-3.149275779724121,-3.8907816410064697,0.2656695544719696,-2.9864501953125,-4.509031295776367,0.06351080536842346,-2.06925106048584,1.0097086429595947,5.119931221008301,0.9122985005378723,4.556607723236084,5.463366985321045,3.3283135890960693,3.576397657394409,2.1775920391082764,2.8725032806396484,5.380941867828369,6.031607627868652,5.004030227661133,-5.998590469360352,-5.348543643951416,-2.394089698791504,-2.674882411956787,-4.0451178550720215,-4.154530048370361,-5.201590061187744,-4.607089042663574,-0.01292339339852333,-5.076683521270752,3.111250400543213,0.30618295073509216,3.6613221168518066,3.615403413772583,4.224297046661377,4.293956756591797,6.111160755157471
41,2.5632383823394775,-5.633212089538574,-3.8442933559417725,-4.117640495300293,-3.1548404693603516,-3.8649086952209473,0.23988108336925507,-2.9598066806793213,-4.487130641937256,0.06697771698236465,-2.053124189376831,1.01824152469635,5.1360578536987305,0.9157654047012329,4.578508377075195,5.490010738372803,3.327669382095337,3.5709891319274902,2.16688871383667,2.8818295001983643,5.404844760894775,6.041385650634766,5.034517765045166,-5.988812446594238,-5.32464075088501,-2.3831093311309814,-2.685673952102661,-4.045106887817383,-4.155174255371094,-5.175588607788086,-4.5841450691223145,-0.01037231832742691,-5.0597333908081055,3.1340219974517822,0.28039446473121643,3.6109838485717773,3.5933587551116943,4.234743595123291,4.279895782470703,6.10052490234375
42,2.544705867767334,-5.619678020477295,-3.8205313682556152,-4.121457576751709,-3.1406166553497314,-3.8389456272125244,0.27684590220451355,-2.98551607131958,-4.510336399078369,0.07115726917982101,-2.0706701278686523,1.028300166130066,5.11851167678833,0.9199449419975281,4.555302619934082,5.464301109313965,3.326514482498169,3.561450242996216,2.184711217880249,2.876718759536743,5.381227493286133,6.0234375,5.021294593811035,-6.006760597229004,-5.348258018493652,-2.3874545097351074,-2.669980049133301,-4.042149066925049,-4.1563286781311035,-5.200659275054932,-4.609163761138916,-0.016871601343154907,-5.08585786819458,3.110938787460327,0.3173592686653137,3.622302532196045,3.6195738315582275,4.254308700561523,4.303657531738281,6.114058971405029
43,2.572349786758423,-5.628971576690674,-3.836333751678467,-4.133803844451904,-3.1465816497802734,-3.8141629695892334,0.24825644493103027,-2.957766056060791,-4.487591743469238,0.0739176869392395,-2.0528688430786133,1.0360302925109863,5.136312961578369,0.922705352306366,4.578047275543213,5.492051601409912,3.3258578777313232,3.557211399078369,2.1740105152130127,2.886643171310425,5.406778812408447,6.031764030456543,5.052086353302002,-5.998434066772461,-5.322706699371338,-2.3765859603881836,-2.6807589530944824,-4.041666030883789,-4.156985282897949,-5.173952102661133,-4.586060523986816,-0.015358339995145798,-5.069745063781738,3.1347358226776123,0.28876981139183044,3.572047710418701,3.595872640609741,4.2643842697143555,4.28785514831543,6.10476541519165
44,2.5532166957855225,-5.614978790283203,-3.813178062438965,-4.1380133628845215,-3.1328768730163574,-3.792489767074585,0.2846667468547821,-2.9850096702575684,-4.511401176452637,0.0777941420674324,-2.0696682929992676,1.0458203554153442,5.119513511657715,0.9265817999839783,4.5542378425598145,5.464807987213135,3.3243203163146973,3.552274703979492,2.192768096923828,2.8806815147399902,5.382739543914795,6.012495994567871,5.037900447845459,-6.017702102661133,-5.34674596786499,-2.3818516731262207,-2.664599895477295,-4.037396430969238,-4.158522605895996,-5.20150899887085,-4.6120476722717285,-0.0233403742313385,-5.09844970703125,3.1104397773742676,0.3251800835132599,3.584592580795288,3.6230552196502686,4.284358978271484,4.311010360717773,6.118758201599121
45,2.582061529159546,-5.622753620147705,-3.8307340145111084,-4.151937007904053,-3.1394660472869873,-3.7682104110717773,0.25368502736091614,-2.956178903579712,-4.487740993499756,0.07991524040699005,-2.049370050430298,1.0527684688568115,5.139811992645264,0.9287028908729553,4.577898025512695,5.49363899230957,3.3235902786254883,3.548065662384033,2.1817407608032227,2.891385078430176,5.40988826751709,6.01951789855957,5.069091796875,-6.010680198669434,-5.319597244262695,-2.3712549209594727,-2.6756505966186523,-4.037683963775635,-4.159252643585205,-5.174036502838135,-4.588785648345947,-0.022935468703508377,-5.083326816558838,3.1352429389953613,0.2941983640193939,3.5341718196868896,3.5976500511169434,4.294050693511963,4.293454647064209,6.110983371734619
46,2.561904191970825,-5.608121395111084,-3.8078293800354004,-4.156660556793213,-3.126195192337036,-3.7526564598083496,0.28906527161598206,-2.984827995300293,-4.512126922607422,0.08357258141040802,-2.0651159286499023,1.062375783920288,5.12406587600708,0.9323602318763733,4.553512096405029,5.464990139007568,3.3214316368103027,3.5490264892578125,2.201382637023926,2.884855031967163,5.385583400726318,5.998815059661865,5.0538740158081055,-6.031383037567139,-5.343902111053467,-2.377267837524414,-2.6592235565185547,-4.032294273376465,-4.161411285400391,-5.2039570808410645,-4.615867614746094,-0.032326050102710724,-5.115039825439453,3.1097209453582764,0.32957857847213745,3.547029495239258,3.6256837844848633,4.314509868621826,4.316359043121338,6.12561559677124
47,2.5917155742645264,-5.614198207855225,-3.827106237411499,-4.172181606292725,-3.1336519718170166,-3.7279622554779053,0.25635844469070435,-2.9551942348480225,-4.487648010253906,0.08512389659881592,-2.041595220565796,1.0686354637145996,5.147586345672607,0.9339115619659424,4.577991008758545,5.494624137878418,3.320538282394409,3.543212413787842,2.1899189949035645,2.8964345455169678,5.414017200469971,6.004612922668457,5.085458755493164,-6.025585174560547,-5.3154683113098145,-2.3672165870666504,-2.670592784881592,-4.03509521484375,-4.162304878234863,-5.175896644592285,-4.59257698059082,-0.03317711874842644,-5.101267337799072,3.1352875232696533,0.29687178134918213,3.496422529220581,3.598705530166626,4.323907852172852,4.297082424163818,6.1195387840271
48,2.570279121398926,-5.598827838897705,-3.8041446208953857,-4.177666664123535,-3.1207902431488037,-3.720618963241577,0.2900628447532654,-2.984942674636841,-4.512457847595215,0.0886576771736145,-2.0560152530670166,1.0781922340393066,5.133166313171387,0.9374452829360962,4.553181171417236,5.4648756980896,3.3175289630889893,3.5515201091766357,2.2103447914123535,2.8898439407348633,5.389811038970947,5.98233699798584,5.069265365600586,-6.047861099243164,-5.339674472808838,-2.3735785484313965,-2.654153823852539,-4.028754711151123,-4.165314197540283,-5.207897186279297,-4.620739459991455,-0.04384889453649521,-5.136382579803467,3.10867977142334,0.33057618141174316,3.508493661880493,3.627307415008545,4.34487771987915,4.320044040679932,6.134909152984619
49,2.6009089946746826,-5.603147029876709,-3.825254440307617,-4.1947174072265625,-3.1293652057647705,-3.6942858695983887,0.2563292682170868,-2.954895257949829,-4.487294673919678,0.08969263732433319,-2.028585195541382,1.083907961845398,5.1605963706970215,0.9384802579879761,4.578344345092773,5.494923114776611,3.316366672515869,3.5419867038726807,2.1984643936157227,2.9023778438568115,5.419144630432129,5.986975193023682,5.101260185241699,-6.043222904205322,-5.310340881347656,-2.3643932342529297,-2.6657509803771973,-4.036317825317383,-4.166476249694824,-5.179576396942139,-4.597540378570557,-0.046157993376255035,-5.1243672370910645,3.1346933841705322,0.2968426048755646,3.4577786922454834,3.5989792346954346,4.3541789054870605,4.298933982849121,6.130589962005615
50,2.577975273132324,-5.586968421936035,-3.8018903732299805,-4.201262950897217,-3.116816520690918,-3.6974844932556152,0.2877926826477051,-2.9854555130004883,-4.5124101638793945,0.0932147353887558,-2.0416224002838135,1.0935814380645752,5.14755916595459,0.9420023560523987,4.553228855133057,5.464363098144531,3.3123576641082764,3.559263229370117,2.2195804119110107,2.896453857421875,5.395495891571045,5.962919235229492,5.084106922149658,-6.067278861999512,-5.33398962020874,-2.3704564571380615,-2.6495983600616455,-4.028972625732422,-4.170485496520996,-5.2134480476379395,-4.626744747161865,-0.05794188380241394,-5.163318157196045,3.1071434020996094,0.3283059895038605,3.468003511428833,3.627915143966675,4.375669479370117,4.322298049926758,6.146768569946289
51,2.6095290184020996,-5.5897016525268555,-3.8252456188201904,-4.219699859619141,-3.126779079437256,-3.6679270267486572,0.2535742521286011,-2.955322265625,-4.486599445343018,0.09376267343759537,-2.0095584392547607,1.0989162921905518,5.179623603820801,0.9425503015518188,4.579039573669434,5.4944963455200195,3.3108713626861572,3.54331374168396,2.2073216438293457,2.9100732803344727,5.425478458404541,5.966550350189209,5.116674900054932,-6.063647747039795,-5.304007053375244,-2.3624298572540283,-2.6613166332244873,-4.0440287590026855,-4.171971321105957,-5.1852006912231445,-4.603581428527832,-0.06190073490142822,-5.153271198272705,3.1333837509155273,0.29408755898475647,3.4172751903533936,3.5984177589416504,4.3851118087768555,4.298943042755127,6.144035339355469
52,2.584742307662964,-5.5726318359375,-3.8010025024414062,-4.227564811706543,-3.1142184734344482,-3.684237241744995,0.28258219361305237,-2.9866185188293457,-4.512104511260986,0.09741406887769699,-2.0215697288513184,1.108903408050537,5.167612552642822,0.9462016820907593,4.553534507751465,5.463200092315674,3.305922746658325,3.5714619159698486,2.229121446609497,2.905667543411255,5.402806758880615,5.940492153167725,5.098352909088135,-6.089705944061279,-5.32667875289917,-2.367316484451294,-2.6457889080047607,-4.034966468811035,-4.176919937133789,-5.221020221710205,-4.633864879608154,-0.0745665431022644,-5.196536540985107,3.1048848628997803,0.32309553027153015,3.4248266220092773,3.6277272701263428,4.40715217590332,4.32318639755249,6.161105155944824
53,2.6176905632019043,-5.574278354644775,-3.827385902404785,-4.2472662925720215,-3.125908374786377,-3.649325370788574,0.2481561303138733,-2.9565229415893555,-4.485490322113037,0.09748868644237518,-1.984076738357544,1.1140042543411255,5.205105304718018,0.9462763071060181,4.580148696899414,5.493295669555664,3.304218053817749,3.545626640319824,2.2164151668548584,2.920583724975586,5.4334797859191895,5.943521499633789,5.131883144378662,-6.086676597595215,-5.296005725860596,-2.360661506652832,-2.6576364040374756,-4.060619831085205,-4.178624629974365,-5.193045139312744,-4.610355377197266,-0.0802522823214531,-5.18818998336792,3.131352663040161,0.2886694669723511,3.3742470741271973,3.597055435180664,4.4168500900268555,4.296802997589111,6.159458637237549
54,2.5904340744018555,-5.5561981201171875,-3.801621675491333,-4.256555557250977,-3.112597942352295,-3.6814095973968506,0.2751058042049408,-2.988813638687134,-4.511786937713623,0.10144800692796707,-1.9959944486618042,1.124519944190979,5.193187713623047,0.9502356648445129,4.553852081298828,5.461004734039307,3.29879093170166,3.58693790435791,2.2390193939208984,2.918452739715576,5.412047863006592,5.915365695953369,5.111812114715576,-6.114832401275635,-5.317437648773193,-2.363347291946411,-2.6431753635406494,-4.0477142333984375,-4.184051513671875,-5.231276988983154,-4.641887187957764,-0.09346088767051697,-5.236159801483154,3.101658582687378,0.3156191408634186,3.3786864280700684,3.627230644226074,4.439526557922363,4.322566986083984,6.177538871765137
55,2.625588893890381,-5.557631015777588,-3.832080841064453,-4.27760124206543,-3.1265103816986084,-3.638352394104004,0.24043330550193787,-2.958604097366333,-4.484012603759766,0.10107932239770889,-1.9523245096206665,1.1294828653335571,5.236857891082764,0.9498670101165771,4.5816264152526855,5.491214275360107,3.2972023487091064,3.5471014976501465,2.2255852222442627,2.9348859786987305,5.443780899047852,5.918615818023682,5.146896839141846,-6.111582279205322,-5.285704612731934,-2.3581979274749756,-2.6553702354431152,-4.087061882019043,-4.185640335083008,-5.20353364944458,-4.617271423339844,-0.1007174402475357,-5.2285284996032715,3.128610610961914,0.28094661235809326,3.3287203311920166,3.595094680786133,4.449195861816406,4.292108058929443,6.176105976104736
56,2.5950706005096436,-5.538395404815674,-3.8041131496429443,-4.288095474243164,-3.111140012741089,-3.688122272491455,0.2665369212627411,-2.9924418926239014,-4.511797904968262,0.1055385023355484,-1.965607762336731,1.1407098770141602,5.223574638366699,0.9543261528015137,4.5538411140441895,5.457376480102539,3.292351722717285,3.6037328243255615,2.249174118041992,2.9353103637695312,5.423612117767334,5.888561725616455,5.124142646789551,-6.141636371612549,-5.305873394012451,-2.357719659805298,-2.642679214477539,-4.06614351272583,-4.190491199493408,-5.244900226593018,-4.6503472328186035,-0.1139993965625763,-5.281185626983643,3.0972940921783447,0.3070502281188965,3.330148696899414,3.6271185874938965,4.472701072692871,4.320075511932373,6.19534158706665
57,2.6332497596740723,-5.54074764251709,-3.839494466781616,-4.310966491699219,-3.1279544830322266,-3.634258508682251,0.23124735057353973,-2.9617629051208496,-4.482481479644775,0.10483330488204956,-1.9155197143554688,1.145560622215271,5.273662567138672,0.953620970249176,4.583157539367676,5.48805570602417,3.291276693344116,3.5466973781585693,2.2345569133758545,2.953322172164917,5.456943035125732,5.893256664276123,5.161334037780762,-6.136941432952881,-5.272542476654053,-2.354166269302368,-2.6555769443511963,-4.121163368225098,-4.191565990447998,-5.217116355895996,-4.623681545257568,-0.12237157672643661,-5.272657871246338,3.1251235008239746,0.2717606723308563,3.281843662261963,3.593003034591675,4.481363296508789,4.284694194793701,6.192989349365234
58,2.5990958213806152,-5.520297527313232,-3.8090386390686035,-4.321929931640625,-3.108762741088867,-3.700601100921631,0.25845757126808167,-2.9976370334625244,-4.512387275695801,0.10989072173833847,-1.931494951248169,1.1575162410736084,5.257687568664551,0.9586783647537231,4.55325174331665,5.452181339263916,3.288654088973999,3.618255615234375,2.259127616882324,2.9556405544281006,5.437878131866455,5.861907482147217,5.135072708129883,-6.168290615081787,-5.29160737991333,-2.3500075340270996,-2.6458098888397217,-4.087319374084473,-4.194188594818115,-5.262073040008545,-4.658536434173584,-0.1352308690547943,-5.329099655151367,3.091898202896118,0.29897087812423706,3.281106472015381,3.628002643585205,4.506025314331055,4.315150260925293,6.213439464569092
59,2.640263080596924,-5.5244364738464355,-3.8490374088287354,-4.347497940063477,-3.1290135383605957,-3.6360867023468018,0.22207926213741302,-2.966287612915039,-4.48164176940918,0.10909394919872284,-1.8762396574020386,1.1622319221496582,5.312942981719971,0.9578816294670105,4.5839972496032715,5.4835309982299805,3.288145065307617,3.545464038848877,2.243119478225708,2.9749815464019775,5.473093032836914,5.869185924530029,5.174230098724365,-6.161012172698975,-5.256392478942871,-2.3480279445648193,-2.6594531536102295,-4.156345367431641,-4.194697856903076,-5.234089374542236,-4.629337310791016,-0.14406205713748932,-5.31833028793335,3.1207664012908936,0.2625925838947296,3.236015796661377,3.5916736125946045,4.512057304382324,4.275151252746582,6.209300518035889
60,2.603677749633789,-5.50314998626709,-3.8169310092926025,-4.357834339141846,-3.1047163009643555,-3.71232008934021,0.2522798478603363,-3.003875494003296,-4.513415813446045,0.11457672715187073,-1.8946865797042847,1.1745634078979492,5.294496059417725,0.9633644223213196,4.552223205566406,5.445943355560303,3.2895052433013916,3.625699281692505,2.2680907249450684,2.9774067401885986,5.45516300201416,5.837610244750977,5.144842624664307,-6.192587852478027,-5.274322509765625,-2.3405990600585938,-2.6541991233825684,-4.10863733291626,-4.193337440490723,-5.2819294929504395,-4.665582180023193,-0.15620341897010803,-5.3763298988342285,3.08609938621521,0.2927931845188141,3.2349042892456055,3.6299095153808594,4.5380940437316895,4.307257652282715,6.230587005615234
61,2.646013021469116,-5.508854389190674,-3.8592512607574463,-4.386754512786865,-3.127901554107666,-3.6422741413116455,0.21506400406360626,-2.972452402114868,-4.482540607452393,0.1140177771449089,-1.8378832340240479,1.1791086196899414,5.351299285888672,0.962805449962616,4.583098411560059,5.4773664474487305,3.2893009185791016,3.545050621032715,2.251391649246216,2.9974427223205566,5.491726398468018,5.847645282745361,5.184366703033447,-6.182552814483643,-5.237759113311768,-2.339778423309326,-2.6677701473236084,-4.184189319610596,-4.193542003631592,-5.254416465759277,-4.634727954864502,-0.16494372487068176,-5.363743305206299,3.1154069900512695,0.25557735562324524,3.194521188735962,3.5924065113067627,4.5400872230529785,4.264937400817871,6.22488260269165
62,2.6101832389831543,-5.487830638885498,-3.8276662826538086,-4.395915508270264,-3.0991482734680176,-3.717860698699951,0.24852518737316132,-3.0100414752960205,-4.514486312866211,0.11948393285274506,-1.85649836063385,1.1910748481750488,5.33268404006958,0.9682716131210327,4.55115270614624,5.439777374267578,3.2955429553985596,3.623749017715454,2.275482416152954,2.997756004333496,5.475676536560059,5.817381858825684,5.154141902923584,-6.21281623840332,-5.253808975219727,-2.330504894256592,-2.6684417724609375,-4.127963542938232,-4.187299728393555,-5.302772521972656,-4.670778751373291,-0.17636574804782867,-5.4199113845825195,3.0809309482574463,0.2890385389328003,3.1953060626983643,3.6322453022003174,4.566900253295898,4.29652214050293,6.245906352996826
63,2.650602102279663,-5.493882179260254,-3.8687186241149902,-4.427722930908203,-3.12329363822937,-3.6490204334259033,0.21200299263000488,-2.9801487922668457,-4.485735893249512,0.11935187131166458,-1.8029885292053223,1.195368766784668,5.386194229125977,0.9681395292282104,4.5799031257629395,5.469670295715332,3.295839786529541,3.5444107055664062,2.259641408920288,3.017300605773926,5.512068271636963,5.829087257385254,5.191442966461182,-6.20111083984375,-5.217417240142822,-2.3300206661224365,-2.6805942058563232,-4.200122356414795,-4.187002658843994,-5.277453422546387,-4.6404829025268555,-0.18486832082271576,-5.407655715942383,3.1092045307159424,0.25251632928848267,3.1610305309295654,3.5961151123046875,4.564769268035889,4.255469799041748,6.23985481262207
64,2.6187798976898193,-5.474422931671143,-3.840088129043579,-4.436379432678223,-3.092592716217041,-3.7154035568237305,0.24675065279006958,-3.01525616645813,-4.515597343444824,0.1244288757443428,-1.8194491863250732,1.2062256336212158,5.3697333335876465,0.9732165336608887,4.550041675567627,5.434562683105469,3.3067479133605957,3.614163398742676,2.28147029876709,3.014258861541748,5.499242305755615,5.8017354011535645,5.163334369659424,-6.2284626960754395,-5.23024320602417,-2.320476531982422,-2.687542676925659,-4.141434192657471,-4.1760945320129395,-5.323254585266113,-4.674083709716797,-0.19571825861930847,-5.458787441253662,3.0771632194519043,0.28726401925086975,3.1651129722595215,3.6346852779388428,4.590718746185303,4.28410005569458,6.259314060211182
65,2.6548471450805664,-5.4798736572265625,-3.877047061920166,-4.469608783721924,-3.115297555923462,-3.6511547565460205,0.21278142929077148,-2.9886040687561035,-4.490756511688232,0.12465611100196838,-1.7726503610610962,1.2100917100906372,5.416532039642334,0.9734438061714172,4.574882507324219,5.461215019226074,3.3082802295684814,3.5409131050109863,2.2679996490478516,3.0315656661987305,5.533734321594238,5.813540935516357,5.196578502655029,-6.2166571617126465,-5.195751190185547,-2.319718837738037,-2.6973636150360107,-4.203804969787598,-4.174561977386475,-5.301908493041992,-4.646491050720215,-0.20422090590000153,-5.4486613273620605,3.102849006652832,0.25329479575157166,3.1385271549224854,3.6025230884552,4.585663795471191,4.247140884399414,6.253863334655762
66,2.628314971923828,-5.462679386138916,-3.8528378009796143,-4.478940963745117,-3.0851426124572754,-3.7045907974243164,0.24623380601406097,-3.01936936378479,-4.517165660858154,0.12925635278224945,-1.7864562273025513,1.219427466392517,5.402726173400879,0.9780440330505371,4.548473358154297,5.430449962615967,3.323364496231079,3.5996205806732178,2.2867910861968994,3.025359869003296,5.525222301483154,5.789946556091309,5.172414779663086,-6.240251541137695,-5.204263210296631,-2.3107147216796875,-2.709845542907715,-4.1452178955078125,-4.159477233886719,-5.343001842498779,-4.676083564758301,-0.21476870775222778,-5.493174076080322,3.07493257522583,0.28674715757369995,3.1460373401641846,3.6375882625579834,4.6090569496154785,4.271349906921387,6.271057605743408
67,2.659193277359009,-5.467412948608398,-3.8847126960754395,-4.512258052825928,-3.1048805713653564,-3.6446025371551514,0.21584612131118774,-2.996723175048828,-4.496670246124268,0.12966087460517883,-1.7474801540374756,1.2226338386535645,5.441702365875244,0.9784485101699829,4.568968772888184,5.45309591293335,3.326748847961426,3.532973527908325,2.2765703201293945,3.0388150215148926,5.556928634643555,5.800606727600098,5.201405048370361,-6.229591369628906,-5.1725568771362305,-2.309624671936035,-2.717191696166992,-4.196027755737305,-4.156093120574951,-5.326418399810791,-4.6521782875061035,-0.22364547848701477,-5.48563814163208,3.0973024368286133,0.2563594877719879,3.128108263015747,3.610605478286743,4.602579593658447,4.239474773406982,6.266324043273926
68,2.6373093128204346,-5.452507495880127,-3.865200996398926,-4.523118019104004,-3.076552629470825,-3.6849169731140137,0.24665895104408264,-3.02260160446167,-4.519455909729004,0.13388203084468842,-1.7594529390335083,1.230371356010437,5.429729461669922,0.9826696515083313,4.546183109283447,5.427217483520508,3.3458409309387207,3.58182954788208,2.2923851013183594,3.0301566123962402,5.553025245666504,5.780498504638672,5.181576251983643,-6.249699592590332,-5.176460266113281,-2.3013229370117188,-2.734057664871216,-4.137648582458496,-4.1370015144348145,-5.362247943878174,-4.677505016326904,-0.23432263731956482,-5.523564338684082,3.0740294456481934,0.2871722877025604,3.138620615005493,3.6414270401000977,4.622649669647217,4.258986473083496,6.281229496002197
69,2.663214683532715,-5.456815719604492,-3.892385959625244,-4.556082248687744,-3.0930018424987793,-3.6271615028381348,0.2198876440525055,-3.003640651702881,-4.5026655197143555,0.1343170404434204,-1.7278984785079956,1.2327275276184082,5.4612836837768555,0.9831046462059021,4.562973499298096,5.446178436279297,3.351323366165161,3.5203752517700195,2.2856647968292236,3.0389418601989746,5.5821919441223145,5.789285182952881,5.207299709320068,-6.240912914276123,-5.147293567657471,-2.300142765045166,-2.739285707473755,-4.177908420562744,-4.131519317626953,-5.350187301635742,-4.657163143157959,-0.2438991516828537,-5.518190383911133,3.093311071395874,0.2604009807109833,3.1290199756622314,3.6193714141845703,4.61583137512207,4.231801509857178,6.276921272277832
70,2.644261598587036,-5.443840026855469,-3.8770530223846436,-4.568937301635742,-3.0666425228118896,-3.655916690826416,0.2482035756111145,-3.025139093399048,-4.522337913513184,0.13831567764282227,-1.739098072052002,1.2390244007110596,5.450084209442139,0.987103283405304,4.543301105499268,5.424680233001709,3.374542474746704,3.5618233680725098,2.299264907836914,3.0282480716705322,5.582578182220459,5.771564483642578,5.191336631774902,-6.258633613586426,-5.146907329559326,-2.292515754699707,-2.7595627307891846,-4.1190996170043945,-4.10830020904541,-5.3814377784729,-4.678957939147949,-0.2552121579647064,-5.550363540649414,3.0742337703704834,0.2887169122695923,3.1420531272888184,3.646376848220825,4.632807731628418,4.247134208679199,6.2898969650268555
71,2.66560697555542,-5.44799280166626,-3.9005751609802246,-4.601954936981201,-3.080292224884033,-3.5980937480926514,0.22448404133319855,-3.0088999271392822,-4.508114814758301,0.138700932264328,-1.713821291923523,1.240451455116272,5.475361347198486,0.9874885082244873,4.55752420425415,5.440919399261475,3.3819305896759033,3.503692150115967,2.295966148376465,3.0322883129119873,5.6102166175842285,5.778129577636719,5.2152276039123535,-6.252068519592285,-5.119268894195557,-2.2915565967559814,-2.76313853263855,-4.1511359214782715,-4.100911617279053,-5.3731255531311035,-4.661484241485596,-0.2657512426376343,-5.546291351318359,3.09125018119812,0.2649973928928375,3.1394283771514893,3.628185987472534,4.62622594833374,4.223612308502197,6.2857441902160645
72,2.6473000049591064,-5.436408996582031,-3.88854718208313,-4.617117881774902,-3.055366039276123,-3.617506504058838,0.25129568576812744,-3.027017831802368,-4.525380611419678,0.1426532119512558,-1.724981427192688,1.2456252574920654,5.4642014503479,0.9914407730102539,4.540258407592773,5.422801494598389,3.4093284606933594,3.540491819381714,2.3085083961486816,3.019529342651367,5.614361763000488,5.761346340179443,5.202294826507568,-6.2688517570495605,-5.115123748779297,-2.2845656871795654,-2.7863223552703857,-4.091288089752197,-4.073513984680176,-5.4010748863220215,-4.680996417999268,-0.27819570899009705,-5.573668479919434,3.0754480361938477,0.2918090522289276,3.1546311378479004,3.652371644973755,4.640918254852295,4.235640525817871,6.297327995300293
73,2.6641430854797363,-5.440501689910889,-3.9095990657806396,-4.651035308837891,-3.0670015811920166,-3.557636260986328,0.22978566586971283,-3.0123181343078613,-4.512443542480469,0.14295031130313873,-1.7044757604599,1.2461531162261963,5.484707355499268,0.9917379021644592,4.553195476531982,5.437501430511475,3.4177181720733643,3.4839799404144287,2.3084912300109863,3.019103765487671,5.64178991317749,5.765596866607666,5.225766658782959,-6.264601230621338,-5.087695598602295,-2.284130334854126,-2.788559675216675,-4.117960453033447,-4.065124034881592,-5.395620346069336,-4.665558815002441,-0.2899492383003235,-5.569783687591553,3.0912723541259766,0.2702990472316742,3.1572132110595703,3.636781930923462,4.634853839874268,4.214588642120361,6.2932353019714355
74,2.6438498497009277,-5.4297051429748535,-3.899956464767456,-4.668753623962402,-3.0426454544067383,-3.5700931549072266,0.25627219676971436,-3.0281524658203125,-4.52797794342041,0.1470564305782318,-1.715828776359558,1.2506178617477417,5.473354339599609,0.9958440065383911,4.537661075592041,5.421667098999023,3.4488232135772705,3.518916368484497,2.3212029933929443,3.00394344329834,5.649167060852051,5.748319149017334,5.214869976043701,-6.28187894821167,-5.080318450927734,-2.2777040004730225,-2.814707040786743,-4.056777477264404,-4.0340189933776855,-5.421621322631836,-4.684266567230225,-0.30396491289138794,-5.593095779418945,3.077718496322632,0.2967855930328369,3.174551010131836,3.659315586090088,4.648247241973877,4.224230766296387,6.304031848907471
75,2.6557400226593018,-5.43364953994751,-3.9197025299072266,-4.704407215118408,-3.052992820739746,-3.506772756576538,0.23589201271533966,-3.013824462890625,-4.515048027038574,0.14724886417388916,-1.6984169483184814,1.2503207921981812,5.490766525268555,0.9960364103317261,4.550590991973877,5.435995101928711,3.4562549591064453,3.4627885818481445,2.324331521987915,2.999422788619995,5.677671909332275,5.750439167022705,5.239085674285889,-6.279758930206299,-5.05181360244751,-2.2780308723449707,-2.815671443939209,-4.081039905548096,-4.026587009429932,-5.418196201324463,-4.670092582702637,-0.3171609342098236,-5.588099479675293,3.0934839248657227,0.2764054238796234,3.1805672645568848,3.645216941833496,4.642865180969238,4.204484939575195,6.3000874519348145
76,2.6307969093322754,-5.423074722290039,-3.911670684814453,-4.724767208099365,-3.0282468795776367,-3.5146961212158203,0.26295873522758484,-3.028404474258423,-4.5294623374938965,0.15174466371536255,-1.709700584411621,1.2545158863067627,5.479483127593994,1.0005321502685547,4.536176681518555,5.421414852142334,3.4898219108581543,3.498569965362549,2.338195323944092,2.9813897609710693,5.68770170211792,5.731489658355713,5.229094505310059,-6.298708438873291,-5.041783809661865,-2.2719948291778564,-2.8453433513641357,-4.018771171569824,-3.9930198192596436,-5.443337917327881,-4.689568519592285,-0.33301031589508057,-5.607741832733154,3.0812010765075684,0.3034721314907074,3.2005372047424316,3.6672236919403076,4.655842304229736,4.212516784667969,6.310662269592285
77,2.6370646953582764,-5.426628112792969,-3.931190013885498,-4.762568950653076,-3.0378224849700928,-3.447382688522339,0.24227681756019592,-3.0134029388427734,-4.515301704406738,0.15182852745056152,-1.69374418258667,1.2534165382385254,5.495439529418945,1.0006160736083984,4.550337314605713,5.436416149139404,3.4933643341064453,3.442281723022461,2.3441922664642334,2.973222494125366,5.718279838562012,5.732083797454834,5.254833221435547,-6.29811429977417,-5.011205673217773,-2.273176908493042,-2.844822406768799,-4.04332160949707,-3.9894773960113525,-5.441181659698486,-4.675928592681885,-0.34769493341445923,-5.600217342376709,3.0980067253112793,0.2827902138233185,3.208249807357788,3.6538047790527344,4.651263236999512,4.192997455596924,6.3071088790893555
78,2.6054863929748535,-5.4159088134765625,-3.924215316772461,-4.785335540771484,-3.0119128227233887,-3.4532926082611084,0.2704349458217621,-3.0276665687561035,-4.529234886169434,0.15696880221366882,-1.704361915588379,1.2577095031738281,5.484821796417236,1.0057563781738281,4.536404132843018,5.422152519226074,3.527749538421631,3.4813392162323,2.359588623046875,2.9518609046936035,5.7300615310668945,5.710687160491943,5.244448184967041,-6.3195109367370605,-4.999423980712891,-2.2672173976898193,-2.878833293914795,-3.9810678958892822,-3.955092191696167,-5.466032028198242,-4.697736740112305,-0.36516880989074707,-5.616292953491211,3.086066961288452,0.31094834208488464,3.232041358947754,3.676168203353882,4.664341449737549,4.199972152709961,6.317828178405762
79,2.605952739715576,-5.41871976852417,-3.9444332122802734,-4.824913501739502,-3.021068572998047,-3.3826797008514404,0.24766720831394196,-3.0111403465270996,-4.51266622543335,0.15690776705741882,-1.6886248588562012,1.2556666135787964,5.500558853149414,1.0056953430175781,4.552972793579102,5.438678741455078,3.524563789367676,3.425203323364258,2.3677968978881836,2.9407482147216797,5.763149738311768,5.710952281951904,5.271988868713379,-6.3192458152771,-4.966335773468018,-2.2691690921783447,-2.8762338161468506,-4.007903575897217,-3.958277940750122,-5.464382648468018,-4.683791160583496,-0.38092654943466187,-5.604844570159912,3.104876756668091,0.2881806194782257,3.239422559738159,3.6629176139831543,4.660613059997559,4.179754257202148,6.315017223358154
80,2.567476272583008,-5.407951831817627,-3.938142776489258,-4.849434852600098,-2.9938530921936035,-3.3892714977264404,0.277388334274292,-3.0259644985198975,-4.526926517486572,0.1628822535276413,-1.6979835033416748,1.2602124214172363,5.491199970245361,1.0116698741912842,4.538712501525879,5.423854827880859,3.55865216255188,3.469303607940674,2.3841357231140137,2.915776252746582,5.775096416473389,5.686817646026611,5.259775638580322,-6.343380451202393,-4.9543890953063965,-2.2629029750823975,-2.915128707885742,-3.9478561878204346,-3.924189567565918,-5.488792419433594,-4.709306240081787,-0.3989797532558441,-5.617342472076416,3.0923216342926025,0.31790176033973694,3.2688705921173096,3.6859774589538574,4.673654079437256,4.186044692993164,6.325785160064697
81,2.563253879547119,-5.409627914428711,-3.9596691131591797,-4.889379024505615,-3.002929925918579,-3.3175208568573,0.25063636898994446,-3.007327079772949,-4.506823539733887,0.16248266398906708,-1.682071328163147,1.2568105459213257,5.5071120262146,1.01127028465271,4.5588154792785645,5.442492485046387,3.5475590229034424,3.414477825164795,2.3934061527252197,2.902906656265259,5.810324668884277,5.688638210296631,5.288834571838379,-6.341559886932373,-4.919160842895508,-2.2654874324798584,-2.9092636108398438,-3.9776954650878906,-3.9352827072143555,-5.486860752105713,-4.693902969360352,-0.4147300720214844,-5.600863456726074,3.1138250827789307,0.2911498248577118,3.273094892501831,3.672609567642212,4.670709609985352,4.164518356323242,6.324109077453613
82,2.5199904441833496,-5.399642467498779,-3.9536592960357666,-4.914620876312256,-2.9752357006073,-3.3275959491729736,0.2828606069087982,-3.0236010551452637,-4.522507667541504,0.16931872069835663,-1.6899713277816772,1.261433720588684,5.499212265014648,1.0181063413619995,4.543131351470947,5.426218032836914,3.5808258056640625,3.4643306732177734,2.409010887145996,2.874433755874634,5.819926738739014,5.6619672775268555,5.273410797119141,-6.368230819702148,-4.9095587730407715,-2.2585763931274414,-2.952725410461426,-3.922924757003784,-3.9020159244537354,-5.510005474090576,-4.724055290222168,-0.4313805103302002,-5.610044002532959,3.0995523929595947,0.32337406277656555,3.3103017807006836,3.695927381515503,4.682821750640869,4.170528411865234,6.334094524383545
83,2.5137486457824707,-5.399766445159912,-3.9767632484436035,-4.95250129699707,-2.9846060276031494,-3.2579376697540283,0.2504059672355652,-3.0025575160980225,-4.497772693634033,0.16811437904834747,-1.6744141578674316,1.2560080289840698,5.514769554138184,1.016901969909668,4.567866325378418,5.447261333465576,3.5626983642578125,3.4123480319976807,2.4179837703704834,2.861614465713501,5.856138229370117,5.6678009033203125,5.303281307220459,-6.362397193908691,-4.873347282409668,-2.2618768215179443,-2.941716432571411,-3.954752206802368,-3.9201433658599854,-5.507078170776367,-4.705613613128662,-0.44554847478866577,-5.5881218910217285,3.1240992546081543,0.2909194529056549,3.3075337409973145,3.6823348999023438,4.680604457855225,4.147424697875977,6.333970546722412
84,2.4695355892181396,-5.3920722007751465,-3.9702162742614746,-4.977256774902344,-2.9579217433929443,-3.274062156677246,0.2864011228084564,-3.021268129348755,-4.516299247741699,0.17575103044509888,-1.681280255317688,1.2603305578231812,5.507903575897217,1.0245386362075806,4.549339771270752,5.428550720214844,3.593846559524536,3.4675180912017822,2.4306788444519043,2.830380439758301,5.860324382781982,5.639012813568115,5.283595085144043,-6.391185283660889,-4.869161128997803,-2.253959894180298,-2.988586664199829,-3.908205986022949,-3.8889951705932617,-5.527951717376709,-4.740764141082764,-0.45835942029953003,-5.595118999481201,3.1067864894866943,0.32691460847854614,3.354264259338379,3.704893112182617,4.690617084503174,4.1539716720581055,6.341664791107178
85,2.4648478031158447,-5.390142917633057,-3.995429754257202,-5.0102128982543945,-2.967867851257324,-3.2093400955200195,0.24712392687797546,-2.9977009296417236,-4.485884189605713,0.17310678958892822,-1.666949987411499,1.2523113489151,5.522233963012695,1.0218944549560547,4.579754829406738,5.452117919921875,3.5710337162017822,3.419179677963257,2.438530683517456,2.8198671340942383,5.896191596984863,5.65134859085083,5.313616752624512,-6.378849506378174,-4.833293914794922,-2.2584033012390137,-2.9703164100646973,-3.939589023590088,-3.9118080139160156,-5.523637771606445,-4.71743631362915,-0.46957725286483765,-5.568332195281982,3.1346280574798584,0.2876373827457428,3.3404855728149414,3.691115379333496,4.689338207244873,4.128758430480957,6.343594074249268
86,2.423375368118286,-5.386325836181641,-3.9865942001342773,-5.033607006072998,-2.9433720111846924,-3.233241558074951,0.2875579297542572,-3.01981782913208,-4.508828639984131,0.18164390325546265,-1.6737463474273682,1.2561663389205933,5.515437602996826,1.0304315090179443,4.55681037902832,5.430001258850098,3.597411870956421,3.478478193283081,2.446798324584961,2.7872776985168457,5.8925700187683105,5.6203718185424805,5.289134979248047,-6.409826278686523,-4.836915493011475,-2.248743772506714,-3.0195817947387695,-3.902806282043457,-3.885429859161377,-5.541755676269531,-4.757603645324707,-0.4766289293766022,-5.575477123260498,3.112823247909546,0.32807138562202454,3.3977205753326416,3.711923122406006,4.6965861320495605,4.137594223022461,6.347411155700684
87,2.4234580993652344,-5.3817362785339355,-4.015720844268799,-5.059334754943848,-2.953920602798462,-3.1741995811462402,0.2416725605726242,-2.993614912033081,-4.471923828125,0.17705649137496948,-1.6609896421432495,1.2455331087112427,5.528194427490234,1.0258440971374512,4.593715190887451,5.456204414367676,3.573911666870117,3.432997703552246,2.4537651538848877,2.7811131477355957,5.927478790283203,5.640924453735352,5.319209575653076,-6.389273643493652,-4.802006721496582,-2.2549054622650146,-2.9927074909210205,-3.9311516284942627,-3.9089300632476807,-5.536142349243164,-4.727819442749023,-0.48460015654563904,-5.5451860427856445,3.1445353031158447,0.28218603134155273,3.3705670833587646,3.6981141567230225,4.696798324584961,4.1084675788879395,6.352000713348389
88,2.3866806030273438,-5.382742881774902,-4.0014262199401855,-5.081458568572998,-2.931706190109253,-3.206237554550171,0.28575190901756287,-3.0196728706359863,-4.500523567199707,0.18680763244628906,-1.668707013130188,1.2491519451141357,5.520476818084717,1.0355952978134155,4.565115451812744,5.43014669418335,3.591578483581543,3.4949944019317627,2.4573588371276855,2.7490012645721436,5.915581703186035,5.606819152832031,5.289970397949219,-6.423378944396973,-4.81390380859375,-2.2421860694885254,-3.0442802906036377,-3.9039580821990967,-3.891263246536255,-5.5517401695251465,-4.772880554199219,-0.48520007729530334,-5.555299758911133,3.116940498352051,0.3262653946876526,3.438187837600708,3.7166435718536377,4.701337814331055,4.1227617263793945,6.350994110107422
89,2.393343687057495,-5.374880313873291,-4.037903308868408,-5.098593235015869,-2.942448377609253,-3.1515636444091797,0.23527900874614716,-2.9908668994903564,-4.456973075866699,0.18009355664253235,-1.6571038961410522,1.23653244972229,5.532080173492432,1.0288811922073364,4.608665943145752,5.4589524269104,3.5741162300109863,3.45084810256958,2.464223623275757,2.7481086254119873,5.949670791625977,5.635990619659424,5.320423126220703,-6.39420747756958,-4.779814720153809,-2.250607490539551,-3.0091025829315186,-3.9273171424865723,-3.9087255001068115,-5.545218467712402,-4.736114025115967,-0.49090826511383057,-5.523131370544434,3.153404712677002,0.2757924795150757,3.3983049392700195,3.7031641006469727,4.703790187835693,4.086284637451172,6.358856678009033
90,2.361607551574707,-5.380843639373779,-4.013727188110352,-5.120813369750977,-2.921872854232788,-3.1904101371765137,0.2806984484195709,-3.020538091659546,-4.491394996643066,0.19130928814411163,-1.6661721467971802,1.2401704788208008,5.523012161254883,1.0400968790054321,4.574244022369385,5.429280757904053,3.5765297412872314,3.513645648956299,2.463926076889038,2.7184853553771973,5.931058883666992,5.597752094268799,5.287215709686279,-6.432446002960205,-4.798426628112793,-2.2333104610443115,-3.063138723373413,-3.9089245796203613,-3.9063119888305664,-5.558884620666504,-4.785369873046875,-0.48538336157798767,-5.537962913513184,3.119253396987915,0.32121190428733826,3.4746079444885254,3.71909236907959,4.705796718597412,4.1104607582092285,6.352893352508545
91,2.3748958110809326,-5.369211673736572,-4.061774253845215,-5.128402233123779,-2.9317867755889893,-3.1387383937835693,0.22924496233463287,-2.9897496700286865,-4.442202568054199,0.18257692456245422,-1.655103087425232,1.2266255617141724,5.534080982208252,1.0313645601272583,4.623436450958252,5.46006965637207,3.575740098953247,3.470639944076538,2.4709763526916504,2.7220606803894043,5.964283466339111,5.6343512535095215,5.317941188812256,-6.395846843719482,-4.765202045440674,-2.244539260864258,-3.021695137023926,-3.9254064559936523,-3.907101631164551,-5.551813125610352,-4.742819309234619,-0.4904737174510956,-5.505743026733398,3.1610419750213623,0.2697584331035614,3.4255192279815674,3.7066633701324463,4.711313247680664,4.062413692474365,6.364525318145752
92,2.348205327987671,-5.37974739074707,-4.023362636566162,-5.153158187866211,-2.9126946926116943,-3.1812431812286377,0.27269479632377625,-3.0217058658599854,-4.481032371520996,0.19519628584384918,-1.6652356386184692,1.2300621271133423,5.5239481925964355,1.0439839363098145,4.584606647491455,5.4281134605407715,3.552748918533325,3.531123399734497,2.468376636505127,2.6969988346099854,5.941843032836914,5.592215538024902,5.282625198364258,-6.437982559204102,-4.787642478942871,-2.2215654850006104,-3.0773768424987793,-3.9158856868743896,-3.9300928115844727,-5.564189910888672,-4.794315814971924,-0.4794776439666748,-5.5247392654418945,3.12048602104187,0.3132082521915436,3.507063627243042,3.719210624694824,4.710455417633057,4.100825309753418,6.353989601135254
93,2.3665578365325928,-5.3639726638793945,-4.085940837860107,-5.150149822235107,-2.9199798107147217,-3.1328957080841064,0.22474485635757446,-2.9903695583343506,-4.42853307723999,0.18478411436080933,-1.6544088125228882,1.216822862625122,5.5347747802734375,1.033571720123291,4.637105941772461,5.459449768066406,3.5815083980560303,3.491572618484497,2.474836826324463,2.702615737915039,5.973216533660889,5.633447170257568,5.312376976013184,-6.3967509269714355,-4.7562689781188965,-2.2360870838165283,-3.032857894897461,-3.9228591918945312,-3.9013333320617676,-5.55668830871582,-4.748969078063965,-0.48543673753738403,-5.494819641113281,3.167222499847412,0.2652583122253418,3.4539308547973633,3.7090559005737305,4.7198896408081055,4.038247108459473,6.36976432800293
94,2.3454902172088623,-5.378571033477783,-4.0318193435668945,-5.180059909820557,-2.9036247730255127,-3.174556255340576,0.2626241445541382,-3.0225400924682617,-4.4690046310424805,0.1984422504901886,-1.6649665832519531,1.2193118333816528,5.524216651916504,1.0472298860549927,4.596634387969971,5.427278995513916,3.5243942737579346,3.5454585552215576,2.4721627235412598,2.684011936187744,5.950310707092285,5.589343070983887,5.277822017669678,-6.440855026245117,-4.7791748046875,-2.207134246826172,-3.0880825519561768,-3.9235665798187256,-3.9584474563598633,-5.5683979988098145,-4.799566745758057,-0.46954935789108276,-5.515193939208984,3.121711254119873,0.3031376004219055,3.5363729000091553,3.716749429702759,4.715277194976807,4.0923686027526855,6.355165958404541
95,2.366307020187378,-5.358451843261719,-4.107168674468994,-5.1659111976623535,-2.905888319015503,-3.131443977355957,0.22232140600681305,-2.992589235305786,-4.416404724121094,0.18697653710842133,-1.6543636322021484,1.2072771787643433,5.534819602966309,1.035764217376709,4.649234294891357,5.457230091094971,3.586282730102539,3.513170003890991,2.476654291152954,2.688725471496582,5.9781813621521,5.631487846374512,5.304374694824219,-6.398710250854492,-4.7513041496276855,-2.224942445755005,-3.043980598449707,-3.918525218963623,-3.896559000015259,-5.560461521148682,-4.75528621673584,-0.47710564732551575,-5.490139007568359,3.171537399291992,0.2628348469734192,3.4845361709594727,3.7106125354766846,4.729188919067383,4.017019271850586,6.3752851486206055
96,2.3519914150238037,-5.376559257507324,-4.042975902557373,-5.201535701751709,-2.8945374488830566,-3.168001174926758,0.25200551748275757,-3.0227184295654297,-4.455214500427246,0.20110008120536804,-1.6650630235671997,1.2082428932189941,5.524120330810547,1.049887776374817,4.610424518585205,5.427100658416748,3.503105401992798,3.5569255352020264,2.4757676124572754,2.6773998737335205,5.957622528076172,5.588263988494873,5.273613452911377,-6.441934108734131,-4.771862983703613,-2.1910197734832764,-3.0958664417266846,-3.929903030395508,-3.979736328125,-5.571812629699707,-4.801685810089111,-0.4572896361351013,-5.5084028244018555,3.1244819164276123,0.2925189733505249,3.56371808052063,3.712118625640869,4.720041275024414,4.081212043762207,6.357177734375
97,2.372689962387085,-5.352794170379639,-4.121457576751709,-5.178596019744873,-2.8903696537017822,-3.131678819656372,0.22108830511569977,-2.9959499835968018,-4.405923843383789,0.18970517814159393,-1.6545950174331665,1.1971956491470337,5.53458833694458,1.0384927988052368,4.659715175628662,5.453868865966797,3.5782060623168945,3.533991575241089,2.4780406951904297,2.6796982288360596,5.980892181396484,5.627818584442139,5.294920444488525,-6.402379512786865,-4.748593330383301,-2.210726022720337,-3.055370330810547,-3.9142518043518066,-3.9046356678009033,-5.5639448165893555,-4.761776924133301,-0.46611279249191284,-5.489482879638672,3.17330002784729,0.2616017460823059,3.5180909633636475,3.711458444595337,4.73767614364624,4.002730369567871,6.3809428215026855
98,2.3657119274139404,-5.372828960418701,-4.059784412384033,-5.21608304977417,-2.885096788406372,-3.1612956523895264,0.2427581250667572,-3.0222041606903076,-4.440048694610596,0.20340988039970398,-1.6655689477920532,1.1969314813613892,5.523614406585693,1.0521974563598633,4.6255903244018555,5.427614688873291,3.4939448833465576,3.5678975582122803,2.4787211418151855,2.674225330352783,5.963929176330566,5.588127136230469,5.269693851470947,-6.442070960998535,-4.765556335449219,-2.174896478652954,-3.100965976715088,-3.932009696960449,-3.9888968467712402,-5.574324131011963,-4.801762580871582,-0.4449092745780945,-5.503864288330078,3.130028486251831,0.28327155113220215,3.590467929840088,3.707390069961548,4.724822044372559,4.064403533935547,6.360908031463623
99,2.3850300312042236,-5.348055839538574,-4.129523277282715,-5.190464496612549,-2.876211166381836,-3.131211042404175,0.21957744657993317,-2.9997501373291016,-4.396740913391113,0.19342057406902313,-1.6554160118103027,1.1860934495925903,5.533767223358154,1.0422080755233765,4.668898105621338,5.450068950653076,3.5586419105529785,3.5527169704437256,2.480640411376953,2.6749794483184814,5.982892990112305,5.622581958770752,5.285292148590088,-6.407616138458252,-4.7465925216674805,-2.1932449340820312,-3.06654691696167,-3.9120001792907715,-3.9241998195648193,-5.567836284637451,-4.7679619789123535,-0.4534907042980194,-5.490142345428467,3.172922134399414,0.2600908577442169,3.554851531982422,3.7116034030914307,4.743569850921631,3.9946653842926025,6.38568115234375
100,2.3843095302581787,-5.366932392120361,-4.079487323760986,-5.224415302276611,-2.874908208847046,-3.1544029712677,0.2354627400636673,-3.021221160888672,-4.424402236938477,0.205691397190094,-1.6661397218704224,1.1849581003189087,5.523043155670166,1.0544788837432861,4.641236782073975,5.428597927093506,3.4889256954193115,3.5801305770874023,2.4811582565307617,2.672795057296753,5.969391345977783,5.588108539581299,5.265420913696289,-6.442089557647705,-4.760094165802002,-2.15920352935791,-3.1040518283843994,-3.9295570850372314,-3.9939160346984863,-5.576182842254639,-4.800901412963867,-0.43385380506515503,-5.501430034637451,3.1373326778411865,0.27597615122795105,3.618337392807007,3.704916477203369,4.729769706726074,4.04470157623291,6.366804599761963
101,2.402397871017456,-5.344403266906738,-4.135763168334961,-5.20176887512207,-2.864699602127075,-3.128775119781494,0.21752490103244781,-3.0033233165740967,-4.387956142425537,0.19789528846740723,-1.6570247411727905,1.1742441654205322,5.532157897949219,1.0466828346252441,4.677682876586914,5.446495532989502,3.536533832550049,3.569699764251709,2.484450101852417,2.673532724380493,5.984865188598633,5.616352081298828,5.27640438079834,-6.413846015930176,-4.744620323181152,-2.1731841564178467,-3.076647996902466,-3.9106080532073975,-3.946307897567749,-5.571985721588135,-4.773324489593506,-0.44049063324928284,-5.491257190704346,3.172102689743042,0.25803831219673157,3.593940019607544,3.7115442752838135,4.746934413909912,3.9884257316589355,6.389333724975586
102,2.4060683250427246,-5.359598159790039,-4.098583698272705,-5.229730606079102,-2.8642008304595947,-3.1467397212982178,0.22940944135189056,-3.020153522491455,-4.409023284912109,0.20822472870349884,-1.6664434671401978,1.1722460985183716,5.522738933563232,1.0570122003555298,4.656615734100342,5.4296650886535645,3.4830715656280518,3.593609571456909,2.483879566192627,2.6729962825775146,5.97428560256958,5.587400436401367,5.260705947875977,-6.442797660827637,-4.755199909210205,-2.14286208152771,-3.1061782836914062,-3.9241225719451904,-3.999770164489746,-5.577984809875488,-4.799798488616943,-0.42373013496398926,-5.500926971435547,3.144681453704834,0.2699228525161743,3.648585081100464,3.7051212787628174,4.734640598297119,4.025605201721191,6.374138832092285
103,2.423475980758667,-5.340991497039795,-4.14250373840332,-5.212490558624268,-2.8549818992614746,-3.1239683628082275,0.21514154970645905,-3.006349802017212,-4.378815650939941,0.20268592238426208,-1.658915638923645,1.1618446111679077,5.530267238616943,1.0514733791351318,4.68682336807251,5.4434685707092285,3.515655279159546,3.585674524307251,2.4887893199920654,2.674510955810547,5.986943244934082,5.609625816345215,5.268540382385254,-6.420572280883789,-4.742542266845703,-2.1515402793884277,-3.0852911472320557,-3.9084556102752686,-3.967186450958252,-5.5760111808776855,-4.777590274810791,-0.42774173617362976,-5.493138313293457,3.1718459129333496,0.2556549608707428,3.634373903274536,3.7120182514190674,4.749034881591797,3.981685161590576,6.392745494842529
104,2.4300410747528076,-5.351693153381348,-4.11607551574707,-5.234652519226074,-2.8534798622131348,-3.1378605365753174,0.2241864949464798,-3.0192811489105225,-4.394132137298584,0.21112704277038574,-1.6663461923599243,1.158992052078247,5.522836685180664,1.059914469718933,4.671506881713867,5.430537223815918,3.4755821228027344,3.607785224914551,2.4871723651885986,2.6749415397644043,5.978710174560547,5.585548400878906,5.255806922912598,-6.444649696350098,-4.750775337219238,-2.125195264816284,-3.108100652694702,-3.9168670177459717,-4.007259845733643,-5.580009937286377,-4.798723220825195,-0.4138675928115845,-5.502098083496094,3.151339292526245,0.26469987630844116,3.6814894676208496,3.7072479724884033,4.739317417144775,4.008113384246826,6.382043838500977
105,2.44718074798584,-5.3371686935424805,-4.150209426879883,-5.223094940185547,-2.8461482524871826,-3.1169068813323975,0.21260863542556763,-3.0088112354278564,-4.369023323059082,0.20748814940452576,-1.6604989767074585,1.1489442586898804,5.528684139251709,1.056275486946106,4.696615695953369,5.441007614135742,3.496403217315674,3.601095676422119,2.493311643600464,2.677459955215454,5.989148139953613,5.602602481842041,5.261652946472168,-6.427595615386963,-4.740337371826172,-2.1290276050567627,-3.092618465423584,-3.904808521270752,-3.986438751220703,-5.5797858238220215,-4.7807841300964355,-0.4153842329978943,-5.495974063873291,3.1723382472991943,0.2531220316886902,3.6756060123443604,3.71332049369812,4.750936508178711,3.9739794731140137,6.396568298339844
106,2.455667495727539,-5.3436431884765625,-4.132114887237549,-5.2405524253845215,-2.8431053161621094,-3.1276917457580566,0.2197011113166809,-3.018698215484619,-4.379693031311035,0.21431668102741241,-1.6657570600509644,1.14532470703125,5.523426055908203,1.0631039142608643,4.685945987701416,5.4311203956604,3.466625452041626,3.622286796569824,2.490947723388672,2.678568124771118,5.982729434967041,5.582474231719971,5.2509565353393555,-6.447723865509033,-4.746756076812744,-2.1062278747558594,-3.110171318054199,-3.9083874225616455,-4.01621675491333,-5.582275390625,-4.797749042510986,-0.4039745628833771,-5.504645824432373,3.157226800918579,0.26021450757980347,3.7167468070983887,3.7105205059051514,4.743969440460205,3.9920740127563477,6.390093803405762
107,2.4727821350097656,-5.332729339599609,-4.1587748527526855,-5.234135150909424,-2.8378243446350098,-3.1079397201538086,0.2100907415151596,-3.0107994079589844,-4.358598232269287,0.21210245788097382,-1.6614210605621338,1.135575294494629,5.527761936187744,1.060889720916748,4.707040786743164,5.439019203186035,3.478421926498413,3.6161913871765137,2.4979307651519775,2.6820945739746094,5.991474151611328,5.59535026550293,5.255618095397949,-6.434847831726074,-4.738011360168457,-2.1060938835144043,-3.0989134311676025,-3.899643898010254,-4.004420757293701,-5.583334445953369,-4.7830891609191895,-0.40343955159187317,-5.499704837799072,3.1734845638275146,0.25060415267944336,3.7173333168029785,3.7153663635253906,4.753269195556641,3.96541428565979,6.401007652282715
108,2.4825477600097656,-5.335612773895264,-4.14699649810791,-5.248010635375977,-2.833303213119507,-3.116417407989502,0.21593230962753296,-3.0183844566345215,-4.365653991699219,0.21760813891887665,-1.6645915508270264,1.1313260793685913,5.524591445922852,1.0663954019546509,4.699985027313232,5.431434154510498,3.456498861312866,3.6369454860687256,2.4950597286224365,2.683730363845825,5.986413955688477,5.578319549560547,5.246294021606445,-6.451878547668457,-4.743071556091309,-2.0862724781036377,-3.112474203109741,-3.899115800857544,-4.026344299316406,-5.584722518920898,-4.79690408706665,-0.39405596256256104,-5.508296966552734,3.1624574661254883,0.2564457356929779,3.7538228034973145,3.714388132095337,4.748867511749268,3.9771924018859863,6.3981242179870605
109,2.499767303466797,-5.327725887298584,-4.16795539855957,-5.245968818664551,-2.8299756050109863,-3.0975043773651123,0.20774295926094055,-3.0124118328094482,-4.347696781158447,0.21637098491191864,-1.66152822971344,1.1218205690383911,5.527655124664307,1.0651582479476929,4.717942237854004,5.437406539916992,3.461427688598633,3.6310718059539795,2.5026299953460693,2.688199758529663,5.993889331817627,5.587956428527832,5.250329494476318,-6.442241668701172,-4.735596179962158,-2.0830554962158203,-3.104398488998413,-3.8933427333831787,-4.0214152336120605,-5.586705207824707,-4.784724235534668,-0.3919827342033386,-5.504189491271973,3.1751389503479004,0.2482564002275467,3.7592530250549316,3.7179198265075684,4.756389617919922,3.956233501434326,6.40601110458374
110,2.5103421211242676,-5.327687740325928,-4.1608734130859375,-5.25715446472168,-2.824256658554077,-3.1043717861175537,0.2128734439611435,-3.0182836055755615,-4.3520097732543945,0.22079779207706451,-1.6628026962280273,1.1171151399612427,5.52638053894043,1.0695850849151611,4.713629245758057,5.431534767150879,3.445561408996582,3.65169358253479,2.4993810653686523,2.690268039703369,5.989808559417725,5.573338985443115,5.24190092086792,-6.456859111785889,-4.7396769523620605,-2.065706253051758,-3.11495304107666,-3.8895275592803955,-4.037281513214111,-5.587277412414551,-4.796220302581787,-0.38428622484207153,-5.512838363647461,3.1671464443206787,0.25338688492774963,3.7920637130737305,3.718454122543335,4.754260540008545,3.96331524848938,6.4060492515563965
111,2.5277204513549805,-5.322317123413086,-4.177448272705078,-5.258683681488037,-2.8227312564849854,-3.086077928543091,0.20570288598537445,-3.013727903366089,-4.336508274078369,0.22016172111034393,-1.660800576210022,1.1078431606292725,5.528382301330566,1.0689489841461182,4.729130744934082,5.436089992523193,3.4453611373901367,3.6457765102386475,2.507391929626465,2.695582628250122,5.996326446533203,5.580577850341797,5.24571418762207,-6.449620246887207,-4.733159065246582,-2.060195207595825,-3.1091949939727783,-3.886500597000122,-4.037481784820557,-5.589925289154053,-4.785887241363525,-0.38117513060569763,-5.509296417236328,3.1771531105041504,0.2462163269519806,3.8009376525878906,3.720702648162842,4.760498046875,3.9467406272888184,6.411419868469238
112,2.538717269897461,-5.319949150085449,-4.173729419708252,-5.267805576324463,-2.8161544799804688,-3.091978073120117,0.21051985025405884,-3.018341302871704,-4.338796615600586,0.22370575368404388,-1.6604070663452148,1.10288667678833,5.528776168823242,1.0724929571151733,4.726842403411865,5.431476593017578,3.434255838394165,3.6664953231811523,2.503793478012085,2.6980044841766357,5.992902755737305,5.567841529846191,5.237828254699707,-6.4623565673828125,-4.7365827560424805,-2.0449211597442627,-3.117486000061035,-3.880178213119507,-4.048587322235107,-5.5898637771606445,-4.795736789703369,-0.37493404746055603,-5.5181145668029785,3.171354293823242,0.2510332763195038,3.830714702606201,3.7223987579345703,4.760321617126465,3.9504592418670654,6.413787841796875
113,2.5562469959259033,-5.316694259643555,-4.186909198760986,-5.272108554840088,-2.816298246383667,-3.074155330657959,0.20407427847385406,-3.01481032371521,-4.325214862823486,0.22336848080158234,-1.6593186855316162,1.0938857793807983,5.529864311218262,1.0721555948257446,4.740424156188965,5.435007572174072,3.4303677082061768,3.6602871417999268,2.5121734142303467,2.704035520553589,5.998682498931885,5.573428630828857,5.241724491119385,-6.4567694664001465,-4.7308030128479,-2.037808895111084,-3.113342761993408,-3.8798062801361084,-4.052475452423096,-5.592996597290039,-4.786736011505127,-0.37124523520469666,-5.514912128448486,3.179379463195801,0.244587704539299,3.8418047428131104,3.7234296798706055,4.765676975250244,3.93727970123291,6.4170427322387695
114,2.5673084259033203,-5.312480449676514,-4.185425758361816,-5.279563903808594,-2.809189558029175,-3.0797040462493896,0.20885518193244934,-3.0185210704803467,-4.326071262359619,0.22618889808654785,-1.657496452331543,1.0889066457748413,5.531686305999756,1.0749759674072266,4.739567756652832,5.4312968254089355,3.4231038093566895,3.6813082695007324,2.5081787109375,2.706717014312744,5.995634078979492,5.562148571014404,5.234106063842773,-6.4680495262146,-4.733851432800293,-2.024317741394043,-3.119931936264038,-3.8716530799865723,-4.059739112854004,-5.592405796051025,-4.795494079589844,-0.3663126230239868,-5.5240068435668945,3.175086259841919,0.24936862289905548,3.868938684463501,3.7259445190429688,4.767123222351074,3.938763380050659,6.4212565422058105
115,2.584933042526245,-5.311051845550537,-4.19597864151001,-5.285877227783203,-2.810908794403076,-3.0622189044952393,0.2029091715812683,-3.0157153606414795,-4.313976764678955,0.22591345012187958,-1.6572455167770386,1.0802465677261353,5.531937599182129,1.0747005939483643,4.751662254333496,5.434103012084961,3.4167239665985107,3.6745193004608154,2.516914129257202,2.7132999897003174,6.000825881958008,5.566744804382324,5.238330364227295,-6.46345329284668,-4.728659629821777,-2.0162103176116943,-3.116833209991455,-3.8739452362060547,-4.066119194030762,-5.595902919769287,-4.787388801574707,-0.3624485731124878,-5.520933151245117,3.181670904159546,0.24342262744903564,3.8811638355255127,3.725825548171997,4.771899223327637,3.928210496902466,6.422685146331787
116,2.595702886581421,-5.30535364151001,-4.195770263671875,-5.291877746582031,-2.803530693054199,-3.068016529083252,0.20783665776252747,-3.018805980682373,-4.313897132873535,0.22814242541790009,-1.6542242765426636,1.0754806995391846,5.534958839416504,1.0769295692443848,4.751741886138916,5.431012153625488,3.412670850753784,3.6960604190826416,2.512421131134033,2.716113328933716,5.997902870178223,5.556560039520264,5.23074197769165,-6.47363805770874,-4.7315826416015625,-2.0042905807495117,-3.122154951095581,-3.8644700050354004,-4.070172309875488,-5.5948309898376465,-4.795526027679443,-0.3587353229522705,-5.53040885925293,3.178311586380005,0.248350128531456,3.9058735370635986,3.7288570404052734,4.77463436126709,3.928419351577759,6.4283833503723145
117,2.6133360862731934,-5.305568218231201,-4.204319953918457,-5.2995100021362305,-2.806779623031616,-3.0506978034973145,0.2021968811750412,-3.0164952278137207,-4.302931308746338,0.2277480512857437,-1.6548058986663818,1.067237138748169,5.534377574920654,1.0765351057052612,4.762707710266113,5.433322906494141,3.4047465324401855,3.6883139610290527,2.521550416946411,2.723052978515625,6.002617359161377,5.560744285583496,5.235504627227783,-6.469453811645508,-4.726868152618408,-1.9957005977630615,-3.1196446418762207,-3.8695008754730225,-4.078096389770508,-5.598623275756836,-4.787921905517578,-0.35502082109451294,-5.527243614196777,3.183889627456665,0.24271035194396973,3.918304681777954,3.7276430130004883,4.779030799865723,3.919869899749756,6.428168773651123
118,2.6234498023986816,-5.298614501953125,-4.204586505889893,-5.304132461547852,-2.7992892265319824,-3.0573313236236572,0.20739193260669708,-3.019195079803467,-4.302337169647217,0.22950021922588348,-1.6507794857025146,1.0629101991653442,5.5384039878845215,1.0782872438430786,4.763301849365234,5.4306230545043945,3.4034981727600098,3.7106428146362305,2.516416072845459,2.7258288860321045,5.999598026275635,5.551314830780029,5.227713108062744,-6.478883266448975,-4.72988748550415,-1.9851953983306885,-3.124046802520752,-3.858980178833008,-4.079345226287842,-5.597077369689941,-4.795851707458496,-0.35246968269348145,-5.537214756011963,3.1809871196746826,0.2479054033756256,3.9407200813293457,3.7309610843658447,4.782726287841797,3.9196035861968994,6.435122489929199
119,2.6410090923309326,-5.3003997802734375,-4.211663246154785,-5.31251859664917,-2.80407452583313,-3.0399205684661865,0.2018660008907318,-3.0171966552734375,-4.292201042175293,0.22885295748710632,-1.6522547006607056,1.0551377534866333,5.536928653717041,1.0776400566101074,4.773437976837158,5.432621479034424,3.3946986198425293,3.70143985748291,2.5260322093963623,2.7329177856445312,6.003933906555176,5.555588722229004,5.233220100402832,-6.474609375,-4.725551605224609,-1.9765249490737915,-3.1217589378356934,-3.866875648498535,-4.088144779205322,-5.601141452789307,-4.788369655609131,-0.3491339385509491,-5.533710956573486,3.1859235763549805,0.24237947165966034,3.9526002407073975,3.7286856174468994,4.78684663772583,3.9125266075134277,6.433337211608887
120,2.6500935554504395,-5.292266368865967,-4.211761951446533,-5.315742492675781,-2.7964882850646973,-3.047970771789551,0.2074301391839981,-3.0196945667266846,-4.291451454162598,0.2302340567111969,-1.647351861000061,1.0514479875564575,5.5418314933776855,1.0790212154388428,4.7741875648498535,5.430123805999756,3.396031618118286,3.7249181270599365,2.520077705383301,2.7354536056518555,6.000624179840088,5.546565055847168,5.224963665008545,-6.483633041381836,-4.728861331939697,-1.967311143875122,-3.1255316734313965,-3.855290412902832,-4.086811542510986,-5.599097728729248,-4.79647159576416,-0.34769895672798157,-5.54431676864624,3.183079719543457,0.24794360995292664,3.9728281497955322,3.7321596145629883,4.791195392608643,3.9124279022216797,6.441470623016357
121,2.6675422191619873,-5.295677661895752,-4.21783971786499,-5.324488639831543,-2.8028812408447266,-3.030076503753662,0.20180217921733856,-3.017852783203125,-4.281890869140625,0.22923782467842102,-1.6498454809188843,1.044156551361084,5.539338111877441,1.078024983406067,4.783748149871826,5.431965351104736,3.386711359024048,3.7136058807373047,2.5303311347961426,2.742501735687256,6.004693984985352,5.55136251449585,5.231451988220215,-6.478835582733154,-4.724791526794434,-1.958835244178772,-3.123166799545288,-3.8662521839141846,-4.096131801605225,-5.603449821472168,-4.788722515106201,-0.3448646664619446,-5.540184497833252,3.1877005100250244,0.2423156499862671,3.9835901260375977,3.728827714920044,4.7950568199157715,3.9063501358032227,6.438059329986572
122,2.6752140522003174,-5.286269187927246,-4.217268943786621,-5.326229095458984,-2.7950470447540283,-3.0401432514190674,0.20786108076572418,-3.0203094482421875,-4.2812957763671875,0.2303556650876999,-1.6440988779067993,1.0412685871124268,5.5450849533081055,1.0791428089141846,4.784343242645264,5.429508686065674,3.3905601501464844,3.7387514114379883,2.523341655731201,2.7445759773254395,6.000919342041016,5.542356491088867,5.222407341003418,-6.487841606140137,-4.7285661697387695,-1.9508079290390015,-3.126568555831909,-3.8532392978668213,-4.092283248901367,-5.600857734680176,-4.797372817993164,-0.34449753165245056,-5.551614284515381,3.1845762729644775,0.24837453663349152,4.0017619132995605,3.7324459552764893,4.799790859222412,3.9069204330444336,6.447467803955078
123,2.692605972290039,-5.291509628295898,-4.222795486450195,-5.335144996643066,-2.8032026290893555,-3.0211920738220215,0.2018681764602661,-3.018474817276001,-4.272087574005127,0.22894138097763062,-1.6478029489517212,1.0344067811965942,5.541380882263184,1.077728509902954,4.793551445007324,5.4313435554504395,3.380740165710449,3.7244861125946045,2.534450054168701,2.7514379024505615,6.004870414733887,5.5480780601501465,5.230184555053711,-6.482120037078857,-4.724615097045898,-1.9426729679107666,-3.1238651275634766,-3.8676066398620605,-4.102102756500244,-5.605554103851318,-4.7889299392700195,-0.3421821594238281,-5.546501636505127,3.1892006397247314,0.24238161742687225,4.011021137237549,3.7280216217041016,4.803341388702393,3.9013941287994385,6.442227363586426
124,2.698462724685669,-5.280534267425537,-4.221158504486084,-5.335264682769775,-2.7947797775268555,-3.0339460372924805,0.20861369371414185,-3.02103853225708,-4.271920204162598,0.2299182415008545,-1.6411192417144775,1.0324565172195435,5.548064708709717,1.0787053108215332,4.7937188148498535,5.428779602050781,3.3871943950653076,3.7520480155944824,2.5261588096618652,2.7528281211853027,6.000460624694824,5.538632869720459,5.2199296951293945,-6.491565227508545,-4.729024887084961,-1.9357417821884155,-3.127145290374756,-3.8524303436279297,-4.095648288726807,-5.602336883544922,-4.79854154586792,-0.3428276479244232,-5.55902624130249,3.1854848861694336,0.24912713468074799,4.027317047119141,3.731902599334717,4.80824613571167,3.90303111076355,6.453202724456787
125,2.7159841060638428,-5.287992000579834,-4.226589202880859,-5.344374179840088,-2.804969072341919,-3.0131335258483887,0.2019203156232834,-3.0190484523773193,-4.262849807739258,0.22803109884262085,-1.6463072299957275,1.0259015560150146,5.542876720428467,1.0768182277679443,4.802789211273193,5.430769443511963,3.3765530586242676,3.733743667602539,2.5384156703948975,2.7594308853149414,6.004491806030273,5.545694828033447,5.229422092437744,-6.484503269195557,-4.724993705749512,-1.9279744625091553,-3.1238465309143066,-3.8707807064056396,-4.106289386749268,-5.6074700355529785,-4.788907051086426,-0.3409542739391327,-5.552493572235107,3.1904566287994385,0.24243375658988953,4.034842014312744,3.726292848587036,4.811383247375488,3.8976004123687744,6.44574499130249
126,2.719578504562378,-5.274929523468018,-4.223535537719727,-5.342679023742676,-2.7954046726226807,-3.0293939113616943,0.2096494436264038,-3.0218756198883057,-4.26336669921875,0.22901657223701477,-1.6384402513504028,1.0250147581100464,5.550743579864502,1.077803611755371,4.802272319793701,5.427942276000977,3.3858895301818848,3.7647905349731445,2.528489828109741,2.7599239349365234,5.999258995056152,5.535253524780273,5.217391490936279,-6.4949445724487305,-4.730226516723633,-1.9220677614212036,-3.1272737979888916,-3.852299451828003,-4.09695291519165,-5.60352087020874,-4.7999773025512695,-0.3425539433956146,-5.566504001617432,3.185825824737549,0.25016289949417114,4.049495697021484,3.730691432952881,4.816314220428467,3.9006543159484863,6.458807468414307
127,2.737586259841919,-5.2852253913879395,-4.229374885559082,-5.352221488952637,-2.808060646057129,-3.0056278705596924,0.20181526243686676,-3.0195343494415283,-4.254208564758301,0.22660104930400848,-1.6454946994781494,1.0185672044754028,5.543688774108887,1.0753880739212036,4.81143045425415,5.430283546447754,3.3737599849700928,3.7410528659820557,2.5422775745391846,2.766281843185425,6.003638744354248,5.544154167175293,5.22920036315918,-6.486043930053711,-4.725846767425537,-1.9145960807800293,-3.123093366622925,-3.8755643367767334,-4.1090826988220215,-5.609219551086426,-4.788537502288818,-0.34096601605415344,-5.557982444763184,3.1915512084960938,0.2423287332057953,4.05516242980957,3.723721504211426,4.8189005851745605,3.894815444946289,6.448511600494385
128,2.7383832931518555,-5.269283294677734,-4.224534511566162,-5.348431587219238,-2.796555757522583,-3.02645206451416,0.2109685242176056,-3.0228142738342285,-4.255671501159668,0.22778481245040894,-1.636013150215149,1.0188857316970825,5.553170204162598,1.0765719413757324,4.809967517852783,5.427003860473633,3.3864963054656982,3.7770564556121826,2.530301094055176,2.765671968460083,5.997349262237549,5.532018184661865,5.214632034301758,-6.498179912567139,-4.732136249542236,-1.9096747636795044,-3.12699294090271,-3.8522000312805176,-4.096346378326416,-5.604403495788574,-4.801705837249756,-0.3434678316116333,-5.57403039932251,3.1856167316436768,0.2514819800853729,4.068457126617432,3.729037284851074,4.82379150390625,3.899656057357788,6.46445369720459
129,2.7574350833892822,-5.283327102661133,-4.231380462646484,-5.35886287689209,-2.8123295307159424,-2.9983081817626953,0.20140904188156128,-3.0198721885681152,-4.246163845062256,0.2247685343027115,-1.6454639434814453,1.0122653245925903,5.543719291687012,1.073555588722229,4.819475173950195,5.429945945739746,3.3718583583831787,3.7461342811584473,2.5460948944091797,2.771897315979004,6.00243616104126,5.543409824371338,5.229588985443115,-6.486788272857666,-4.727049350738525,-1.902348279953003,-3.1215813159942627,-3.8817639350891113,-4.1109843254089355,-5.610827922821045,-4.787681579589844,-0.34194308519363403,-5.562782287597656,3.192606210708618,0.24192248284816742,4.072194576263428,3.7204172611236572,4.8256611824035645,3.8928098678588867,6.450409889221191
130,2.7547664642333984,-5.263403415679932,-4.224295616149902,-5.352581024169922,-2.797797203063965,-3.0250532627105713,0.21260318160057068,-3.0238537788391113,-4.248864650726318,0.22639138996601105,-1.633721113204956,1.0139774084091187,5.55546236038208,1.0751783847808838,4.816774368286133,5.42596435546875,3.388813018798828,3.7889864444732666,2.531569242477417,2.769974946975708,5.994781017303467,5.528698444366455,5.2114787101745605,-6.501499652862549,-4.734704494476318,-1.898423194885254,-3.126368999481201,-3.8515114784240723,-4.094029903411865,-5.604987621307373,-4.803777694702148,-0.34531089663505554,-5.581613063812256,3.1848626136779785,0.253116637468338,4.084460735321045,3.7272067070007324,4.830536842346191,3.8998944759368896,6.470333576202393
