,0,1,2,3,4,5,6,7,8,9,10,11,12,13,14,15,16,17,18,19,20,21,22,23,24,25,26,27,28,29,30,31,32,33,34,35,36,37,38,39
0,4.538268566131592,-1.842989206314087,-1.8483251333236694,-0.525854766368866,-2.1197118759155273,-4.9720964431762695,-1.4713051319122314,-1.1929370164871216,-3.0114777088165283,-2.3236241340637207,-4.538268566131592,2.3236241340637207,5.390422821044922,5.88953161239624,0.3324210047721863,2.3571624755859375,4.055548667907715,5.852797985076904,5.265988826751709,1.8429560661315918,4.4576568603515625,5.061155319213867,3.0114777088165283,-5.061155319213867,-4.4576568603515625,-1.8429560661315918,-5.265988826751709,-5.852797985076904,-4.055548667907715,-2.3571624755859375,-0.3324210047721863,-5.88953161239624,-5.390422821044922,1.1929370164871216,1.4713051319122314,4.9720964431762695,2.1197118759155273,0.525854766368866,1.8483251333236694,1.842989206314087
1,4.590744972229004,-1.8954657316207886,-1.7958486080169678,-0.5783312320709229,-2.0672354698181152,-4.919619560241699,-1.5237815380096436,-1.14046049118042,-3.0639541149139404,-2.2711477279663086,-4.48579216003418,2.376100540161133,5.442899703979492,5.9420084953308105,0.2799444794654846,2.4096388816833496,4.108025074005127,5.800321102142334,5.318465709686279,1.8954325914382935,4.510133266448975,5.008678436279297,2.959001302719116,-5.1136322021484375,-4.40518045425415,-1.7904795408248901,-5.213511943817139,-5.905274868011475,-4.003072261810303,-2.3046860694885254,-0.38489753007888794,-5.83705472946167,-5.337945938110352,1.2454135417938232,1.4188287258148193,5.02457332611084,2.1721882820129395,0.4733783006668091,1.900801658630371,1.7905126810073853
2,4.641110897064209,-1.9279141426086426,-1.7502453327178955,-0.6295531392097473,-2.028813600540161,-4.891440391540527,-1.4728479385375977,-1.090006709098816,-3.0721206665039062,-2.2352898120880127,-4.4348859786987305,2.4135050773620605,5.493805885314941,5.9778666496276855,0.2717779278755188,2.460092544555664,4.05681037902832,5.7710981369018555,5.361109733581543,1.9188722372055054,4.4619951248168945,4.991644859313965,2.9571473598480225,-5.1306657791137695,-4.4533185958862305,-1.7635399103164673,-5.174131870269775,-5.936296463012695,-4.054286956787109,-2.254467487335205,-0.38175785541534424,-5.801954746246338,-5.287326335906982,1.295885682106018,1.4697623252868652,5.053255558013916,2.2104461193084717,0.42187464237213135,1.9464049339294434,1.7580642700195312
3,4.685784816741943,-1.9447866678237915,-1.744033694267273,-0.6664406657218933,-2.0001392364501953,-4.863883018493652,-1.4636468887329102,-1.0798498392105103,-3.051830291748047,-2.2025954723358154,-4.393634796142578,2.4485044479370117,5.535057067871094,6.010560989379883,0.2920685410499573,2.470249652862549,4.045356750488281,5.734893321990967,5.390244007110596,1.9328687191009521,4.506044387817383,4.9988884925842285,2.975973129272461,-5.123422145843506,-4.409269332885742,-1.746279001235962,-5.143078804016113,-5.974687099456787,-4.065740585327148,-2.2547354698181152,-0.3511628806591034,-5.769519805908203,-5.247643947601318,1.3114320039749146,1.4789633750915527,5.082049369812012,2.237919330596924,0.38203176856040955,1.952616572380066,1.7411917448043823
4,4.713926315307617,-1.9573839902877808,-1.7303893566131592,-0.70250403881073,-1.9781198501586914,-4.855107307434082,-1.4470856189727783,-1.0566647052764893,-3.0290446281433105,-2.1734464168548584,-4.363375663757324,2.4796009063720703,5.565316200256348,6.03971004486084,0.31485429406166077,2.4934349060058594,4.025914669036865,5.715534210205078,5.411869049072266,1.9484158754348755,4.527841567993164,5.004703521728516,2.9927115440368652,-5.117607116699219,-4.387472152709961,-1.731356143951416,-5.124786853790283,-5.997279644012451,-4.0851826667785645,-2.2419686317443848,-0.3150979280471802,-5.74038553237915,-5.225805759429932,1.3395987749099731,1.4955247640609741,5.0954508781433105,2.2571463584899902,0.34433141350746155,1.9662609100341797,1.728594422340393
5,4.727665901184082,-1.963225245475769,-1.7297600507736206,-0.7304810881614685,-1.961327314376831,-4.858042240142822,-1.4458503723144531,-1.0500881671905518,-3.0113143920898438,-2.1468541622161865,-4.341302394866943,2.507978677749634,5.5873894691467285,6.066302299499512,0.3325847089290619,2.500011682510376,4.016890048980713,5.701645374298096,5.425180435180664,1.9782849550247192,4.566684722900391,5.007944107055664,2.991605520248413,-5.11436653137207,-4.348628997802734,-1.7044261693954468,-5.116359233856201,-6.014610290527344,-4.094207286834717,-2.2495157718658447,-0.28064897656440735,-5.713388442993164,-5.217226982116699,1.352768063545227,1.4967600107192993,5.100233554840088,2.2715275287628174,0.3163072466850281,1.9668902158737183,1.7227531671524048
6,4.725061893463135,-1.9678725004196167,-1.7158697843551636,-0.7661855816841125,-1.9497833251953125,-4.876350402832031,-1.4392744302749634,-1.029083013534546,-2.999718189239502,-2.123436450958252,-4.323326110839844,2.5330281257629395,5.605365753173828,6.089720249176025,0.3441808521747589,2.521016836166382,3.9970710277557373,5.699963569641113,5.437771797180176,2.010385036468506,4.582404613494873,5.004451751708984,2.975484609603882,-5.11785888671875,-4.332909107208252,-1.6763995885849,-5.112092971801758,-6.020817279815674,-4.1140265464782715,-2.239631175994873,-0.24513086676597595,-5.689237594604492,-5.222586631774902,1.3763476610183716,1.503335952758789,5.0914106369018555,2.2805638313293457,0.28384482860565186,1.9807804822921753,1.7181059122085571
7,4.715908527374268,-1.9643925428390503,-1.720530390739441,-0.797130286693573,-1.944635033607483,-4.896406173706055,-1.4556413888931274,-1.0355857610702515,-2.984360456466675,-2.102297067642212,-4.304123878479004,2.555908441543579,5.624567985534668,6.1108598709106445,0.35953855514526367,2.514514207839966,3.9897661209106445,5.695483684539795,5.450579643249512,2.0570716857910156,4.624948501586914,5.001204967498779,2.9471065998077393,-5.121105670928955,-4.290365219116211,-1.6330376863479614,-5.104350566864014,-6.030694484710693,-4.121331214904785,-2.2595291137695312,-0.20371685922145844,-5.666971206665039,-5.226779460906982,1.3715317249298096,1.4869691133499146,5.080985069274902,2.2862181663513184,0.2576121985912323,1.976119875907898,1.7215858697891235
8,4.696533203125,-1.9672446250915527,-1.6896389722824097,-0.8413469195365906,-1.9442579746246338,-4.92931604385376,-1.4509164094924927,-1.0023739337921143,-2.9795186519622803,-2.08366322517395,-4.2833380699157715,2.5762178897857666,5.6453537940979,6.129493713378906,0.3643803596496582,2.5477261543273926,3.9514381885528564,5.701905250549316,5.468002796173096,2.100433349609375,4.613795757293701,4.98629903793335,2.9130265712738037,-5.136011600494385,-4.301517963409424,-1.5940195322036743,-5.098178863525391,-6.030799865722656,-4.159658908843994,-2.2319042682647705,-0.16276608407497406,-5.647324085235596,-5.240243434906006,1.3973987102508545,1.4916940927505493,5.0560832023620605,2.2867507934570312,0.21902595460414886,2.0070114135742188,1.718733787536621
9,4.681929111480713,-1.9538692235946655,-1.7149174213409424,-0.871820867061615,-1.952345371246338,-4.948230266571045,-1.4937574863433838,-1.0415370464324951,-2.9549434185028076,-2.066131591796875,-4.254179000854492,2.5951781272888184,5.67451286315918,6.147025108337402,0.38895556330680847,2.508563280105591,3.9484481811523438,5.688596725463867,5.486021518707275,2.161043405532837,4.675841331481934,4.988115310668945,2.8738794326782227,-5.134195327758789,-4.239472389221191,-1.5346317291259766,-5.076632499694824,-6.052388668060303,-4.162648677825928,-2.2807159423828125,-0.11024253070354462,-5.628811836242676,-5.226985931396484,1.353927493095398,1.4488530158996582,5.0447564125061035,2.2883782386779785,0.1945788711309433,1.981732964515686,1.7321091890335083
10,4.656767845153809,-1.9692761898040771,-1.6531598567962646,-0.9241384267807007,-1.9593982696533203,-4.99576997756958,-1.4698591232299805,-0.9814460277557373,-2.9710114002227783,-2.0513718128204346,-4.232646942138672,2.6120903491973877,5.696044921875,6.161784648895264,0.3728874921798706,2.5686542987823486,3.878629207611084,5.6992292404174805,5.509974956512451,2.2066879272460938,4.622931480407715,4.95669412612915,2.842515230178833,-5.165616512298584,-4.29238224029541,-1.4948755502700806,-5.075361728668213,-6.049206733703613,-4.2324676513671875,-2.2209906578063965,-0.07317925989627838,-5.613949298858643,-5.251194000244141,1.401208519935608,1.4727513790130615,5.000767230987549,2.283256769180298,0.1456439346075058,2.043490409851074,1.7167022228240967
11,4.644447326660156,-1.9479529857635498,-1.6953015327453613,-0.9475705027580261,-1.9838815927505493,-5.002994060516357,-1.5309096574783325,-1.038940191268921,-2.9321563243865967,-2.035421133041382,-4.1942596435546875,2.628157615661621,5.734432220458984,6.177735328674316,0.41174256801605225,2.511160135269165,3.885746479034424,5.67288875579834,5.534954071044922,2.2694714069366455,4.691111087799072,4.980409145355225,2.809210777282715,-5.14190149307251,-4.224202632904053,-1.4303001165390015,-5.0356221199035645,-6.088296413421631,-4.225350379943848,-2.282973527908325,-0.009677561931312084,-5.600090503692627,-5.206000804901123,1.3360565900802612,1.4117008447647095,4.998397350311279,2.2849788665771484,0.12611107528209686,2.0013487339019775,1.738025426864624
12,4.6273674964904785,-1.972766637802124,-1.6370396614074707,-0.9910063743591309,-1.9933648109436035,-5.054619789123535,-1.5081173181533813,-0.9899924397468567,-2.9650557041168213,-2.02366304397583,-4.174415588378906,2.643515110015869,5.754276275634766,6.189493179321289,0.37884312868118286,2.560107707977295,3.8115057945251465,5.680027484893799,5.555024147033691,2.3193883895874023,4.647372245788574,4.950199127197266,2.798391103744507,-5.172111511230469,-4.267941474914551,-1.3864489793777466,-5.043814182281494,-6.087919235229492,-4.299591064453125,-2.2349579334259033,0.022608961910009384,-5.5901994705200195,-5.22542142868042,1.3715107440948486,1.4344931840896606,4.946979522705078,2.28216814994812,0.08213561028242111,2.059610605239868,1.7132117748260498
13,4.612724304199219,-1.9639381170272827,-1.6566600799560547,-1.0110217332839966,-2.0274085998535156,-5.066607475280762,-1.5556410551071167,-1.0274959802627563,-2.9449079036712646,-2.0084822177886963,-4.144688129425049,2.6582939624786377,5.784003734588623,6.204674243927002,0.3989909291267395,2.52260422706604,3.8004093170166016,5.665292739868164,5.580634593963623,2.3680012226104736,4.6946845054626465,4.9784345626831055,2.7879345417022705,-5.143876075744629,-4.2206292152404785,-1.3367199897766113,-5.0086565017700195,-6.1173624992370605,-4.31068754196167,-2.2770450115203857,0.08513136208057404,-5.5821919441223145,-5.181125640869141,1.3221683502197266,1.3869694471359253,4.936496257781982,2.279301166534424,0.06111494079232216,2.039990186691284,1.7220402956008911
14,4.607476234436035,-1.987221360206604,-1.6147270202636719,-1.0350098609924316,-2.043891429901123,-5.10746955871582,-1.5525856018066406,-1.0003080368041992,-2.975360155105591,-1.9968544244766235,-4.126518249511719,2.6733052730560303,5.802173614501953,6.216302394866943,0.3685385584831238,2.5497920513153076,3.743720769882202,5.674297332763672,5.599133014678955,2.4121577739715576,4.6767754554748535,4.968633651733398,2.806546211242676,-5.153676986694336,-4.2385382652282715,-1.2974201440811157,-5.014327049255371,-6.116783618927002,-4.367376327514648,-2.25405216217041,0.12449975311756134,-5.577545642852783,-5.177492141723633,1.3359650373458862,1.3900249004364014,4.894583225250244,2.2777323722839355,0.031228486448526382,2.081923246383667,1.6987570524215698
15,4.592378616333008,-1.9916725158691406,-1.615540862083435,-1.0495551824569702,-2.07511305809021,-5.12455940246582,-1.5853428840637207,-1.0218870639801025,-2.9822497367858887,-1.9817514419555664,-4.11361837387085,2.6878256797790527,5.815073490142822,6.231405258178711,0.36164888739585876,2.5282130241394043,3.725525140762329,5.675482749938965,5.623229503631592,2.4479057788848877,4.7115702629089355,4.991893291473389,2.810514211654663,-5.130417346954346,-4.2037434577941895,-1.2634960412979126,-4.9904069900512695,-6.127814769744873,-4.3855719566345215,-2.283008098602295,0.1786910593509674,-5.574733257293701,-5.142020225524902,1.3023221492767334,1.3572676181793213,4.87687349319458,2.2799172401428223,0.013145524077117443,2.0811092853546143,1.6943058967590332
16,4.589022159576416,-2.010770559310913,-1.5822274684906006,-1.0618268251419067,-2.091295003890991,-5.155498027801514,-1.592357873916626,-1.0056267976760864,-3.006734609603882,-1.9686096906661987,-4.1070733070373535,2.7021586894989014,5.821618556976318,6.244546890258789,0.3371639549732208,2.54447340965271,3.6868605613708496,5.692429065704346,5.645623683929443,2.479963779449463,4.708413124084473,4.993288040161133,2.8370845317840576,-5.129022598266602,-4.206900596618652,-1.2364771366119385,-4.991913795471191,-6.119794845581055,-4.424236297607422,-2.2739756107330322,0.21904060244560242,-5.574704647064209,-5.127292156219482,1.3073800802230835,1.350252628326416,4.84484338760376,2.2843432426452637,-0.007385338190943003,2.1144227981567383,1.6752078533172607
17,4.574610233306885,-2.0169053077697754,-1.5738893747329712,-1.0705221891403198,-2.111232280731201,-5.172861099243164,-1.6166974306106567,-1.0177299976348877,-3.0157008171081543,-1.9528329372406006,-4.107770919799805,2.7155630588531494,5.820920944213867,6.260323524475098,0.3281979262828827,2.5323703289031982,3.6741626262664795,5.702766418457031,5.669382572174072,2.503798246383667,4.734372615814209,5.01189661026001,2.843311309814453,-5.110414028167725,-4.180941104888916,-1.2171682119369507,-4.973866939544678,-6.118729591369629,-4.436933994293213,-2.294360637664795,0.263679563999176,-5.575047016143799,-5.099589824676514,1.2863143682479858,1.3259130716323853,4.826959133148193,2.297834873199463,-0.01958373934030533,2.122760772705078,1.6690731048583984
18,4.570074558258057,-2.028891086578369,-1.5465408563613892,-1.0756890773773193,-2.117332696914673,-5.196685791015625,-1.624928593635559,-1.0063987970352173,-3.0277810096740723,-1.9377996921539307,-4.111736297607422,2.7280285358428955,5.81695556640625,6.275356769561768,0.3161177933216095,2.543701410293579,3.6520440578460693,5.721572399139404,5.692316055297852,2.5216028690338135,4.7345871925354,5.016979694366455,2.861389636993408,-5.105330944061279,-4.180726528167725,-1.205180287361145,-4.971535682678223,-6.107182502746582,-4.459052562713623,-2.289534091949463,0.29665446281433105,-5.576289653778076,-5.084342002868652,1.2904129028320312,1.317681908607483,4.803076267242432,2.3134775161743164,-0.031131550669670105,2.1501095294952393,1.6570872068405151
19,4.55817174911499,-2.0311036109924316,-1.5370837450027466,-1.07753324508667,-2.1233205795288086,-5.212181568145752,-1.6426570415496826,-1.0139758586883545,-3.0269598960876465,-1.9212422370910645,-4.119303226470947,2.7390170097351074,5.809388637542725,6.291914463043213,0.3169390559196472,2.5361242294311523,3.648407220840454,5.732549667358398,5.714560031890869,2.5331830978393555,4.75169038772583,5.033286094665527,2.8624331951141357,-5.089024543762207,-4.163623332977295,-1.1992127895355225,-4.953268051147461,-6.1025519371032715,-4.462689399719238,-2.3025174140930176,0.32928717136383057,-5.576601982116699,-5.065597057342529,1.2780512571334839,1.2999534606933594,4.78810977935791,2.336459159851074,-0.03464088588953018,2.159566640853882,1.6548746824264526
20,4.555594444274902,-2.0371081829071045,-1.5164161920547485,-1.0766063928604126,-2.1186654567718506,-5.231503486633301,-1.6477630138397217,-1.0061410665512085,-3.0285098552703857,-1.9052480459213257,-4.128574848175049,2.7484819889068604,5.800117015838623,6.307908535003662,0.3153890073299408,2.543958902359009,3.6384003162384033,5.748650550842285,5.734870433807373,2.539536714553833,4.749903678894043,5.03980827331543,2.8701460361480713,-5.082502365112305,-4.165410041809082,-1.1981658935546875,-4.9460062980651855,-6.091787338256836,-4.472696304321289,-2.297374725341797,0.3518393039703369,-5.5765700340271,-5.056693077087402,1.2826405763626099,1.2948474884033203,4.769561290740967,2.3590338230133057,-0.0371461883187294,2.18023419380188,1.6488701105117798
21,4.549380302429199,-2.036449670791626,-1.5102343559265137,-1.0728942155838013,-2.1150214672088623,-5.245168685913086,-1.6600044965744019,-1.0126889944076538,-3.021374464035034,-1.8886829614639282,-4.139017581939697,2.756049156188965,5.789674282073975,6.3244733810424805,0.32252436876296997,2.5374109745025635,3.641204595565796,5.757990837097168,5.753652572631836,2.543890953063965,4.759807586669922,5.054589748382568,2.8659586906433105,-5.067720890045166,-4.155506134033203,-1.1983217000961304,-4.925490856170654,-6.086891174316406,-4.4698920249938965,-2.3048336505889893,0.3737548291683197,-5.575451374053955,-5.047459125518799,1.2748805284500122,1.2826060056686401,4.7569990158081055,2.3846006393432617,-0.03337746486067772,2.186415910720825,1.6495286226272583
22,4.5520453453063965,-2.039672613143921,-1.496244192123413,-1.0685254335403442,-2.1045339107513428,-5.261799335479736,-1.6620619297027588,-1.0079443454742432,-3.018888473510742,-1.8727691173553467,-4.15096378326416,2.761787176132202,5.777728080749512,6.340386867523193,0.3250105082988739,2.5421557426452637,3.638225793838501,5.772226810455322,5.768764495849609,2.545748472213745,4.755280494689941,5.060766220092773,2.866239547729492,-5.061544418334961,-4.160033226013184,-1.1997064352035522,-4.915279865264893,-6.077024936676025,-4.472870826721191,-2.2985098361968994,0.38799089193344116,-5.573816299438477,-5.045337677001953,1.2793846130371094,1.2805485725402832,4.741425037384033,2.4074032306671143,-0.030181944370269775,2.200406074523926,1.6463055610656738
23,4.552764892578125,-2.03822922706604,-1.4945945739746094,-1.0622950792312622,-2.0970723628997803,-5.274012088775635,-1.6708669662475586,-1.015059232711792,-3.009828567504883,-1.8568639755249023,-4.162962913513184,2.7654712200164795,5.765728950500488,6.356292247772217,0.3340703845024109,2.535041093826294,3.644695520401001,5.781197547912598,5.782327175140381,2.549220561981201,4.760410785675049,5.073520660400391,2.858301877975464,-5.048789978027344,-4.154902935028076,-1.1984485387802124,-4.89413595199585,-6.071714401245117,-4.466400623321533,-2.302473545074463,0.40280747413635254,-5.57139253616333,-5.042220592498779,1.2735518217086792,1.2717435359954834,4.730652809143066,2.4299511909484863,-0.022671617567539215,2.2020556926727295,1.6477489471435547
24,4.561142444610596,-2.040951728820801,-1.4862303733825684,-1.0575032234191895,-2.0853111743927,-5.2889509201049805,-1.670475721359253,-1.012640357017517,-3.006451368331909,-1.8416314125061035,-4.176549911499023,2.7674052715301514,5.752141952514648,6.371524810791016,0.33744749426841736,2.5374598503112793,3.645664691925049,5.795177936553955,5.790931224822998,2.5515899658203125,4.75359582901001,5.078012466430664,2.853318214416504,-5.04429817199707,-4.161717891693115,-1.1968337297439575,-4.883956432342529,-6.061822891235352,-4.4654316902160645,-2.2949631214141846,0.41173213720321655,-5.568570137023926,-5.04323148727417,1.2776424884796143,1.272134780883789,4.71713399887085,2.4486162662506104,-0.017366886138916016,2.2104201316833496,1.6450265645980835
25,4.56772518157959,-2.039923667907715,-1.4889470338821411,-1.0509623289108276,-2.0779738426208496,-5.2999348640441895,-1.6766936779022217,-1.0207949876785278,-2.996262788772583,-1.8267452716827393,-4.189487934112549,2.767538070678711,5.739203929901123,6.386410713195801,0.3476358950138092,2.5293052196502686,3.654221534729004,5.804219722747803,5.799068927764893,2.5573675632476807,4.755889892578125,5.088679790496826,2.8425867557525635,-5.033630847930908,-4.159423828125,-1.1909823417663574,-4.863651275634766,-6.056085109710693,-4.456874847412109,-2.2968881130218506,0.4222731292247772,-5.565205097198486,-5.042059898376465,1.2723112106323242,1.2659168243408203,4.708232402801514,2.465308666229248,-0.008585894480347633,2.2077035903930664,1.6460548639297485
26,4.58069372177124,-2.04341459274292,-1.4846758842468262,-1.0474132299423218,-2.0675506591796875,-5.313773155212402,-1.6733505725860596,-1.0196799039840698,-2.9924910068511963,-1.8124589920043945,-4.204074859619141,2.7663819789886475,5.724617004394531,6.400697231292725,0.351407527923584,2.5304200649261475,3.6571805477142334,5.818131446838379,5.801479339599609,2.561612129211426,4.747212886810303,5.091105937957764,2.833662509918213,-5.031204700469971,-4.168100833892822,-1.18540620803833,-4.85547399520874,-6.046131610870361,-4.453916072845459,-2.288181781768799,0.4276183843612671,-5.561569690704346,-5.043176174163818,1.2760967016220093,1.2692598104476929,4.696504592895508,2.477935552597046,-0.003178717102855444,2.211974620819092,1.6425639390945435
27,4.5914740562438965,-2.043189525604248,-1.4911255836486816,-1.0410552024841309,-2.0625226497650146,-5.323541164398193,-1.677366852760315,-1.028982162475586,-2.9804511070251465,-1.798740029335022,-4.217219352722168,2.7639591693878174,5.711472511291504,6.414416313171387,0.3634474277496338,2.521117925643921,3.6665234565734863,5.826387882232666,5.805407524108887,2.569971799850464,4.748377323150635,5.100352764129639,2.8209116458892822,-5.021957874298096,-4.16693639755249,-1.175246000289917,-4.836432456970215,-6.040807247161865,-4.444572925567627,-2.2893691062927246,0.43529459834098816,-5.557535648345947,-5.041938304901123,1.2703900337219238,1.2652435302734375,4.689750671386719,2.487943649291992,0.006157063413411379,2.2055249214172363,1.6427891254425049
28,4.6077094078063965,-2.0480751991271973,-1.4890590906143188,-1.039063811302185,-2.054600954055786,-5.336671829223633,-1.6706300973892212,-1.027920126914978,-2.9766790866851807,-1.7855098247528076,-4.231939792633057,2.760842800140381,5.696752071380615,6.427646636962891,0.36721938848495483,2.5221798419952393,3.6697020530700684,5.839629650115967,5.802722930908203,2.575070381164551,4.738142967224121,5.100809097290039,2.809054136276245,-5.021501541137695,-4.177170753479004,-1.1673955917358398,-4.831737041473389,-6.031388759613037,-4.441393852233887,-2.27944016456604,0.43764549493789673,-5.553354740142822,-5.042359352111816,1.2743091583251953,1.2719802856445312,4.679486274719238,2.494311809539795,0.01106242835521698,2.2075915336608887,1.6379034519195557
29,4.620913982391357,-2.0483975410461426,-1.4985275268554688,-1.0321451425552368,-2.052999973297119,-5.34495735168457,-1.6736998558044434,-1.0384716987609863,-2.9622836112976074,-1.7731068134307861,-4.24409294128418,2.7569923400878906,5.684598922729492,6.440049648284912,0.38161489367485046,2.5116281509399414,3.6785764694213867,5.845776557922363,5.804445266723633,2.584944486618042,4.740046977996826,5.109663486480713,2.795091152191162,-5.0126471519470215,-4.175266742706299,-1.1546746492385864,-4.813669204711914,-6.027682304382324,-4.432519912719727,-2.281440019607544,0.4432051181793213,-5.548851490020752,-5.041205406188965,1.267464518547058,1.268910527229309,4.67510461807251,2.498152732849121,0.02142849937081337,2.198122978210449,1.6375809907913208
30,4.63887357711792,-2.05499529838562,-1.4963593482971191,-1.031601905822754,-2.0476081371307373,-5.35772705078125,-1.6635171175003052,-1.0358277559280396,-2.9600307941436768,-1.7611151933670044,-4.257839679718018,2.7529165744781494,5.670852184295654,6.452041149139404,0.3838677406311035,2.5142722129821777,3.680483341217041,5.857892990112305,5.797753810882568,2.588817834854126,4.7281341552734375,5.1081743240356445,2.781222343444824,-5.01413631439209,-4.1871795654296875,-1.1472781896591187,-4.814084053039551,-6.019315719604492,-4.4306135177612305,-2.2699673175811768,0.44279786944389343,-5.544383525848389,-5.0414347648620605,1.2724214792251587,1.2790932655334473,4.665613651275635,2.4992308616638184,0.025651268661022186,2.200291156768799,1.6309833526611328
31,4.652388572692871,-2.055030584335327,-1.508592963218689,-1.0229026079177856,-2.0497677326202393,-5.3639020919799805,-1.6679717302322388,-1.0481830835342407,-2.942927122116089,-1.7503637075424194,-4.267645835876465,2.748453140258789,5.661046028137207,6.462792873382568,0.400971382856369,2.5019168853759766,3.688131332397461,5.860761642456055,5.799724578857422,2.5992743968963623,4.733017444610596,5.117856025695801,2.7670791149139404,-5.004454612731934,-4.182296276092529,-1.133538842201233,-4.795729637145996,-6.0182318687438965,-4.4229655265808105,-2.274790048599243,0.44718968868255615,-5.539646148681641,-5.041397571563721,1.2634661197662354,1.2746386528015137,4.663907051086426,2.4983787536621094,0.037920184433460236,2.1880574226379395,1.6309481859207153
32,4.670407772064209,-2.0637428760528564,-1.5035606622695923,-1.0243327617645264,-2.045781373977661,-5.376862525939941,-1.6537909507751465,-1.0417454242706299,-2.944917678833008,-1.7399108409881592,-4.279713153839111,2.7440028190612793,5.6489787101745605,6.473245620727539,0.39898064732551575,2.508354663848877,3.688002586364746,5.8721771240234375,5.7894439697265625,2.5997095108032227,4.718179702758789,5.113874912261963,2.7520840167999268,-5.0084357261657715,-4.197134017944336,-1.1293108463287354,-4.803345680236816,-6.010687351226807,-4.423093795776367,-2.2604901790618896,0.44429442286491394,-5.535253047943115,-5.041759490966797,1.2711622714996338,1.288819432258606,4.653987884521484,2.4959018230438232,0.04064558818936348,2.193089485168457,1.6222360134124756
33,4.682117938995361,-2.061962127685547,-1.5196731090545654,-1.012488842010498,-2.0516836643218994,-5.379786014556885,-1.6630430221557617,-1.0577361583709717,-2.9235947132110596,-1.7312793731689453,-4.286182880401611,2.7393267154693604,5.6425089836120605,6.481877326965332,0.4203035235404968,2.4923641681671143,3.6944973468780518,5.870864391326904,5.794677257537842,2.6112682819366455,4.7291083335876465,5.125887393951416,2.7390923500061035,-4.996423244476318,-4.1862053871154785,-1.1144909858703613,-4.781589984893799,-6.012848377227783,-4.416598796844482,-2.271035671234131,0.4490036070346832,-5.530583381652832,-5.0438666343688965,1.2582863569259644,1.2795673608779907,4.655750751495361,2.4922831058502197,0.05574898421764374,2.1769769191741943,1.6240168809890747
34,4.6990838050842285,-2.073834180831909,-1.508101224899292,-1.0178709030151367,-2.0469720363616943,-5.39417839050293,-1.642514705657959,-1.04413902759552,-2.933885335922241,-1.722561240196228,-4.296802043914795,2.7347192764282227,5.631889820098877,6.49059534072876,0.41001275181770325,2.5059611797332764,3.6923277378082275,5.883232116699219,5.779881477355957,2.6059534549713135,4.7079548835754395,5.117743492126465,2.7234976291656494,-5.0045671463012695,-4.2073588371276855,-1.1160266399383545,-4.7996954917907715,-6.004913806915283,-4.418768882751465,-2.2506556510925293,0.443552166223526,-5.526723384857178,-5.043560028076172,1.271779179573059,1.3000956773757935,4.643380641937256,2.488144636154175,0.0547901876270771,2.1885488033294678,1.6121448278427124
35,4.7073845863342285,-2.0676305294036865,-1.5315977334976196,-1.0008256435394287,-2.0572385787963867,-5.391842365264893,-1.6617239713668823,-1.0679234266281128,-2.9041056632995605,-1.7164738178253174,-4.299201965332031,2.7299907207489014,5.629489898681641,6.496682643890381,0.43979257345199585,2.4821767807006836,3.6983132362365723,5.876401901245117,5.792712688446045,2.6214711666107178,4.729918479919434,5.134458065032959,2.713247299194336,-4.987852573394775,-4.185395240783691,-1.0975492000579834,-4.768612861633301,-6.011136054992676,-4.412783145904541,-2.2717466354370117,0.4506177604198456,-5.5223917961120605,-5.049112319946289,1.2512366771697998,1.2808864116668701,4.650569915771484,2.4835498332977295,0.07429886609315872,2.1650521755218506,1.6183483600616455
36,4.723228931427002,-2.085080862045288,-1.5078868865966797,-1.0141690969467163,-2.0489182472229004,-5.410333633422852,-1.629555344581604,-1.0416396856307983,-2.9288294315338135,-1.7093364000320435,-4.309412002563477,2.7252800464630127,5.619279861450195,6.503819942474365,0.41506868600845337,2.508460521697998,3.6945202350616455,5.8926286697387695,5.770540714263916,2.606940269470215,4.696004390716553,5.118922710418701,2.696570873260498,-5.003387928009033,-4.219309329986572,-1.108317255973816,-4.802858829498291,-6.0008344650268555,-4.416576385498047,-2.2391302585601807,0.4415067136287689,-5.519582271575928,-5.04574728012085,1.2757201194763184,1.3130549192428589,4.632253646850586,2.4792580604553223,0.06566592305898666,2.18876314163208,1.6008981466293335
37,4.727168083190918,-2.07041072845459,-1.54474937915802,-0.9883001446723938,-2.0657742023468018,-5.3995561599731445,-1.6657274961471558,-1.0797971487045288,-2.8834431171417236,-1.7061244249343872,-4.3066253662109375,2.7206497192382812,5.622066497802734,6.5070319175720215,0.4604548215866089,2.4703032970428467,3.7006711959838867,5.8776535987854,5.79764461517334,2.632005453109741,4.736155986785889,5.1442742347717285,2.6909902095794678,-4.978036403656006,-4.179157733917236,-1.0806193351745605,-4.7543559074401855,-6.012984275817871,-4.410425186157227,-2.2778079509735107,0.4535697102546692,-5.515753269195557,-5.0573835372924805,1.2413358688354492,1.2768827676773071,4.64849853515625,2.4751038551330566,0.09270048886537552,2.15190052986145,1.6155682802200317
38,4.742761611938477,-2.09683895111084,-1.5030245780944824,-1.0153390169143677,-2.0511441230773926,-5.426258563995361,-1.6159495115280151,-1.0350831747055054,-2.9284000396728516,-1.7000885009765625,-4.317458629608154,2.7158939838409424,5.611233234405518,6.513067722320557,0.4154978394508362,2.51501727104187,3.6961851119995117,5.901350498199463,5.7645769119262695,2.603621006011963,4.683112144470215,5.117397785186768,2.6711294651031494,-5.004912853240967,-4.23220157623291,-1.1049182415008545,-4.809900760650635,-5.998223781585693,-4.414911270141602,-2.2267558574676514,0.43869921565055847,-5.514617919921875,-5.04683256149292,1.2824108600616455,1.3266607522964478,4.619500160217285,2.471440076828003,0.07100433111190796,2.1936252117156982,1.5891400575637817
39,4.742307662963867,-2.070939302444458,-1.555143117904663,-0.9773730635643005,-2.076529026031494,-5.404789447784424,-1.6706942319869995,-1.0895737409591675,-2.8650765419006348,-1.699828028678894,-4.308789253234863,2.71164608001709,5.619902610778809,6.513328552246094,0.478821337223053,2.460526704788208,3.7024383544921875,5.8761749267578125,5.8107452392578125,2.642876625061035,4.742469310760498,5.154119968414307,2.6724634170532227,-4.968190670013428,-4.172844409942627,-1.062972903251648,-4.743022441864014,-6.0181660652160645,-4.408658027648926,-2.2844085693359375,0.45754995942115784,-5.511454105377197,-5.068199634552002,1.2316948175430298,1.2719160318374634,4.647464275360107,2.4691359996795654,0.10834475606679916,2.1415066719055176,1.6150398254394531
40,4.757931709289551,-2.1051528453826904,-1.5007438659667969,-1.0189528465270996,-2.0570662021636963,-5.439829349517822,-1.6088569164276123,-1.0325039625167847,-2.923490047454834,-1.6945960521697998,-4.31984281539917,2.707041025161743,5.608849048614502,6.518560409545898,0.4204077422618866,2.517596483230591,3.6991186141967773,5.907971382141113,5.768345832824707,2.6012914180755615,4.678072929382324,5.11707878112793,2.6472034454345703,-5.005231857299805,-4.237240791320801,-1.1000494956970215,-4.812134265899658,-5.9986443519592285,-4.411977767944336,-2.222153425216675,0.43735232949256897,-5.512356758117676,-5.048250675201416,1.2843859195709229,1.3337534666061401,4.608234882354736,2.4658937454223633,0.07296785712242126,2.195905923843384,1.5808261632919312
41,4.7544355392456055,-2.0746912956237793,-1.5543657541275024,-0.9731206297874451,-2.084850311279297,-5.412528038024902,-1.6669337749481201,-1.0887491703033447,-2.857194662094116,-1.6962403059005737,-4.3092217445373535,2.7035207748413086,5.619470119476318,6.516916275024414,0.486703097820282,2.461351156234741,3.703187942504883,5.878167629241943,5.821550369262695,2.6465537548065186,4.739332675933838,5.157978534698486,2.6567158699035645,-4.964332103729248,-4.175981044769287,-1.051772952079773,-4.745218753814697,-6.0225300788879395,-4.4079084396362305,-2.2821314334869385,0.45911121368408203,-5.510051727294922,-5.078126430511475,1.2308714389801025,1.2756766080856323,4.641825199127197,2.4667959213256836,0.1158970519900322,2.1422839164733887,1.6112875938415527
42,4.766897201538086,-2.107757568359375,-1.5051289796829224,-1.016566276550293,-2.067105770111084,-5.445785045623779,-1.6106102466583252,-1.0379801988601685,-2.9112861156463623,-1.6920210123062134,-4.319815635681152,2.6992671489715576,5.6088762283325195,6.521135330200195,0.43261149525642395,2.512120246887207,3.7024028301239014,5.910950660705566,5.7781982421875,2.602726459503174,4.683882236480713,5.121102809906006,2.628845453262329,-5.0012078285217285,-4.231431484222412,-1.091884732246399,-4.808655261993408,-6.0018310546875,-4.408693313598633,-2.2282607555389404,0.43997886776924133,-5.511850357055664,-5.054895401000977,1.2778860330581665,1.3320001363754272,4.603977203369141,2.4639642238616943,0.07866808027029037,2.1915206909179688,1.578221321105957
43,4.762759208679199,-2.08231782913208,-1.5467743873596191,-0.9730759859085083,-2.088754892349243,-5.4210028648376465,-1.6576793193817139,-1.081732988357544,-2.8572998046875,-1.694111704826355,-4.3117547035217285,2.6962132453918457,5.616937160491943,6.519044399261475,0.4865976870059967,2.468367338180542,3.7017173767089844,5.8850836753845215,5.821316242218018,2.640996217727661,4.731387138366699,5.1557698249816895,2.64432692527771,-4.966540813446045,-4.183926582336426,-1.0507043600082397,-4.757584571838379,-6.0228166580200195,-4.409378528594971,-2.2749524116516113,0.45827075839042664,-5.510277271270752,-5.08504056930542,1.2359968423843384,1.2849310636520386,4.633190155029297,2.4667744636535645,0.1173493042588234,2.1498754024505615,1.6036608219146729
44,4.769244194030762,-2.1088523864746094,-1.5102379322052002,-1.008230209350586,-2.0757639408111572,-5.44550895690918,-1.6148029565811157,-1.0447205305099487,-2.899630069732666,-1.691054105758667,-4.3212890625,2.692152500152588,5.607402801513672,6.522101879119873,0.4442674219608307,2.5053799152374268,3.703277111053467,5.9116668701171875,5.785057067871094,2.603759288787842,4.691534519195557,5.126125812530518,2.6184353828430176,-4.996184825897217,-4.223779201507568,-1.0855544805526733,-4.80582857131958,-6.005499839782715,-4.407818794250488,-2.2360870838165283,0.4442385733127594,-5.511757850646973,-5.0642547607421875,1.2701327800750732,1.3278074264526367,4.604355812072754,2.4650182723999023,0.08763008564710617,2.1864118576049805,1.577126383781433
45,4.766281604766846,-2.0897138118743896,-1.5401400327682495,-0.972542941570282,-2.0908920764923096,-5.425881385803223,-1.6504743099212646,-1.0759481191635132,-2.8589515686035156,-1.6931241750717163,-4.315059661865234,2.68904709815979,5.6136322021484375,6.520031452178955,0.4849458634853363,2.4741525650024414,3.6990578174591064,5.8919854164123535,5.816347599029541,2.6328983306884766,4.7253336906433105,5.15238618850708,2.63566517829895,-4.969924449920654,-4.1899800300598145,-1.0537976026535034,-4.769623756408691,-6.021579742431641,-4.412038326263428,-2.269359588623047,0.45775628089904785,-5.51076078414917,-5.089444637298584,1.2403639554977417,1.2921360731124878,4.626492023468018,2.467456102371216,0.1178472712635994,2.1565098762512207,1.5962647199630737
46,4.768077373504639,-2.1102216243743896,-1.5136643648147583,-0.9997991919517517,-2.0813043117523193,-5.442839622497559,-1.618760347366333,-1.049493670463562,-2.8913509845733643,-1.6910065412521362,-4.322682857513428,2.6850569248199463,5.606009006500244,6.522148609161377,0.45254644751548767,2.5006070137023926,3.702350616455078,5.912009239196777,5.7885026931762695,2.6032795906066895,4.696876049041748,5.129508018493652,2.6130049228668213,-4.992802619934082,-4.218437671661377,-1.0817562341690063,-4.804834365844727,-6.0083746910095215,-4.408745288848877,-2.241549015045166,0.44791901111602783,-5.511877059936523,-5.071868896484375,1.2647241353988647,1.3238500356674194,4.605554580688477,2.466905355453491,0.09525473415851593,2.182985544204712,1.5757570266723633
47,4.766392707824707,-2.0954508781433105,-1.5358819961547852,-0.9714877009391785,-2.0919528007507324,-5.427264213562012,-1.64659583568573,-1.0723724365234375,-2.860044002532959,-1.6929492950439453,-4.317118167877197,2.681901454925537,5.611573696136475,6.520205974578857,0.48385339975357056,2.4777281284332275,3.6966474056243896,5.897420883178711,5.811934947967529,2.6256637573242188,4.721630573272705,5.149217128753662,2.629772663116455,-4.973093509674072,-4.19368314743042,-1.0569385290145874,-4.778229236602783,-6.020325183868408,-4.4144487380981445,-2.2659313678741455,0.4579105079174042,-5.511366844177246,-5.092212677001953,1.243175983428955,1.2960145473480225,4.622305870056152,2.4685113430023193,0.11812477558851242,2.1607680320739746,1.5905277729034424
48,4.765430450439453,-2.11188006401062,-1.5157597064971924,-0.9935387969017029,-2.084139108657837,-5.439304351806641,-1.6221424341201782,-1.052429437637329,-2.8859517574310303,-1.6913998126983643,-4.322965621948242,2.6780593395233154,5.60572624206543,6.521755218505859,0.45794567465782166,2.497671127319336,3.700977087020874,5.9126763343811035,5.790404796600342,2.601686954498291,4.70007848739624,5.130999565124512,2.609994649887085,-4.991311073303223,-4.215235233306885,-1.0795217752456665,-4.8048505783081055,-6.010279655456543,-4.41011905670166,-2.2448482513427734,0.4507421553134918,-5.512293338775635,-5.07724666595459,1.2616263628005981,1.3204679489135742,4.60658073425293,2.46891713142395,0.1001330241560936,2.1808903217315674,1.5740984678268433
49,4.764639854431152,-2.0997326374053955,-1.5334081649780273,-0.9704365134239197,-2.091953992843628,-5.426324844360352,-1.645094394683838,-1.0702499151229858,-2.8604931831359863,-1.693163275718689,-4.3176422119140625,2.675020217895508,5.611049652099609,6.519991874694824,0.4834042489528656,2.4798505306243896,3.6946332454681396,5.901557922363281,5.809204578399658,2.6197190284729004,4.719468593597412,5.146366119384766,2.626047134399414,-4.975944519042969,-4.195845127105713,-1.059113621711731,-4.783954620361328,-6.019354820251465,-4.4164628982543945,-2.2639431953430176,0.45856860280036926,-5.512135028839111,-5.094228267669678,1.2451375722885132,1.2975159883499146,4.619955062866211,2.469825267791748,0.11793284863233566,2.1632418632507324,1.5862460136413574
50,4.762031078338623,-2.113706588745117,-1.5170480012893677,-0.9894400835037231,-2.084963798522949,-5.435402870178223,-1.6249274015426636,-1.0540975332260132,-2.88259220123291,-1.6918587684631348,-4.3222975730896,2.6714186668395996,5.606394290924072,6.52129602432251,0.46130529046058655,2.4960029125213623,3.6996266841888428,5.913634777069092,5.791741371154785,2.599292516708374,4.701938629150391,5.131058216094971,2.6082725524902344,-4.991252422332764,-4.213375091552734,-1.0782169103622437,-4.805373191833496,-6.011457920074463,-4.411469459533691,-2.246783494949341,0.4530860185623169,-5.512950420379639,-5.080986976623535,1.2602097988128662,1.3176829814910889,4.60744571685791,2.4709041118621826,0.10260981321334839,2.1796019077301025,1.5722719430923462
51,4.761930465698242,-2.1029648780822754,-1.53212308883667,-0.9695049524307251,-2.091043710708618,-5.423989295959473,-1.6450392007827759,-1.068975567817688,-2.8604750633239746,-1.6934232711791992,-4.317039489746094,2.6686112880706787,5.611652374267578,6.519731521606445,0.4834223985671997,2.4811248779296875,3.692749261856079,5.904677391052246,5.807936191558838,2.614776372909546,4.718315601348877,5.143763542175293,2.6241326332092285,-4.978547096252441,-4.196998119354248,-1.0603232383728027,-4.7877583503723145,-6.018683433532715,-4.418346881866455,-2.26289963722229,0.45970243215560913,-5.513006687164307,-5.095944881439209,1.2467292547225952,1.2975711822509766,4.618871212005615,2.4712302684783936,0.11725872755050659,2.1645267009735107,1.583013892173767
52,4.758200645446777,-2.1156530380249023,-1.5178425312042236,-0.9870071411132812,-2.084351062774658,-5.431416988372803,-1.6270999908447266,-1.054904580116272,-2.8806614875793457,-1.6921306848526,-4.3210673332214355,2.6652870178222656,5.607624530792236,6.521023750305176,0.463236004114151,2.4951958656311035,3.6983940601348877,5.914698123931885,5.792838096618652,2.5962915420532227,4.7030029296875,5.130094051361084,2.6073555946350098,-4.99221658706665,-4.212310791015625,-1.077486276626587,-4.8062238693237305,-6.012183666229248,-4.4127020835876465,-2.247901439666748,0.4552987813949585,-5.513723373413086,-5.083559989929199,1.2599748373031616,1.3155103921890259,4.608243465423584,2.472808599472046,0.10331317782402039,2.178807258605957,1.5703257322311401
53,4.758820533752441,-2.1054391860961914,-1.5316696166992188,-0.9686221480369568,-2.089447498321533,-5.420881748199463,-1.6458412408828735,-1.0682340860366821,-2.8600807189941406,-1.693510890007019,-4.315728664398193,2.66275954246521,5.6129631996154785,6.519643306732178,0.4838169515132904,2.4818665981292725,3.6907811164855957,5.906979084014893,5.807757377624512,2.6105778217315674,4.717889308929443,5.141331672668457,2.6237645149230957,-4.980978965759277,-4.197424411773682,-1.0606913566589355,-4.790294170379639,-6.018289566040039,-4.420315265655518,-2.26253604888916,0.46130797266960144,-5.513889312744141,-5.0975518226623535,1.2481497526168823,1.296769142150879,4.618680000305176,2.472583293914795,0.11622940748929977,2.164980173110962,1.580539345741272
54,4.754171371459961,-2.1177279949188232,-1.5183006525039673,-0.9858179092407227,-2.082719326019287,-5.427573204040527,-1.6286309957504272,-1.0550997257232666,-2.87978196144104,-1.6920716762542725,-4.319589138031006,2.6596975326538086,5.609102725982666,6.521082878112793,0.46411585807800293,2.4950008392333984,3.6973254680633545,5.915726184844971,5.7937726974487305,2.5928120613098145,4.703554630279541,5.128360748291016,2.6069531440734863,-4.993949890136719,-4.211759090423584,-1.07712721824646,-4.807338714599609,-6.012663841247559,-4.413771152496338,-2.2484889030456543,0.45756664872169495,-5.514495849609375,-5.085230827331543,1.2605839967727661,1.3139793872833252,4.608998775482178,2.4746131896972656,0.10273575782775879,2.178349256515503,1.5682506561279297
55,4.755712985992432,-2.107325315475464,-1.531860589981079,-0.9676647186279297,-2.087399482727051,-5.417408466339111,-1.6471855640411377,-1.0678952932357788,-2.8593029975891113,-1.6933180093765259,-4.313996315002441,2.6574532985687256,5.6146955490112305,6.519836902618408,0.4845947325229645,2.4822051525115967,3.688600778579712,5.908605098724365,5.80841064453125,2.6069998741149902,4.718042373657227,5.139027118682861,2.624743938446045,-4.983283519744873,-4.197271347045898,-1.0602827072143555,-4.791915416717529,-6.018162250518799,-4.4224958419799805,-2.2627177238464355,0.46335241198539734,-5.514702320098877,-5.099151611328125,1.2494360208511353,1.2954248189926147,4.619143486022949,2.4737958908081055,0.1149982139468193,2.1647891998291016,1.5786534547805786
56,4.750127792358398,-2.1199769973754883,-1.5184742212295532,-0.9856104850769043,-2.080369710922241,-5.424059867858887,-1.6294747591018677,-1.0548230409622192,-2.8797433376312256,-1.691622018814087,-4.31807804107666,2.6546051502227783,5.610613822937012,6.521533012390137,0.4641542434692383,2.4952774047851562,3.6965014934539795,5.916652202606201,5.7945475578308105,2.5889198780059814,4.703705310821533,5.12599515914917,2.606806516647339,-4.9963154792785645,-4.211608409881592,-1.0770466327667236,-4.808699607849121,-6.013036727905273,-4.414595603942871,-2.248663902282715,0.45995235443115234,-5.5151848793029785,-5.086130142211914,1.2618175745010376,1.3131356239318848,4.609682559967041,2.47634220123291,0.10119213908910751,2.178175687789917,1.5660020112991333
57,4.752923011779785,-2.1086976528167725,-1.5326086282730103,-0.9664929509162903,-2.0851223468780518,-5.413822650909424,-1.6489429473876953,-1.0679346323013306,-2.8580639362335205,-1.6928201913833618,-4.312005043029785,2.6526293754577637,5.616686820983887,6.520334720611572,0.4858334958553314,2.482165813446045,3.6861135959625244,5.909658432006836,5.809776306152344,2.6040198802948,4.7187089920043945,5.136852741241455,2.6269311904907227,-4.985457897186279,-4.1966047286987305,-1.0590975284576416,-4.79278039932251,-6.018305778503418,-4.424983978271484,-2.2633891105651855,0.46578240394592285,-5.515394687652588,-5.100840091705322,1.250537395477295,1.2936674356460571,4.620119094848633,2.4748282432556152,0.11371009796857834,2.16404128074646,1.5772813558578491
58,4.746194839477539,-2.122467041015625,-1.5183374881744385,-0.9862567782402039,-2.0775246620178223,-5.421037197113037,-1.6295660734176636,-1.0541356801986694,-2.8804516792297363,-1.6907819509506226,-4.316675186157227,2.6499273777008057,5.612016677856445,6.522372722625732,0.4634457230567932,2.495965003967285,3.696045160293579,5.917468547821045,5.795144081115723,2.584620714187622,4.703465461730957,5.123068809509277,2.6066439151763916,-4.999241828918457,-4.211848258972168,-1.0772391557693481,-4.810327053070068,-6.013392925262451,-4.41505241394043,-2.248445749282837,0.4624488949775696,-5.515742778778076,-5.0863037109375,1.2635385990142822,1.3130443096160889,4.61023473739624,2.4780566692352295,0.09885353595018387,2.1783125400543213,1.563511848449707
59,4.750709056854248,-2.109560489654541,-1.5338822603225708,-0.9649584293365479,-2.082836627960205,-5.41027307510376,-1.6511014699935913,-1.0683856010437012,-2.8562421798706055,-1.6920549869537354,-4.309822082519531,2.6482036113739014,5.618869781494141,6.52109956741333,0.4876551926136017,2.481714963912964,3.683223009109497,5.910220146179199,5.811850070953369,2.6016793251037598,4.719887733459473,5.134862899780273,2.630228042602539,-4.987447738647461,-4.195425987243652,-1.0570927858352661,-4.792934417724609,-6.018742561340332,-4.427874565124512,-2.2645556926727295,0.4685389995574951,-5.515946388244629,-5.1027302742004395,1.2513545751571655,1.2915089130401611,4.6215338706970215,2.4756669998168945,0.1124943196773529,2.1627676486968994,1.5764185190200806
60,4.7424445152282715,-2.125276803970337,-1.517802357673645,-0.9877105951309204,-2.0743603706359863,-5.418645858764648,-1.628824234008789,-1.0530351400375366,-2.881877899169922,-1.6895973682403564,-4.3154683113098145,2.6455705165863037,5.613223552703857,6.523557186126709,0.4620194733142853,2.497065305709839,3.6961066722869873,5.918208599090576,5.795557975769043,2.5798747539520264,4.702792644500732,5.119621753692627,2.6061911582946777,-5.002688884735107,-4.212521076202393,-1.0777568817138672,-4.812282562255859,-6.013803005218506,-4.4149909019470215,-2.2477972507476807,0.46501240134239197,-5.516158103942871,-5.085744380950928,1.2656723260879517,1.3137861490249634,4.61057710647583,2.4798383712768555,0.09578655660152435,2.178847551345825,1.5607022047042847
61,4.74928092956543,-2.1098742485046387,-1.5356714725494385,-0.962929368019104,-2.080775022506714,-5.4068403244018555,-1.6536988019943237,-1.0693103075027466,-2.853715181350708,-1.691105604171753,-4.307446479797363,2.6440937519073486,5.621245384216309,6.5220489501953125,0.4901820421218872,2.480790138244629,3.6798369884490967,5.910353660583496,5.814723968505859,2.6000423431396484,4.721622467041016,5.13315486907959,2.634521007537842,-4.9891557693481445,-4.193691253662109,-1.0542112588882446,-4.792368412017822,-6.019526481628418,-4.431260585784912,-2.2662665843963623,0.47156596183776855,-5.516371726989746,-5.1049394607543945,1.2517590522766113,1.2889115810394287,4.623359203338623,2.4763169288635254,0.11144930124282837,2.1609785556793213,1.5761048793792725
62,4.7389373779296875,-2.128462314605713,-1.516743779182434,-0.9899300336837769,-2.0710411071777344,-5.417016983032227,-1.6271892786026,-1.0514802932739258,-2.8839778900146484,-1.6881533861160278,-4.3144850730896,2.641447067260742,5.614206790924072,6.525001525878906,0.45991939306259155,2.4986202716827393,3.6968183517456055,5.918928146362305,5.795840740203857,2.5746419429779053,4.701629161834717,5.115694522857666,2.605245590209961,-5.006616115570068,-4.213684558868408,-1.078648328781128,-4.8146491050720215,-6.014338493347168,-4.414278984069824,-2.246666669845581,0.4675787389278412,-5.516458034515381,-5.084441661834717,1.2681810855865479,1.3154211044311523,4.610620975494385,2.4817686080932617,0.09199321269989014,2.1799063682556152,1.5575169324874878
63,4.748775005340576,-2.109606981277466,-1.537939429283142,-0.9603707790374756,-2.0791947841644287,-5.4035844802856445,-1.6567203998565674,-1.0707651376724243,-2.850456476211548,-1.6900856494903564,-4.30483865737915,2.6402316093444824,5.6238532066345215,6.523068904876709,0.49344077706336975,2.479335308074951,3.675948143005371,5.9101080894470215,5.818547248840332,2.599125385284424,4.723963737487793,5.1318440437316895,2.6395421028137207,-4.990466594696045,-4.191349983215332,-1.050450325012207,-4.791082382202148,-6.020755290985107,-4.4351487159729,-2.2685792446136475,0.4748111963272095,-5.516717433929443,-5.107540130615234,1.2516132593154907,1.285889983177185,4.625573635101318,2.4768190383911133,0.11060025542974472,2.1587107181549072,1.5763722658157349
64,4.735814094543457,-2.131983757019043,-1.5150573253631592,-0.9927406907081604,-2.0677661895751953,-5.416263103485107,-1.6247296333312988,-1.0494394302368164,-2.8865466117858887,-1.6865788698196411,-4.313673496246338,2.63749098777771,5.615018367767334,6.526575565338135,0.45735079050064087,2.5006608963012695,3.698154926300049,5.919695854187012,5.79618501663208,2.568991184234619,4.699974536895752,5.111382007598877,2.603844165802002,-5.010928630828857,-4.215339183807373,-1.0798296928405762,-4.817479133605957,-6.0150909423828125,-4.4129414558410645,-2.245055913925171,0.4700671434402466,-5.516712188720703,-5.082488536834717,1.271022081375122,1.3178807497024536,4.610297203063965,2.4838860034942627,0.08748190104961395,2.1815929412841797,1.5539954900741577
65,4.749154090881348,-2.108844041824341,-1.5405265092849731,-0.9575058221817017,-2.0783536434173584,-5.400604248046875,-1.6599302291870117,-1.0727250576019287,-2.8467094898223877,-1.6891109943389893,-4.301990985870361,2.636570453643799,5.6267008781433105,6.524043083190918,0.49718809127807617,2.477375030517578,3.6718239784240723,5.909536361694336,5.823439598083496,2.5987584590911865,4.726877689361572,5.130995750427246,2.6446406841278076,-4.991314888000488,-4.188436031341553,-1.0459996461868286,-4.789196491241455,-6.022572994232178,-4.439271926879883,-2.271470785140991,0.4782183766365051,-5.517059326171875,-5.11042594909668,1.2508264780044556,1.2826801538467407,4.628105640411377,2.4773192405700684,0.10981849581003189,2.1561238765716553,1.5771353244781494
66,4.733428001403809,-2.135585069656372,-1.5127793550491333,-0.9956581592559814,-2.064816951751709,-5.416424751281738,-1.6218260526657104,-1.0469893217086792,-2.889026641845703,-1.6850429773330688,-4.312862396240234,2.6336748600006104,5.6158294677734375,6.528110980987549,0.4548710286617279,2.503110647201538,3.6996874809265137,5.920599460601807,5.797020435333252,2.563279867172241,4.698004722595215,5.10689640045166,2.6024861335754395,-5.015414237976074,-4.21730899810791,-1.0808852910995483,-4.820695400238037,-6.016155242919922,-4.411407947540283,-2.2431395053863525,0.47237706184387207,-5.51703405380249,-5.080256462097168,1.2740683555603027,1.320784330368042,4.609616279602051,2.486140727996826,0.08239452540874481,2.183871030807495,1.5503942966461182
67,4.75002908706665,-2.107941150665283,-1.5430245399475098,-0.9549699425697327,-2.0784149169921875,-5.398099899291992,-1.6627185344696045,-1.0749644041061401,-2.8431386947631836,-1.6882368326187134,-4.299039840698242,2.633084774017334,5.62965202331543,6.524917125701904,0.5007588267326355,2.475135564804077,3.668233633041382,5.908730983734131,5.829319000244141,2.598442554473877,4.730093479156494,5.1305131912231445,2.6486613750457764,-4.99179744720459,-4.185220241546631,-1.041384220123291,-4.787102222442627,-6.025135040283203,-4.442862033843994,-2.274690628051758,0.4817078411579132,-5.517477989196777,-5.113171577453613,1.2494665384292603,1.279891848564148,4.630757808685303,2.4781758785247803,0.10874689370393753,2.153625965118408,1.578038215637207
68,4.732352256774902,-2.1387369632720947,-1.5102282762527466,-0.9978723526000977,-2.0625617504119873,-5.417367458343506,-1.619264841079712,-1.044440507888794,-2.890495538711548,-1.6836999654769897,-4.311794281005859,2.6300268173217773,5.6168975830078125,6.529454231262207,0.45340192317962646,2.505659341812134,3.7004411220550537,5.921773433685303,5.7989888191223145,2.5582544803619385,4.696186065673828,5.102590084075928,2.6021034717559814,-5.019720554351807,-4.219127655029297,-1.0809754133224487,-4.823995590209961,-6.017559051513672,-4.410654544830322,-2.241382360458374,0.4743942618370056,-5.517551898956299,-5.078517913818359,1.2770097255706787,1.323345422744751,4.608767509460449,2.488399028778076,0.07713597267866135,2.186422348022461,1.547242522239685
69,4.750603675842285,-2.1075494289398193,-1.5447697639465332,-0.9536430239677429,-2.0792791843414307,-5.396378993988037,-1.6642451286315918,-1.076980471611023,-2.840640068054199,-1.6873687505722046,-4.296360492706299,2.6297619342803955,5.632331371307373,6.525785446166992,0.5032573938369751,2.4731192588806152,3.6662986278533936,5.907873153686523,5.835744857788086,2.5974340438842773,4.7330121994018555,5.130061149597168,2.6503968238830566,-4.992249488830566,-4.1823015213012695,-1.0373588800430298,-4.785519599914551,-6.0284929275512695,-4.444797039031982,-2.2776732444763184,0.48513689637184143,-5.518007278442383,-5.115093231201172,1.247885823249817,1.278365135192871,4.633187294006348,2.4799587726593018,0.10688657313585281,2.1518807411193848,1.5784300565719604
70,4.732978820800781,-2.140873908996582,-1.507987380027771,-0.998660147190094,-2.0613362789154053,-5.41871452331543,-1.6179083585739136,-1.0423424243927002,-2.8901350498199463,-1.6825528144836426,-4.3103132247924805,2.626621961593628,5.618378639221191,6.530601501464844,0.4537622928619385,2.5077571868896484,3.699383020401001,5.923414707183838,5.802585124969482,2.554720878601074,4.695185661315918,5.098824501037598,2.6034843921661377,-5.023486137390137,-4.220128059387207,-1.0792338848114014,-4.82693338394165,-6.019153594970703,-4.411712646484375,-2.2404580116271973,0.47604435682296753,-5.518322467803955,-5.078181743621826,1.279343605041504,1.3247019052505493,4.608132362365723,2.490603446960449,0.07231402397155762,2.1886630058288574,1.5451055765151978
71,4.750058650970459,-2.108290910720825,-1.5451682806015015,-0.9540039300918579,-2.08052921295166,-5.395701885223389,-1.6640352010726929,-1.0781747102737427,-2.839696168899536,-1.6862496137619019,-4.294441223144531,2.6265745162963867,5.634250640869141,6.526905059814453,0.504201352596283,2.4719247817993164,3.6666667461395264,5.907227516174316,5.841983795166016,2.5952186584472656,4.734936714172363,5.129210472106934,2.649606704711914,-4.993100166320801,-4.180377006530762,-1.0344207286834717,-4.7852253913879395,-6.0324625968933105,-4.44442892074585,-2.279750347137451,0.4882779121398926,-5.518585205078125,-5.115722179412842,1.2466543912887573,1.27857506275177,4.635047435760498,2.483124017715454,0.1039353683590889,2.151482105255127,1.5776885747909546
72,4.734933853149414,-2.141857385635376,-1.5065839290618896,-0.9979247450828552,-2.061244249343872,-5.419977188110352,-1.6180601119995117,-1.0412050485610962,-2.8878655433654785,-1.6813814640045166,-4.308566570281982,2.623494863510132,5.6201252937316895,6.531773090362549,0.4560319185256958,2.508894205093384,3.6963515281677246,5.925694942474365,5.807657718658447,2.5528676509857178,4.695455551147461,5.095765113830566,2.6066527366638184,-5.026545524597168,-4.219858169555664,-1.07552969455719,-4.829197406768799,-6.0206403732299805,-4.4147443771362305,-2.240838050842285,0.4773801863193512,-5.519251823425293,-5.079621315002441,1.2806063890457153,1.3245501518249512,4.608105659484863,2.492910623550415,0.06839856505393982,2.190066337585449,1.5441220998764038
73,4.748126029968262,-2.110323190689087,-1.5441631078720093,-0.9556885957717896,-2.081664800643921,-5.396063804626465,-1.662379503250122,-1.078273892402649,-2.839996814727783,-1.6846262216567993,-4.293516635894775,2.6234428882598877,5.6351752281188965,6.528528213500977,0.5039004683494568,2.471825361251831,3.668870687484741,5.907042980194092,5.847336769104004,2.5918736457824707,4.735554218292236,5.127744197845459,2.6473922729492188,-4.994566440582275,-4.179759502410889,-1.0324887037277222,-4.7865519523620605,-6.036645889282227,-4.442224979400635,-2.2806148529052734,0.49090880155563354,-5.5190839767456055,-5.115200042724609,1.2461897134780884,1.2802307605743408,4.636216640472412,2.4875905513763428,0.10005690157413483,2.15248703956604,1.5756561756134033
74,4.737225532531738,-2.1420845985412598,-1.5061583518981934,-0.9961469173431396,-2.0620782375335693,-5.420832633972168,-1.6193151473999023,-1.041152834892273,-2.8843283653259277,-1.6799120903015137,-4.306865692138672,2.6205403804779053,5.621826171875,6.533242225646973,0.45956894755363464,2.508946657180786,3.692117929458618,5.9285759925842285,5.813419342041016,2.552126169204712,4.696889877319336,5.093334674835205,2.6110594272613525,-5.028975963592529,-4.218423843383789,-1.0705879926681519,-4.83079719543457,-6.02181339263916,-4.418977737426758,-2.2424352169036865,0.47856128215789795,-5.520141124725342,-5.082398414611816,1.280700922012329,1.3232951164245605,4.6088409423828125,2.495518207550049,0.06543827056884766,2.1904919147491455,1.5438947677612305
75,4.74512243270874,-2.1133320331573486,-1.5422602891921997,-0.9578975439071655,-2.082406520843506,-5.397160053253174,-1.6599727869033813,-1.0775119066238403,-2.840850591659546,-1.6824395656585693,-4.293395042419434,2.620224952697754,5.635296821594238,6.530714511871338,0.5030468106269836,2.4725875854492188,3.6718318462371826,5.9074249267578125,5.851469039916992,2.5878500938415527,4.73511266708374,5.1257429122924805,2.645256519317627,-4.996567726135254,-4.180201053619385,-1.031164288520813,-4.789196014404297,-6.040635585784912,-4.439263820648193,-2.2804934978485107,0.49297013878822327,-5.519399166107178,-5.114049434661865,1.246471643447876,1.2826374769210815,4.636871337890625,2.492809295654297,0.09571162611246109,2.1543898582458496,1.572647213935852
76,4.7390360832214355,-2.142111301422119,-1.5064921379089355,-0.9939187169075012,-2.0634348392486572,-5.421250343322754,-1.6210228204727173,-1.0419100522994995,-2.880312442779541,-1.6780396699905396,-4.30537748336792,2.617537021636963,5.623314380645752,6.535114288330078,0.46358489990234375,2.5081894397735596,3.6875267028808594,5.93178653717041,5.819026947021484,2.551759958267212,4.698975086212158,5.091318130493164,2.6161680221557617,-5.03099250793457,-4.216338634490967,-1.0652985572814941,-4.831951141357422,-6.022704124450684,-4.4235687255859375,-2.244741201400757,0.4797210693359375,-5.520833969116211,-5.085729598999023,1.279940128326416,1.3215874433517456,4.6102118492126465,2.498427629470825,0.06314118951559067,2.190157890319824,1.5438679456710815
77,4.741523742675781,-2.1168601512908936,-1.5401105880737305,-0.9600386619567871,-2.08272123336792,-5.398585319519043,-1.65737783908844,-1.0763685703277588,-2.8417232036590576,-1.6798208951950073,-4.2936692237854,2.616771697998047,5.6350226402282715,6.5333333015441895,0.5021741986274719,2.4737308025360107,3.6747241020202637,5.908308029174805,5.8544793128967285,2.583594799041748,4.734120845794678,5.123394966125488,2.644089937210083,-4.998915672302246,-4.181192874908447,-1.0300835371017456,-4.7925124168396,-6.044199466705322,-4.436371326446533,-2.2798664569854736,0.4945969879627228,-5.519505977630615,-5.112723350524902,1.2471827268600464,1.285232424736023,4.637331485748291,2.4982285499572754,0.09130971878767014,2.1565394401550293,1.5691189765930176
78,4.740124702453613,-2.142320156097412,-1.5072554349899292,-0.9916740655899048,-2.064901828765869,-5.421380996704102,-1.6227022409439087,-1.043067455291748,-2.8763608932495117,-1.6758332252502441,-4.304067611694336,2.61428165435791,5.624624252319336,6.537320613861084,0.46753644943237305,2.5070319175720215,3.6829819679260254,5.9350152015686035,5.824016571044922,2.5513176918029785,4.701186180114746,5.089457035064697,2.6216723918914795,-5.032853603363037,-4.214127540588379,-1.0602025985717773,-4.832891464233398,-6.023465633392334,-4.4281134605407715,-2.247220039367676,0.4809119999408722,-5.521300315856934,-5.089036464691162,1.2787857055664062,1.3199080228805542,4.611988067626953,2.5014889240264893,0.06113308295607567,2.189394474029541,1.5436590909957886
79,4.73767614364624,-2.1205508708953857,-1.5381689071655273,-0.961906909942627,-2.082676887512207,-5.4000325202941895,-1.6548799276351929,-1.0752439498901367,-2.8423690795898438,-1.6769566535949707,-4.293994426727295,2.6129884719848633,5.634697437286377,6.536197185516357,0.5015282034873962,2.474855422973633,3.67724609375,5.909518241882324,5.8567280769348145,2.579392194747925,4.733018398284912,5.1208415031433105,2.6440505981445312,-5.001469135284424,-4.182295322418213,-1.0290255546569824,-4.795902729034424,-6.047314643859863,-4.433849334716797,-2.279149055480957,0.49602216482162476,-5.519455909729004,-5.111458778381348,1.2480026483535767,1.28773033618927,4.63789176940918,2.5035576820373535,0.08706659823656082,2.1584811210632324,1.5654284954071045
80,4.74064826965332,-2.1428658962249756,-1.5081766843795776,-0.9896672964096069,-2.0661845207214355,-5.421409606933594,-1.6241343021392822,-1.0442919731140137,-2.872729778289795,-1.6734181642532349,-4.302835464477539,2.610670804977417,5.625856399536133,6.539735794067383,0.4711676239967346,2.505807399749756,3.6785151958465576,5.938068866729736,5.828310012817383,2.5506420135498047,4.703199863433838,5.087512493133545,2.6274290084838867,-5.0347981452941895,-4.212113857269287,-1.0554888248443604,-4.833769798278809,-6.024218559265137,-4.432580471038818,-2.2495317459106445,0.48214778304100037,-5.521610736846924,-5.092082500457764,1.2776141166687012,1.3184759616851807,4.61398458480835,2.5045526027679443,0.05912483483552933,2.1884734630584717,1.5431135892868042
81,4.7337422370910645,-2.1242010593414307,-1.536633849143982,-0.9635396599769592,-2.0823395252227783,-5.401358604431152,-1.6525789499282837,-1.0743486881256104,-2.8427298069000244,-1.673990249633789,-4.294175624847412,2.608846664428711,5.63451623916626,6.539164066314697,0.5011676549911499,2.475750684738159,3.6794509887695312,5.910851001739502,5.858606338500977,2.5753705501556396,4.732066631317139,5.118157386779785,2.6449155807495117,-5.004153251647949,-4.183247089385986,-1.0278949737548828,-4.7989959716796875,-6.05009126663208,-4.431644439697266,-2.2785871028900146,0.4974765479564667,-5.519330024719238,-5.1103363037109375,1.2487409114837646,1.2900314331054688,4.638741970062256,2.5087473392486572,0.08304524421691895,2.1600162982940674,1.5617784261703491
82,4.740889549255371,-2.1437535285949707,-1.5090827941894531,-0.9880157709121704,-2.067134141921997,-5.421486854553223,-1.6252855062484741,-1.0453813076019287,-2.8694818019866943,-1.6708968877792358,-4.301599025726318,2.6066901683807373,5.6270928382873535,6.542257308959961,0.47441574931144714,2.5047178268432617,3.6739819049835205,5.94088888168335,5.832038879394531,2.549731969833374,4.704890727996826,5.085305213928223,2.6333887577056885,-5.037005424499512,-4.210422992706299,-1.0511583089828491,-4.8346638679504395,-6.025004863739014,-4.4371137619018555,-2.2515368461608887,0.48343804478645325,-5.5218706130981445,-5.094876289367676,1.2766485214233398,1.3173248767852783,4.616095066070557,2.507528781890869,0.05694914609193802,2.1875672340393066,1.542225956916809
83,4.729741096496582,-2.1277289390563965,-1.5355314016342163,-0.965063750743866,-2.0817501544952393,-5.402544021606445,-1.650477409362793,-1.0737488269805908,-2.842833995819092,-1.6709986925125122,-4.29414176940918,2.604357957839966,5.634550094604492,6.542155742645264,0.5010634064674377,2.4763503074645996,3.68153977394104,5.912131309509277,5.860419750213623,2.5715508460998535,4.731383800506592,5.115380764007568,2.646360397338867,-5.006929874420166,-4.183929920196533,-1.026680588722229,-4.801630020141602,-6.052687644958496,-4.429555892944336,-2.278291940689087,0.4991402328014374,-5.519204139709473,-5.10935115814209,1.2493191957473755,1.2921329736709595,4.639974117279053,2.513887405395508,0.07923205941915512,2.161118745803833,1.5582503080368042
84,4.741113662719727,-2.14492130279541,-1.5098800659179688,-0.9867410063743591,-2.067715883255005,-5.421721935272217,-1.6262166500091553,-1.0462359189987183,-2.8665759563446045,-1.668330430984497,-4.300307750701904,2.6023714542388916,5.628384113311768,6.54482364654541,0.4773213267326355,2.5038633346557617,3.669177293777466,5.943505764007568,5.8353986740112305,2.5486462116241455,4.706254482269287,5.082729816436768,2.639578104019165,-5.039580821990967,-4.209059238433838,-1.0471380949020386,-4.835606575012207,-6.025815963745117,-4.44191837310791,-2.253220796585083,0.48478877544403076,-5.522177219390869,-5.097537517547607,1.2759889364242554,1.3163937330245972,4.618268966674805,2.5103745460510254,0.054531026631593704,2.18677020072937,1.5410579442977905
85,4.725594997406006,-2.1311299800872803,-1.5348047018051147,-0.9666209816932678,-2.080930709838867,-5.403637409210205,-1.6485263109207153,-1.073435664176941,-2.842747211456299,-1.6680066585540771,-4.293888092041016,2.59954571723938,5.634803771972656,6.54514741897583,0.5011500120162964,2.476663589477539,3.6837451457977295,5.913239479064941,5.862366199493408,2.5678937435150146,4.731004238128662,5.112533092498779,2.6480822563171387,-5.009777545928955,-4.184309482574463,-1.025420904159546,-4.803772926330566,-6.055253028869629,-4.4273505210876465,-2.2782955169677734,0.5011304020881653,-5.519133567810059,-5.1084513664245605,1.2497191429138184,1.294084072113037,4.641612529754639,2.5191330909729004,0.07558043301105499,2.1618454456329346,1.5548491477966309
86,4.741525173187256,-2.1462886333465576,-1.510528564453125,-0.9858015775680542,-2.0679664611816406,-5.422187805175781,-1.6270283460617065,-1.0468218326568604,-2.863922595977783,-1.665748953819275,-4.298928260803223,2.597757339477539,5.629763603210449,6.547405242919922,0.47997450828552246,2.503277540206909,3.66390323638916,5.945982456207275,5.838582992553711,2.5474660396575928,4.707340240478516,5.079742908477783,2.6460981369018555,-5.042567729949951,-4.207973480224609,-1.0433299541473389,-4.836601257324219,-6.026630878448486,-4.447192192077637,-2.254626989364624,0.4861947000026703,-5.52261209487915,-5.100226402282715,1.2756575345993042,1.315582036972046,4.620490550994873,2.5130696296691895,0.05184672772884369,2.186121702194214,1.5396904945373535
87,4.721174716949463,-2.13444185256958,-1.5343666076660156,-0.9683523178100586,-2.0798916816711426,-5.40471887588501,-1.6466419696807861,-1.0733697414398193,-2.8425498008728027,-1.6650104522705078,-4.293445587158203,2.5944266319274902,5.635246276855469,6.5481438636779785,0.5013471841812134,2.47672963142395,3.6862523555755615,5.914121150970459,5.864548206329346,2.564328670501709,4.7309184074401855,5.109616756439209,2.649832248687744,-5.012693881988525,-4.1843953132629395,-1.0241793394088745,-4.805466175079346,-6.057896614074707,-4.4248433113098145,-2.2785911560058594,0.5035056471824646,-5.519161701202393,-5.107555389404297,1.2499480247497559,1.2959684133529663,4.643640995025635,2.5246634483337402,0.0720212385058403,2.1622836589813232,1.5515373945236206
88,4.742251396179199,-2.147778272628784,-1.5110260248184204,-0.9851131439208984,-2.0679616928100586,-5.42292594909668,-1.6278303861618042,-1.0471489429473877,-2.861410617828369,-1.6631652116775513,-4.297435283660889,2.592878818511963,5.631256580352783,6.549989223480225,0.4824863374233246,2.502950429916382,3.6580474376678467,5.948367595672607,5.841764450073242,2.546271324157715,4.708215713500977,5.076356410980225,2.6531081199645996,-5.04595422744751,-4.207098007202148,-1.039636254310608,-4.8376288414001465,-6.027449131011963,-4.453048229217529,-2.2558224201202393,0.4876449406147003,-5.523243427276611,-5.103106498718262,1.275628685951233,1.3147799968719482,4.622766494750977,2.5156137943267822,0.04890105128288269,2.185624122619629,1.5382009744644165
89,4.71636962890625,-2.1377179622650146,-1.5341204404830933,-0.9703918099403381,-2.078641414642334,-5.40587854385376,-1.6447227001190186,-1.0734962224960327,-2.8423285484313965,-1.6619969606399536,-4.292855262756348,2.5890042781829834,5.635836601257324,6.551157474517822,0.5015683770179749,2.4766030311584473,3.689089298248291,5.914795398712158,5.866993427276611,2.5607738494873047,4.731094837188721,5.106598854064941,2.6514317989349365,-5.015711784362793,-4.184218883514404,-1.0230281352996826,-4.806799411773682,-6.060662269592285,-4.422006130218506,-2.279151678085327,0.5062677264213562,-5.519329071044922,-5.1065826416015625,1.2500288486480713,1.2978876829147339,4.6460113525390625,2.5306437015533447,0.06846325844526291,2.162529468536377,1.5482615232467651
90,4.743295192718506,-2.14933180809021,-1.5113977193832397,-0.9845666885375977,-2.067789077758789,-5.423943519592285,-1.6287168264389038,-1.047263503074646,-2.8589329719543457,-1.660583734512329,-4.295807361602783,2.5877459049224854,5.632884502410889,6.552570819854736,0.48496389389038086,2.502835988998413,3.651719808578491,5.950651168823242,5.845102310180664,2.5451133251190186,4.708960056304932,5.072637557983398,2.6607704162597656,-5.049673080444336,-4.206353664398193,-1.0359963178634644,-4.83864164352417,-6.028324127197266,-4.459375381469727,-2.2568886280059814,0.48915207386016846,-5.52412748336792,-5.106301784515381,1.275840401649475,1.3138935565948486,4.625137805938721,2.518049955368042,0.04572397097945213,2.1852521896362305,1.5366476774215698
91,4.711200714111328,-2.1410014629364014,-1.5339607000350952,-0.9728468656539917,-2.0771994590759277,-5.40721321105957,-1.6426821947097778,-1.0737377405166626,-2.84216570854187,-1.6589634418487549,-4.292156219482422,2.5832738876342773,5.63653564453125,6.5541911125183105,0.5017310976982117,2.4763615131378174,3.6919474601745605,5.915369510650635,5.86965274810791,2.557161569595337,4.731482028961182,5.10338830947876,2.6528334617614746,-5.018922328948975,-4.183831691741943,-1.022027850151062,-4.807912349700928,-6.063498020172119,-4.419147491455078,-2.2799315452575684,0.5093509554862976,-5.519682884216309,-5.105494976043701,1.2500091791152954,1.2999281883239746,4.648645877838135,2.537158966064453,0.06478942185640335,2.162689208984375,1.5449782609939575
92,4.744450092315674,-2.1509265899658203,-1.5116937160491943,-0.9840556383132935,-2.067521572113037,-5.425204753875732,-1.6297245025634766,-1.0472573041915894,-2.8564248085021973,-1.6580082178115845,-4.294043064117432,2.5823402404785156,5.63464879989624,6.555146217346191,0.4874718487262726,2.5028419494628906,3.645416498184204,5.952715873718262,5.8487396240234375,2.5439624786376953,4.709667205810547,5.068728923797607,2.6691296100616455,-5.053581714630127,-4.205646514892578,-1.032449722290039,-4.839550018310547,-6.029398441314697,-4.465678691864014,-2.257925033569336,0.4907994866371155,-5.52528715133667,-5.109827041625977,1.2761859893798828,1.3128858804702759,4.627694606781006,2.5205297470092773,0.04238460212945938,2.1849563121795654,1.5350532531738281
93,4.705984592437744,-2.1442906856536865,-1.5337711572647095,-0.9757360816001892,-2.075622320175171,-5.408821105957031,-1.6405072212219238,-1.0739798545837402,-2.8421151638031006,-1.655936360359192,-4.291376113891602,2.5772361755371094,5.63731575012207,6.557218074798584,0.5017812848091125,2.47611927986145,3.6940600872039795,5.916050434112549,5.872408866882324,2.5534706115722656,4.732008457183838,5.099827766418457,2.6542348861694336,-5.022482872009277,-4.183305263519287,-1.0212031602859497,-4.808998107910156,-6.06622314453125,-4.417035102844238,-2.280860662460327,0.5126059055328369,-5.520267009735107,-5.104377746582031,1.2499768733978271,1.3021031618118286,4.651439666748047,2.5441088676452637,0.06087339669466019,2.1628787517547607,1.5416889190673828
94,4.745248317718506,-2.152592897415161,-1.5119760036468506,-0.9835313558578491,-2.067193031311035,-5.426634311676025,-1.630776286125183,-1.0472710132598877,-2.853922128677368,-1.6554405689239502,-4.2921905517578125,2.5766172409057617,5.636501312255859,6.557713508605957,0.48997434973716736,2.5028281211853027,3.6399903297424316,5.9543137550354,5.852768421173096,2.5426745414733887,4.710447788238525,5.064850807189941,2.6779353618621826,-5.057459831237793,-4.2048659324646,-1.029186725616455,-4.840230941772461,-6.030910015106201,-4.471105098724365,-2.2590465545654297,0.4927734434604645,-5.526665210723877,-5.113486289978027,1.2765064239501953,1.3118340969085693,4.630584239959717,2.5233728885650635,0.039002176374197006,2.184674024581909,1.5333867073059082
95,4.701396942138672,-2.1475133895874023,-1.533440113067627,-0.9788979887962341,-2.0740256309509277,-5.41077995300293,-1.6383122205734253,-1.0740782022476196,-2.842164993286133,-1.6529737710952759,-4.2905120849609375,2.5709149837493896,5.638179779052734,6.560180187225342,0.5017314553260803,2.4760210514068604,3.6944286823272705,5.917098045349121,5.875095367431641,2.5497641563415527,4.732583999633789,5.095739364624023,2.6561672687530518,-5.026571273803711,-4.182729721069336,-1.0205223560333252,-4.8102707862854,-6.068549633026123,-4.416666507720947,-2.281843900680542,0.5158164501190186,-5.521087646484375,-5.103485584259033,1.250056266784668,1.3042981624603271,4.654290676116943,2.551130533218384,0.05663711205124855,2.163209915161133,1.538466453552246
96,4.745110034942627,-2.154406785964966,-1.5122945308685303,-0.9830712676048279,-2.066793918609619,-5.428149223327637,-1.631662130355835,-1.0474656820297241,-2.851595163345337,-1.6528773307800293,-4.290372848510742,2.570528507232666,5.63831901550293,6.560276508331299,0.49230122566223145,2.502633571624756,3.636209726333618,5.955143928527832,5.857150554656982,2.5410518646240234,4.711399078369141,5.061238765716553,2.686568260192871,-5.061071872711182,-4.203914642333984,-1.026492953300476,-4.840577602386475,-6.033107757568359,-4.474884986877441,-2.2603516578674316,0.495301216840744,-5.528085708618164,-5.116847038269043,1.2766119241714478,1.3109482526779175,4.633971691131592,2.527015209197998,0.03571821749210358,2.1843552589416504,1.5315730571746826
97,4.698226451873779,-2.1505391597747803,-1.5329036712646484,-0.981964647769928,-2.0725531578063965,-5.413119792938232,-1.6363129615783691,-1.0739152431488037,-2.8422155380249023,-1.6501386165618896,-4.289530277252197,2.564363718032837,5.639161586761475,6.563014984130859,0.5016807317733765,2.4761838912963867,3.692460298538208,5.91868782043457,5.877577781677246,2.5461864471435547,4.73312520980835,5.091037750244141,2.6593363285064697,-5.031272888183594,-4.182188510894775,-1.019917368888855,-4.811868190765381,-6.070218563079834,-4.418634414672852,-2.2827837467193604,0.518783450126648,-5.522075176239014,-5.103154182434082,1.2503560781478882,1.3062974214553833,4.657168388366699,2.557708978652954,0.05213700234889984,2.1637461185455322,1.5354405641555786
98,4.74372673034668,-2.156435012817383,-1.5126569271087646,-0.9828841090202332,-2.0662953853607178,-5.429723262786865,-1.6321303844451904,-1.0479480028152466,-2.8496899604797363,-1.6503076553344727,-4.288764953613281,2.5640628337860107,5.639926910400391,6.562845706939697,0.4942064881324768,2.5021512508392334,3.634222984313965,5.955042362213135,5.861671447753906,2.5390102863311768,4.712551593780518,5.058013916015625,2.694286346435547,-5.064296722412109,-4.202762126922607,-1.0245647430419922,-4.840575218200684,-6.036079406738281,-4.476871967315674,-2.2618682384490967,0.49849000573158264,-5.529304027557373,-5.1194233894348145,1.2763569355010986,1.310479998588562,4.637953281402588,2.531780481338501,0.03261813893914223,2.183992862701416,1.5295445919036865
99,4.696906089782715,-2.153245687484741,-1.5321860313415527,-0.9845134615898132,-2.071300506591797,-5.415812015533447,-1.6347023248672485,-1.0734796524047852,-2.842125415802002,-1.647458553314209,-4.288402557373047,2.5576515197753906,5.640289306640625,6.565694808959961,0.5017709136009216,2.4766197204589844,3.688380002975464,5.920771598815918,5.879837989807129,2.542912721633911,4.7335896492004395,5.085822582244873,2.664189577102661,-5.036488056182861,-4.1817240715026855,-1.019327163696289,-4.813742637634277,-6.0711750984191895,-4.422714710235596,-2.2836220264434814,0.5214201807975769,-5.523097515106201,-5.103593349456787,1.2508904933929443,1.307908058166504,4.660159111022949,2.563479423522949,0.04758265241980553,2.164463758468628,1.5327339172363281
100,4.741302967071533,-2.158684253692627,-1.5130194425582886,-0.9831957817077637,-2.0656819343566895,-5.431426525115967,-1.632031798362732,-1.0487087965011597,-2.8483879566192627,-1.6477205753326416,-4.287499904632568,2.5572738647460938,5.6411919593811035,6.565432548522949,0.49550843238830566,2.5013904571533203,3.6335742473602295,5.9541239738464355,5.8660197257995605,2.536658763885498,4.713841438293457,5.055099010467529,2.7006640434265137,-5.067211627960205,-4.201472282409668,-1.0233973264694214,-4.840325355529785,-6.039642333984375,-4.47752046585083,-2.2635231018066406,0.5022281408309937,-5.530150890350342,-5.1209540367126465,1.2757173776626587,1.3105785846710205,4.6424970626831055,2.537656784057617,0.029675666242837906,2.1836304664611816,1.5272955894470215
101,4.697302341461182,-2.1555745601654053,-1.531390905380249,-0.9862973690032959,-2.070274829864502,-5.418802738189697,-1.6335573196411133,-1.0728843212127686,-2.841787576675415,-1.6449192762374878,-4.287148952484131,2.5508458614349365,5.641542911529541,6.568233966827393,0.5021089315414429,2.477214813232422,3.682948350906372,5.923096656799316,5.881987571716309,2.540099620819092,4.733993053436279,5.080328464508057,2.6706392765045166,-5.041982173919678,-4.181320667266846,-1.018711805343628,-4.815670967102051,-6.071602821350098,-4.4281463623046875,-2.284363269805908,0.5237616300582886,-5.524035930633545,-5.104767799377441,1.2515541315078735,1.3090530633926392,4.663418292999268,2.5684213638305664,0.043225038796663284,2.1652588844299316,1.530405044555664
102,4.738354206085205,-2.1611075401306152,-1.5133079290390015,-0.9841232895851135,-2.064952850341797,-5.433411121368408,-1.631366491317749,-1.0496376752853394,-2.847728729248047,-1.6451154947280884,-4.286600112915039,2.550262928009033,5.642091751098633,6.568037509918213,0.4961678087711334,2.5004615783691406,3.6336536407470703,5.952709197998047,5.869953155517578,2.534193992614746,4.715144634246826,5.052277088165283,2.705758571624756,-5.070033550262451,-4.200169086456299,-1.022870421409607,-4.839977264404297,-6.043440818786621,-4.477441310882568,-2.2651803493499756,0.5062674283981323,-5.530619144439697,-5.12149715423584,1.2747890949249268,1.3112438917160034,4.647466659545898,2.544343948364258,0.026776684448122978,2.1833419799804688,1.5248721837997437
103,4.698940277099609,-2.1575329303741455,-1.5306482315063477,-0.9873156547546387,-2.0694339275360107,-5.422058582305908,-1.6328622102737427,-1.0723025798797607,-2.841160297393799,-1.6424880027770996,-4.285818099975586,2.5440030097961426,5.642873764038086,6.570664882659912,0.5027364492416382,2.4777965545654297,3.676931381225586,5.92535924911499,5.884198188781738,2.53786039352417,4.734396934509277,5.074806213378906,2.678245782852173,-5.047504425048828,-4.180916786193848,-1.0180455446243286,-4.817374229431152,-6.071789741516113,-4.434164047241211,-2.2850658893585205,0.5259057879447937,-5.524840831756592,-5.1064982414245605,1.25217866897583,1.3097481727600098,4.66708517074585,2.5727689266204834,0.03922175243496895,2.166001796722412,1.528446912765503
104,4.735342502593994,-2.1636571884155273,-1.5134409666061401,-0.9856706857681274,-2.0641086101531982,-5.435848236083984,-1.6302106380462646,-1.0505893230438232,-2.84765625,-1.6425014734268188,-4.286004066467285,2.543138265609741,5.642687797546387,6.570651531219482,0.49624064564704895,2.499509811401367,3.6340136528015137,5.951135635375977,5.873377323150635,2.5317647457122803,4.716333866119385,5.049318313598633,2.709895133972168,-5.072992324829102,-4.19897985458374,-1.022883653640747,-4.839663982391357,-6.047142028808594,-4.477081775665283,-2.26670503616333,0.5103739500045776,-5.530823230743408,-5.121286392211914,1.2737175226211548,1.3123998641967773,4.652693271636963,2.5514886379241943,0.023774776607751846,2.18320894241333,1.522322654724121
105,4.701328754425049,-2.1591498851776123,-1.5300699472427368,-0.9876883029937744,-2.0687482357025146,-5.425576686859131,-1.6325819492340088,-1.071892499923706,-2.8402304649353027,-1.6401395797729492,-4.284440994262695,2.5371649265289307,5.644250869750977,6.5730133056640625,0.5036666393280029,2.4782066345214844,3.6708109378814697,5.927334308624268,5.886638164520264,2.5362708568573,4.734884262084961,5.069444179534912,2.6865835189819336,-5.052866458892822,-4.180429458618164,-1.0173043012619019,-4.81863260269165,-6.071990489959717,-4.440284729003906,-2.285816192626953,0.5279541611671448,-5.525535583496094,-5.108615875244141,1.2526071071624756,1.3100285530090332,4.671237468719482,2.576796531677246,0.035609643906354904,2.1665799617767334,1.5268299579620361
106,4.732489585876465,-2.166323661804199,-1.5133380889892578,-0.9878138303756714,-2.063143014907837,-5.438884735107422,-1.6286160945892334,-1.0514345169067383,-2.8481130599975586,-1.6398924589157104,-4.285632133483887,2.5359811782836914,5.643059730529785,6.573260307312012,0.4957839846611023,2.498664379119873,3.63443660736084,5.949637413024902,5.876302719116211,2.5294249057769775,4.717313766479492,5.0460615158081055,2.7133803367614746,-5.076249122619629,-4.197999954223633,-1.023412823677063,-4.839488506317139,-6.050540447235107,-4.476658821105957,-2.2679967880249023,0.5144075751304626,-5.53091287612915,-5.120534896850586,1.272632122039795,1.3139944076538086,4.65802526473999,2.5588595867156982,0.020521361380815506,2.183311700820923,1.5196561813354492
107,4.704146862030029,-2.1604366302490234,-1.529739260673523,-0.9875020384788513,-2.068237066268921,-5.4293622970581055,-1.6327157020568848,-1.0717664957046509,-2.8389596939086914,-1.6378660202026367,-4.283003807067871,2.530358076095581,5.645688056945801,6.575286865234375,0.5049372315406799,2.478332281112671,3.6647541522979736,5.928900241851807,5.889462471008301,2.5353946685791016,4.735544681549072,5.0643720626831055,2.6954500675201416,-5.057938575744629,-4.179769039154053,-1.0164481401443481,-4.819307804107666,-6.072379112243652,-4.446341037750244,-2.2867090702056885,0.5299749970436096,-5.526181697845459,-5.111058235168457,1.252724528312683,1.3098948001861572,4.67590856552124,2.5806853771209717,0.03236057981848717,2.166910409927368,1.5255433320999146
108,4.7297821044921875,-2.1691482067108154,-1.5129114389419556,-0.9905835390090942,-2.062044858932495,-5.442630290985107,-1.6265496015548706,-1.05207097530365,-2.8491032123565674,-1.6372989416122437,-4.285425662994385,2.5288314819335938,5.643266201019287,6.575854301452637,0.4947936534881592,2.498027801513672,3.634904623031616,5.948342800140381,5.878758430480957,2.527137279510498,4.718017578125,5.042416095733643,2.7163426876068115,-5.079894542694092,-4.197296142578125,-1.0245167016983032,-4.839552879333496,-6.053555011749268,-4.476190567016602,-2.2689907550811768,0.5183210968971252,-5.531014919281006,-5.119329452514648,1.2716227769851685,1.3160609006881714,4.663341999053955,2.5663950443267822,0.016862928867340088,2.1837382316589355,1.5168317556381226
109,4.7072930335998535,-2.1613597869873047,-1.5297261476516724,-0.9867185950279236,-2.0679824352264404,-5.43340539932251,-1.6333305835723877,-1.0720038414001465,-2.8372457027435303,-1.6356775760650635,-4.281440734863281,2.5235934257507324,5.647251129150391,6.5774760246276855,0.5066512823104858,2.4780948162078857,3.6586785316467285,5.9300103187561035,5.892845630645752,2.53532338142395,4.736474990844727,5.059690475463867,2.704908847808838,-5.062620162963867,-4.178838729858398,-1.0153918266296387,-4.819310188293457,-6.073068141937256,-4.45241641998291,-2.2878475189208984,0.5319849252700806,-5.526852607727051,-5.113894939422607,1.2524495124816895,1.3092799186706543,4.681120872497559,2.584484100341797,0.029445189982652664,2.1669235229492188,1.5246202945709229
110,4.727028846740723,-2.1722257137298584,-1.512048602104187,-0.9941181540489197,-2.0607993602752686,-5.447176933288574,-1.6238640546798706,-1.0524097681045532,-2.850719690322876,-1.6347273588180542,-4.285356521606445,2.5216875076293945,5.643335342407227,6.578425884246826,0.4931771159172058,2.4976890087127686,3.635575771331787,5.947308540344238,5.880740165710449,2.5247802734375,4.718390464782715,5.038326263427734,2.7186708450317383,-5.083984375,-4.19692325592041,-1.0263346433639526,-4.839989185333252,-6.056180477142334,-4.475519180297852,-2.2696354389190674,0.5221332311630249,-5.531220436096191,-5.117593288421631,1.2707453966140747,1.3187464475631714,4.6685357093811035,2.574186325073242,0.012618380598723888,2.184601068496704,1.5137543678283691
111,4.710893154144287,-2.1618282794952393,-1.5301074981689453,-0.9851322174072266,-2.0681395530700684,-5.437668800354004,-1.6345887184143066,-1.0726730823516846,-2.834890365600586,-1.633606195449829,-4.279637813568115,2.516871452331543,5.649054050445557,6.579546928405762,0.5090063810348511,2.4774258136749268,3.652299165725708,5.93064022064209,5.897029876708984,2.536206007003784,4.737786293029785,5.055511951446533,2.715275287628174,-5.066798686981201,-4.17752742767334,-1.013978362083435,-4.818548679351807,-6.074155807495117,-4.458795547485352,-2.289346218109131,0.5339425206184387,-5.527625560760498,-5.117342948913574,1.251712441444397,1.3080217838287354,4.686914443969727,2.5881059169769287,0.02686966396868229,2.1665422916412354,1.5241516828536987
112,4.723896503448486,-2.1757009029388428,-1.5105938911437988,-0.9986933469772339,-2.0593912601470947,-5.452624797821045,-1.6202812194824219,-1.0523600578308105,-2.853152275085449,-1.6321874856948853,-4.285419464111328,2.514512300491333,5.643272399902344,6.580965518951416,0.4907445013523102,2.497738838195801,3.6367955207824707,5.946566104888916,5.882188320159912,2.522134780883789,4.7183732986450195,5.033741474151611,2.719967842102051,-5.088569164276123,-4.1969404220581055,-1.029102087020874,-4.840982913970947,-6.058447360992432,-4.474299430847168,-2.2698795795440674,0.5259109735488892,-5.531595706939697,-5.115067005157471,1.2700326442718506,1.3223292827606201,4.673491954803467,2.582462787628174,0.007551074959337711,2.186055898666382,1.5102790594100952
113,4.715332508087158,-2.161687135696411,-1.530976414680481,-0.9823432564735413,-2.0689587593078613,-5.442087650299072,-1.6367675065994263,-1.0738483667373657,-2.8315927982330322,-1.6317200660705566,-4.277424335479736,2.5101888179779053,5.6512675285339355,6.581433296203613,0.5123039484024048,2.476250648498535,3.6451241970062256,5.930756568908691,5.902384281158447,2.538264513015747,4.739611625671387,5.0519938468933105,2.7270987033843994,-5.070316791534424,-4.175702095031738,-1.0119680166244507,-4.816893577575684,-6.0757646560668945,-4.465970993041992,-2.2913401126861572,0.5357378721237183,-5.528594970703125,-5.121786117553711,1.250440001487732,1.3058429956436157,4.693356037139893,2.591317892074585,0.024684973061084747,2.1656734943389893,1.5242927074432373
114,4.71991491317749,-2.1797525882720947,-1.5083377361297607,-1.0047041177749634,-2.0578129291534424,-5.459112167358398,-1.615393042564392,-1.0518274307250977,-2.856668710708618,-1.6297167539596558,-4.285602569580078,2.5072338581085205,5.643089294433594,6.583436489105225,0.4872279167175293,2.4982717037200928,3.639141798019409,5.946136951446533,5.883009433746338,2.518861770629883,4.717912197113037,5.028615951538086,2.7195165157318115,-5.093694686889648,-4.197401523590088,-1.0331717729568481,-4.842776775360107,-6.060415744781494,-4.471953392028809,-2.2696778774261475,0.5297728776931763,-5.532203674316406,-5.111289978027344,1.269494652748108,1.32721745967865,4.678070545196533,2.5915961265563965,0.0013502020156010985,2.18831205368042,1.5062272548675537
115,4.721286773681641,-2.1607346534729004,-1.5324105024337769,-0.977791965007782,-2.070810317993164,-5.446593761444092,-1.640231966972351,-1.0755976438522339,-2.8270013332366943,-1.630156397819519,-4.274575710296631,2.503544569015503,5.654116153717041,6.582996845245361,0.5168952941894531,2.474501609802246,3.6364355087280273,5.930289268493652,5.909430503845215,2.541738271713257,4.742096900939941,5.049358367919922,2.741058111190796,-5.0729522705078125,-4.173216819763184,-1.009100079536438,-4.8141889572143555,-6.078073978424072,-4.474659442901611,-2.2939751148223877,0.5371809601783752,-5.5299072265625,-5.127763748168945,1.248561143875122,1.302378535270691,4.700525283813477,2.5937249660491943,0.022944046184420586,2.1642391681671143,1.5252450704574585
116,4.714555263519287,-2.1845061779022217,-1.505049467086792,-1.0124530792236328,-2.056116819381714,-5.466805934906006,-1.6087809801101685,-1.0507551431655884,-2.8614885807037354,-1.62744140625,-4.2858052253723145,2.499746561050415,5.642886638641357,6.58571195602417,0.4824080169200897,2.4993441104888916,3.6433844566345215,5.946012020111084,5.883203506469727,2.5145263671875,4.717022895812988,5.022975921630859,2.7164382934570312,-5.099334716796875,-4.198290824890137,-1.0389786958694458,-4.845602512359619,-6.062204360961914,-4.467710494995117,-2.269052028656006,0.5338879227638245,-5.533148288726807,-5.105696678161621,1.2690929174423218,1.3338295221328735,4.682134628295898,2.6020593643188477,-0.00632084533572197,2.1916000843048096,1.5014737844467163
117,4.729554653167725,-2.158844232559204,-1.5343269109725952,-0.9710864424705505,-2.074145793914795,-5.451188087463379,-1.645183801651001,-1.0779017210006714,-2.821007251739502,-1.6291663646697998,-4.270873546600342,2.4969372749328613,5.65781831741333,6.583987236022949,0.522889256477356,2.4721972942352295,3.625488519668579,5.92914342880249,5.918694496154785,2.546621799468994,4.745333671569824,5.047834396362305,2.757355213165283,-5.07447624206543,-4.169980049133301,-1.0053774118423462,-4.810401439666748,-6.081305980682373,-4.4856061935424805,-2.2973361015319824,0.5380249619483948,-5.531827926635742,-5.135700702667236,1.2460615634918213,1.297426700592041,4.708432674407959,2.5948894023895264,0.02153010666370392,2.162322759628296,1.5271357297897339
118,4.707729816436768,-2.189754009246826,-1.5006494522094727,-1.0213693380355835,-2.054548501968384,-5.475775718688965,-1.6005526781082153,-1.049251914024353,-2.867335796356201,-1.6256895065307617,-4.2856879234313965,2.491936206817627,5.643003940582275,6.587463855743408,0.4765607416629791,2.5008468627929688,3.649913787841797,5.946073532104492,5.8832550048828125,2.508898973464966,4.715956687927246,5.017136096954346,2.7106831073760986,-5.105174541473389,-4.199357032775879,-1.0467088222503662,-4.8494038581848145,-6.064083576202393,-4.461180686950684,-2.268249273300171,0.5383767485618591,-5.5346598625183105,-5.098205089569092,1.268691062927246,1.3420578241348267,4.685696125030518,2.614133358001709,-0.015544697642326355,2.196000337600708,1.4962260723114014
119,4.740005970001221,-2.156343936920166,-1.5361316204071045,-0.963078498840332,-2.0791773796081543,-5.456120014190674,-1.6508519649505615,-1.0804684162139893,-2.8145344257354736,-1.6290887594223022,-4.266385078430176,2.490316390991211,5.662306785583496,6.584064960479736,0.5293620228767395,2.469630479812622,3.6126201152801514,5.9273271560668945,5.9300312995910645,2.551990270614624,4.749152660369873,5.047364234924316,2.773927688598633,-5.074946403503418,-4.166161060333252,-1.0017887353897095,-4.806074619293213,-6.085556983947754,-4.498474597930908,-2.301248788833618,0.5381740927696228,-5.534786701202393,-5.144877910614014,1.243105173110962,1.2917585372924805,4.71681022644043,2.595022201538086,0.019759925082325935,2.160518169403076,1.5296361446380615
120,4.701174259185791,-2.194476366043091,-1.4956045150756836,-1.0286600589752197,-2.0537474155426025,-5.485640525817871,-1.5925123691558838,-1.0477849245071411,-2.8726394176483154,-1.6250208616256714,-4.284564018249512,2.483811140060425,5.64412784576416,6.588132858276367,0.47125715017318726,2.5023140907287598,3.656843423843384,5.945991039276123,5.884762287139893,2.5029349327087402,4.715397357940674,5.011997222900391,2.705185890197754,-5.110313415527344,-4.199916362762451,-1.055268406867981,-4.853309631347656,-6.066526412963867,-4.454250812530518,-2.2679214477539062,0.5428997278213501,-5.537188529968262,-5.090732097625732,1.2680482864379883,1.3500981330871582,4.689248561859131,2.6270313262939453,-0.025471637025475502,2.201045274734497,1.4915035963058472
121,4.749422073364258,-2.154547929763794,-1.5364209413528442,-0.9569931626319885,-2.0850608348846436,-5.462062835693359,-1.6545536518096924,-1.082582712173462,-2.8102550506591797,-1.6299554109573364,-4.261984348297119,2.4834742546081543,5.666707515716553,6.583198547363281,0.5336415767669678,2.4675161838531494,3.6013455390930176,5.9252800941467285,5.941464424133301,2.555511713027954,4.752837181091309,5.047032833099365,2.7851521968841553,-5.075277805328369,-4.162476539611816,-1.0007652044296265,-4.802865028381348,-6.0903706550598145,-4.509748935699463,-2.305016040802002,0.5381577014923096,-5.539092540740967,-5.151978015899658,1.240144968032837,1.2880568504333496,4.724888324737549,2.596450090408325,0.01614275947213173,2.160228729248047,1.5314319133758545
122,4.698770999908447,-2.197049379348755,-1.4911185503005981,-1.0301885604858398,-2.054551601409912,-5.49531364440918,-1.5882004499435425,-1.0470988750457764,-2.874786138534546,-1.6256099939346313,-4.2820234298706055,2.475729465484619,5.646668434143066,6.587543964385986,0.46911048889160156,2.503000020980835,3.65891432762146,5.945444583892822,5.889827251434326,2.499685049057007,4.716163158416748,5.008636951446533,2.7052502632141113,-5.113673686981201,-4.199150562286377,-1.0613948106765747,-4.855717182159424,-6.069825172424316,-4.4521803855896,-2.2688539028167725,0.5462043285369873,-5.5411224365234375,-5.087519645690918,1.266964077949524,1.3544100522994995,4.69389009475708,2.6384310722351074,-0.034100309014320374,2.205531120300293,1.488930583000183
123,4.752728462219238,-2.155141830444336,-1.5339274406433105,-0.9559521675109863,-2.0897741317749023,-5.4696946144104,-1.6535329818725586,-1.0835222005844116,-2.810568332672119,-1.6307616233825684,-4.259134292602539,2.4761128425598145,5.669557571411133,6.582392692565918,0.5333282947540283,2.46657657623291,3.596489667892456,5.924028396606445,5.949845314025879,2.5555131435394287,4.75529670715332,5.045208930969238,2.7871623039245605,-5.077101707458496,-4.160017013549805,-1.0039069652557373,-4.802649021148682,-6.094542503356934,-4.5146050453186035,-2.3076210021972656,0.5388998985290527,-5.544059753417969,-5.153323173522949,1.2377415895462036,1.2890775203704834,4.731820583343506,2.602830171585083,0.009512227028608322,2.16272234916687,1.530838131904602
124,4.7016377449035645,-2.1971285343170166,-1.488260269165039,-1.0254604816436768,-2.057063341140747,-5.503780364990234,-1.5890244245529175,-1.0476689338684082,-2.872905969619751,-1.6262611150741577,-4.279015064239502,2.46809720993042,5.64967679977417,6.586893558502197,0.4709905683994293,2.502429723739624,3.6535661220550537,5.9448113441467285,5.89816427230835,2.501667022705078,4.718285083770752,5.006804466247559,2.7122766971588135,-5.115506172180176,-4.197028636932373,-1.062472939491272,-4.855926513671875,-6.073328495025635,-4.457529067993164,-2.2711169719696045,0.5473093390464783,-5.54583740234375,-5.09033203125,1.2652913331985474,1.3535860776901245,4.700436592102051,2.6469602584838867,-0.04019875079393387,2.2083895206451416,1.4888514280319214
125,4.7495951652526855,-2.158219337463379,-1.5292954444885254,-0.9588135480880737,-2.0922884941101074,-5.4788289070129395,-1.6487081050872803,-1.0833348035812378,-2.8142237663269043,-1.6300290822982788,-4.258338451385498,2.4681966304779053,5.670353412628174,6.583125591278076,0.5296728610992432,2.466763734817505,3.597395181655884,5.9243550300598145,5.95405387878418,2.553595781326294,4.756025314331055,5.041141510009766,2.783914804458618,-5.081169128417969,-4.15928840637207,-1.0093932151794434,-4.805374622344971,-6.097049236297607,-4.513700008392334,-2.3086187839508057,0.5403245091438293,-5.548158168792725,-5.150041580200195,1.2361133098602295,1.2939023971557617,4.737646102905273,2.6140973567962646,0.0004616941441781819,2.1673543453216553,1.527760624885559
126,4.706061363220215,-2.1961779594421387,-1.4871169328689575,-1.0179697275161743,-2.060488224029541,-5.511075973510742,-1.5924124717712402,-1.0494648218154907,-2.8687798976898193,-1.625516653060913,-4.276790142059326,2.4606659412384033,5.651901721954346,6.5876383781433105,0.4751167595386505,2.500633716583252,3.6449215412139893,5.9447407722473145,5.907107353210449,2.5073747634887695,4.721042156219482,5.0052337646484375,2.7231709957122803,-5.117076873779297,-4.194271564483643,-1.0601394176483154,-4.854665756225586,-6.076101303100586,-4.4661736488342285,-2.274081230163574,0.5470803380012512,-5.549862861633301,-5.096234321594238,1.2628586292266846,1.3501980304718018,4.708590030670166,2.6538310050964355,-0.044694237411022186,2.2095329761505127,1.4898018836975098
127,4.743901252746582,-2.162566900253296,-1.5242903232574463,-0.9623692631721497,-2.093273401260376,-5.488694190979004,-1.6428611278533936,-1.0826692581176758,-2.8184194564819336,-1.6275091171264648,-4.258934020996094,2.4598476886749268,5.669757843017578,6.58564567565918,0.5254772901535034,2.4674293994903564,3.599735975265503,5.92603063583374,5.9553046226501465,2.5520520210266113,4.755428314208984,5.035471439361572,2.7815937995910645,-5.086839199066162,-4.159885406494141,-1.014906406402588,-4.809442520141602,-6.097928047180176,-4.511359214782715,-2.308401346206665,0.5417632460594177,-5.550750732421875,-5.145853042602539,1.235061526298523,1.2997493743896484,4.743040084838867,2.626795530319214,-0.00965130515396595,2.1723597049713135,1.5234129428863525
128,4.709040641784668,-2.1955080032348633,-1.4871975183486938,-1.0105762481689453,-2.063937187194824,-5.517890930175781,-1.5956131219863892,-1.0521539449691772,-2.864330291748047,-1.6232872009277344,-4.27548360824585,2.4529011249542236,5.653208255767822,6.58986759185791,0.479566365480423,2.4979445934295654,3.636887311935425,5.945157051086426,5.914646148681641,2.5140573978424072,4.723817825317383,5.003190040588379,2.7351632118225098,-5.1191205978393555,-4.191495895385742,-1.0573608875274658,-4.852844715118408,-6.078085422515869,-4.474207878112793,-2.277163028717041,0.5468761920928955,-5.552510738372803,-5.102207183837891,1.2597602605819702,1.3469973802566528,4.717535495758057,2.6605193614959717,-0.049069423228502274,2.2094523906707764,1.4904718399047852
129,4.738367080688477,-2.1672585010528564,-1.5200166702270508,-0.964911937713623,-2.0934712886810303,-5.498733043670654,-1.6373990774154663,-1.082114577293396,-2.821866989135742,-1.6239749193191528,-4.2601118087768555,2.451108932495117,5.668580055236816,6.589179992675781,0.5220297574996948,2.4679839611053467,3.600896120071411,5.928277969360352,5.9550886154174805,2.5516278743743896,4.754197597503662,5.0290327072143555,2.78269100189209,-5.093277931213379,-4.161116123199463,-1.0198410749435425,-4.813467502593994,-6.097865581512451,-4.510199069976807,-2.307607889175415,0.543046772480011,-5.552260875701904,-5.142706394195557,1.2342606782913208,1.3052114248275757,4.748541831970215,2.6387176513671875,-0.019985469058156013,2.17663311958313,1.518721342086792
130,4.710093021392822,-2.195573329925537,-1.487966537475586,-1.00426185131073,-2.0668187141418457,-5.524823188781738,-1.5975738763809204,-1.0553226470947266,-2.860461711883545,-1.620251178741455,-4.274683952331543,2.444547653198242,5.654007911682129,6.5929036140441895,0.4834352433681488,2.4947760105133057,3.630239963531494,5.94565486907959,5.92026424407959,2.520406484603882,4.726324558258057,5.0004143714904785,2.747110366821289,-5.121896266937256,-4.188989162445068,-1.055611491203308,-4.85096549987793,-6.079654693603516,-4.480855464935303,-2.280047655105591,0.5473593473434448,-5.554121017456055,-5.107155799865723,1.2563334703445435,1.3450366258621216,4.726696968078613,2.6676344871520996,-0.054133862257003784,2.2086830139160156,1.4904065132141113
