,0,1,2,3,4,5,6,7,8,9,10,11,12,13,14,15,16,17,18,19,20,21,22,23,24,25,26,27,28,29,30,31,32,33,34,35,36,37,38,39
0,5.942265033721924,-4.831423282623291,-0.1515992283821106,-0.3656627833843231,-1.3853894472122192,-2.568767786026001,-2.51177716255188,-6.156942367553711,-1.8080525398254395,-0.511639416217804,-5.942265033721924,0.511639416217804,1.5672906637191772,2.0490212440490723,1.174522042274475,0.8200045228004456,2.4944310188293457,5.7174787521362305,5.447853088378906,5.897085666656494,1.038199543952942,2.443406105041504,1.8080525398254395,-2.443406105041504,-1.038199543952942,-5.897085666656494,-5.447853088378906,-5.7174787521362305,-2.4944310188293457,-0.8200045228004456,-1.174522042274475,-2.0490212440490723,-1.5672906637191772,6.156942367553711,2.51177716255188,2.568767786026001,1.3853894472122192,0.3656627833843231,0.1515992283821106,4.831423282623291
1,5.994741916656494,-4.883900165557861,-0.09912277013063431,-0.31318625807762146,-1.437865972518921,-2.621244192123413,-2.564253330230713,-6.104465961456299,-1.8605290651321411,-0.5641159415245056,-5.8897881507873535,0.4591628909111023,1.619767189025879,1.9965447187423706,1.1220455169677734,0.8724809885025024,2.4419546127319336,5.769954681396484,5.500329494476318,5.844609260559082,1.0906760692596436,2.390929698944092,1.7555760145187378,-2.495882511138916,-0.9857230186462402,-5.949562072753906,-5.395376682281494,-5.665002822875977,-2.546907424926758,-0.7675280570983887,-1.2269985675811768,-2.1014976501464844,-1.5148141384124756,6.209418773651123,2.459300994873047,2.516291379928589,1.3329129219055176,0.4181393086910248,0.20407569408416748,4.778946399688721
2,6.019566535949707,-4.919179916381836,-0.08078678697347641,-0.2802976369857788,-1.4731671810150146,-2.5762381553649902,-2.6130473613739014,-6.076530456542969,-1.9037652015686035,-0.6096650958061218,-5.867185592651367,0.41467273235321045,1.6423696279525757,1.9509955644607544,1.078809380531311,0.9004164934158325,2.3908472061157227,5.821948528289795,5.552023410797119,5.803225994110107,1.1382768154144287,2.338808059692383,1.7185828685760498,-2.548004150390625,-0.9381223320960999,-5.9916558265686035,-5.343985557556152,-5.612877368927002,-2.5980148315429688,-0.7545803189277649,-1.2726716995239258,-2.147947072982788,-1.492296576499939,6.243669033050537,2.4105069637298584,2.5570998191833496,1.299527645111084,0.4474659562110901,0.22241169214248657,4.743666648864746
3,6.021061897277832,-4.943493366241455,-0.033020712435245514,-0.23202160000801086,-1.468700647354126,-2.5263326168060303,-2.581042766571045,-6.027321815490723,-1.9475586414337158,-0.6505873799324036,-5.870426177978516,0.37436261773109436,1.6391290426254272,1.9100732803344727,1.0350159406661987,0.9496249556541443,2.3468708992004395,5.875373363494873,5.601405620574951,5.757672309875488,1.1735930442810059,2.2889914512634277,1.6796343326568604,-2.59782075881958,-0.9028061032295227,-6.0270795822143555,-5.296036720275879,-5.560772895812988,-2.641991138458252,-0.7107722163200378,-1.3143210411071777,-2.189746856689453,-1.49577796459198,6.293513298034668,2.442511558532715,2.60602068901062,1.309151291847229,0.49334368109703064,0.2701777517795563,4.719353199005127
4,5.998600959777832,-4.963340759277344,-0.07149280607700348,-0.18553543090820312,-1.454832911491394,-2.470919370651245,-2.5470824241638184,-6.061251163482666,-1.9969285726547241,-0.6894468069076538,-5.894825458526611,0.33552831411361694,1.6147297620773315,1.8712139129638672,0.9856460094451904,0.9156957268714905,2.2982354164123535,5.92350959777832,5.638050556182861,5.716444969177246,1.221848726272583,2.2402138710021973,1.6390175819396973,-2.6465983390808105,-0.8545503616333008,-6.0520219802856445,-5.2574920654296875,-5.5116376876831055,-2.690626621246338,-0.7601243853569031,-1.361904501914978,-2.2294342517852783,-1.5128896236419678,6.266382217407227,2.4764719009399414,2.662144422531128,1.3290462493896484,0.5384174585342407,0.2317056655883789,4.699505805969238
5,5.966153144836426,-4.957698345184326,-0.016531342640519142,-0.13248656690120697,-1.4483901262283325,-2.4309046268463135,-2.492272138595581,-6.005124568939209,-2.0534679889678955,-0.7251462340354919,-5.928738594055176,0.3037700951099396,1.5808167457580566,1.8355144262313843,0.9291064739227295,0.9718220829963684,2.253269910812378,5.974853992462158,5.670839309692383,5.663562297821045,1.2044239044189453,2.195575714111328,1.580879807472229,-2.6912364959716797,-0.871975302696228,-6.103914737701416,-5.23478364944458,-5.471646308898926,-2.7355921268463135,-0.7066676616668701,-1.412453055381775,-2.2691032886505127,-1.552658200263977,6.322822570800781,2.531282424926758,2.7009592056274414,1.3413256406784058,0.5895676612854004,0.286667138338089,4.705148220062256
6,5.923552513122559,-4.949173927307129,-0.07513058185577393,-0.09822093695402145,-1.4592913389205933,-2.3804991245269775,-2.478300094604492,-6.062262058258057,-2.1019654273986816,-0.7472413182258606,-5.964043140411377,0.27800172567367554,1.5455121994018555,1.8134193420410156,0.880608856678009,0.914684534072876,2.2068331241607666,6.007772445678711,5.659156799316406,5.64882230758667,1.2482805252075195,2.1507906913757324,1.5383938550949097,-2.7360215187072754,-0.8281185626983643,-6.131491661071777,-5.223293781280518,-5.443439960479736,-2.782028913497925,-0.762721836566925,-1.4632196426391602,-2.2930259704589844,-1.5797021389007568,6.267548084259033,2.5452544689178467,2.7517342567443848,1.3368048667907715,0.6257092356681824,0.22806788980960846,4.713672637939453
7,5.905941486358643,-4.920165538787842,-0.016519900411367416,-0.06557593494653702,-1.5028852224349976,-2.355433464050293,-2.40813946723938,-6.003223896026611,-2.135300636291504,-0.7445793151855469,-5.975910186767578,0.29112958908081055,1.5336453914642334,1.8160814046859741,0.8472736477851868,0.9737229347229004,2.207144260406494,6.0572943687438965,5.652228355407715,5.6071085929870605,1.1858668327331543,2.116572380065918,1.5121960639953613,-2.77023983001709,-0.8905321955680847,-6.184383869171143,-5.252781391143799,-5.429321765899658,-2.7817177772521973,-0.6989710330963135,-1.484270691871643,-2.3082244396209717,-1.6081584692001343,6.327103137969971,2.615415096282959,2.7728488445281982,1.2968276739120483,0.6607851982116699,0.28667858242988586,4.74268102645874
8,5.867605686187744,-4.91957950592041,-0.060764096677303314,-0.057505346834659576,-1.5017162561416626,-2.3127927780151367,-2.4116601943969727,-6.047037124633789,-2.168534517288208,-0.7389788031578064,-5.994700908660889,0.2826101779937744,1.5148547887802124,1.8216819763183594,0.8140397071838379,0.9299095273017883,2.1649322509765625,6.071263790130615,5.611908912658691,5.655057430267334,1.2098968029022217,2.0774407386779785,1.4903600215911865,-2.8093714714050293,-0.8665021657943726,-6.187634468078613,-5.274146556854248,-5.423476219177246,-2.823929786682129,-0.7369856834411621,-1.5322577953338623,-2.2986507415771484,-1.6084119081497192,6.284900665283203,2.611894369125366,2.816088914871216,1.3026432991027832,0.6726287007331848,0.24243438243865967,4.743267059326172
9,5.853209018707275,-4.895138740539551,-0.021307624876499176,-0.05069609731435776,-1.5466006994247437,-2.2920093536376953,-2.3571557998657227,-6.0072340965271,-2.177964448928833,-0.7105140686035156,-5.989119052886963,0.31447455286979675,1.5204368829727173,1.850146770477295,0.8046098947525024,0.9697125554084778,2.179433584213257,6.118350028991699,5.599206447601318,5.643208026885986,1.1615004539489746,2.0458273887634277,1.490150809288025,-2.84098482131958,-0.9148985147476196,-6.236972808837891,-5.300975322723389,-5.417392253875732,-2.8094284534454346,-0.6932340860366821,-1.5360602140426636,-2.2807962894439697,-1.6094694137573242,6.325328826904297,2.666398763656616,2.833301544189453,1.2607605457305908,0.6850383877754211,0.2818908393383026,4.767707824707031
10,5.82012414932251,-4.903382778167725,-0.055994607508182526,-0.06098553538322449,-1.5264434814453125,-2.259310007095337,-2.366863489151001,-6.041782379150391,-2.196445941925049,-0.6939769387245178,-5.997001647949219,0.3063207268714905,1.5125539302825928,1.8666839599609375,0.7861282825469971,0.9351643919944763,2.1372880935668945,6.130972862243652,5.573700904846191,5.697094917297363,1.1853781938552856,2.0115272998809814,1.4660447835922241,-2.8752849102020264,-0.8910207748413086,-6.2572455406188965,-5.314010143280029,-5.415280342102051,-2.851573944091797,-0.7249431014060974,-1.5747548341751099,-2.2537965774536133,-1.5916589498519897,6.291681289672852,2.656691074371338,2.8671300411224365,1.2820948362350464,0.6771462559700012,0.24720382690429688,4.759463787078857
11,5.805129051208496,-4.885739803314209,-0.018549658358097076,-0.06730891019105911,-1.562625527381897,-2.2477822303771973,-2.3253273963928223,-6.0041632652282715,-2.1923985481262207,-0.6626748442649841,-5.986306190490723,0.337877094745636,1.5232493877410889,1.8979860544204712,0.7901754975318909,0.9727835059165955,2.152022123336792,6.183357238769531,5.57606840133667,5.690952777862549,1.1454743146896362,1.9841949939727783,1.4602853059768677,-2.9026172161102295,-0.930924654006958,-6.304900646209717,-5.326867580413818,-5.4086737632751465,-2.8368399143218994,-0.6861528754234314,-1.5688103437423706,-2.228440999984741,-1.5845903158187866,6.329156875610352,2.6982271671295166,2.8752381801605225,1.2467882633209229,0.6759985089302063,0.2846487760543823,4.777106761932373
12,5.772003173828125,-4.901418209075928,-0.04966966435313225,-0.08674655109643936,-1.5350350141525269,-2.2245967388153076,-2.341358184814453,-6.035225868225098,-2.201200008392334,-0.6454322934150696,-5.994458198547363,0.32597616314888,1.5150972604751587,1.9152286052703857,0.7813738584518433,0.9417210817337036,2.108074426651001,6.195321083068848,5.564206123352051,5.739201068878174,1.1737141609191895,1.954201579093933,1.4229103326797485,-2.932610511779785,-0.9026848077774048,-6.331182956695557,-5.32903528213501,-5.4037275314331055,-2.8807876110076904,-0.7162617444992065,-1.5996158123016357,-2.1980764865875244,-1.5643441677093506,6.297579765319824,2.6821963787078857,2.898979425430298,1.2710906267166138,0.6577368378639221,0.25352874398231506,4.761428356170654
13,5.755326747894287,-4.887446880340576,-0.01149583701044321,-0.09702679514884949,-1.5657906532287598,-2.223783493041992,-2.308590888977051,-5.997013568878174,-2.190660238265991,-0.6153031587600708,-5.9826202392578125,0.35868483781814575,1.5269349813461304,1.9453577995300293,0.7919136881828308,0.9799330234527588,2.127776622772217,6.251596450805664,5.573422431945801,5.725342273712158,1.1380478143692017,1.932482123374939,1.4054607152938843,-2.9543299674987793,-0.9383512139320374,-6.36654806137085,-5.339031219482422,-5.3959197998046875,-2.8610854148864746,-0.6784003376960754,-1.5846788883209229,-2.1735594272613525,-1.559739351272583,6.334542751312256,2.714963674545288,2.8953537940979004,1.237746238708496,0.6528544425964355,0.2917025685310364,4.775399684906006
14,5.720796585083008,-4.908754348754883,-0.04265650361776352,-0.12034402042627335,-1.5375138521194458,-2.208416700363159,-2.331678867340088,-6.028172016143799,-2.1954758167266846,-0.6011812686920166,-5.993560314178467,0.34502068161964417,1.5159945487976074,1.9594796895980835,0.7870981097221375,0.9487748742103577,2.0854480266571045,6.25717306137085,5.5675883293151855,5.767282962799072,1.1708424091339111,1.907617449760437,1.358403205871582,-2.9791948795318604,-0.9055566191673279,-6.387138843536377,-5.336040019989014,-5.388325214385986,-2.903414011001587,-0.7096928954124451,-1.6108001470565796,-2.143411636352539,-1.5418542623519897,6.301595687866211,2.691875696182251,2.910244941711426,1.2577723264694214,0.6306012272834778,0.2605419456958771,4.754092216491699
15,5.704215049743652,-4.89678430557251,-0.003934457898139954,-0.12981465458869934,-1.5656499862670898,-2.216888427734375,-2.307145833969116,-5.989500999450684,-2.181983709335327,-0.5738031268119812,-5.979893207550049,0.38032999634742737,1.5296618938446045,1.9868577718734741,0.8005902767181396,0.9874462485313416,2.112722635269165,6.312498092651367,5.579122066497803,5.745333671569824,1.137471079826355,1.8924357891082764,1.334105372428894,-2.9943764209747314,-0.9389278888702393,-6.40377950668335,-5.348514080047607,-5.380723476409912,-2.8761394023895264,-0.6721943020820618,-1.589093804359436,-2.122037649154663,-1.5410997867584229,6.3380126953125,2.7164087295532227,2.896207094192505,1.2236418724060059,0.6280234456062317,0.29926398396492004,4.766062259674072
16,5.669230937957764,-4.923017978668213,-0.03597070649266243,-0.15423627197742462,-1.536431908607483,-2.206037759780884,-2.3358702659606934,-6.021594047546387,-2.1851072311401367,-0.5652139782905579,-5.992514610290527,0.3652702867984772,1.5170408487319946,1.9954469203948975,0.7974666953086853,0.955353319644928,2.073432207107544,6.308285236358643,5.576713562011719,5.7847089767456055,1.173579454421997,1.8730946779251099,1.2841325998306274,-3.0137174129486084,-0.9028195738792419,-6.414152145385742,-5.341447353363037,-5.371789455413818,-2.9154298305511475,-0.7050573825836182,-1.6131709814071655,-2.0947985649108887,-1.5250879526138306,6.3031744956970215,2.6876842975616455,2.905992269515991,1.2399519681930542,0.6055487990379333,0.26722773909568787,4.739828586578369
17,5.6545844078063965,-4.9130096435546875,0.00240524485707283,-0.16088752448558807,-1.5624921321868896,-2.220052719116211,-2.317521333694458,-5.983323574066162,-2.1693849563598633,-0.5412089824676514,-5.976206302642822,0.40211331844329834,1.5333490371704102,2.0194520950317383,0.8131889700889587,0.9936239123344421,2.1064953804016113,6.359622478485107,5.589566230773926,5.758692741394043,1.1417276859283447,1.863917589187622,1.2582353353500366,-3.0228946208953857,-0.9346712827682495,-6.412261962890625,-5.35682487487793,-5.3652262687683105,-2.88236665725708,-0.6682756543159485,-1.5873596668243408,-2.077871799468994,-1.5263588428497314,6.33848237991333,2.706033229827881,2.885995864868164,1.2054626941680908,0.6082772612571716,0.30560368299484253,4.7498369216918945
18,5.62008810043335,-4.9419403076171875,-0.02979433536529541,-0.1847696602344513,-1.5328646898269653,-2.2099766731262207,-2.3492486476898193,-6.015652656555176,-2.17116641998291,-0.5391637086868286,-5.989004135131836,0.3856775760650635,1.5205509662628174,2.0214972496032715,0.8114075064659119,0.9612947106361389,2.0705811977386475,6.347249507904053,5.589017868041992,5.79807710647583,1.1788839101791382,1.8493489027023315,1.2096657752990723,-3.0374631881713867,-0.897515058517456,-6.413087368011475,-5.346344470977783,-5.355610370635986,-2.918280839920044,-0.7016644477844238,-1.610406756401062,-2.055722951889038,-1.5109939575195312,6.3028740882873535,2.6743059158325195,2.895148515701294,1.2187914848327637,0.5880919694900513,0.2734041213989258,4.7209062576293945
19,5.607919216156006,-4.933780193328857,0.007067203521728516,-0.18794818222522736,-1.5568881034851074,-2.2253165245056152,-2.3342907428741455,-5.978928089141846,-2.153421640396118,-0.5184271931648254,-5.9704909324646,0.42235448956489563,1.5390640497207642,2.04223370552063,0.8291522860527039,0.9980196356773376,2.1063666343688965,6.394136905670166,5.601950645446777,5.772298812866211,1.148521900177002,1.844614863395691,1.184993863105774,-3.0421972274780273,-0.9278770089149475,-6.397592544555664,-5.364597320556641,-5.350307464599609,-2.882495403289795,-0.6664212942123413,-1.5832585096359253,-2.0438811779022217,-1.5127166509628296,6.336287498474121,2.6892638206481934,2.874232769012451,1.1852142810821533,0.5972139239311218,0.3102656304836273,4.729066371917725
20,5.574518203735352,-4.9623188972473145,-0.024245811626315117,-0.2102268785238266,-1.52821946144104,-2.213557720184326,-2.3672375679016113,-6.0104498863220215,-2.154096841812134,-0.5228090286254883,-5.982479095458984,0.40514612197875977,1.5270758867263794,2.0378518104553223,0.8284769654273987,0.966498076915741,2.0743114948272705,6.3778533935546875,5.6021294593811035,5.811875343322754,1.1847589015960693,1.8336577415466309,1.1396751403808594,-3.053154468536377,-0.8916400671005249,-6.392770290374756,-5.351630687713623,-5.340244293212891,-2.914550542831421,-0.6990687847137451,-1.6052916049957275,-2.027968406677246,-1.497867226600647,6.301356792449951,2.6563169956207275,2.8857011795043945,1.1958041191101074,0.580793023109436,0.27895262837409973,4.700527667999268
21,5.564445495605469,-4.955650806427002,0.010294243693351746,-0.2098763883113861,-1.5505003929138184,-2.227189540863037,-2.353440046310425,-5.976053237915039,-2.1348073482513428,-0.5048763155937195,-5.962860107421875,0.4406082034111023,1.5466947555541992,2.0557844638824463,0.8477665781974792,1.0008946657180786,2.110595941543579,6.421473979949951,5.61481237411499,5.788904666900635,1.156226396560669,1.8317067623138428,1.1175041198730469,-3.055105447769165,-0.9201725721359253,-6.370356559753418,-5.371606349945068,-5.336231708526611,-2.8782660961151123,-0.6660128235816956,-1.5789119005203247,-2.021272659301758,-1.4999229907989502,6.332409381866455,2.670114517211914,2.867413282394409,1.1640526056289673,0.5960668325424194,0.31349265575408936,4.70719575881958
22,5.532476902008057,-4.981647491455078,-0.019559603184461594,-0.2299116998910904,-1.5236868858337402,-2.212789535522461,-2.3870115280151367,-6.0061750411987305,-2.13482403755188,-0.5146524906158447,-5.973593711853027,0.423481285572052,1.5359611511230469,2.046008348464966,0.8477501273155212,0.9707727432250977,2.082665205001831,6.404987812042236,5.615410804748535,5.82795524597168,1.1907018423080444,1.8233089447021484,1.075862169265747,-3.0635032653808594,-0.8856971263885498,-6.364311695098877,-5.356621742248535,-5.325927734375,-2.9061968326568604,-0.6972492933273315,-1.599853277206421,-2.0114803314208984,-1.4861950874328613,6.2990875244140625,2.636543035507202,2.882319450378418,1.1726187467575073,0.583871066570282,0.2836388349533081,4.681199073791504
23,5.523898601531982,-4.975898742675781,0.01253083162009716,-0.22607910633087158,-1.545228362083435,-2.223234176635742,-2.372936964035034,-5.974203586578369,-2.1146178245544434,-0.4987325072288513,-5.953804016113281,0.45762088894844055,1.555750846862793,2.0619282722473145,0.8679563403129578,1.0027440786361694,2.118472099304199,6.447053909301758,5.628555774688721,5.808320999145508,1.1641517877578735,1.8228263854980469,1.0565991401672363,-3.063985824584961,-0.9122471809387207,-6.340794086456299,-5.376704216003418,-5.323141098022461,-2.870389938354492,-0.6664613485336304,-1.575265645980835,-2.009223699569702,-1.4893708229064941,6.327965259552002,2.6506175994873047,2.868272542953491,1.1427381038665771,0.6044921278953552,0.3157292902469635,4.686947822570801
24,5.493386268615723,-4.99857759475708,-0.015924669802188873,-0.24362000823020935,-1.5205178260803223,-2.2060294151306152,-2.4073100090026855,-6.002943992614746,-2.114553213119507,-0.5124697685241699,-5.96328067779541,0.4411643147468567,1.546273946762085,2.0481910705566406,0.8680208325386047,0.9740034937858582,2.0942251682281494,6.432358264923096,5.6292643547058105,5.846419811248779,1.1970367431640625,1.8161131143569946,1.018301010131836,-3.0706992149353027,-0.8793622851371765,-6.336979389190674,-5.36032247543335,-5.312803745269775,-2.894636869430542,-0.6963605880737305,-1.5954176187515259,-2.0043418407440186,-1.4771422147750854,6.29653263092041,2.6162445545196533,2.886701822280884,1.150525689125061,0.5962052941322327,0.2872737646102905,4.664268970489502
25,5.485853672027588,-4.993113994598389,0.014184830710291862,-0.2363198846578598,-1.5427429676055908,-2.2129650115966797,-2.392028331756592,-5.972893714904785,-2.094053030014038,-0.4975900650024414,-5.94386625289917,0.47448304295539856,1.5656880140304565,2.063070774078369,0.8885209560394287,1.0040535926818848,2.129364013671875,6.474489688873291,5.643903732299805,5.8292765617370605,1.1722620725631714,1.8161792755126953,1.0018507242202759,-3.0706331729888916,-0.9041369557380676,-6.316511631011963,-5.379611968994141,-5.311023712158203,-2.8594980239868164,-0.6673896312713623,-1.5727410316467285,-2.0051310062408447,-1.4822005033493042,6.323987007141113,2.631526231765747,2.8770434856414795,1.1219813823699951,0.6212924122810364,0.3173832595348358,4.669732570648193
26,5.45654296875,-5.012674808502197,-0.01332810427993536,-0.25154250860214233,-1.519910454750061,-2.1930201053619385,-2.4276342391967773,-6.000659465789795,-2.094557523727417,-0.5140538215637207,-5.9524455070495605,0.4588340222835541,1.5571091175079346,2.04660701751709,0.8880164623260498,0.976287841796875,2.1077349185943604,6.4621381759643555,5.643929958343506,5.866464614868164,1.2043060064315796,1.810450792312622,0.9662337303161621,-3.076361656188965,-0.8720930814743042,-6.317220211029053,-5.362933158874512,-5.300734996795654,-2.881127119064331,-0.6965029239654541,-1.5927278995513916,-2.0034308433532715,-1.4711588621139526,6.294283390045166,2.5959203243255615,2.8987183570861816,1.1304011344909668,0.6160308122634888,0.28987032175064087,4.650171756744385
27,5.449819564819336,-5.006916522979736,0.015626979991793633,-0.24083849787712097,-1.5441125631332397,-2.196805477142334,-2.410341501235962,-5.9716796875,-2.0743119716644287,-0.4993164837360382,-5.9337477684021,0.49204713106155396,1.5758068561553955,2.0613441467285156,0.9082618355751038,1.0052677392959595,2.1423537731170654,6.505650043487549,5.661065578460693,5.850282669067383,1.1808698177337646,1.810520052909851,0.9523098468780518,-3.0762925148010254,-0.8955292701721191,-6.302492618560791,-5.381534099578857,-5.299607276916504,-2.846508264541626,-0.6685991287231445,-1.5715034008026123,-2.0055534839630127,-1.4784280061721802,6.321341037750244,2.613213062286377,2.8927438259124756,1.102500081062317,0.6447404026985168,0.3188253939151764,4.655930042266846
28,5.421313285827637,-5.024007797241211,-0.011539756320416927,-0.25434166193008423,-1.5225458145141602,-2.174225330352783,-2.4475135803222656,-5.9990339279174805,-2.0760316848754883,-0.517776370048523,-5.942050457000732,0.476962149143219,1.5675039291381836,2.042884349822998,0.9065420031547546,0.9779136180877686,2.121990442276001,6.495316028594971,5.659177780151367,5.886901378631592,1.2130331993103027,1.8053261041641235,0.9186840057373047,-3.081486463546753,-0.8633659482002258,-6.309050559997559,-5.365959644317627,-5.289299011230469,-2.8668715953826904,-0.6976759433746338,-1.5920782089233398,-2.0053606033325195,-1.4676434993743896,6.292954921722412,2.5760409832000732,2.9173245429992676,1.1128296852111816,0.6412129998207092,0.2916586399078369,4.638838768005371
29,5.415334224700928,-5.0174384117126465,0.017228299751877785,-0.2403920441865921,-1.5495909452438354,-2.1756198406219482,-2.427312135696411,-5.970159530639648,-2.0564708709716797,-0.502559244632721,-5.924393653869629,0.5107651352882385,1.5851609706878662,2.0581014156341553,0.9261028170585632,1.0067877769470215,2.156360387802124,6.5411481857299805,5.679830551147461,5.869913101196289,1.1904027462005615,1.8052376508712769,0.9070134162902832,-3.0815749168395996,-0.885996401309967,-6.301638126373291,-5.384621620178223,-5.2884602546691895,-2.8325016498565674,-0.6699941158294678,-1.571512222290039,-2.007172107696533,-1.4771168231964111,6.320638179779053,2.5962424278259277,2.9138991832733154,1.0848567485809326,0.6727679967880249,0.32042670249938965,4.6454081535339355
30,5.387242317199707,-5.032841682434082,-0.01018819585442543,-0.25308606028556824,-1.5283558368682861,-2.150561809539795,-2.4661855697631836,-5.997692108154297,-2.0599334239959717,-0.522802472114563,-5.93314266204834,0.49576500058174133,1.5764120817184448,2.037858247756958,0.9226401448249817,0.979254961013794,2.1358911991119385,6.531989097595215,5.674552917480469,5.906494140625,1.2236069440841675,1.8004531860351562,0.8748166561126709,-3.0863595008850098,-0.8527920842170715,-6.314578056335449,-5.371520042419434,-5.278005599975586,-2.852970838546753,-0.6998019814491272,-1.5934401750564575,-2.0072481632232666,-1.465344786643982,6.292998790740967,2.5573689937591553,2.9410624504089355,1.0980656147003174,0.6694803237915039,0.2930102050304413,4.6300048828125
31,5.382074356079102,-5.0250396728515625,0.019330846145749092,-0.23608417809009552,-1.558645486831665,-2.1505770683288574,-2.4421393871307373,-5.968017578125,-2.0413222312927246,-0.5068413615226746,-5.916859149932861,0.5307361483573914,1.592695713043213,2.053819417953491,0.9412513375282288,1.0089293718338013,2.170325994491577,6.580666542053223,5.699897289276123,5.886998176574707,1.2012219429016113,1.8004125356674194,0.8651923537254333,-3.086400270462036,-0.8751770257949829,-6.31518030166626,-5.391147613525391,-5.277212142944336,-2.8185360431671143,-0.6715267300605774,-1.5725613832473755,-2.007455587387085,-1.476992130279541,6.322127342224121,2.5814151763916016,2.9388701915740967,1.0692561864852905,0.7032563090324402,0.32252925634384155,4.6378068923950195
32,5.354122638702393,-5.039588928222656,-0.00886495690792799,-0.2490006983280182,-1.5366233587265015,-2.12326979637146,-2.4827215671539307,-5.996273517608643,-2.046833038330078,-0.5290095806121826,-5.926651477813721,0.5152547955513,1.582903504371643,2.031651020050049,0.93574059009552,0.9806731939315796,2.148524522781372,6.5715532302856445,5.689756393432617,5.924217224121094,1.2361830472946167,1.7962124347686768,0.8340043425559998,-3.0906004905700684,-0.8402159810066223,-6.334330081939697,-5.381505012512207,-5.266539096832275,-2.8403375148773193,-0.7027283906936646,-1.5965625047683716,-2.007205009460449,-1.4630084037780762,6.294559001922607,2.540832996368408,2.9683399200439453,1.0858968496322632,0.6987590193748474,0.29433345794677734,4.623257637023926
33,5.349909782409668,-5.0302839279174805,0.02216256782412529,-0.2290835827589035,-1.5701535940170288,-2.123015880584717,-2.4541027545928955,-5.965086936950684,-2.0292651653289795,-0.5123672485351562,-5.912009239196777,0.5518064498901367,1.5975455045700073,2.048293352127075,0.9533083438873291,1.011859655380249,2.183352470397949,6.623168468475342,5.7210540771484375,5.90087890625,1.2135218381881714,1.796673059463501,0.8262298107147217,-3.090139865875244,-0.8628772497177124,-6.342937469482422,-5.402886390686035,-5.265702247619629,-2.805509567260742,-0.6731736063957214,-1.5743690729141235,-2.0049991607666016,-1.4770615100860596,6.325625896453857,2.5694518089294434,2.9660794734954834,1.0554535388946533,0.7343705892562866,0.3253609836101532,4.632562637329102
34,5.321990966796875,-5.044847011566162,-0.00720833009108901,-0.24316954612731934,-1.5462398529052734,-2.0937273502349854,-2.4963393211364746,-5.994478702545166,-2.0368640422821045,-0.536691427230835,-5.92312479019165,0.5353299379348755,1.5864299535751343,2.0239691734313965,0.9457096457481384,0.9824678897857666,2.1592655181884766,6.612913608551025,5.704922676086426,5.939455032348633,1.2506369352340698,1.7933781147003174,0.795738160610199,-3.0934345722198486,-0.825762152671814,-6.3674774169921875,-5.3969926834106445,-5.254857063293457,-2.829596519470215,-0.7062075734138489,-1.6010385751724243,-2.00447940826416,-1.459937572479248,6.297447681427002,2.5272152423858643,2.997650146484375,1.0756099224090576,0.7274852991104126,0.29599007964134216,4.61799955368042
35,5.318881988525391,-5.0339274406433105,0.02575846016407013,-0.22040937840938568,-1.582643747329712,-2.094219923019409,-2.4628915786743164,-5.961386680603027,-2.0203425884246826,-0.5196666121482849,-5.9102783203125,0.5736352801322937,1.5992763042449951,2.0409939289093018,0.9622312188148499,1.015560269355774,2.194779396057129,6.667136192321777,5.743056297302246,5.911621570587158,1.227328896522522,1.7948355674743652,0.7895476222038269,-3.091977119445801,-0.849070131778717,-6.3835768699646,-5.420912265777588,-5.253965854644775,-2.7940826416015625,-0.6749417781829834,-1.5767097473144531,-1.999472975730896,-1.47694993019104,6.330539226531982,2.5606629848480225,2.9942188262939453,1.0428440570831299,0.7647438645362854,0.32895687222480774,4.6289191246032715
36,5.291068077087402,-5.049335956573486,-0.00493876775726676,-0.236357182264328,-1.5559546947479248,-2.0632355213165283,-2.5066165924072266,-5.992066383361816,-2.0298070907592773,-0.546183705329895,-5.922597885131836,0.5558268427848816,1.5869567394256592,2.014476776123047,0.9527666568756104,0.9848805665969849,2.1678466796875,6.654766082763672,5.720681667327881,5.952051162719727,1.2665972709655762,1.792707085609436,0.7595659494400024,-3.0941057205200195,-0.8098016977310181,-6.412179470062256,-5.418050289154053,-5.2431321144104,-2.8210153579711914,-0.7098836302757263,-1.6063517332077026,-1.9992027282714844,-1.4562238454818726,6.301234245300293,2.5169379711151123,3.0277252197265625,1.0661301612854004,0.7547166347503662,0.2982596755027771,4.613510608673096
37,5.289139270782471,-5.036795616149902,0.029948249459266663,-0.21087901294231415,-1.5945261716842651,-2.0652105808258057,-2.468689203262329,-5.957099914550781,-2.0143887996673584,-0.5292320251464844,-5.911614418029785,0.5957131385803223,1.5979403257369995,2.031428575515747,0.9681850075721741,1.0198466777801514,2.2041921615600586,6.710862636566162,5.7653727531433105,5.919995307922363,1.2425581216812134,1.7954881191253662,0.7545703649520874,-3.091324806213379,-0.8338407874107361,-6.434992790222168,-5.445728302001953,-5.24210786819458,-2.784669876098633,-0.6768807172775269,-1.5795284509658813,-1.9912482500076294,-1.4768024682998657,6.335993766784668,2.5548653602600098,3.02237606048584,1.0306662321090698,0.7934296131134033,0.33314669132232666,4.62605094909668
38,5.261666297912598,-5.053723335266113,-0.0018722480162978172,-0.22900943458080292,-1.5645718574523926,-2.0328750610351562,-2.5135281085968018,-5.988847732543945,-2.025239944458008,-0.5575905442237854,-5.92466926574707,0.5765092968940735,1.584885597229004,2.003070116043091,0.9573338627815247,0.9880989193916321,2.1743369102478027,6.6958818435668945,5.737926483154297,5.96221399307251,1.283546805381775,1.7945921421051025,0.7251124978065491,-3.0922207832336426,-0.7928521037101746,-6.466073513031006,-5.443877696990967,-5.231589317321777,-2.8145251274108887,-0.7133263945579529,-1.611938714981079,-1.9919013977050781,-1.4525717496871948,6.305378437042236,2.510026693344116,3.057587146759033,1.0562735795974731,0.7800220847129822,0.3013262152671814,4.609123229980469
39,5.2608819007873535,-5.039592742919922,0.03443465381860733,-0.20115433633327484,-1.6043301820755005,-2.03667950630188,-2.4720215797424316,-5.952496528625488,-2.0111541748046875,-0.5412632822990417,-5.915581226348877,0.6173983216285706,1.5939738750457764,2.019397258758545,0.9714197516441345,1.0244501829147339,2.2113940715789795,6.752779006958008,5.787205696105957,5.927144527435303,1.2590434551239014,1.7987226247787476,0.7207933664321899,-3.088090419769287,-0.8173554539680481,-6.494696140289307,-5.477337837219238,-5.230162143707275,-2.777467966079712,-0.6790518164634705,-1.582942247390747,-1.980957269668579,-1.476910948753357,6.341039180755615,2.5515332221984863,3.0500290393829346,1.0181840658187866,0.819760262966156,0.3376331329345703,4.62325382232666
40,5.234100341796875,-5.05842924118042,0.002046892885118723,-0.22137553989887238,-1.5711036920547485,-2.0034584999084473,-2.517397403717041,-5.984733581542969,-2.02268123626709,-0.5707069635391235,-5.928699493408203,0.5970296859741211,1.5808554887771606,1.9899535179138184,0.9598928689956665,0.992213249206543,2.179028034210205,6.7352800369262695,5.757293224334717,5.970418453216553,1.3009544610977173,1.7989293336868286,0.6921188831329346,-3.087883710861206,-0.775444507598877,-6.5266947746276855,-5.473227024078369,-5.220311641693115,-2.8098340034484863,-0.7161328792572021,-1.6173205375671387,-1.9830819368362427,-1.44983971118927,6.309320449829102,2.506157398223877,3.0865421295166016,1.0450109243392944,0.803257942199707,0.30524536967277527,4.604417324066162
41,5.234329700469971,-5.042761325836182,0.0389348529279232,-0.1917629987001419,-1.610938549041748,-2.0090696811676025,-2.4735214710235596,-5.947810649871826,-2.0103187561035156,-0.5555359125137329,-5.9215087890625,0.6380305290222168,1.5880458354949951,2.00512433052063,0.9722553491592407,1.029135823249817,2.216397762298584,6.791743278503418,5.807913780212402,5.934109210968018,1.2765108346939087,1.804113745689392,0.6879141926765442,-3.0826992988586426,-0.7998881936073303,-6.560099124908447,-5.514948844909668,-5.218006610870361,-2.7724642753601074,-0.6814414262771606,-1.587100863456726,-1.9692288637161255,-1.4774038791656494,6.34487771987915,2.5500333309173584,3.0769240856170654,1.0047972202301025,0.8432738780975342,0.3421333432197571,4.6200852394104
42,5.208606719970703,-5.063507556915283,0.006708176806569099,-0.21365633606910706,-1.5748897790908813,-1.9755403995513916,-2.5188162326812744,-5.97979736328125,-2.0217156410217285,-0.5850840210914612,-5.934017658233643,0.6169114112854004,1.5755367279052734,1.9755762815475464,0.9608584642410278,0.9971489906311035,2.1822807788848877,6.772263526916504,5.778618335723877,5.977343559265137,1.3183858394622803,1.8051881790161133,0.6604639291763306,-3.081624984741211,-0.7580131888389587,-6.591618061065674,-5.505025863647461,-5.209111213684082,-2.8065812587738037,-0.718063473701477,-1.6222660541534424,-1.9730815887451172,-1.4485454559326172,6.312537670135498,2.5047385692596436,3.1141624450683594,1.0316768884658813,0.8243364095687866,0.3099066913127899,4.599339008331299
43,5.209692001342773,-5.046446323394775,0.0432923287153244,-0.18306881189346313,-1.613762617111206,-1.982725739479065,-2.4737844467163086,-5.943164825439453,-2.011460542678833,-0.5713844299316406,-5.928633213043213,0.6570701003074646,1.5809215307235718,1.9892758131027222,0.9711133241653442,1.03378164768219,2.219420909881592,6.827162265777588,5.827327251434326,5.941483497619629,1.2945547103881836,1.8109126091003418,0.655950129032135,-3.0759005546569824,-0.7818443179130554,-6.628682613372803,-5.556606292724609,-5.205379486083984,-2.7694411277770996,-0.6838977336883545,-1.592017412185669,-1.9566311836242676,-1.4781839847564697,6.347038269042969,2.5497703552246094,3.1029105186462402,0.9901180267333984,0.8637169003486633,0.3464908301830292,4.616400241851807
44,5.185299396514893,-5.068671703338623,0.011871554888784885,-0.20607958734035492,-1.5756707191467285,-1.9494967460632324,-2.518503189086914,-5.974269866943359,-2.022066116333008,-0.6001085638999939,-5.940042972564697,0.6356039643287659,1.569511890411377,1.9605516195297241,0.9605077505111694,1.0026761293411255,2.184414863586426,6.806371688842773,5.800846576690674,5.983720302581787,1.3355278968811035,1.8125916719436646,0.6301961541175842,-3.07422137260437,-0.7408711314201355,-6.6584367752075195,-5.538768291473389,-5.197558403015137,-2.8044471740722656,-0.7191030979156494,-1.6268281936645508,-1.9621539115905762,-1.448628306388855,6.3146281242370605,2.505051612854004,3.140223979949951,1.0160773992538452,0.8430988192558289,0.3150700628757477,4.594174861907959
45,5.187111854553223,-5.050564289093018,0.047477561980485916,-0.17525726556777954,-1.6127939224243164,-1.9580143690109253,-2.4733405113220215,-5.938590049743652,-2.014082670211792,-0.5878303050994873,-5.936208724975586,0.6741576194763184,1.5733462572097778,1.9728299379348755,0.9684910178184509,1.0383561849594116,2.220827341079712,6.858900547027588,5.845620155334473,5.949385166168213,1.312695860862732,1.8183175325393677,0.6252320408821106,-3.068495512008667,-0.7637031078338623,-6.698102951049805,-5.599504470825195,-5.191955089569092,-2.7680346965789795,-0.6861857771873474,-1.5975284576416016,-1.943711519241333,-1.4790189266204834,6.347415447235107,2.5502142906188965,3.1278200149536133,0.9740527272224426,0.8810332417488098,0.3506760895252228,4.6122822761535645
46,5.164172172546387,-5.073480606079102,0.017272742465138435,-0.1988690346479416,-1.5736021995544434,-1.9256459474563599,-2.517143487930298,-5.968441486358643,-2.0235652923583984,-0.6150630712509155,-5.946303844451904,0.652600884437561,1.56325101852417,1.9455971717834473,0.959008514881134,1.0085047483444214,2.185692548751831,6.837349891662598,5.822463035583496,5.990081787109375,1.3521419763565063,1.8203204870224,0.6015492677688599,-3.066492795944214,-0.7242569923400879,-6.724867343902588,-5.574230670928955,-5.185137748718262,-2.8031694889068604,-0.7194070816040039,-1.631199598312378,-1.9506217241287231,-1.4495917558670044,6.315415859222412,2.50641131401062,3.16459321975708,0.9984756112098694,0.8593485355377197,0.32047128677368164,4.5893659591674805
47,5.166621208190918,-5.0548996925354,0.05150744318962097,-0.1683667004108429,-1.6085196733474731,-1.935357928276062,-2.472655773162842,-5.934108734130859,-2.017704725265503,-0.6038307547569275,-5.943607807159424,0.6890794634819031,1.5659475326538086,1.95682954788208,0.9648691415786743,1.042837142944336,2.22102427482605,6.887071132659912,5.862967014312744,5.957632064819336,1.330489158630371,1.8256781101226807,0.5962459444999695,-3.0611352920532227,-0.7459098100662231,-6.766262054443359,-5.64110803604126,-5.177427291870117,-2.7678377628326416,-0.6881208419799805,-1.603379487991333,-1.931017518043518,-1.4796422719955444,6.346193313598633,2.550899028778076,3.1514334678649902,0.9568507075309753,0.8953148126602173,0.3547059893608093,4.607946872711182
48,5.1451416015625,-5.0775861740112305,0.022697975859045982,-0.1921735554933548,-1.569182276725769,-1.9043288230895996,-2.515291690826416,-5.962574481964111,-2.0260605812072754,-0.6292113661766052,-5.9524126052856445,0.667538046836853,1.5571424961090088,1.9314489364624023,0.9565132260322571,1.0143710374832153,2.186347723007202,6.865121364593506,5.842187881469727,5.996606826782227,1.3680247068405151,1.827695369720459,0.574882447719574,-3.0591180324554443,-0.7083743214607239,-6.788991928100586,-5.610760688781738,-5.171417713165283,-2.8025143146514893,-0.7191974520683289,-1.63552725315094,-1.938950777053833,-1.4508397579193115,6.31498384475708,2.508263111114502,3.187143087387085,0.9794920682907104,0.8729677200317383,0.3258965313434601,4.585260391235352
49,5.148155689239502,-5.059187412261963,0.05537814646959305,-0.1623397320508957,-1.6017601490020752,-1.9151873588562012,-2.472095012664795,-5.929782867431641,-2.021942377090454,-0.6185204386711121,-5.950374603271484,0.701716423034668,1.5591801404953003,1.942139744758606,0.960631251335144,1.047162652015686,2.220395803451538,6.911870956420898,5.87925910949707,5.965938568115234,1.3475773334503174,1.8325655460357666,0.5694672465324402,-3.0542478561401367,-0.7288216948509216,-6.831380367279053,-5.680018424987793,-5.161561489105225,-2.7684662342071533,-0.6896527409553528,-1.609325885772705,-1.9190499782562256,-1.4798283576965332,6.343737602233887,2.551459789276123,3.1735153198242188,0.9390489459037781,0.9067472815513611,0.3585767149925232,4.603659152984619
50,5.128091812133789,-5.080874443054199,0.027980713173747063,-0.18604184687137604,-1.5631077289581299,-1.8858784437179565,-2.513361930847168,-5.956888675689697,-2.029348611831665,-0.6419222354888916,-5.958043098449707,0.6802080273628235,1.551511287689209,1.9187380075454712,0.9532250761985779,1.0200566053390503,2.186598062515259,6.889735221862793,5.859424591064453,6.003171920776367,1.3830076456069946,1.8342907428741455,0.5505748391151428,-3.052522659301758,-0.6933914422988892,-6.849427700042725,-5.64708137512207,-5.156126976013184,-2.8022639751434326,-0.7186858654022217,-1.6398334503173828,-1.9276856184005737,-1.4519234895706177,6.313602924346924,2.51019287109375,3.2077629566192627,0.9599658846855164,0.8839861750602722,0.33117929100990295,4.581972122192383
51,5.131615161895752,-5.063190460205078,0.05905000865459442,-0.1570623368024826,-1.593483805656433,-1.8978596925735474,-2.4718735218048096,-5.925704002380371,-2.026521921157837,-0.631328284740448,-5.9562296867370605,0.7120216488838196,1.553324818611145,1.92933189868927,0.9560517072677612,1.0512412786483765,2.219285011291504,6.93351411819458,5.894123554229736,5.9740166664123535,1.3636815547943115,1.8387528657913208,0.545289933681488,-3.048060417175293,-0.712717592716217,-6.892110824584961,-5.715767860412598,-5.144220352172852,-2.7695770263671875,-0.69084233045578,-1.6151713132858276,-1.908186674118042,-1.479449987411499,6.3404974937438965,2.5516812801361084,3.1938741207122803,0.9213281273841858,0.915577232837677,0.36224859952926636,4.599656105041504
52,5.112903594970703,-5.083439350128174,0.032975878566503525,-0.18044905364513397,-1.5561290979385376,-1.8705259561538696,-2.51163911819458,-5.951563358306885,-2.0331828594207764,-0.6527725458145142,-5.962946891784668,0.6905215978622437,1.5466073751449585,1.907887578010559,0.9493909478187561,1.0253818035125732,2.186629295349121,6.9113030433654785,5.874145984649658,6.009523868560791,1.3969600200653076,1.8399430513381958,0.5289416909217834,-3.046870231628418,-0.6794390082359314,-6.9052958488464355,-5.681800365447998,-5.139158248901367,-2.8022327423095703,-0.7180423140525818,-1.6440478563308716,-1.917302131652832,-1.452594518661499,6.311624050140381,2.511915683746338,3.2264175415039062,0.9407918453216553,0.8925648331642151,0.33617445826530457,4.579407215118408
53,5.116907596588135,-5.0667805671691895,0.062462810426950455,-0.15239402651786804,-1.5846303701400757,-1.8835885524749756,-2.472059726715088,-5.921961784362793,-2.0312411785125732,-0.6419751048088074,-5.961031436920166,0.7200173139572144,1.54852294921875,1.9186850786209106,0.9513325691223145,1.0549832582473755,2.21798038482666,6.952213764190674,5.907206058502197,5.981602191925049,1.3785874843597412,1.8441673517227173,0.5240022540092468,-3.0426459312438965,-0.6978115439414978,-6.947632789611816,-5.748209476470947,-5.125367164611816,-2.7708816528320312,-0.6917873024940491,-1.6207584142684937,-1.898633599281311,-1.4784965515136719,6.336921215057373,2.55149507522583,3.2124180793762207,0.9043679237365723,0.9220901727676392,0.3656613826751709,4.596065998077393
54,5.099478244781494,-5.085480690002441,0.037557315081357956,-0.17533840239048004,-1.5489481687545776,-1.8583372831344604,-2.5102782249450684,-5.946734428405762,-2.0373194217681885,-0.6615806221961975,-5.966968059539795,0.6984792947769165,1.542586326599121,1.89907968044281,0.945254385471344,1.0302109718322754,2.186589002609253,6.929958820343018,5.886545181274414,6.015415191650391,1.4097800254821777,1.84467351436615,0.5101857781410217,-3.0421395301818848,-0.6666189432144165,-6.956140518188477,-5.713881492614746,-5.1205291748046875,-2.8022730350494385,-0.717392086982727,-1.6480731964111328,-1.9080884456634521,-1.4527573585510254,6.309396266937256,2.5132765769958496,3.2431843280792236,0.9227620363235474,0.8989362120628357,0.3407558798789978,4.577365875244141
55,5.103960037231445,-5.06996488571167,0.06555581837892532,-0.14819693565368652,-1.57598078250885,-1.872413158416748,-2.472616672515869,-5.918620586395264,-2.035933256149292,-0.6504194736480713,-5.964741230010986,0.7257906198501587,1.5448133945465088,1.910240888595581,0.9466404318809509,1.0583245754241943,2.2167036533355713,6.968174934387207,5.918367862701416,5.98846960067749,1.392143726348877,1.8488407135009766,0.5057581067085266,-3.0379724502563477,-0.6842552423477173,-6.997649669647217,-5.7772417068481445,-5.105043411254883,-2.77215838432312,-0.6925705075263977,-1.6259616613388062,-1.8904201984405518,-1.47704017162323,6.333397388458252,2.550938129425049,3.2291839122772217,0.8887466192245483,0.9265872240066528,0.3687543570995331,4.592881679534912
56,5.0877299308776855,-5.087217330932617,0.04162776470184326,-0.17065134644508362,-1.5421438217163086,-1.8492088317871094,-2.5093183517456055,-5.9424872398376465,-2.041546583175659,-0.6683737635612488,-5.970046520233154,0.7041580080986023,1.5395081043243408,1.8922866582870483,0.9410269856452942,1.034458041191101,2.186579704284668,6.945844650268555,5.896852970123291,6.020656585693359,1.4213926792144775,1.8485932350158691,0.49436986446380615,-3.038219928741455,-0.6550063490867615,-7.001872539520264,-5.742729663848877,-5.100335121154785,-2.8022823333740234,-0.7168210744857788,-1.6518272161483765,-1.900118350982666,-1.4524003267288208,6.307215213775635,2.5142364501953125,3.258251667022705,0.9064645171165466,0.903354823589325,0.34482628107070923,4.575629234313965
57,5.092705726623535,-5.072843074798584,0.06828361004590988,-0.14435610175132751,-1.568099856376648,-1.8642112016677856,-2.4734458923339844,-5.915709972381592,-2.0404534339904785,-0.6567898988723755,-5.967392444610596,0.7294901013374329,1.5421621799468994,1.9038705825805664,0.9421202540397644,1.0612351894378662,2.215604543685913,6.981595993041992,5.927683353424072,5.994451522827148,1.4042580127716064,1.852858543395996,0.49055615067481995,-3.033954381942749,-0.6721411347389221,-7.042304039001465,-5.802813529968262,-5.083338260650635,-2.7732574939727783,-0.6932452917098999,-1.6306945085525513,-1.883431315422058,-1.4751790761947632,6.330219268798828,2.5501089096069336,3.2443325519561768,0.874879002571106,0.9293610453605652,0.37148213386535645,4.590003490447998
58,5.077576637268066,-5.0888447761535645,0.04512760043144226,-0.16634023189544678,-1.536126971244812,-1.8429059982299805,-2.5087196826934814,-5.938858985900879,-2.0456933975219727,-0.6733258366584778,-5.972202777862549,0.7077063918113708,1.5373520851135254,1.8873345851898193,0.936880350112915,1.0380864143371582,2.1866633892059326,6.959122180938721,5.905303478240967,6.025131702423096,1.4317529201507568,1.8518344163894653,0.4814116060733795,-3.0349786281585693,-0.6446462273597717,-7.042725563049316,-5.768096923828125,-5.078708171844482,-2.802198648452759,-0.7163801789283752,-1.6552609205245972,-1.8932974338531494,-1.451545000076294,6.305296897888184,2.5148351192474365,3.271890163421631,0.8922586441040039,0.9060685038566589,0.3483261168003082,4.574001789093018
59,5.083066463470459,-5.075550079345703,0.07062330096960068,-0.14078308641910553,-1.5613305568695068,-1.8587424755096436,-2.4744246006011963,-5.913228988647461,-2.0446815490722656,-0.6613216400146484,-5.969070911407471,0.7313184142112732,1.540483832359314,1.899338722229004,0.9378923177719116,1.0637160539627075,2.214770793914795,6.992681503295898,5.935354232788086,5.999453544616699,1.4148920774459839,1.8563218116760254,0.4782423675060272,-3.030491352081299,-0.6615070700645447,-7.082067012786865,-5.8249711990356445,-5.060349941253662,-2.7740912437438965,-0.6938400864601135,-1.6349167823791504,-1.8774598836898804,-1.472992181777954,6.327577590942383,2.5491302013397217,3.258110284805298,0.86300128698349,0.930681586265564,0.37382182478904724,4.587296485900879
60,5.068920135498047,-5.09051513671875,0.048035044223070145,-0.16236506402492523,-1.531126618385315,-1.8391164541244507,-2.508401870727539,-5.935845851898193,-2.0496301651000977,-0.6766939163208008,-5.973514080047607,0.7093333601951599,1.5360407829284668,1.8839664459228516,0.9329437613487244,1.0410993099212646,2.1868653297424316,6.969977378845215,5.912139892578125,6.02879524230957,1.4408496618270874,1.854518175125122,0.4710988700389862,-3.0322952270507812,-0.6355494260787964,-7.079195022583008,-5.789970874786377,-5.055779457092285,-2.8019967079162598,-0.7160921096801758,-1.6583609580993652,-1.8874313831329346,-1.450209140777588,6.303772926330566,2.515152931213379,3.284409999847412,0.8803022503852844,0.9073088765144348,0.351233571767807,4.572331428527832
61,5.074945449829102,-5.078215599060059,0.07257583737373352,-0.1374073028564453,-1.5558185577392578,-1.8557019233703613,-2.475433111190796,-5.911154270172119,-2.0485305786132812,-0.6643026471138,-5.9698944091796875,0.7315205335617065,1.5396599769592285,1.8963576555252075,0.9340433478355408,1.065791130065918,2.214237928390503,7.001648902893066,5.9416303634643555,6.003458023071289,1.4240548610687256,1.8593250513076782,0.4685392379760742,-3.0274884700775146,-0.6523441672325134,-7.117643356323242,-5.843867301940918,-5.036160945892334,-2.7746241092681885,-0.6943668127059937,-1.638633370399475,-1.8722562789916992,-1.4705147743225098,6.3255696296691895,2.548121690750122,3.2708046436309814,0.8531920909881592,0.9307912588119507,0.3757743835449219,4.584630489349365
62,5.061648845672607,-5.092335224151611,0.050361521542072296,-0.15868331491947174,-1.5272072553634644,-1.8375003337860107,-2.5082767009735107,-5.933416843414307,-2.0532727241516113,-0.6787686944007874,-5.97409200668335,0.7092918157577515,1.5354623794555664,1.8818917274475098,0.9293012022972107,1.0435285568237305,2.1871840953826904,6.9786248207092285,5.91760778427124,6.031667232513428,1.4487053155899048,1.8567423820495605,0.46312281489372253,-3.030071258544922,-0.6276936531066895,-7.111974716186523,-5.808499813079834,-5.031653881072998,-2.801677942276001,-0.7159589529037476,-1.6611446142196655,-1.882280707359314,-1.4483882188796997,6.302700996398926,2.5152781009674072,3.29612135887146,0.8706007599830627,0.9072909355163574,0.35356009006500244,4.5705108642578125
63,5.068228721618652,-5.080944538116455,0.07416199147701263,-0.1341640204191208,-1.5515472888946533,-1.8547651767730713,-2.4763731956481934,-5.9094462394714355,-2.051950693130493,-0.6660340428352356,-5.969997882843018,0.7303649187088013,1.5395565032958984,1.894626259803772,0.9306231141090393,1.067499041557312,2.214003562927246,7.008728981018066,5.9467644691467285,6.0065155029296875,1.4317950010299683,1.8619484901428223,0.46108582615852356,-3.02486515045166,-0.644603967666626,-7.149890899658203,-5.859742641448975,-5.010821342468262,-2.7748584747314453,-0.6948285698890686,-1.6418864727020264,-1.8675622940063477,-1.467730164527893,6.324215888977051,2.5471816062927246,3.2827022075653076,0.8454161286354065,0.929908812046051,0.3773605525493622,4.581901550292969
64,5.055637836456299,-5.094374656677246,0.052142880856990814,-0.1552417129278183,-1.5242998600006104,-1.8377256393432617,-2.508265495300293,-5.931521415710449,-2.056579828262329,-0.6798399090766907,-5.974063873291016,0.7078561186790466,1.5354907512664795,1.880820393562317,0.9259939193725586,1.0454236268997192,2.1875970363616943,6.985300064086914,5.921943664550781,6.033823013305664,1.45537269115448,1.858582615852356,0.45711517333984375,-3.028231143951416,-0.6210261583328247,-7.141899108886719,-5.8239336013793945,-5.006402492523193,-2.801265001296997,-0.7159702777862549,-1.6636528968811035,-1.8775959014892578,-1.4460467100143433,6.3020806312561035,2.515289306640625,3.3073065280914307,0.8630611300468445,0.9062159657478333,0.35534143447875977,4.568471431732178
65,5.0627923011779785,-5.083818435668945,0.0754166692495346,-0.13098636269569397,-1.5483814477920532,-1.8556184768676758,-2.477174997329712,-5.908059597015381,-2.0549275875091553,-0.6668049693107605,-5.969517230987549,0.7281237840652466,1.5400372743606567,1.893855333328247,0.9276462197303772,1.0688856840133667,2.214038372039795,7.014157772064209,5.950985908508301,6.008733749389648,1.4381921291351318,1.8642593622207642,0.45547667145729065,-3.022554397583008,-0.6382068395614624,-7.179771423339844,-5.872896671295166,-4.984346389770508,-2.7748236656188965,-0.6952247023582458,-1.6447454690933228,-1.8631296157836914,-1.4645733833312988,6.323483467102051,2.546379804611206,3.29406476020813,0.8395686745643616,0.9282326698303223,0.37861523032188416,4.5790276527404785
66,5.050762176513672,-5.096673011779785,0.053431395441293716,-0.15197396278381348,-1.522242784500122,-1.8394889831542969,-2.508307456970215,-5.9301018714904785,-2.05954909324646,-0.6801770329475403,-5.973554611206055,0.7052997946739197,1.5359998941421509,1.8804832696914673,0.923024594783783,1.046843409538269,2.188070297241211,6.990243434906006,5.925365447998047,6.03538179397583,1.4609283208847046,1.8600972890853882,0.4526819586753845,-3.026716470718384,-0.6154706478118896,-7.1699018478393555,-5.836587429046631,-4.980057239532471,-2.8007917404174805,-0.7161084413528442,-1.6659423112869263,-1.8731322288513184,-1.4431191682815552,6.301871299743652,2.515247344970703,3.3182060718536377,0.8575376272201538,0.904272735118866,0.35662996768951416,4.566173076629639
67,5.058517932891846,-5.0868988037109375,0.07638289779424667,-0.12780362367630005,-1.5461066961288452,-1.857974886894226,-2.477797269821167,-5.906946182250977,-2.0574753284454346,-0.6668788194656372,-5.968582630157471,0.7250513434410095,1.5409716367721558,1.8937815427780151,0.9250982999801636,1.069998860359192,2.2142956256866455,7.018165111541748,5.954495429992676,6.010265827178955,1.4433485269546509,1.8663145303726196,0.451295405626297,-3.0204992294311523,-0.6330503821372986,-7.208314418792725,-5.8836588859558105,-4.956716537475586,-2.774566411972046,-0.695553183555603,-1.6472969055175781,-1.8587251901626587,-1.4609391689300537,6.323304176330566,2.545757532119751,3.305119514465332,0.8355158567428589,0.9259430170059204,0.379581481218338,4.575947284698486
68,5.046908855438232,-5.099255561828613,0.054288238286972046,-0.14880292117595673,-1.5208179950714111,-1.842522382736206,-2.508358955383301,-5.929094314575195,-2.0622072219848633,-0.680018424987793,-5.972682952880859,0.7018738985061646,1.536871075630188,1.880642056465149,0.9203664064407349,1.0478506088256836,2.1885628700256348,6.993688106536865,5.928065299987793,6.036495685577393,1.4654653072357178,1.8613331317901611,0.44943103194236755,-3.0254805088043213,-0.6109336614608765,-7.1969895362854,-5.84680700302124,-4.9526190757751465,-2.8002991676330566,-0.7163529396057129,-1.6680763959884644,-1.8686540126800537,-1.4395146369934082,6.302011013031006,2.515195846557617,3.3290207386016846,0.8538667559623718,0.9016373753547668,0.3574868142604828,4.5635905265808105
69,5.055304050445557,-5.090241432189941,0.07710570096969604,-0.12454349547624588,-1.5444632768630981,-1.8615777492523193,-2.478222131729126,-5.906059741973877,-2.05962872505188,-0.6664870381355286,-5.967313766479492,0.7213651537895203,1.5422401428222656,1.894173502922058,0.9229447245597839,1.0708848237991333,2.214718818664551,7.020958423614502,5.957456588745117,6.011295318603516,1.4473823308944702,1.8681633472442627,0.4481361508369446,-3.0186502933502197,-0.6290167570114136,-7.236607074737549,-5.892366886138916,-4.927886486053467,-2.7741432189941406,-0.6958140730857849,-1.649634838104248,-1.8541297912597656,-1.4566892385482788,6.323591232299805,2.545332670211792,3.316061019897461,0.8331229090690613,0.923201858997345,0.3803043067455292,4.572604656219482
70,5.043990612030029,-5.102139949798584,0.05477820709347725,-0.14564622938632965,-1.5197813510894775,-1.8465925455093384,-2.508391857147217,-5.928436279296875,-2.0645999908447266,-0.6795664429664612,-5.971554756164551,0.6977891325950623,1.537998914718628,1.8810940980911255,0.9179732799530029,1.0485085248947144,2.1890320777893066,6.995845794677734,5.9302077293396,6.037335395812988,1.4690873622894287,1.8623281717300415,0.44698965549468994,-3.0244853496551514,-0.6073117852210999,-7.224238872528076,-5.85495138168335,-4.924062728881836,-2.7998299598693848,-0.7166826725006104,-1.6701176166534424,-1.863930583000183,-1.4351215362548828,6.302426815032959,2.515162944793701,3.3399159908294678,0.851890504360199,0.8984715938568115,0.3579767942428589,4.56070613861084
71,5.053077220916748,-5.093903064727783,0.07762845605611801,-0.12113763391971588,-1.5431709289550781,-1.8661972284317017,-2.4784507751464844,-5.905359745025635,-2.061432361602783,-0.6658260822296143,-5.965818405151367,0.7172306776046753,1.5437352657318115,1.8948343992233276,0.9211409091949463,1.0715851783752441,2.2152457237243652,7.022714614868164,5.960000038146973,6.012026309967041,1.4504204988479614,1.869848370552063,0.445617139339447,-3.01696515083313,-0.6259786486625671,-7.265787601470947,-5.89935302734375,-4.8977885246276855,-2.773616313934326,-0.6960096955299377,-1.6518540382385254,-1.8491328954696655,-1.4516572952270508,6.324252605438232,2.5451040267944336,3.327059507369995,0.8322749137878418,0.9201518893241882,0.38082703948020935,4.568943023681641
72,5.041951656341553,-5.105347633361816,0.05496615916490555,-0.14242345094680786,-1.5188841819763184,-1.8514940738677979,-2.508387804031372,-5.928066253662109,-2.066784143447876,-0.6789845824241638,-5.970262050628662,0.6932029724121094,1.539291501045227,1.8816758394241333,0.9157891869544983,1.0488790273666382,2.189438581466675,6.996894836425781,5.9319305419921875,6.038083553314209,1.4719030857086182,1.8631130456924438,0.44501322507858276,-3.023700475692749,-0.6044961214065552,-7.252792835235596,-5.861376762390137,-4.894345283508301,-2.7994234561920166,-0.7170770168304443,-1.6721216440200806,-1.8587307929992676,-1.4298118352890015,6.303049087524414,2.515166997909546,3.351033926010132,0.8514710664749146,0.8949201703071594,0.3581647276878357,4.557498455047607
73,5.051798343658447,-5.097954273223877,0.07798921316862106,-0.11752927303314209,-1.5419455766677856,-1.8716237545013428,-2.478499174118042,-5.904809474945068,-2.062932014465332,-0.6650563478469849,-5.964193820953369,0.7127490043640137,1.5453598499298096,1.8956040143966675,0.919641375541687,1.0721354484558105,2.215813159942627,7.023568630218506,5.962221622467041,6.012677192687988,1.45259690284729,1.8714046478271484,0.4433859884738922,-3.015408992767334,-0.6238022446632385,-7.297054290771484,-5.904931545257568,-4.866344928741455,-2.7730488777160645,-0.6961472630500793,-1.6540436744689941,-1.8435261249542236,-1.4456515312194824,6.325196266174316,2.545055627822876,3.338273286819458,0.832887589931488,0.9169138669967651,0.38118776679039,4.564891815185547
74,5.040775775909424,-5.10891056060791,0.05491548776626587,-0.13906417787075043,-1.5178874731063843,-1.8570427894592285,-2.508338212966919,-5.927923202514648,-2.0688159465789795,-0.6783956289291382,-5.96888542175293,0.688208818435669,1.540668249130249,1.8822647333145142,0.9137574434280396,1.0490217208862305,2.189746856689453,6.99697732925415,5.933341979980469,6.038929462432861,1.4740232229232788,1.8637099266052246,0.44318974018096924,-3.023103952407837,-0.6023759841918945,-7.28387451171875,-5.866430282592773,-4.8634138107299805,-2.7991151809692383,-0.7175169587135315,-1.6741313934326172,-1.8528131246566772,-1.4234428405761719,6.303813457489014,2.515216588973999,3.3625059127807617,0.852496325969696,0.8911084532737732,0.3581140637397766,4.553935527801514
75,5.051466941833496,-5.102484703063965,0.0782201886177063,-0.113680899143219,-1.5405082702636719,-1.8776606321334839,-2.478395938873291,-5.904379844665527,-2.0641655921936035,-0.6643007397651672,-5.962531566619873,0.707947313785553,1.5470221042633057,1.8963596820831299,0.9184077978134155,1.072564959526062,2.216357469558716,7.023613929748535,5.9641852378845215,6.013477325439453,1.454050064086914,1.8728572130203247,0.44111883640289307,-3.0139565467834473,-0.622349202632904,-7.331674575805664,-5.90939998626709,-4.833471775054932,-2.7725045680999756,-0.69623863697052,-1.6562811136245728,-1.8370965719223022,-1.438454508781433,6.326333522796631,2.545158863067627,3.349858283996582,0.8349125385284424,0.9135842323303223,0.38141876459121704,4.560361385345459
76,5.040483474731445,-5.112875938415527,0.05468788370490074,-0.13551734387874603,-1.51656973361969,-1.8630667924880981,-2.5082435607910156,-5.927949905395508,-2.070744752883911,-0.6778793931007385,-5.967499732971191,0.6828269958496094,1.5420539379119873,1.8827810287475586,0.9118286371231079,1.0489952564239502,2.189927339553833,6.996194839477539,5.934518337249756,6.040066719055176,1.4755600690841675,1.8641290664672852,0.44123944640159607,-3.0226845741271973,-0.6008392572402954,-7.318803787231445,-5.870452880859375,-4.831211566925049,-2.7989346981048584,-0.7179853916168213,-1.676173210144043,-1.8459211587905884,-1.4158579111099243,6.304663181304932,2.5153112411499023,3.374460220336914,0.8548807501792908,0.8871378302574158,0.3578864336013794,4.5499701499938965
77,5.052114009857178,-5.107612133026123,0.07834842801094055,-0.10958408564329147,-1.5385916233062744,-1.8841148614883423,-2.4781856536865234,-5.904046535491943,-2.0651557445526123,-0.6636412739753723,-5.96092414855957,0.7027704119682312,1.5486292839050293,1.8970191478729248,0.9174176454544067,1.0728983879089355,2.216815710067749,7.022897720336914,5.965922832489014,6.014667987823486,1.4549241065979004,1.87421715259552,0.4385194480419159,-3.012596368789673,-0.6214752793312073,-7.370999336242676,-5.913043022155762,-4.799092769622803,-2.7720463275909424,-0.6963009238243103,-1.6586265563964844,-1.8296220302581787,-1.4298216104507446,6.327582836151123,2.5453691482543945,3.361978769302368,0.8383356332778931,0.910231351852417,0.3815470039844513,4.555233955383301
78,5.041128158569336,-5.117310047149658,0.05434391275048256,-0.13176269829273224,-1.5147324800491333,-1.869397521018982,-2.508119583129883,-5.928088188171387,-2.0726053714752197,-0.6774678826332092,-5.966182708740234,0.6769964098930359,1.543370246887207,1.8831924200057983,0.9099680781364441,1.0488570928573608,2.189955711364746,6.994612693786621,5.9354987144470215,6.041701316833496,1.4766300916671753,1.8643649816513062,0.43891456723213196,-3.0224485397338867,-0.5997693538665771,-7.359011173248291,-5.873785018920898,-4.797685146331787,-2.7989063262939453,-0.7184686660766602,-1.678253173828125,-1.8377760648727417,-1.4068853855133057,6.305554389953613,2.515435218811035,3.387033700942993,0.8585584163665771,0.8830809593200684,0.3575425148010254,4.545536041259766
79,5.053798198699951,-5.11348819732666,0.07839688658714294,-0.10527145862579346,-1.5359411239624023,-1.8907887935638428,-2.4779341220855713,-5.903789520263672,-2.065901279449463,-0.6631127595901489,-5.959475517272949,0.6970719695091248,1.5500773191452026,1.8975476026535034,0.9166721105575562,1.0731558799743652,2.2171249389648438,7.021429061889648,5.967433929443359,6.016509056091309,1.4553742408752441,1.8754792213439941,0.43531614542007446,-3.0113344192504883,-0.6210253238677979,-7.4164719581604,-5.916143417358398,-4.763144016265869,-2.7717370986938477,-0.6963577270507812,-1.6611143350601196,-1.820868730545044,-1.4194790124893188,6.328869819641113,2.5456206798553467,3.3748154640197754,0.8431695103645325,0.9068914651870728,0.3815954625606537,4.549357891082764
80,5.04278039932251,-5.122298717498779,0.05394458770751953,-0.12782646715641022,-1.512203574180603,-1.8758599758148193,-2.5080041885375977,-5.928280353546143,-2.0744104385375977,-0.6771379709243774,-5.96503210067749,0.6705632209777832,1.5445204973220825,1.8835222721099854,0.9081630706787109,1.048665165901184,2.189811944961548,6.992263317108154,5.936275959014893,6.044055461883545,1.4773601293563843,1.8643889427185059,0.43600383400917053,-3.0224246978759766,-0.5990393757820129,-7.406057357788086,-5.876780033111572,-4.762783050537109,-2.7990500926971436,-0.7189581394195557,-1.6803532838821411,-1.8280775547027588,-1.3963358402252197,6.306453704833984,2.5155506134033203,3.400376558303833,0.863470733165741,0.8789731860160828,0.3571431636810303,4.5405473709106445
81,5.056581020355225,-5.120294570922852,0.07838831841945648,-0.10083319246768951,-1.532321572303772,-1.8974699974060059,-2.477735996246338,-5.903587818145752,-2.06636905670166,-0.6626923084259033,-5.958313465118408,0.6906043291091919,1.5512391328811646,1.8979679346084595,0.9162045121192932,1.073357343673706,2.217223644256592,7.0191826820373535,5.968682289123535,6.019285678863525,1.455572485923767,1.8766162395477295,0.43126755952835083,-3.010197401046753,-0.6208269596099854,-7.469632148742676,-5.918998718261719,-4.725584506988525,-2.7716383934020996,-0.696438729763031,-1.6637418270111084,-1.8105956315994263,-1.407122254371643,6.330127239227295,2.54581880569458,3.388570547103882,0.8494369983673096,0.9035607576370239,0.38158687949180603,4.542551517486572
82,5.045505523681641,-5.1279377937316895,0.05355311185121536,-0.12380288541316986,-1.5088447332382202,-1.8822606801986694,-2.507969379425049,-5.928465843200684,-2.076143264770508,-0.6768001914024353,-5.964182376861572,0.6632668972015381,1.5453698635101318,1.8838601112365723,0.9064302444458008,1.0484793186187744,2.189479351043701,6.9891557693481445,5.936775207519531,6.0473785400390625,1.4778975248336792,1.864141821861267,0.4323476552963257,-3.022671937942505,-0.598501980304718,-7.4616289138793945,-5.87982702255249,-4.7264556884765625,-2.7993826866149902,-0.7194533944129944,-1.6824270486831665,-1.816513180732727,-1.3840000629425049,6.307335376739502,2.515585422515869,3.414655923843384,0.8695458769798279,0.8747993111610413,0.3567516803741455,4.534908294677734
83,5.060500144958496,-5.128239631652832,0.07835039496421814,-0.09643811732530594,-1.5275286436080933,-1.9039218425750732,-2.4777252674102783,-5.90341854095459,-2.066483497619629,-0.6622824668884277,-5.957606315612793,0.6830058693885803,1.5519462823867798,1.8983778953552246,0.9160900115966797,1.0735266208648682,2.2170510292053223,7.016113758087158,5.969595909118652,6.023312568664551,1.4557199478149414,1.8775782585144043,0.42618224024772644,-3.009235382080078,-0.6206794381141663,-7.532101631164551,-5.921947002410889,-4.686397075653076,-2.771811008453369,-0.6965794563293457,-1.6664518117904663,-1.7985703945159912,-1.3924190998077393,6.331295013427734,2.5458295345306396,3.403465986251831,0.8571433424949646,0.9001855850219727,0.3815489411354065,4.534606456756592
84,5.049321174621582,-5.134317398071289,0.053238146007061005,-0.11988192051649094,-1.5045666694641113,-1.8883780241012573,-2.50813364982605,-5.9285807609558105,-2.077752113342285,-0.6762810945510864,-5.963836669921875,0.6547217965126038,1.5457158088684082,1.884379267692566,0.9048213958740234,1.048364281654358,2.1889445781707764,6.985291957855225,5.9368414878845215,6.051952362060547,1.4784247875213623,1.8635259866714478,0.42787259817123413,-3.023287773132324,-0.5979746580123901,-7.527507305145264,-5.88338041305542,-4.688632488250732,-2.799917459487915,-0.7199658155441284,-1.6843914985656738,-1.802786111831665,-1.3696428537368774,6.308184623718262,2.515421152114868,3.4300498962402344,0.876666784286499,0.8704755306243896,0.35643669962882996,4.528528690338135
85,5.065518856048584,-5.1375346183776855,0.07832103967666626,-0.0923602432012558,-1.5214110612869263,-1.9098750352859497,-2.478083848953247,-5.9032487869262695,-2.066118001937866,-0.6616882085800171,-5.957579135894775,0.6737865209579468,1.5519733428955078,1.8989721536636353,0.9164556264877319,1.0736961364746094,2.2165489196777344,7.012178897857666,5.970057964324951,6.028942584991455,1.4560611248016357,1.878292441368103,0.41996002197265625,-3.008521318435669,-0.6203382611274719,-7.605525970458984,-5.925397872924805,-4.645573616027832,-2.772313117980957,-0.6968222260475159,-1.6691081523895264,-1.7846027612686157,-1.3750089406967163,6.332324028015137,2.545470952987671,3.419732093811035,0.866230309009552,0.8966490626335144,0.3815195858478546,4.525311470031738
86,5.054141521453857,-5.141488552093506,0.053076885640621185,-0.1163799837231636,-1.499350666999817,-1.8939534425735474,-2.508662462234497,-5.928553581237793,-2.0791473388671875,-0.6753013730049133,-5.964299201965332,0.6443977355957031,1.5452533960342407,1.8853590488433838,0.9034262895584106,1.0483912229537964,2.1881978511810303,6.9806904792785645,5.93621826171875,6.058091640472412,1.479178786277771,1.8623998165130615,0.4226521849632263,-3.0244140625,-0.5972205400466919,-7.6054816246032715,-5.887993812561035,-4.6491804122924805,-2.800664186477661,-0.7205221056938171,-1.6861155033111572,-1.786669135093689,-1.3529937267303467,6.308996200561523,2.514892339706421,3.4467270374298096,0.8846264481544495,0.8658269643783569,0.35627543926239014,4.521357536315918
87,5.071461200714111,-5.148355007171631,0.07835438847541809,-0.08900462836027145,-1.5139069557189941,-1.9150227308273315,-2.4790356159210205,-5.903033256530762,-2.0650832653045654,-0.6605929732322693,-5.958533763885498,0.662314772605896,1.5510190725326538,1.9000673294067383,0.9174901247024536,1.073911428451538,2.215664863586426,7.007362365722656,5.969906806945801,6.036557674407959,1.4569019079208374,1.8786689043045044,0.4126686453819275,-3.0081450939178467,-0.6194972991943359,-7.69146728515625,-5.929864406585693,-4.60307502746582,-2.7731971740722656,-0.69721519947052,-1.6714632511138916,-1.7686011791229248,-1.3545043468475342,6.333175182342529,2.5445191860198975,3.437575578689575,0.8765062689781189,0.8927586078643799,0.38155293464660645,4.514491081237793
88,5.059703826904297,-5.149415969848633,0.053160011768341064,-0.11376500129699707,-1.4932785034179688,-1.8986926078796387,-2.5097579956054688,-5.928302764892578,-2.0802066326141357,-0.6734544038772583,-5.966017723083496,0.6316056251525879,1.5435348749160767,1.887205958366394,0.9023668766021729,1.0486420392990112,2.1872386932373047,6.9754180908203125,5.93454122543335,6.066121578216553,1.4804692268371582,1.8605788946151733,0.41700097918510437,-3.0262351036071777,-0.5959299206733704,-7.697165012359619,-5.894354820251465,-4.607828617095947,-2.8016233444213867,-0.7211660742759705,-1.6874042749404907,-1.768095850944519,-1.33372962474823,6.309778213500977,2.513796806335449,3.4648005962371826,0.893069326877594,0.8605668544769287,0.3563585579395294,4.513430118560791
89,5.077928066253662,-5.1607666015625,0.07852431386709213,-0.08691754192113876,-1.5050925016403198,-1.9190245866775513,-2.4808216094970703,-5.902711868286133,-2.063122034072876,-0.6585427522659302,-5.96085786819458,0.647816002368927,1.5486950874328613,1.9021174907684326,0.9194515943527222,1.074233055114746,2.2143545150756836,7.001716613769531,5.968940734863281,6.046540260314941,1.4586248397827148,1.8786123991012573,0.40465739369392395,-3.008201837539673,-0.6177743077278137,-7.791203022003174,-5.935985565185547,-4.558746814727783,-2.774507522583008,-0.6978110074996948,-1.6731282472610474,-1.7506521940231323,-1.3304834365844727,6.333817481994629,2.5427331924438477,3.4571192264556885,0.8875463604927063,0.8882464170455933,0.3817228376865387,4.502079486846924
90,5.065488338470459,-5.157923221588135,0.053595904260873795,-0.11265217512845993,-1.4865516424179077,-1.9022828340530396,-2.5116121768951416,-5.927733421325684,-2.0807974338531494,-0.6702001094818115,-5.969619274139404,0.615505039691925,1.539933443069458,1.8904601335525513,0.9017761945724487,1.0492115020751953,2.1860852241516113,6.96963357925415,5.931361198425293,6.076321601867676,1.482688546180725,1.8578544855117798,0.41157838702201843,-3.0289597511291504,-0.5937106609344482,-7.803683280944824,-5.903300762176514,-4.564066410064697,-2.80277681350708,-0.7219541072845459,-1.6879891157150269,-1.7472872734069824,-1.3114492893218994,6.310545444488525,2.5119426250457764,3.484250783920288,0.9014252424240112,0.8542914390563965,0.35679444670677185,4.504922866821289
91,5.0842180252075195,-5.174629211425781,0.07892171293497086,-0.0867546945810318,-1.4952287673950195,-1.92152738571167,-2.4836339950561523,-5.902215480804443,-2.059906244277954,-0.6549652218818665,-5.965028285980225,0.6293989419937134,1.5445244312286377,1.9056949615478516,0.9226672649383545,1.0747298002243042,2.212594509124756,6.995411396026611,5.966934680938721,6.059210300445557,1.461685299873352,1.8780419826507568,0.39668726921081543,-3.008772373199463,-0.6147138476371765,-7.905396938323975,-5.944503307342529,-4.512209892272949,-2.7762675285339355,-0.6986610889434814,-1.6735678911209106,-1.73110830783844,-1.302480936050415,6.3342132568359375,2.5399208068847656,3.4783103466033936,0.8985595703125,0.8827970027923584,0.3821202516555786,4.488216876983643
92,5.0706658363342285,-5.16666841506958,0.054511863738298416,-0.11373846977949142,-1.4794790744781494,-1.9044450521469116,-2.514327049255371,-5.926741123199463,-2.0808167457580566,-0.664903461933136,-5.975934028625488,0.5951594114303589,1.5336189270019531,1.895756721496582,0.9017568230628967,1.0502041578292847,2.184802293777466,6.963636875152588,5.926229953765869,6.088822841644287,1.4862873554229736,1.854040503501892,0.4074455499649048,-3.032773733139038,-0.5901117324829102,-7.925189971923828,-5.915767192840576,-4.5170722007751465,-2.8040597438812256,-0.7229403853416443,-1.6875512599945068,-1.7248895168304443,-1.285658359527588,6.311305999755859,2.509227752685547,3.5048131942749023,0.9088406562805176,0.8465114831924438,0.35771042108535767,4.496177673339844
93,5.089282512664795,-5.189491271972656,0.07963807880878448,-0.08917102217674255,-1.4847745895385742,-1.9222134351730347,-2.4875190258026123,-5.901488304138184,-2.0550615787506104,-0.6492583155632019,-5.971597194671631,0.6061394214630127,1.537955403327942,1.9114019870758057,0.927511990070343,1.0754566192626953,2.210407257080078,6.988795757293701,5.963698863983154,6.074717998504639,1.4665579795837402,1.8769161701202393,0.39000236988067627,-3.0098981857299805,-0.6098411083221436,-8.03360366821289,-5.9561448097229,-4.4628095626831055,-2.7784547805786133,-0.6998043656349182,-1.6721731424331665,-1.7106436491012573,-1.2700018882751465,6.334274768829346,2.5360357761383057,3.500810384750366,0.9082406759262085,0.876123309135437,0.38283663988113403,4.473354816436768
94,5.074120998382568,-5.175189018249512,0.05604581907391548,-0.11763741075992584,-1.4724050760269165,-1.9050347805023193,-2.5178184509277344,-5.925225257873535,-2.080247402191162,-0.6569594144821167,-5.985971450805664,0.5696864128112793,1.5235812664031982,1.9037009477615356,0.9023261666297913,1.0517199039459229,2.1835525035858154,6.95792818069458,5.9188666343688965,6.103462219238281,1.4916765689849854,1.8490630388259888,0.40594393014907837,-3.0377514362335205,-0.5847225189208984,-8.060205459594727,-5.932607650756836,-4.465825080871582,-2.805309534072876,-0.7241474986076355,-1.6858389377593994,-1.7020494937896729,-1.255815863609314,6.312016010284424,2.5057363510131836,3.525867223739624,0.9141139388084412,0.8367526531219482,0.35924437642097473,4.487657070159912
95,5.091792583465576,-5.204520225524902,0.08072859793901443,-0.09460844099521637,-1.4743226766586304,-1.920894980430603,-2.4922916889190674,-5.900535583496094,-2.0482447147369385,-0.6409857869148254,-5.981138229370117,0.5772690773010254,1.5284146070480347,1.9196746349334717,0.9343289136886597,1.0764096975326538,2.207921028137207,6.98246955871582,5.959188938140869,6.0929179191589355,1.4735891819000244,1.8752671480178833,0.3861851692199707,-3.011547565460205,-0.6028099060058594,-8.17357063293457,-5.971307277679443,-4.409830570220947,-2.7809410095214844,-0.7012466192245483,-1.6684678792953491,-1.6902498006820679,-1.2326505184173584,6.333791255950928,2.5312631130218506,3.523918867111206,0.9146629571914673,0.8680911660194397,0.3839271366596222,4.4583258628845215
96,5.0746073722839355,-5.18301248550415,0.05831977725028992,-0.12460249662399292,-1.4655983448028564,-1.9041986465454102,-2.521759271621704,-5.9231276512146,-2.0792057514190674,-0.6460403800010681,-6.000776767730713,0.5385510921478271,1.508776307106018,1.914620041847229,0.903367817401886,1.0538173913955688,2.182691812515259,6.953264236450195,5.909433364868164,6.11967134475708,1.4990079402923584,1.8430743217468262,0.4082641899585724,-3.0437402725219727,-0.5773910880088806,-8.204792976379395,-5.95417594909668,-4.409666061401367,-2.8061702251434326,-0.7255240082740784,-1.6829395294189453,-1.6803497076034546,-1.2215546369552612,6.312510967254639,2.501795530319214,3.5463881492614746,0.9156352877616882,0.8247465491294861,0.36151832342147827,4.479833602905273
97,5.090371608734131,-5.2185587882995605,0.08215867727994919,-0.10300286114215851,-1.4644533395767212,-1.9176641702651978,-2.4975390434265137,-5.899478912353516,-2.0393550395965576,-0.630182683467865,-5.994083404541016,0.5425153374671936,1.5154695510864258,1.9304778575897217,0.9432184100151062,1.0774661302566528,2.205460786819458,6.9773406982421875,5.953689098358154,6.11333703994751,1.4827255010604858,1.8732428550720215,0.3866085112094879,-3.0135717391967773,-0.5936735272407532,-8.320374488830566,-5.989494323730469,-4.353278636932373,-2.7834012508392334,-0.7029330134391785,-1.6624305248260498,-1.671191930770874,-1.190551519393921,6.332350730895996,2.5260157585144043,3.5466060638427734,0.9153249859809875,0.8588530421257019,0.38535723090171814,4.444287300109863
98,5.07106351852417,-5.1897501945495605,0.06139054521918297,-0.13418611884117126,-1.4592171907424927,-1.9025248289108276,-2.5256316661834717,-5.9204840660095215,-2.07795786857605,-0.6324591040611267,-6.0209736824035645,0.5019912719726562,1.4885796308517456,1.92820143699646,0.9046154022216797,1.0564608573913574,2.1828486919403076,6.950687885284424,5.898895740509033,6.136549472808838,1.5078438520431519,1.836533546447754,0.4147332012653351,-3.050281047821045,-0.5685552358627319,-8.351747512817383,-5.979640007019043,-4.349524021148682,-2.806013345718384,-0.7268988490104675,-1.6796091794967651,-1.6615716218948364,-1.1832094192504883,6.312447547912598,2.4979231357574463,3.5650699138641357,0.9113631248474121,0.8107029795646667,0.364589124917984,4.473095893859863
99,5.084042072296143,-5.230381011962891,0.08376826345920563,-0.11351542174816132,-1.455611228942871,-1.9130454063415527,-2.502758502960205,-5.89858865737915,-2.028947114944458,-0.6176795363426208,-6.010375499725342,0.5025360584259033,1.4991778135299683,1.9429810047149658,0.9536260366439819,1.078356385231018,2.203599452972412,6.9745988845825195,5.948005199432373,6.135341644287109,1.49318528175354,1.871120572090149,0.3915160894393921,-3.0156939029693604,-0.583213746547699,-8.465737342834473,-6.008665084838867,-4.29524040222168,-2.7852625846862793,-0.7047238945960999,-1.65475594997406,-1.654969334602356,-1.1451416015625,6.329349517822266,2.520796298980713,3.567718505859375,0.9075225591659546,0.8488848209381104,0.3869668245315552,4.432465076446533
100,5.0630388259887695,-5.1951584815979,0.0651889368891716,-0.14498890936374664,-1.4534581899642944,-1.9009875059127808,-2.528912305831909,-5.917469024658203,-2.0768535137176514,-0.6174933314323425,-6.0458831787109375,0.4613547623157501,1.4636703729629517,1.9431672096252441,0.905719518661499,1.0594758987426758,2.1848015785217285,6.951414108276367,5.889265060424805,6.153237342834473,1.5168941020965576,1.8301829099655151,0.4242129325866699,-3.056631326675415,-0.5595049858093262,-8.490517616271973,-6.006279468536377,-4.2893548011779785,-2.804060459136963,-0.7279619574546814,-1.6772018671035767,-1.6473708152770996,-1.1425548791885376,6.311336994171143,2.494642496109009,3.58073091506958,0.899075448513031,0.795567512512207,0.36838749051094055,4.467687606811523
101,5.072727680206299,-5.239152908325195,0.08532566577196121,-0.12449764460325241,-1.4481579065322876,-1.9079502820968628,-2.5075387954711914,-5.898183345794678,-2.0186989307403564,-0.6051696538925171,-6.029109001159668,0.45910322666168213,1.4804444313049316,1.9554908275604248,0.9638740420341492,1.078761339187622,2.202975034713745,6.97547721862793,5.943389415740967,6.158359527587891,1.5033292770385742,1.8691388368606567,0.3993932008743286,-3.0176753997802734,-0.5730698108673096,-8.598543167114258,-6.025213718414307,-4.2407684326171875,-2.7858870029449463,-0.7064018845558167,-1.646863579750061,-1.6431198120117188,-1.0998088121414185,6.324235439300537,2.5160160064697266,3.5863542556762695,0.8892362117767334,0.8387786149978638,0.38852423429489136,4.4236931800842285
102,5.050981521606445,-5.199432849884033,0.06945908069610596,-0.15482988953590393,-1.448744535446167,-1.900421380996704,-2.531313180923462,-5.914400577545166,-2.0760657787323,-0.6032745838165283,-6.0727314949035645,0.41888511180877686,1.4368215799331665,1.9573858976364136,0.9065073728561401,1.0625442266464233,2.1888904571533203,6.9564104080200195,5.883147239685059,6.1694254875183105,1.5242173671722412,1.8249375820159912,0.4342615306377411,-3.0618767738342285,-0.5521817803382874,-8.609474182128906,-6.029585838317871,-4.235933303833008,-2.799971580505371,-0.7283471822738647,-1.6766854524612427,-1.6388659477233887,-1.102961778640747,6.308718681335449,2.492241621017456,3.5929744243621826,0.8772567510604858,0.7810341715812683,0.3726576268672943,4.463413238525391
103,5.057419776916504,-5.2448296546936035,0.08669235557317734,-0.13397090137004852,-1.4425748586654663,-1.9032831192016602,-2.5116264820098877,-5.898391246795654,-2.011329412460327,-0.594605565071106,-6.04875373840332,0.41458994150161743,1.4607993364334106,1.9660550355911255,0.9712438583374023,1.0785534381866455,2.203796863555908,6.9807281494140625,5.940911293029785,6.181641578674316,1.5110920667648315,1.8671178817749023,0.4077371656894684,-3.0196964740753174,-0.565307080745697,-8.707839012145996,-6.035507678985596,-4.196307182312012,-2.785065174102783,-0.7077432870864868,-1.6406759023666382,-1.6365935802459717,-1.059079885482788,6.3169755935668945,2.5119283199310303,3.6021769046783447,0.8603860139846802,0.8287802934646606,0.3898908793926239,4.41801643371582
104,5.036075115203857,-5.203575611114502,0.07372836768627167,-0.16163702309131622,-1.4456278085708618,-1.9007630348205566,-2.532900333404541,-5.911706924438477,-2.0752792358398438,-0.5919071435928345,-6.097362995147705,0.37680211663246155,1.4121901988983154,1.968753457069397,0.9072940349578857,1.0652376413345337,2.19425892829895,6.965769290924072,5.882316589355469,6.185513496398926,1.528063178062439,1.8216832876205444,0.4423721134662628,-3.0651309490203857,-0.5483359694480896,-8.700984954833984,-6.044895172119141,-4.1953444480896,-2.794603109359741,-0.7278618812561035,-1.6774970293045044,-1.636122703552246,-1.0679322481155396,6.3043718338012695,2.490654468536377,3.602602481842041,0.8463292121887207,0.7690266370773315,0.37692689895629883,4.459270477294922
105,5.039763927459717,-5.248096942901611,0.08793415874242783,-0.14057809114456177,-1.4395219087600708,-1.8995180130004883,-2.5148816108703613,-5.898991107940674,-2.0092613697052,-0.5870974063873291,-6.06797456741333,0.37104514241218567,1.44157874584198,1.9735631942749023,0.9733117818832397,1.077953577041626,2.205505609512329,6.990098476409912,5.940761089324951,6.203751087188721,1.5148937702178955,1.8644400835037231,0.414945513010025,-3.022374153137207,-0.5615053772926331,-8.787527084350586,-6.038179397583008,-4.165657997131348,-2.7833564281463623,-0.7086068987846375,-1.6380094289779663,-1.6351661682128906,-1.0260645151138306,6.308339595794678,2.5086731910705566,3.6152961254119873,0.8234795928001404,0.8186179399490356,0.3911326825618744,4.4147491455078125
106,5.019753932952881,-5.208819389343262,0.07740890234708786,-0.16461724042892456,-1.4445204734802246,-1.9010529518127441,-2.5339698791503906,-5.909814834594727,-2.074103593826294,-0.5843854546546936,-6.11671257019043,0.3364734947681427,1.3928409814834595,1.976275086402893,0.9084694981575012,1.0671297311782837,2.1990466117858887,6.978469371795654,5.886519908905029,6.2020416259765625,1.52773118019104,1.820807933807373,0.4474290609359741,-3.0660061836242676,-0.5486679673194885,-8.764961242675781,-6.049715995788574,-4.168838977813721,-2.7898154258728027,-0.7266665697097778,-1.6781121492385864,-1.6380071640014648,-1.0389615297317505,6.298466205596924,2.4895849227905273,3.611042022705078,0.8089768290519714,0.7606480121612549,0.3806074261665344,4.454026699066162
107,5.021463871002197,-5.249946117401123,0.08917207270860672,-0.1441846340894699,-1.4395458698272705,-1.8966729640960693,-2.5172996520996094,-5.899616718292236,-2.012814521789551,-0.582463264465332,-6.0859479904174805,0.3297734558582306,1.4236055612564087,1.9781972169876099,0.9697585105895996,1.077327847480774,2.207099437713623,7.002325057983398,5.9424662590026855,6.2230916023254395,1.5142902135849,1.8607794046401978,0.421019047498703,-3.0260345935821533,-0.5621089935302734,-8.838824272155762,-6.034364223480225,-4.147627353668213,-2.7817625999450684,-0.7089369893074036,-1.6393976211547852,-1.6377511024475098,-1.0006663799285889,6.299558162689209,2.5062551498413086,3.6258959770202637,0.7827389240264893,0.808160662651062,0.3923706114292145,4.412899971008301
108,5.003379821777344,-5.215444564819336,0.08007233589887619,-0.16453473269939423,-1.4456636905670166,-1.9004435539245605,-2.5348260402679443,-5.908932209014893,-2.0728683471679688,-0.5803373456001282,-6.130538463592529,0.29847201704978943,1.3790154457092285,1.9803231954574585,0.9097047448158264,1.0680123567581177,2.2017061710357666,6.992824077606201,5.893927574157715,6.218933582305908,1.523660659790039,1.821777582168579,0.4499058723449707,-3.0650362968444824,-0.5527384877204895,-8.806607246398926,-6.044793128967285,-4.152976989746094,-2.787155866622925,-0.7251479029655457,-1.677770733833313,-1.6428272724151611,-1.0152665376663208,6.2916483879089355,2.4887287616729736,3.619148015975952,0.7691612839698792,0.7554914951324463,0.38327088952064514,4.447401523590088
109,5.003947734832764,-5.25132942199707,0.09036318212747574,-0.14550894498825073,-1.4427385330200195,-1.8944894075393677,-2.51906156539917,-5.900087356567383,-2.0201401710510254,-0.5798391699790955,-6.10214376449585,0.29149967432022095,1.4074105024337769,1.9808213710784912,0.9624327421188354,1.0768568515777588,2.207735300064087,7.015716075897217,5.945550918579102,6.239168643951416,1.509903073310852,1.8565034866333008,0.4264553189277649,-3.0303103923797607,-0.5664960741996765,-8.868249893188477,-6.0259504318237305,-4.13799524307251,-2.7811267375946045,-0.7087377905845642,-1.6436567306518555,-1.6431106328964233,-0.9806015491485596,6.291698455810547,2.504493236541748,3.6341981887817383,0.7424379587173462,0.7979472279548645,0.3935617208480835,4.4115166664123535
110,4.988109111785889,-5.222736835479736,0.08163125067949295,-0.1628265678882599,-1.4491910934448242,-1.8988618850708008,-2.535667657852173,-5.9089436531066895,-2.0723206996917725,-0.578636884689331,-6.140589714050293,0.2630843222141266,1.3689647912979126,1.9820235967636108,0.9102522134780884,1.0680001974105835,2.2018654346466064,7.0071635246276855,5.902493476867676,6.235550880432129,1.5169241428375244,1.823461890220642,0.4508276581764221,-3.06335186958313,-0.5594750046730042,-8.832276344299316,-6.033116817474365,-4.143141269683838,-2.786996603012085,-0.7236436009407043,-1.676798701286316,-1.6491069793701172,-0.9952177405357361,6.284914493560791,2.487887144088745,3.626802921295166,0.7307661771774292,0.7522536516189575,0.3848297894001007,4.4401092529296875
111,4.988287448883057,-5.252909183502197,0.09133277833461761,-0.14543282985687256,-1.4487394094467163,-1.8926043510437012,-2.520430564880371,-5.9004435539245605,-2.028827428817749,-0.5783832669258118,-6.116369247436523,0.25660285353660583,1.3931851387023926,1.982277274131775,0.9537454843521118,1.0765002965927124,2.2070765495300293,7.0287861824035645,5.9496307373046875,6.2526631355285645,1.5029453039169312,1.8521603345870972,0.43135491013526917,-3.0346531867980957,-0.573453962802887,-8.883711814880371,-6.014604568481445,-4.132678031921387,-2.781785488128662,-0.7080937623977661,-1.6489722728729248,-1.6500890254974365,-0.9634813070297241,6.285397052764893,2.5031239986419678,3.6405694484710693,0.7057601809501648,0.788763165473938,0.3945313096046448,4.409936904907227
112,4.974798679351807,-5.229849815368652,0.08225253224372864,-0.16067880392074585,-1.4550213813781738,-1.896685242652893,-2.536587953567505,-5.90955924987793,-2.072824478149414,-0.5781571269035339,-6.148827075958252,0.23060065507888794,1.360727310180664,1.9825034141540527,0.9097483158111572,1.0673847198486328,2.200061559677124,7.020262718200684,5.9108147621154785,6.251266002655029,1.5087485313415527,1.824841022491455,0.4509247839450836,-3.0619726181030273,-0.5676506757736206,-8.847588539123535,-6.018099308013916,-4.135951519012451,-2.7888004779815674,-0.7223242521286011,-1.6757581233978271,-1.655813217163086,-0.9774563312530518,6.279210090637207,2.486966609954834,3.6335132122039795,0.6966411471366882,0.7498061656951904,0.3854510486125946,4.4329962730407715
113,4.975149631500244,-5.254932403564453,0.09195028245449066,-0.1446627825498581,-1.456910490989685,-1.8906850814819336,-2.5215911865234375,-5.900779724121094,-2.0370912551879883,-0.577520489692688,-6.128811359405518,0.2252882570028305,1.3807430267333984,1.9831401109695435,0.9454814791679382,1.0761644840240479,2.2052950859069824,7.040553569793701,5.954308986663818,6.264530658721924,1.4947422742843628,1.8480145931243896,0.43554186820983887,-3.0387990474700928,-0.5816569924354553,-8.891773223876953,-6.001804351806641,-4.129071235656738,-2.783566951751709,-0.7071502208709717,-1.6539984941482544,-1.6576462984085083,-0.947806179523468,6.28092098236084,2.5019631385803223,3.64544939994812,0.6745050549507141,0.7811206579208374,0.39514878392219543,4.407913684844971
114,4.963928699493408,-5.236273288726807,0.08218453079462051,-0.15878352522850037,-1.462728500366211,-1.8942452669143677,-2.5376055240631104,-5.910501003265381,-2.0742199420928955,-0.5781377553939819,-6.15653133392334,0.20131801068782806,1.353022813796997,1.98252272605896,0.9083528518676758,1.0664430856704712,2.197127103805542,7.031464099884033,5.918204307556152,6.265726566314697,1.5002540349960327,1.8253391981124878,0.45052433013916016,-3.061474323272705,-0.5761452317237854,-8.856868743896484,-6.002427577972412,-4.12955904006958,-2.7917349338531494,-0.7212464213371277,-1.6749683618545532,-1.6622618436813354,-0.9611865878105164,6.275094985961914,2.4859488010406494,3.6389684677124023,0.6683124899864197,0.7475799918174744,0.3853830397129059,4.426572799682617
115,4.96478271484375,-5.257314682006836,0.09221357107162476,-0.14368605613708496,-1.4664520025253296,-1.888491153717041,-2.5225942134857178,-5.901134967803955,-2.0439703464508057,-0.5768969058990479,-6.139831066131592,0.19767722487449646,1.3697232007980347,1.983763575553894,0.9386024475097656,1.0758090019226074,2.2028443813323975,7.050573825836182,5.95924186706543,6.275402545928955,1.4864213466644287,1.844077229499817,0.4388923645019531,-3.042736530303955,-0.5899779796600342,-8.896742820739746,-5.988841533660889,-4.125922203063965,-2.786017656326294,-0.706050455570221,-1.6581021547317505,-1.6650100946426392,-0.9329253435134888,6.278253555297852,2.500960111618042,3.6492273807525635,0.6493027806282043,0.7751752734184265,0.3954120874404907,4.405531406402588
116,4.955610275268555,-5.241811752319336,0.08165425062179565,-0.1574840396642685,-1.4715780019760132,-1.8916822671890259,-2.5386972427368164,-5.911587238311768,-2.076120615005493,-0.578175961971283,-6.164273738861084,0.1754356473684311,1.345280647277832,1.9824845790863037,0.9064521789550781,1.065356731414795,2.1937928199768066,7.040606498718262,5.924436092376709,6.278792381286621,1.4923198223114014,1.8247934579849243,0.44972503185272217,-3.0620205402374268,-0.5840796232223511,-8.862931251525879,-5.987792491912842,-4.123161315917969,-2.7950692176818848,-0.7204312086105347,-1.6745197772979736,-1.6680364608764648,-0.9460821747779846,6.272670269012451,2.4848570823669434,3.643141508102417,0.6461924910545349,0.7453980445861816,0.3848527669906616,4.421034336090088
117,4.957091808319092,-5.259822368621826,0.0922233909368515,-0.14280779659748077,-1.476505160331726,-1.8858779668807983,-2.5233922004699707,-5.901486396789551,-2.049103260040283,-0.5762845873832703,-6.149749279022217,0.17380057275295258,1.3598054647445679,1.9843759536743164,0.9334695339202881,1.0754574537277222,2.200204610824585,7.058837890625,5.964232921600342,6.2855072021484375,1.4787707328796387,1.840295433998108,0.4414505958557129,-3.046518564224243,-0.5976287126541138,-8.900895118713379,-5.976686954498291,-4.1228766441345215,-2.7886574268341064,-0.7048885226249695,-1.6611571311950684,-1.6717665195465088,-0.9186954498291016,6.277169227600098,2.500162124633789,3.652189016342163,0.6299806237220764,0.7708486318588257,0.3954218924045563,4.403023719787598
118,4.94967794418335,-5.246451377868652,0.08082901686429977,-0.1569410115480423,-1.4807087182998657,-1.8890132904052734,-2.5398168563842773,-5.912731647491455,-2.0781712532043457,-0.5780941247940063,-6.172163486480713,0.15297633409500122,1.3373907804489136,1.9825663566589355,0.9044015407562256,1.0642123222351074,2.190542459487915,7.047863483428955,5.929514408111572,6.290425777435303,1.4855254888534546,1.823317527770996,0.4485311508178711,-3.0634963512420654,-0.5908739566802979,-8.867244720458984,-5.97504186630249,-4.116540431976318,-2.7983195781707764,-0.7199018597602844,-1.6743953227996826,-1.67292320728302,-0.9321039319038391,6.271700382232666,2.4837374687194824,3.6461644172668457,0.6299585103988647,0.7432361245155334,0.38402751088142395,4.4163947105407715
119,4.951780796051025,-5.262205123901367,0.09211946278810501,-0.14219409227371216,-1.4862843751907349,-1.8827767372131348,-2.523890495300293,-5.901778221130371,-2.0524778366088867,-0.5755290985107422,-6.158754825592041,0.15356987714767456,1.3507994413375854,1.9851313829421997,0.9300951361656189,1.0751656293869019,2.19773268699646,7.065611362457275,5.969230651855469,6.29481840133667,1.4722243547439575,1.83665931224823,0.4434051513671875,-3.050154447555542,-0.6041750907897949,-8.905125617980957,-5.9659199714660645,-4.120088577270508,-2.7911293506622314,-0.7037031054496765,-1.6632966995239258,-1.6778055429458618,-0.9051977396011353,6.2773261070251465,2.499663829803467,3.654517412185669,0.615902841091156,0.7679519057273865,0.3953179717063904,4.400640964508057
