,0,1,2,3,4,5,6,7,8,9,10,11,12,13,14,15,16,17,18,19,20,21,22,23,24,25,26,27,28,29,30,31,32,33,34,35,36,37,38,39
0,2.779508113861084,-4.990675926208496,-5.558529853820801,-3.535017251968384,-3.871500015258789,-2.772176742553711,-5.922244071960449,-0.5761193037033081,-3.276984214782715,-0.12930305302143097,-2.779508113861084,0.12930305302143097,1.9284945726394653,0.30776742100715637,1.0697933435440063,2.45078706741333,3.3083927631378174,1.7817857265472412,1.27571702003479,5.223544120788574,2.0060629844665527,4.236588478088379,3.276984214782715,-4.236588478088379,-2.0060629844665527,-5.223544120788574,-1.27571702003479,-1.7817857265472412,-3.3083927631378174,-2.45078706741333,-1.0697933435440063,-0.30776742100715637,-1.9284945726394653,0.5761193037033081,5.922244071960449,2.772176742553711,3.871500015258789,3.535017251968384,5.558529853820801,4.990675926208496
1,2.8323307037353516,-4.937853813171387,-5.505707740783691,-3.5878398418426514,-3.8186774253845215,-2.8249990940093994,-5.9750657081604,-0.5232968330383301,-3.3298068046569824,-0.18212561309337616,-2.7266855239868164,0.07648049294948578,1.981317162513733,0.2549448609352112,1.0169707536697388,2.5036096572875977,3.255570411682129,1.8346081972122192,1.2228944301605225,5.276366710662842,2.0588834285736084,4.1837663650512695,3.2241616249084473,-4.289410591125488,-1.9532424211502075,-5.170721530914307,-1.3285396099090576,-1.7289632558822632,-3.361215114593506,-2.3979644775390625,-1.122615933418274,-0.36058998107910156,-1.8756719827651978,0.6289417743682861,5.869422435760498,2.7193543910980225,3.9243226051330566,3.482194662094116,5.61135196685791,5.0434980392456055
2,2.8469789028167725,-4.988039493560791,-5.511193752288818,-3.6300182342529297,-3.7875423431396484,-2.7760159969329834,-6.025148868560791,-0.4878070056438446,-3.344691038131714,-0.23142734169960022,-2.711177349090576,0.027380727231502533,1.9968253374099731,0.20564313232898712,1.0020865201950073,2.5390994548797607,3.2097668647766113,1.8047422170639038,1.2159215211868286,5.319935321807861,2.110947608947754,4.224777698516846,3.210803985595703,-4.248399257659912,-1.901178240776062,-5.126748085021973,-1.3380624055862427,-1.754503846168518,-3.4070186614990234,-2.3664510250091553,-1.1159586906433105,-0.409274160861969,-1.856649398803711,0.664150595664978,5.819339275360107,2.7674036026000977,3.9519717693328857,3.4397590160369873,5.605865955352783,4.993312358856201
3,2.85642671585083,-5.036938667297363,-5.517913818359375,-3.668637990951538,-3.8055660724639893,-2.8167364597320557,-5.972349166870117,-0.4491177201271057,-3.3866658210754395,-0.2688157558441162,-2.6982696056365967,-0.012671113014221191,2.009733200073242,0.16825470328330994,0.9601116180419922,2.577788829803467,3.2586634159088135,1.8539737462997437,1.2099100351333618,5.359871864318848,2.164534568786621,4.251950740814209,3.1664133071899414,-4.221226215362549,-1.8475914001464844,-5.087045192718506,-1.3473740816116333,-1.703537940979004,-3.3581221103668213,-2.328220844268799,-1.144423484802246,-0.444410502910614,-1.841683268547058,0.6998879909515381,5.872138977050781,2.7238211631774902,3.9286413192749023,3.4013113975524902,5.599145889282227,4.944413185119629
4,2.842367649078369,-5.08903694152832,-5.458784103393555,-3.7071709632873535,-3.784083604812622,-2.7795751094818115,-5.961249828338623,-0.5023547410964966,-3.4126172065734863,-0.30940374732017517,-2.7041337490081787,-0.053521838039159775,2.00386905670166,0.12766671180725098,0.9341602921485901,2.5245518684387207,3.266218900680542,1.842588186264038,1.2024770975112915,5.399082660675049,2.106016159057617,4.2958269119262695,3.123760223388672,-4.177350044250488,-1.9061098098754883,-5.0483598709106445,-1.345772624015808,-1.7171269655227661,-3.3505666255950928,-2.3821568489074707,-1.1405279636383057,-0.4873744547367096,-1.8410893678665161,0.645866870880127,5.883238315582275,2.765655994415283,3.957094192504883,3.364107370376587,5.658275604248047,4.892314910888672
5,2.8114349842071533,-5.110337257385254,-5.486717224121094,-3.747119426727295,-3.8302347660064697,-2.8278751373291016,-5.950329303741455,-0.4537537395954132,-3.476687431335449,-0.343311607837677,-2.7267324924468994,-0.0938655436038971,1.98127019405365,0.09375883638858795,0.8700899481773376,2.573152780532837,3.2599735260009766,1.904280185699463,1.196197271347046,5.440666675567627,2.1589086055755615,4.258808135986328,3.0591816902160645,-4.21436882019043,-1.8532172441482544,-5.008509635925293,-1.3515301942825317,-1.6586863994598389,-3.356812000274658,-2.3318960666656494,-1.2034637928009033,-0.5224806070327759,-1.861025094985962,0.6912758946418762,5.894158840179443,2.7230498790740967,3.902099609375,3.325792074203491,5.630342483520508,4.871014595031738
6,2.7609593868255615,-5.160776615142822,-5.422926425933838,-3.78257417678833,-3.7750139236450195,-2.796596050262451,-5.8901190757751465,-0.5090458989143372,-3.5107390880584717,-0.3890933692455292,-2.771559476852417,-0.14292649924755096,1.9364432096481323,0.04797707870602608,0.8360381722450256,2.5178606510162354,3.30979061126709,1.9145430326461792,1.178446650505066,5.477745532989502,2.10713529586792,4.298713684082031,3.009629011154175,-4.174463272094727,-1.904990553855896,-4.971768856048584,-1.339942216873169,-1.651956558227539,-3.306994915008545,-2.3856239318847656,-1.2044620513916016,-0.5677585601806641,-1.8958725929260254,0.6348233222961426,5.954369068145752,2.7747344970703125,3.9554057121276855,3.2935433387756348,5.694133281707764,4.82057523727417
7,2.7231943607330322,-5.179600238800049,-5.452840328216553,-3.807432174682617,-3.7815568447113037,-2.826739549636841,-5.930813312530518,-0.46355023980140686,-3.5760650634765625,-0.42190587520599365,-2.7996973991394043,-0.18283651769161224,1.908305287361145,0.015164576470851898,0.7707122564315796,2.563356399536133,3.2543420791625977,1.976051926612854,1.1944187879562378,5.513685703277588,2.159604072570801,4.259732723236084,2.9443166255950928,-4.213444232940674,-1.8525216579437256,-4.938608169555664,-1.3196845054626465,-1.5915765762329102,-3.362443447113037,-2.336859941482544,-1.2633662223815918,-0.6009467840194702,-1.9168668985366821,0.6787840723991394,5.913674831390381,2.7768733501434326,3.9204795360565186,3.270449638366699,5.664219379425049,4.801751613616943
8,2.680548906326294,-5.2176971435546875,-5.411287784576416,-3.820657968521118,-3.7302262783050537,-2.810495376586914,-5.855668067932129,-0.4945317208766937,-3.599006175994873,-0.4547899663448334,-2.8389976024627686,-0.22443577647209167,1.8690050840377808,-0.017719510942697525,0.7477712631225586,2.532374858856201,3.319920539855957,1.9984867572784424,1.1526095867156982,5.539947509765625,2.141808032989502,4.319041728973389,2.902338981628418,-4.154135227203369,-1.8703175783157349,-4.912930488586426,-1.3180772066116333,-1.5698899030685425,-3.2968649864196777,-2.3638856410980225,-1.2335693836212158,-0.6271242499351501,-1.9404302835464478,0.647338330745697,5.9888200759887695,2.837427854537964,3.9647037982940674,3.2604482173919678,5.7057719230651855,4.763654708862305
9,2.6644489765167236,-5.230865478515625,-5.446556568145752,-3.8214452266693115,-3.743757486343384,-2.830638885498047,-5.876428127288818,-0.44995224475860596,-3.6469197273254395,-0.46465906500816345,-2.8431735038757324,-0.2475818246603012,1.8648290634155273,-0.027588598430156708,0.6998578310012817,2.5769543647766113,3.2820379734039307,2.0576694011688232,1.171020269393921,5.565046787261963,2.1959469318389893,4.3221211433410645,2.8515067100524902,-4.151055812835693,-1.816178560256958,-4.892115592956543,-1.2849957942962646,-1.5100288391113281,-3.334747552871704,-2.315018653869629,-1.2540385723114014,-0.6365753412246704,-1.931046724319458,0.6908040046691895,5.968059539794922,2.860750913619995,3.9273526668548584,3.256819486618042,5.67050313949585,4.750486373901367
10,2.636272430419922,-5.262251853942871,-5.403915882110596,-3.824089527130127,-3.7169504165649414,-2.8138375282287598,-5.8386993408203125,-0.4852749705314636,-3.6701390743255615,-0.4809221029281616,-2.869190216064453,-0.27876436710357666,1.8388124704360962,-0.04385162517428398,0.6766385436058044,2.5416314601898193,3.3143508434295654,2.0724377632141113,1.1157581806182861,5.58437442779541,2.1747429370880127,4.364910125732422,2.8149261474609375,-4.108266830444336,-1.837382435798645,-4.876354694366455,-1.2857922315597534,-1.4972323179244995,-3.3024346828460693,-2.34682035446167,-1.2334001064300537,-0.652403712272644,-1.9426991939544678,0.6538886427879333,6.005788326263428,2.916119337081909,3.9570388793945312,3.2550177574157715,5.713143825531006,4.719099998474121
11,2.6336541175842285,-5.255205154418945,-5.43586540222168,-3.8137238025665283,-3.739354372024536,-2.8337230682373047,-5.859358310699463,-0.4497383236885071,-3.7020039558410645,-0.4770403206348419,-2.8612544536590576,-0.29168033599853516,1.8467479944229126,-0.039969831705093384,0.6447736620903015,2.5771682262420654,3.280972957611084,2.1198570728302,1.1280043125152588,5.602867603302002,2.221101999282837,4.370773792266846,2.7768893241882324,-4.102403163909912,-1.7910232543945312,-4.864118576049805,-1.2511221170425415,-1.444183111190796,-3.335812568664551,-2.3068110942840576,-1.2464313507080078,-0.6504534482955933,-1.923195719718933,0.6886100172996521,5.985129356384277,2.9377598762512207,3.920527219772339,3.2577407360076904,5.681194305419922,4.726146697998047
12,2.612919807434082,-5.274516582489014,-5.397697448730469,-3.8127546310424805,-3.7121198177337646,-2.825244188308716,-5.835827350616455,-0.48593610525131226,-3.7160892486572266,-0.48518654704093933,-2.8809099197387695,-0.31635454297065735,1.8270924091339111,-0.04811606556177139,0.6306881904602051,2.54097056388855,3.305900812149048,2.1195132732391357,1.073406457901001,5.61707067489624,2.1987874507904053,4.403387069702148,2.748533010482788,-4.069789886474609,-1.8133379220962524,-4.85512113571167,-1.2483389377593994,-1.4398852586746216,-3.310884714126587,-2.339716672897339,-1.234164834022522,-0.6619898676872253,-1.9330393075942993,0.6516980528831482,6.008660316467285,2.9853334426879883,3.952744722366333,3.257490396499634,5.719362258911133,4.7068352699279785
13,2.6167654991149902,-5.253072738647461,-5.429651737213135,-3.7989773750305176,-3.7341928482055664,-2.8483786582946777,-5.857165813446045,-0.4559052288532257,-3.7328696250915527,-0.47684627771377563,-2.869034767150879,-0.3236447870731354,1.8389675617218018,-0.03977580368518829,0.6139078736305237,2.5710012912750244,3.2762913703918457,2.149156332015991,1.08206307888031,5.630317687988281,2.239715099334717,4.403835296630859,2.7211334705352783,-4.069341659545898,-1.772410273551941,-4.848761558532715,-1.2160059213638306,-1.3955402374267578,-3.340494155883789,-2.305429697036743,-1.2519092559814453,-0.6578240394592285,-1.9133471250534058,0.6818006634712219,5.987321853637695,3.001343011856079,3.921182870864868,3.2604947090148926,5.687407970428467,4.728279113769531
14,2.600351095199585,-5.267760276794434,-5.398158073425293,-3.7975518703460693,-3.70188570022583,-2.849050283432007,-5.8386125564575195,-0.4905274510383606,-3.7362844944000244,-0.4811667203903198,-2.8857829570770264,-0.34316396713256836,1.8222196102142334,-0.044096216559410095,0.6104931235313416,2.536379098892212,3.299917221069336,2.1356327533721924,1.0274746417999268,5.639735221862793,2.218562126159668,4.431354522705078,2.7010810375213623,-4.04182243347168,-1.7935633659362793,-4.844930171966553,-1.2148724794387817,-1.3968788385391235,-3.316868305206299,-2.33720326423645,-1.2456996440887451,-0.6681734323501587,-1.9233516454696655,0.6475855708122253,6.005875110626221,3.0411269664764404,3.956885814666748,3.2589049339294434,5.718901634216309,4.713591575622559
15,2.6074469089508057,-5.2424421310424805,-5.429896831512451,-3.7839722633361816,-3.7239599227905273,-2.8762640953063965,-5.864059925079346,-0.4651578664779663,-3.7429349422454834,-0.471664160490036,-2.873427629470825,-0.3468601405620575,1.834574818611145,-0.034593645483255386,0.6038427948951721,2.561748743057251,3.269001007080078,2.152353286743164,1.0328007936477661,5.648102283477783,2.254815101623535,4.425397872924805,2.681285858154297,-4.047779083251953,-1.7573105096817017,-4.8434343338012695,-1.1862177848815918,-1.3580878973007202,-3.3477845191955566,-2.3076932430267334,-1.27020263671875,-0.6650412082672119,-1.905337929725647,0.6739070415496826,5.9804277420043945,3.050497531890869,3.9300777912139893,3.260443925857544,5.68716287612915,4.738909721374512
16,2.593846559524536,-5.256722450256348,-5.404847621917725,-3.7828409671783447,-3.6882195472717285,-2.8852150440216064,-5.841551303863525,-0.4973917007446289,-3.7376112937927246,-0.47422605752944946,-2.8892979621887207,-0.3624488413333893,1.818704605102539,-0.03715554252266884,0.6091663241386414,2.529514789581299,3.2953274250030518,2.132520914077759,0.9761112332344055,5.6526899337768555,2.236077070236206,4.452287673950195,2.668203592300415,-4.0208892822265625,-1.7760485410690308,-4.844081401824951,-1.1911818981170654,-1.36066734790802,-3.321458101272583,-2.33748459815979,-1.2655291557312012,-0.6749801635742188,-1.9153578281402588,0.643028736114502,6.002936363220215,3.0833065509796143,3.9669079780578613,3.257841110229492,5.712212085723877,4.7246294021606445
17,2.6029648780822754,-5.232166290283203,-5.4363884925842285,-3.7708733081817627,-3.711103916168213,-2.9134697914123535,-5.875359535217285,-0.4761452376842499,-3.740631103515625,-0.4647444486618042,-2.877830982208252,-0.3637751042842865,1.8301714658737183,-0.02767394669353962,0.6061466932296753,2.5507612228393555,3.2571990489959717,2.143824338912964,0.9813297986984253,5.656954288482666,2.268616199493408,4.437584400177002,2.6528947353363037,-4.035592555999756,-1.743509292602539,-4.846753120422363,-1.1613410711288452,-1.3235162496566772,-3.359586477279663,-2.3117294311523438,-1.2981877326965332,-0.6740859746932983,-1.898574948310852,0.6661743521690369,5.969128131866455,3.0866405963897705,3.9440252780914307,3.258010149002075,5.680671215057373,4.749185085296631
18,2.59082293510437,-5.24785852432251,-5.416446208953857,-3.769972085952759,-3.6727101802825928,-2.9284160137176514,-5.841339111328125,-0.5062547922134399,-3.7274954319000244,-0.4668072462081909,-2.894592523574829,-0.3768390119075775,1.8134099245071411,-0.029736757278442383,0.619282603263855,2.5206518173217773,3.290310859680176,2.1217596530914307,0.9200935959815979,5.656907558441162,2.252692222595215,4.469522476196289,2.645911693572998,-4.003654479980469,-1.7594331502914429,-4.8511552810668945,-1.1765910387039185,-1.3254424333572388,-3.326474666595459,-2.3397951126098633,-1.2890328168869019,-0.6832845211029053,-1.909065842628479,0.6381873488426208,6.003148555755615,3.115307331085205,3.980929374694824,3.2557334899902344,5.700613498687744,4.733492851257324
19,2.6015100479125977,-5.223740100860596,-5.448131084442139,-3.760178327560425,-3.6988649368286133,-2.9542789459228516,-5.8867573738098145,-0.48848757147789,-3.7329423427581787,-0.4579743444919586,-2.8842222690582275,-0.3765764832496643,1.8237802982330322,-0.02090383693575859,0.6138358116149902,2.538419008255005,3.2405307292938232,2.1326780319213867,0.9285470247268677,5.658311367034912,2.282769203186035,4.442310810089111,2.6321098804473877,-4.0308661460876465,-1.7293559312820435,-4.857266902923584,-1.1396743059158325,-1.2870335578918457,-3.3762547969818115,-2.3165431022644043,-1.3324497938156128,-0.6849585175514221,-1.892889142036438,0.6588221192359924,5.957730293273926,3.113164186477661,3.9597880840301514,3.2549479007720947,5.668928623199463,4.757611274719238
20,2.5895168781280518,-5.24302864074707,-5.432034015655518,-3.7595620155334473,-3.655698299407959,-2.973381519317627,-5.840219497680664,-0.5169767141342163,-3.7113959789276123,-0.45998966693878174,-2.90323543548584,-0.3882461488246918,1.8047670125961304,-0.022919176146388054,0.6353821754455566,2.509929895401001,3.2807810306549072,2.1098971366882324,0.8617388010025024,5.654306888580322,2.2696869373321533,4.484316825866699,2.63114070892334,-3.9888601303100586,-1.7424381971359253,-4.864411354064941,-1.1676558256149292,-1.2880537509918213,-3.3360044956207275,-2.343461275100708,-1.313345193862915,-0.6922223567962646,-1.9044336080551147,0.633160412311554,6.004268169403076,3.1407668590545654,3.997849941253662,3.2539243698120117,5.685025691986084,4.738322734832764
21,2.601330518722534,-5.215850830078125,-5.463862419128418,-3.7520079612731934,-3.6883158683776855,-2.99497389793396,-5.8926100730896,-0.5022807717323303,-3.7234721183776855,-0.45270755887031555,-2.8937785625457764,-0.387183278799057,1.8142238855361938,-0.01563706248998642,0.6233059167861938,2.5246260166168213,3.2222089767456055,2.122364044189453,0.8722110986709595,5.6537885665893555,2.298475503921509,4.444285869598389,2.6163642406463623,-4.028891086578369,-1.7136496305465698,-4.873494625091553,-1.1246309280395508,-1.2467113733291626,-3.3945765495300293,-2.3218491077423096,-1.3675448894500732,-0.6963563561439514,-1.8890081644058228,0.6516445875167847,5.951877593994141,3.1337788105010986,3.9755311012268066,3.2530033588409424,5.653197288513184,4.765500545501709
22,2.588653564453125,-5.241245746612549,-5.451286792755127,-3.7523210048675537,-3.6371781826019287,-3.016052722930908,-5.842741012573242,-0.529464602470398,-3.6945552825927734,-0.45476073026657104,-2.9155430793762207,-0.39813458919525146,1.79245924949646,-0.017690252512693405,0.6522228121757507,2.4974422454833984,3.2618355751037598,2.1001663208007812,0.8031097650527954,5.64725399017334,2.2881219387054443,4.4939141273498535,2.6209464073181152,-3.979262590408325,-1.7240030765533447,-4.882129669189453,-1.159693956375122,-1.2462208271026611,-3.354949951171875,-2.347651720046997,-1.340016484260559,-0.7012056708335876,-1.9009965658187866,0.6281014084815979,6.001746654510498,3.161234140396118,4.017146587371826,3.2529964447021484,5.665772914886475,4.740105628967285
23,2.6008052825927734,-5.209034442901611,-5.482899188995361,-3.7464537620544434,-3.675597906112671,-3.0347774028778076,-5.891496181488037,-0.5175632238388062,-3.7121500968933105,-0.4498624801635742,-2.907069683074951,-0.3973769247531891,1.800932765007019,-0.012791995890438557,0.6346281170845032,2.5093436241149902,3.2029824256896973,2.1135406494140625,0.8082740306854248,5.644739151000977,2.3167319297790527,4.4492878913879395,2.604846715927124,-4.02388858795166,-1.6953930854797363,-4.893962383270264,-1.1210834980010986,-1.2018848657608032,-3.4138031005859375,-2.32742977142334,-1.3980200290679932,-0.7069997191429138,-1.8874636888504028,0.644747793674469,5.952991485595703,3.151550531387329,3.992449998855591,3.2534003257751465,5.63416051864624,4.772316932678223
24,2.5870213508605957,-5.2386345863342285,-5.47362756729126,-3.7486045360565186,-3.6182188987731934,-3.056157350540161,-5.84722375869751,-0.5438098311424255,-3.680837869644165,-0.4528479278087616,-2.931305170059204,-0.408415287733078,1.7766975164413452,-0.015777427703142166,0.6659402847290039,2.4830970764160156,3.233480453491211,2.093137264251709,0.7406526207923889,5.637126445770264,2.30893611907959,4.497826099395752,2.6126673221588135,-3.9753506183624268,-1.7031888961791992,-4.9032816886901855,-1.1546688079833984,-1.198232650756836,-3.383305072784424,-2.3517050743103027,-1.3708148002624512,-0.7107375860214233,-1.8990910053253174,0.6229262948036194,5.9972639083862305,3.1768882274627686,4.037576198577881,3.253852605819702,5.643432140350342,4.7427167892456055
25,2.598618984222412,-5.204473495483398,-5.5051984786987305,-3.744110584259033,-3.654977798461914,-3.0746076107025146,-5.887598514556885,-0.534424364566803,-3.6995363235473633,-0.4503816068172455,-2.924258232116699,-0.4089623987674713,1.783744215965271,-0.013311098329722881,0.6472417116165161,2.4924826622009277,3.1779160499572754,2.106708288192749,0.7349655628204346,5.632464408874512,2.3382411003112793,4.457496166229248,2.5968780517578125,-4.01568078994751,-1.6738837957382202,-4.917254447937012,-1.1288608312606812,-1.1514363288879395,-3.4388694763183594,-2.33270001411438,-1.425061583518982,-0.7162114977836609,-1.8880913257598877,0.6384320259094238,5.9568891525268555,3.1671602725982666,4.0139241218566895,3.2566170692443848,5.611861228942871,4.7768778800964355
26,2.5831105709075928,-5.232488632202148,-5.498138904571533,-3.7486422061920166,-3.5966272354125977,-3.0973827838897705,-5.850284099578857,-0.560043454170227,-3.670405149459839,-0.4559798836708069,-2.9507598876953125,-0.4215978980064392,1.7572425603866577,-0.018909363076090813,0.6763728857040405,2.4668636322021484,3.1971168518066406,2.087801694869995,0.6682915091514587,5.6242265701293945,2.3331546783447266,4.49998664855957,2.6052770614624023,-3.9731903076171875,-1.6789700984954834,-4.927238941192627,-1.1593070030212402,-1.143028736114502,-3.419668674468994,-2.355133533477783,-1.4044545888900757,-0.720135509967804,-1.9003736972808838,0.6176683902740479,5.994203567504883,3.1880383491516113,4.0593671798706055,3.257871389389038,5.618920803070068,4.7488627433776855
27,2.593245029449463,-5.1996002197265625,-5.5300679206848145,-3.7459499835968018,-3.624516010284424,-3.1162831783294678,-5.884219646453857,-0.5530034899711609,-3.687856435775757,-0.45606356859207153,-2.945744037628174,-0.424479603767395,1.7622586488723755,-0.018993042409420013,0.6589217185974121,2.4739036560058594,3.1426801681518555,2.101557493209839,0.6503876447677612,5.617764949798584,2.3637771606445312,4.467139720916748,2.590949535369873,-4.00603723526001,-1.6483473777770996,-4.942599296569824,-1.1490962505340576,-1.0935698747634888,-3.4741053581237793,-2.3368642330169678,-1.4525268077850342,-0.7234388589859009,-1.8917871713638306,0.6326733231544495,5.960268020629883,3.1794111728668213,4.0413408279418945,3.2633392810821533,5.586991310119629,4.7817511558532715
28,2.5750572681427,-5.221912860870361,-5.523926734924316,-3.753208637237549,-3.5669572353363037,-3.141631841659546,-5.852005958557129,-0.5779262185096741,-3.66249942779541,-0.46580156683921814,-2.9747283458709717,-0.4406411349773407,1.733274221420288,-0.02873103879392147,0.6842787265777588,2.4489808082580566,3.1518406867980957,2.082674741744995,0.5820136070251465,5.608704566955566,2.361783266067505,4.503514289855957,2.5984978675842285,-3.9696624279022217,-1.650341272354126,-4.953413963317871,-1.1799837350845337,-1.0794836282730103,-3.464944839477539,-2.3570728302001953,-1.4401049613952637,-0.7279633283615112,-1.9064836502075195,0.61265629529953,5.992481708526611,3.194883346557617,4.085430145263672,3.2661051750183105,5.593132495880127,4.759438514709473
29,2.582571029663086,-5.190872669219971,-5.555945873260498,-3.753277063369751,-3.582827091217041,-3.1612823009490967,-5.882967472076416,-0.5731701850891113,-3.678637742996216,-0.4690689146518707,-2.972402334213257,-0.447582870721817,1.735600233078003,-0.03199836611747742,0.6681405305862427,2.4537367820739746,3.095804214477539,2.096222162246704,0.5513787269592285,5.6007609367370605,2.394050359725952,4.477838039398193,2.585510492324829,-3.9953386783599854,-1.6180741786956787,-4.969694137573242,-1.1879684925079346,-1.0266567468643188,-3.5209813117980957,-2.3389763832092285,-1.482808232307434,-0.728778064250946,-1.9008681774139404,0.6273193955421448,5.961520195007324,3.1868319511413574,4.075419902801514,3.2741332054138184,5.561113357543945,4.790478706359863
30,2.560807704925537,-5.205916404724121,-5.549465656280518,-3.7637829780578613,-3.5253489017486572,-3.1885337829589844,-5.85460901260376,-0.5968543887138367,-3.6567282676696777,-0.48356255888938904,-3.003891944885254,-0.46944576501846313,1.7041107416152954,-0.046492017805576324,0.6900498867034912,2.4300525188446045,3.0971415042877197,2.0754613876342773,0.47956350445747375,5.590567588806152,2.395296812057495,4.509341716766357,2.5915944576263428,-3.9638350009918213,-1.6168277263641357,-4.981205940246582,-1.2239654064178467,-1.0065221786499023,-3.519644021987915,-2.356253147125244,-1.478456735610962,-0.7343322038650513,-1.9194602966308594,0.6080762147903442,5.9898786544799805,3.1972293853759766,4.118420124053955,3.278520345687866,5.567593574523926,4.775434970855713
31,2.5642874240875244,-5.176357269287109,-5.580375671386719,-3.7680554389953613,-3.5287256240844727,-3.2099130153656006,-5.885209560394287,-0.5944079756736755,-3.6718974113464355,-0.49008816480636597,-3.004627227783203,-0.4828639626502991,1.7033755779266357,-0.05301763117313385,0.674880862236023,2.4324989318847656,3.03955078125,2.0874178409576416,0.4366157054901123,5.581308364868164,2.4285271167755127,4.489131927490234,2.579134941101074,-3.9840447902679443,-1.5835974216461182,-4.997809410095215,-1.2525696754455566,-0.9502777457237244,-3.5772347450256348,-2.338141918182373,-1.5174357891082764,-0.7342519760131836,-1.918480396270752,0.6219996213912964,5.959278106689453,3.188607692718506,4.116998672485352,3.2879693508148193,5.536683559417725,4.804994106292725
32,2.5389928817749023,-5.184625148773193,-5.572444438934326,-3.782627582550049,-3.47214674949646,-3.236717462539673,-5.860170841217041,-0.6157690286636353,-3.6518266201019287,-0.5075531601905823,-3.0370357036590576,-0.5121445059776306,1.6709673404693604,-0.07048259675502777,0.6949516534805298,2.4111380577087402,3.0378034114837646,2.062843084335327,0.3626101315021515,5.569859504699707,2.4320976734161377,4.516058921813965,2.5834693908691406,-3.9571175575256348,-1.5800268650054932,-5.0091071128845215,-1.2960783243179321,-0.9248853325843811,-3.57898211479187,-2.3517236709594727,-1.5208230018615723,-0.7419098615646362,-1.9416606426239014,0.6037651896476746,5.984316825866699,3.195430278778076,4.1585869789123535,3.29262113571167,5.544614791870117,4.796726226806641
33,2.5374205112457275,-5.157296657562256,-5.600913047790527,-3.7928004264831543,-3.4657087326049805,-3.2613980770111084,-5.891235828399658,-0.6155146956443787,-3.6655972003936768,-0.5148282051086426,-3.039487838745117,-0.53369140625,1.6685149669647217,-0.07775765657424927,0.6811810731887817,2.4113924503326416,2.983631134033203,2.071031093597412,0.31196364760398865,5.559543132781982,2.463695764541626,4.497957706451416,2.570706367492676,-3.9752185344696045,-1.5484288930892944,-5.02448844909668,-1.3410900831222534,-0.8674814105033875,-3.6331543922424316,-2.3342511653900146,-1.5576142072677612,-0.7436689138412476,-1.9468129873275757,0.6164166927337646,5.953251838684082,3.1851699352264404,4.164052486419678,3.300659656524658,5.516146183013916,4.824054718017578
34,2.510249376296997,-5.162100315093994,-5.591859817504883,-3.812152624130249,-3.413935899734497,-3.286025047302246,-5.868102073669434,-0.633128821849823,-3.6444685459136963,-0.5297794342041016,-3.068265438079834,-0.5698030591011047,1.639737606048584,-0.09270890057086945,0.702309787273407,2.3937783241271973,2.987933397293091,2.0418362617492676,0.24146276712417603,5.547206401824951,2.4668610095977783,4.519296646118164,2.573690891265869,-3.9538798332214355,-1.545263648033142,-5.033354759216309,-1.3884320259094238,-0.8403767943382263,-3.628852128982544,-2.3444766998291016,-1.567007303237915,-0.7539541125297546,-1.9732714891433716,0.6000245809555054,5.976385593414307,3.1900475025177,4.201857566833496,3.302716016769409,5.5251994132995605,4.81925106048584
35,2.503830909729004,-5.139071464538574,-5.618415355682373,-3.828826427459717,-3.403470754623413,-3.316110849380493,-5.8989763259887695,-0.6346455812454224,-3.65631103515625,-0.5330216884613037,-3.068392038345337,-0.5982853174209595,1.6396111249923706,-0.0959511250257492,0.6904672980308533,2.392261505126953,2.9453446865081787,2.044987916946411,0.19296346604824066,5.5363922119140625,2.493699312210083,4.497710227966309,2.560088872909546,-3.975466012954712,-1.518425464630127,-5.044960975646973,-1.4352295398712158,-0.7870951294898987,-3.671440839767456,-2.328735589981079,-1.602432131767273,-0.7585064768791199,-1.9834026098251343,0.6118531823158264,5.945511341094971,3.176330327987671,4.210027694702148,3.306241035461426,5.49864387512207,4.84227991104126
36,2.476773500442505,-5.145845890045166,-5.610724449157715,-3.8522751331329346,-3.3592259883880615,-3.339923858642578,-5.875699520111084,-0.6474549174308777,-3.6308467388153076,-0.5398460626602173,-3.0886216163635254,-0.6382635235786438,1.6193814277648926,-0.10277549177408218,0.7159316539764404,2.3794522285461426,2.963979721069336,2.0130741596221924,0.1333046853542328,5.524113655090332,2.4941964149475098,4.513289451599121,2.563274383544922,-3.9598867893218994,-1.5179284811019897,-5.048692226409912,-1.4786298274993896,-0.764333188533783,-3.652805805206299,-2.337017774581909,-1.6127285957336426,-0.7703224420547485,-2.0104191303253174,0.5989171266555786,5.968788146972656,3.1788482666015625,4.242410659790039,3.304100275039673,5.5063347816467285,4.835505485534668
37,2.4664206504821777,-5.127584934234619,-5.6374711990356445,-3.8737266063690186,-3.350238084793091,-3.3757941722869873,-5.907343864440918,-0.6507140398025513,-3.6420845985412598,-0.5375430583953857,-3.0834481716156006,-0.6707645058631897,1.6245547533035278,-0.10047249495983124,0.7046937942504883,2.376193046569824,2.935537815093994,2.011918544769287,0.0954047441482544,5.513532638549805,2.516371250152588,4.482794761657715,2.548273801803589,-3.9903812408447266,-1.4957536458969116,-5.054872989654541,-1.5116559267044067,-0.7207591533660889,-3.6812477111816406,-2.322864055633545,-1.6468775272369385,-0.7763538360595703,-2.022594690322876,0.6111186742782593,5.937143802642822,3.159045934677124,4.2489495277404785,3.303168535232544,5.479588031768799,4.853766441345215
38,2.4401495456695557,-5.1409173011779785,-5.632260322570801,-3.8989598751068115,-3.311753511428833,-3.3977017402648926,-5.883070468902588,-0.6585202217102051,-3.609081745147705,-0.5363458395004272,-3.0956597328186035,-0.7117893695831299,1.612343430519104,-0.09927527606487274,0.7376968264579773,2.36838698387146,2.96856689453125,1.9802112579345703,0.048942018300294876,5.502313137054443,2.514277696609497,4.496926307678223,2.5544722080230713,-3.9762496948242188,-1.497847318649292,-5.052542686462402,-1.5490676164627075,-0.7072437405586243,-3.6482186317443848,-2.3304765224456787,-1.6504201889038086,-0.7898560166358948,-2.049437999725342,0.6021261215209961,5.961417198181152,3.15940260887146,4.277601718902588,3.298724889755249,5.484798908233643,4.8404340744018555
39,2.426943063735962,-5.123169422149658,-5.660235404968262,-3.922267198562622,-3.3099753856658936,-3.434458017349243,-5.919631481170654,-0.6642447113990784,-3.6233766078948975,-0.5320080518722534,-3.086103916168213,-0.7450348138809204,1.621899127960205,-0.09493754059076309,0.7234017848968506,2.3626625537872314,2.94704008102417,1.9759700298309326,0.023813515901565552,5.492584228515625,2.534121036529541,4.455265045166016,2.5374937057495117,-4.017910957336426,-1.478003978729248,-5.054208278656006,-1.5609650611877441,-0.6752723455429077,-3.669745445251465,-2.316819667816162,-1.683955430984497,-0.7962594628334045,-2.061368703842163,0.6152016520500183,5.924856185913086,3.132526159286499,4.277652740478516,3.296501636505127,5.456823825836182,4.858181953430176
40,2.4018659591674805,-5.145926475524902,-5.654574871063232,-3.946571111679077,-3.273939847946167,-3.4466769695281982,-5.893279075622559,-0.667214035987854,-3.5796985626220703,-0.5265479683876038,-3.0949008464813232,-0.7840699553489685,1.6131019592285156,-0.08947745710611343,0.7670797109603882,2.3596932888031006,2.9905965328216553,1.9452438354492188,-0.01147521287202835,5.483072757720947,2.528837203979492,4.4763898849487305,2.5503573417663574,-3.996786117553711,-1.4832878112792969,-5.047155857086182,-1.596105694770813,-0.672537088394165,-3.6261889934539795,-2.3257486820220947,-1.6735557317733765,-0.8125897645950317,-2.0885097980499268,0.6080573797225952,5.951208591461182,3.135068655014038,4.305728435516357,3.2932424545288086,5.462484359741211,4.835424900054932
41,2.3879926204681396,-5.121800422668457,-5.685085773468018,-3.968890428543091,-3.285881280899048,-3.479912042617798,-5.9394025802612305,-0.6761632561683655,-3.602581262588501,-0.5234801173210144,-3.0821146965026855,-0.8135124444961548,1.6258879899978638,-0.08640960603952408,0.7441970109939575,2.3507442474365234,2.9655210971832275,1.9404531717300415,-0.024838220328092575,5.474745273590088,2.548935890197754,4.423260688781738,2.5304629802703857,-4.049915313720703,-1.4631892442703247,-5.046789646148682,-1.5856115818023682,-0.6487767100334167,-3.6512644290924072,-2.3110010623931885,-1.7088310718536377,-0.8166705965995789,-2.0970332622528076,0.6228987574577332,5.90508508682251,3.099914073944092,4.293673515319824,3.2934138774871826,5.431973457336426,4.859550952911377
42,2.3647031784057617,-5.156485557556152,-5.6733317375183105,-3.990309953689575,-3.247922897338867,-3.474802017211914,-5.907223701477051,-0.6747238636016846,-3.54670786857605,-0.5168390870094299,-3.0917844772338867,-0.8475027680397034,1.6162182092666626,-0.0797685757279396,0.8000704646110535,2.3521835803985596,3.018711566925049,1.9082218408584595,-0.05121063068509102,5.4672417640686035,2.5376100540161133,4.45806360244751,2.552140474319458,-4.015112400054932,-1.4745150804519653,-5.036951065063477,-1.62061607837677,-0.6568129658699036,-3.598073959350586,-2.324627161026001,-1.6811975240707397,-0.835708498954773,-2.1246302127838135,0.6134912371635437,5.9372639656066895,3.1102817058563232,4.325298309326172,3.293921709060669,5.443727493286133,4.824865818023682
43,2.3537685871124268,-5.122138977050781,-5.71106481552124,-4.010034084320068,-3.2771031856536865,-3.5080208778381348,-5.96500825881958,-0.6865689754486084,-3.5818748474121094,-0.5151463747024536,-3.075216054916382,-0.8690341711044312,1.632786512374878,-0.07807590812444687,0.7649036049842834,2.340338706970215,2.9826836585998535,1.909240961074829,-0.05601219832897186,5.460631370544434,2.562272548675537,4.394864559173584,2.528352737426758,-4.078311443328857,-1.449852705001831,-5.036706447601318,-1.594117522239685,-0.6329774856567383,-3.6341018676757812,-2.3051438331604004,-1.720842719078064,-0.8331819772720337,-2.125786781311035,0.6337339878082275,5.87947940826416,3.0630366802215576,4.298172473907471,3.2983922958374023,5.405994415283203,4.859212398529053
44,2.331003427505493,-5.167673110961914,-5.685459613800049,-4.028402805328369,-3.2343838214874268,-3.479890823364258,-5.922943115234375,-0.6824977397918701,-3.5166420936584473,-0.5098555684089661,-3.0890862941741943,-0.8976161479949951,1.6189165115356445,-0.07278509438037872,0.8301362991333008,2.344409942626953,3.0463764667510986,1.868513584136963,-0.0748310536146164,5.455173969268799,2.5399701595306396,4.442038059234619,2.5567851066589355,-4.031137943267822,-1.4721548557281494,-5.025392532348633,-1.6243053674697876,-0.6540307998657227,-3.570409059524536,-2.328312873840332,-1.6801987886428833,-0.8554849028587341,-2.155282497406006,0.6158289909362793,5.921544551849365,3.0859320163726807,4.335657119750977,3.303239583969116,5.4315996170043945,4.81367826461792
45,2.3276045322418213,-5.126697063446045,-5.7378668785095215,-4.04542875289917,-3.2774596214294434,-3.523045778274536,-5.990912914276123,-0.6944421529769897,-3.5603044033050537,-0.5071184039115906,-3.067925214767456,-0.9088048934936523,1.6400774717330933,-0.07004795223474503,0.7864741683006287,2.332465410232544,2.997485399246216,1.8859273195266724,-0.07625871896743774,5.4501543045043945,2.575486660003662,4.3754096031188965,2.5311357975006104,-4.097766399383545,-1.436638355255127,-5.026069164276123,-1.5983357429504395,-0.6197383403778076,-3.619300127029419,-2.2982583045959473,-1.7215540409088135,-0.8428294062614441,-2.1454155445098877,0.6481214761734009,5.853574752807617,3.02392315864563,4.296939373016357,3.3114490509033203,5.379192352294922,4.854654312133789
46,2.3016233444213867,-5.174630165100098,-5.691834926605225,-4.062014102935791,-3.233755111694336,-3.4684362411499023,-5.939934730529785,-0.6919092535972595,-3.4942514896392822,-0.5060514807701111,-3.0875675678253174,-0.9344899654388428,1.6204352378845215,-0.06898105889558792,0.8525270223617554,2.334998369216919,3.068835973739624,1.8277803659439087,-0.0875948965549469,5.446662425994873,2.5372314453125,4.425782203674316,2.5595593452453613,-4.047393798828125,-1.47489333152771,-5.014156818389893,-1.6096792221069336,-0.6584392189979553,-3.5479495525360107,-2.3357796669006348,-1.6793220043182373,-0.8704737424850464,-2.1789181232452393,0.614934504032135,5.904552936553955,3.0608277320861816,4.335941791534424,3.320021629333496,5.425224304199219,4.806721210479736
47,2.309393882751465,-5.1359052658081055,-5.7611985206604,-4.076694488525391,-3.281550645828247,-3.5289106369018555,-6.012752056121826,-0.6990360617637634,-3.5371391773223877,-0.49923497438430786,-3.0621585845947266,-0.9344778060913086,1.6458441019058228,-0.0621645525097847,0.8096394538879395,2.327871561050415,3.0116994380950928,1.8675472736358643,-0.09053009003400803,5.442779064178467,2.5865330696105957,4.36531400680542,2.5373711585998535,-4.1078619956970215,-1.4255918264389038,-5.015218257904053,-1.6055598258972168,-0.6090229153633118,-3.605086088180542,-2.2921409606933594,-1.714500069618225,-0.847212016582489,-2.1563310623168945,0.6636247038841248,5.831735610961914,2.9874610900878906,4.29457950592041,3.330383777618408,5.355860710144043,4.8454461097717285
48,2.278153657913208,-5.17775821685791,-5.699653148651123,-4.092957973480225,-3.241783618927002,-3.455164909362793,-5.959406852722168,-0.7023521661758423,-3.478532552719116,-0.5042582154273987,-3.0864319801330566,-0.9595480561256409,1.6215709447860718,-0.0671878233551979,0.8682462573051453,2.3245553970336914,3.083278179168701,1.794425368309021,-0.09413603693246841,5.440853118896484,2.5350451469421387,4.410319805145264,2.5590531826019287,-4.062856197357178,-1.4770798683166504,-5.003684997558594,-1.5840754508972168,-0.6624739766120911,-3.5335073471069336,-2.341865062713623,-1.6808494329452515,-0.8799414038658142,-2.1940743923187256,0.6157728433609009,5.885080814361572,3.0334060192108154,4.328732490539551,3.3417842388153076,5.41740608215332,4.803593158721924
49,2.294351100921631,-5.146376132965088,-5.774155616760254,-4.105954647064209,-3.286752223968506,-3.5244174003601074,-6.028731346130371,-0.7016818523406982,-3.5143799781799316,-0.4919500946998596,-3.0586812496185303,-0.951204776763916,1.6493216753005981,-0.05487968772649765,0.8323989510536194,2.325225591659546,3.0273044109344482,1.844574213027954,-0.1007646843791008,5.437648296356201,2.5898687839508057,4.360931873321533,2.5433075428009033,-4.112244129180908,-1.4222561120986938,-5.004373550415039,-1.611043095588684,-0.6068951487541199,-3.5894811153411865,-2.2920520305633545,-1.706307291984558,-0.8526812195777893,-2.164100170135498,0.6735755801200867,5.815756320953369,2.958045482635498,4.291844367980957,3.3533194065093994,5.3429036140441895,4.834975242614746
50,2.2615647315979004,-5.1808390617370605,-5.71323823928833,-4.12230110168457,-3.2503061294555664,-3.4488446712493896,-5.981213092803955,-0.7109662294387817,-3.4660019874572754,-0.5017004609107971,-3.083940029144287,-0.974917471408844,1.6240630149841309,-0.06463004648685455,0.8807768225669861,2.315941095352173,3.0907411575317383,1.7729806900024414,-0.09721003472805023,5.43627405166626,2.538243055343628,4.3977155685424805,2.5569522380828857,-4.075460433959961,-1.4738820791244507,-4.994412899017334,-1.5624501705169678,-0.6608011722564697,-3.5260443687438965,-2.3419675827026367,-1.6824434995651245,-0.8845809698104858,-2.2021918296813965,0.6227342486381531,5.863274574279785,3.0032429695129395,4.3202338218688965,3.3667848110198975,5.403820991516113,4.800512313842773
51,2.2783610820770264,-5.155600547790527,-5.778763771057129,-4.134695053100586,-3.290177822113037,-3.510880470275879,-6.039777755737305,-0.7049362659454346,-3.494225263595581,-0.4855708181858063,-3.057152271270752,-0.9641973376274109,1.6508508920669556,-0.04850040748715401,0.85255366563797,2.3219711780548096,3.0440616607666016,1.8169912099838257,-0.1057310625910759,5.433393955230713,2.586538076400757,4.358488082885742,2.5458998680114746,-4.114687919616699,-1.4255869388580322,-4.994649887084961,-1.604569435119629,-0.6114217638969421,-3.572723865509033,-2.2975194454193115,-1.7015750408172607,-0.8619859218597412,-2.173718214035034,0.6768413186073303,5.8047099113464355,2.9352121353149414,4.289299964904785,3.37941312789917,5.3382954597473145,4.825750827789307
52,2.2490079402923584,-5.185185432434082,-5.7286810874938965,-4.150832176208496,-3.2562220096588135,-3.4448070526123047,-6.001752853393555,-0.7160998582839966,-3.454606533050537,-0.49617835879325867,-3.0799336433410645,-0.9847256541252136,1.6280694007873535,-0.0591079443693161,0.8921725153923035,2.310807704925537,3.0958025455474854,1.7574865818023682,-0.09804761409759521,5.431790351867676,2.5443506240844727,4.38839864730835,2.554361343383789,-4.084777355194092,-1.467774510383606,-4.986766815185547,-1.5511447191238403,-0.6560047268867493,-3.5209829807281494,-2.3385229110717773,-1.683172583580017,-0.8880082964897156,-2.207355260848999,0.6330252289772034,5.8427348136901855,2.973008394241333,4.313985824584961,3.3942835330963135,5.388378143310547,4.796165943145752
53,2.2619593143463135,-5.163668155670166,-5.781398296356201,-4.163596153259277,-3.291410446166992,-3.4927918910980225,-6.048717975616455,-0.7091557383537292,-3.477569580078125,-0.4793092906475067,-3.0565712451934814,-0.9754823446273804,1.6514317989349365,-0.042238879948854446,0.8692095279693604,2.31775164604187,3.0593574047088623,1.7908929586410522,-0.1058245301246643,5.429152011871338,2.582639694213867,4.356269836425781,2.5450775623321533,-4.11690616607666,-1.429485559463501,-4.98683500289917,-1.5902485847473145,-0.6160127520561218,-3.5574281215667725,-2.3031094074249268,-1.7001222372055054,-0.871494710445404,-2.1836488246917725,0.6779600381851196,5.795769214630127,2.9153130054473877,4.287359237670898,3.4078619480133057,5.335660934448242,4.817683219909668
54,2.23724365234375,-5.1905107498168945,-5.742312908172607,-4.179474830627441,-3.2604448795318604,-3.4377734661102295,-6.0185770988464355,-0.718774676322937,-3.443984031677246,-0.4880731403827667,-3.0759379863739014,-0.9924680590629578,1.6320652961730957,-0.05100274085998535,0.9027950763702393,2.3081326484680176,3.1011407375335693,1.743580937385559,-0.09739255905151367,5.427247047424316,2.550224781036377,4.382026195526123,2.5512712001800537,-4.091149806976318,-1.4619003534317017,-4.980716228485107,-1.545456886291504,-0.6508020758628845,-3.5156447887420654,-2.3347527980804443,-1.6834670305252075,-0.891341507434845,-2.2115848064422607,0.6429550647735596,5.8259100914001465,2.9450418949127197,4.309878349304199,3.4235570430755615,5.374746322631836,4.7908406257629395
55,2.246027946472168,-5.171505451202393,-5.78452205657959,-4.193090438842773,-3.2917380332946777,-3.472935914993286,-6.056946754455566,-0.7131140828132629,-3.464198350906372,-0.4720747768878937,-3.0561633110046387,-0.9854621887207031,1.6518397331237793,-0.035004355013370514,0.8825807571411133,2.313793182373047,3.0718319416046143,1.768678069114685,-0.10356849431991577,5.424866676330566,2.5806026458740234,4.354298114776611,2.542083263397217,-4.11887788772583,-1.4315224885940552,-4.98089599609375,-1.5760616064071655,-0.6181097626686096,-3.5449535846710205,-2.3065998554229736,-1.7003099918365479,-0.8787361979484558,-2.1917080879211426,0.679422914981842,5.787540435791016,2.895866870880127,4.285998821258545,3.4377808570861816,5.3325371742248535,4.809845924377441
56,2.224846124649048,-5.196819305419922,-5.7530317306518555,-4.208880424499512,-3.2635209560394287,-3.4262149333953857,-6.03171968460083,-0.7202894687652588,-3.434425115585327,-0.4784085154533386,-3.072704315185547,-0.9996585845947266,1.635298728942871,-0.04133808985352516,0.9123539924621582,2.3066177368164062,3.106795072555542,1.7301706075668335,-0.09584803879261017,5.422757625579834,2.5550577640533447,4.378020286560059,2.5475618839263916,-4.095155715942383,-1.4570674896240234,-4.976122856140137,-1.541736125946045,-0.6458559036254883,-3.5099904537200928,-2.331587076187134,-1.6837751865386963,-0.8940780162811279,-2.215067148208618,0.6510410904884338,5.812767505645752,2.9197075366973877,4.307290554046631,3.454015016555786,5.364027500152588,4.784532070159912
57,2.2305572032928467,-5.17974328994751,-5.788168430328369,-4.223405361175537,-3.2919323444366455,-3.4521188735961914,-6.064613342285156,-0.7161441445350647,-3.453618288040161,-0.4633512496948242,-3.0554864406585693,-0.994329035282135,1.6525167226791382,-0.02628081664443016,0.8931609392166138,2.310763120651245,3.081469774246216,1.7502098083496094,-0.1005714163184166,5.420586109161377,2.5804243087768555,4.352855682373047,2.5380027294158936,-4.1203203201293945,-1.4317011833190918,-4.976630210876465,-1.5649584531784058,-0.6176420450210571,-3.535315752029419,-2.308032512664795,-1.7011898756027222,-0.8835134506225586,-2.197249174118042,0.6815570592880249,5.779873847961426,2.87607479095459,4.2851128578186035,3.468729019165039,5.328890800476074,4.801608085632324
58,2.2114503383636475,-5.204312801361084,-5.7609477043151855,-4.239290237426758,-3.2655701637268066,-3.410454511642456,-6.041770935058594,-0.7212445735931396,-3.4261221885681152,-0.46763861179351807,-3.0701000690460205,-1.006696343421936,1.637903094291687,-0.03056817129254341,0.9206571578979492,2.3056626319885254,3.1123335361480713,1.7172290086746216,-0.09370611608028412,5.418323516845703,2.5589888095855713,4.37585973739624,2.5434539318084717,-4.097316265106201,-1.4531365633010864,-4.972895622253418,-1.5387057065963745,-0.6410691142082214,-3.5044519901275635,-2.328988790512085,-1.6842354536056519,-0.896064043045044,-2.2175934314727783,0.6571137309074402,5.802716255187988,2.8965351581573486,4.305900573730469,3.485461473464966,5.356111526489258,4.77703857421875
59,2.215285301208496,-5.188748836517334,-5.791965484619141,-4.254635334014893,-3.2921435832977295,-3.430461883544922,-6.071563243865967,-0.7181795239448547,-3.4454166889190674,-0.4530101716518402,-3.0542430877685547,-1.0022516250610352,1.6537598371505737,-0.015939731150865555,0.9013628363609314,2.308727741241455,3.0886545181274414,1.7349122762680054,-0.09727481752634048,5.416280746459961,2.581740617752075,4.351965427398682,2.533602476119995,-4.12121057510376,-1.4303847551345825,-4.973868370056152,-1.5569958686828613,-0.6149800419807434,-3.5281310081481934,-2.3077945709228516,-1.7023801803588867,-0.8863632678985596,-2.20029616355896,0.6841185688972473,5.772923946380615,2.855820655822754,4.28467321395874,3.500614881515503,5.325093746185303,4.7926025390625
60,2.197014331817627,-5.2131876945495605,-5.766424655914307,-4.270773887634277,-3.2665603160858154,-3.3912289142608643,-6.049179553985596,-0.7218548655509949,-3.4190661907196045,-0.45582321286201477,-3.0677430629730225,-1.013641595840454,1.6402597427368164,-0.018752798438072205,0.9277130961418152,2.3050525188446045,3.1175336837768555,1.704921007156372,-0.09101597964763641,5.413878440856934,2.562283754348755,4.375126838684082,2.5393853187561035,-4.098049163818359,-1.4498417377471924,-4.970942497253418,-1.5359410047531128,-0.6362338066101074,-3.4992518424987793,-2.3267667293548584,-1.6847397089004517,-0.8974962830543518,-2.2190351486206055,0.6613577604293823,5.795307636260986,2.8750345706939697,4.3056230545043945,3.5179097652435303,5.350634574890137,4.768163681030273
61,2.200000524520874,-5.198712348937988,-5.795657157897949,-4.286856174468994,-3.292259454727173,-3.408036231994629,-6.077696323394775,-0.7193695306777954,-3.43929123878479,-0.44101813435554504,-3.052212953567505,-1.009369969367981,1.6557899713516235,-0.003947707824409008,0.9074879884719849,2.307537794113159,3.0937564373016357,1.722388505935669,-0.09364758431911469,5.411902904510498,2.584307909011841,4.3514556884765625,2.529477834701538,-4.121720314025879,-1.4278173446655273,-4.972451686859131,-1.551466703414917,-0.610386312007904,-3.523029088973999,-2.306157112121582,-1.7036727666854858,-0.8878503441810608,-2.2010254859924316,0.6868661642074585,5.766790866851807,2.835142135620117,4.284719467163086,3.5334620475769043,5.321402072906494,4.782639026641846
62,2.18156099319458,-5.223573684692383,-5.769750118255615,-4.30338716506958,-3.2663357257843018,-3.369236946105957,-6.054239273071289,-0.7222239375114441,-3.4131276607513428,-0.44289737939834595,-3.0653178691864014,-1.0205192565917969,1.642684817314148,-0.005826973356306553,0.9336516261100769,2.304683208465576,3.1223602294921875,1.693404197692871,-0.08777236193418503,5.40936803817749,2.565117835998535,4.37548303604126,2.535863161087036,-4.097692966461182,-1.4470072984695435,-4.970139026641846,-1.5332187414169312,-0.6311913132667542,-3.4944252967834473,-2.324796676635742,-1.6850526332855225,-0.8986693024635315,-2.2194020748138428,0.6639410257339478,5.790247917175293,2.8548991680145264,4.30653190612793,3.551419496536255,5.347309112548828,4.757777690887451
63,2.184615135192871,-5.209685325622559,-5.799127101898193,-4.320152282714844,-3.2920918464660645,-3.385016679763794,-6.0830278396606445,-0.71990567445755,-3.4350152015686035,-0.42734968662261963,-3.049257755279541,-1.0158025026321411,1.6587450504302979,0.009720716625452042,0.9117640256881714,2.3070015907287598,3.0970394611358643,1.7124934196472168,-0.08958011120557785,5.40742826461792,2.5880119800567627,4.351069927215576,2.5261611938476562,-4.122106075286865,-1.4241130352020264,-4.9722161293029785,-1.5476328134536743,-0.6039525270462036,-3.5197460651397705,-2.3032596111297607,-1.7048810720443726,-0.8883988857269287,-2.1996266841888428,0.689653754234314,5.7614593505859375,2.81408953666687,4.2853169441223145,3.567301034927368,5.31793212890625,4.771666049957275
64,2.1651432514190674,-5.2355146408081055,-5.771097183227539,-4.337190628051758,-3.264647960662842,-3.3450779914855957,-6.057165145874023,-0.722444474697113,-3.4081220626831055,-0.42880985140800476,-3.0626585483551025,-1.0273934602737427,1.6453441381454468,0.008260575123131275,0.9386571645736694,2.3044629096984863,3.1268701553344727,1.6828277111053467,-0.08402381837368011,5.404773235321045,2.567554473876953,4.376649856567383,2.53340744972229,-4.096526145935059,-1.4445704221725464,-4.970329284667969,-1.530350685119629,-0.6258289217948914,-3.489915370941162,-2.323052406311035,-1.6848992109298706,-0.899865448474884,-2.218804121017456,0.6649429798126221,5.787322044372559,2.8359949588775635,4.308792591094971,3.5860393047332764,5.345962047576904,4.7458367347717285
65,2.169179916381836,-5.221606254577637,-5.802331447601318,-4.354604244232178,-3.2914538383483887,-3.3616764545440674,-6.087662696838379,-0.7199764251708984,-3.4323971271514893,-0.41200700402259827,-3.0453410148620605,-1.0216516256332397,1.6626616716384888,0.025063417851924896,0.9143821597099304,2.3069310188293457,3.0986857414245605,1.7052782773971558,-0.08500944823026657,5.402873992919922,2.5928070545196533,4.350549697875977,2.524176836013794,-4.122626304626465,-1.4193177223205566,-4.972980976104736,-1.5448646545410156,-0.5956448912620544,-3.518099784851074,-2.2991697788238525,-1.7058101892471313,-0.888289213180542,-2.196295976638794,0.6923984885215759,5.756824493408203,2.7927303314208984,4.286533355712891,3.6021275520324707,5.314727783203125,4.759745121002197
66,2.147883653640747,-5.248956203460693,-5.770578861236572,-4.372231483459473,-3.26123309135437,-3.3193163871765137,-6.058175563812256,-0.7226181626319885,-3.4038708209991455,-0.4135860502719879,-3.0597424507141113,-1.0343559980392456,1.6482599973678589,0.02348439022898674,0.9429084658622742,2.3042893409729004,3.1311264038085938,1.67338228225708,-0.07991418987512589,5.400123596191406,2.5695834159851074,4.378378868103027,2.532532215118408,-4.094797134399414,-1.4425413608551025,-4.971331596374512,-1.5271732807159424,-0.6200323700904846,-3.485659122467041,-2.3215723037719727,-1.6840369701385498,-0.9013127684593201,-2.217388153076172,0.6643949747085571,5.786311626434326,2.818281412124634,4.312589645385742,3.6217775344848633,5.346480369567871,4.732395172119141
67,2.153879165649414,-5.234335899353027,-5.805196285247803,-4.390265464782715,-3.290175676345825,-3.3383212089538574,-6.091712951660156,-0.7197620272636414,-3.431232213973999,-0.3950709402561188,-3.040555000305176,-1.0270100831985474,1.667447566986084,0.041999492794275284,0.9155471324920654,2.307145357131958,3.0988781452178955,1.7008836269378662,-0.07994101941585541,5.398304462432861,2.598628520965576,4.349708080291748,2.5240676403045654,-4.123467922210693,-1.4134961366653442,-4.974547863006592,-1.5426151752471924,-0.5854009389877319,-3.5179073810577393,-2.2939653396606445,-1.7062468528747559,-0.8877018690109253,-2.191284656524658,0.6950089335441589,5.752774238586426,2.7712225914001465,4.288434028625488,3.6378774642944336,5.311862945556641,4.747015476226807
68,2.1300454139709473,-5.263716697692871,-5.768370151519775,-4.4085164070129395,-3.2559304237365723,-3.2925808429718018,-6.05758810043335,-0.7228444814682007,-3.4002811908721924,-0.39734572172164917,-3.056640863418579,-1.041473388671875,1.6513617038726807,0.03972471505403519,0.9464979767799377,2.304062843322754,3.135098457336426,1.6653889417648315,-0.07568158954381943,5.395495891571045,2.5712125301361084,4.380390167236328,2.533723831176758,-4.092785835266113,-1.4409122467041016,-4.972952365875244,-1.5235916376113892,-0.6136049032211304,-3.481687068939209,-2.320371627807617,-1.6823272705078125,-0.9031473398208618,-2.215240478515625,0.6623908281326294,5.786899089813232,2.8016934394836426,4.318032264709473,3.6585724353790283,5.348689079284668,4.717634677886963
69,2.138972282409668,-5.247727870941162,-5.8074846267700195,-4.427148818969727,-3.2880609035491943,-3.3151676654815674,-6.095170974731445,-0.7194412350654602,-3.4312353134155273,-0.3767589330673218,-3.0351552963256836,-1.0319876670837402,1.6728473901748657,0.06031152606010437,0.9155439734458923,2.3074662685394287,3.097933530807495,1.699345350265503,-0.07443844527006149,5.393828392028809,2.605257511138916,4.348512172698975,2.5263960361480713,-4.124663829803467,-1.406867265701294,-4.976698875427246,-1.54035484790802,-0.5733063220977783,-3.5188519954681396,-2.2878639698028564,-1.705938696861267,-0.8868094086647034,-2.184990882873535,0.6972699165344238,5.749316215515137,2.7499442100524902,4.2911295890808105,3.674409866333008,5.309574604034424,4.733623504638672
70,2.1121151447296143,-5.279449462890625,-5.764881610870361,-4.445993900299072,-3.2488558292388916,-3.2656660079956055,-6.055938243865967,-0.7231956720352173,-3.3974521160125732,-0.3802648186683655,-3.053424119949341,-1.0487170219421387,1.654578447341919,0.05680563673377037,0.949327290058136,2.3037116527557373,3.1385421752929688,1.6593962907791138,-0.07159703969955444,5.391002178192139,2.572622060775757,4.382279396057129,2.537414073944092,-4.0908966064453125,-1.4395028352737427,-4.975007057189941,-1.5196303129196167,-0.6061697006225586,-3.478243350982666,-2.3192973136901855,-1.6798105239868164,-0.9053764939308167,-2.2122724056243896,0.6592455506324768,5.788548946380615,2.7859981060028076,4.325016021728516,3.6962523460388184,5.352177619934082,4.701901912689209
71,2.124671220779419,-5.261739253997803,-5.808680057525635,-4.465219497680664,-3.2847824096679688,-3.292201042175293,-6.0977702140808105,-0.7191945314407349,-3.4319822788238525,-0.3574572205543518,-3.0295767784118652,-1.0367796421051025,1.6784257888793945,0.07961323112249374,0.9147971868515015,2.3077125549316406,3.09643292427063,1.7003313302993774,-0.06859713047742844,5.389564037322998,2.6121671199798584,4.347140312194824,2.5317139625549316,-4.126035690307617,-1.3999578952789307,-4.97921085357666,-1.5375241041183472,-0.5598214268684387,-3.520352602005005,-2.2813730239868164,-1.7045809030532837,-0.88593989610672,-2.1780595779418945,0.6987183094024658,5.7467169761657715,2.7296078205108643,4.294861793518066,3.711507558822632,5.308379173278809,4.719612121582031
72,2.0948445796966553,-5.295654773712158,-5.760849952697754,-4.484550476074219,-3.240525960922241,-3.239522695541382,-6.0540032386779785,-0.7236902117729187,-3.3957295417785645,-0.36247721314430237,-3.050051689147949,-1.0559290647506714,1.6579508781433105,0.07459323853254318,0.9510499238967896,2.3032169342041016,3.1409666538238525,1.6561657190322876,-0.06780567020177841,5.386720180511475,2.5743017196655273,4.383450031280518,2.543964385986328,-4.089725971221924,-1.4378235340118408,-4.977375030517578,-1.515435814857483,-0.5971543788909912,-3.4758188724517822,-2.3178904056549072,-1.6767315864562988,-0.9079033136367798,-2.2081942558288574,0.6555933356285095,5.7904839515686035,2.770749092102051,4.333101272583008,3.734506845474243,5.3562092781066895,4.685696601867676
73,2.1110169887542725,-5.276527404785156,-5.80809211730957,-4.504382133483887,-3.279829263687134,-3.2691619396209717,-6.099020481109619,-0.7191879153251648,-3.4329679012298584,-0.33767086267471313,-3.024352788925171,-1.0417307615280151,1.6836497783660889,0.09939957410097122,0.9138116836547852,2.3077192306518555,3.0951685905456543,1.703044056892395,-0.06249336898326874,5.385551452636719,2.6185476779937744,4.345888137817383,2.5404980182647705,-4.127287864685059,-1.3935774564743042,-4.981904029846191,-1.5335848331451416,-0.5458321571350098,-3.5216169357299805,-2.2752768993377686,-1.7018707990646362,-0.8857246041297913,-2.17134690284729,0.6986931562423706,5.745466709136963,2.711172342300415,4.3000311851501465,3.7488980293273926,5.308967113494873,4.704823970794678
74,2.079101085662842,-5.31182861328125,-5.757113456726074,-4.524021625518799,-3.2317254543304443,-3.2149856090545654,-6.052540302276611,-0.7242974042892456,-3.3955624103546143,-0.34399735927581787,-3.0463550090789795,-1.0629152059555054,1.6616476774215698,0.09307307004928589,0.9512170553207397,2.30260968208313,3.1418871879577637,1.6563397645950317,-0.06415732949972153,5.382603645324707,2.57692551612854,4.383238792419434,2.553698778152466,-4.089937210083008,-1.4351997375488281,-4.980045318603516,-1.5111693143844604,-0.5860549211502075,-3.474898338317871,-2.315502882003784,-1.6734075546264648,-0.9106689095497131,-2.2027673721313477,0.6521943211555481,5.791947364807129,2.755554676055908,4.341587066650391,3.7728915214538574,5.359945774078369,4.669522762298584
75,2.0979483127593994,-5.29234504699707,-5.8053202629089355,-4.544467449188232,-3.272740364074707,-3.2458066940307617,-6.098557472229004,-0.7195442914962769,-3.433852195739746,-0.3178795576095581,-3.0199038982391357,-1.0472620725631714,1.6880987882614136,0.11919087916612625,0.9129273295402527,2.3073627948760986,3.0947718620300293,1.7065985202789307,-0.0561479777097702,5.381678581237793,2.62372088432312,4.344884395599365,2.5530831813812256,-4.128291606903076,-1.388404369354248,-4.9847002029418945,-1.52818763256073,-0.5322508215904236,-3.5220136642456055,-2.270247459411621,-1.6976484060287476,-0.8869393467903137,-2.165623426437378,0.6967182159423828,5.745930194854736,2.695448398590088,4.306975841522217,3.7862355709075928,5.311738967895508,4.689006328582764
76,2.065521717071533,-5.327685832977295,-5.75412654876709,-4.564218044281006,-3.223072052001953,-3.192368268966675,-6.051854133605957,-0.7249826192855835,-3.397160768508911,-0.3248279094696045,-3.042233467102051,-1.0696251392364502,1.665769338607788,0.11224254220724106,0.9496188163757324,2.301924467086792,3.1412572860717773,1.6599400043487549,-0.06030183285474777,5.378471851348877,2.580886125564575,4.381247520446777,2.5669636726379395,-4.091928482055664,-1.4312392473220825,-4.9830732345581055,-1.5068808794021606,-0.5728865265846252,-3.4755282402038574,-2.311751127243042,-1.6699509620666504,-0.9137725234031677,-2.1962151527404785,0.6494718790054321,5.792633533477783,2.740532636642456,4.349865913391113,3.8108508586883545,5.3629326820373535,4.653665542602539
77,2.0855796337127686,-5.309223175048828,-5.800641059875488,-4.58524227142334,-3.2635281085968018,-3.2222301959991455,-6.096510410308838,-0.7203383445739746,-3.4346730709075928,-0.29844608902931213,-3.0163919925689697,-1.0536258220672607,1.6916106939315796,0.13862435519695282,0.9121066331863403,2.3065688610076904,3.0953500270843506,1.7106008529663086,-0.049623265862464905,5.377742767333984,2.6275999546051025,4.343893527984619,2.569645643234253,-4.129282474517822,-1.3845254182815552,-4.987609386444092,-1.521336317062378,-0.5194585919380188,-3.521435499191284,-2.2664012908935547,-1.6919788122177124,-0.8899767994880676,-2.1612558364868164,0.692896842956543,5.747977256774902,2.6827332973480225,4.3155927658081055,3.8230185508728027,5.316418170928955,4.672128200531006
78,2.054321527481079,-5.343191623687744,-5.751766681671143,-4.604927062988281,-3.2147531509399414,-3.1714203357696533,-6.051711559295654,-0.7257503271102905,-3.400325298309326,-0.30521443486213684,-3.037891387939453,-1.0761685371398926,1.6701112985610962,0.1318560093641281,0.9464543461799622,2.301156759262085,3.1395645141601562,1.666313886642456,-0.05609393119812012,5.374157905578613,2.5859811305999756,4.377551078796387,2.5841057300567627,-4.095624923706055,-1.4261442422866821,-4.986459732055664,-1.5025391578674316,-0.5582596659660339,-3.4772210121154785,-2.3068349361419678,-1.6661462783813477,-0.9173309803009033,-2.189265727996826,0.6473089456558228,5.792776107788086,2.72637939453125,4.357696056365967,3.847726345062256,5.365292549133301,4.63815975189209
79,2.074338674545288,-5.3267822265625,-5.794802665710449,-4.626434803009033,-3.252795696258545,-3.19883394241333,-6.093433856964111,-0.7216089367866516,-3.435755729675293,-0.2797105312347412,-3.0138213634490967,-1.0607168674468994,1.6941814422607422,0.15735992789268494,0.9110240936279297,2.305298328399658,3.0965800285339355,1.715200424194336,-0.04321559518575668,5.373622894287109,2.6305670738220215,4.342483043670654,2.5902106761932373,-4.130692958831787,-1.3815581798553467,-4.9906415939331055,-1.513388752937317,-0.5072720646858215,-3.520205497741699,-2.263404607772827,-1.6850889921188354,-0.8945397138595581,-2.1582205295562744,0.6878111958503723,5.751054286956787,2.6728858947753906,4.3252787590026855,3.8585498332977295,5.322256565093994,4.654569149017334
80,2.045496702194214,-5.358320236206055,-5.749642848968506,-4.645880699157715,-3.2067387104034424,-3.1516904830932617,-6.051712512969971,-0.7266243696212769,-3.4046459197998047,-0.28574681282043457,-3.0337953567504883,-1.0826075077056885,1.6742074489593506,0.15132364630699158,0.9421337842941284,2.3002829551696777,3.137467861175537,1.6745887994766235,-0.05183399096131325,5.369656085968018,2.5916147232055664,4.37254524230957,2.6053287982940674,-4.100630760192871,-1.4205104112625122,-4.990083694458008,-1.498203158378601,-0.542969286441803,-3.4793176651000977,-2.3013522624969482,-1.6616580486297607,-0.9212602972984314,-2.182741403579712,0.6453340649604797,5.792775630950928,2.7139527797698975,4.365081310272217,3.8827905654907227,5.3674163818359375,4.623031139373779
81,2.064836263656616,-5.344383716583252,-5.78852653503418,-4.667726993560791,-3.2414214611053467,-3.1760246753692627,-6.089949131011963,-0.7233465909957886,-3.4374547004699707,-0.2621229887008667,-3.012195110321045,-1.068124771118164,1.6958078145980835,0.17494747042655945,0.9093250632286072,2.303560733795166,3.098081350326538,1.7206580638885498,-0.03745165094733238,5.369380950927734,2.6329944133758545,4.340326309204102,2.6146202087402344,-4.13284969329834,-1.3791306018829346,-4.993736743927002,-1.5049066543579102,-0.49536585807800293,-3.5187041759490967,-2.2609305381774902,-1.677269458770752,-0.8999205827713013,-2.1563515663146973,0.6821068525314331,5.7545390129089355,2.6656551361083984,4.335250377655029,3.8920412063598633,5.328532695770264,4.636967658996582
82,2.039116144180298,-5.372883319854736,-5.747446537017822,-4.686721324920654,-3.199082374572754,-3.1328301429748535,-6.051604747772217,-0.7275846600532532,-3.4097681045532227,-0.2671930193901062,-3.0304038524627686,-1.0888084173202515,1.6775991916656494,0.16987743973731995,0.9370115995407104,2.2993226051330566,3.1354727745056152,1.6840401887893677,-0.04806861653923988,5.365124225616455,2.5971665382385254,4.366683483123779,2.6305408477783203,-4.106492519378662,-1.4149584770202637,-4.99376106262207,-1.4941362142562866,-0.5276369452476501,-3.4813127517700195,-2.2959346771240234,-1.6563012599945068,-0.9252896904945374,-2.1772117614746094,0.6432689428329468,5.792883396148682,2.703894853591919,4.3720269203186035,3.9153454303741455,5.369612693786621,4.608468055725098
83,2.057681083679199,-5.3613996505737305,-5.782275199890137,-4.7087249755859375,-3.230221748352051,-3.153994560241699,-6.086509704589844,-0.7254777550697327,-3.440002918243408,-0.2462131530046463,-3.011526584625244,-1.0753263235092163,1.6964764595031738,0.19085730612277985,0.9067766070365906,2.301429510116577,3.0996310710906982,1.7270424365997314,-0.03282393515110016,5.365220069885254,2.635018825531006,4.337337017059326,2.642472982406616,-4.135838985443115,-1.3771061897277832,-4.996784210205078,-1.49644935131073,-0.48356893658638,-3.5171544551849365,-2.2588746547698975,-1.6688323020935059,-0.9054200053215027,-2.1554906368255615,0.6762545108795166,5.757978439331055,2.660877227783203,4.344849109649658,3.922790288925171,5.334784030914307,4.6199517250061035
84,2.0353763103485107,-5.3865742683410645,-5.745055675506592,-4.727006435394287,-3.1919848918914795,-3.114625930786133,-6.051319599151611,-0.728529155254364,-3.4154860973358154,-0.250238299369812,-3.0279691219329834,-1.0944957733154297,1.6800339221954346,0.18683215975761414,0.9312934279441833,2.2983782291412354,3.133870840072632,1.6941472291946411,-0.045247092843055725,5.360790252685547,2.6021783351898193,4.3603596687316895,2.659296989440918,-4.112816333770752,-1.4099466800689697,-4.997325897216797,-1.4907686710357666,-0.5126537084579468,-3.482914686203003,-2.2910549640655518,-1.6501212120056152,-0.9291139841079712,-2.172926187515259,0.6410313844680786,5.793168544769287,2.6965432167053223,4.37846040725708,3.9448416233062744,5.372003555297852,4.5947771072387695
85,2.053347110748291,-5.3773722648620605,-5.77628755569458,-4.748970031738281,-3.21979022026062,-3.132683753967285,-6.083374977111816,-0.7278879880905151,-3.4435064792633057,-0.23243814706802368,-3.011779546737671,-1.0818568468093872,1.6962236166000366,0.20463231205940247,0.9032732248306274,2.2990193367004395,3.101163864135742,1.7342153787612915,-0.029539160430431366,5.361383438110352,2.6366100311279297,4.333633899688721,2.673098087310791,-4.139542102813721,-1.3755148649215698,-4.999671459197998,-1.4884005784988403,-0.47188904881477356,-3.5156216621398926,-2.2572834491729736,-1.6600873470306396,-0.9105327129364014,-2.15549373626709,0.6705403327941895,5.761113166809082,2.65847110748291,4.3536481857299805,3.9503026008605957,5.340771675109863,4.603979110717773
86,2.034471273422241,-5.399098873138428,-5.742480754852295,-4.766244411468506,-3.1856913566589355,-3.096930742263794,-6.050882339477539,-0.7292805314064026,-3.4217052459716797,-0.2352919578552246,-3.0265121459960938,-1.099388599395752,1.6814910173416138,0.20177850127220154,0.9250745177268982,2.2976269721984863,3.1328067779541016,1.704531192779541,-0.04353827238082886,5.356871604919434,2.6063780784606934,4.353911399841309,2.690847396850586,-4.119264602661133,-1.4057468175888062,-5.000669002532959,-1.488600730895996,-0.4982534945011139,-3.483978748321533,-2.286992311477661,-1.643308162689209,-0.9325008392333984,-2.169891119003296,0.6386744379997253,5.793605804443359,2.6919806003570557,4.3842997550964355,3.9709575176239014,5.37457799911499,4.582252502441406
87,2.052083730697632,-5.392058372497559,-5.7706732749938965,-4.7879838943481445,-3.2104649543762207,-3.111856460571289,-6.0806708335876465,-0.7304794788360596,-3.4479868412017822,-0.22105729579925537,-3.0128519535064697,-1.0874052047729492,1.6951512098312378,0.21601316332817078,0.8987928032875061,2.2964279651641846,3.1026933193206787,1.741937518119812,-0.027454383671283722,5.358094215393066,2.6377029418945312,4.329456329345703,2.705597162246704,-4.143719673156738,-1.3744219541549683,-5.002311706542969,-1.480859637260437,-0.46042466163635254,-3.514092206954956,-2.2562267780303955,-1.6513161659240723,-0.9149605631828308,-2.1561992168426514,0.6651207208633423,5.763817310333252,2.6583478450775146,4.361441612243652,3.9743354320526123,5.346385478973389,4.589293003082275
88,2.036454439163208,-5.4102373123168945,-5.739781379699707,-4.8039374351501465,-3.1803972721099854,-3.0796473026275635,-6.050335884094238,-0.7296144366264343,-3.428373336791992,-0.22241050004959106,-3.0258891582489014,-1.10330069065094,1.6821141242980957,0.21465995907783508,0.9184064269065857,2.297293186187744,3.13234806060791,1.7149091958999634,-0.042846135795116425,5.353524684906006,2.6096532344818115,4.347644805908203,2.7242608070373535,-4.125531196594238,-1.4024715423583984,-5.0037455558776855,-1.4881356954574585,-0.48457348346710205,-3.4844374656677246,-2.283862590789795,-1.6360927820205688,-0.9353308081626892,-2.1679611206054688,0.6363011002540588,5.79415225982666,2.6900839805603027,4.3895158767700195,3.993624210357666,5.377277374267578,4.5711140632629395
89,2.0538766384124756,-5.405405044555664,-5.765471458435059,-4.825322151184082,-3.202352523803711,-3.091201066970825,-6.07845401763916,-0.7332407236099243,-3.453418016433716,-0.2121211588382721,-3.0146126747131348,-1.0918360948562622,1.6933906078338623,0.22494930028915405,0.8933618664741516,2.2936668395996094,3.1042470932006836,1.749963641166687,-0.02616177871823311,5.3555216789245605,2.638277292251587,4.3250861167907715,2.738935708999634,-4.14808988571167,-1.373847484588623,-5.004648685455322,-1.4735780954360962,-0.4492834806442261,-3.512538433074951,-2.255723237991333,-1.6427578926086426,-0.9185701012611389,-2.1574184894561768,0.660061240196228,5.766034126281738,2.660334825515747,4.368191242218018,3.9948747158050537,5.351587295532227,4.57594633102417
90,2.04117751121521,-5.419832706451416,-5.7370123863220215,-4.8396172523498535,-3.176234245300293,-3.06278657913208,-6.049703598022461,-0.7292724251747131,-3.435427665710449,-0.2113206386566162,-3.025869607925415,-1.1061683893203735,1.682133674621582,0.22574982047080994,0.9113521575927734,2.297635316848755,3.1325247287750244,1.725077748298645,-0.04293479770421982,5.350821018218994,2.612013816833496,4.341845512390137,2.7585694789886475,-4.131330490112305,-1.4001109600067139,-5.006569862365723,-1.4898953437805176,-0.4716812074184418,-3.4842607975006104,-2.2816569805145264,-1.6286813020706177,-0.9375936985015869,-2.16690993309021,0.6340135335922241,5.7947845458984375,2.6905605792999268,4.394151210784912,4.013001441955566,5.380046367645264,4.561518669128418
91,2.0584657192230225,-5.417510509490967,-5.760673522949219,-4.860618591308594,-3.1953868865966797,-3.070406675338745,-6.076761245727539,-0.7363061904907227,-3.4597408771514893,-0.20556315779685974,-3.0169503688812256,-1.0951679944992065,1.691053032875061,0.2315073013305664,0.8870388269424438,2.2906014919281006,3.1058285236358643,1.7580897808074951,-0.025125617161393166,5.3537774085998535,2.638378381729126,4.320791721343994,2.772036552429199,-4.152384281158447,-1.373746395111084,-5.006652355194092,-1.4659507274627686,-0.4385431408882141,-3.5109570026397705,-2.2557265758514404,-1.6346173286437988,-0.9213415384292603,-2.1589462757110596,0.6553530097007751,5.767726898193359,2.6641557216644287,4.373960018157959,4.012072563171387,5.356385231018066,4.563840866088867
92,2.048308849334717,-5.427739143371582,-5.734201431274414,-4.872866630554199,-3.1733157634735107,-3.0465567111968994,-6.048985481262207,-0.7279500961303711,-3.4427614212036133,-0.20149514079093933,-3.026185989379883,-1.1080292463302612,1.6818174123764038,0.23557531833648682,0.9040184020996094,2.298957586288452,3.1333541870117188,1.734904408454895,-0.04356086999177933,5.348743915557861,2.6135525703430176,4.336775302886963,2.792901039123535,-4.1364006996154785,-1.398572325706482,-5.009208679199219,-1.494452714920044,-0.45958879590034485,-3.483431339263916,-2.280287027359009,-1.6212353706359863,-0.9393565058708191,-2.16648530960083,0.6318992972373962,5.795502662658691,2.6929824352264404,4.398295879364014,4.029420375823975,5.382857322692871,4.553612232208252
93,2.0654091835021973,-5.428600311279297,-5.756233215332031,-4.893613815307617,-3.189397096633911,-3.0491907596588135,-6.075634956359863,-0.7399787306785583,-3.4668712615966797,-0.2013244777917862,-3.019808530807495,-1.0975311994552612,1.6881951093673706,0.23574598133563995,0.8799084424972534,2.28692889213562,3.107409715652466,1.7661579847335815,-0.02379894256591797,5.352931976318359,2.638099431991577,4.316795825958252,2.803849935531616,-4.1563801765441895,-1.3740254640579224,-5.008300304412842,-1.4571518898010254,-0.4282462000846863,-3.509375810623169,-2.2561490535736084,-1.6270917654037476,-0.923309862613678,-2.160592794418335,0.6509237289428711,5.768853187561035,2.669459581375122,4.378857135772705,4.026174545288086,5.360825538635254,4.552751064300537
94,2.0574045181274414,-5.433783054351807,-5.731359958648682,-4.903329849243164,-3.1717889308929443,-3.031420946121216,-6.048171043395996,-0.7253088355064392,-3.4502151012420654,-0.19225795567035675,-3.026554584503174,-1.10897696018219,1.6814489364624023,0.2448125034570694,0.8965646624565125,2.30159854888916,3.1348419189453125,1.7443219423294067,-0.04452584311366081,5.347202301025391,2.614409923553467,4.33266544342041,2.826554775238037,-4.140510559082031,-1.3977149724960327,-5.0117716789245605,-1.5022319555282593,-0.4482590854167938,-3.4819436073303223,-2.2796213626861572,-1.6138806343078613,-0.9407094717025757,-2.166464328765869,0.6300445199012756,5.796317100524902,2.696834087371826,4.402058124542236,4.043315887451172,5.3856987953186035,4.547568321228027
95,2.074166774749756,-5.438975811004639,-5.752065658569336,-4.924139499664307,-3.1841800212860107,-3.0273351669311523,-6.075115203857422,-0.7446189522743225,-3.4746901988983154,-0.1993892341852188,-3.0231707096099854,-1.0991264581680298,1.6848326921463013,0.23768122494220734,0.8720895051956177,2.2822883129119873,3.1089465618133545,1.7740259170532227,-0.02174036204814911,5.353028297424316,2.637545347213745,4.313262462615967,2.833420753479004,-4.159913539886475,-1.3745795488357544,-5.009573459625244,-1.446776032447815,-0.4184279441833496,-3.5078389644622803,-2.256897211074829,-1.6203956604003906,-0.9245173931121826,-2.1622371673583984,0.6466588377952576,5.769372940063477,2.675881862640381,4.383029937744141,4.037468433380127,5.364993095397949,4.542375564575195
96,2.0679821968078613,-5.43781852722168,-5.728523254394531,-4.930744171142578,-3.1717689037323,-3.0179903507232666,-6.047289848327637,-0.721198558807373,-3.4576079845428467,-0.18302446603775024,-3.026723623275757,-1.1091285943984985,1.6812797784805298,0.2540459632873535,0.8891716003417969,2.305708646774292,3.1369361877441406,1.7533235549926758,-0.04556802660226822,5.346095561981201,2.614753246307373,4.329687595367432,2.858969211578369,-4.14348840713501,-1.3973716497421265,-5.014365196228027,-1.512508511543274,-0.4376075565814972,-3.479849338531494,-2.2795019149780273,-1.6067428588867188,-0.9416901469230652,-2.1667118072509766,0.6285392045974731,5.797198295593262,2.701591968536377,4.40553092956543,4.055115699768066,5.388535499572754,4.543532848358154
97,2.0841734409332275,-5.448825359344482,-5.7480340003967285,-4.9520416259765625,-3.1796131134033203,-3.00496506690979,-6.075160026550293,-0.7501446008682251,-3.482994318008423,-0.19948384165763855,-3.026921272277832,-1.100183129310608,1.6810821294784546,0.2375865876674652,0.8637852072715759,2.2767627239227295,3.1104562282562256,1.7815006971359253,-0.018879374489188194,5.354058265686035,2.6367831230163574,4.310329914093018,2.8600707054138184,-4.162846088409424,-1.3753416538238525,-5.0104804039001465,-1.4364254474639893,-0.40917879343032837,-3.506329298019409,-2.257911443710327,-1.6147387027740479,-0.9250258207321167,-2.163883924484253,0.6424626708030701,5.7693281173706055,2.6830861568450928,4.386740207672119,4.046315670013428,5.369024753570557,4.532526016235352
98,2.0795271396636963,-5.440028667449951,-5.725806713104248,-4.955063819885254,-3.1729743480682373,-3.006479024887085,-6.046533107757568,-0.7163575887680054,-3.4648478031158447,-0.17391519248485565,-3.026642084121704,-1.1086472272872925,1.6813613176345825,0.2631552219390869,0.8819316029548645,2.3105499744415283,3.1394076347351074,1.7619566917419434,-0.046079833060503006,5.345467567443848,2.614783763885498,4.327883720397949,2.8894577026367188,-4.145292282104492,-1.3973411321640015,-5.016963005065918,-1.5218524932861328,-0.42749685049057007,-3.4773778915405273,-2.279719591140747,-1.600048542022705,-0.9422176480293274,-2.1671793460845947,0.6274058222770691,5.79795503616333,2.706851005554199,4.40878438949585,4.065054893493652,5.391252040863037,4.541322708129883
99,2.094841957092285,-5.457760334014893,-5.743956089019775,-4.977014541625977,-3.1758265495300293,-2.9832687377929688,-6.075492858886719,-0.7552022933959961,-3.49141001701355,-0.20035499334335327,-3.0305569171905518,-1.1008973121643066,1.6774463653564453,0.2367154210805893,0.8553693294525146,2.271705389022827,3.1121625900268555,1.7883129119873047,-0.01593112014234066,5.355848789215088,2.635796070098877,4.308178901672363,2.8837945461273193,-4.164997100830078,-1.3763288259506226,-5.011150360107422,-1.430342197418213,-0.4006761610507965,-3.5046229362487793,-2.259182929992676,-1.6101901531219482,-0.9250790476799011,-2.165586233139038,0.6383817791938782,5.76899528503418,2.6906919479370117,4.390454292297363,4.053319931030273,5.37310266494751,4.523591041564941
100,2.0913705825805664,-5.441351413726807,-5.723358154296875,-4.976590633392334,-3.174281120300293,-2.995911121368408,-6.046324253082275,-0.7128570675849915,-3.4720702171325684,-0.16633641719818115,-3.0266735553741455,-1.1078283786773682,1.6813298463821411,0.2707339823246002,0.8747091889381409,2.3140506744384766,3.141793966293335,1.7702752351760864,-0.04522857442498207,5.345652103424072,2.614750862121582,4.327043533325195,2.916869640350342,-4.146132469177246,-1.397374153137207,-5.019262313842773,-1.5257419347763062,-0.4177727997303009,-3.4749915599823,-2.2799911499023438,-1.5942209959030151,-0.9422243237495422,-2.167714834213257,0.626427173614502,5.798163890838623,2.712416410446167,4.411901950836182,4.073077201843262,5.39370059967041,4.539999961853027
101,2.1054818630218506,-5.464653015136719,-5.739748001098633,-4.99862003326416,-3.1731393337249756,-2.9645583629608154,-6.075653076171875,-0.7577263712882996,-3.4994263648986816,-0.19990484416484833,-3.033259153366089,-1.1013487577438354,1.6747442483901978,0.23716555535793304,0.8473531007766724,2.269181489944458,3.1144680976867676,1.7943514585494995,-0.014130629599094391,5.357975959777832,2.6345510482788086,4.3070387840271,2.905348062515259,-4.166137218475342,-1.377573847770691,-5.01188850402832,-1.4312546253204346,-0.3929845690727234,-3.502317428588867,-2.2606842517852783,-1.6064505577087402,-0.9252693057060242,-2.1671059131622314,0.6346509456634521,5.768835067749023,2.69816255569458,4.394585609436035,4.059369087219238,5.377310752868652,4.516698360443115
102,2.1026549339294434,-5.443053722381592,-5.721127986907959,-4.995748519897461,-3.174374580383301,-2.9847543239593506,-6.047035217285156,-0.7123923301696777,-3.4795384407043457,-0.16180849075317383,-3.0273194313049316,-1.1070425510406494,1.680683970451355,0.27526190876960754,0.8672409653663635,2.3145155906677246,3.143724203109741,1.7782411575317383,-0.04305383190512657,5.346948623657227,2.614863872528076,4.3267340660095215,2.9400219917297363,-4.14644193649292,-1.397261142730713,-5.0209269523620605,-1.5235379934310913,-0.40838807821273804,-3.4730613231658936,-2.280083179473877,-1.58968186378479,-0.9420080780982971,-2.1678848266601562,0.6251711845397949,5.797452926635742,2.7180824279785156,4.414981365203857,4.079216480255127,5.395930767059326,4.538297653198242
103,2.1153721809387207,-5.468697547912598,-5.735569953918457,-5.0167131423950195,-3.1716160774230957,-2.9502832889556885,-6.075460433959961,-0.7572797536849976,-3.506671905517578,-0.1971745640039444,-3.034700393676758,-1.1015064716339111,1.6733028888702393,0.23989583551883698,0.8401075005531311,2.2696280479431152,3.1175458431243896,1.799931287765503,-0.014007446356117725,5.359974384307861,2.633211374282837,4.307039260864258,2.9253270626068115,-4.166136741638184,-1.3789136409759521,-5.012986660003662,-1.437181830406189,-0.38581210374832153,-3.499239683151245,-2.262221574783325,-1.6029475927352905,-0.926142156124115,-2.1679232120513916,0.6314657330513,5.7690277099609375,2.704965829849243,4.398996353149414,4.065154075622559,5.381488800048828,4.512653827667236
104,2.1126549243927,-5.445560932159424,-5.718866348266602,-5.01268196105957,-3.173099994659424,-2.9727225303649902,-6.048603057861328,-0.714520275592804,-3.487276077270508,-0.1601431518793106,-3.028616189956665,-1.1064465045928955,1.679386854171753,0.27692723274230957,0.8595033884048462,2.312387704849243,3.145291566848755,1.7857331037521362,-0.04058866202831268,5.3491106033325195,2.6151440143585205,4.326652526855469,2.9586851596832275,-4.146523475646973,-1.396980881690979,-5.0220441818237305,-1.5181703567504883,-0.3994431495666504,-3.47149395942688,-2.2799839973449707,-1.586441993713379,-0.9420647621154785,-2.167341709136963,0.6233736276626587,5.79588508605957,2.7233941555023193,4.41795539855957,4.084005355834961,5.398192405700684,4.53579044342041
105,2.124051570892334,-5.470313549041748,-5.731631755828857,-5.0316386222839355,-3.1709721088409424,-2.9398510456085205,-6.075193405151367,-0.755163311958313,-3.5130937099456787,-0.19300642609596252,-3.0352892875671387,-1.101325511932373,1.6727136373519897,0.24406395852565765,0.8336858749389648,2.2717444896698,3.1211540699005127,1.8054547309875488,-0.015028043650090694,5.361627578735352,2.632082939147949,4.308077812194824,2.94350266456604,-4.165098190307617,-1.3800420761108398,-5.014506816864014,-1.4446393251419067,-0.37879717350006104,-3.495631456375122,-2.2635080814361572,-1.5993653535842896,-0.9276360273361206,-2.167869806289673,0.6287729740142822,5.769294738769531,2.7107996940612793,4.403175354003906,4.0708327293396,5.385426998138428,4.511037826538086
106,2.12107515335083,-5.448463439941406,-5.716397285461426,-5.027323246002197,-3.171229839324951,-2.9606990814208984,-6.05068826675415,-0.7177478075027466,-3.494964122772217,-0.1600593626499176,-3.0302138328552246,-1.1059327125549316,1.6777889728546143,0.27701103687286377,0.8518156409263611,2.309159994125366,3.146845817565918,1.7926621437072754,-0.038544610142707825,5.351569175720215,2.6154775619506836,4.326813220977783,2.973511219024658,-4.146362781524658,-1.396647572517395,-5.022974491119385,-1.5123666524887085,-0.3910578787326813,-3.469939708709717,-2.2798211574554443,-1.584163784980774,-0.9425275325775146,-2.166175365447998,0.6210957765579224,5.793799877166748,2.7279348373413086,4.4206342697143555,4.088132858276367,5.400661468505859,4.532887935638428
107,2.131408214569092,-5.470522403717041,-5.728003978729248,-5.043915748596191,-3.1708991527557373,-2.9319264888763428,-6.075221538543701,-0.7526630163192749,-3.5188138484954834,-0.18859565258026123,-3.0355358123779297,-1.1007964611053467,1.6724669933319092,0.24847474694252014,0.8279658555984497,2.274244785308838,3.124945878982544,1.811043620109558,-0.01633421704173088,5.362969875335693,2.6313247680664062,4.309879779815674,2.959360122680664,-4.163296222686768,-1.3808001279830933,-5.016310214996338,-1.451527714729309,-0.371822327375412,-3.491839647293091,-2.2644050121307373,-1.5958411693572998,-0.9292990565299988,-2.167212963104248,0.6263931393623352,5.769266605377197,2.7155635356903076,4.406754016876221,4.0762939453125,5.389054775238037,4.510828971862793
108,2.1279706954956055,-5.4512834548950195,-5.713705062866211,-5.039668083190918,-3.169464349746704,-2.9495694637298584,-6.053008079528809,-0.7209673523902893,-3.5021963119506836,-0.16052724421024323,-3.031796932220459,-1.105345606803894,1.6762059926986694,0.27654317021369934,0.8445833325386047,2.3059403896331787,3.1486499309539795,1.7990202903747559,-0.036938391625881195,5.353927135467529,2.615755796432495,4.32734489440918,2.985306978225708,-4.145831108093262,-1.396369218826294,-5.023947238922119,-1.507382869720459,-0.3832700848579407,-3.4681355953216553,-2.2797019481658936,-1.5825353860855103,-0.9432070851325989,-2.1646714210510254,0.6185314059257507,5.79148006439209,2.731578826904297,4.422911167144775,4.092016220092773,5.403353691101074,4.5300679206848145
109,2.13753342628479,-5.470137596130371,-5.724668979644775,-5.05398416519165,-3.1712279319763184,-2.925560235977173,-6.075754165649414,-0.7503809332847595,-3.523948907852173,-0.18462151288986206,-3.035702705383301,-1.0999494791030884,1.6723002195358276,0.2524489164352417,0.8228307962417603,2.276526927947998,3.12870192527771,1.8166402578353882,-0.017320837825536728,5.364132404327393,2.6309099197387695,4.312139511108398,2.97265887260437,-4.161036491394043,-1.3812150955200195,-5.01820182800293,-1.4571809768676758,-0.36492273211479187,-3.488083600997925,-2.264944314956665,-1.5926700830459595,-0.9307631850242615,-2.166271209716797,0.6241974234580994,5.768733978271484,2.7192740440368652,4.4096174240112305,4.081416606903076,5.39238977432251,4.511213779449463
110,2.1335296630859375,-5.4537739753723145,-5.710851669311523,-5.049846172332764,-3.1681160926818848,-2.939765214920044,-6.055419921875,-0.7237012386322021,-3.5086898803710938,-0.16107216477394104,-3.0332252979278564,-1.104620099067688,1.674777626991272,0.2759982645511627,0.8380898237228394,2.3032066822052,3.1508090496063232,1.8048514127731323,-0.03554069623351097,5.356054306030273,2.6159136295318604,4.328302383422852,2.994694709777832,-4.14487361907959,-1.3962112665176392,-5.024992942810059,-1.5035006999969482,-0.3760475218296051,-3.4659764766693115,-2.2796852588653564,-1.5813939571380615,-0.9439117312431335,-2.163043260574341,0.6158412098884583,5.789068222045898,2.7344119548797607,4.424788475036621,4.095784664154053,5.406207084655762,4.5275774002075195
111,2.1425893306732178,-5.469588756561279,-5.7215986251831055,-5.062175273895264,-3.17189621925354,-2.92028546333313,-6.076852798461914,-0.7484599351882935,-3.528562068939209,-0.18130290508270264,-3.035865068435669,-1.098848819732666,1.6721378564834595,0.2557675242424011,0.8182176351547241,2.2784481048583984,3.132328987121582,1.8221803903579712,-0.01772739551961422,5.365231037139893,2.6307497024536133,4.314607620239258,2.983478307723999,-4.158568382263184,-1.3813749551773071,-5.020023345947266,-1.4616249799728394,-0.358143150806427,-3.4844565391540527,-2.265212297439575,-1.590046763420105,-0.9318727850914001,-2.165245532989502,0.6221383213996887,5.767635345458984,2.722014904022217,4.411790370941162,4.086118698120117,5.39546012878418,4.511762619018555
112,2.1379542350769043,-5.455876350402832,-5.707896709442139,-5.058073043823242,-3.167233467102051,-2.93135666847229,-6.057870388031006,-0.7258488535881042,-3.5143167972564697,-0.16155795753002167,-3.0344796180725098,-1.1037847995758057,1.6735234260559082,0.2755124866962433,0.8324628472328186,2.3010592460632324,3.153334617614746,1.810211181640625,-0.03417591378092766,5.357953071594238,2.6159136295318604,4.329641342163086,3.0021121501922607,-4.1435346603393555,-1.39621102809906,-5.026054859161377,-1.500614881515503,-0.36933964490890503,-3.4634509086608887,-2.2798047065734863,-1.580661654472351,-0.9445580244064331,-2.1613917350769043,0.6131131052970886,5.786617755889893,2.7365925312042236,4.426323890686035,4.099421501159668,5.4091620445251465,4.525475025177002
113,2.1467535495758057,-5.469046592712402,-5.718780517578125,-5.068755149841309,-3.1728880405426025,-2.915898084640503,-6.078505039215088,-0.7468608617782593,-3.5326855182647705,-0.1786269247531891,-3.036025047302246,-1.097574234008789,1.6719778776168823,0.25844353437423706,0.8140942454338074,2.2800471782684326,3.135798215866089,1.8276463747024536,-0.01751674897968769,5.366329669952393,2.630777597427368,4.317102909088135,2.992077112197876,-4.156073093414307,-1.3813469409942627,-5.021682262420654,-1.4650983810424805,-0.35149523615837097,-3.480987310409546,-2.2652761936187744,-1.588015079498291,-0.9326050877571106,-2.1642439365386963,0.6202197670936584,5.7659831047058105,2.723902463912964,4.413343906402588,4.090346813201904,5.39827823638916,4.512304782867432
114,2.1414244174957275,-5.457627296447754,-5.704873085021973,-5.064594745635986,-3.1667463779449463,-2.9242217540740967,-6.060336112976074,-0.7274693250656128,-3.519057273864746,-0.16198258101940155,-3.0355942249298096,-1.1029173135757446,1.6724085807800293,0.2750878930091858,0.8277226090431213,2.299438714981079,3.1562047004699707,1.8151415586471558,-0.0327732227742672,5.359654903411865,2.615732431411743,4.331265449523926,3.007884979248047,-4.141910552978516,-1.3963921070098877,-5.027072906494141,-1.4985225200653076,-0.3631094992160797,-3.460580825805664,-2.2800843715667725,-1.5802818536758423,-0.9451423287391663,-2.1597518920898438,0.6103776693344116,5.784152030944824,2.738285541534424,4.4275946617126465,4.102869987487793,5.4121856689453125,4.52372407913208
115,2.1501998901367188,-5.468552112579346,-5.716217994689941,-5.073957443237305,-3.174201011657715,-2.912301540374756,-6.0806708335876465,-0.745500385761261,-3.536348581314087,-0.17648835480213165,-3.0361669063568115,-1.0961982011795044,1.6718358993530273,0.2605821192264557,0.8104314208030701,2.281407594680786,3.1391029357910156,1.8330581188201904,-0.016752958297729492,5.3674445152282715,2.630964756011963,4.319499969482422,2.9987776279449463,-4.1536760330200195,-1.3811599016189575,-5.023144245147705,-1.4678559303283691,-0.34496593475341797,-3.477682590484619,-2.2651665210723877,-1.5865164995193481,-0.9329862594604492,-2.163327217102051,0.6184692978858948,5.763817310333252,2.7250571250915527,4.414353370666504,4.0940680503845215,5.400840759277344,4.512799263000488
116,2.1440937519073486,-5.459104537963867,-5.701788425445557,-5.069663047790527,-3.1665427684783936,-2.9181575775146484,-6.062795639038086,-0.7286747097969055,-3.5229499340057373,-0.1623793989419937,-3.036623477935791,-1.1021043062210083,1.6713792085647583,0.27469104528427124,0.8238301277160645,2.2982332706451416,3.159396171569824,1.8196642398834229,-0.031334277242422104,5.361183166503906,2.615351438522339,4.333069324493408,3.012277126312256,-4.140106678009033,-1.396773338317871,-5.028013706207275,-1.4970217943191528,-0.3573436737060547,-3.4573893547058105,-2.280545473098755,-1.580198884010315,-0.9456978440284729,-2.158125400543213,0.6076294183731079,5.7816925048828125,2.73964524269104,4.42868185043335,4.106077194213867,5.4152703285217285,4.522246837615967
117,2.1530921459198,-5.468092441558838,-5.713925361633301,-5.077997207641602,-3.1758389472961426,-2.9094398021698,-6.083308219909668,-0.7442963123321533,-3.539591073989868,-0.17475050687789917,-3.0362741947174072,-1.094770073890686,1.6717287302017212,0.262319952249527,0.8071890473365784,2.282611608505249,3.1422386169433594,1.8384546041488647,-0.015530985780060291,5.368566036224365,2.6313138008117676,4.321712970733643,3.0039079189300537,-4.151463031768799,-1.380811095237732,-5.0244140625,-1.470116376876831,-0.3385303318500519,-3.4745469093322754,-2.2648847103118896,-1.5854442119598389,-0.9330481886863708,-2.1625397205352783,0.6169256567955017,5.7611799240112305,2.7255876064300537,4.4148850440979,4.097264289855957,5.403133392333984,4.513258934020996
118,2.1460883617401123,-5.460400104522705,-5.698631763458252,-5.073517799377441,-3.1665005683898926,-2.9129316806793213,-6.065218925476074,-0.7295892834663391,-3.526060104370117,-0.16278451681137085,-3.037627696990967,-1.101420283317566,1.670375108718872,0.2742859423160553,0.8207199573516846,2.297318458557129,3.162893295288086,1.8237782716751099,-0.02989836595952511,5.362549781799316,2.614751100540161,4.334963798522949,3.0155134201049805,-4.138212203979492,-1.3973736763000488,-5.02886438369751,-1.495932698249817,-0.3520514667034149,-3.453892230987549,-2.281212568283081,-1.5803589820861816,-0.9462690353393555,-2.1564972400665283,0.6048420667648315,5.779269218444824,2.740814447402954,4.429666519165039,4.109010696411133,5.418426990509033,4.520951271057129
119,2.1555800437927246,-5.467630863189697,-5.711928844451904,-5.081075191497803,-3.1778128147125244,-2.9072792530059814,-6.086381912231445,-0.7431749105453491,-3.542466878890991,-0.1732676774263382,-3.036329507827759,-1.0933096408843994,1.6716731786727905,0.26380279660224915,0.8043131828308105,2.2837328910827637,3.145195722579956,1.8438829183578491,-0.013945847749710083,5.369675159454346,2.6318485736846924,4.323683261871338,3.007777214050293,-4.1494927406311035,-1.380276083946228,-5.025516033172607,-1.472062587738037,-0.3321588337421417,-3.4715898036956787,-2.264411211013794,-1.5846786499023438,-0.9328097701072693,-2.161919355392456,0.6156359910964966,5.758106231689453,2.7255795001983643,4.414988040924072,4.09993314743042,5.405129909515381,4.513720512390137
