,0,1,2,3,4,5,6,7,8,9,10,11,12,13,14,15,16,17,18,19,20,21,22,23,24,25,26,27,28,29,30,31,32,33,34,35,36,37,38,39
0,3.0115807056427,-5.6858673095703125,-6.015863418579102,-2.8673884868621826,-2.061532735824585,-2.5381956100463867,-1.7076685428619385,-4.759759426116943,-0.0334915854036808,-0.9830520153045654,-3.0115807056427,0.9830520153045654,0.7415275573730469,5.24456262588501,0.9905702471733093,5.106533527374268,3.5793917179107666,6.267858982086182,5.155965805053711,3.0043437480926514,4.284640789031982,4.6618123054504395,0.0334915854036808,-4.6618123054504395,-4.284640789031982,-3.0043437480926514,-5.155965805053711,-6.267858982086182,-3.5793917179107666,-5.106533527374268,-0.9905702471733093,-5.24456262588501,-0.7415275573730469,4.759759426116943,1.7076685428619385,2.5381956100463867,2.061532735824585,2.8673884868621826,6.015863418579102,5.6858673095703125
1,3.0644032955169678,-5.6330461502075195,-6.0686845779418945,-2.814565896987915,-2.0087101459503174,-2.4853737354278564,-1.7604910135269165,-4.706937313079834,-0.0863141268491745,-1.035874605178833,-2.9587581157684326,0.9302294850349426,0.7943501472473145,5.191740036010742,0.9377477169036865,5.159355640411377,3.632214307785034,6.215036869049072,5.2087883949279785,2.951521158218384,4.337461948394775,4.714634895324707,-0.019330957904458046,-4.608989715576172,-4.2318196296691895,-3.057166337966919,-5.103143215179443,-6.320681095123291,-3.526569128036499,-5.053711414337158,-1.0433928966522217,-5.297385215759277,-0.6887049674987793,4.812581539154053,1.6548460721969604,2.591017484664917,2.1143550872802734,2.92021107673645,5.963042259216309,5.7386884689331055
2,3.081507444381714,-5.685256481170654,-6.016813278198242,-2.7849066257476807,-2.058915615081787,-2.4330313205718994,-1.7284481525421143,-4.662922382354736,-0.06507876515388489,-1.077276587486267,-2.940025568008423,0.8848456144332886,0.8130825161933899,5.150338172912598,0.9589830636978149,5.203370571136475,3.6258063316345215,6.165663242340088,5.258327960968018,2.920612335205078,4.285389423370361,4.679570198059082,-0.006471976637840271,-4.644054412841797,-4.2838921546936035,-3.08575439453125,-5.053560256958008,-6.371050834655762,-3.5329771041870117,-5.006859302520752,-1.0205450057983398,-5.3369340896606445,-0.6675891280174255,4.857820510864258,1.6868889331817627,2.643357515335083,2.064251661300659,2.947599172592163,6.014913558959961,5.686478137969971
3,3.106907844543457,-5.692577838897705,-6.065146446228027,-2.7410902976989746,-2.1037919521331787,-2.4427671432495117,-1.7806494235992432,-4.685793876647949,-0.09576163440942764,-1.1002472639083862,-2.908322334289551,0.8568398952484131,0.8447856903076172,5.1273674964904785,0.9283002018928528,5.180499076843262,3.679762840270996,6.205469131469727,5.2992448806762695,2.9170384407043457,4.324906349182129,4.68913459777832,-0.04646344110369682,-4.634490013122559,-4.244375228881836,-3.089308023452759,-5.012779235839844,-6.337143898010254,-3.479020595550537,-5.0356831550598145,-1.0278948545455933,-5.352142333984375,-0.637409508228302,4.8367719650268555,1.6346876621246338,2.634699821472168,2.0189297199249268,2.9918880462646484,5.966580390930176,5.67915678024292
4,3.108767509460449,-5.734506607055664,-6.033456802368164,-2.712923526763916,-2.1510112285614014,-2.3925931453704834,-1.7905198335647583,-4.639948844909668,-0.13315965235233307,-1.1098337173461914,-2.8926377296447754,0.8313043117523193,0.8604700565338135,5.117781162261963,0.8909021615982056,5.226344108581543,3.698981761932373,6.194347858428955,5.340286731719971,2.883941411972046,4.28253698348999,4.675135612487793,-0.093158058822155,-4.648488998413086,-4.286744594573975,-3.121053457260132,-4.971704006195068,-6.352522373199463,-3.45980167388916,-4.989744663238525,-1.0682029724121094,-5.345576286315918,-0.619536817073822,4.88346529006958,1.6248172521591187,2.6830739974975586,1.9720580577850342,3.020521640777588,5.998270034790039,5.637228012084961
5,3.0937328338623047,-5.7773332595825195,-6.079061031341553,-2.674924373626709,-2.20109486579895,-2.3750874996185303,-1.8246922492980957,-4.679924964904785,-0.1362142413854599,-1.1409287452697754,-2.884960412979126,0.7941832542419434,0.8681473731994629,5.086686134338379,0.8878475427627563,5.186367988586426,3.7410285472869873,6.240945816040039,5.380874156951904,2.872962236404419,4.322257041931152,4.65839958190918,-0.12557953596115112,-4.665225028991699,-4.2470245361328125,-3.131281852722168,-4.9312052726745605,-6.308493614196777,-3.417754888534546,-5.0293402671813965,-1.0587124824523926,-5.3607988357543945,-0.6113329529762268,4.843080520629883,1.5906448364257812,2.700942277908325,1.9215415716171265,3.0577919483184814,5.95266580581665,5.5944013595581055
6,3.069620370864868,-5.819467544555664,-6.058378219604492,-2.6610727310180664,-2.2369892597198486,-2.3221163749694824,-1.8082094192504883,-4.645936012268066,-0.19802266359329224,-1.1564042568206787,-2.8843047618865967,0.773969829082489,0.8688029646873474,5.0712103843688965,0.8260391354560852,5.2203569412231445,3.7522408962249756,6.256140232086182,5.4113898277282715,2.8317506313323975,4.292421340942383,4.660007953643799,-0.19230009615421295,-4.66361665725708,-4.276860237121582,-3.173865556716919,-4.900825023651123,-6.294013023376465,-3.4065425395965576,-4.996043682098389,-1.1212235689163208,-5.347580432891846,-0.6019762754440308,4.875718116760254,1.6071276664733887,2.7450807094573975,1.8866277933120728,3.0770227909088135,5.973348617553711,5.552267074584961
7,3.028080940246582,-5.870873928070068,-6.104151725769043,-2.645798921585083,-2.279008626937866,-2.303657293319702,-1.7760635614395142,-4.678406715393066,-0.22020196914672852,-1.202079176902771,-2.907801389694214,0.7469205260276794,0.8453065752983093,5.025535583496094,0.8038598299026489,5.1878862380981445,3.762988567352295,6.312257289886475,5.434794902801514,2.798715591430664,4.335973739624023,4.643842697143555,-0.24433954060077667,-4.679781913757324,-4.233307838439941,-3.207677125930786,-4.877597808837891,-6.238492012023926,-3.3957948684692383,-5.037879467010498,-1.1360384225845337,-5.372183322906494,-0.6106781363487244,4.836897373199463,1.6392735242843628,2.7541208267211914,1.844660997390747,3.09067702293396,5.92757511138916,5.500860691070557
8,2.993572473526001,-5.915286540985107,-6.072393417358398,-2.6693882942199707,-2.2904255390167236,-2.2670743465423584,-1.7102676630020142,-4.611477851867676,-0.27896571159362793,-1.2397257089614868,-2.936668872833252,0.7513797879219055,0.8164390325546265,4.987889289855957,0.7450960874557495,5.254815101623535,3.7317631244659424,6.342983722686768,5.429281711578369,2.7490344047546387,4.299352169036865,4.6451239585876465,-0.3092956840991974,-4.678500652313232,-4.2699294090271,-3.2596988677978516,-4.8865580558776855,-6.208005905151367,-3.427020311355591,-4.991695404052734,-1.188895583152771,-5.379427433013916,-0.6043175458908081,4.889317035675049,1.7050694227218628,2.7644402980804443,1.8432679176330566,3.0769801139831543,5.959333419799805,5.456448078155518
9,2.943108558654785,-5.968181610107422,-6.135636329650879,-2.674349308013916,-2.335617780685425,-2.301196813583374,-1.6753218173980713,-4.623157501220703,-0.31481921672821045,-1.290824294090271,-2.983112335205078,0.7590909600257874,0.769995391368866,4.936790466308594,0.709242582321167,5.243135452270508,3.7308809757232666,6.415153980255127,5.405475616455078,2.7133851051330566,4.353592872619629,4.59920597076416,-0.3625277578830719,-4.724418640136719,-4.215688705444336,-3.2968015670776367,-4.911212921142578,-6.135619163513184,-3.4279024600982666,-5.0393500328063965,-1.184568166732788,-5.393721580505371,-0.6207495331764221,4.842449188232422,1.7400152683258057,2.743009090423584,1.8024741411209106,3.067924976348877,5.896090507507324,5.403553009033203
10,2.920926332473755,-6.0076069831848145,-6.098283767700195,-2.720547676086426,-2.3433167934417725,-2.3119890689849854,-1.6016566753387451,-4.546081066131592,-0.363486647605896,-1.3027220964431763,-3.0109429359436035,0.808508038520813,0.7421647310256958,4.924892902374268,0.6605750918388367,5.320211887359619,3.661508798599243,6.447707176208496,5.358251094818115,2.6655309200286865,4.301109790802002,4.586943626403809,-0.4133354127407074,-4.73668098449707,-4.268171787261963,-3.350266456604004,-4.962207794189453,-6.099896430969238,-3.49727463722229,-4.97810697555542,-1.1870579719543457,-5.360622406005859,-0.597750723361969,4.9010138511657715,1.8136804103851318,2.7287676334381104,1.8181089162826538,3.0328638553619385,5.933443069458008,5.3641276359558105
11,2.8817946910858154,-6.031979560852051,-6.175891876220703,-2.7059969902038574,-2.403149127960205,-2.3591699600219727,-1.6333354711532593,-4.594347953796387,-0.4042806327342987,-1.3420817852020264,-3.04766583442688,0.8273736834526062,0.7054416537284851,4.885532855987549,0.6197810769081116,5.271944999694824,3.727437734603882,6.4990081787109375,5.320710182189941,2.6501877307891846,4.364933490753174,4.538322448730469,-0.44474953413009644,-4.78530216217041,-4.204348087310791,-3.3689820766448975,-4.9989237785339355,-6.0405755043029785,-3.4313457012176514,-5.038818359375,-1.1388216018676758,-5.369007587432861,-0.6217865943908691,4.830356597900391,1.7820016145706177,2.757645845413208,1.7614402770996094,3.038374662399292,5.8558349609375,5.339755058288574
12,2.8887462615966797,-6.036167621612549,-6.133339881896973,-2.7477920055389404,-2.407028913497925,-2.3615238666534424,-1.5622704029083252,-4.526556491851807,-0.4244445562362671,-1.3113666772842407,-3.0419700145721436,0.8905616402626038,0.711137592792511,4.916247844696045,0.5996171832084656,5.339736461639404,3.6608309745788574,6.497990608215332,5.27215051651001,2.611877918243408,4.302968978881836,4.581315994262695,-0.4640839397907257,-4.742308616638184,-4.266312599182129,-3.4185664653778076,-5.048852920532227,-6.037354469299316,-3.497952461242676,-4.975036144256592,-1.100930094718933,-5.325893402099609,-0.581186056137085,4.8831963539123535,1.8530666828155518,2.746135711669922,1.7854785919189453,3.010366678237915,5.8983869552612305,5.335566997528076
13,2.8592803478240967,-6.045146465301514,-6.196281909942627,-2.7156808376312256,-2.4544594287872314,-2.375920534133911,-1.603916049003601,-4.568690299987793,-0.4386463761329651,-1.3558143377304077,-3.061180830001831,0.8921651840209961,0.6919268369674683,4.871799945831299,0.5854153633117676,5.297602653503418,3.7227425575256348,6.522825717926025,5.249980449676514,2.6010799407958984,4.346097946166992,4.545624256134033,-0.4696653485298157,-4.778000354766846,-4.223183631896973,-3.4306814670562744,-5.070069789886475,-6.003804683685303,-3.4360408782958984,-5.01948881149292,-1.0443123579025269,-5.373355865478516,-0.6114531755447388,4.824752330780029,1.8114210367202759,2.808638095855713,1.7407492399215698,3.0298757553100586,5.835444927215576,5.326588153839111
14,2.867453098297119,-6.033421039581299,-6.173689365386963,-2.737213611602783,-2.4586260318756104,-2.3708279132843018,-1.56759774684906,-4.521023273468018,-0.44826585054397583,-1.3295702934265137,-3.0408523082733154,0.9446491003036499,0.7122551798820496,4.898044109344482,0.5757958889007568,5.345269680023193,3.694725513458252,6.518913745880127,5.213183879852295,2.5705645084381104,4.297728538513184,4.594049453735352,-0.4736957550048828,-4.729575157165527,-4.271553039550781,-3.4685981273651123,-5.106477737426758,-6.004903316497803,-3.4640579223632812,-4.973349571228027,-1.0112847089767456,-5.339480876922607,-0.5796107649803162,4.854896068572998,1.8477394580841064,2.8167269229888916,1.7635862827301025,3.0156478881835938,5.85803747177124,5.338313579559326
15,2.8437066078186035,-6.037413120269775,-6.218227386474609,-2.707089424133301,-2.492060661315918,-2.36150860786438,-1.600058674812317,-4.542274475097656,-0.44337916374206543,-1.364420771598816,-3.044508695602417,0.9528120756149292,0.7085988521575928,4.863193511962891,0.5806825160980225,5.324018478393555,3.7416343688964844,6.53376579284668,5.199150562286377,2.5569772720336914,4.315853118896484,4.572931289672852,-0.46812763810157776,-4.750693321228027,-4.2534284591674805,-3.48284912109375,-5.119999885559082,-5.985344409942627,-3.417149066925049,-4.9952802658081055,-0.9634246230125427,-5.374032974243164,-0.606325089931488,4.815481662750244,1.8152785301208496,2.876904249191284,1.7374156713485718,3.0342025756835938,5.813499450683594,5.33432149887085
16,2.843942880630493,-6.023194789886475,-6.210916519165039,-2.7127187252044678,-2.5005507469177246,-2.346994638442993,-1.5822997093200684,-4.506886959075928,-0.4484570324420929,-1.3532301187515259,-3.020434617996216,0.9987803101539612,0.7326731085777283,4.874383926391602,0.5756046175956726,5.359405994415283,3.7321534156799316,6.535533428192139,5.1719183921813965,2.5306894779205322,4.2777557373046875,4.6111016273498535,-0.4665311574935913,-4.712522983551025,-4.291525840759277,-3.5123302936553955,-5.146503448486328,-5.9821648597717285,-3.4266300201416016,-4.961398124694824,-0.9399383664131165,-5.35085391998291,-0.5909118056297302,4.830008029937744,1.8330374956130981,2.8974099159240723,1.7566163539886475,3.029439687728882,5.820810317993164,5.34853982925415
17,2.823590040206909,-6.0245842933654785,-6.246964931488037,-2.6862990856170654,-2.5303401947021484,-2.330164670944214,-1.6075928211212158,-4.518603324890137,-0.4339420199394226,-1.3833709955215454,-3.011836051940918,1.01583731174469,0.7412717342376709,4.844243049621582,0.5901196002960205,5.347689628601074,3.76922869682312,6.550484657287598,5.160488128662109,2.5159757137298584,4.284532070159912,4.596594333648682,-0.45836228132247925,-4.727030277252197,-4.284749507904053,-3.5269641876220703,-5.15819787979126,-5.965301990509033,-3.389554738998413,-4.973903179168701,-0.9022886157035828,-5.367925643920898,-0.6134630441665649,4.7992095947265625,1.8077443838119507,2.9459264278411865,1.737618327140808,3.0440046787261963,5.784761905670166,5.3471503257751465
18,2.8204171657562256,-6.010722637176514,-6.246878147125244,-2.686160087585449,-2.5437803268432617,-2.3103573322296143,-1.5947095155715942,-4.491100788116455,-0.4340622127056122,-1.3827733993530273,-2.983590841293335,1.0608607530593872,0.7695170640945435,4.8448405265808105,0.5899994373321533,5.375192165374756,3.7640798091888428,6.554358959197998,5.136239528656006,2.4912538528442383,4.252475261688232,4.625579357147217,-0.4550924599170685,-4.698045253753662,-4.316806316375732,-3.5521481037139893,-5.181976318359375,-5.960957050323486,-3.3947036266326904,-4.948307037353516,-0.8890361785888672,-5.3484368324279785,-0.6040568351745605,4.805896759033203,1.8206276893615723,2.9645159244537354,1.7519111633300781,3.0415380001068115,5.784848690032959,5.361011981964111
19,2.80330753326416,-6.010812759399414,-6.279162883758545,-2.664466142654419,-2.5731115341186523,-2.2916836738586426,-1.6147505044937134,-4.501923561096191,-0.41275036334991455,-1.4117872714996338,-2.9668259620666504,1.0832645893096924,0.7862818241119385,4.815826892852783,0.6113113164901733,5.3643693923950195,3.7954022884368896,6.566793441772461,5.125,2.476649284362793,4.256352424621582,4.609629154205322,-0.4467960298061371,-4.713995456695557,-4.312929153442383,-3.5658769607543945,-5.194723606109619,-5.947797775268555,-3.3633811473846436,-4.960485935211182,-0.8633738160133362,-5.356105804443359,-0.6201606392860413,4.778116226196289,1.8005865812301636,2.998960018157959,1.7325060367584229,3.050987482070923,5.752563953399658,5.360921859741211
20,2.8002209663391113,-5.995800018310547,-6.281031131744385,-2.6654341220855713,-2.5889925956726074,-2.270554542541504,-1.6014240980148315,-4.479645252227783,-0.4097287058830261,-1.4145300388336182,-2.935534715652466,1.1283725500106812,0.8175731897354126,4.813084125518799,0.614332914352417,5.386647701263428,3.78985857963562,6.566206455230713,5.101235866546631,2.4527604579925537,4.227670192718506,4.631463050842285,-0.44321250915527344,-4.692161560058594,-4.341611385345459,-3.5884768962860107,-5.218923568725586,-5.9480366706848145,-3.368924856185913,-4.9410247802734375,-0.8628895282745361,-5.340181350708008,-0.6077483296394348,4.781832218170166,1.8139129877090454,3.007575035095215,1.7430310249328613,3.0464251041412354,5.750695705413818,5.375934600830078
21,2.7849738597869873,-5.99404764175415,-6.311601638793945,-2.6490988731384277,-2.6178219318389893,-2.252429246902466,-1.6194818019866943,-4.493259429931641,-0.38372379541397095,-1.4408483505249023,-2.915780544281006,1.1516385078430176,0.837327241897583,4.786766052246094,0.6403378248214722,5.37303352355957,3.8200554847717285,6.573131561279297,5.0914740562438965,2.439011812210083,4.232646942138672,4.609445571899414,-0.4344639480113983,-4.714179039001465,-4.336634635925293,-3.6006011962890625,-5.232079982757568,-5.940534591674805,-3.3387279510498047,-4.95702600479126,-0.8481316566467285,-5.34639835357666,-0.6167079210281372,4.754739761352539,1.7958552837371826,3.028352737426758,1.7201462984085083,3.0508275032043457,5.720125198364258,5.377686977386475
22,2.782115936279297,-5.975704669952393,-6.311969757080078,-2.6547205448150635,-2.633943796157837,-2.231889486312866,-1.6041260957717896,-4.4726881980896,-0.3824612498283386,-1.4401012659072876,-2.8840231895446777,1.1956777572631836,0.8690845966339111,4.787513256072998,0.6416003704071045,5.393604755401611,3.8126871585845947,6.566880702972412,5.068385601043701,2.414695978164673,4.204718589782715,4.627159595489502,-0.43107402324676514,-4.696465015411377,-4.36456298828125,-3.6221890449523926,-5.256805896759033,-5.94618558883667,-3.3460962772369385,-4.940677642822266,-0.8596057891845703,-5.335521221160889,-0.5980628132820129,4.759032726287842,1.8112109899520874,3.025397300720215,1.7300293445587158,3.042680501937866,5.719757080078125,5.396029949188232
23,2.766186475753784,-5.97222900390625,-6.342255592346191,-2.642857551574707,-2.662579298019409,-2.2141711711883545,-1.6231157779693604,-4.490546703338623,-0.35430335998535156,-1.4631576538085938,-2.865554094314575,1.2148637771606445,0.8875536322593689,4.764456748962402,0.6697582602500916,5.375746250152588,3.8449952602386475,6.571171283721924,5.0623779296875,2.4016196727752686,4.21312141418457,4.597493648529053,-0.42131590843200684,-4.726130962371826,-4.3561601638793945,-3.6324620246887207,-5.268429279327393,-5.941274166107178,-3.3137881755828857,-4.9621171951293945,-0.8502184152603149,-5.344109535217285,-0.6023900508880615,4.731330394744873,1.7922213077545166,3.0364105701446533,1.7020310163497925,3.0438344478607178,5.689471244812012,5.399505615234375
24,2.7629950046539307,-5.949512481689453,-6.338613986968994,-2.6539433002471924,-2.6773135662078857,-2.193859338760376,-1.6043765544891357,-4.468076705932617,-0.3605691194534302,-1.4557582139968872,-2.8350625038146973,1.2556920051574707,0.9180452823638916,4.771856307983398,0.6634925603866577,5.398216247558594,3.833977460861206,6.5628156661987305,5.039969444274902,2.3754615783691406,4.18345308303833,4.615808963775635,-0.41888871788978577,-4.707815647125244,-4.385828495025635,-3.6542158126831055,-5.2933454513549805,-5.9486775398254395,-3.324805974960327,-4.945313930511475,-0.8702267408370972,-5.337711811065674,-0.5777173638343811,4.738908290863037,1.8109605312347412,3.0243515968322754,1.7153282165527344,3.0327980518341064,5.693112850189209,5.422222137451172
25,2.7449488639831543,-5.945841312408447,-6.3697428703308105,-2.644244909286499,-2.705993175506592,-2.1751532554626465,-1.626145362854004,-4.491517543792725,-0.3310573697090149,-1.478143572807312,-2.8205857276916504,1.2659449577331543,0.9325221180915833,4.749471187591553,0.693004310131073,5.374775409698486,3.8701021671295166,6.568634986877441,5.039060592651367,2.363696575164795,4.197327136993408,4.5785651206970215,-0.40742018818855286,-4.745059490203857,-4.371954441070557,-3.6614937782287598,-5.3021721839904785,-5.942081451416016,-3.2886812686920166,-4.973209857940674,-0.8590261340141296,-5.34840202331543,-0.5808305144309998,4.709580898284912,1.789191722869873,3.0304207801818848,1.6807054281234741,3.0337069034576416,5.661983966827393,5.425893306732178
26,2.74222469329834,-5.918692588806152,-6.360138893127441,-2.659956693649292,-2.7176566123962402,-2.1549015045166016,-1.6027085781097412,-4.464400291442871,-0.3488335609436035,-1.4638302326202393,-2.7921321392059326,1.3017102479934692,0.960975706577301,4.763784408569336,0.6752281188964844,5.40189266204834,3.8536369800567627,6.560538291931152,5.016129970550537,2.335643768310547,4.163930892944336,4.601844787597656,-0.4064241349697113,-4.721779823303223,-4.405350685119629,-3.6833577156066895,-5.327773094177246,-5.948376655578613,-3.3051464557647705,-4.952807426452637,-0.8846093416213989,-5.344863414764404,-0.5509723424911499,4.722436428070068,1.8126285076141357,3.011815071105957,1.7012730836868286,3.0212738513946533,5.671587944030762,5.453042030334473
27,2.722292423248291,-5.917171001434326,-6.3925652503967285,-2.6500988006591797,-2.746297836303711,-2.1348791122436523,-1.6279247999191284,-4.494346618652344,-0.31690916419029236,-1.4890036582946777,-2.7830467224121094,1.2999235391616821,0.9700611233711243,4.738611221313477,0.7071524858474731,5.371946334838867,3.893991231918335,6.568919658660889,5.020328521728516,2.3268911838531494,4.184604167938232,4.557395935058594,-0.392255574464798,-4.766228675842285,-4.384677410125732,-3.6858174800872803,-5.333803176879883,-5.938691139221191,-3.2647922039031982,-4.987566947937012,-0.8664212822914124,-5.355929851531982,-0.5554385185241699,4.691092014312744,1.7874122858047485,3.015866994857788,1.6591408252716064,3.0246047973632812,5.639161586761475,5.454563617706299
28,2.721501588821411,-5.886529445648193,-6.376458644866943,-2.6688172817230225,-2.7538375854492188,-2.1154661178588867,-1.5997257232666016,-4.461742877960205,-0.34662342071533203,-1.4687970876693726,-2.756906270980835,1.3297700881958008,0.996201753616333,4.758817672729492,0.6774382591247559,5.404550075531006,3.8718535900115967,6.561331272125244,4.99552583694458,2.2979319095611572,4.146908283233643,4.5868449211120605,-0.3928043246269226,-4.736779689788818,-4.422373294830322,-3.707005023956299,-5.360796928405762,-5.94304084777832,-3.2869298458099365,-4.962202548980713,-0.8961786031723022,-5.354465961456299,-0.5218520164489746,4.709708213806152,1.8156113624572754,2.9927947521209717,1.6885584592819214,3.0118460655212402,5.65526819229126,5.485205173492432
29,2.7008111476898193,-5.8888092041015625,-6.409353733062744,-2.6578705310821533,-2.7817392349243164,-2.0949459075927734,-1.6272811889648438,-4.496841907501221,-0.3120887875556946,-1.497812032699585,-2.75307297706604,1.316138744354248,1.0000349283218384,4.72980260848999,0.7119728922843933,5.36945104598999,3.9148576259613037,6.570813179016113,5.003739356994629,2.2932727336883545,4.173298358917236,4.537392616271973,-0.3756730258464813,-4.786231994628906,-4.3959832191467285,-3.7036914825439453,-5.364954471588135,-5.931416034698486,-3.2439258098602295,-5.002181053161621,-0.8703147172927856,-5.363996982574463,-0.5287807583808899,4.677323818206787,1.7880558967590332,2.995680093765259,1.6409614086151123,3.018606185913086,5.622373104095459,5.4829254150390625
30,2.7025721073150635,-5.856886386871338,-6.3887248039245605,-2.6774728298187256,-2.785189390182495,-2.07649564743042,-1.5964529514312744,-4.461095333099365,-0.3496836721897125,-1.474178671836853,-2.7296602725982666,1.3396543264389038,1.0234476327896118,4.7534356117248535,0.6743780374526978,5.405197620391846,3.8894855976104736,6.564011096954346,4.9773125648498535,2.2650341987609863,4.133406639099121,4.570075511932373,-0.37753644585609436,-4.753549098968506,-4.435874938964844,-3.722832441329956,-5.393013954162598,-5.933423042297363,-3.2692978382110596,-4.973828315734863,-0.9025030732154846,-5.364648818969727,-0.49435901641845703,4.699703693389893,1.8188841342926025,2.97133469581604,1.6765046119689941,3.0060818195343018,5.643002033233643,5.514848232269287
31,2.6827232837677,-5.862602233886719,-6.419802665710449,-2.6663200855255127,-2.810413360595703,-2.0573010444641113,-1.6234760284423828,-4.497162342071533,-0.3151022493839264,-1.504634141921997,-2.729581594467163,1.3176524639129639,1.0235263109207153,4.722980499267578,0.7089594602584839,5.369130611419678,3.931661605834961,6.572467803955078,4.987517833709717,2.2640950679779053,4.161492824554443,4.520318508148193,-0.3586253523826599,-4.8033061027526855,-4.4077887535095215,-3.7143216133117676,-5.396730899810791,-5.921860694885254,-3.2271218299865723,-5.014958381652832,-0.8724848628044128,-5.37111234664917,-0.503160834312439,4.668808937072754,1.7918610572814941,2.9720776081085205,1.6290371417999268,3.015226125717163,5.611924171447754,5.509132385253906
32,2.686378002166748,-5.832440376281738,-6.398163795471191,-2.6846654415130615,-2.8102893829345703,-2.038813591003418,-1.593255639076233,-4.462597370147705,-0.35423529148101807,-1.4812060594558716,-2.709641218185425,1.3345749378204346,1.0434666872024536,4.746408939361572,0.6698263883590698,5.403695583343506,3.906827211380005,6.567157745361328,4.961490631103516,2.2386462688446045,4.123226642608643,4.55136775970459,-0.3611721098423004,-4.772256851196289,-4.446054935455322,-3.7295010089874268,-5.42439079284668,-5.921118259429932,-3.2519562244415283,-4.987890243530273,-0.9038695096969604,-5.3737640380859375,-0.47162944078445435,4.691568374633789,1.822081446647644,2.9503421783447266,1.6653623580932617,3.003504991531372,5.633563041687012,5.539294242858887
33,2.6687471866607666,-5.840002059936523,-6.425148963928223,-2.674722909927368,-2.830501079559326,-2.02317214012146,-1.6170850992202759,-4.495305061340332,-0.32281628251075745,-1.5096004009246826,-2.7115917205810547,1.3087223768234253,1.0415163040161133,4.718014240264893,0.7012454271316528,5.370987892150879,3.945054054260254,6.573324680328369,4.971714973449707,2.240323781967163,4.14865255355835,4.505656719207764,-0.34244585037231445,-4.817967891693115,-4.420629024505615,-3.7171709537506104,-5.428894519805908,-5.910913944244385,-3.2137293815612793,-5.026225566864014,-0.8740578293800354,-5.37705659866333,-0.48124873638153076,4.664640426635742,1.798251986503601,2.947371482849121,1.623582363128662,3.01306414604187,5.6065778732299805,5.53173303604126
34,2.673093318939209,-5.813892364501953,-6.404940605163574,-2.6906025409698486,-2.8271191120147705,-2.003389835357666,-1.5895527601242065,-4.464904308319092,-0.35896262526512146,-1.4888794422149658,-2.6955196857452393,1.3197146654129028,1.0575882196426392,4.738735675811768,0.6650990843772888,5.401388645172119,3.9231560230255127,6.569717884063721,4.948158264160156,2.219059467315674,4.114590167999268,4.532038688659668,-0.3452018201351166,-4.791585922241211,-4.454691410064697,-3.727123498916626,-5.4548234939575195,-5.907556533813477,-3.2356274127960205,-5.003655910491943,-0.9018709063529968,-5.381166458129883,-0.45531073212623596,4.6855363845825195,1.8257843255996704,2.9309866428375244,1.6569393873214722,3.0026354789733887,5.626786231994629,5.55784273147583
35,2.6579484939575195,-5.822154521942139,-6.427089214324951,-2.6825568675994873,-2.841212749481201,-1.9924851655960083,-1.6094770431518555,-4.49238920211792,-0.3319734036922455,-1.5132235288619995,-2.6984810829162598,1.2932223081588745,1.0546268224716187,4.714391231536865,0.6920883059501648,5.373903751373291,3.956566572189331,6.573763370513916,4.957637786865234,2.2225446701049805,4.135311126708984,4.4920878410339355,-0.328264057636261,-4.831536769866943,-4.4339704513549805,-3.712078809738159,-5.460565567016602,-5.898679256439209,-3.202216863632202,-5.037741661071777,-0.8744696378707886,-5.38240385055542,-0.465501606464386,4.663381576538086,1.8058600425720215,2.9238440990448,1.6231633424758911,3.0111606121063232,5.604637622833252,5.5495805740356445
36,2.6619982719421387,-5.80075216293335,-6.4087371826171875,-2.6960983276367188,-2.8346312046051025,-1.9706867933273315,-1.584879994392395,-4.46660041809082,-0.3637068569660187,-1.4955209493637085,-2.6859261989593506,1.2999809980392456,1.0671817064285278,4.732093811035156,0.6603548526763916,5.399692535400391,3.937885046005249,6.571271896362305,4.937382698059082,2.2056171894073486,4.105714797973633,4.513514041900635,-0.3312918543815613,-4.810110569000244,-4.463566780090332,-3.716794729232788,-5.484437942504883,-5.893466472625732,-3.220898389816284,-5.020443439483643,-0.897835910320282,-5.387268543243408,-0.4458306133747101,4.682134628295898,1.830457091331482,2.9136390686035156,1.652759313583374,3.001859188079834,5.622989654541016,5.570982933044434
37,2.648578643798828,-5.809384822845459,-6.426666736602783,-2.689903974533081,-2.842850685119629,-1.9644919633865356,-1.6017807722091675,-4.489224433898926,-0.34049922227859497,-1.5156102180480957,-2.689548969268799,1.2742630243301392,1.0635586977005005,4.712004661560059,0.6835625171661377,5.377068519592285,3.9674949645996094,6.574097633361816,4.9464430809021,2.210660696029663,4.121887683868408,4.478756427764893,-0.31697675585746765,-4.844868183135986,-4.447393894195557,-3.699434518814087,-5.491273880004883,-5.885128498077393,-3.191288471221924,-5.050930023193359,-0.8728101849555969,-5.3874125480651855,-0.457046240568161,4.66411018371582,1.8135563135147095,2.902920722961426,1.6264971494674683,3.008732795715332,5.60506010055542,5.562350273132324
38,2.651747465133667,-5.792099952697754,-6.409383773803711,-2.7019903659820557,-2.8329520225524902,-1.9404453039169312,-1.5792769193649292,-4.466984748840332,-0.36829450726509094,-1.4999799728393555,-2.6796791553497314,1.2787611484527588,1.0734282732009888,4.727634906768799,0.6557672023773193,5.399308204650879,3.9511375427246094,6.57181978225708,4.929192066192627,2.19744610786438,4.095669269561768,4.496301651000977,-0.3207201659679413,-4.827322959899902,-4.473612308502197,-3.699554443359375,-5.513548374176025,-5.878909111022949,-3.207645893096924,-5.03807258605957,-0.8921993970870972,-5.392406940460205,-0.44285890460014343,4.681581020355225,1.8360601663589478,2.898505210876465,1.6533098220825195,2.999821662902832,5.622343063354492,5.579635143280029
39,2.638868808746338,-5.801156520843506,-6.424242973327637,-2.697266101837158,-2.8360750675201416,-1.9385771751403809,-1.5946062803268433,-4.4860639572143555,-0.3473505675792694,-1.5165903568267822,-2.683908224105835,1.2540181875228882,1.0691992044448853,4.711024284362793,0.6767111420631409,5.3802289962768555,3.9787416458129883,6.574370384216309,4.938534736633301,2.2040863037109375,4.108449459075928,4.46504020690918,-0.3092872202396393,-4.858584403991699,-4.460832118988037,-3.6797103881835938,-5.521171569824219,-5.870149612426758,-3.180041790008545,-5.066386699676514,-0.8683565258979797,-5.391763210296631,-0.4557093679904938,4.666489601135254,1.8207308053970337,2.8849117755889893,1.6329303979873657,3.004965305328369,5.607483863830566,5.570578575134277
40,2.6409075260162354,-5.786778450012207,-6.4068098068237305,-2.7088944911956787,-2.8225631713867188,-1.9119981527328491,-1.572924256324768,-4.465841293334961,-0.3724316358566284,-1.5017977952957153,-2.6757326126098633,1.2580112218856812,1.0773746967315674,4.72581672668457,0.6516301035881042,5.40045166015625,3.963444709777832,6.571474075317383,4.923337936401367,2.193657159805298,4.084141254425049,4.480040550231934,-0.3143416941165924,-4.843584060668945,-4.485140323638916,-3.6759262084960938,-5.542635440826416,-5.863459587097168,-3.195338726043701,-5.056487560272217,-0.884754478931427,-5.396510124206543,-0.4455917477607727,4.683922290802002,1.8424129486083984,2.8857321739196777,1.6585255861282349,2.995572328567505,5.624917030334473,5.584956645965576
41,2.627357244491577,-5.7964019775390625,-6.419851779937744,-2.705137014389038,-2.8213884830474854,-1.9144126176834106,-1.5882253646850586,-4.482920169830322,-0.3519907593727112,-1.516114592552185,-2.6806046962738037,1.2337366342544556,1.0725024938583374,4.71150016784668,0.6720709800720215,5.383372783660889,3.9910643100738525,6.5745849609375,4.933662414550781,2.2019879817962646,4.094967842102051,4.450173854827881,-0.30575934052467346,-4.873450756072998,-4.474313735961914,-3.653062343597412,-5.550782203674316,-5.85325288772583,-3.1677191257476807,-5.084110736846924,-0.8604457378387451,-5.3949198722839355,-0.46058547496795654,4.6704535484313965,1.827111840248108,2.8694746494293213,1.642208218574524,2.999190092086792,5.611875057220459,5.575333118438721
42,2.6283328533172607,-5.783461093902588,-6.400877475738525,-2.717190742492676,-2.803778886795044,-1.884511113166809,-1.5658462047576904,-4.463118076324463,-0.37586134672164917,-1.5009726285934448,-2.6730892658233643,1.2387644052505493,1.0800179243087769,4.72664213180542,0.6482003927230835,5.403174877166748,3.97538685798645,6.570254325866699,4.919177055358887,2.193270444869995,4.071095943450928,4.463951587677002,-0.3127472698688507,-4.859673023223877,-4.498185634613037,-3.6459290981292725,-5.572305679321289,-5.846343040466309,-3.183396577835083,-5.075423240661621,-0.8750492334365845,-5.399317741394043,-0.452847957611084,4.689239978790283,1.849491000175476,2.8754961490631104,1.6682417392730713,2.9885196685791016,5.630849361419678,5.588274002075195
43,2.6129937171936035,-5.7938642501831055,-6.413474082946777,-2.7137999534606934,-2.799083948135376,-1.8918620347976685,-1.5827921628952026,-4.47982931137085,-0.35402143001556396,-1.5144158601760864,-2.678731679916382,1.2139331102371216,1.0743753910064697,4.713198661804199,0.6700403094291687,5.386463642120361,4.005251884460449,6.574789047241211,4.931216716766357,2.203362226486206,4.081534385681152,4.433238506317139,-0.3068559467792511,-4.89038610458374,-4.4877471923828125,-3.619249105453491,-5.580715656280518,-5.833481788635254,-3.153531551361084,-5.103795051574707,-0.8484032154083252,-5.396331310272217,-0.47043442726135254,4.675955295562744,1.8325450420379639,2.856065034866333,1.6541882753372192,2.991013765335083,5.618252754211426,5.577870845794678
44,2.613408327102661,-5.780758380889893,-6.391321182250977,-2.7270824909210205,-2.776730537414551,-1.857055425643921,-1.5578157901763916,-4.458766937255859,-0.3784302771091461,-1.4977256059646606,-2.670776128768921,1.221591830253601,1.0823308229446411,4.729888916015625,0.6456314325332642,5.407526016235352,3.9873733520507812,6.567901611328125,4.915730953216553,2.1950912475585938,4.056600570678711,4.4473066329956055,-0.3163713812828064,-4.876317977905273,-4.512681007385254,-3.6092731952667236,-5.603161811828613,-5.8266072273254395,-3.171410083770752,-5.094289302825928,-0.862729549407959,-5.400553226470947,-0.4630987346172333,4.697718620300293,1.857521414756775,2.8681185245513916,1.6823240518569946,2.9783499240875244,5.640405654907227,5.590976715087891
45,2.5952394008636475,-5.792370796203613,-6.4052205085754395,-2.7232742309570312,-2.7695441246032715,-1.8709018230438232,-1.578486442565918,-4.4770026206970215,-0.3529697060585022,-1.5120357275009155,-2.677541494369507,1.1946219205856323,1.0755654573440552,4.715579032897949,0.6710920333862305,5.3892903327941895,4.022128582000732,6.575023174285889,4.930532932281494,2.2069497108459473,4.0685014724731445,4.413388252258301,-0.3129340708255768,-4.910236358642578,-4.50078010559082,-3.5778181552886963,-5.611411094665527,-5.809524059295654,-3.136655330657959,-5.125016212463379,-0.8316407799720764,-5.3954339027404785,-0.48388949036598206,4.682778835296631,1.8368507623672485,2.844158887863159,1.6685839891433716,2.9803884029388428,5.626506328582764,5.57936429977417
46,2.596273899078369,-5.777373313903809,-6.377799987792969,-2.738615036010742,-2.7417423725128174,-1.828734040260315,-1.5483700037002563,-4.4527177810668945,-0.3800651729106903,-1.4923629760742188,-2.667894124984741,1.2069272994995117,1.0852130651474,4.7352519035339355,0.6439965963363647,5.413575172424316,3.999476194381714,6.5636701583862305,4.911839008331299,2.197521209716797,4.040813446044922,4.4298577308654785,-0.32547757029533386,-4.8937668800354,-4.528468132019043,-3.56571888923645,-5.6356120109558105,-5.803391933441162,-3.1593077182769775,-5.11215877532959,-0.8478366732597351,-5.400059700012207,-0.47449353337287903,4.709591865539551,1.8669672012329102,2.864055633544922,1.7005373239517212,2.9650487899780273,5.653926849365234,5.594361782073975
47,2.5742037296295166,-5.791065216064453,-6.395486831665039,-2.7332839965820312,-2.7338576316833496,-1.8515026569366455,-1.5754966735839844,-4.474889278411865,-0.34827330708503723,-1.5097874402999878,-2.676576852798462,1.1755505800247192,1.0765302181243896,4.717827796936035,0.6757884621620178,5.391403675079346,4.042283535003662,6.575237274169922,4.931158542633057,2.2109973430633545,4.0565667152404785,4.39026403427124,-0.3241715729236603,-4.933360576629639,-4.512714862823486,-3.528595447540283,-5.642910480499268,-5.779989719390869,-3.1165006160736084,-5.147305965423584,-0.8099575638771057,-5.3917412757873535,-0.49958154559135437,4.690402030944824,1.8398405313491821,2.8333659172058105,1.6847128868103027,2.967755079269409,5.636240005493164,5.58066987991333
48,2.5779659748077393,-5.772359848022461,-6.360192775726318,-2.751575231552124,-2.700089693069458,-1.7992677688598633,-1.5370368957519531,-4.445021152496338,-0.38062721490859985,-1.4852691888809204,-2.6637580394744873,1.1951169967651367,1.0893491506576538,4.742345809936523,0.6434345245361328,5.421271800994873,4.011430263519287,6.556199073791504,4.9064435958862305,2.1983981132507324,4.024136066436768,4.412107467651367,-0.33995410799980164,-4.911517143249512,-4.545145511627197,-3.515629768371582,-5.669652462005615,-5.776364803314209,-3.147353410720825,-5.1279144287109375,-0.8309746980667114,-5.398110866546631,-0.48501816391944885,4.7248735427856445,1.8783003091812134,2.863400936126709,1.7221488952636719,2.949124336242676,5.671534061431885,5.599375247955322
49,2.550764322280884,-5.789551734924316,-6.384885787963867,-2.7432594299316406,-2.6946117877960205,-1.8331043720245361,-1.5735421180725098,-4.4739813804626465,-0.33975309133529663,-1.508495807647705,-2.6757075786590576,1.1565979719161987,1.077399492263794,4.719119071960449,0.6843085885047913,5.3923115730285645,4.06521463394165,6.5751261711120605,4.9328999519348145,2.2129876613616943,4.046619415283203,4.364717483520508,-0.34037789702415466,-4.958907127380371,-4.522662162780762,-3.472540855407715,-5.67476749420166,-5.744077682495117,-3.093569040298462,-5.169943809509277,-0.7842092514038086,-5.385255336761475,-0.5161727666854858,4.6981201171875,1.8417950868606567,2.8237719535827637,1.7013992071151733,2.95426082611084,5.646841049194336,5.582183361053467
50,2.5600576400756836,-5.765618324279785,-6.339422225952148,-2.765179395675659,-2.655008554458618,-1.7703126668930054,-1.5241860151290894,-4.436396598815918,-0.37943294644355774,-1.4772248268127441,-2.658226728439331,1.1858223676681519,1.0948803424835205,4.75039005279541,0.6446287631988525,5.429896354675293,4.023322105407715,6.543994903564453,4.8993048667907715,2.1952567100524902,4.007706642150879,4.394964694976807,-0.35885006189346313,-4.928659915924072,-4.561574935913086,-3.4604556560516357,-5.704652786254883,-5.746115207672119,-3.1354615688323975,-5.140924453735352,-0.8129163384437561,-5.39555549621582,-0.4931893050670624,4.742575645446777,1.8911511898040771,2.864499092102051,1.7452361583709717,2.932068109512329,5.692304611206055,5.606116771697998
51,2.5266857147216797,-5.787657260894775,-6.3734259605407715,-2.7525808811187744,-2.6558661460876465,-1.8138501644134521,-1.570741057395935,-4.473958492279053,-0.3288218080997467,-1.5081889629364014,-2.674797773361206,1.1386616230010986,1.0783092975616455,4.719426155090332,0.6952399015426636,5.392334461212158,4.087996006011963,6.573427677154541,4.9351701736450195,2.20975399017334,4.038917541503906,4.339724540710449,-0.3606398403644562,-4.98390007019043,-4.530364036560059,-3.4125816822052,-5.7062883377075195,-5.7029829025268555,-3.0707876682281494,-5.191172122955322,-0.7572497725486755,-5.376802921295166,-0.5320196747779846,4.705981254577637,1.8445961475372314,2.816474437713623,1.7175564765930176,2.9416708946228027,5.658300876617432,5.584077835083008
52,2.5433366298675537,-5.758436679840088,-6.318518161773682,-2.777780294418335,-2.611809015274048,-1.7456927299499512,-1.5119985342025757,-4.429074287414551,-0.3747045695781708,-1.4701826572418213,-2.652313470840454,1.177001714706421,1.1007936000823975,4.757432460784912,0.6493571400642395,5.43721866607666,4.036640167236328,6.5273213386535645,4.892250061035156,2.186466693878174,3.9940762519836426,4.378410339355469,-0.37999123334884644,-4.94521427154541,-4.575205326080322,-3.4023091793060303,-5.73897123336792,-5.713655948638916,-3.122143268585205,-5.152286052703857,-0.7934420108795166,-5.39208459854126,-0.4994269907474518,4.759718418121338,1.9033386707305908,2.863262414932251,1.7662698030471802,2.9165124893188477,5.7132086753845215,5.613298416137695
53,2.504673957824707,-5.78472900390625,-6.359704971313477,-2.7611312866210938,-2.6205832958221436,-1.7924381494522095,-1.5638922452926636,-4.473036289215088,-0.3185437023639679,-1.5075411796569824,-2.6734323501586914,1.1240794658660889,1.0796747207641602,4.720073699951172,0.7055180072784424,5.393256664276123,4.106256484985352,6.566722393035889,4.936260223388672,2.198861837387085,4.032261848449707,4.319460391998291,-0.38293004035949707,-5.004164218902588,-4.537019729614258,-3.352783441543579,-5.736445426940918,-5.661251544952393,-3.05252742767334,-5.207831382751465,-0.7331466674804688,-5.366888046264648,-0.5446460247039795,4.715648174285889,1.851444959640503,2.812084913253784,1.733225703239441,2.9312288761138916,5.672021865844727,5.587006092071533
54,2.5269882678985596,-5.752849102020264,-6.301051139831543,-2.7877581119537354,-2.5750138759613037,-1.727734923362732,-1.5023466348648071,-4.4257025718688965,-0.3650330901145935,-1.4667764902114868,-2.6482059955596924,1.1663779020309448,1.1049010753631592,4.760838508605957,0.6590286493301392,5.4405903816223145,4.052441120147705,6.509110450744629,4.8886237144470215,2.172231435775757,3.9860236644744873,4.361530780792236,-0.4009067714214325,-4.962093830108643,-4.583258152008057,-3.3428759574890137,-5.769360542297363,-5.679306983947754,-3.1063427925109863,-5.163947105407715,-0.7716250419616699,-5.384152889251709,-0.5057917237281799,4.772948741912842,1.9129905700683594,2.8569633960723877,1.781911015510559,2.904587984085083,5.73067569732666,5.6188859939575195
55,2.486860513687134,-5.780192852020264,-6.343122959136963,-2.7691092491149902,-2.588453531265259,-1.7715257406234741,-1.552229642868042,-4.470191955566406,-0.310145765542984,-1.5056685209274292,-2.671912670135498,1.1142884492874146,1.0811944007873535,4.7219462394714355,0.7139159440994263,5.396100997924805,4.118804454803467,6.551873207092285,4.935366153717041,2.1808111667633057,4.025781154632568,4.305268287658691,-0.4046073257923126,-5.0183563232421875,-4.5435004234313965,-3.29549241065979,-5.762523174285889,-5.624088764190674,-3.0399794578552246,-5.218022346496582,-0.7132226228713989,-5.355264186859131,-0.5523288249969482,4.728017807006836,1.8631075620651245,2.808196783065796,1.7485378980636597,2.922617197036743,5.68860387802124,5.5915422439575195
56,2.51037335395813,-5.749688148498535,-6.287360191345215,-2.79494047164917,-2.545182466506958,-1.7151319980621338,-1.4940422773361206,-4.426098346710205,-0.3517307937145233,-1.4672596454620361,-2.647289276123047,1.154841423034668,1.1058179140090942,4.760354995727539,0.672330915927887,5.440194606781006,4.068877220153809,6.491110801696777,4.889446258544922,2.153571128845215,3.9833879470825195,4.345035076141357,-0.4203442931175232,-4.9785895347595215,-4.585893154144287,-3.2841179370880127,-5.792022705078125,-5.644045352935791,-3.0899064540863037,-5.175193786621094,-0.7481188774108887,-5.370742321014404,-0.5129488706588745,4.782270431518555,1.921294927597046,2.8472607135772705,1.7920230627059937,2.8961684703826904,5.744366645812988,5.622046947479248
57,2.4723894596099854,-5.77512788772583,-6.325571537017822,-2.7761282920837402,-2.559293746948242,-1.7541735172271729,-1.537953495979309,-4.466730117797852,-0.30229052901268005,-1.5032261610031128,-2.671128511428833,1.1083601713180542,1.081978678703308,4.724388599395752,0.7217711806297302,5.399562835693359,4.127829074859619,6.530722618103027,4.933897018432617,2.1581201553344727,4.020480155944824,4.295468330383301,-0.42410099506378174,-5.028156280517578,-4.548800945281982,-3.241309642791748,-5.781252384185791,-5.592319488525391,-3.030954360961914,-5.2228522300720215,-0.6955211162567139,-5.343426704406738,-0.5562711358070374,4.741405487060547,1.8773837089538574,2.802788019180298,1.7620415687561035,2.9153687953948975,5.706155300140381,5.596607208251953
58,2.49368953704834,-5.748565673828125,-6.275717258453369,-2.7998456954956055,-2.5211875438690186,-1.7059345245361328,-1.4854565858840942,-4.428178310394287,-0.33736148476600647,-1.4692786931991577,-2.648676633834839,1.1447471380233765,1.1044307947158813,4.758336067199707,0.6867002248764038,5.438114643096924,4.083987236022949,6.472750186920166,4.89282751083374,2.1313376426696777,3.983985185623169,4.3308186531066895,-0.4377436339855194,-4.9928059577941895,-4.585295677185059,-3.228670835494995,-5.805556297302246,-5.610162258148193,-3.074796199798584,-5.183742046356201,-0.7246869206428528,-5.356080532073975,-0.5201000571250916,4.789705276489258,1.9298806190490723,2.8364572525024414,1.7982920408248901,2.8904693126678467,5.756009578704834,5.623169422149658
59,2.4589273929595947,-5.7712883949279785,-6.308991432189941,-2.7815518379211426,-2.534741163253784,-1.740807056427002,-1.523184895515442,-4.463990688323975,-0.29425424337387085,-1.5005439519882202,-2.670889377593994,1.1049002408981323,1.082218050956726,4.7270708084106445,0.7298074960708618,5.402302265167236,4.13552713394165,6.507040500640869,4.932825565338135,2.1326920986175537,4.017330169677734,4.2886857986450195,-0.4408814311027527,-5.034938812255859,-4.551950454711914,-3.191086530685425,-5.79191780090332,-5.564342498779297,-3.023256301879883,-5.223994731903076,-0.6784873008728027,-5.333308219909668,-0.5587708353996277,4.75402307510376,1.892152190208435,2.795931100845337,1.7721807956695557,2.909849166870117,5.722735404968262,5.600446701049805
60,2.4769580364227295,-5.749176502227783,-6.265069961547852,-2.8029565811157227,-2.5026581287384033,-1.6990172863006592,-1.476300597190857,-4.430655002593994,-0.32377007603645325,-1.4705837965011597,-2.6504476070404053,1.1371965408325195,1.1026597023010254,4.757030487060547,0.7002916932106018,5.435637950897217,4.097546577453613,6.453554630279541,4.896629810333252,2.106393814086914,3.9863152503967285,4.319885730743408,-0.4525566101074219,-5.003738880157471,-4.58296537399292,-3.1782891750335693,-5.811300754547119,-5.5792975425720215,-3.061237096786499,-5.188573837280273,-0.7026419639587402,-5.343501091003418,-0.5268378257751465,4.796452522277832,1.93903648853302,2.8254051208496094,1.801709532737732,2.8870372772216797,5.766656875610352,5.62255859375
61,2.445016860961914,-5.769625663757324,-6.294140815734863,-2.7852859497070312,-2.5159225463867188,-1.73076331615448,-1.5090663433074951,-4.462383270263672,-0.2864018380641937,-1.4971294403076172,-2.6702215671539307,1.1031464338302612,1.0828858613967896,4.730484962463379,0.7376599311828613,5.403909683227539,4.143287181854248,6.482858657836914,4.931947708129883,2.105466842651367,4.016449928283691,4.284170627593994,-0.4545976221561432,-5.039453983306885,-4.552830696105957,-3.1455812454223633,-5.795932769775391,-5.5392913818359375,-3.0154964923858643,-5.2224345207214355,-0.6620413064956665,-5.3255133628845215,-0.5613024234771729,4.76519250869751,1.9062707424163818,2.7879531383514404,1.7785319089889526,2.9062626361846924,5.73758602142334,5.602109432220459
62,2.4600255489349365,-5.751457691192627,-6.255121231079102,-2.8048839569091797,-2.4892213344573975,-1.6935957670211792,-1.4668495655059814,-4.433163166046143,-0.31188032031059265,-1.4699357748031616,-2.6511263847351074,1.1323038339614868,1.1019810438156128,4.757678508758545,0.7121814489364624,5.433129787445068,4.110224723815918,6.433520317077637,4.899589538574219,2.0794074535369873,3.9897685050964355,4.312053203582764,-0.46439510583877563,-5.011571407318115,-4.579512119293213,-3.133441686630249,-5.811426162719727,-5.551987171173096,-3.0485594272613525,-5.189853668212891,-0.6827267408370972,-5.334024429321289,-0.533329963684082,4.802831649780273,1.9484875202178955,2.8143725395202637,1.8027538061141968,2.8852646350860596,5.776605606079102,5.620277404785156
63,2.4302031993865967,-5.7703351974487305,-6.281092166900635,-2.787811517715454,-2.5026097297668457,-1.7231744527816772,-1.4959864616394043,-4.461878299713135,-0.2792907953262329,-1.4923274517059326,-2.6683502197265625,1.1028239727020264,1.0847570896148682,4.735286712646484,0.7447710037231445,5.404414653778076,4.151956558227539,6.458824157714844,4.930783748626709,2.0768356323242188,4.017575263977051,4.281256675720215,-0.46510350704193115,-5.042367935180664,-4.551705360412598,-3.10492205619812,-5.795139312744141,-5.516894340515137,-3.0068278312683105,-5.2187652587890625,-0.6466613411903381,-5.319815158843994,-0.5645802021026611,4.774844646453857,1.9193506240844727,2.7791178226470947,1.7815086841583252,2.9041717052459717,5.750634670257568,5.601399898529053
64,2.4428372383117676,-5.755368232727051,-6.245815277099609,-2.8063600063323975,-2.4800848960876465,-1.6889911890029907,-1.457285761833191,-4.435677528381348,-0.3019973039627075,-1.466751217842102,-2.6500327587127686,1.1298751831054688,1.1030746698379517,4.760863304138184,0.7220644950866699,5.430615425109863,4.122810363769531,6.412761688232422,4.90119743347168,2.0507166385650635,3.994096517562866,4.306608200073242,-0.47317472100257874,-5.017016410827637,-4.575184345245361,-3.0938165187835693,-5.807765007019043,-5.528141498565674,-3.0359740257263184,-5.1881489753723145,-0.6652498841285706,-5.327600479125977,-0.5399380922317505,4.8088603019714355,1.958051323890686,2.8035504817962646,1.8018752336502075,2.8843038082122803,5.785911560058594,5.616366863250732
65,2.414536237716675,-5.7732977867126465,-6.269684791564941,-2.789825916290283,-2.4939045906066895,-1.7171831130981445,-1.4838522672653198,-4.462338924407959,-0.27326709032058716,-1.4856135845184326,-2.664973258972168,1.1038273572921753,1.0881341695785522,4.742001056671143,0.7507947087287903,5.403954029083252,4.162069797515869,6.435055732727051,4.929047107696533,2.0468690395355225,4.020377159118652,4.279338359832764,-0.4725247919559479,-5.044286251068115,-4.548903465270996,-3.068779945373535,-5.791009426116943,-5.496942520141602,-2.9967148303985596,-5.2134246826171875,-0.632698655128479,-5.315762042999268,-0.5689796805381775,4.783106327056885,1.9314848184585571,2.7697205543518066,1.7817941904067993,2.90280818939209,5.762042045593262,5.598437309265137
66,2.425482988357544,-5.760862827301025,-6.237124919891357,-2.8080854415893555,-2.4743926525115967,-1.6846281290054321,-1.4475443363189697,-4.438233852386475,-0.29409244656562805,-1.460732340812683,-2.647062301635742,1.1296330690383911,1.1060450077056885,4.766882419586182,0.7299693822860718,5.428059101104736,4.135983467102051,6.391362190246582,4.901395797729492,2.020369529724121,3.999154567718506,4.30281925201416,-0.4790695309638977,-5.020805358886719,-4.570126533508301,-3.0588183403015137,-5.801542282104492,-5.507405757904053,-3.022801399230957,-5.184032440185547,-0.6501662135124207,-5.3238749504089355,-0.5470367670059204,4.814517021179199,1.9677927494049072,2.793085813522339,1.7995004653930664,2.8832969665527344,5.794601917266846,5.610872268676758
67,2.398265838623047,-5.77835750579834,-6.259708881378174,-2.7919819355010986,-2.4889378547668457,-1.712036371231079,-1.4722949266433716,-4.4636149406433105,-0.2684735059738159,-1.476567268371582,-2.6601243019104004,1.1060510873794556,1.0929831266403198,4.751047611236572,0.7555882930755615,5.4026780128479,4.1740217208862305,6.411482334136963,4.926671504974365,2.0154013633728027,4.024562835693359,4.2779622077941895,-0.47717204689979553,-5.0456624031066895,-4.544718265533447,-3.0366790294647217,-5.7844977378845215,-5.4791693687438965,-2.9847631454467773,-5.206736087799072,-0.6202138662338257,-5.31291389465332,-0.5747568607330322,4.790152549743652,1.9430421590805054,2.760028839111328,1.7799922227859497,2.901423215866089,5.772017955780029,5.593377590179443
68,2.408146381378174,-5.767942905426025,-6.229017734527588,-2.810633420944214,-2.471545457839966,-1.6800343990325928,-1.437362790107727,-4.440854549407959,-0.2880103588104248,-1.45163893699646,-2.6424038410186768,1.1312777996063232,1.110703706741333,4.775976181030273,0.7360514402389526,5.425438404083252,4.150340557098389,6.36932897567749,4.900341033935547,1.9881614446640015,4.004836559295654,4.300137042999268,-0.4823978841304779,-5.023487567901611,-4.564444541931152,-3.0278542041778564,-5.793451309204102,-5.489349365234375,-3.00844407081604,-5.177943706512451,-0.6371922492980957,-5.322494983673096,-0.554977536201477,4.819801330566406,1.97797429561615,2.783043622970581,1.7959365844726562,2.8815488815307617,5.802709102630615,5.603792190551758
69,2.381706953048706,-5.7854390144348145,-6.250972270965576,-2.794800043106079,-2.487185001373291,-1.707093596458435,-1.4608041048049927,-4.465566635131836,-0.2649690508842468,-1.464765191078186,-2.65399169921875,1.109369158744812,1.0991160869598389,4.762849807739258,0.7590927481651306,5.400726318359375,4.188191890716553,6.387929916381836,4.923699855804443,1.9820396900177002,4.029899597167969,4.276843070983887,-0.47943171858787537,-5.046781539916992,-4.539381504058838,-3.0081892013549805,-5.7761359214782715,-5.463278770446777,-2.970592498779297,-5.19888973236084,-0.6090439558029175,-5.310883522033691,-0.5821340084075928,4.796157360076904,1.9545329809188843,2.75022554397583,1.7764995098114014,2.8994357585906982,5.780754566192627,5.586296081542969
70,2.3910458087921143,-5.77670431137085,-6.221467971801758,-2.8144426345825195,-2.4713058471679688,-1.674803376197815,-1.4263616800308228,-4.443544387817383,-0.2835952639579773,-1.4391579627990723,-2.636354684829712,1.1345462799072266,1.1167529821395874,4.78845739364624,0.7404665946960449,5.422748565673828,4.1664862632751465,6.3465752601623535,4.898237705230713,1.953649878501892,4.011072158813477,4.2982001304626465,-0.48351508378982544,-5.025424480438232,-4.55820894241333,-3.0004539489746094,-5.783811569213867,-5.473565101623535,-2.992298126220703,-5.1701483726501465,-0.625911295413971,-5.323209285736084,-0.56409752368927,4.824722766876221,1.9889755249023438,2.7733914852142334,1.7913293838500977,2.87856388092041,5.810258865356445,5.595030784606934
71,2.365170478820801,-5.7946014404296875,-6.2433271408081055,-2.7986879348754883,-2.4885146617889404,-1.7017639875411987,-1.4488011598587036,-4.468070983886719,-0.2628384530544281,-1.4497015476226807,-2.646800994873047,1.1136996746063232,1.1063066720962524,4.777913570404053,0.7612234354019165,5.398221969604492,4.205026626586914,6.364132404327393,4.920166492462158,1.9461581707000732,4.0362229347229,4.275823593139648,-0.4796842634677887,-5.0478010177612305,-4.533058166503906,-2.9830105304718018,-5.766173362731934,-5.448989391326904,-2.9537577629089355,-5.189925193786621,-0.5988932251930237,-5.309323787689209,-0.5913276672363281,4.80126428604126,1.966536045074463,2.7404043674468994,1.7714955806732178,2.89644455909729,5.788399696350098,5.577133655548096
72,2.3743813037872314,-5.787375450134277,-6.21448278427124,-2.819855213165283,-2.4737765789031982,-1.66852867603302,-1.4141064882278442,-4.4463043212890625,-0.28076788783073425,-1.4228490591049194,-2.6292357444763184,1.139298439025879,1.123871922492981,4.8047661781311035,0.7432940006256104,5.419988632202148,4.1851019859313965,6.322905540466309,4.895226001739502,1.9161714315414429,4.017839431762695,4.296779632568359,-0.4827302396297455,-5.0268449783325195,-4.551441669464111,-2.976301670074463,-5.772713661193848,-5.459713459014893,-2.9736826419830322,-5.160728454589844,-0.6158303022384644,-5.32588005065918,-0.5747275352478027,4.829277038574219,2.0012307167053223,2.764002561569214,1.7856700420379639,2.8740246295928955,5.817244052886963,5.584359645843506
73,2.3489198684692383,-5.806061267852783,-6.236680507659912,-2.8039841651916504,-2.4931399822235107,-1.6954158544540405,-1.4356824159622192,-4.4710211753845215,-0.26227718591690063,-1.4307738542556763,-2.6387667655944824,1.1191118955612183,1.1143407821655273,4.796841144561768,0.7617847323417664,5.3952717781066895,4.22506856918335,6.339725017547607,4.915995121002197,1.9069101810455322,4.043436527252197,4.274819374084473,-0.4782409071922302,-5.048805236816406,-4.525844573974609,-2.960993766784668,-5.754708290100098,-5.436066150665283,-2.933716058731079,-5.179705619812012,-0.5893843173980713,-5.307913780212402,-0.602543294429779,4.805581092834473,1.9796547889709473,2.7305800914764404,1.7649792432785034,2.892209053039551,5.795046329498291,5.565673828125
74,2.3582839965820312,-5.800334930419922,-6.208120346069336,-2.827141523361206,-2.479336977005005,-1.6607236862182617,-1.4001678228378296,-4.449141979217529,-0.27958154678344727,-1.4021722078323364,-2.6213700771331787,1.1456247568130493,1.1317373514175415,4.825442790985107,0.7444803714752197,5.417150974273682,4.206976890563965,6.29802131652832,4.891292095184326,1.8749008178710938,4.025173187255859,4.295712471008301,-0.480239599943161,-5.027912139892578,-4.544107913970947,-2.955214262008667,-5.760144233703613,-5.447546005249023,-2.9518074989318848,-5.149567604064941,-0.6063780784606934,-5.330427646636963,-0.5871803164482117,4.833425045013428,2.015169382095337,2.7546520233154297,1.778825044631958,2.8677916526794434,5.823606491088867,5.571400165557861
75,2.3331234455108643,-5.820186138153076,-6.230998516082764,-2.8109796047210693,-2.5015311241149902,-1.687277913093567,-1.4208694696426392,-4.474315166473389,-0.2636621296405792,-1.4073772430419922,-2.6300885677337646,1.1259604692459106,1.123018741607666,4.820237636566162,0.7603998184204102,5.391977787017822,4.248934268951416,6.314249038696289,4.9109110832214355,1.8633073568344116,4.051496982574463,4.2737627029418945,-0.4752936363220215,-5.049861907958984,-4.517784118652344,-2.9421069622039795,-5.741795539855957,-5.424340724945068,-2.9098501205444336,-5.1678876876831055,-0.5800488591194153,-5.3063859939575195,-0.6159242391586304,4.809171676635742,1.9944677352905273,2.7206780910491943,1.7568225860595703,2.886671304702759,5.8007283210754395,5.551548957824707
76,2.3427469730377197,-5.816087245941162,-6.202507495880127,-2.8364713191986084,-2.4885475635528564,-1.6507335901260376,-1.384203553199768,-4.4520721435546875,-0.2802785634994507,-1.376638650894165,-2.613102436065674,1.1539783477783203,1.1400047540664673,4.850976467132568,0.7437834143638611,5.414220809936523,4.232961177825928,6.271555423736572,4.886196136474609,1.8290153741836548,4.0331549644470215,4.29483699798584,-0.4760751724243164,-5.028787612915039,-4.536126136779785,-2.9370648860931396,-5.746096134185791,-5.4369096755981445,-2.9258229732513428,-5.136341571807861,-0.596846342086792,-5.336726188659668,-0.6016841530799866,4.837069034576416,2.0311338901519775,2.7449872493743896,1.7705844640731812,2.8599801063537598,5.829219341278076,5.555647850036621
77,2.317782402038574,-5.837419509887695,-6.226306438446045,-2.819875955581665,-2.514263868331909,-1.6763652563095093,-1.4039095640182495,-4.477838516235352,-0.26760417222976685,-1.3791654109954834,-2.620980739593506,1.1350384950637817,1.1321265697479248,4.84844970703125,0.7564577460289001,5.388454437255859,4.277193546295166,6.287198543548584,4.904375076293945,1.8144588470458984,4.060385227203369,4.2725443840026855,-0.47087377309799194,-5.051080226898193,-4.5088958740234375,-2.9263265132904053,-5.7275590896606445,-5.413733959197998,-2.8815906047821045,-5.153897285461426,-0.5702676177024841,-5.30466365814209,-0.6314226388931274,4.812052249908447,2.011427879333496,2.7104623317718506,1.7468557357788086,2.880066394805908,5.805420398712158,5.534315586090088
78,2.3275351524353027,-5.835142612457275,-6.19785213470459,-2.84779953956604,-2.5019829273223877,-1.6376694440841675,-1.3661082983016968,-4.455116271972656,-0.2833408713340759,-1.3461599349975586,-2.6048266887664795,1.1652960777282715,1.1482807397842407,4.881455421447754,0.7407210469245911,5.411176681518555,4.263775825500488,6.243178844451904,4.879417419433594,1.778082251548767,4.041891574859619,4.293929100036621,-0.4700779616832733,-5.029695510864258,-4.5273895263671875,-2.9215950965881348,-5.730700492858887,-5.427746295928955,-2.8950085639953613,-5.1205244064331055,-0.5862971544265747,-5.34443998336792,-0.6182165145874023,4.840038776397705,2.0492289066314697,2.7344541549682617,1.7607433795928955,2.8511457443237305,5.833874702453613,5.536592483520508
79,2.3026366233825684,-5.858059406280518,-6.222671031951904,-2.8306562900543213,-2.5317249298095703,-1.6614855527877808,-1.384672999382019,-4.481441020965576,-0.27492862939834595,-1.346545696258545,-2.6117100715637207,1.1476902961730957,1.141397476196289,4.881069660186768,0.749133288860321,5.384851932525635,4.310096740722656,6.258142948150635,4.89556884765625,1.7600797414779663,4.070052623748779,4.270964622497559,-0.46482759714126587,-5.05265998840332,-4.499228477478027,-2.9133753776550293,-5.712311744689941,-5.404301166534424,-2.8486874103546143,-5.1369500160217285,-0.5591974854469299,-5.3031325340271,-0.6485587358474731,4.814200401306152,2.0306642055511475,2.6993777751922607,1.7350213527679443,2.873112678527832,5.809055805206299,5.513675689697266
80,2.3120675086975098,-5.857728958129883,-6.194439888000488,-2.8606696128845215,-2.519942283630371,-1.6204410791397095,-1.3462462425231934,-4.458300590515137,-0.28946471214294434,-1.3116511106491089,-2.5969722270965576,1.1809906959533691,1.1561353206634521,4.915964126586914,0.7345972061157227,5.407992362976074,4.299611568450928,6.212850570678711,4.8701934814453125,1.722720980644226,4.051464557647705,4.29264497756958,-0.46193572878837585,-5.030979633331299,-4.517816543579102,-2.9080779552459717,-5.714354991912842,-5.4200592041015625,-2.8591723442077637,-5.101482391357422,-0.5734965205192566,-5.352902889251709,-0.6362069845199585,4.842080593109131,2.0690910816192627,2.722180128097534,1.7492313385009766,2.8425049781799316,5.837286949157715,5.5140061378479
81,2.287086009979248,-5.881842613220215,-6.220156192779541,-2.842881917953491,-2.5536305904388428,-1.641435146331787,-1.3636374473571777,-4.4849162101745605,-0.2864474058151245,-1.311299443244934,-2.6025779247283936,1.1657192707061768,1.1505297422409058,4.91631555557251,0.7376145124435425,5.38137674331665,4.347127437591553,6.2269768714904785,4.883541107177734,1.7012526988983154,4.0803375244140625,4.268704414367676,-0.4568382501602173,-5.054920196533203,-4.488943576812744,-2.9023022651672363,-5.6966118812561035,-5.396308898925781,-2.8116567134857178,-5.116182804107666,-0.545788586139679,-5.302859783172607,-0.6661005616188049,4.815577983856201,2.0516998767852783,2.6863412857055664,1.7216084003448486,2.8671436309814453,5.811570644378662,5.489892482757568
82,2.295355796813965,-5.883344650268555,-6.192587375640869,-2.8740503787994385,-2.5420773029327393,-1.5980395078659058,-1.3256663084030151,-4.461669921875,-0.299321711063385,-1.2756558656692505,-2.5898680686950684,1.2026100158691406,1.1632397174835205,4.951959133148193,0.7247402667999268,5.404623031616211,4.339566230773926,6.181187152862549,4.85775899887085,1.6652811765670776,4.061867713928223,4.2905097007751465,-0.45135578513145447,-5.033114910125732,-4.507413387298584,-2.894984483718872,-5.697712421417236,-5.413845539093018,-2.8192176818847656,-5.078690528869629,-0.5570201277732849,-5.3612213134765625,-0.6541823744773865,4.842886447906494,2.0896708965301514,2.7069098949432373,1.7362529039382935,2.8359289169311523,5.839139461517334,5.4883904457092285
83,2.270235538482666,-5.907505035400391,-6.2187418937683105,-2.8555450439453125,-2.5785882472991943,-1.6154717206954956,-1.3420759439468384,-4.4880290031433105,-0.3024093508720398,-1.2767935991287231,-2.593766450881958,1.1908400058746338,1.1593413352966309,4.950821399688721,0.7216525673866272,5.3782639503479,4.386585712432861,6.194235324859619,4.867624282836914,1.64093017578125,4.090903282165527,4.265381336212158,-0.44654786586761475,-5.058243274688721,-4.478377819061279,-2.8911969661712646,-5.681103229522705,-5.390268325805664,-2.77219820022583,-5.090944290161133,-0.5290343761444092,-5.305253028869629,-0.6818784475326538,4.816189289093018,2.073261260986328,2.6697182655334473,1.7074223756790161,2.8638625144958496,5.812984943389893,5.464230060577393
84,2.2761831283569336,-5.910435676574707,-6.192477703094482,-2.886453151702881,-2.5671496391296387,-1.5701096057891846,-1.3059875965118408,-4.4653000831604,-0.31303998827934265,-1.2421913146972656,-2.583470582962036,1.2310916185379028,1.1696373224258423,4.985423564910889,0.7110219597816467,5.4009928703308105,4.381290435791016,6.1496992111206055,4.841825485229492,1.6096423864364624,4.07295560836792,4.287041664123535,-0.43836709856987,-5.036582946777344,-4.496325492858887,-2.8802201747894287,-5.681386470794678,-5.409034252166748,-2.777493476867676,-5.052026748657227,-0.5356938242912292,-5.368589878082275,-0.6696734428405762,4.842236042022705,2.109349489212036,2.6872377395629883,1.7223286628723145,2.833333969116211,5.839249134063721,5.461299419403076
85,2.251176595687866,-5.932838439941406,-6.218225479125977,-2.867206573486328,-2.6042652130126953,-1.5838899612426758,-1.3217853307724,-4.490657806396484,-0.3218977153301239,-1.246963381767273,-2.585109233856201,1.22367525100708,1.1679986715316772,4.980651378631592,0.7021642923355103,5.375635147094727,4.425695896148682,6.1612772941589355,4.8480024337768555,1.583186388015747,4.101325035095215,4.260716438293457,-0.4337860643863678,-5.062908172607422,-4.467956066131592,-2.8777759075164795,-5.666104316711426,-5.38676643371582,-2.7330880165100098,-5.061182975769043,-0.5084161162376404,-5.310885429382324,-0.6931387186050415,4.816153526306152,2.0935518741607666,2.647855043411255,1.6935769319534302,2.864551305770874,5.813501358032227,5.438896656036377
86,2.2536730766296387,-5.936670780181885,-6.193862438201904,-2.8964574337005615,-2.5931782722473145,-1.5374199151992798,-1.2887113094329834,-4.469277858734131,-0.32974773645401,-1.215050458908081,-2.577206611633301,1.266025424003601,1.1759012937545776,5.012564182281494,0.6943142414093018,5.39701509475708,4.421445369720459,6.120431423187256,4.822964668273926,1.55942702293396,4.084441661834717,4.282027244567871,-0.42346763610839844,-5.041597366333008,-4.48483943939209,-2.8623852729797363,-5.665527820587158,-5.4055562019348145,-2.7373383045196533,-5.021919250488281,-0.5092478394508362,-5.374392509460449,-0.6798361539840698,4.840281009674072,2.1266260147094727,2.662297487258911,1.7081600427627563,2.8356239795684814,5.837864398956299,5.435064315795898
87,2.22940993309021,-5.955559253692627,-6.21817684173584,-2.8764889240264893,-2.628326177597046,-1.548181176185608,-1.3042595386505127,-4.492994785308838,-0.34295031428337097,-1.2242684364318848,-2.576115369796753,1.262977123260498,1.176992416381836,5.003345966339111,0.6811116337776184,5.373298168182373,4.46153450012207,6.130041599273682,4.825890064239502,1.5311399698257446,4.111342906951904,4.254737854003906,-0.4187452495098114,-5.068886756896973,-4.457938194274902,-2.8610100746154785,-5.6513671875,-5.386064529418945,-2.6972496509552,-5.027688026428223,-0.48413050174713135,-5.318493366241455,-0.6976110339164734,4.8157572746276855,2.1110777854919434,2.6200530529022217,1.680884838104248,2.869319438934326,5.813549995422363,5.416175842285156
88,2.2279276847839355,-5.959872245788574,-6.195874214172363,-2.9032928943634033,-2.61795711517334,-1.5016095638275146,-1.2744158506393433,-4.473650932312012,-0.347790390253067,-1.1956244707107544,-2.5702600479125977,1.3055751323699951,1.1828478574752808,5.031989574432373,0.6762715578079224,5.392642021179199,4.456953048706055,6.095073699951172,4.80242395401001,1.515944004058838,4.09596061706543,4.275742530822754,-0.40730538964271545,-5.047882080078125,-4.473320484161377,-2.8420684337615967,-5.649825096130371,-5.403493404388428,-2.7018308639526367,-4.989205837249756,-0.4785878658294678,-5.378081321716309,-0.6827426552772522,4.837743759155273,2.1409213542938232,2.632430076599121,1.6944129467010498,2.842177391052246,5.83585262298584,5.411862850189209
89,2.2051634788513184,-5.974320888519287,-6.217998027801514,-2.8825972080230713,-2.649296998977661,-1.5104856491088867,-1.2900136709213257,-4.495561599731445,-0.3636012077331543,-1.2085883617401123,-2.566312551498413,1.3059018850326538,1.1867952346801758,5.019025802612305,0.6604607105255127,5.370731353759766,4.492133617401123,6.102390289306641,4.802961826324463,1.4855290651321411,4.121037006378174,4.247811794281006,-0.4018842577934265,-5.075812816619873,-4.448244094848633,-2.842123508453369,-5.636441230773926,-5.3878173828125,-2.6666502952575684,-4.991892337799072,-0.4568755030632019,-5.325519561767578,-0.6946506500244141,4.8154377937316895,2.125323534011841,2.5870206356048584,1.6694648265838623,2.8772518634796143,5.8137288093566895,5.397414207458496
90,2.200096845626831,-5.978890895843506,-6.19728422164917,-2.907036304473877,-2.639674425125122,-1.4643679857254028,-1.262689471244812,-4.478402614593506,-0.3655647337436676,-1.1826149225234985,-2.5620789527893066,1.347125768661499,1.1910288333892822,5.044999122619629,0.6584972143173218,5.387890338897705,4.4860405921936035,6.074365139007568,4.781473636627197,1.4782638549804688,4.1071648597717285,4.268913269042969,-0.3902439773082733,-5.05471134185791,-4.462116241455078,-2.8214330673217773,-5.634017467498779,-5.402980327606201,-2.672743082046509,-4.954829692840576,-0.44530749320983887,-5.379390716552734,-0.678363025188446,4.835710525512695,2.1526479721069336,2.599093198776245,1.6815807819366455,2.851389169692993,5.834442615509033,5.392844200134277
91,2.179403781890869,-5.98897647857666,-6.217120170593262,-2.8854925632476807,-2.6667134761810303,-1.4727736711502075,-1.2787644863128662,-4.498941421508789,-0.38278958201408386,-1.1982145309448242,-2.555452823638916,1.3491400480270386,1.1976550817489624,5.029399871826172,0.6412723660469055,5.367351531982422,4.516854286193848,6.079447269439697,4.780558109283447,1.4453474283218384,4.1306891441345215,4.240448951721191,-0.38366225361824036,-5.0831756591796875,-4.438591957092285,-2.8235695362091064,-5.621208190917969,-5.391244411468506,-2.6419291496276855,-4.955327033996582,-0.4276169538497925,-5.329741477966309,-0.6854625344276428,4.815650939941406,2.13657283782959,2.5503158569335938,1.6589535474777222,2.8871607780456543,5.814606666564941,5.382758617401123
92,2.171844959259033,-5.993767738342285,-6.197059154510498,-2.9084324836730957,-2.6573965549468994,-1.4268563985824585,-1.252750277519226,-4.483463287353516,-0.3821296691894531,-1.173671007156372,-2.5525574684143066,1.388124704360962,1.2005501985549927,5.053943634033203,0.6419322490692139,5.382829666137695,4.508325099945068,6.058227062225342,4.760928153991699,1.4449673891067505,4.11777925491333,4.262462615966797,-0.3723815381526947,-5.061161994934082,-4.451501846313477,-2.802544116973877,-5.6182708740234375,-5.403895854949951,-2.650458335876465,-4.919615268707275,-0.4109978973865509,-5.378646373748779,-0.6683655977249146,4.835129737854004,2.1625869274139404,2.564178466796875,1.6699233055114746,2.861504077911377,5.834667682647705,5.377967357635498
93,2.1535496711730957,-6.000166893005371,-6.215240955352783,-2.8857290744781494,-2.68091082572937,-1.4363930225372314,-1.2700716257095337,-4.503509521484375,-0.4003811180591583,-1.1914211511611938,-2.5434470176696777,1.3899635076522827,1.2096607685089111,5.03619384765625,0.623680830001831,5.362783432006836,4.536051273345947,6.061370372772217,4.759366989135742,1.4092106819152832,4.140539169311523,4.233117580413818,-0.3644254803657532,-5.0905070304870605,-4.428741931915283,-2.80734920501709,-5.606001853942871,-5.395503520965576,-2.622731924057007,-4.919188022613525,-0.39757686853408813,-5.330273628234863,-0.672307550907135,4.816666603088379,2.145265579223633,2.511507272720337,1.6488845348358154,2.8980274200439453,5.81648588180542,5.371568202972412
94,2.1447994709014893,-6.005308628082275,-6.194710731506348,-2.9085946083068848,-2.671217679977417,-1.3896504640579224,-1.2439842224121094,-4.488717555999756,-0.3971686065196991,-1.1668156385421753,-2.541918992996216,1.4266666173934937,1.211188793182373,5.060799598693848,0.6268933415412903,5.377575397491455,4.524283409118652,6.04619026184082,4.74113130569458,1.415243148803711,4.127593517303467,4.25729513168335,-0.35385048389434814,-5.066329479217529,-4.44168758392334,-2.7863621711730957,-5.603103160858154,-5.405749797821045,-2.6344997882843018,-4.884189128875732,-0.376952588558197,-5.376734256744385,-0.655136227607727,4.836478233337402,2.1713528633117676,2.529447078704834,1.6594539880752563,2.87101149559021,5.8370161056518555,5.366426467895508
95,2.1290929317474365,-6.008791923522949,-6.212436676025391,-2.8841569423675537,-2.692829132080078,-1.4021106958389282,-1.2637341022491455,-4.5093994140625,-0.41670340299606323,-1.1871109008789062,-2.5303196907043457,1.4266579151153564,1.2227880954742432,5.040504455566406,0.6073585152626038,5.356893539428711,4.550588607788086,6.047589302062988,4.739584445953369,1.3759832382202148,4.150701522827148,4.226191997528076,-0.3444780111312866,-5.097432613372803,-4.418579578399658,-2.7943811416625977,-5.5913987159729,-5.399896144866943,-2.608194351196289,-4.884268760681152,-0.36817044019699097,-5.327458381652832,-0.6575402021408081,4.8184404373168945,2.1516029834747314,2.4717390537261963,1.6388307809829712,2.9090306758880615,5.8192901611328125,5.362943172454834
96,2.1202964782714844,-6.014548301696777,-6.190280914306641,-2.9087071418762207,-2.682030200958252,-1.3529629707336426,-1.236080288887024,-4.494009494781494,-0.41065070033073425,-1.1607747077941895,-2.5306239128112793,1.4616804122924805,1.2224839925765991,5.066840648651123,0.6134111881256104,5.372283458709717,4.534723281860352,6.0377302169799805,4.722157955169678,1.3888468742370605,4.136429309844971,4.2541890144348145,-0.33498507738113403,-5.0694355964660645,-4.432851791381836,-2.772862672805786,-5.589133262634277,-5.407820224761963,-2.6240601539611816,-4.848996162414551,-0.3441503047943115,-5.3748602867126465,-0.6409339308738708,4.839751243591309,2.1792566776275635,2.4962711334228516,1.6500072479248047,2.8787102699279785,5.8414459228515625,5.357186794281006
97,2.107330322265625,-6.015685081481934,-6.209107398986816,-2.8816394805908203,-2.703815221786499,-1.3703397512435913,-1.2598040103912354,-4.516587257385254,-0.43213951587677,-1.1846927404403687,-2.516251564025879,1.458451747894287,1.2368563413619995,5.042922496795654,0.5919223427772522,5.349705696105957,4.561466693878174,6.037235260009766,4.7211785316467285,1.344815969467163,4.161200046539307,4.21997594833374,-0.3241473436355591,-5.103648662567139,-4.4080810546875,-2.7847964763641357,-5.5779876708984375,-5.403895854949951,-2.5973165035247803,-4.8510823249816895,-0.3407798409461975,-5.322375297546387,-0.6430571675300598,4.820637226104736,2.1555328369140625,2.431758403778076,1.6284033060073853,2.9194955825805664,5.822619438171387,5.35605001449585
98,2.0993494987487793,-6.02241325378418,-6.184170722961426,-2.9097483158111572,-2.6911461353302,-1.3169736862182617,-1.2289862632751465,-4.4991631507873535,-0.42259958386421204,-1.154786467552185,-2.5193278789520264,1.4927756786346436,1.2337801456451416,5.072828769683838,0.6014622449874878,5.367129802703857,4.540500640869141,6.032444477081299,4.7039947509765625,1.3657039403915405,4.144138813018799,4.253683090209961,-0.3162926137447357,-5.069941520690918,-4.425142288208008,-2.7615678310394287,-5.576904773712158,-5.409357070922852,-2.6182823181152344,-4.814350605010986,-0.31328850984573364,-5.374243259429932,-0.6275063753128052,4.8445963859558105,2.1863503456115723,2.465444326400757,1.6413421630859375,2.883787155151367,5.847556114196777,5.3493218421936035
99,2.0892465114593506,-6.0215044021606445,-6.205785274505615,-2.8789103031158447,-2.7153728008270264,-1.341223120689392,-1.2583874464035034,-4.524929046630859,-0.4469054937362671,-1.183733344078064,-2.501614570617676,1.4852650165557861,1.2514935731887817,5.043881893157959,0.5771563649177551,5.341363906860352,4.56954288482666,6.029486656188965,4.704061508178711,1.3151859045028687,4.1719746589660645,4.214782238006592,-0.30378180742263794,-5.108842372894287,-4.397306442260742,-2.778378963470459,-5.566249370574951,-5.407141208648682,-2.5892398357391357,-4.819925308227539,-0.3164880573749542,-5.31654691696167,-0.6301174759864807,4.8227858543396,2.156949281692505,2.3922717571258545,1.6172890663146973,2.928830146789551,5.825941562652588,5.350230693817139
100,2.0826809406280518,-6.029565334320068,-6.177043437957764,-2.912208080291748,-2.7000088691711426,-1.2822017669677734,-1.2229424715042114,-4.504082202911377,-0.4331090748310089,-1.1484687328338623,-2.5087616443634033,1.5198992490768433,1.2443466186523438,5.079146385192871,0.5909527540206909,5.362210750579834,4.542510032653809,6.030062675476074,4.686657428741455,1.3455274105072021,4.150692462921143,4.255856513977051,-0.2983403503894806,-5.067768096923828,-4.418588638305664,-2.7520205974578857,-5.566803932189941,-5.409740924835205,-2.616272211074829,-4.780538558959961,-0.28488433361053467,-5.37566614151001,-0.6160045266151428,4.8503875732421875,2.192394256591797,2.436875343322754,1.6331936120986938,2.8860573768615723,5.8546833992004395,5.342169761657715
101,2.075453519821167,-6.026765823364258,-6.202850341796875,-2.8766419887542725,-2.728792667388916,-1.3144525289535522,-1.259318470954895,-4.5340681076049805,-0.46091243624687195,-1.1835606098175049,-2.4870047569274902,1.5075207948684692,1.2661036252975464,5.0440545082092285,0.5631493926048279,5.3322248458862305,4.575266361236572,6.023797988891602,4.688133716583252,1.2872023582458496,4.182761192321777,4.211144924163818,-0.28374922275543213,-5.1124796867370605,-4.386519908905029,-2.7747116088867188,-5.556517124176025,-5.409421920776367,-2.5835156440734863,-4.790792942047119,-0.29580289125442505,-5.311887741088867,-0.6193230152130127,4.824539661407471,2.156018018722534,2.354433536529541,1.605408787727356,2.9363675117492676,5.828876495361328,5.344969272613525
102,2.0706841945648193,-6.036345958709717,-6.16984748840332,-2.9158170223236084,-2.710008144378662,-1.2497642040252686,-1.2186462879180908,-4.508944034576416,-0.4425707757472992,-1.1419365406036377,-2.499455451965332,1.542995572090149,1.2536530494689941,5.085678577423096,0.5814911127090454,5.357348918914795,4.541873931884766,6.030272483825684,4.670280933380127,1.3274893760681152,4.156375408172607,4.260018825531006,-0.28159722685813904,-5.063605785369873,-4.412905693054199,-2.744102716445923,-5.55896520614624,-5.408595561981201,-2.616908073425293,-4.747973918914795,-0.25950661301612854,-5.378949165344238,-0.6069722175598145,4.856186866760254,2.196690082550049,2.4093198776245117,1.6252217292785645,2.8862922191619873,5.861879348754883,5.335389137268066
103,2.0660650730133057,-6.031922340393066,-6.200225830078125,-2.875619411468506,-2.7445802688598633,-1.2890961170196533,-1.2618716955184937,-4.54330587387085,-0.4737263321876526,-1.1830016374588013,-2.473276138305664,1.5261023044586182,1.2798322439193726,5.044613361358643,0.5503355860710144,5.322987079620361,4.578488826751709,6.020040035247803,4.673295497894287,1.2619686126708984,4.192928314208984,4.209982395172119,-0.2644926905632019,-5.11364221572876,-4.376352787017822,-2.772939920425415,-5.548896789550781,-5.410574436187744,-2.5802934169769287,-4.763195514678955,-0.2783917784690857,-5.310388565063477,-0.610626757144928,4.825963973999023,2.1534645557403564,2.3198442459106445,1.5931583642959595,2.9412500858306885,5.831501007080078,5.339812755584717
104,2.0632004737854004,-6.042788505554199,-6.1637139320373535,-2.9195668697357178,-2.7221436500549316,-1.2210068702697754,-1.2171951532363892,-4.514318943023682,-0.4518170654773712,-1.135922908782959,-2.4913930892944336,1.5620019435882568,1.261715292930603,5.091691970825195,0.5722448825836182,5.351974010467529,4.539985656738281,6.032482147216797,4.655198574066162,1.3103501796722412,4.161895751953125,4.264753341674805,-0.2662236988544464,-5.058871269226074,-4.407385349273682,-2.7380082607269287,-5.553066253662109,-5.40582275390625,-2.6187965869903564,-4.717251300811768,-0.23790046572685242,-5.3828444480896,-0.6003120541572571,4.860867977142334,2.19814133644104,2.380887746810913,1.6169792413711548,2.8861043453216553,5.86801290512085,5.328946590423584
105,2.060508966445923,-6.037375450134277,-6.197367191314697,-2.8765931129455566,-2.761904001235962,-1.2640520334243774,-1.2649668455123901,-4.55177116394043,-0.48485878109931946,-1.1807795763015747,-2.4613535404205322,1.5422782897949219,1.2917547225952148,5.046835422515869,0.5392031669616699,5.314521789550781,4.578723430633545,6.018400192260742,4.659492492675781,1.2411333322525024,4.201626300811768,4.212169170379639,-0.24652709066867828,-5.11145544052124,-4.367654800415039,-2.7715775966644287,-5.543102741241455,-5.410322666168213,-2.5800588130950928,-4.7362494468688965,-0.2632376551628113,-5.3130035400390625,-0.6034351587295532,4.827564239501953,2.150369644165039,2.2894535064697266,1.581437587738037,2.9428207874298096,5.834359645843506,5.334359645843506
106,2.0592665672302246,-6.048826217651367,-6.1593804359436035,-2.9224531650543213,-2.7364342212677,-1.1964024305343628,-1.2193031311035156,-4.520845413208008,-0.461649090051651,-1.1313424110412598,-2.483996629714966,1.5773794651031494,1.2691117525100708,5.0962724685668945,0.5624128580093384,5.345447540283203,4.537947177886963,6.035834789276123,4.641833782196045,1.2934235334396362,4.168023109436035,4.268809795379639,-0.25194278359413147,-5.05481481552124,-4.4012579917907715,-2.733746290206909,-5.5482611656188965,-5.40160608291626,-2.620835304260254,-4.688846111297607,-0.2205611616373062,-5.3858842849731445,-0.595380961894989,4.863719940185547,2.196033477783203,2.3505172729492188,1.608113408088684,2.886824607849121,5.8723464012146,5.322908878326416
107,2.057569742202759,-6.043375492095947,-6.193772792816162,-2.8797214031219482,-2.778956174850464,-1.2389003038406372,-1.2679383754730225,-4.559036731719971,-0.4942876100540161,-1.1765658855438232,-2.451695680618286,1.557367205619812,1.3014127016067505,5.051048755645752,0.5297743082046509,5.30725622177124,4.575924873352051,6.018906593322754,4.646769046783447,1.22542142868042,4.208438873291016,4.217625141143799,-0.23019050061702728,-5.10599946975708,-4.360842227935791,-2.7691853046417236,-5.53845739364624,-5.408347129821777,-2.582857847213745,-4.70930290222168,-0.2495056688785553,-5.318783760070801,-0.5970540642738342,4.829834938049316,2.1473982334136963,2.2625691890716553,1.5710915327072144,2.941315174102783,5.837954044342041,5.328359603881836
108,2.0573856830596924,-6.054591178894043,-6.156655788421631,-2.92437744140625,-2.751831293106079,-1.1751033067703247,-1.224496603012085,-4.52868127822876,-0.4720887839794159,-1.1285165548324585,-2.4766671657562256,1.5904574394226074,1.2764413356781006,5.099098205566406,0.5519731640815735,5.337611675262451,4.535947322845459,6.039525985717773,4.630324840545654,1.277146816253662,4.174986362457275,4.27205228805542,-0.23827777802944183,-5.051572322845459,-4.394294738769531,-2.7308051586151123,-5.543690204620361,-5.396390438079834,-2.622835636138916,-4.66270112991333,-0.2072039693593979,-5.387442588806152,-0.5914307236671448,4.864996910095215,2.190840005874634,2.318680763244629,1.598639965057373,2.888390302658081,5.875071048736572,5.31714391708374
109,2.055882215499878,-6.049986839294434,-6.189416408538818,-2.884479284286499,-2.794311046600342,-1.2140119075775146,-1.2708629369735718,-4.5654296875,-0.5024709105491638,-1.1712539196014404,-2.4439961910247803,1.5723448991775513,1.309112310409546,5.056360721588135,0.5215910077095032,5.300863265991211,4.570827484130859,6.021123886108398,4.635150909423828,1.2139627933502197,4.213742733001709,4.225288391113281,-0.21543413400650024,-5.098336219787598,-4.355538368225098,-2.7653956413269043,-5.534318447113037,-5.40460205078125,-2.587955951690674,-4.682404518127441,-0.23711979389190674,-5.325819969177246,-0.59126877784729,4.832857131958008,2.1444735527038574,2.237543821334839,1.5622456073760986,2.937704563140869,5.842310428619385,5.32174825668335
110,2.0562453269958496,-6.0604119300842285,-6.154748439788818,-2.9260494709014893,-2.767075777053833,-1.1558407545089722,-1.2315388917922974,-4.537480354309082,-0.48253458738327026,-1.127120018005371,-2.4692318439483643,1.6028406620025635,1.283876657485962,5.100494384765625,0.541527271270752,5.328812599182129,4.533604145050049,6.043093204498291,4.6203155517578125,1.2622851133346558,4.182464122772217,4.275153160095215,-0.22501875460147858,-5.048471450805664,-4.38681697845459,-2.7285423278808594,-5.53909969329834,-5.390621662139893,-2.6251795291900635,-4.638314247131348,-0.19701750576496124,-5.387824535369873,-0.5880929231643677,4.865555286407471,2.1837973594665527,2.2864770889282227,1.5888491868972778,2.8897860050201416,5.876978874206543,5.311323165893555
111,2.0544633865356445,-6.057168960571289,-6.184591770172119,-2.890254497528076,-2.807690143585205,-1.1899935007095337,-1.274097204208374,-4.571585655212402,-0.5098922252655029,-1.1660277843475342,-2.43756365776062,1.5877456665039062,1.315544843673706,5.061586380004883,0.5141696333885193,5.294707298278809,4.564444541931152,6.024388313293457,4.624497890472412,1.2052525281906128,4.218261241912842,4.234012603759766,-0.2020280510187149,-5.089612007141113,-4.351019859313965,-2.760784864425659,-5.5304741859436035,-5.399384021759033,-2.59433913230896,-4.6559858322143555,-0.22636358439922333,-5.332674026489258,-0.5863362550735474,4.836415767669678,2.1412391662597656,2.213017702102661,1.5543938875198364,2.932866334915161,5.847135543823242,5.314566135406494
112,2.055088996887207,-6.066570281982422,-6.152950763702393,-2.928267478942871,-2.781445264816284,-1.1377640962600708,-1.2393468618392944,-4.5467939376831055,-0.49245673418045044,-1.1266807317733765,-2.461846351623535,1.6156679391860962,1.291262149810791,5.10093355178833,0.5316051840782166,5.3194990158081055,4.530635833740234,6.046419620513916,4.611227512359619,1.249216079711914,4.190018177032471,4.278759956359863,-0.21233096718788147,-5.044864654541016,-4.379262924194336,-2.7265684604644775,-5.534759521484375,-5.3844828605651855,-2.628147602081299,-4.615111827850342,-0.18919123709201813,-5.387641906738281,-0.5854103565216064,4.866146087646484,2.1759896278381348,2.2547059059143066,1.5790172815322876,2.8901052474975586,5.878776550292969,5.305164813995361
113,2.0528111457824707,-6.06484317779541,-6.179602146148682,-2.89670467376709,-2.819559097290039,-1.167305827140808,-1.2778761386871338,-4.577971935272217,-0.5168370604515076,-1.1616322994232178,-2.4318175315856934,1.6037870645523071,1.3212910890579224,5.065982341766357,0.5072248578071594,5.288321018218994,4.557568550109863,6.028143405914307,4.614556789398193,1.1981370449066162,4.2225446701049805,4.243093490600586,-0.1897924840450287,-5.080531120300293,-4.346736431121826,-2.7560648918151855,-5.527047157287598,-5.393087863922119,-2.60121488571167,-4.630364894866943,-0.2173905074596405,-5.3386993408203125,-0.5825678706169128,4.84026575088501,2.137460470199585,2.1883256435394287,1.5469250679016113,2.92724871635437,5.85212516784668,5.306891918182373
114,2.053591012954712,-6.073176383972168,-6.1508917808532715,-2.931513547897339,-2.7947723865509033,-1.1205326318740845,-1.2473082542419434,-4.556309223175049,-0.5016372203826904,-1.1268538236618042,-2.454728364944458,1.6294784545898438,1.2983802556991577,5.1007609367370605,0.5224246978759766,5.309983730316162,4.527026176452637,6.049564838409424,4.602584362030029,1.2379744052886963,4.197351455688477,4.283176898956299,-0.2004779577255249,-5.04044771194458,-4.37192964553833,-2.724726438522339,-5.531034469604492,-5.377959251403809,-2.6317572593688965,-4.5926432609558105,-0.18310359120368958,-5.387353897094727,-0.5835590362548828,4.867154598236084,2.1680283546447754,2.223752975463867,1.5692894458770752,2.888928174972534,5.88083553314209,5.298558712005615
115,2.0507192611694336,-6.072912216186523,-6.174643516540527,-2.9036829471588135,-2.830507755279541,-1.1462092399597168,-1.2822623252868652,-4.584798812866211,-0.5234403610229492,-1.1583291292190552,-2.4264328479766846,1.6205188035964966,1.3266756534576416,5.0692853927612305,0.5006215572357178,5.281494140625,4.550663948059082,6.032039165496826,4.60508918762207,1.1920028924942017,4.226861953735352,4.252201557159424,-0.1785912811756134,-5.071423053741455,-4.342419147491455,-2.751690149307251,-5.524235248565674,-5.3860368728637695,-2.608119249343872,-4.605604648590088,-0.21013760566711426,-5.343733787536621,-0.5800918936729431,4.84423828125,2.1330740451812744,2.1633169651031494,1.539424180984497,2.9210245609283447,5.857083797454834,5.29882287979126
116,2.0516271591186523,-6.080208778381348,-6.14845609664917,-2.935941219329834,-2.807157039642334,-1.104111909866333,-1.2551565170288086,-4.565868377685547,-0.5100604891777039,-1.127422571182251,-2.448028564453125,1.6444165706634521,1.3050799369812012,5.100192070007324,0.5140014290809631,5.300424575805664,4.522886753082275,6.052613258361816,4.5940961837768555,1.2284623384475708,4.204317092895508,4.2884368896484375,-0.18960416316986084,-5.035187721252441,-4.364964008331299,-2.7229740619659424,-5.528173446655273,-5.3710126876831055,-2.6358959674835205,-4.570587635040283,-0.17829938232898712,-5.387172698974609,-0.5826372504234314,4.8686957359313965,2.160179615020752,2.1937944889068604,1.5597174167633057,2.886197566986084,5.883271217346191,5.2915263175964355
117,2.0481021404266357,-6.081277370452881,-6.169820785522461,-2.9110920429229736,-2.8409717082977295,-1.126834511756897,-1.287219762802124,-4.592119216918945,-0.5297728180885315,-1.156097173690796,-2.421269416809082,1.6379125118255615,1.3318389654159546,5.071517467498779,0.4942890703678131,5.274173736572266,4.543954372406006,6.035879135131836,4.5959153175354,1.1865876913070679,4.231294631958008,4.261197090148926,-0.16827259957790375,-5.062427520751953,-4.337986469268799,-2.7478742599487305,-5.522191524505615,-5.378460884094238,-2.614828109741211,-4.581600189208984,-0.20441409945487976,-5.3478007316589355,-0.5788446068763733,4.848235130310059,2.1281163692474365,2.1381173133850098,1.531693458557129,2.914278268814087,5.8619065284729,5.290457725524902
118,2.0491464138031006,-6.087583065032959,-6.145655632019043,-2.9414918422698975,-2.818758487701416,-1.088602066040039,-1.2627968788146973,-4.575409412384033,-0.5177934169769287,-1.1282423734664917,-2.441826581954956,1.6604344844818115,1.311281681060791,5.099371910095215,0.5062684416770935,5.290883541107178,4.518350124359131,6.0556111335754395,4.585607528686523,1.2205537557601929,4.210859775543213,4.294441223144531,-0.17970207333564758,-5.029183387756348,-4.358421325683594,-2.7213170528411865,-5.526312351226807,-5.3636579513549805,-2.640432357788086,-4.5487165451049805,-0.1744372844696045,-5.387142658233643,-0.5826156139373779,4.870748043060303,2.1525394916534424,2.164954423904419,1.5503184795379639,2.882037878036499,5.886071681976318,5.284152030944824
119,2.0449178218841553,-6.089850902557373,-6.165185451507568,-2.918822765350342,-2.8512136936187744,-1.1092493534088135,-1.2926716804504395,-4.599913120269775,-0.5358845591545105,-1.154796838760376,-2.41628360748291,1.6559044122695923,1.336824655532837,5.072817325592041,0.4881773293018341,5.2663798332214355,4.537533760070801,6.03955078125,4.586912631988525,1.1817930936813354,4.235835552215576,4.270009517669678,-0.15865564346313477,-5.053615093231201,-4.3334455490112305,-2.744697332382202,-5.521017551422119,-5.370534420013428,-2.621248722076416,-4.55818510055542,-0.19998925924301147,-5.350976467132568,-0.5786418318748474,4.852200984954834,2.122664451599121,2.112978458404541,1.5236760377883911,2.907086133956909,5.866541862487793,5.28188419342041
