,0,1,2,3,4,5,6,7
0,-0.44333887100219727,-0.12930333614349365,0.09737873077392578,-0.7362033128738403,-0.37384021282196045,0.2802850008010864,-0.10549962520599365,0.8441764116287231
1,-0.4961613118648529,-0.07648087292909622,0.1502012014389038,-0.7362033128738403,-0.42666277289390564,0.333107590675354,-0.10549962520599365,0.8441764116287231
2,-0.5145333409309387,-0.042393043637275696,0.1790616512298584,-0.7362033128738403,-0.463264524936676,0.371956467628479,-0.10549962520599365,0.8441764116287231
3,-0.5104964971542358,-0.017742281779646873,0.20003259181976318,-0.7362033128738403,-0.49594834446907043,0.4078235328197479,-0.10549962520599365,0.8441764116287231
4,-0.4890335500240326,-0.005389307159930468,0.2203950583934784,-0.7362033128738403,-0.527621328830719,0.4432090222835541,-0.10549962520599365,0.8441764116287231
5,-0.455187052488327,-0.010077891871333122,0.24623562395572662,-0.7362033128738403,-0.5595138072967529,0.47892677783966064,-0.10549962520599365,0.8441764116287231
6,-0.4110020697116852,-0.031865522265434265,0.2803262770175934,-0.7362033128738403,-0.5923173427581787,0.5152791142463684,-0.10549962520599365,0.8441764116287231
7,-0.35840117931365967,-0.06623639166355133,0.3220537602901459,-0.7362033128738403,-0.6265280246734619,0.5523810386657715,-0.10549962520599365,0.8441764116287231
8,-0.3000243008136749,-0.10841883718967438,0.36869266629219055,-0.7362033128738403,-0.6624141931533813,0.5902469158172607,-0.10549962520599365,0.8441764116287231
9,-0.23832786083221436,-0.15495938062667847,0.4168592095375061,-0.7362033128738403,-0.6999002695083618,0.6288151741027832,-0.10549962520599365,0.8441764116287231
10,-0.17526569962501526,-0.2034660279750824,0.4631662368774414,-0.7362033128738403,-0.7385692000389099,0.6679602265357971,-0.10549962520599365,0.8441764116287231
11,-0.11241728812456131,-0.25222596526145935,0.5042542219161987,-0.7362033128738403,-0.7777562141418457,0.7075017690658569,-0.10549962520599365,0.8441764116287231
12,-0.05116098001599312,-0.30004146695137024,0.536972165107727,-0.7362033128738403,-0.816669225692749,0.7472187876701355,-0.10549962520599365,0.8441764116287231
13,0.0072470009326934814,-0.3462369740009308,0.5591775178909302,-0.7362033128738403,-0.8545042276382446,0.786868691444397,-0.10549962520599365,0.8441764116287231
14,0.061713024973869324,-0.39068737626075745,0.5707460641860962,-0.7362033128738403,-0.8905397057533264,0.8262090086936951,-0.10549962520599365,0.8441764116287231
15,0.1114213615655899,-0.43368852138519287,0.5735105276107788,-0.7362033128738403,-0.9241862893104553,0.8650134801864624,-0.10549962520599365,0.8441764116287231
16,0.1559135764837265,-0.47567492723464966,0.5699689388275146,-0.7362033128738403,-0.9549854397773743,0.9030801653862,-0.10549962520599365,0.8441764116287231
17,0.1950724720954895,-0.5169931054115295,0.5622316002845764,-0.7362033128738403,-0.9825867414474487,0.9402339458465576,-0.10549962520599365,0.8441764116287231
18,0.22905874252319336,-0.5578296184539795,0.5518377423286438,-0.7362033128738403,-1.006736397743225,0.9763264060020447,-0.10549962520599365,0.8441764116287231
19,0.25824493169784546,-0.5982215404510498,0.5399141907691956,-0.7362033128738403,-1.0272793769836426,1.0112340450286865,-0.10549962520599365,0.8441764116287231
20,0.2831449508666992,-0.6380871534347534,0.5272911190986633,-0.7362033128738403,-1.0441690683364868,1.0448559522628784,-0.10549962520599365,0.8441764116287231
21,0.3043385446071625,-0.6772612929344177,0.5145533680915833,-0.7362033128738403,-1.0574737787246704,1.077111005783081,-0.10549962520599365,0.8441764116287231
22,0.32240554690361023,-0.7155315279960632,0.5020768642425537,-0.7362033128738403,-1.0673768520355225,1.1079354286193848,-0.10549962520599365,0.8441764116287231
23,0.337883323431015,-0.7526696920394897,0.49007177352905273,-0.7362033128738403,-1.0741642713546753,1.1372801065444946,-0.10549962520599365,0.8441764116287231
24,0.35124829411506653,-0.7884562611579895,0.4786297678947449,-0.7362033128738403,-1.0782021284103394,1.1651087999343872,-0.10549962520599365,0.8441764116287231
25,0.3629135191440582,-0.8226986527442932,0.4677684009075165,-0.7362033128738403,-1.0799076557159424,1.1913971900939941,-0.10549962520599365,0.8441764116287231
26,0.3732324540615082,-0.8552446365356445,0.45746612548828125,-0.7362033128738403,-1.0797187089920044,1.2161308526992798,-0.10549962520599365,0.8441764116287231
27,0.3825036287307739,-0.8859928250312805,0.44768476486206055,-0.7362033128738403,-1.0780662298202515,1.2393049001693726,-0.10549962520599365,0.8441764116287231
28,0.3909747302532196,-0.914898693561554,0.43838244676589966,-0.7362033128738403,-1.0753535032272339,1.2609232664108276,-0.10549962520599365,0.8441764116287231
29,0.3988465964794159,-0.9419765472412109,0.4295181632041931,-0.7362033128738403,-1.0719398260116577,1.2809982299804688,-0.10549962520599365,0.8441764116287231
30,0.4062786400318146,-0.9672966003417969,0.42105263471603394,-0.7362033128738403,-1.0681321620941162,1.299550175666809,-0.10549962520599365,0.8441764116287231
31,0.41339564323425293,-0.990978479385376,0.41294682025909424,-0.7362033128738403,-1.0641813278198242,1.316606879234314,-0.10549962520599365,0.8441764116287231
32,0.4202956557273865,-1.0131809711456299,0.4051594138145447,-0.7362033128738403,-1.0602834224700928,1.3322033882141113,-0.10549962520599365,0.8441764116287231
33,0.4270579218864441,-1.0340924263000488,0.3976457715034485,-0.7362033128738403,-1.0565835237503052,1.346381425857544,-0.10549962520599365,0.8441764116287231
34,0.4337499737739563,-1.0539201498031616,0.39035576581954956,-0.7362033128738403,-1.053181529045105,1.3591887950897217,-0.10549962520599365,0.8441764116287231
35,0.44043293595314026,-1.0728837251663208,0.3832344710826874,-0.7362033128738403,-1.0501396656036377,1.3706789016723633,-0.10549962520599365,0.8441764116287231
36,0.4471660554409027,-1.0912086963653564,0.3762202262878418,-0.7362033128738403,-1.0474891662597656,1.3809099197387695,-0.10549962520599365,0.8441764116287231
37,0.45401015877723694,-1.1091244220733643,0.36924612522125244,-0.7362033128738403,-1.0452371835708618,1.389944314956665,-0.10549962520599365,0.8441764116287231
38,0.4610297679901123,-1.1268624067306519,0.3622378706932068,-0.7362033128738403,-1.0433720350265503,1.3978480100631714,-0.10549962520599365,0.8441764116287231
39,0.4682954251766205,-1.1446589231491089,0.35511502623558044,-0.7362033128738403,-1.0418682098388672,1.4046895503997803,-0.10549962520599365,0.8441764116287231
40,0.475885808467865,-1.1627569198608398,0.34778696298599243,-0.7362033128738403,-1.040690541267395,1.4105395078659058,-0.10549962520599365,0.8441764116287231
41,0.48389044404029846,-1.1814115047454834,0.3401547372341156,-0.7362033128738403,-1.0397955179214478,1.415469765663147,-0.10549962520599365,0.8441764116287231
42,0.4924124479293823,-1.2008947134017944,0.33210328221321106,-0.7362033128738403,-1.0391334295272827,1.4195526838302612,-0.10549962520599365,0.8441764116287231
43,0.5015724301338196,-1.2215054035186768,0.32350417971611023,-0.7362033128738403,-1.038648247718811,1.422860860824585,-0.10549962520599365,0.8441764116287231
44,0.5115135312080383,-1.243576169013977,0.3142023980617523,-0.7362033128738403,-1.038275957107544,1.4254662990570068,-0.10549962520599365,0.8441764116287231
45,0.5224079489707947,-1.2674881219863892,0.30401936173439026,-0.7362033128738403,-1.0379422903060913,1.4274400472640991,-0.10549962520599365,0.8441764116287231
46,0.5344648957252502,-1.2936822175979614,0.2927319407463074,-0.7362033128738403,-1.0375579595565796,1.428851842880249,-0.10549962520599365,0.8441764116287231
47,0.5479429960250854,-1.3226791620254517,0.2800755500793457,-0.7362033128738403,-1.0370104312896729,1.4297699928283691,-0.10549962520599365,0.8441764116287231
48,0.563162624835968,-1.355096459388733,0.26570966839790344,-0.7362033128738403,-1.036153793334961,1.430261254310608,-0.10549962520599365,0.8441764116287231
49,0.5805276036262512,-1.3916740417480469,0.2492222934961319,-0.7362033128738403,-1.0347907543182373,1.4303911924362183,-0.10549962520599365,0.8441764116287231
50,0.6005456447601318,-1.4332900047302246,0.23007141053676605,-0.7362033128738403,-1.0326485633850098,1.4302247762680054,-0.10549962520599365,0.8441764116287231
51,0.6238618493080139,-1.4809825420379639,0.20760004222393036,-0.7362033128738403,-1.0293402671813965,1.4298269748687744,-0.10549962520599365,0.8441764116287231
52,0.6512856483459473,-1.535931944847107,0.18093860149383545,-0.7362033128738403,-1.024312973022461,1.429265022277832,-0.10549962520599365,0.8441764116287231
53,0.6838284134864807,-1.599427580833435,0.14907206594944,-0.7362033128738403,-1.016768455505371,1.4286103248596191,-0.10549962520599365,0.8441764116287231
54,0.7227005958557129,-1.672715425491333,0.11070555448532104,-0.7362033128738403,-1.00557279586792,1.4279429912567139,-0.10549962520599365,0.8441764116287231
55,0.7692859768867493,-1.7567827701568604,0.06454235315322876,-0.7362033128738403,-0.9891489148139954,1.4273576736450195,-0.10549962520599365,0.8441764116287231
56,0.8249503374099731,-1.851924180984497,0.009217916056513786,-0.7362033128738403,-0.9654567241668701,1.4269720315933228,-0.10549962520599365,0.8441764116287231
57,0.8907278180122375,-1.9573204517364502,-0.05576863884925842,-0.7362033128738403,-0.9321438074111938,1.4269362688064575,-0.10549962520599365,0.8441764116287231
58,0.9666340351104736,-2.0705032348632812,-0.12982739508152008,-0.7362033128738403,-0.8871973156929016,1.4274404048919678,-0.10549962520599365,0.8441764116287231
59,1.0509542226791382,-2.1871650218963623,-0.20933568477630615,-0.7362033128738403,-0.8300212025642395,1.4287075996398926,-0.10549962520599365,0.8441764116287231
60,1.1394959688186646,-2.3009848594665527,-0.28814369440078735,-0.7362033128738403,-0.7627320289611816,1.4309581518173218,-0.10549962520599365,0.8441764116287231
61,1.2258992195129395,-2.4041686058044434,-0.35716530680656433,-0.7362033128738403,-0.690284788608551,1.434339165687561,-0.10549962520599365,0.8441764116287231
62,1.3029643297195435,-2.4888064861297607,-0.41040557622909546,-0.7362033128738403,-0.6193133592605591,1.4388591051101685,-0.10549962520599365,0.8441764116287231
63,1.365269660949707,-2.5501484870910645,-0.4461304843425751,-0.7362033128738403,-0.5556930303573608,1.444380521774292,-0.10549962520599365,0.8441764116287231
64,1.4108812808990479,-2.5889878273010254,-0.46917295455932617,-0.7362033128738403,-0.5030670762062073,1.4506785869598389,-0.10549962520599365,0.8441764116287231
65,1.441269874572754,-2.6106560230255127,-0.482247531414032,-0.7362033128738403,-0.4623434841632843,1.4574997425079346,-0.10549962520599365,0.8441764116287231
66,1.4597570896148682,-2.6210412979125977,-0.49160733819007874,-0.7362033128738403,-0.4329177439212799,1.4645960330963135,-0.10549962520599365,0.8441764116287231
67,1.469698190689087,-2.624850273132324,-0.4949471652507782,-0.7362033128738403,-0.4128924012184143,1.4717355966567993,-0.10549962520599365,0.8441764116287231
68,1.4741566181182861,-2.6247541904449463,-0.5003335475921631,-0.7362033128738403,-0.4006551504135132,1.478721022605896,-0.10549962520599365,0.8441764116287231
69,1.474746823310852,-2.6228554248809814,-0.4975079298019409,-0.7362033128738403,-0.3937530219554901,1.485386848449707,-0.10549962520599365,0.8441764116287231
70,1.4736244678497314,-2.619581937789917,-0.5046271681785583,-0.7362033128738403,-0.39144280552864075,1.4916179180145264,-0.10549962520599365,0.8441764116287231
71,1.4704806804656982,-2.6165103912353516,-0.49316540360450745,-0.7362033128738403,-0.39094194769859314,1.4973214864730835,-0.10549962520599365,0.8441764116287231
72,1.4680410623550415,-2.6123549938201904,-0.510934591293335,-0.7362033128738403,-0.3936593532562256,1.502463459968567,-0.10549962520599365,0.8441764116287231
73,1.4632552862167358,-2.6101036071777344,-0.47923144698143005,-0.7362033128738403,-0.3948042690753937,1.506995677947998,-0.10549962520599365,0.8441764116287231
74,1.4621039628982544,-2.605123519897461,-0.5285655856132507,-0.7362033128738403,-0.40066906809806824,1.5109620094299316,-0.10549962520599365,0.8441764116287231
75,1.4553927183151245,-2.6055378913879395,-0.44959747791290283,-0.7362033128738403,-0.39950814843177795,1.5143041610717773,-0.10549962520599365,0.8441764116287231
76,1.4581446647644043,-2.5980427265167236,-0.5549021363258362,-0.7362033128738403,-0.40947288274765015,1.5171743631362915,-0.10549962520599365,0.8441764116287231
77,1.4481337070465088,-2.603119373321533,-0.43515366315841675,-0.7362033128738403,-0.4033265709877014,1.5194145441055298,-0.10549962520599365,0.8441764116287231
78,1.4548100233078003,-2.592982769012451,-0.54157954454422,-0.7362033128738403,-0.4154224395751953,1.521348476409912,-0.10549962520599365,0.8441764116287231
79,1.4447619915008545,-2.5995516777038574,-0.4581347405910492,-0.7362033128738403,-0.4095208942890167,1.5227068662643433,-0.10549962520599365,0.8441764116287231
80,1.4497435092926025,-2.59183931350708,-0.5158330202102661,-0.7362033128738403,-0.4174363613128662,1.523835301399231,-0.10549962520599365,0.8441764116287231
81,1.4437053203582764,-2.5956575870513916,-0.47538286447525024,-0.7362033128738403,-0.4147430956363678,1.5245441198349,-0.10549962520599365,0.8441764116287231
82,1.4459997415542603,-2.5914723873138428,-0.502040684223175,-0.7362033128738403,-0.4189543128013611,1.5250459909439087,-0.10549962520599365,0.8441764116287231
83,1.4428973197937012,-2.5932023525238037,-0.483122855424881,-0.7362033128738403,-0.4179917871952057,1.5252659320831299,-0.10549962520599365,0.8441764116287231
84,1.443849802017212,-2.5910675525665283,-0.4956490397453308,-0.7362033128738403,-0.4202466309070587,1.5253236293792725,-0.10549962520599365,0.8441764116287231
85,1.4422413110733032,-2.5918502807617188,-0.4864109754562378,-0.7362033128738403,-0.4199588894844055,1.525199055671692,-0.10549962520599365,0.8441764116287231
86,1.442645788192749,-2.5907418727874756,-0.49261200428009033,-0.7362033128738403,-0.42122143507003784,1.5249638557434082,-0.10549962520599365,0.8441764116287231
87,1.4417802095413208,-2.5911262035369873,-0.4878397285938263,-0.7362033128738403,-0.42117494344711304,1.5246191024780273,-0.10549962520599365,0.8441764116287231
88,1.441965937614441,-2.5905351638793945,-0.4910910725593567,-0.7362033128738403,-0.42192038893699646,1.5242102146148682,-0.10549962520599365,0.8441764116287231
89,1.4414814710617065,-2.590747356414795,-0.48848021030426025,-0.7362033128738403,-0.42195719480514526,1.523744821548462,-0.10549962520599365,0.8441764116287231
90,1.4415756464004517,-2.590425491333008,-0.4902838468551636,-0.7362033128738403,-0.4224252998828888,1.5232526063919067,-0.10549962520599365,0.8441764116287231
91,1.4412928819656372,-2.59055757522583,-0.4887721538543701,-0.7362033128738403,-0.42249009013175964,1.522741436958313,-0.10549962520599365,0.8441764116287231
92,1.44134521484375,-2.5903780460357666,-0.4898276925086975,-0.7362033128738403,-0.42280465364456177,1.522230863571167,-0.10549962520599365,0.8441764116287231
93,1.4411715269088745,-2.590468168258667,-0.48890241980552673,-0.7362033128738403,-0.4228775203227997,1.5217268466949463,-0.10549962520599365,0.8441764116287231
94,1.4412018060684204,-2.590365409851074,-0.48955225944519043,-0.7362033128738403,-0.4231029450893402,1.521241545677185,-0.10549962520599365,0.8441764116287231
95,1.4410890340805054,-2.590430498123169,-0.48895466327667236,-0.7362033128738403,-0.42317521572113037,1.5207786560058594,-0.10549962520599365,0.8441764116287231
96,1.441106915473938,-2.590369462966919,-0.48937490582466125,-0.7362033128738403,-0.4233448803424835,1.5203454494476318,-0.10549962520599365,0.8441764116287231
97,1.4410293102264404,-2.5904178619384766,-0.48896878957748413,-0.7362033128738403,-0.4234115481376648,1.5199432373046875,-0.10549962520599365,0.8441764116287231
98,1.441039800643921,-2.590379238128662,-0.4892544746398926,-0.7362033128738403,-0.42354273796081543,1.5195757150650024,-0.10549962520599365,0.8441764116287231
99,1.4409836530685425,-2.5904159545898438,-0.48896512389183044,-0.7362033128738403,-0.42360055446624756,1.5192426443099976,-0.10549962520599365,0.8441764116287231
100,1.4409903287887573,-2.5903897285461426,-0.4891696870326996,-0.7362033128738403,-0.4237026870250702,1.5189449787139893,-0.10549962520599365,0.8441764116287231
101,1.4409483671188354,-2.5904181003570557,-0.4889546036720276,-0.7362033128738403,-0.4237495958805084,1.518681287765503,-0.10549962520599365,0.8441764116287231
102,1.4409533739089966,-2.5903990268707275,-0.48910897970199585,-0.7362033128738403,-0.42382821440696716,1.5184513330459595,-0.10549962520599365,0.8441764116287231
103,1.440921425819397,-2.590420961380005,-0.48894280195236206,-0.7362033128738403,-0.4238635003566742,1.5182524919509888,-0.10549962520599365,0.8441764116287231
104,1.440926194190979,-2.5904057025909424,-0.48906582593917847,-0.7362033128738403,-0.42392271757125854,1.5180834531784058,-0.10549962520599365,0.8441764116287231
105,1.440901517868042,-2.590423107147217,-0.488932728767395,-0.7362033128738403,-0.42394664883613586,1.5179414749145508,-0.10549962520599365,0.8441764116287231
106,1.4409068822860718,-2.5904104709625244,-0.48903605341911316,-0.7362033128738403,-0.423989862203598,1.517824649810791,-0.10549962520599365,0.8441764116287231
107,1.440887689590454,-2.5904250144958496,-0.48892533779144287,-0.7362033128738403,-0.42400360107421875,1.5177301168441772,-0.10549962520599365,0.8441764116287231
108,1.4408942461013794,-2.5904133319854736,-0.4890165627002716,-0.7362033128738403,-0.4240339696407318,1.517655849456787,-0.10549962520599365,0.8441764116287231
109,1.4408791065216064,-2.590425729751587,-0.4889209568500519,-0.7362033128738403,-0.42403900623321533,1.5175989866256714,-0.10549962520599365,0.8441764116287231
110,1.4408867359161377,-2.5904150009155273,-0.489004909992218,-0.7362033128738403,-0.4240594506263733,1.5175577402114868,-0.10549962520599365,0.8441764116287231
111,1.4408745765686035,-2.590426206588745,-0.48891904950141907,-0.7362033128738403,-0.42405757308006287,1.5175296068191528,-0.10549962520599365,0.8441764116287231
112,1.4408835172653198,-2.5904157161712646,-0.48899924755096436,-0.7362033128738403,-0.4240707457065582,1.5175127983093262,-0.10549962520599365,0.8441764116287231
113,1.4408732652664185,-2.590426206588745,-0.48891887068748474,-0.7362033128738403,-0.42406362295150757,1.517505168914795,-0.10549962520599365,0.8441764116287231
114,1.4408830404281616,-2.5904157161712646,-0.488998144865036,-0.7362033128738403,-0.42407187819480896,1.5175052881240845,-0.10549962520599365,0.8441764116287231
115,1.4408739805221558,-2.590425729751587,-0.48891955614089966,-0.7362033128738403,-0.4240610599517822,1.5175113677978516,-0.10549962520599365,0.8441764116287231
116,1.4408845901489258,-2.5904154777526855,-0.4890003502368927,-0.7362033128738403,-0.42406633496284485,1.5175224542617798,-0.10549962520599365,0.8441764116287231
117,1.4408760070800781,-2.590425729751587,-0.4889204204082489,-0.7362033128738403,-0.4240529537200928,1.5175368785858154,-0.10549962520599365,0.8441764116287231
118,1.4408875703811646,-2.5904147624969482,-0.4890054166316986,-0.7362033128738403,-0.42405691742897034,1.5175539255142212,-0.10549962520599365,0.8441764116287231
119,1.4408786296844482,-2.590425491333008,-0.4889203906059265,-0.7362033128738403,-0.4240418076515198,1.5175724029541016,-0.10549962520599365,0.8441764116287231
120,1.4408912658691406,-2.590413808822632,-0.4890126883983612,-0.7362033128738403,-0.4240458607673645,1.517591953277588,-0.10549962520599365,0.8441764116287231
121,1.440881371498108,-2.590425729751587,-0.48891863226890564,-0.7362033128738403,-0.4240294396877289,1.5176115036010742,-0.10549962520599365,0.8441764116287231
122,1.4408953189849854,-2.5904126167297363,-0.48902228474617004,-0.7362033128738403,-0.42403480410575867,1.5176310539245605,-0.10549962520599365,0.8441764116287231
123,1.4408835172653198,-2.590426445007324,-0.48891425132751465,-0.7362033128738403,-0.42401716113090515,1.51764976978302,-0.10549962520599365,0.8441764116287231
124,1.4408994913101196,-2.5904107093811035,-0.4890346825122833,-0.7362033128738403,-0.4240248203277588,1.5176677703857422,-0.10549962520599365,0.8441764116287231
125,1.440885066986084,-2.5904273986816406,-0.48890605568885803,-0.7362033128738403,-0.42400556802749634,1.5176843404769897,-0.10549962520599365,0.8441764116287231
126,1.4409037828445435,-2.5904088020324707,-0.4890506863594055,-0.7362033128738403,-0.42401665449142456,1.517699956893921,-0.10549962520599365,0.8441764116287231
127,1.4408856630325317,-2.5904293060302734,-0.48889273405075073,-0.7362033128738403,-0.4239950180053711,1.5177137851715088,-0.10549962520599365,0.8441764116287231
128,1.4409083127975464,-2.5904061794281006,-0.48907196521759033,-0.7362033128738403,-0.4240107834339142,1.5177265405654907,-0.10549962520599365,0.8441764116287231
129,1.4408849477767944,-2.5904319286346436,-0.48887181282043457,-0.7362033128738403,-0.42398542165756226,1.5177375078201294,-0.10549962520599365,0.8441764116287231
130,1.440913438796997,-2.590402126312256,-0.4891014099121094,-0.7362033128738403,-0.4240075349807739,1.5177475214004517,-0.10549962520599365,0.8441764116287231
131,1.4408823251724243,-2.5904359817504883,-0.4888398051261902,-0.7362033128738403,-0.4239763021469116,1.5177557468414307,-0.10549962520599365,0.8441764116287231
132,1.4409196376800537,-2.5903968811035156,-0.4891435205936432,-0.7362033128738403,-0.424007385969162,1.5177631378173828,-0.10549962520599365,0.8441764116287231
133,1.4408773183822632,-2.590442419052124,-0.48879119753837585,-0.7362033128738403,-0.4239669442176819,1.5177687406539917,-0.10549962520599365,0.8441764116287231
134,1.4409281015396118,-2.5903890132904053,-0.4892054796218872,-0.7362033128738403,-0.4240107834339142,1.5177741050720215,-0.10549962520599365,0.8441764116287231
135,1.4408689737319946,-2.590451717376709,-0.4887167513370514,-0.7362033128738403,-0.4239560067653656,1.5177775621414185,-0.10549962520599365,0.8441764116287231
136,1.4409399032592773,-2.590376853942871,-0.4892992377281189,-0.7362033128738403,-0.42401885986328125,1.517781376838684,-0.10549962520599365,0.8441764116287231
137,1.4408553838729858,-2.5904664993286133,-0.4886012375354767,-0.7362033128738403,-0.42394164204597473,1.5177830457687378,-0.10549962520599365,0.8441764116287231
138,1.4409579038619995,-2.590358257293701,-0.48944467306137085,-0.7362033128738403,-0.4240334928035736,1.5177857875823975,-0.10549962520599365,0.8441764116287231
139,1.440833568572998,-2.5904901027679443,-0.48841896653175354,-0.7362033128738403,-0.42392075061798096,1.517785906791687,-0.10549962520599365,0.8441764116287231
140,1.440985918045044,-2.5903284549713135,-0.48967576026916504,-0.7362033128738403,-0.424058198928833,1.517788052558899,-0.10549962520599365,0.8441764116287231
141,1.440798044204712,-2.5905277729034424,-0.4881255030632019,-0.7362033128738403,-0.42388826608657837,1.5177867412567139,-0.10549962520599365,0.8441764116287231
142,1.441031575202942,-2.590280055999756,-0.4900510907173157,-0.7362033128738403,-0.42409923672676086,1.5177888870239258,-0.10549962520599365,0.8441764116287231
143,1.440739631652832,-2.590589761734009,-0.4876430034637451,-0.7362033128738403,-0.4238354563713074,1.5177861452102661,-0.10549962520599365,0.8441764116287231
144,1.4411072731018066,-2.5901997089385986,-0.4906746745109558,-0.7362033128738403,-0.42416781187057495,1.5177890062332153,-0.10549962520599365,0.8441764116287231
145,1.4406414031982422,-2.5906944274902344,-0.4868323802947998,-0.7362033128738403,-0.4237469732761383,1.5177844762802124,-0.10549962520599365,0.8441764116287231
146,1.4412360191345215,-2.5900633335113525,-0.4917336404323578,-0.7362033128738403,-0.4242843687534332,1.5177890062332153,-0.10549962520599365,0.8441764116287231
147,1.4404727220535278,-2.5908732414245605,-0.48544153571128845,-0.7362033128738403,-0.42359501123428345,1.5177817344665527,-0.10549962520599365,0.8441764116287231
148,1.4414600133895874,-2.5898265838623047,-0.49356818199157715,-0.7362033128738403,-0.4244866669178009,1.517789602279663,-0.10549962520599365,0.8441764116287231
149,1.4401775598526,-2.5911874771118164,-0.4830113351345062,-0.7362033128738403,-0.42332884669303894,1.517777681350708,-0.10549962520599365,0.8441764116287231
