,0,1,2,3,4,5,6,7
0,-0.16287767887115479,-0.23850739002227783,-0.5791232585906982,-0.8669407367706299,0.5756874084472656,-0.8692488670349121,0.19217467308044434,0.2983052730560303
1,-0.11005548387765884,-0.18568482995033264,-0.5263006687164307,-0.8669407367706299,0.5228648781776428,-0.9220714569091797,0.19217467308044434,0.2983052730560303
2,-0.15695251524448395,-0.14675866067409515,-0.488366037607193,-0.8669407367706299,0.48981526494026184,-0.9607354402542114,0.19217467308044434,0.2983052730560303
3,-0.1194642037153244,-0.1141565591096878,-0.453159898519516,-0.8669407367706299,0.46821829676628113,-0.9964641332626343,0.19217467308044434,0.2983052730560303
4,-0.12717731297016144,-0.08191849291324615,-0.4191998541355133,-0.8669407367706299,0.4511633515357971,-1.0317515134811401,0.19217467308044434,0.2983052730560303
5,-0.11600415408611298,-0.052168577909469604,-0.38539019227027893,-0.8669407367706299,0.44269222021102905,-1.0673072338104248,0.19217467308044434,0.2983052730560303
6,-0.12300614267587662,-0.024261288344860077,-0.3519339859485626,-0.8669407367706299,0.4410737454891205,-1.103332757949829,0.19217467308044434,0.2983052730560303
7,-0.11744927614927292,0.0002367040142416954,-0.31882667541503906,-0.8669407367706299,0.44724923372268677,-1.1398006677627563,0.19217467308044434,0.2983052730560303
8,-0.13203224539756775,0.021753527224063873,-0.28653982281684875,-0.8669407367706299,0.4577594995498657,-1.176604986190796,0.19217467308044434,0.2983052730560303
9,-0.12240643799304962,0.03876485675573349,-0.2551534175872803,-0.8669407367706299,0.47305193543434143,-1.2135696411132812,0.19217467308044434,0.2983052730560303
10,-0.1535337269306183,0.053319305181503296,-0.22536854445934296,-0.8669407367706299,0.48786118626594543,-1.250510334968567,0.19217467308044434,0.2983052730560303
11,-0.1199568584561348,0.06257887184619904,-0.19691437482833862,-0.8669407367706299,0.5067057609558105,-1.287194848060608,0.19217467308044434,0.2983052730560303
12,-0.18139448761940002,0.07276991009712219,-0.1711122840642929,-0.8669407367706299,0.5185694098472595,-1.3234422206878662,0.19217467308044434,0.2983052730560303
13,-0.1273292750120163,0.07577977329492569,-0.14664451777935028,-0.8669407367706299,0.5388596653938293,-1.358986735343933,0.19217467308044434,0.2983052730560303
14,-0.18563006818294525,0.08356957137584686,-0.1256837546825409,-0.8669407367706299,0.5463604927062988,-1.3937263488769531,0.19217467308044434,0.2983052730560303
15,-0.15147258341312408,0.08476951718330383,-0.10632488131523132,-0.8669407367706299,0.5635356307029724,-1.4273751974105835,0.19217467308044434,0.2983052730560303
16,-0.18575938045978546,0.08999963849782944,-0.09033618867397308,-0.8669407367706299,0.570527195930481,-1.459879994392395,0.19217467308044434,0.2983052730560303
17,-0.16757109761238098,0.0914774239063263,-0.0763549953699112,-0.8669407367706299,0.5833595991134644,-1.4910112619400024,0.19217467308044434,0.2983052730560303
18,-0.18895559012889862,0.09559950977563858,-0.06533388793468475,-0.8669407367706299,0.5896189212799072,-1.520717740058899,0.19217467308044434,0.2983052730560303
19,-0.17691192030906677,0.09746202826499939,-0.056292857974767685,-0.8669407367706299,0.5995820760726929,-1.5488402843475342,0.19217467308044434,0.2983052730560303
20,-0.19251328706741333,0.10125407576560974,-0.0497409887611866,-0.8669407367706299,0.6047670245170593,-1.5753439664840698,0.19217467308044434,0.2983052730560303
21,-0.18220552802085876,0.1033133715391159,-0.04483819752931595,-0.8669407367706299,0.612887442111969,-1.600122094154358,0.19217467308044434,0.2983052730560303
22,-0.19548919796943665,0.10696911811828613,-0.04191217198967934,-0.8669407367706299,0.6169193983078003,-1.6231690645217896,0.19217467308044434,0.2983052730560303
23,-0.18479587137699127,0.1089615523815155,-0.04016537964344025,-0.8669407367706299,0.6238089203834534,-1.644419550895691,0.19217467308044434,0.2983052730560303
24,-0.1979375034570694,0.11247701942920685,-0.03990344703197479,-0.8669407367706299,0.6266305446624756,-1.663903832435608,0.19217467308044434,0.2983052730560303
25,-0.18533110618591309,0.11414141952991486,-0.04031991958618164,-0.8669407367706299,0.6327293515205383,-1.6815894842147827,0.19217467308044434,0.2983052730560303
26,-0.2002863883972168,0.1175081878900528,-0.04181361943483353,-0.8669407367706299,0.6342166662216187,-1.6975464820861816,0.19217467308044434,0.2983052730560303
27,-0.18405278027057648,0.11860370635986328,-0.043508026748895645,-0.8669407367706299,0.6399596333503723,-1.7117650508880615,0.19217467308044434,0.2983052730560303
28,-0.20312412083148956,0.12189090251922607,-0.04600323364138603,-0.8669407367706299,0.6398666501045227,-1.7243582010269165,0.19217467308044434,0.2983052730560303
29,-0.18095025420188904,0.12217575311660767,-0.048254627734422684,-0.8669407367706299,0.6458020806312561,-1.7353243827819824,0.19217467308044434,0.2983052730560303
30,-0.2069835662841797,0.12556301057338715,-0.0511932298541069,-0.8669407367706299,0.6437039375305176,-1.7448241710662842,0.19217467308044434,0.2983052730560303
31,-0.1761673241853714,0.12477557361125946,-0.05345895141363144,-0.8669407367706299,0.6505540013313293,-1.7528431415557861,0.19217467308044434,0.2983052730560303
32,-0.21164987981319427,0.12852348387241364,-0.05647282302379608,-0.8669407367706299,0.6458833813667297,-1.7595994472503662,0.19217467308044434,0.2983052730560303
33,-0.17104455828666687,0.12645819783210754,-0.05839162319898605,-0.8669407367706299,0.6543731689453125,-1.765038251876831,0.19217467308044434,0.2983052730560303
34,-0.215095654129982,0.13071410357952118,-0.061246149241924286,-0.8669407367706299,0.6468279361724854,-1.7694483995437622,0.19217467308044434,0.2983052730560303
35,-0.16849568486213684,0.127494677901268,-0.06265954673290253,-0.8669407367706299,0.6570149660110474,-1.772708773612976,0.19217467308044434,0.2983052730560303
36,-0.21478724479675293,0.13197363913059235,-0.06517060101032257,-0.8669407367706299,0.647348940372467,-1.775181770324707,0.19217467308044434,0.2983052730560303
37,-0.16988927125930786,0.12821857631206512,-0.06611081957817078,-0.8669407367706299,0.658061146736145,-1.7766790390014648,0.19217467308044434,0.2983052730560303
38,-0.21129681169986725,0.13232026994228363,-0.06814112514257431,-0.8669407367706299,0.647983968257904,-1.7776075601577759,0.19217467308044434,0.2983052730560303
39,-0.173268124461174,0.12869210541248322,-0.06871353834867477,-0.8669407367706299,0.6577320694923401,-1.777747631072998,0.19217467308044434,0.2983052730560303
40,-0.2071380317211151,0.1320587545633316,-0.07023438811302185,-0.8669407367706299,0.648542046546936,-1.777499794960022,0.19217467308044434,0.2983052730560303
41,-0.1764943152666092,0.1288297027349472,-0.07052246481180191,-0.8669407367706299,0.656704843044281,-1.7766530513763428,0.19217467308044434,0.2983052730560303
42,-0.2037566602230072,0.13148118555545807,-0.07160043716430664,-0.8669407367706299,0.6487225294113159,-1.7755670547485352,0.19217467308044434,0.2983052730560303
43,-0.17881649732589722,0.1286323368549347,-0.07166480273008347,-0.8669407367706299,0.655458927154541,-1.7740548849105835,0.19217467308044434,0.2983052730560303
44,-0.20141911506652832,0.1307552307844162,-0.07240407913923264,-0.8669407367706299,0.6484706401824951,-1.7724277973175049,0.19217467308044434,0.2983052730560303
45,-0.18024207651615143,0.12817837297916412,-0.07229827344417572,-0.8669407367706299,0.6542102098464966,-1.7705188989639282,0.19217467308044434,0.2983052730560303
46,-0.1999765932559967,0.12997683882713318,-0.07280326634645462,-0.8669407367706299,0.6478738188743591,-1.7685986757278442,0.19217467308044434,0.2983052730560303
47,-0.18094678223133087,0.12756052613258362,-0.07257553189992905,-0.8669407367706299,0.6530548930168152,-1.7665094137191772,0.19217467308044434,0.2983052730560303
48,-0.1992453783750534,0.12921179831027985,-0.07293618470430374,-0.8669407367706299,0.647041916847229,-1.7644931077957153,0.19217467308044434,0.2983052730560303
49,-0.18107092380523682,0.12685583531856537,-0.07262538373470306,-0.8669407367706299,0.6520525813102722,-1.7623900175094604,0.19217467308044434,0.2983052730560303
50,-0.1991066038608551,0.12851101160049438,-0.07291385531425476,-0.8669407367706299,0.6460601091384888,-1.7604258060455322,0.19217467308044434,0.2983052730560303
51,-0.1806836724281311,0.12611818313598633,-0.07254592329263687,-0.8669407367706299,0.6512534618377686,-1.7584288120269775,0.19217467308044434,0.2983052730560303
52,-0.19951358437538147,0.12791475653648376,-0.07281828671693802,-0.8669407367706299,0.644977867603302,-1.7566215991973877,0.19217467308044434,0.2983052730560303
53,-0.1797921061515808,0.1253787875175476,-0.07240495830774307,-0.8669407367706299,0.6507067084312439,-1.754809856414795,0.19217467308044434,0.2983052730560303
54,-0.20047502219676971,0.1274549514055252,-0.0727049708366394,-0.8669407367706299,0.6438102722167969,-1.753226637840271,0.19217467308044434,0.2983052730560303
55,-0.1783641129732132,0.12464962899684906,-0.07224435359239578,-0.8669407367706299,0.6504616737365723,-1.7516438961029053,0.19217467308044434,0.2983052730560303
56,-0.20202401280403137,0.1271558403968811,-0.07260772585868835,-0.8669407367706299,0.6425440907478333,-1.7503215074539185,0.19217467308044434,0.2983052730560303
57,-0.17637066543102264,0.12392903119325638,-0.07208625227212906,-0.8669407367706299,0.6505639553070068,-1.748983383178711,0.19217467308044434,0.2983052730560303
58,-0.20415690541267395,0.1270313262939453,-0.07254357635974884,-0.8669407367706299,0.6411533355712891,-1.7479349374771118,0.19217467308044434,0.2983052730560303
59,-0.1738688349723816,0.1232122853398323,-0.07194015383720398,-0.8669407367706299,0.6510382294654846,-1.7468345165252686,0.19217467308044434,0.2983052730560303
60,-0.20672431588172913,0.1270759254693985,-0.07251651585102081,-0.8669407367706299,0.6396319270133972,-1.7460558414459229,0.19217467308044434,0.2983052730560303
61,-0.17113034427165985,0.12250976264476776,-0.07181050628423691,-0.8669407367706299,0.651848316192627,-1.745171070098877,0.19217467308044434,0.2983052730560303
62,-0.2093016654253006,0.1272478699684143,-0.07251905649900436,-0.8669407367706299,0.6380504965782166,-1.744645357131958,0.19217467308044434,0.2983052730560303
63,-0.16872958838939667,0.12186980247497559,-0.07170357555150986,-0.8669407367706299,0.6528396606445312,-1.7439453601837158,0.19217467308044434,0.2983052730560303
64,-0.21119892597198486,0.12745650112628937,-0.0725340023636818,-0.8669407367706299,0.6366081237792969,-1.743645429611206,0.19217467308044434,0.2983052730560303
65,-0.16738194227218628,0.12138182669878006,-0.07162965089082718,-0.8669407367706299,0.6537238955497742,-1.7430979013442993,0.19217467308044434,0.2983052730560303
66,-0.21179285645484924,0.12758593261241913,-0.07254110276699066,-0.8669407367706299,0.6355931162834167,-1.7429872751235962,0.19217467308044434,0.2983052730560303
67,-0.16748878359794617,0.121131032705307,-0.07159688323736191,-0.8669407367706299,0.6541942358016968,-1.7425642013549805,0.19217467308044434,0.2983052730560303
68,-0.2109788954257965,0.12756213545799255,-0.07252854108810425,-0.8669407367706299,0.6352103352546692,-1.7425992488861084,0.19217467308044434,0.2983052730560303
69,-0.16884277760982513,0.1211303174495697,-0.07160258293151855,-0.8669407367706299,0.6541243195533752,-1.742279052734375,0.19217467308044434,0.2983052730560303
70,-0.20920541882514954,0.12739726901054382,-0.07249835133552551,-0.8669407367706299,0.6354280114173889,-1.7424150705337524,0.19217467308044434,0.2983052730560303
71,-0.17085395753383636,0.12131115049123764,-0.07163374871015549,-0.8669407367706299,0.6536305546760559,-1.742179274559021,0.19217467308044434,0.2983052730560303
72,-0.20708538591861725,0.12715910375118256,-0.07246016710996628,-0.8669407367706299,0.6360270380973816,-1.742377758026123,0.19217467308044434,0.2983052730560303
73,-0.17296406626701355,0.12157716602087021,-0.07167531549930573,-0.8669407367706299,0.6529409289360046,-1.7422089576721191,0.19217467308044434,0.2983052730560303
74,-0.20506906509399414,0.12691545486450195,-0.07242276519536972,-0.8669407367706299,0.6367632746696472,-1.7424408197402954,0.19217467308044434,0.2983052730560303
75,-0.17483901977539062,0.12185322493314743,-0.07171641290187836,-0.8669407367706299,0.652249276638031,-1.7423207759857178,0.19217467308044434,0.2983052730560303
76,-0.203379288315773,0.1267075091600418,-0.07239101827144623,-0.8669407367706299,0.6374663710594177,-1.7425661087036133,0.19217467308044434,0.2983052730560303
77,-0.1763433963060379,0.12209673225879669,-0.07175122946500778,-0.8669407367706299,0.6516663432121277,-1.7424781322479248,0.19217467308044434,0.2983052730560303
78,-0.2020827680826187,0.12655223906040192,-0.07236658781766891,-0.8669407367706299,0.6380481719970703,-1.7427241802215576,0.19217467308044434,0.2983052730560303
79,-0.1774550825357437,0.12228918820619583,-0.07177753001451492,-0.8669407367706299,0.6512372493743896,-1.7426533699035645,0.19217467308044434,0.2983052730560303
80,-0.20117077231407166,0.12645259499549866,-0.07234957069158554,-0.8669407367706299,0.6384737491607666,-1.7428927421569824,0.19217467308044434,0.2983052730560303
81,-0.17819815874099731,0.12242487818002701,-0.07179497182369232,-0.8669407367706299,0.6509718298912048,-1.7428269386291504,0.19217467308044434,0.2983052730560303
82,-0.20061033964157104,0.12640592455863953,-0.07233960181474686,-0.8669407367706299,0.6387343406677246,-1.7430561780929565,0.19217467308044434,0.2983052730560303
83,-0.17860645055770874,0.12250304967164993,-0.07180391997098923,-0.8669407367706299,0.6508667469024658,-1.7429862022399902,0.19217467308044434,0.2983052730560303
84,-0.20036862790584564,0.12640899419784546,-0.07233631610870361,-0.8669407367706299,0.6388298869132996,-1.7432047128677368,0.19217467308044434,0.2983052730560303
85,-0.17870791256427765,0.122524194419384,-0.07180488854646683,-0.8669407367706299,0.6509178280830383,-1.7431236505508423,0.19217467308044434,0.2983052730560303
86,-0.2004222422838211,0.12645985186100006,-0.07233961671590805,-0.8669407367706299,0.6387606859207153,-1.743333101272583,0.19217467308044434,0.2983052730560303
87,-0.17852014303207397,0.12248815596103668,-0.071798175573349,-0.8669407367706299,0.6511242985725403,-1.7432359457015991,0.19217467308044434,0.2983052730560303
88,-0.20075863599777222,0.1265588402748108,-0.07234958559274673,-0.8669407367706299,0.638523519039154,-1.743439793586731,0.19217467308044434,0.2983052730560303
89,-0.17805087566375732,0.12239353358745575,-0.0717838853597641,-0.8669407367706299,0.6514915227890015,-1.7433223724365234,0.19217467308044434,0.2983052730560303
90,-0.2013733685016632,0.1267080456018448,-0.07236652076244354,-0.8669407367706299,0.6381112933158875,-1.743525505065918,0.19217467308044434,0.2983052730560303
91,-0.17730294167995453,0.1222376823425293,-0.07176186144351959,-0.8669407367706299,0.6520282626152039,-1.7433844804763794,0.19217467308044434,0.2983052730560303
92,-0.2022632509469986,0.12691067159175873,-0.07239069789648056,-0.8669407367706299,0.6375154852867126,-1.7435929775238037,0.19217467308044434,0.2983052730560303
93,-0.1762828379869461,0.12201818078756332,-0.07173193246126175,-0.8669407367706299,0.6527439951896667,-1.7434250116348267,0.19217467308044434,0.2983052730560303
94,-0.20341525971889496,0.12716928124427795,-0.07242222875356674,-0.8669407367706299,0.6367304921150208,-1.743645429611206,0.19217467308044434,0.2983052730560303
95,-0.1750144511461258,0.1217343881726265,-0.07169421762228012,-0.8669407367706299,0.6536411643028259,-1.7434470653533936,0.19217467308044434,0.2983052730560303
96,-0.20479077100753784,0.12748271226882935,-0.0724606141448021,-0.8669407367706299,0.6357633471488953,-1.743686556816101,0.19217467308044434,0.2983052730560303
97,-0.17355705797672272,0.12139149755239487,-0.07164956629276276,-0.8669407367706299,0.6547037959098816,-1.7434545755386353,0.19217467308044434,0.2983052730560303
98,-0.2063055783510208,0.12784232199192047,-0.0725042000412941,-0.8669407367706299,0.6346463561058044,-1.7437198162078857,0.19217467308044434,0.2983052730560303
99,-0.17202377319335938,0.12100472301244736,-0.07160027325153351,-0.8669407367706299,0.6558827757835388,-1.7434512376785278,0.19217467308044434,0.2983052730560303
100,-0.20781616866588593,0.12822727859020233,-0.07254977524280548,-0.8669407367706299,0.6334516406059265,-1.7437474727630615,0.19217467308044434,0.2983052730560303
101,-0.1705881506204605,0.120603546500206,-0.07155054062604904,-0.8669407367706299,0.6570833325386047,-1.7434409856796265,0.19217467308044434,0.2983052730560303
102,-0.20912513136863708,0.12860243022441864,-0.07259240001440048,-0.8669407367706299,0.6322985291481018,-1.7437705993652344,0.19217467308044434,0.2983052730560303
103,-0.16946204006671906,0.12023191899061203,-0.07150627672672272,-0.8669407367706299,0.6581662893295288,-1.7434278726577759,0.19217467308044434,0.2983052730560303
104,-0.21002143621444702,0.12892229855060577,-0.07262611389160156,-0.8669407367706299,0.631339967250824,-1.7437889575958252,0.19217467308044434,0.2983052730560303
105,-0.16883796453475952,0.11994041502475739,-0.07147396355867386,-0.8669407367706299,0.6589754223823547,-1.7434152364730835,0.19217467308044434,0.2983052730560303
106,-0.2103496789932251,0.1291424185037613,-0.07264579087495804,-0.8669407367706299,0.6307215690612793,-1.743801236152649,0.19217467308044434,0.2983052730560303
107,-0.16881811618804932,0.1197708398103714,-0.07145853340625763,-0.8669407367706299,0.6593884825706482,-1.7434056997299194,0.19217467308044434,0.2983052730560303
108,-0.2100709080696106,0.12923526763916016,-0.0726490169763565,-0.8669407367706299,0.6305280327796936,-1.7438058853149414,0.19217467308044434,0.2983052730560303
109,-0.16937491297721863,0.11974029242992401,-0.07146142423152924,-0.8669407367706299,0.659365713596344,-1.7434004545211792,0.19217467308044434,0.2983052730560303
110,-0.2092735767364502,0.1292000263929367,-0.07263694703578949,-0.8669407367706299,0.6307507157325745,-1.7438029050827026,0.19217467308044434,0.2983052730560303
111,-0.170370414853096,0.11983609199523926,-0.07148023694753647,-0.8669407367706299,0.6589613556861877,-1.7433992624282837,0.19217467308044434,0.2983052730560303
112,-0.2081286609172821,0.12906071543693542,-0.07261355221271515,-0.8669407367706299,0.6312985420227051,-1.7437928915023804,0.19217467308044434,0.2983052730560303
113,-0.17161709070205688,0.12002355605363846,-0.07151002436876297,-0.8669407367706299,0.6582928895950317,-1.7434006929397583,0.19217467308044434,0.2983052730560303
114,-0.20682422816753387,0.12885454297065735,-0.07258385419845581,-0.8669407367706299,0.6320409774780273,-1.7437779903411865,0.19217467308044434,0.2983052730560303
115,-0.17293834686279297,0.12026067823171616,-0.07154516130685806,-0.8669407367706299,0.6574939489364624,-1.743403434753418,0.19217467308044434,0.2983052730560303
116,-0.20551741123199463,0.12861952185630798,-0.07255234569311142,-0.8669407367706299,0.6328528523445129,-1.7437604665756226,0.19217467308044434,0.2983052730560303
117,-0.17420172691345215,0.12050987035036087,-0.07158084213733673,-0.8669407367706299,0.6566776633262634,-1.7434062957763672,0.19217467308044434,0.2983052730560303
118,-0.20431528985500336,0.12838654220104218,-0.07252238690853119,-0.8669407367706299,0.6336384415626526,-1.74374258518219,0.19217467308044434,0.2983052730560303
119,-0.17532500624656677,0.12074363976716995,-0.07161372154951096,-0.8669407367706299,0.6559230089187622,-1.7434086799621582,0.19217467308044434,0.2983052730560303
