,0,1,2,3,4,5,6,7
0,-0.5502803325653076,0.9735299348831177,-0.9089038372039795,0.9795944690704346,0.7705725431442261,-0.6608778238296509,-0.7021931409835815,0.04535257816314697
1,-0.4974578022956848,0.9207073450088501,-0.8560812473297119,0.9795944690704346,0.717750072479248,-0.7137004137039185,-0.7021931409835815,0.04535257816314697
2,-0.45708900690078735,0.8790245056152344,-0.8159429430961609,0.9795944690704346,0.6789712905883789,-0.7537517547607422,-0.7021931409835815,0.04535257816314697
3,-0.4190921187400818,0.8391010165214539,-0.7781079411506653,0.9795944690704346,0.6446663737297058,-0.7914934754371643,-0.7021931409835815,0.04535257816314697
4,-0.38121047616004944,0.7986534237861633,-0.7401819229125977,0.9795944690704346,0.6136492490768433,-0.8293511867523193,-0.7021931409835815,0.04535257816314697
5,-0.34293103218078613,0.757038950920105,-0.7014613151550293,0.9795944690704346,0.5867500901222229,-0.8680688738822937,-0.7021931409835815,0.04535257816314697
6,-0.3044092059135437,0.7142212986946106,-0.6618228554725647,0.9795944690704346,0.5652259588241577,-0.9078279137611389,-0.7021931409835815,0.04535257816314697
7,-0.2661523222923279,0.6704395413398743,-0.6213919520378113,0.9795944690704346,0.5495409965515137,-0.9485805034637451,-0.7021931409835815,0.04535257816314697
8,-0.2288833111524582,0.6260578036308289,-0.5804174542427063,0.9795944690704346,0.5386433005332947,-0.9901692867279053,-0.7021931409835815,0.04535257816314697
9,-0.19344310462474823,0.5814797282218933,-0.5392176508903503,0.9795944690704346,0.5306393504142761,-1.0323700904846191,-0.7021931409835815,0.04535257816314697
10,-0.1607125699520111,0.5371078848838806,-0.49814799427986145,0.9795944690704346,0.5242933034896851,-1.0749144554138184,-0.7021931409835815,0.04535257816314697
11,-0.1315668672323227,0.49333927035331726,-0.45757463574409485,0.9795944690704346,0.5195295214653015,-1.117516279220581,-0.7021931409835815,0.04535257816314697
12,-0.10683447867631912,0.4505685865879059,-0.41785362362861633,0.9795944690704346,0.5166905522346497,-1.1598963737487793,-0.7021931409835815,0.04535257816314697
13,-0.08721213787794113,0.4091777503490448,-0.37931716442108154,0.9795944690704346,0.5159739255905151,-1.2017948627471924,-0.7021931409835815,0.04535257816314697
14,-0.0731486976146698,0.36951887607574463,-0.34226393699645996,0.9795944690704346,0.5174460411071777,-1.2429757118225098,-0.7021931409835815,0.04535257816314697
15,-0.06475412845611572,0.3319013714790344,-0.306952565908432,0.9795944690704346,0.5210340023040771,-1.2832283973693848,-0.7021931409835815,0.04535257816314697
16,-0.06176815554499626,0.2965831160545349,-0.2735987901687622,0.9795944690704346,0.5265272259712219,-1.3223680257797241,-0.7021931409835815,0.04535257816314697
17,-0.06360358744859695,0.26376616954803467,-0.24237540364265442,0.9795944690704346,0.5336095690727234,-1.360233187675476,-0.7021931409835815,0.04535257816314697
18,-0.0694473385810852,0.23359553515911102,-0.21341389417648315,0.9795944690704346,0.5419001579284668,-1.396684169769287,-0.7021931409835815,0.04535257816314697
19,-0.07838070392608643,0.2061607539653778,-0.18680599331855774,0.9795944690704346,0.5510098934173584,-1.4316004514694214,-0.7021931409835815,0.04535257816314697
20,-0.08948516100645065,0.18149888515472412,-0.16260512173175812,0.9795944690704346,0.5605682730674744,-1.4648799896240234,-0.7021931409835815,0.04535257816314697
21,-0.10191527754068375,0.15959897637367249,-0.14082756638526917,0.9795944690704346,0.5702635049819946,-1.4964383840560913,-0.7021931409835815,0.04535257816314697
22,-0.11494028568267822,0.14040745794773102,-0.12145411968231201,0.9795944690704346,0.5798220634460449,-1.5262094736099243,-0.7021931409835815,0.04535257816314697
23,-0.12795892357826233,0.12383433431386948,-0.10443253815174103,0.9795944690704346,0.589059054851532,-1.5541447401046753,-0.7021931409835815,0.04535257816314697
24,-0.1405019760131836,0.1097598522901535,-0.08968091011047363,0.9795944690704346,0.5977808237075806,-1.5802134275436401,-0.7021931409835815,0.04535257816314697
25,-0.1522195041179657,0.09804113954305649,-0.07709184288978577,0.9795944690704346,0.6059555411338806,-1.6044009923934937,-0.7021931409835815,0.04535257816314697
26,-0.16287590563297272,0.08851853013038635,-0.06653737276792526,0.9795944690704346,0.6133533716201782,-1.6267105340957642,-0.7021931409835815,0.04535257816314697
27,-0.17231802642345428,0.08102124184370041,-0.057873569428920746,0.9795944690704346,0.6202701926231384,-1.6471576690673828,-0.7021931409835815,0.04535257816314697
28,-0.1804949790239334,0.07537166774272919,-0.05094600468873978,0.9795944690704346,0.625958263874054,-1.6657770872116089,-0.7021931409835815,0.04535257816314697
29,-0.1873648464679718,0.07139109820127487,-0.04559274762868881,0.9795944690704346,0.6320789456367493,-1.6826058626174927,-0.7021931409835815,0.04535257816314697
30,-0.19305606186389923,0.06889748573303223,-0.041651684790849686,0.9795944690704346,0.6348171830177307,-1.6977163553237915,-0.7021931409835815,0.04535257816314697
31,-0.19744455814361572,0.0677228718996048,-0.038955897092819214,0.9795944690704346,0.6433462500572205,-1.7111351490020752,-0.7021931409835815,0.04535257816314697
32,-0.20112313330173492,0.06767511367797852,-0.037355925887823105,0.9795944690704346,0.635423481464386,-1.7230325937271118,-0.7021931409835815,0.04535257816314697
33,-0.20298375189304352,0.06864526122808456,-0.03667362779378891,0.9795944690704346,0.6662120223045349,-1.733251929283142,-0.7021931409835815,0.04535257816314697
34,-0.20622660219669342,0.07033348083496094,-0.036825552582740784,0.9795944690704346,0.603102445602417,-1.7424826622009277,-0.7021931409835815,0.04535257816314697
35,-0.20352138578891754,0.0729297325015068,-0.03751784563064575,0.9795944690704346,0.7169555425643921,-1.7493681907653809,-0.7021931409835815,0.04535257816314697
36,-0.20958311855793,0.07566387206315994,-0.03893892467021942,0.9795944690704346,0.5987496376037598,-1.7567932605743408,-0.7021931409835815,0.04535257816314697
37,-0.20461688935756683,0.0791887417435646,-0.040518682450056076,0.9795944690704346,0.6820765733718872,-1.7611769437789917,-0.7021931409835815,0.04535257816314697
38,-0.20687122642993927,0.0827791839838028,-0.042608849704265594,0.9795944690704346,0.6373799443244934,-1.7658517360687256,-0.7021931409835815,0.04535257816314697
39,-0.20457014441490173,0.08667609095573425,-0.044803686439991,0.9795944690704346,0.6623084545135498,-1.7688465118408203,-0.7021931409835815,0.04535257816314697
40,-0.20441044867038727,0.09060615301132202,-0.04719392582774162,0.9795944690704346,0.6494220495223999,-1.77140474319458,-0.7021931409835815,0.04535257816314697
41,-0.20283125340938568,0.09457129240036011,-0.04961263760924339,0.9795944690704346,0.6569783091545105,-1.7729955911636353,-0.7021931409835815,0.04535257816314697
42,-0.20190604031085968,0.09845741838216782,-0.052052780985832214,0.9795944690704346,0.6526274085044861,-1.7740557193756104,-0.7021931409835815,0.04535257816314697
43,-0.2005113810300827,0.10222405940294266,-0.05443350225687027,0.9795944690704346,0.6550436615943909,-1.7744709253311157,-0.7021931409835815,0.04535257816314697
44,-0.19937944412231445,0.10581102967262268,-0.05673270672559738,0.9795944690704346,0.653144896030426,-1.7744405269622803,-0.7021931409835815,0.04535257816314697
45,-0.19810812175273895,0.10918334126472473,-0.0589074082672596,0.9795944690704346,0.6538070440292358,-1.773966670036316,-0.7021931409835815,0.04535257816314697
46,-0.19699421525001526,0.11230853945016861,-0.060941264033317566,0.9795944690704346,0.652687132358551,-1.7731659412384033,-0.7021931409835815,0.04535257816314697
47,-0.1958732157945633,0.11516633629798889,-0.06281309574842453,0.9795944690704346,0.6526724100112915,-1.7720719575881958,-0.7021931409835815,0.04535257816314697
48,-0.19487959146499634,0.11774329841136932,-0.06451606750488281,0.9795944690704346,0.6518351435661316,-1.770763874053955,-0.7021931409835815,0.04535257816314697
49,-0.19393505156040192,0.12003357708454132,-0.06604330986738205,0.9795944690704346,0.6515434384346008,-1.7692800760269165,-0.7021931409835815,0.04535257816314697
50,-0.1931053251028061,0.1220378577709198,-0.06739649921655655,0.9795944690704346,0.6508369445800781,-1.7676780223846436,-0.7021931409835815,0.04535257816314697
51,-0.19234614074230194,0.12376196682453156,-0.06857829540967941,0.9795944690704346,0.6504397392272949,-1.7659918069839478,-0.7021931409835815,0.04535257816314697
52,-0.1916908174753189,0.12521672248840332,-0.0695965364575386,0.9795944690704346,0.649819016456604,-1.76426362991333,-0.7021931409835815,0.04535257816314697
53,-0.19110986590385437,0.12641625106334686,-0.07045985013246536,0.9795944690704346,0.6493989825248718,-1.7625205516815186,-0.7021931409835815,0.04535257816314697
54,-0.19062021374702454,0.1273779422044754,-0.07117985188961029,0.9795944690704346,0.6488524079322815,-1.7607927322387695,-0.7021931409835815,0.04535257816314697
55,-0.19019944965839386,0.12812094390392303,-0.07176829874515533,0.9795944690704346,0.6484520435333252,-1.7590998411178589,-0.7021931409835815,0.04535257816314697
56,-0.18985587358474731,0.12866613268852234,-0.07223847508430481,0.9795944690704346,0.6479769945144653,-1.7574626207351685,-0.7021931409835815,0.04535257816314697
57,-0.1895710527896881,0.12903481721878052,-0.07260321080684662,0.9795944690704346,0.6476183533668518,-1.7558938264846802,-0.7021931409835815,0.04535257816314697
58,-0.189348965883255,0.12924879789352417,-0.07287581264972687,0.9795944690704346,0.6472131609916687,-1.7544066905975342,-0.7021931409835815,0.04535257816314697
59,-0.18917378783226013,0.12932933866977692,-0.07306869328022003,0.9795944690704346,0.6469067335128784,-1.7530081272125244,-0.7021931409835815,0.04535257816314697
60,-0.18904751539230347,0.12929721176624298,-0.07319407910108566,0.9795944690704346,0.6465682983398438,-1.7517054080963135,-0.7021931409835815,0.04535257816314697
61,-0.18895626068115234,0.1291719675064087,-0.0732630044221878,0.9795944690704346,0.6463172435760498,-1.7505006790161133,-0.7021931409835815,0.04535257816314697
62,-0.1889014095067978,0.12897208333015442,-0.07328596711158752,0.9795944690704346,0.6460404396057129,-1.749396800994873,-0.7021931409835815,0.04535257816314697
63,-0.18887072801589966,0.12871436774730682,-0.07327212393283844,0.9795944690704346,0.6458436250686646,-1.7483923435211182,-0.7021931409835815,0.04535257816314697
64,-0.18886585533618927,0.12841421365737915,-0.07322996109724045,0.9795944690704346,0.6456215977668762,-1.7474868297576904,-0.7021931409835815,0.04535257816314697
65,-0.18887574970722198,0.1280852109193802,-0.07316657900810242,0.9795944690704346,0.6454753875732422,-1.7466763257980347,-0.7021931409835815,0.04535257816314697
66,-0.18890300393104553,0.12773939967155457,-0.07308845221996307,0.9795944690704346,0.6453002095222473,-1.7459582090377808,-0.7021931409835815,0.04535257816314697
67,-0.18893730640411377,0.12738695740699768,-0.0730007141828537,0.9795944690704346,0.6451996564865112,-1.7453268766403198,-0.7021931409835815,0.04535257816314697
68,-0.18898260593414307,0.1270366907119751,-0.07290799915790558,0.9795944690704346,0.6450625658035278,-1.7447783946990967,-0.7021931409835815,0.04535257816314697
69,-0.18902890384197235,0.1266956478357315,-0.07281371206045151,0.9795944690704346,0.6450026631355286,-1.7443060874938965,-0.7021931409835815,0.04535257816314697
70,-0.18908192217350006,0.1263696253299713,-0.07272093743085861,0.9795944690704346,0.644894540309906,-1.7439054250717163,-0.7021931409835815,0.04535257816314697
71,-0.18913120031356812,0.12606292963027954,-0.07263164967298508,0.9795944690704346,0.6448707580566406,-1.7435691356658936,-0.7021931409835815,0.04535257816314697
72,-0.1891847848892212,0.12577886879444122,-0.07254771888256073,0.9795944690704346,0.6447818279266357,-1.7432928085327148,-0.7021931409835815,0.04535257816314697
73,-0.18923093378543854,0.12551948428153992,-0.07246997952461243,0.9795944690704346,0.6447916030883789,-1.7430689334869385,-0.7021931409835815,0.04535257816314697
74,-0.18928082287311554,0.12528614699840546,-0.07239945232868195,0.9795944690704346,0.6447111368179321,-1.7428938150405884,-0.7021931409835815,0.04535257816314697
75,-0.18931996822357178,0.12507911026477814,-0.0723361223936081,0.9795944690704346,0.6447546482086182,-1.7427597045898438,-0.7021931409835815,0.04535257816314697
76,-0.18936412036418915,0.12489836663007736,-0.07228049635887146,0.9795944690704346,0.6446696519851685,-1.7426639795303345,-0.7021931409835815,0.04535257816314697
77,-0.189394012093544,0.12474292516708374,-0.07223189622163773,0.9795944690704346,0.644751787185669,-1.7425987720489502,-0.7021931409835815,0.04535257816314697
78,-0.18943238258361816,0.12461186945438385,-0.07219060510396957,0.9795944690704346,0.6446453332901001,-1.7425631284713745,-0.7021931409835815,0.04535257816314697
79,-0.189451664686203,0.12450334429740906,-0.07215546071529388,0.9795944690704346,0.6447787284851074,-1.7425482273101807,-0.7021931409835815,0.04535257816314697
80,-0.18948578834533691,0.12441600114107132,-0.07212680578231812,0.9795944690704346,0.644624650478363,-1.7425557374954224,-0.7021931409835815,0.04535257816314697
81,-0.18949303030967712,0.12434744089841843,-0.07210295647382736,0.9795944690704346,0.6448361277580261,-1.7425752878189087,-0.7021931409835815,0.04535257816314697
82,-0.18952633440494537,0.12429629266262054,-0.0720847025513649,0.9795944690704346,0.6445910930633545,-1.742612361907959,-0.7021931409835815,0.04535257816314697
83,-0.1895190179347992,0.12425976246595383,-0.0720696970820427,0.9795944690704346,0.64493328332901,-1.7426530122756958,-0.7021931409835815,0.04535257816314697
84,-0.1895575076341629,0.12423688918352127,-0.07205960154533386,0.9795944690704346,0.6445191502571106,-1.7427090406417847,-0.7021931409835815,0.04535257816314697
85,-0.18953010439872742,0.12422444671392441,-0.07205092161893845,0.9795944690704346,0.6450954675674438,-1.7427598237991333,-0.7021931409835815,0.04535257816314697
86,-0.18958447873592377,0.12422233074903488,-0.07204703241586685,0.9795944690704346,0.6443635821342468,-1.7428275346755981,-0.7021931409835815,0.04535257816314697
87,-0.18952493369579315,0.12422657757997513,-0.0720423012971878,0.9795944690704346,0.6453798413276672,-1.7428784370422363,-0.7021931409835815,0.04535257816314697
88,-0.1896151900291443,0.12423868477344513,-0.07204324007034302,0.9795944690704346,0.644034743309021,-1.7429543733596802,-0.7021931409835815,0.04535257816314697
89,-0.18949761986732483,0.12425313144922256,-0.07204006612300873,0.9795944690704346,0.6459115743637085,-1.7429953813552856,-0.7021931409835815,0.04535257816314697
90,-0.18966390192508698,0.12427431344985962,-0.07204537093639374,0.9795944690704346,0.6433437466621399,-1.7430815696716309,-0.7021931409835815,0.04535257816314697
91,-0.18943242728710175,0.12429329007863998,-0.07204096019268036,0.9795944690704346,0.6469663381576538,-1.7430996894836426,-0.7021931409835815,0.04535257816314697
92,-0.18975888192653656,0.1243201345205307,-0.07205173373222351,0.9795944690704346,0.6418773531913757,-1.7432069778442383,-0.7021931409835815,0.04535257816314697
93,-0.18929119408130646,0.12433845549821854,-0.07204193621873856,0.9795944690704346,0.6491603255271912,-1.7431796789169312,-0.7021931409835815,0.04535257816314697
94,-0.18996140360832214,0.12436988949775696,-0.07206222414970398,0.9795944690704346,0.6387099623680115,-1.74333655834198,-0.7021931409835815,0.04535257816314697
95,-0.18898476660251617,0.1243816688656807,-0.07203920930624008,0.9795944690704346,0.6538756489753723,-1.7432178258895874,-0.7021931409835815,0.04535257816314697
96,-0.1904081404209137,0.12442029267549515,-0.07207927107810974,0.9795944690704346,0.6318093538284302,-1.7434911727905273,-0.7021931409835815,0.04535257816314697
97,-0.18831418454647064,0.12441648542881012,-0.07202645391225815,0.9795944690704346,0.6639664173126221,-1.7431806325912476,-0.7021931409835815,0.04535257816314697
98,-0.19137820601463318,0.1244715228676796,-0.07210954278707504,0.9795944690704346,0.6176143884658813,-1.7437156438827515,-0.7021931409835815,0.04535257816314697
99,-0.18694181740283966,0.12443490326404572,-0.07199298590421677,0.9795944690704346,0.6825300455093384,-1.7430155277252197,-0.7021931409835815,0.04535257816314697
100,-0.19312727451324463,0.12452590465545654,-0.07216037064790726,0.9795944690704346,0.5970508456230164,-1.7440465688705444,-0.7021931409835815,0.04535257816314697
101,-0.18508899211883545,0.1244303360581398,-0.07193830609321594,0.9795944690704346,0.6988226771354675,-1.7427767515182495,-0.7021931409835815,0.04535257816314697
102,-0.1943841129541397,0.12457244098186493,-0.07220205664634705,0.9795944690704346,0.5924690961837769,-1.7442576885223389,-0.7021931409835815,0.04535257816314697
103,-0.18504583835601807,0.12443120777606964,-0.07192433625459671,0.9795944690704346,0.6899444460868835,-1.742838740348816,-0.7021931409835815,0.04535257816314697
104,-0.19326548278331757,0.124577097594738,-0.07217451930046082,0.9795944690704346,0.6094673871994019,-1.7440893650054932,-0.7021931409835815,0.04535257816314697
105,-0.1866692155599594,0.12446793168783188,-0.07197079062461853,0.9795944690704346,0.6716407537460327,-1.7431169748306274,-0.7021931409835815,0.04535257816314697
106,-0.1916993111371994,0.12456602603197098,-0.07212994992733002,0.9795944690704346,0.6252508759498596,-1.743867039680481,-0.7021931409835815,0.04535257816314697
107,-0.18795719742774963,0.12450451403856277,-0.07201399654150009,0.9795944690704346,0.6593949198722839,-1.7433209419250488,-0.7021931409835815,0.04535257816314697
108,-0.19072385132312775,0.12456141412258148,-0.07210326939821243,0.9795944690704346,0.6343169212341309,-1.7437306642532349,-0.7021931409835815,0.04535257816314697
109,-0.18867626786231995,0.12452872842550278,-0.07204025983810425,0.9795944690704346,0.6528202295303345,-1.7434321641921997,-0.7021931409835815,0.04535257816314697
110,-0.19020095467567444,0.12456106394529343,-0.07209005951881409,0.9795944690704346,0.6390640735626221,-1.7436567544937134,-0.7021931409835815,0.04535257816314697
111,-0.18905483186244965,0.12454309314489365,-0.07205507904291153,0.9795944690704346,0.6493874192237854,-1.7434887886047363,-0.7021931409835815,0.04535257816314697
112,-0.1899232417345047,0.1245616003870964,-0.07208368182182312,0.9795944690704346,0.6415610909461975,-1.7436153888702393,-0.7021931409835815,0.04535257816314697
113,-0.18925680220127106,0.1245509535074234,-0.07206346094608307,0.9795944690704346,0.6475561261177063,-1.743516445159912,-0.7021931409835815,0.04535257816314697
114,-0.18977200984954834,0.12456157803535461,-0.07208049297332764,0.9795944690704346,0.6429135799407959,-1.743590235710144,-0.7021931409835815,0.04535257816314697
115,-0.18936800956726074,0.12455463409423828,-0.0720682367682457,0.9795944690704346,0.6465456485748291,-1.7435290813446045,-0.7021931409835815,0.04535257816314697
116,-0.18968690931797028,0.12456067651510239,-0.07207874208688736,0.9795944690704346,0.6436722278594971,-1.7435736656188965,-0.7021931409835815,0.04535257816314697
117,-0.18943153321743011,0.12455572932958603,-0.07207094132900238,0.9795944690704346,0.6459675431251526,-1.7435338497161865,-0.7021931409835815,0.04535257816314697
118,-0.18963734805583954,0.12455905973911285,-0.07207765430212021,0.9795944690704346,0.6441131234169006,-1.7435616254806519,-0.7021931409835815,0.04535257816314697
119,-0.18946915864944458,0.12455525994300842,-0.07207243889570236,0.9795944690704346,0.6456248164176941,-1.7435346841812134,-0.7021931409835815,0.04535257816314697
